\data\
ngram 1=30
ngram 2=652
ngram 3=7741

\1-grams:
-2.6585975	<unk>	0
0	<s>	-0.33579212
-2.4284565	<w>	-0.34665006
-1.4175073	b	-0.9808627
-1.4004278	o	-1.2600714
-1.4175073	h	-0.97342825
-1.3839946	e	-1.2903919
-1.4175073	m	-0.99156684
-1.3839946	i	-1.22499
-1.4004278	a	-1.2676642
-1.4175073	n	-1.0020326
-1.4004278	</w>	-1.3528254
-1.4004278	r	-0.97413003
-1.4175073	s	-1.1535983
-1.4352862	p	-1.0173471
-1.4004278	l	-1.0187398
-1.3839946	u	-1.1507255
-1.4352862	g	-0.9434802
-1.4352862	v	-0.88981485
-1.4352862	c	-1.0036994
-1.4352862	k	-0.91345763
-1.4175073	t	-1.1218501
-1.4175073	d	-0.9990919
-1.4352862	f	-0.94408315
-1.4175073	y	-1.0788908
-1.4175073	w	-0.8324355
-1.8172531	x	-0.59251463
-1.5370733	q	-0.77152073
-1.5147178	z	-0.77026916
-1.493457	j	-0.898828

\2-grams:
-0.2674595	<s> <w>	-0.32812005
-0.01963899	</w> <w>	-3.0648773
-1.1643443	<w> b	-2.1360924
-1.5640364	b b	-1.0939568
-1.4739752	o b	-1.2085696
-1.7335306	h b	-0.6888366
-1.403016	e b	-1.1242746
-1.5122055	m b	-1.360955
-1.4166602	i b	-1.3637773
-1.3625865	a b	-1.6320881
-1.4939227	n b	-0.9365119
-1.612106	r b	-1.2427697
-1.3973141	s b	-0.9032374
-1.6059109	p b	-0.33484596
-1.4077429	l b	-0.862978
-1.272543	u b	-1.1261611
-1.6806369	g b	-0.46984297
-1.8352541	c b	-0.29486373
-1.7615389	k b	-0.56045306
-1.5108532	t b	-0.7467668
-1.5667421	d b	-0.72590387
-1.7821937	f b	-0.32807752
-1.3632876	y b	-0.7183429
-1.6723884	w b	-0.6244463
-1.5993499	x b	-0.32812005
-1.6748601	z b	-0.26397392
-1.9306941	j b	-0.24931566
-1.4219815	<w> o	-1.4692019
-1.0400394	b o	-1.4115928
-1.4296056	o o	-1.53623
-1.0652547	h o	-1.5703957
-1.4599261	e o	-1.0706784
-1.0664886	m o	-1.5119829
-1.3744005	i o	-1.9596894
-1.612413	a o	-0.43554246
-1.1926684	n o	-1.480208
-1.0589415	r o	-1.798671
-1.284349	s o	-1.4483712
-1.1019428	p o	-1.5400361
-1.1052973	l o	-1.685748
-1.5532144	u o	-0.7389313
-1.0684673	g o	-1.2035104
-0.92881304	v o	-1.1500578
-1.0798435	c o	-1.8534751
-1.0984002	k o	-0.71674657
-1.2084076	t o	-1.6547226
-1.1062819	d o	-1.3274292
-1.0702605	f o	-1.4704828
-1.3339611	y o	-0.7799207
-0.96098256	w o	-1.1189728
-1.2765535	x o	-0.54138744
-0.99668133	z o	-0.56515867
-0.70917374	j o	-0.83906245
-1.4299773	<w> h	-2.0870895
-1.9449569	b h	-0.35796428
-1.4739752	o h	-0.7988808
-1.5271549	h h	-0.5095477
-1.4820621	e h	-1.0117959
-1.822171	m h	-0.32826543
-1.7624578	i h	-0.39740855
-1.3802882	a h	-0.8166358
-1.4939227	n h	-1.0477968
-1.5031121	r h	-0.9921785
-1.28525	s h	-1.6580292
-1.2420707	p h	-1.549821
-1.5844367	l h	-0.579176
-1.4580696	u h	-0.5075382
-1.2580837	g h	-1.3101827
-1.0806379	c h	-1.7481947
-1.402977	k h	-0.7487929
-1.2470646	t h	-1.711621
-1.4695346	d h	-0.8966887
-1.7821937	f h	-0.27711296
-1.5401608	y h	-0.67120326
-1.1180028	w h	-1.3628519
-1.5993499	x h	-0.6612889
-1.6748601	z h	-0.28135535
-1.9306941	j h	-0.32812005
-1.4141303	<w> e	-1.7047949
-1.0392768	b e	-1.4961442
-1.4085433	o e	-0.80878806
-1.1039077	h e	-1.7250947
-1.3836597	e e	-1.4904488
-1.0656979	m e	-1.7430485
-1.3358909	i e	-1.7188443
-1.5027069	a e	-0.72033346
-1.1129336	n e	-1.8532891
-1.0941877	r e	-2.0927591
-1.2457855	s e	-1.7862895
-1.1213889	p e	-1.6993494
-1.0867972	l e	-1.9790438
-1.3533444	u e	-1.2355351
-1.113477	g e	-1.685451
-0.81503415	v e	-1.7809036
-1.0993263	c e	-1.7341886
-1.0738758	k e	-1.5310811
-1.2260343	t e	-2.1063962
-1.1881545	d e	-1.8452919
-1.0917096	f e	-1.3786993
-1.2148874	y e	-1.0981605
-0.9824195	w e	-1.4333539
-1.121978	x e	-0.82954645
-1.6031238	q e	-0.32812005
-0.8768889	z e	-1.2957599
-0.8812499	j e	-0.9489447
-1.4299773	<w> m	-2.048964
-1.7140071	b m	-0.47994256
-1.3726954	o m	-1.6701937
-1.3498155	h m	-1.0343848
-1.3683058	e m	-1.6936972
-1.4600714	m m	-1.4325387
-1.3199123	i m	-1.6507119
-1.3455781	a m	-1.5991762
-1.5904284	n m	-1.0795251
-1.612106	r m	-1.4373928
-1.3724684	s m	-1.6115685
-1.4484324	p m	-0.6960472
-1.6426872	l m	-1.0432519
-1.272543	u m	-1.4221337
-1.4718822	g m	-0.9059573
-2.0154085	v m	-0.32812005
-1.8352541	c m	-0.30023262
-1.4547632	k m	-0.7858945
-1.5108532	t m	-1.2999352
-1.5667421	d m	-1.1793222
-1.6822342	f m	-0.5251364
-1.3087461	y m	-0.9834293
-1.6723884	w m	-0.5565536
-1.5187768	x m	-0.37380815
-1.6748601	z m	-0.27402836
-1.4141303	<w> i	-1.8323054
-1.1001747	b i	-1.3279952
-1.3709723	o i	-1.2864561
-1.147333	h i	-1.5876795
-1.4012928	e i	-1.2468663
-1.0656979	m i	-1.6680577
-1.6001387	i i	-0.5316959
-1.3969444	a i	-1.5994316
-1.131313	n i	-1.6850259
-1.075786	r i	-1.9732955
-1.2642095	s i	-1.7579333
-1.1649735	p i	-1.4366281
-1.104485	l i	-1.9427897
-1.3766937	u i	-1.2817076
-1.2230204	g i	-1.3716083
-0.74614733	v i	-1.559003
-1.1665386	c i	-1.5585809
-1.0515771	k i	-1.3230102
-1.2452909	t i	-2.1490238
-1.1448257	d i	-1.7721444
-1.048125	f i	-1.5314456
-1.3327644	y i	-1.2920729
-1.0059619	w i	-1.4383074
-1.062361	x i	-0.8562014
-1.6031238	q i	-0.32812005
-0.96271735	z i	-0.9457693
-1.1716995	j i	-0.48294324
-1.4219815	<w> a	-1.8632526
-1.05944	b a	-1.4505007
-1.4507072	o a	-1.2288879
-1.0467517	h a	-1.6212753
-1.4021535	e a	-1.7841816
-1.028502	m a	-1.7380041
-1.3551682	i a	-1.634749
-1.7574917	a a	-0.35816514
-1.1715668	n a	-1.6703155
-1.0589415	r a	-1.9337919
-1.3256823	s a	-1.4087461
-1.0825554	p a	-1.5515299
-1.1052973	l a	-1.7888117
-1.4025578	u a	-1.2795413
-1.1144633	g a	-1.3894379
-0.81559527	v a	-1.3415911
-1.0604377	c a	-1.7781335
-1.1233116	k a	-0.9080766
-1.2663692	t a	-1.7858099
-1.1062819	d a	-1.3413101
-1.0489721	f a	-1.2498385
-1.2827795	y a	-0.8706182
-0.9397006	w a	-1.3783108
-1.1937523	x a	-0.6932792
-0.9637561	z a	-0.94858325
-0.73865324	j a	-0.76590866
-1.4299773	<w> n	-1.7323259
-1.7140071	b n	-0.40160218
-1.3379853	o n	-2.1257808
-1.4294956	h n	-0.8297611
-1.3683058	e n	-2.054048
-1.4135302	m n	-0.7669618
-1.302904	i n	-2.3000584
-1.3625865	a n	-2.0405865
-1.4939227	n n	-1.547708
-1.6789398	r n	-1.3229113
-1.7251202	s n	-1.1258047
-1.5468436	p n	-0.57981306
-1.6426872	l n	-0.8778578
-1.272543	u n	-1.6906251
-1.4198768	g n	-1.2337915
-1.7676691	v n	-0.32812005
-1.7348164	c n	-0.4676528
-1.2417201	k n	-1.2213758
-1.4759984	t n	-0.97579867
-1.4695346	d n	-0.95103276
-1.7821937	f n	-0.3901719
-1.3087461	y n	-0.9508733
-1.8022274	w n	-0.9714948
-1.5187768	x n	-0.27402836
-1.6122591	q n	-0.32812005
-1.2569906	b </w>	-1.8095857
-1.3541657	o </w>	-2.5786889
-1.1483283	h </w>	-2.741892
-1.3844862	e </w>	-3.5684352
-1.1305333	m </w>	-2.6955528
-1.3190843	i </w>	-2.3568401
-1.3447819	a </w>	-2.8219445
-1.2148478	n </w>	-3.3812826
-1.2521998	r </w>	-3.2033868
-1.2289029	s </w>	-3.846971
-1.2691568	p </w>	-2.3668818
-1.2301651	l </w>	-3.0636127
-1.3110672	u </w>	-1.8184491
-1.1659143	g </w>	-3.3623917
-1.3220658	v </w>	-1.5388173
-1.2190157	c </w>	-2.6416993
-1.1778802	k </w>	-2.5899699
-1.2084076	t </w>	-3.2544992
-1.1891851	d </w>	-3.5703034
-1.1676908	f </w>	-2.063363
-1.1577826	y </w>	-3.4095137
-1.2639624	w </w>	-2.0683265
-1.0116938	x </w>	-1.8184491
-0.69550437	q </w>	-0.72590387
-1.0323089	z </w>	-1.7672966
-1.1729498	j </w>	-0.66791195
-1.4219815	<w> r	-2.1465638
-1.0400394	b r	-1.8273537
-1.3371891	o r	-1.9246984
-1.2811577	h r	-1.4236349
-1.3675096	e r	-2.2459002
-1.5689383	m r	-0.4793381
-1.3945241	i r	-1.445038
-1.3447819	a r	-1.9589561
-1.5372103	n r	-1.0870782
-1.6092215	r r	-1.6832787
-1.5847855	s r	-0.72202563
-1.1019428	p r	-2.1610868
-1.6398941	l r	-0.7173817
-1.2355368	u r	-1.6437932
-1.0268795	g r	-1.9266078
-1.4104532	v r	-0.48290303
-1.1001571	c r	-1.9052752
-1.5109268	k r	-0.7887121
-1.2875464	t r	-2.2421803
-1.1457584	d r	-1.6470844
-1.0489721	f r	-1.7316736
-1.3620073	y r	-0.93386686
-1.1491181	w r	-1.0705254
-1.5926354	x r	-0.28671655
-1.6695455	z r	-0.32812005
-1.9235846	j r	-0.32812005
-1.4299773	<w> s	-2.1938074
-1.3642776	b s	-1.2095186
-1.3379853	o s	-1.5571029
-1.4755859	h s	-1.0389316
-1.3683058	e s	-2.1747744
-1.2653935	m s	-1.1303339
-1.302904	i s	-1.9253421
-1.3455781	a s	-1.7496737
-1.2904102	n s	-1.8687775
-1.3114147	r s	-1.8595225
-1.3973141	s s	-1.754102
-1.3331082	p s	-1.2965566
-1.3728881	l s	-1.3595642
-1.2540683	u s	-1.7272887
-1.4718822	g s	-1.378956
-1.4126678	v s	-0.69861203
-1.3847952	c s	-1.1246468
-1.2767735	k s	-1.1590425
-1.288523	t s	-1.6525218
-1.3901553	d s	-1.413921
-1.4215926	f s	-0.73388016
-1.283846	y s	-1.3478683
-1.5725647	w s	-0.8312935
-1.1964197	x s	-0.47284985
-1.6748601	z s	-0.48290303
-1.438123	<w> p	-2.2125916
-1.8188709	b p	-0.25739798
-1.3735596	o p	-1.4509908
-1.6565447	h p	-0.45425582
-1.4223717	e p	-1.448028
-1.4152938	m p	-1.5431992
-1.396497	i p	-1.3119553
-1.3811524	a p	-1.5046335
-1.5930179	n p	-0.9283241
-1.6823286	r p	-1.2098057
-1.306414	s p	-1.6778789
-1.6085014	p p	-1.529329
-1.586894	l p	-0.74689615
-1.334225	u p	-1.1893522
-1.7852674	g p	-0.37017328
-1.8397973	c p	-0.37380815
-1.8967129	k p	-0.3950172
-1.6900043	t p	-0.5574995
-1.6277701	d p	-0.5001459
-1.7868063	f p	-0.30020162
-1.5003089	y p	-0.96369255
-1.8084856	w p	-0.4251391
-1.5244342	x p	-1.2448876
-1.937922	j p	-0.32812005
-1.4219815	<w> l	-2.0369618
-1.1234558	b l	-2.0472116
-1.3541657	o l	-1.6727065
-1.3861046	h l	-1.0644174
-1.3675096	e l	-1.8425846
-1.4581168	m l	-0.7690376
-1.3021077	i l	-1.6829251
-1.3447819	a l	-1.9831586
-1.4918603	n l	-1.1285897
-1.5516732	r l	-1.3212466
-1.3961481	s l	-1.6423048
-1.122236	p l	-1.900368
-1.3713852	l l	-1.8289826
-1.2716621	u l	-1.5508201
-1.1659143	g l	-1.6779883
-1.76267	v l	-0.31099063
-1.0798435	c l	-1.8453797
-1.313231	k l	-1.2265062
-1.3332754	t l	-1.729545
-1.4262491	d l	-1.524087
-1.1676908	f l	-1.6672237
-1.2157995	y l	-0.94085926
-1.667805	w l	-0.9390218
-1.5131919	x l	-0.45711863
-1.6076674	q l	-0.29993516
-1.5325619	z l	-0.87003887
-1.4141303	<w> u	-1.7374654
-1.0789124	b u	-1.3496385
-1.3709723	o u	-1.7970085
-1.0837218	h u	-1.0999486
-1.4196721	e u	-0.9899407
-1.129617	m u	-1.3023759
-1.5107872	i u	-1.0983557
-1.3969444	a u	-1.3007982
-1.28783	n u	-1.0269653
-1.1335094	r u	-1.3608441
-1.3035822	s u	-1.4612207
-1.2134252	p u	-1.2491512
-1.1834617	l u	-1.3343629
-1.7829514	u u	-0.39366865
-1.2230204	g u	-1.3060577
-1.2471416	v u	-0.6048813
-1.2179235	c u	-1.4211199
-1.273709	k u	-0.54367733
-1.2452909	t u	-1.4525454
-1.2115557	d u	-1.1772316
-1.0917096	f u	-1.3319519
-1.5363245	y u	-0.29296574
-1.3596025	w u	-0.34473935
-1.5860232	x u	-0.4694034
-0.2714877	q u	-1.8990902
-1.2723908	z u	-0.31512377
-0.681165	j u	-0.9442471
-1.438123	<w> g	-1.9473188
-2.2232246	b g	-0.29993516
-1.3735596	o g	-1.3101705
-1.8367869	h g	-0.3581555
-1.4038801	e g	-1.3211792
-1.8267041	m g	-0.2924577
-1.3569698	i g	-1.5780516
-1.3634161	a g	-1.5640032
-1.4167387	n g	-2.1038473
-1.6823286	r g	-1.3908978
-1.6300317	s g	-0.5075013
-1.6773295	p g	-0.48875237
-1.586894	l g	-0.8597801
-1.380069	u g	-1.2401042
-1.4741368	g g	-1.2031013
-2.0504165	c g	-0.28135535
-1.7662592	k g	-0.45711863
-1.550535	t g	-0.57171506
-1.5692105	d g	-1.0910952
-1.7868063	f g	-0.28684637
-1.3645716	y g	-0.4320266
-1.8084856	w g	-0.3807458
-1.5244342	x g	-0.29486373
-1.7640076	z g	-0.32812005
-1.438123	<w> v	-1.7975589
-2.0290885	b v	-0.47602642
-1.3920512	o v	-1.7118878
-1.8367869	h v	-0.27402836
-1.4223717	e v	-1.623492
-2.0375247	m v	-0.32812005
-1.4176971	i v	-1.8806489
-1.418958	a v	-1.4995804
-1.7974764	n v	-1.4497067
-1.6823286	r v	-1.4822702
-1.6760864	s v	-0.85669327
-1.5352658	l v	-1.304036
-1.6360341	u v	-0.73726904
-1.9946861	g v	-0.2869329
-1.7727263	v v	-0.32812005
-2.1628575	k v	-0.32812005
-1.7486086	t v	-0.33608013
-1.6277701	d v	-1.0840768
-1.9960265	f v	-0.32812005
-1.8474369	y v	-0.27402836
-2.0779421	w v	-0.32812005
-1.6061698	x v	-0.32812005
-1.6169	q v	-0.32812005
-1.7640076	z v	-0.32812005
-1.438123	<w> c	-2.3064866
-1.5070822	b c	-0.43551433
-1.4113653	o c	-1.5191556
-1.7373815	h c	-0.5962821
-1.4038801	e c	-1.7934706
-1.4620348	m c	-0.6057
-1.3384782	i c	-1.9698253
-1.3634161	a c	-1.7630825
-1.495995	n c	-1.8449961
-1.6823286	r c	-1.4066591
-1.266795	s c	-1.8208326
-1.7591584	p c	-0.34791112
-1.6454984	l c	-0.9362841
-1.3565423	u c	-1.4066596
-1.9946861	g c	-0.28684637
-2.0243955	v c	-0.32812005
-1.5872372	c c	-1.321635
-1.6660736	k c	-0.29675862
-1.4451343	t c	-1.3232287
-1.471507	d c	-0.5433411
-1.6858945	f c	-0.683468
-1.3098783	y c	-0.96721137
-1.6770209	w c	-0.4380563
-1.6061698	x c	-0.84204876
-1.438123	<w> k	-1.4253298
-2.2232246	b k	-0.32812005
-1.4985609	o k	-1.1071655
-1.6565447	h k	-0.34791112
-1.5053872	e k	-0.8108034
-1.959311	m k	-0.30681175
-1.4883178	i k	-1.1589078
-1.3634161	a k	-1.1988301
-1.5930179	n k	-1.118598
-1.7620313	r k	-1.0489652
-1.3276668	s k	-1.2584165
-1.7591584	p k	-0.45875326
-1.6454984	l k	-0.8408134
-1.380069	u k	-0.49978167
-1.9170725	g k	-0.29486373
-1.4285842	c k	-1.4987886
-1.5847222	k k	-0.37017328
-1.6900043	t k	-0.3557698
-1.8742299	d k	-0.27029172
-1.9960265	f k	-0.32812005
-1.5420917	y k	-0.34587023
-1.8084856	w k	-0.39355797
-1.6802405	z k	-0.29993516
-1.937922	j k	-0.32812005
-1.4299773	<w> t	-2.0716987
-1.7140071	b t	-0.4955854
-1.3549937	o t	-1.4918101
-1.4755859	h t	-1.1700752
-1.3683058	e t	-1.7049024
-1.6401024	m t	-0.33484596
-1.337614	i t	-1.8696816
-1.3802882	a t	-2.0893757
-1.3183713	n t	-2.006419
-1.5541986	r t	-1.6046238
-1.28525	s t	-2.0630996
-1.4484324	p t	-1.3326073
-1.5330832	l t	-1.2805438
-1.3120319	u t	-1.4764649
-1.6806369	g t	-0.91027707
-2.0154085	v t	-0.32812005
-1.4733425	c t	-1.7439353
-1.5135713	k t	-0.39729103
-1.4759984	t t	-1.62242
-1.6249465	d t	-0.6472321
-1.3751686	f t	-0.9967971
-1.283846	y t	-0.91325843
-1.6723884	w t	-0.49046797
-1.1964197	x t	-0.9340139
-1.757491	z t	-0.32812005
-1.4299773	<w> d	-2.1776974
-1.6325802	b d	-0.39355797
-1.3549937	o d	-1.324197
-1.7335306	h d	-0.4072616
-1.3519385	e d	-2.2061787
-1.5122055	m d	-0.28385457
-1.3199123	i d	-1.4983577
-1.3625865	a d	-1.505947
-1.5395005	n d	-1.74873
-1.5031121	r d	-1.4286633
-1.5139419	s d	-0.7309807
-1.8554577	p d	-0.27711296
-1.5330832	l d	-1.2154789
-1.3554738	u d	-1.2242726
-1.6806369	g d	-0.45711863
-1.7676691	v d	-0.27402836
-1.7348164	c d	-0.43506134
-1.6623214	k d	-0.4248739
-1.5108532	t d	-0.6136849
-1.5667421	d d	-1.2456174
-1.6822342	f d	-0.59565866
-1.4256759	y d	-0.791983
-1.8022274	w d	-0.4441474
-1.8025876	x d	-0.32812005
-1.6463081	j d	-0.27402836
-1.438123	<w> f	-2.0759475
-1.951133	b f	-0.32812005
-1.4750667	o f	-1.0990697
-1.7373815	h f	-0.56045306
-1.4038801	e f	-1.3760135
-1.6430779	m f	-0.5969229
-1.3762839	i f	-1.4744067
-1.4391712	a f	-1.1581036
-1.5418028	n f	-1.4637635
-1.6823286	r f	-1.0849715
-1.588396	s f	-0.8509207
-1.6085014	p f	-0.36197188
-1.6454984	l f	-0.98103243
-1.4894607	u f	-1.1980202
-1.9170725	g f	-0.3854348
-2.0504165	c f	-0.31099063
-1.5847222	k f	-0.5001459
-1.4150087	t f	-0.97159195
-1.5692105	d f	-0.8183874
-1.3769697	f f	-1.2941823
-1.3645716	y f	-0.7500131
-1.8084856	w f	-0.3999875
-1.3871753	x f	-0.40160218
-1.7640076	z f	-0.32812005
-1.4299773	<w> y	-1.0076019
-1.1730955	b y	-0.7721975
-1.4739752	o y	-0.9369497
-1.3148618	h y	-1.1782511
-1.4214699	e y	-1.2242877
-1.3331761	m y	-0.9211513
-1.9376512	i y	-0.29675862
-1.4593344	a y	-1.2806449
-1.4150114	n y	-0.95184886
-1.1566145	r y	-1.41425
-1.3724684	s y	-1.1592662
-1.4064953	p y	-0.7551943
-1.1061112	l y	-1.7467922
-1.7307941	u y	-0.34207264
-1.2932373	g y	-1.1141014
-1.1872065	v y	-0.52048784
-1.426816	c y	-0.9838179
-1.3149066	k y	-0.8318815
-1.3108373	t y	-1.4847538
-1.428034	d y	-0.9795274
-1.532647	f y	-1.2189667
-2.0685532	y y	-0.41172737
-1.3641105	w y	-0.5140762
-1.3830436	x y	-0.48875237
-1.1152202	z y	-0.51047707
-1.4299773	<w> w	-1.9610449
-1.9449569	b w	-0.2869329
-1.4104226	o w	-1.3950937
-1.5856829	h w	-0.8435607
-1.4407431	e w	-1.1001928
-1.6401024	m w	-0.34406543
-1.8133857	i w	-0.44735968
-1.4180154	a w	-0.98864245
-1.6481316	n w	-0.9367572
-1.6789398	r w	-0.89665926
-1.3973141	s w	-1.3412662
-1.8554577	p w	-0.40160218
-1.6426872	l w	-0.78027886
-2.4032006	u w	-0.24931566
-1.6806369	g w	-0.44457978
-1.9661365	c w	-0.30681175
-1.4547632	k w	-0.6846565
-1.4137024	t w	-1.3280379
-1.428034	d w	-0.9463453
-1.912263	f w	-0.4628799
-1.3933624	y w	-0.67162424
-1.5725647	w w	-0.39366865
-1.5993499	x w	-0.24931566
-1.6122591	q w	-0.32812005
-1.6748601	z w	-0.2869329
-1.5718744	<w> x	-0.37923536
-1.5408448	o x	-0.7625937
-1.5453387	e x	-1.3490405
-1.7047935	i x	-0.7825556
-1.6052122	a x	-0.79878473
-1.9743176	n x	-0.45875326
-2.456823	r x	-0.31099063
-2.6308997	s x	-0.32812005
-1.6655214	u x	-0.6196357
-1.612515	x x	-0.24931566
-1.4813143	<w> q	-2.075667
-2.076824	o q	-0.9989052
-2.0823603	h q	-0.29993516
-1.794867	e q	-1.5007406
-1.6870643	i q	-1.2649332
-1.6911114	a q	-0.91585904
-1.8187853	n q	-1.385993
-1.8861015	r q	-1.0780864
-1.6873221	s q	-1.5942919
-2.1085486	p q	-0.32812005
-2.0548224	l q	-0.4248739
-2.198217	u q	-0.52178395
-2.0891833	c q	-1.2207539
-2.2264357	k q	-0.32812005
-2.4459982	t q	-0.32812005
-2.1180913	d q	-0.4248739
-2.3999002	y q	-0.32812005
-1.8727964	x q	-0.29993516
-2.036148	z q	-0.32812005
-1.4723256	<w> z	-0.80519545
-2.2724679	b z	-0.32812005
-1.6137512	o z	-0.67668587
-2.0738838	h z	-0.27402836
-1.5335202	e z	-0.738657
-1.4004698	i z	-1.6730845
-1.5359054	a z	-1.070477
-1.7322289	n z	-0.7386236
-1.5145192	r z	-0.32825777
-2.0526204	s z	-0.2924577
-1.8097541	l z	-0.28687105
-1.5634303	u z	-0.64389104
-2.237113	g z	-0.32812005
-2.0623274	v z	-0.32812005
-1.8584607	c z	-0.37402296
-1.699975	t z	-0.72594106
-1.8946908	d z	-0.32812005
-2.1829305	y z	-0.66287327
-2.1275644	w z	-0.32812005
-1.4471713	z z	-0.8235012
-1.4635191	<w> j	-1.697211
-1.8328551	b j	-1.0851542
-1.8068224	o j	-0.6120709
-2.0655694	h j	-0.24931566
-1.7486228	e j	-0.82156456
-1.5771686	i j	-0.40291727
-1.8665121	a j	-0.49999472
-1.6600897	n j	-0.9104375
-2.0070088	r j	-0.25973514
-2.4529753	s j	-0.32812005
-2.0924172	p j	-0.27402836
-2.315659	l j	-0.32812005
-1.7410454	u j	-0.45082757
-2.0177724	g j	-0.2869329
-1.9163785	k j	-0.2869329
-2.010535	t j	-0.26397392
-1.8894845	d j	-0.80087996
-1.9377584	f j	-0.27402836
-2.0953822	y j	-0.2869329
-2.1146173	w j	-0.32812005
-1.8481107	x j	-0.32812005

\3-grams:
-0.0002977648	b </w> <w>
-0.000050661794	o </w> <w>
-0.000034792134	h </w> <w>
-0.0000051772245	e </w> <w>
-0.000038701248	m </w> <w>
-0.00008444824	i </w> <w>
-0.000028941477	a </w> <w>
-0.000007998838	n </w> <w>
-0.000012037142	r </w> <w>
-0.0000027439214	s </w> <w>
-0.00008250642	p </w> <w>
-0.000016567335	l </w> <w>
-0.0002917811	u </w> <w>
-0.000008361249	g </w> <w>
-0.00055566116	v </w> <w>
-0.00004380127	c </w> <w>
-0.000049367347	k </w> <w>
-0.0000107169235	t </w> <w>
-0.0000051772245	d </w> <w>
-0.00016598665	f </w> <w>
-0.0000075069956	y </w> <w>
-0.00016407037	w </w> <w>
-0.0002917811	x </w> <w>
-0.0036244665	q </w> <w>
-0.00032825457	z </w> <w>
-0.0041447217	j </w> <w>
-0.24994542	<s> <w> b
-1.2175187	</w> <w> b
-3.2865062	<w> b b
-0.84714675	o b b
-1.508742	e b b
-2.336814	m b b
-1.3323523	i b b
-1.2609229	a b b
-0.9498491	u b b
-1.0290837	<w> o b
-1.8372579	b o b
-2.2022557	o o b
-1.9069264	h o b
-1.8506488	m o b
-3.1483068	i o b
-1.5537137	n o b
-1.4888787	r o b
-1.7952101	s o b
-2.848794	p o b
-1.6550835	l o b
-2.119895	g o b
-2.1851804	c o b
-1.9279346	k o b
-2.0075836	t o b
-2.2094324	d o b
-2.7272558	f o b
-1.6368533	w o b
-1.2416263	j o b
-2.1905038	a h b
-2.067857	s h b
-1.6929702	g h b
-2.2689204	c h b
-2.2334683	t h b
-2.41735	<w> e b
-2.5888362	b e b
-1.719555	o e b
-2.6124482	h e b
-1.8790641	e e b
-2.2717314	m e b
-2.539136	i e b
-1.9143995	a e b
-2.1891644	n e b
-2.0282748	r e b
-2.1778755	s e b
-2.65578	p e b
-2.0261939	l e b
-1.7725608	u e b
-2.3957286	g e b
-2.8635073	v e b
-2.987217	c e b
-2.593369	k e b
-2.6303272	t e b
-1.9434643	d e b
-2.021545	f e b
-1.7763107	y e b
-2.0342069	w e b
-2.4056907	z e b
-3.315291	<w> m b
-1.2235483	o m b
-1.0744593	e m b
-1.3015761	i m b
-1.0889826	a m b
-2.1802576	r m b
-0.84994507	u m b
-1.1735231	y m b
-2.6977239	<w> i b
-1.6198246	b i b
-2.479746	o i b
-1.6249858	h i b
-2.411219	e i b
-2.1335344	n i b
-1.52102	r i b
-1.4777249	s i b
-1.6134326	l i b
-2.0190728	u i b
-1.5056669	g i b
-2.0998232	v i b
-1.9504044	c i b
-2.484203	k i b
-2.0288	t i b
-2.308499	d i b
-1.8793347	f i b
-1.7889779	x i b
-2.0161476	z i b
-1.5758647	j i b
-1.2349031	<w> a b
-1.4746944	b a b
-1.5417119	h a b
-1.7628901	e a b
-2.2983663	m a b
-1.4801836	i a b
-1.3420585	a a b
-1.4548864	n a b
-1.464526	r a b
-1.3726372	s a b
-2.0008647	p a b
-1.4949389	l a b
-1.7760408	u a b
-1.7591734	g a b
-1.4730438	v a b
-1.6116099	c a b
-1.0979204	k a b
-1.0563849	t a b
-1.5021254	d a b
-1.417811	f a b
-1.308248	y a b
-2.107299	w a b
-1.7140476	x a b
-1.3572645	z a b
-1.6143018	j a b
-2.957112	<w> n b
-2.691109	o n b
-2.2354298	e n b
-2.654471	i n b
-2.7443013	a n b
-1.8474492	r n b
-1.7981411	u n b
-2.4041572	g n b
-2.1696699	y n b
-1.9993215	w n b
-3.2764428	<w> r b
-1.9041675	o r b
-1.9124628	e r b
-2.4547117	i r b
-1.6453432	a r b
-1.8156611	l r b
-1.5142505	u r b
-3.3721933	<w> s b
-2.3287127	b s b
-2.3690984	o s b
-2.488397	e s b
-2.2107472	m s b
-2.2389646	i s b
-2.566551	a s b
-2.9312181	n s b
-2.7294154	r s b
-2.2985427	s s b
-2.4896579	l s b
-2.265911	u s b
-2.4981215	g s b
-2.2542768	k s b
-2.3593566	t s b
-2.4468927	y s b
-2.0182023	w s b
-2.812247	o p b
-2.786116	e p b
-2.885663	m p b
-2.3945622	i p b
-2.746612	a p b
-2.9429402	s p b
-2.135042	u p b
-2.713752	<w> l b
-2.5400233	o l b
-2.1104887	h l b
-2.2767878	e l b
-1.9657383	i l b
-2.1001637	a l b
-2.2171938	n l b
-2.3803616	r l b
-1.9298681	l l b
-2.232501	u l b
-2.7240596	g l b
-2.1126988	y l b
-2.731827	<w> u b
-1.849096	b u b
-1.6153518	o u b
-1.316671	h u b
-1.7947619	e u b
-2.4089253	m u b
-2.0598452	i u b
-1.8209529	a u b
-1.7031653	n u b
-1.390079	r u b
-0.7386925	s u b
-0.9997808	p u b
-1.4054252	l u b
-2.403625	g u b
-1.4921715	v u b
-1.4831603	c u b
-1.5719498	k u b
-1.49315	t u b
-1.6730556	d u b
-1.2161467	y u b
-0.99465376	x u b
-1.1763315	z u b
-1.6279839	j u b
-3.2324586	<w> g b
-2.6819894	o g b
-2.5650802	e g b
-2.2855277	i g b
-2.5731385	n g b
-2.0332193	m c b
-3.3018312	i c b
-3.235762	a c b
-2.5773773	c c b
-2.4821117	o k b
-1.6419163	e k b
-1.8583109	r k b
-1.7932571	c k b
-3.313304	<w> t b
-2.1300018	o t b
-2.1036658	h t b
-2.2887504	e t b
-3.1036925	i t b
-2.872299	a t b
-2.783345	n t b
-2.3733368	r t b
-2.6578283	s t b
-2.3119073	l t b
-2.1200535	u t b
-2.0349827	x t b
-1.9661459	o d b
-2.807316	e d b
-2.620341	i d b
-2.2511427	a d b
-2.0297458	n d b
-2.0809197	r d b
-1.776399	l d b
-2.4267297	u d b
-3.400625	<w> f b
-2.5120125	o f b
-1.6133257	l f b
-2.229752	f f b
-2.1581013	<w> y b
-2.0036335	o y b
-2.316662	h y b
-1.8313684	e y b
-1.5410372	a y b
-1.4923525	n y b
-2.4212103	r y b
-2.1777003	s y b
-1.8386765	p y b
-2.4147274	l y b
-1.5355668	v y b
-1.9524506	k y b
-2.6172903	t y b
-1.7673815	d y b
-1.4906604	z y b
-3.1983495	<w> w b
-1.6593478	o w b
-1.5379593	e w b
-1.664087	a w b
-2.6021154	e x b
-1.7490264	u x b
-1.1347945	l z b
-1.9069226	t z b
-1.8789339	z z b
-1.2957242	i j b
-1.6248307	</w> <w> o
-0.8231936	<w> b o
-1.148122	b b o
-1.2596456	o b o
-0.24519822	h b o
-0.77710944	e b o
-0.9581034	m b o
-1.5845182	i b o
-1.0934255	a b o
-0.8123715	n b o
-0.6727961	r b o
-0.8476076	s b o
-0.63041824	p b o
-0.59246194	l b o
-1.5762131	u b o
-0.3976015	g b o
-0.36084288	k b o
-0.7078189	t b o
-0.7419733	d b o
-0.8247326	f b o
-0.4816503	y b o
-0.6104133	w b o
-0.65839857	x b o
-0.80769783	z b o
-2.3459544	<w> o o
-0.96195245	b o o
-1.9147853	o o o
-1.0406537	h o o
-1.403806	m o o
-3.2105498	i o o
-1.8273761	n o o
-1.2282264	r o o
-1.9442916	s o o
-1.4958968	p o o
-1.1024058	l o o
-1.1071081	g o o
-1.9733444	v o o
-1.5843085	c o o
-1.459379	k o o
-1.4264705	t o o
-1.2922425	d o o
-1.0216652	f o o
-1.7989211	y o o
-0.6408024	w o o
-0.8694552	z o o
-0.65014833	<w> h o
-0.5015581	b h o
-1.0934263	o h o
-0.59239113	h h o
-0.64911604	e h o
-0.49789223	m h o
-1.0945404	i h o
-1.0704933	a h o
-0.71834797	n h o
-0.7228912	r h o
-0.8591261	s h o
-0.5909934	p h o
-0.5027418	l h o
-1.50392	g h o
-1.0476274	c h o
-0.6391171	k h o
-0.98717403	t h o
-0.59770525	d h o
-0.81064093	f h o
-0.3019259	y h o
-0.8313819	w h o
-0.9668974	x h o
-0.91805404	z h o
-2.9324424	<w> e o
-2.7270606	b e o
-2.0897183	o e o
-1.7846189	h e o
-2.2403884	m e o
-2.9223175	i e o
-1.4286227	a e o
-1.8342339	n e o
-2.1113114	r e o
-2.546779	s e o
-2.35792	p e o
-2.1380715	l e o
-2.4299564	u e o
-1.402764	g e o
-2.6489818	v e o
-2.4962249	c e o
-2.1523342	k e o
-2.2755868	t e o
-2.2486303	d e o
-2.533778	z e o
-1.9335629	j e o
-0.71250796	<w> m o
-1.3755431	o m o
-1.1459701	h m o
-0.9225973	e m o
-0.9022098	m m o
-1.3644404	i m o
-1.1943405	a m o
-1.0034149	n m o
-0.8990475	r m o
-0.993636	s m o
-0.9729468	p m o
-0.83881426	l m o
-1.5507662	u m o
-1.7068129	g m o
-0.8815572	c m o
-1.4088634	k m o
-0.8747264	t m o
-0.75943416	d m o
-1.1135495	f m o
-0.99757546	y m o
-1.1970389	w m o
-0.9890115	x m o
-1.8659068	<w> i o
-1.3413821	b i o
-2.453988	o i o
-1.6812052	h i o
-2.0346217	e i o
-2.8347836	m i o
-1.3915532	i i o
-1.4580324	n i o
-1.3868634	r i o
-0.8338299	s i o
-1.719562	p i o
-1.6748056	l i o
-2.474288	u i o
-1.242787	g i o
-1.3061678	v i o
-1.047428	c i o
-2.4602304	k i o
-0.48926002	t i o
-1.4074391	d i o
-2.6656106	f i o
-1.123807	x i o
-1.3550159	z i o
-3.1883495	<w> a o
-2.8355753	b a o
-2.9479024	h a o
-2.7636662	i a o
-2.978951	n a o
-2.9880507	r a o
-2.806732	s a o
-2.947622	p a o
-2.6410458	l a o
-2.694722	v a o
-3.0642154	c a o
-2.277953	k a o
-2.7910218	t a o
-2.7623131	w a o
-0.44100052	<w> n o
-0.38308293	b n o
-1.6090659	o n o
-1.4180644	h n o
-1.7271025	e n o
-1.0722061	m n o
-1.9264758	i n o
-1.6652366	a n o
-0.9993198	n n o
-1.2760533	r n o
-0.7412976	s n o
-0.602118	p n o
-1.7646366	l n o
-2.0173507	u n o
-0.7603181	g n o
-0.3603574	k n o
-1.4203603	t n o
-1.6198924	d n o
-0.95096326	y n o
-1.8714858	w n o
-0.8688047	<w> r o
-0.63407767	b r o
-1.6561024	o r o
-0.50010043	h r o
-1.6219885	e r o
-0.9319353	m r o
-1.2913648	i r o
-1.6022971	a r o
-0.851605	n r o
-0.8362788	r r o
-0.7157616	s r o
-0.3926439	p r o
-0.542631	l r o
-1.598348	u r o
-0.7975871	g r o
-0.8141674	v r o
-0.6904708	c r o
-0.7059277	k r o
-0.8205734	t r o
-0.7213191	d r o
-0.73866034	f r o
-0.44819826	y r o
-1.0058501	w r o
-0.8116055	x r o
-0.6620222	z r o
-1.1427038	<w> s o
-1.0716996	b s o
-1.4982026	o s o
-1.6629137	h s o
-1.901071	e s o
-1.6214585	m s o
-1.4441308	i s o
-1.5979798	a s o
-1.4208026	n s o
-1.3883342	r s o
-1.3092048	s s o
-1.3514316	p s o
-1.3915343	l s o
-2.161768	u s o
-2.0342057	g s o
-1.5368228	c s o
-1.4301959	k s o
-1.7497169	t s o
-1.3291228	d s o
-1.7018911	f s o
-1.7552654	y s o
-1.4956442	w s o
-0.8634675	<w> p o
-0.8514642	b p o
-1.0348852	o p o
-0.5083183	h p o
-1.1193774	e p o
-0.98138183	m p o
-1.4333574	i p o
-1.1303893	a p o
-0.71973526	n p o
-0.67916346	r p o
-0.75902545	s p o
-0.9157047	p p o
-1.1223509	l p o
-1.5703502	u p o
-0.82735884	g p o
-0.6774791	k p o
-0.6099656	t p o
-0.63946015	d p o
-0.91102225	f p o
-0.6821058	y p o
-0.4021674	w p o
-0.88105404	x p o
-0.62553227	<w> l o
-1.0864193	b l o
-0.81735265	o l o
-0.77497256	h l o
-1.3477627	e l o
-1.2185748	m l o
-1.5073997	i l o
-1.6048343	a l o
-0.9357949	n l o
-0.9573693	r l o
-0.88785636	s l o
-0.9834417	p l o
-1.076939	l l o
-1.4392128	u l o
-0.86184144	g l o
-0.47161293	v l o
-0.7280841	c l o
-1.5581577	k l o
-1.5683575	t l o
-1.3677784	d l o
-0.6391378	f l o
-0.8729968	y l o
-1.824269	w l o
-1.4817111	z l o
-2.286561	b u o
-2.439324	h u o
-2.579493	m u o
-1.3931279	n u o
-2.4900873	r u o
-2.584905	s u o
-1.823379	l u o
-1.9993348	g u o
-2.010665	c u o
-1.6964163	t u o
-2.5071373	d u o
-1.527112	q u o
-0.92524356	<w> g o
-1.5069556	o g o
-0.6100168	h g o
-0.96728224	e g o
-1.5449353	i g o
-1.0867946	a g o
-2.0863004	n g o
-1.1565013	r g o
-1.3284416	s g o
-1.1196299	p g o
-1.3043616	l g o
-1.6090751	u g o
-1.7161376	g g o
-0.9192488	c g o
-0.9764943	k g o
-1.0162965	t g o
-0.71276605	f g o
-0.5632012	y g o
-0.9535296	w g o
-0.8257505	x g o
-0.82739127	<w> v o
-1.6091537	o v o
-0.82085943	h v o
-0.9685709	e v o
-1.7387551	i v o
-0.9214345	a v o
-0.9822736	n v o
-1.3037974	r v o
-1.887666	l v o
-1.0676335	u v o
-1.005697	d v o
-0.82085943	y v o
-0.2324143	w v o
-0.6343458	z v o
-0.37338623	<w> c o
-0.41174328	b c o
-1.2147528	o c o
-0.6616727	h c o
-0.8717292	e c o
-1.1018326	m c o
-1.5630322	i c o
-1.5758135	a c o
-0.9845854	n c o
-0.96836925	r c o
-0.7273764	s c o
-0.5020988	p c o
-0.4629078	l c o
-1.739342	u c o
-0.88492656	g c o
-0.59211326	c c o
-1.1672249	t c o
-0.545017	d c o
-0.2508419	f c o
-0.6955847	y c o
-0.53042966	w c o
-1.1708301	x c o
-0.96261024	<w> k o
-0.24589017	b k o
-1.3499169	o k o
-0.8766568	h k o
-1.3923248	e k o
-0.7647374	m k o
-1.210003	i k o
-1.5109819	a k o
-1.5627816	n k o
-1.7982748	r k o
-1.303876	s k o
-1.7356393	l k o
-0.8342212	g k o
-1.6422837	c k o
-1.1261955	k k o
-0.9899633	t k o
-0.77578145	d k o
-0.5386027	z k o
-0.9066214	<w> t o
-1.5009589	b t o
-1.0782498	o t o
-1.5446001	h t o
-1.3519005	e t o
-0.8424876	m t o
-1.4056587	i t o
-1.263751	a t o
-1.5267975	n t o
-1.2467055	r t o
-1.0775198	s t o
-1.0689077	p t o
-1.0599146	l t o
-1.0689929	u t o
-0.3138159	g t o
-0.25234932	v t o
-0.977731	c t o
-0.68026394	k t o
-1.1711042	t t o
-0.9874481	d t o
-1.4498129	f t o
-0.861861	y t o
-0.69928956	w t o
-1.3087846	x t o
-0.9435419	<w> d o
-0.80563796	b d o
-1.1614344	o d o
-0.7712651	h d o
-1.9827689	e d o
-0.96689445	m d o
-1.5426934	i d o
-1.2276932	a d o
-1.212086	n d o
-1.3763638	r d o
-1.4690595	s d o
-0.8223039	p d o
-1.4443442	l d o
-1.1602765	u d o
-0.37683946	g d o
-0.35902396	c d o
-0.49378616	k d o
-0.5033045	t d o
-1.3675932	d d o
-0.69235253	f d o
-1.0803784	y d o
-1.1493235	w d o
-0.24640574	x d o
-0.7114918	<w> f o
-1.4165728	o f o
-1.1144125	h f o
-0.9864876	e f o
-0.2991732	m f o
-1.5735196	i f o
-1.4149545	a f o
-0.6759699	n f o
-0.8129138	r f o
-0.7082808	s f o
-1.1542649	p f o
-1.3103138	l f o
-0.97360015	g f o
-0.85277385	k f o
-0.77150035	t f o
-0.65522885	d f o
-1.2523358	f f o
-0.5959717	y f o
-0.6982075	w f o
-0.37447396	x f o
-0.5920923	<w> y o
-1.3782562	o y o
-1.7133212	e y o
-1.1034693	m y o
-0.87746817	i y o
-1.419407	a y o
-1.3718878	n y o
-1.8165756	r y o
-1.7102138	p y o
-2.2534075	l y o
-2.004822	c y o
-1.5329208	k y o
-1.9089038	t y o
-2.1236029	d y o
-2.040397	f y o
-1.3729601	w y o
-0.82035744	<w> w o
-0.723392	b w o
-1.9578676	o w o
-1.036727	h w o
-1.2511222	e w o
-1.0099152	m w o
-1.0358493	i w o
-1.6971996	a w o
-0.8320279	n w o
-0.8024943	r w o
-1.034013	s w o
-0.9900919	p w o
-0.46648288	l w o
-0.7301598	g w o
-0.58499575	k w o
-0.4335357	t w o
-0.82363355	d w o
-0.77556455	y w o
-0.55283713	x w o
-0.723392	z w o
-1.7456524	o x o
-1.6572564	e x o
-1.3064387	i x o
-1.0125257	a x o
-1.6111314	u x o
-0.695446	<w> z o
-0.9541344	o z o
-1.4004676	e z o
-1.8332719	i z o
-1.0288378	a z o
-1.0673757	n z o
-0.74787194	r z o
-0.7540437	s z o
-1.0461088	l z o
-1.1908445	u z o
-0.23839349	v z o
-1.562942	t z o
-1.358314	z z o
-0.6082954	<w> j o
-0.8309884	o j o
-0.48357594	h j o
-0.49475288	e j o
-0.8068755	i j o
-0.50633085	a j o
-0.6650253	n j o
-0.63411266	r j o
-0.4474668	s j o
-0.58302796	u j o
-0.63178855	g j o
-0.4958195	k j o
-0.6727938	t j o
-0.7826394	d j o
-0.5517748	f j o
-0.2062048	w j o
-1.3901118	</w> <w> h
-3.397384	<w> b h
-2.5537868	a b h
-2.3644717	u b h
-2.4612339	<w> o h
-1.9550791	b o h
-2.6162555	o o h
-2.8095486	h o h
-2.6230552	m o h
-2.7930276	n o h
-2.2979982	r o h
-2.4455705	s o h
-2.6511083	p o h
-2.8166296	l o h
-1.90788	u o h
-2.1614132	c o h
-1.6623408	k o h
-2.977018	t o h
-2.564209	d o h
-2.6286788	f o h
-2.0449724	y o h
-1.9586875	w o h
-1.0708201	j o h
-1.5046947	h h h
-2.219791	e h h
-2.1672685	n h h
-2.9877362	s h h
-1.4998899	u h h
-2.4231935	g h h
-2.3448687	c h h
-2.4985256	t h h
-3.0249805	<w> e h
-1.7614766	b e h
-2.0157104	o e h
-2.870758	h e h
-2.0666409	e e h
-2.741418	m e h
-2.8116112	i e h
-2.4126384	n e h
-2.0496984	r e h
-2.3502028	s e h
-3.0177326	p e h
-2.4126356	l e h
-2.7578552	g e h
-2.1861904	v e h
-2.8367016	c e h
-2.6276667	k e h
-2.91345	t e h
-2.4575925	d e h
-2.2783523	y e h
-2.084448	j e h
-3.00894	o m h
-2.3504066	r m h
-2.741756	u m h
-2.3457906	y m h
-3.251383	<w> i h
-3.074868	h i h
-3.149593	m i h
-1.6539567	i i h
-2.5341403	n i h
-3.4637485	r i h
-3.120535	s i h
-3.164931	l i h
-3.3752723	t i h
-2.5371022	<w> a h
-2.2675784	b a h
-2.084901	o a h
-2.2470968	h a h
-2.6176002	e a h
-2.1253533	m a h
-2.282603	i a h
-2.2658255	n a h
-2.318451	r a h
-2.3479424	s a h
-2.6163793	p a h
-2.2272537	l a h
-2.4724286	u a h
-2.6160545	g a h
-2.2096043	v a h
-2.9392898	c a h
-1.6984174	k a h
-2.3624444	t a h
-1.94902	d a h
-2.3049793	f a h
-1.972199	y a h
-2.2948463	w a h
-2.1277757	z a h
-1.353809	j a h
-2.7334504	o n h
-1.9649491	h n h
-2.158362	e n h
-2.2732499	i n h
-2.436408	a n h
-2.7250826	n n h
-2.128404	r n h
-1.9989109	u n h
-2.1696699	y n h
-2.2395606	w n h
-1.8466274	<w> r h
-2.7457383	o r h
-2.2135878	e r h
-2.7731092	i r h
-2.727737	a r h
-1.9434533	r r h
-1.8020605	s r h
-2.54073	u r h
-2.9777946	c r h
-1.0426115	<w> s h
-1.6439517	o s h
-1.6631105	h s h
-1.8752755	e s h
-2.0314524	m s h
-0.9184285	i s h
-1.049113	a s h
-1.5893594	n s h
-1.3996514	r s h
-2.3316376	s s h
-1.6146672	p s h
-1.734165	l s h
-1.2509646	u s h
-1.536583	g s h
-1.315525	v s h
-1.4302832	k s h
-1.8328003	t s h
-1.402986	d s h
-1.7023257	f s h
-2.2701437	y s h
-1.7438414	w s h
-1.2101337	x s h
-1.3425243	<w> p h
-0.86069596	o p h
-1.316947	e p h
-1.3091983	m p h
-1.3629981	i p h
-0.8546839	a p h
-1.6691105	n p h
-1.0569397	r p h
-1.3033292	s p h
-0.6173461	l p h
-1.3815486	u p h
-0.47334576	c p h
-1.2577568	t p h
-1.3746258	d p h
-1.2578937	y p h
-1.2451437	w p h
-2.6948762	o l h
-2.853849	e l h
-2.1141207	i l h
-2.8099287	a l h
-2.5787392	r l h
-2.7171338	l l h
-2.9240618	u l h
-2.7922704	g l h
-2.5025566	<w> u h
-2.6217098	b u h
-1.6970187	h u h
-2.5265293	m u h
-2.5814223	a u h
-2.211362	n u h
-2.6513145	r u h
-2.4056787	s u h
-2.518473	g u h
-1.2070003	v u h
-1.5383524	k u h
-2.5120552	t u h
-2.2332456	d u h
-2.138509	f u h
-2.1797283	j u h
-1.9146447	<w> g h
-2.0140867	o g h
-2.2524576	e g h
-0.3578991	i g h
-1.9440811	a g h
-2.2381902	n g h
-1.7606642	r g h
-1.6807129	l g h
-0.37380236	u g h
-2.15962	g g h
-0.9803622	c g h
-2.1246374	d g h
-0.9360322	f g h
-0.8909486	<w> c h
-0.99260837	b c h
-1.153773	o c h
-1.3231905	h c h
-1.2205617	e c h
-1.2381921	m c h
-1.4033905	i c h
-0.9002834	a c h
-0.84506327	n c h
-0.4742996	r c h
-0.70782214	s c h
-0.8718003	p c h
-0.78032637	l c h
-0.91360086	u c h
-0.88518846	g c h
-0.24469566	v c h
-2.0240595	c c h
-0.96570426	k c h
-0.1005575	t c h
-1.2382644	d c h
-0.5112998	y c h
-1.0979809	x c h
-1.7144107	<w> k h
-1.8808359	e k h
-2.2535381	i k h
-2.0637548	a k h
-1.9510407	n k h
-1.8001649	r k h
-1.5958571	l k h
-1.4498018	u k h
-1.8263301	c k h
-0.71448416	<w> t h
-0.7738574	o t h
-1.3302958	h t h
-1.0900593	e t h
-1.17409	m t h
-1.3703445	i t h
-1.1895806	a t h
-1.440696	n t h
-0.8946115	r t h
-2.1511471	s t h
-2.3081214	p t h
-1.2492127	l t h
-0.9339836	u t h
-0.4906878	g t h
-2.8299658	c t h
-1.1633211	k t h
-2.067903	t t h
-0.7041354	d t h
-1.0086466	f t h
-0.4767024	y t h
-0.5557221	w t h
-1.376234	x t h
-3.2497158	<w> d h
-2.086153	o d h
-2.7480881	e d h
-1.957813	a d h
-2.1922693	n d h
-2.1410234	r d h
-2.1494837	l d h
-2.4796438	u d h
-1.9558331	d d h
-0.7104254	j d h
-2.7487335	e f h
-2.49772	a f h
-1.9820261	l f h
-2.5838523	f f h
-1.9019128	b y h
-2.1998146	o y h
-2.413206	h y h
-1.9330235	e y h
-2.2165096	a y h
-2.121077	n y h
-1.9225615	p y h
-2.5185964	l y h
-1.4538565	v y h
-1.4755058	x y h
-0.8483292	<w> w h
-1.8041235	o w h
-1.2738101	h w h
-1.5161976	e w h
-1.563634	a w h
-1.5528795	n w h
-1.1813078	r w h
-1.0904847	l w h
-0.38546845	c w h
-1.2744353	k w h
-2.0924041	t w h
-1.8528359	d w h
-1.4480121	y w h
-1.0767155	w w h
-1.7108809	o x h
-1.4194181	e x h
-1.6479504	<w> z h
-1.9418068	e z h
-1.5571573	t z h
-2.8637428	<w> j h
-1.4005588	</w> <w> e
-0.7316367	<w> b e
-0.5523801	b b e
-0.7855015	o b e
-1.4416177	h b e
-0.77707815	e b e
-0.6672435	m b e
-0.668756	i b e
-1.1908617	a b e
-0.5919151	n b e
-0.70503974	r b e
-0.75412977	s b e
-0.803138	p b e
-0.739418	l b e
-0.97703034	u b e
-1.1614921	g b e
-0.81708103	c b e
-0.73115635	k b e
-0.9285972	t b e
-0.6727938	d b e
-0.9775114	f b e
-0.7716211	y b e
-0.8538338	w b e
-0.64887315	z b e
-2.2596471	<w> o e
-2.4898794	b o e
-2.1307664	o o e
-1.8096113	h o e
-2.207592	e o e
-2.7749677	m o e
-2.993701	i o e
-2.130245	n o e
-2.1747043	r o e
-2.5494416	s o e
-1.7543391	p o e
-2.0253491	l o e
-1.5573708	g o e
-2.3504133	v o e
-2.180121	c o e
-1.6419102	k o e
-1.8708001	t o e
-1.7710001	d o e
-2.5958235	f o e
-2.1816301	w o e
-1.6294781	z o e
-1.7111756	j o e
-0.6751076	<w> h e
-0.7385641	o h e
-0.6742898	h h e
-0.567107	e h e
-1.0182576	m h e
-1.2259634	i h e
-1.3685198	a h e
-0.6102964	n h e
-0.537022	r h e
-0.69477767	s h e
-0.7973168	p h e
-0.76090646	l h e
-1.2186953	g h e
-0.58538455	c h e
-0.6415963	k h e
-0.5266186	t h e
-0.49722266	d h e
-0.64089376	f h e
-1.2977282	y h e
-0.61209583	w h e
-0.93206376	z h e
-2.6578395	<w> e e
-1.4223349	b e e
-2.0377448	o e e
-1.3997314	h e e
-2.3538394	e e e
-2.1066976	m e e
-2.9533212	i e e
-1.9023342	a e e
-1.6737697	n e e
-1.1878588	r e e
-1.4964021	s e e
-1.6123109	p e e
-1.6961522	l e e
-1.6803026	u e e
-1.8992609	g e e
-2.3701367	v e e
-1.8875519	c e e
-1.318614	k e e
-1.6163025	t e e
-1.7671095	d e e
-1.2456391	f e e
-1.772597	y e e
-1.0126569	w e e
-2.2680094	z e e
-1.7549037	j e e
-0.7981958	<w> m e
-1.0012332	b m e
-0.7066645	o m e
-0.4986234	h m e
-0.63526744	e m e
-0.47855318	m m e
-0.6708864	i m e
-0.687196	a m e
-0.3728481	n m e
-0.7460173	r m e
-1.0598038	s m e
-0.44799066	p m e
-0.6736099	l m e
-0.8889533	u m e
-0.353779	g m e
-0.9432266	k m e
-0.3308902	t m e
-0.9477198	d m e
-1.2453079	f m e
-0.5915368	y m e
-0.6416127	w m e
-0.6527034	z m e
-2.9268157	<w> i e
-1.4451579	b i e
-2.3390646	o i e
-1.2698387	h i e
-2.3642046	e i e
-1.8334489	m i e
-2.128595	a i e
-1.3395448	n i e
-1.0083057	r i e
-1.4625888	s i e
-1.0793333	p i e
-1.2467293	l i e
-1.3948811	u i e
-1.3304957	g i e
-1.0623033	v i e
-0.998262	c i e
-1.4193015	k i e
-1.3357109	t i e
-1.2945404	d i e
-0.7696898	f i e
-1.5475247	y i e
-1.8867364	w i e
-1.2136575	x i e
-1.0037314	z i e
-2.0024185	<w> a e
-2.7672925	b a e
-1.9579415	h a e
-2.648991	e a e
-2.4185617	m a e
-2.7244914	i a e
-1.3952646	a a e
-2.1929553	n a e
-2.388441	r a e
-2.7365465	s a e
-2.6713095	p a e
-2.5498378	l a e
-2.3299294	g a e
-2.630943	v a e
-2.8846257	c a e
-2.5704045	d a e
-2.482488	f a e
-2.2007108	z a e
-0.58892876	<w> n e
-0.89400536	b n e
-1.0901165	o n e
-0.5686561	h n e
-1.1039914	e n e
-0.6954055	m n e
-1.0517089	i n e
-1.40971	a n e
-0.44626728	n n e
-0.5935819	r n e
-0.44124842	s n e
-0.34354758	p n e
-0.14070137	l n e
-1.3550534	u n e
-0.6474529	g n e
-0.5209465	v n e
-0.6112231	c n e
-0.59094244	k n e
-0.17759997	t n e
-0.18398729	d n e
-0.3492719	f n e
-0.6920299	y n e
-0.76091385	w n e
-0.6620034	x n e
-0.25459585	<w> r e
-0.74631083	b r e
-0.9689557	o r e
-0.58168906	h r e
-1.0805613	e r e
-0.59617174	i r e
-1.155451	a r e
-0.34628537	n r e
-0.55235034	r r e
-0.44637105	s r e
-0.43817553	p r e
-0.78157854	l r e
-0.7048665	u r e
-0.6389027	g r e
-0.31470862	v r e
-0.5976405	c r e
-1.0951238	k r e
-0.9502034	t r e
-0.65698034	d r e
-0.4463055	f r e
-0.84826034	y r e
-0.69624674	w r e
-0.64087254	x r e
-0.9148545	<w> s e
-0.73166174	b s e
-0.7332302	o s e
-1.5379744	h s e
-1.5052284	e s e
-1.4104544	m s e
-1.1002029	i s e
-1.0514746	a s e
-1.1818283	n s e
-1.0837942	r s e
-0.7431848	s s e
-0.8908262	p s e
-1.3380368	l s e
-0.90400255	u s e
-2.411743	g s e
-1.4631943	v s e
-1.6532574	c s e
-1.8208196	k s e
-1.8074383	t s e
-1.8511794	d s e
-1.1980753	f s e
-1.2811836	y s e
-1.7266713	w s e
-1.1985903	x s e
-0.87295437	<w> p e
-0.85741043	b p e
-0.6579357	o p e
-0.9369824	e p e
-0.76075685	m p e
-1.1508212	i p e
-0.8713043	a p e
-1.3645664	n p e
-0.724688	r p e
-0.5325458	s p e
-0.45542356	p p e
-0.91364783	l p e
-0.7068706	u p e
-1.1364955	g p e
-1.0322347	k p e
-1.0622998	t p e
-1.0366211	d p e
-1.0634352	f p e
-0.4011165	y p e
-1.1954578	w p e
-0.47976667	x p e
-0.7193066	<w> l e
-0.25243232	b l e
-0.9401588	o l e
-0.47693714	h l e
-0.864535	e l e
-0.54143715	m l e
-0.8856237	i l e
-1.1668851	a l e
-0.70001405	n l e
-0.6713991	r l e
-0.7912119	s l e
-0.56970996	p l e
-0.70100486	l l e
-1.223109	u l e
-0.60521567	g l e
-0.8354652	v l e
-0.5905724	c l e
-0.28844228	k l e
-0.37282985	t l e
-0.37534952	d l e
-0.6910142	f l e
-0.72299165	y l e
-0.43971926	w l e
-0.27733275	x l e
-0.1773129	z l e
-1.9143618	b u e
-2.5126762	o u e
-1.9923418	h u e
-1.9635178	e u e
-1.9838799	m u e
-1.7455547	a u e
-1.1870296	n u e
-1.5293828	r u e
-1.5834959	s u e
-2.063954	p u e
-1.0145724	l u e
-0.6760812	g u e
-1.8683181	c u e
-1.8025429	t u e
-1.4891937	d u e
-1.7756927	f u e
-0.46385372	q u e
-1.0523171	z u e
-2.0265274	j u e
-0.94535583	<w> g e
-0.95644534	o g e
-0.972436	h g e
-0.9306849	e g e
-0.9392328	m g e
-1.2353878	i g e
-0.3980591	a g e
-1.2342856	n g e
-0.44078293	r g e
-1.2400892	s g e
-0.5595171	l g e
-1.0277387	u g e
-0.39831972	g g e
-0.7823076	c g e
-0.90842277	t g e
-0.1372254	d g e
-1.1149664	y g e
-0.671784	z g e
-0.57698125	<w> v e
-0.2590531	b v e
-0.16235481	o v e
-0.6438798	h v e
-0.29998726	e v e
-0.15841515	i v e
-0.37233293	a v e
-0.35778064	n v e
-0.4184804	r v e
-0.44232047	s v e
-0.26104382	l v e
-0.23715669	u v e
-0.52657175	g v e
-0.4723221	v v e
-0.9251235	t v e
-0.36615658	d v e
-0.6438798	y v e
-0.60438603	z v e
-1.4571311	<w> c e
-1.1626496	o c e
-0.3992138	h c e
-1.0701413	e c e
-1.1703418	m c e
-1.0851706	i c e
-0.8576814	a c e
-0.3653373	n c e
-0.67646384	r c e
-0.94337344	s c e
-1.024004	p c e
-1.2344351	l c e
-0.98334336	u c e
-1.0263078	g c e
-0.6248204	c c e
-1.8886288	t c e
-1.2458562	d c e
-1.0462041	f c e
-0.79537046	y c e
-1.0947461	w c e
-0.4864983	x c e
-0.7391289	<w> k e
-0.44806948	o k e
-1.0142237	h k e
-0.8120852	e k e
-0.19052917	i k e
-0.30495661	a k e
-0.5841826	n k e
-0.58622503	r k e
-0.7616596	s k e
-0.74725527	p k e
-0.6559967	l k e
-0.41810364	u k e
-0.66255933	g k e
-0.57803893	c k e
-0.6420893	k k e
-0.76938695	d k e
-0.5160619	f k e
-0.6894013	y k e
-0.68007004	w k e
-0.8458713	<w> t e
-0.7868968	b t e
-0.81084895	o t e
-0.6888733	h t e
-0.8109939	e t e
-1.1657454	m t e
-0.8968467	i t e
-0.5419434	a t e
-0.7320741	n t e
-0.8471515	r t e
-0.75921273	s t e
-1.043595	p t e
-0.75372523	l t e
-0.86106133	u t e
-1.6956736	g t e
-0.9924239	c t e
-0.38259643	t t e
-1.6850367	d t e
-0.5995227	f t e
-0.83856726	y t e
-1.266398	w t e
-0.58214355	x t e
-0.5330829	z t e
-0.47280926	<w> d e
-0.8269231	o d e
-1.2608793	h d e
-1.6157291	e d e
-0.99600685	m d e
-0.38922083	i d e
-0.63760144	a d e
-0.55559695	n d e
-0.7828365	r d e
-0.80574405	s d e
-0.5978569	l d e
-0.52011806	u d e
-1.2182002	g d e
-0.9862175	c d e
-0.88249844	t d e
-0.5698651	d d e
-0.43613392	f d e
-0.87872154	y d e
-0.4537269	w d e
-0.99769825	<w> f e
-1.0402434	o f e
-0.7472364	e f e
-1.2669665	m f e
-1.0043702	i f e
-0.94003266	a f e
-0.81053966	n f e
-0.6914165	r f e
-0.67801666	s f e
-1.1654422	p f e
-1.0790553	l f e
-0.9805521	g f e
-0.470048	c f e
-1.3036786	k f e
-1.6350735	t f e
-0.51611024	f f e
-1.4269444	y f e
-1.1317643	w f e
-0.51834	z f e
-0.60714716	<w> y e
-1.4921649	b y e
-0.80714077	o y e
-2.2222931	h y e
-0.7301336	e y e
-1.540158	m y e
-0.6619167	i y e
-0.8557824	a y e
-1.3090818	n y e
-1.8416297	r y e
-2.1914847	s y e
-1.7545033	p y e
-1.9866083	l y e
-1.1324633	u y e
-1.4626901	v y e
-1.8615091	k y e
-1.7326545	t y e
-1.4085399	d y e
-2.0002234	f y e
-0.3366266	y y e
-0.6416451	w y e
-0.7486421	<w> w e
-0.72968864	b w e
-0.6667958	o w e
-0.75478005	h w e
-0.7396723	e w e
-0.7371384	m w e
-0.9047372	i w e
-1.1175982	a w e
-1.0207692	n w e
-0.71127415	r w e
-0.42339733	s w e
-0.9770299	l w e
-1.1636667	g w e
-1.229668	k w e
-0.55184066	t w e
-0.72052646	d w e
-0.91330004	y w e
-0.5574646	x w e
-0.56516093	z w e
-0.94059736	<w> x e
-0.9627095	o x e
-1.1254287	e x e
-0.87125343	i x e
-0.7794428	a x e
-1.1008253	n x e
-0.8530426	u x e
-0.26603988	k q e
-0.52814317	<w> z e
-0.22723252	b z e
-0.4462661	o z e
-0.44149968	h z e
-0.56196177	e z e
-0.2460471	i z e
-0.5322801	a z e
-0.6843298	n z e
-0.9652576	r z e
-0.5505912	s z e
-0.75582397	l z e
-1.1444395	u z e
-0.84323716	c z e
-0.796379	t z e
-0.7101188	d z e
-0.20595172	y z e
-1.0803488	z z e
-0.66708034	<w> j e
-0.04512534	b j e
-0.24263322	o j e
-0.44739872	e j e
-1.0089709	i j e
-0.6482524	a j e
-0.7143976	n j e
-0.7053763	r j e
-0.5432125	g j e
-1.0879161	d j e
-0.6979924	y j e
-1.2530675	</w> <w> m
-3.4763	<w> b m
-2.456129	e b m
-2.6842134	i b m
-1.4549555	u b m
-0.73398817	c b m
-1.800589	<w> o m
-1.7100531	b o m
-1.0626225	o o m
-1.243329	h o m
-1.6627004	e o m
-1.7910486	m o m
-2.2400558	i o m
-1.4860435	a o m
-1.1071179	n o m
-1.2276188	r o m
-1.0842443	s o m
-1.8985616	p o m
-1.8218809	l o m
-1.8547564	u o m
-1.9855914	g o m
-2.2365205	v o m
-0.7333814	c o m
-1.3782231	k o m
-1.2187295	t o m
-0.994814	d o m
-1.9796375	y o m
-1.3196611	w o m
-1.4127539	x o m
-1.4744169	z o m
-2.9300077	<w> h m
-1.1303458	o h m
-1.8793495	e h m
-1.3390969	i h m
-1.2353739	a h m
-2.0241303	r h m
-1.7042038	s h m
-1.5609201	u h m
-2.346066	g h m
-1.682911	c h m
-1.5884442	k h m
-1.9375235	t h m
-1.1010756	<w> e m
-2.4483364	b e m
-1.4543332	o e m
-1.3787804	h e m
-1.3901206	e e m
-1.5705339	m e m
-2.529792	i e m
-1.8926203	a e m
-1.8637197	n e m
-1.4938495	r e m
-1.3147427	s e m
-2.6430461	p e m
-1.541283	l e m
-2.0319028	u e m
-1.6320338	g e m
-1.9233607	v e m
-1.6241566	c e m
-2.0857587	k e m
-1.6160935	t e m
-1.4276934	d e m
-1.8131562	f e m
-2.2178695	y e m
-2.5503423	w e m
-0.9493758	x e m
-2.0050106	z e m
-2.1212466	j e m
-2.7723978	<w> m m
-0.8864591	o m m
-1.7094059	e m m
-2.322384	m m m
-1.0922095	i m m
-1.1614758	a m m
-2.713436	s m m
-1.0879054	u m m
-1.4013002	y m m
-0.84610075	<w> i m
-2.1968744	b i m
-1.620485	h i m
-1.4099646	e i m
-2.1504097	m i m
-1.5061581	i i m
-1.486764	a i m
-1.6390014	n i m
-1.3991758	r i m
-1.4125901	s i m
-2.0758414	p i m
-1.5229518	l i m
-2.4376798	u i m
-1.7839757	g i m
-2.7249563	v i m
-1.9051435	c i m
-1.6356874	k i m
-1.4511213	t i m
-1.6353052	d i m
-2.5258157	f i m
-2.12535	y i m
-2.0193403	w i m
-0.8061141	x i m
-1.5749036	z i m
-0.6210035	j i m
-1.3268316	<w> a m
-2.1774707	b a m
-1.3658154	o a m
-1.1224034	h a m
-1.3424346	e a m
-2.1513517	m a m
-1.582051	i a m
-0.9005705	a a m
-1.4050161	n a m
-1.3491064	r a m
-1.4776468	s a m
-1.9987518	p a m
-1.3344064	l a m
-2.2438931	u a m
-1.2343453	g a m
-2.1986356	v a m
-1.4569492	c a m
-1.5381349	k a m
-1.6212546	t a m
-1.0501158	d a m
-1.2146976	f a m
-1.8318788	y a m
-1.9250584	w a m
-0.5525585	x a m
-2.105609	z a m
-1.0354112	j a m
-3.006367	<w> n m
-2.2996802	o n m
-2.4031644	e n m
-2.8066323	i n m
-2.8206856	a n m
-1.5615973	r n m
-1.8824455	u n m
-1.7198255	g n m
-1.2363906	o r m
-2.4514387	h r m
-1.4885879	e r m
-1.3016963	i r m
-1.3563752	a r m
-2.8975005	r r m
-1.8776605	u r m
-1.7620412	<w> s m
-1.9036167	o s m
-2.3185656	e s m
-2.0653715	m s m
-1.07217	i s m
-1.9241508	a s m
-2.1003153	n s m
-3.0631669	r s m
-1.942563	s s m
-2.4347143	p s m
-2.476053	l s m
-2.3149521	u s m
-1.9619331	k s m
-1.8628976	t s m
-1.8686002	d s m
-1.8518269	f s m
-2.3058276	y s m
-1.9093388	w s m
-3.4270942	<w> p m
-2.2490032	o p m
-2.6003165	e p m
-2.5703547	m p m
-1.7503897	i p m
-2.671405	a p m
-2.395907	r p m
-2.5782642	p p m
-1.9438565	l p m
-2.4536152	u p m
-1.8452508	o l m
-1.8770453	e l m
-1.9137111	i l m
-1.8803232	a l m
-2.6052072	r l m
-2.0306199	l l m
-1.9411818	u l m
-2.187387	<w> u m
-1.5484662	b u m
-2.5702162	o u m
-0.7101927	h u m
-1.1479716	e u m
-1.4967817	m u m
-0.2181976	i u m
-1.697289	a u m
-0.8294532	n u m
-0.91509086	r u m
-1.1218699	s u m
-1.5050886	p u m
-0.8222091	l u m
-0.4304057	u u m
-1.5443127	g u m
-1.0621288	c u m
-1.5719498	k u m
-1.2747979	t u m
-1.3051175	d u m
-1.5811502	f u m
-1.2161467	y u m
-1.10383	w u m
-1.3137985	j u m
-1.9736204	o g m
-2.1841803	e g m
-1.8300118	i g m
-1.845489	a g m
-2.6738536	n g m
-2.188765	u g m
-1.4667066	d g m
-1.5289896	y g m
-0.5691967	m v m
-3.3670356	<w> c m
-3.4383018	i c m
-3.235762	a c m
-2.7661912	r c m
-2.2260807	o k m
-2.0131605	e k m
-2.4530792	a k m
-1.9643664	n k m
-1.648047	r k m
-2.2923758	s k m
-2.0344095	l k m
-1.8035979	c k m
-2.460861	o t m
-2.1036658	h t m
-2.3430943	e t m
-2.3514307	i t m
-2.6359665	a t m
-2.3940125	n t m
-1.8701404	r t m
-2.1490088	s t m
-2.0346277	l t m
-2.0175927	u t m
-2.3523948	c t m
-2.7684803	t t m
-2.1930146	o d m
-2.9253168	e d m
-2.4655113	i d m
-1.3767116	a d m
-1.9850533	n d m
-2.0809197	r d m
-2.3314638	l d m
-2.4267297	u d m
-3.3630977	<w> f m
-2.3413448	o f m
-2.4589365	a f m
-1.5483582	l f m
-2.214039	f f m
-1.7570152	<w> y m
-1.3206358	o y m
-1.5111955	h y m
-1.6629883	e y m
-1.9804341	m y m
-1.3974601	a y m
-1.1100916	n y m
-1.8556211	r y m
-0.73367846	s y m
-1.8895541	l y m
-1.1431235	g y m
-1.8602046	c y m
-2.104096	t y m
-1.6436307	d y m
-1.4929278	w y m
-1.2545581	x y m
-0.98166066	z y m
-3.1983495	<w> w m
-1.8329699	o w m
-2.37692	e w m
-1.7416837	a w m
-1.9752083	o x m
-2.1641223	e x m
-1.8194726	i x m
-1.3116233	l z m
-1.9069226	t z m
-2.032972	z z m
-1.418739	</w> <w> i
-1.1791975	<w> b i
-0.7153424	b b i
-0.95874286	o b i
-1.4720359	h b i
-1.4570863	e b i
-0.92537916	m b i
-0.78237116	i b i
-0.9249283	a b i
-1.6374462	n b i
-0.8323544	r b i
-1.5698576	s b i
-1.2828695	l b i
-1.2355719	u b i
-1.3895208	k b i
-1.2738554	t b i
-1.1576805	d b i
-1.123913	f b i
-1.6080798	y b i
-0.9552307	w b i
-0.31741032	j b i
-1.8266777	<w> o i
-1.5596087	b o i
-2.6818123	o o i
-1.9248021	h o i
-2.1870873	e o i
-1.8158067	m o i
-3.0918794	i o i
-1.1946492	a o i
-1.7040654	n o i
-1.7714925	r o i
-1.870505	s o i
-1.2537814	p o i
-1.7761394	l o i
-1.5957358	u o i
-1.4350795	g o i
-1.1432052	v o i
-2.0526655	c o i
-1.8686934	k o i
-1.8152685	t o i
-1.8391949	d o i
-2.2004383	f o i
-2.2719421	w o i
-1.6120675	z o i
-0.8325984	j o i
-0.9603533	<w> h i
-1.0047674	o h i
-0.899477	h h i
-1.28998	e h i
-0.5764757	i h i
-1.2568066	a h i
-0.9514809	n h i
-0.9811345	r h i
-0.67283297	s h i
-0.6439698	p h i
-1.3661655	l h i
-1.3512881	u h i
-1.7783332	g h i
-0.7984209	c h i
-0.9509862	t h i
-0.99723107	d h i
-0.34636104	w h i
-0.5478158	x h i
-0.7903299	z h i
-1.6239185	<w> e i
-1.9116197	b e i
-1.6147531	o e i
-1.5503744	h e i
-1.9089695	e e i
-2.358952	m e i
-2.8888595	i e i
-2.0296721	n e i
-1.781667	r e i
-2.1033587	s e i
-2.40696	p e i
-2.0383203	l e i
-2.397163	u e i
-2.4800534	g e i
-2.178815	v e i
-1.5855125	c e i
-2.3556867	k e i
-2.090228	t e i
-2.3007884	d e i
-1.9071456	f e i
-1.4968125	y e i
-1.1718428	w e i
-1.9495049	x e i
-2.2747624	z e i
-0.74554396	<w> m i
-0.53731364	b m i
-0.8903652	o m i
-1.0972164	h m i
-0.75342655	e m i
-0.7954918	m m i
-0.86409366	i m i
-0.79967713	a m i
-0.8185526	n m i
-0.69591945	r m i
-0.98493737	s m i
-0.91878575	l m i
-1.1244657	u m i
-1.5937961	g m i
-0.8812983	c m i
-1.4085784	k m i
-1.2332599	t m i
-0.34724405	d m i
-0.63579756	f m i
-1.209805	y m i
-1.0368073	w m i
-0.98873156	x m i
-3.1702025	<w> i i
-2.6005034	h i i
-2.5042071	e i i
-2.8263295	m i i
-2.6825218	a i i
-2.992593	n i i
-3.1435633	r i i
-2.7277348	g i i
-2.2707639	k i i
-3.3214855	t i i
-2.9296548	d i i
-2.361845	y i i
-2.1327066	x i i
-1.6251103	<w> a i
-1.8111895	b a i
-1.3732694	h a i
-3.0357606	e a i
-1.5315149	m a i
-2.680522	i a i
-1.6284418	n a i
-1.2183189	r a i
-1.362333	s a i
-1.2343208	p a i
-1.359523	l a i
-1.8432304	u a i
-1.3016424	g a i
-1.4977762	v a i
-2.1761866	c a i
-1.7026385	k a i
-1.105144	t a i
-1.4309379	d a i
-1.003894	f a i
-1.2867383	w a i
-1.8382577	x a i
-2.1381838	z a i
-1.6245317	j a i
-0.9274114	<w> n i
-1.054385	b n i
-1.2439542	o n i
-0.8807975	h n i
-1.3443404	e n i
-0.6625501	m n i
-1.4708328	i n i
-1.1532001	a n i
-0.6469832	n n i
-0.8443565	r n i
-1.0637494	s n i
-1.2612431	p n i
-1.2948842	l n i
-1.0348352	u n i
-0.67104226	g n i
-0.523115	v n i
-0.51400596	c n i
-0.7797221	k n i
-0.99346143	t n i
-1.2306811	d n i
-0.926395	f n i
-0.9467539	y n i
-1.201063	w n i
-1.0990946	<w> r i
-0.62066895	b r i
-0.99650556	o r i
-0.68771476	h r i
-1.0897521	e r i
-0.7577335	m r i
-1.0997037	i r i
-0.9311759	a r i
-0.75710183	n r i
-0.5703638	r r i
-1.4934175	s r i
-0.8302589	p r i
-0.8355742	l r i
-1.0022266	u r i
-0.97943383	g r i
-1.1438038	v r i
-0.701327	c r i
-0.75190324	k r i
-0.6505568	t r i
-0.6690111	d r i
-0.80644447	f r i
-0.7329187	y r i
-0.35689345	w r i
-0.6651453	z r i
-1.191691	<w> s i
-1.2545747	b s i
-0.8905737	o s i
-2.066371	h s i
-1.4670776	e s i
-1.6181527	m s i
-1.2751517	i s i
-1.2004023	a s i
-1.0251228	n s i
-1.2843468	r s i
-0.7022904	s s i
-1.228436	p s i
-1.2259104	l s i
-1.0467118	u s i
-1.9144055	g s i
-1.6567309	c s i
-1.6709415	k s i
-1.879251	t s i
-1.7530304	d s i
-1.6920534	f s i
-0.9308031	y s i
-1.5958375	w s i
-1.0404056	x s i
-1.1465206	<w> p i
-1.0366687	o p i
-1.0502017	h p i
-0.9950169	e p i
-1.2511665	m p i
-1.3217796	i p i
-1.1606867	a p i
-1.2827678	n p i
-1.2958679	r p i
-0.79930955	s p i
-0.8028042	p p i
-1.3445446	l p i
-1.2887646	u p i
-0.52563226	g p i
-0.5570933	k p i
-1.0820055	f p i
-1.1189659	y p i
-1.0760645	w p i
-1.5498194	x p i
-0.6505138	<w> l i
-0.909284	b l i
-0.84321856	o l i
-0.8443291	h l i
-0.9248769	e l i
-0.6377243	m l i
-0.70052797	i l i
-0.8102778	a l i
-0.6400913	n l i
-0.6771173	r l i
-0.8667693	s l i
-0.75796765	p l i
-0.84622383	l l i
-1.3549386	u l i
-0.7915524	g l i
-0.84069574	c l i
-0.7163782	k l i
-0.9318155	t l i
-0.7958848	d l i
-0.91523147	f l i
-0.7528411	y l i
-0.7646595	w l i
-0.9863677	x l i
-0.7516006	z l i
-1.2395631	b u i
-2.1729786	o u i
-2.135079	h u i
-2.0968862	e u i
-2.4772108	m u i
-2.525678	a u i
-1.4962672	n u i
-1.2486658	r u i
-1.432637	s u i
-2.4353867	p u i
-1.668607	l u i
-0.71348786	g u i
-1.779407	c u i
-2.0221977	t u i
-2.0614643	d u i
-2.5009232	f u i
-0.4878655	q u i
-1.652533	j u i
-1.1957968	<w> g i
-0.6244224	o g i
-0.80137825	e g i
-1.2088411	i g i
-1.0843434	a g i
-1.788181	n g i
-0.83040583	r g i
-0.9407898	s g i
-0.6422485	l g i
-1.7678326	u g i
-0.7073143	g g i
-1.1515384	d g i
-1.0760517	f g i
-0.98863435	y g i
-0.46685824	<w> v i
-0.6455053	b v i
-0.82943046	o v i
-0.6178906	h v i
-0.7063428	e v i
-0.4566778	m v i
-0.78374374	i v i
-0.5994845	a v i
-0.526565	n v i
-0.48070237	r v i
-0.28000316	s v i
-0.6818011	l v i
-0.9118633	u v i
-0.64738375	g v i
-0.21146587	k v i
-0.7900458	t v i
-0.5716121	d v i
-0.4566778	f v i
-0.6178906	y v i
-0.4566778	x v i
-0.21146587	q v i
-1.596986	<w> c i
-1.0059445	o c i
-1.1012942	e c i
-1.1228275	m c i
-0.99786055	i c i
-1.1090958	a c i
-0.97953314	n c i
-1.139326	r c i
-1.0404772	s c i
-1.0481622	p c i
-1.1259689	l c i
-1.0580189	u c i
-1.2202524	c c i
-2.2856765	t c i
-1.4049768	d c i
-1.5269463	f c i
-1.7074467	y c i
-0.9404527	x c i
-0.6288671	<w> k i
-0.77919877	o k i
-1.0053629	h k i
-0.85793024	e k i
-0.37896162	m k i
-1.2055917	i k i
-0.7596667	a k i
-0.86565113	n k i
-0.9250537	r k i
-0.42451084	s k i
-0.31830585	p k i
-0.870216	l k i
-1.2917169	u k i
-0.82078415	g k i
-1.0066656	c k i
-0.9785556	k k i
-0.51133305	t k i
-0.5826906	d k i
-0.68516475	y k i
-0.6763525	w k i
-1.1091425	<w> t i
-1.1329349	b t i
-0.8705251	o t i
-1.2338977	h t i
-0.91216946	e t i
-0.7095236	i t i
-0.42606607	a t i
-0.80930734	n t i
-0.6940943	r t i
-0.8221188	s t i
-0.36063385	p t i
-0.67565084	l t i
-0.7909318	u t i
-1.3595355	g t i
-0.39524364	c t i
-0.8120492	k t i
-0.83227205	t t i
-0.937434	d t i
-1.240245	f t i
-0.86380947	y t i
-1.4024692	w t i
-1.0283074	x t i
-0.5262308	<w> d i
-0.8131607	b d i
-0.81337196	o d i
-0.9540058	h d i
-1.4119724	e d i
-0.98104054	m d i
-0.9898149	i d i
-0.8189814	a d i
-0.83186257	n d i
-0.8623916	r d i
-0.7449857	s d i
-0.982428	p d i
-0.8856927	l d i
-0.73731744	u d i
-1.201483	g d i
-0.48240742	v d i
-0.8003373	t d i
-0.63265616	d d i
-0.9940312	f d i
-1.3608228	y d i
-1.2947934	w d i
-0.7836546	<w> f i
-0.7579362	b f i
-1.0370136	o f i
-0.825381	h f i
-0.83425564	e f i
-0.92572427	m f i
-0.46234646	i f i
-1.3331535	a f i
-0.6879695	n f i
-0.956788	r f i
-0.77735364	s f i
-1.142453	p f i
-0.9640078	l f i
-0.9661803	g f i
-0.8484447	k f i
-0.79586685	t f i
-0.6539041	d f i
-0.6819778	f f i
-0.4412763	y f i
-0.81106246	w f i
-1.0249419	x f i
-1.4254742	<w> y i
-1.9029428	b y i
-1.3781029	o y i
-1.71315	e y i
-1.0469775	i y i
-1.2490358	a y i
-1.5596917	n y i
-1.454464	r y i
-1.2710624	p y i
-1.8378749	l y i
-1.000474	u y i
-1.3926413	v y i
-2.0042393	c y i
-2.1088998	t y i
-1.4882345	d y i
-0.43668824	f y i
-0.7000815	<w> w i
-1.1576998	o w i
-0.80094576	h w i
-0.8321264	e w i
-0.56607974	m w i
-1.0543611	i w i
-1.1865783	a w i
-0.6776168	n w i
-0.88201267	r w i
-0.6073444	s w i
-1.0086036	p w i
-0.9808	l w i
-0.73927706	g w i
-1.3744105	k w i
-0.65035903	t w i
-0.5665083	d w i
-0.88261163	f w i
-0.72678584	y w i
-1.1828835	<w> x i
-0.5335722	o x i
-1.1048124	e x i
-0.99371815	i x i
-0.4386608	a x i
-0.42050964	n x i
-0.46651676	r x i
-1.3956745	u x i
-2.2105594	s q i
-0.69268984	<w> z i
-1.1374843	o z i
-0.6294461	h z i
-0.9481045	e z i
-0.85884446	i z i
-0.6376555	a z i
-0.9010534	n z i
-1.0125701	r z i
-0.9256099	l z i
-1.4037515	u z i
-1.3542833	t z i
-0.73578143	d z i
-1.2454892	y z i
-0.82827264	z z i
-1.3252819	<w> j i
-1.2890862	o j i
-1.1390232	i j i
-1.2974445	a j i
-1.5045183	n j i
-0.43213674	u j i
-1.2122153	</w> <w> a
-0.7241141	<w> b a
-1.4551111	b b a
-1.0448151	o b a
-0.8303909	h b a
-0.93339586	e b a
-0.98672086	m b a
-1.3520042	i b a
-1.3085366	a b a
-0.8136735	n b a
-0.69725895	r b a
-0.75540847	s b a
-1.0908436	p b a
-0.76328236	l b a
-1.3487555	u b a
-0.8598318	g b a
-1.1110883	k b a
-0.51623106	t b a
-0.82638764	d b a
-0.8301964	f b a
-1.0133611	y b a
-0.66159207	w b a
-0.66211605	x b a
-1.8071308	<w> o a
-1.0158563	b o a
-1.931871	h o a
-2.322367	e o a
-2.2886987	m o a
-2.8642855	i o a
-2.7000635	n o a
-1.4118731	r o a
-1.8484267	s o a
-2.4004529	p o a
-1.4775474	l o a
-1.496494	g o a
-1.6099601	c o a
-1.99768	k o a
-2.0910156	t o a
-1.9912661	d o a
-1.8414414	f o a
-2.4007413	w o a
-1.4997029	z o a
-1.7230198	j o a
-0.50587034	<w> h a
-1.0074649	b h a
-0.87684834	o h a
-1.3021507	h h a
-0.6049159	e h a
-0.85627216	m h a
-0.77639675	i h a
-0.77525914	a h a
-0.48889202	n h a
-0.70131636	r h a
-0.81250584	s h a
-0.8835534	p h a
-0.69012827	l h a
-1.1786748	u h a
-1.3422227	g h a
-0.7392547	c h a
-0.47851983	k h a
-1.1468198	t h a
-0.6582467	d h a
-0.80511963	f h a
-0.6372586	y h a
-0.9701394	w h a
-0.40400648	x h a
-0.91106415	z h a
-1.3593605	<w> e a
-1.0307282	b e a
-1.9714804	o e a
-0.89077675	h e a
-1.9762939	e e a
-1.4425279	m e a
-1.4178116	a e a
-1.5701264	n e a
-1.0245197	r e a
-1.3965791	s e a
-1.2003789	p e a
-1.2449037	l e a
-1.6435201	u e a
-1.7054737	g e a
-2.0938616	v e a
-1.614969	c e a
-2.2730122	k e a
-1.6696509	t e a
-1.4716535	d e a
-1.1313734	f e a
-0.73776996	y e a
-0.982356	w e a
-1.923349	z e a
-1.2703595	j e a
-0.49784932	<w> m a
-0.6106226	b m a
-1.0222974	o m a
-0.47509652	h m a
-0.8654856	e m a
-0.7585021	m m a
-0.9066488	i m a
-1.0274395	a m a
-0.6697792	n m a
-0.5701046	r m a
-0.69009954	s m a
-0.44610906	p m a
-0.51686126	l m a
-1.1394967	u m a
-0.40569508	g m a
-0.7155679	c m a
-0.16326298	k m a
-0.51028144	t m a
-0.66687137	d m a
-0.38713253	f m a
-0.77458394	y m a
-0.38490275	w m a
-0.4539187	x m a
-0.46723443	z m a
-1.3251556	b i a
-2.06782	o i a
-1.6222367	h i a
-1.94696	e i a
-1.6778544	m i a
-1.3855808	i i a
-2.7898147	a i a
-1.2178459	n i a
-1.1258101	r i a
-1.4500595	s i a
-1.3755282	p i a
-1.3351408	l i a
-2.3769376	u i a
-1.2908373	g i a
-1.2614812	v i a
-0.8248692	c i a
-2.0175352	k i a
-1.4980047	t i a
-1.1087918	d i a
-1.8408959	f i a
-2.5967023	w i a
-1.3347485	x i a
-1.9873623	z i a
-2.6550229	<w> a a
-2.9155831	b a a
-2.705227	h a a
-3.233601	m a a
-1.2757092	a a a
-2.0898159	s a a
-3.0396984	l a a
-2.8433366	g a a
-2.8421044	w a a
-1.8248171	z a a
-0.7871115	<w> n a
-1.0673499	b n a
-1.14088	o n a
-0.9680784	h n a
-1.5059193	e n a
-0.73615193	m n a
-1.3326046	i n a
-1.3781701	a n a
-0.9608301	n n a
-0.79208905	r n a
-0.66235214	s n a
-1.3414168	u n a
-0.6561695	g n a
-0.9338111	c n a
-1.2188997	k n a
-1.2939209	t n a
-0.94218355	d n a
-0.9362732	f n a
-0.8290371	y n a
-1.860602	w n a
-0.48542	x n a
-0.85722375	<w> r a
-0.60235983	b r a
-1.1739426	o r a
-1.0989358	h r a
-1.1954818	e r a
-0.38606834	m r a
-1.1811597	i r a
-1.2383418	a r a
-0.939791	n r a
-0.82782596	r r a
-0.9268659	s r a
-1.1903577	p r a
-0.8336846	l r a
-1.0596206	u r a
-0.3338827	g r a
-1.1372463	v r a
-0.68782055	c r a
-0.5626546	k r a
-0.43162626	t r a
-0.6448291	d r a
-0.5973815	f r a
-0.7966753	y r a
-0.8348119	w r a
-0.6342427	x r a
-0.6620222	z r a
-1.109382	<w> s a
-1.499995	o s a
-1.5512505	h s a
-2.3156576	e s a
-2.2648413	m s a
-1.492802	i s a
-1.6631492	a s a
-1.7224929	n s a
-1.6289788	r s a
-1.2480925	s s a
-1.8130059	p s a
-1.8287245	l s a
-1.604318	u s a
-2.3517673	g s a
-1.8402675	k s a
-2.2752733	t s a
-2.340875	d s a
-1.4192388	f s a
-2.2872124	y s a
-1.7605247	w s a
-0.7318078	<w> p a
-0.84535044	b p a
-1.3996412	o p a
-0.86143243	h p a
-0.9307447	e p a
-0.912429	m p a
-1.0746197	i p a
-1.2553062	a p a
-0.65659183	n p a
-1.1025326	r p a
-0.91085726	s p a
-1.345203	p p a
-1.0678878	l p a
-1.4400766	u p a
-1.1189209	g p a
-0.9946277	c p a
-0.85334146	k p a
-0.8500817	t p a
-0.63730466	d p a
-0.7444822	f p a
-1.2886251	y p a
-1.0491306	w p a
-1.0532124	x p a
-0.6337016	<w> l a
-1.0514171	b l a
-1.1296892	o l a
-1.2824249	h l a
-1.2361861	e l a
-1.525236	m l a
-1.3013145	i l a
-1.4178858	a l a
-0.71373796	n l a
-0.89030313	r l a
-0.6801415	s l a
-0.4404229	p l a
-1.0316705	l l a
-0.63799787	u l a
-0.819476	g l a
-0.84045553	v l a
-0.5425488	c l a
-0.9462085	k l a
-1.1680207	t l a
-1.6045215	d l a
-0.58179915	f l a
-0.83516026	y l a
-1.7248049	w l a
-0.2691597	q l a
-2.584742	b u a
-2.9622295	o u a
-1.904227	h u a
-2.1185358	i u a
-2.5437505	a u a
-1.1478789	n u a
-2.1088068	r u a
-1.4209446	s u a
-2.451891	p u a
-1.5442224	l u a
-0.9147101	g u a
-2.2635634	c u a
-0.98613846	t u a
-1.1139885	d u a
-0.5796836	x u a
-0.5402388	q u a
-1.6579547	j u a
-0.74296284	<w> g a
-1.0830394	o g a
-0.616726	h g a
-0.6940545	e g a
-1.1094605	i g a
-1.1844835	a g a
-1.8884162	n g a
-0.8788197	r g a
-1.0892329	s g a
-0.9815216	p g a
-0.66736144	l g a
-1.1391206	u g a
-1.4142196	g g a
-0.9085875	t g a
-1.6883857	d g a
-0.8960417	f g a
-1.3418272	y g a
-0.67024916	x g a
-0.6527468	<w> v a
-1.1658888	o v a
-0.7702513	h v a
-0.831794	e v a
-0.9574011	i v a
-0.8883718	a v a
-0.9094257	n v a
-0.6612072	r v a
-1.3718494	s v a
-0.6845578	l v a
-0.92942625	u v a
-0.6746266	g v a
-0.5265852	t v a
-0.7693438	d v a
-0.4724418	f v a
-0.7702513	y v a
-0.4724418	x v a
-0.6045482	z v a
-0.7589997	<w> c a
-0.9864584	b c a
-0.84197164	o c a
-1.0101662	h c a
-1.3652881	e c a
-1.1586238	m c a
-0.5952189	i c a
-1.5647385	a c a
-1.5418013	n c a
-1.161186	r c a
-0.85075545	s c a
-1.0089166	p c a
-0.947997	l c a
-1.2983475	u c a
-1.0088973	g c a
-0.9345425	c c a
-0.6364613	k c a
-1.409846	t c a
-0.6184801	d c a
-1.4732826	f c a
-1.4197516	y c a
-0.6245334	w c a
-1.2542967	x c a
-0.7676709	<w> k a
-1.5275708	o k a
-0.50703543	h k a
-1.4979974	e k a
-1.2953724	i k a
-1.3439595	a k a
-1.3622936	n k a
-1.3961755	r k a
-1.2466111	s k a
-1.1012666	p k a
-0.9030742	l k a
-1.0481386	u k a
-1.5339463	c k a
-0.6495248	k k a
-0.99835765	t k a
-0.5221809	f k a
-1.0353419	y k a
-0.9219542	<w> t a
-0.9310137	b t a
-1.2549634	o t a
-1.4860615	h t a
-1.1381435	e t a
-0.97157395	i t a
-1.6996382	a t a
-1.0802993	n t a
-1.1033114	r t a
-0.83043975	s t a
-1.2117721	p t a
-1.0619397	l t a
-1.330607	u t a
-1.8399597	g t a
-1.2022407	c t a
-0.8150995	k t a
-1.065001	t t a
-1.2211658	d t a
-1.9138114	f t a
-1.3019875	y t a
-1.7970487	x t a
-1.0593263	<w> d a
-0.97287416	b d a
-1.4183553	o d a
-1.1013733	h d a
-2.128516	e d a
-1.0887753	m d a
-1.1139798	i d a
-1.2471966	a d a
-1.151975	n d a
-1.324749	r d a
-0.34892076	s d a
-0.6413247	p d a
-1.5869337	l d a
-1.4258659	u d a
-0.8722478	g d a
-1.113766	c d a
-0.6244251	k d a
-1.2409328	t d a
-1.2685399	d d a
-1.3099654	f d a
-1.2406124	y d a
-1.2747879	w d a
-0.47776657	j d a
-0.7785345	<w> f a
-1.3131216	o f a
-1.2535403	h f a
-1.3196775	e f a
-1.9609673	i f a
-1.3332669	a f a
-0.9557373	n f a
-0.7173837	r f a
-0.7774176	s f a
-1.0295763	p f a
-1.1320662	l f a
-1.3745118	u f a
-1.1058184	g f a
-0.82477105	c f a
-0.63336325	k f a
-0.8231061	t f a
-0.68787456	d f a
-1.3565096	f f a
-1.2652857	y f a
-1.1125866	w f a
-0.51274157	z f a
-0.59112614	<w> y a
-1.8708857	b y a
-0.7117277	o y a
-1.7874694	h y a
-1.7056268	e y a
-1.0333415	i y a
-1.3067693	a y a
-1.6341356	n y a
-2.0764158	r y a
-1.7945538	p y a
-2.3405237	l y a
-1.4976016	v y a
-1.5009546	c y a
-1.5204532	k y a
-2.16565	t y a
-1.6376078	d y a
-1.4805858	w y a
-1.3869592	x y a
-0.5950152	<w> w a
-0.55637956	b w a
-1.2928458	o w a
-0.3648564	h w a
-0.77315736	e w a
-0.72573346	m w a
-0.3092405	i w a
-0.6733875	a w a
-0.37977216	n w a
-0.47719243	r w a
-0.614899	s w a
-0.36247012	p w a
-0.57826567	l w a
-0.2997432	u w a
-0.5146175	g w a
-0.3361538	k w a
-1.0691745	t w a
-0.58010757	d w a
-0.26828706	f w a
-0.5529293	y w a
-0.40226814	w w a
-1.1234298	<w> x a
-1.115342	o x a
-1.0088388	e x a
-1.7766023	i x a
-1.149442	a x a
-1.4586717	u x a
-0.857705	<w> z a
-0.8158492	o z a
-1.4905117	e z a
-0.69441813	i z a
-0.869452	a z a
-0.4977809	n z a
-0.7389072	r z a
-0.9261022	l z a
-1.3102869	u z a
-0.23559906	g z a
-0.40278262	c z a
-1.5398834	t z a
-0.74560106	y z a
-0.94317716	z z a
-0.6359717	<w> j a
-1.1817518	o j a
-1.0676279	e j a
-0.38290727	i j a
-0.75879264	a j a
-1.2158291	n j a
-0.754192	r j a
-0.41082883	p j a
-0.87995833	u j a
-0.6442847	g j a
-0.6442847	k j a
-0.56208205	t j a
-0.8584403	d j a
-0.5049212	y j a
-0.45485818	x j a
-1.6400247	</w> <w> n
-2.5955904	o b n
-2.456129	e b n
-2.5473151	m b n
-2.5258114	a b n
-2.572656	u b n
-1.0676019	<w> o n
-0.98407817	b o n
-1.076851	o o n
-1.1123024	h o n
-0.8313426	e o n
-0.5839393	m o n
-0.107420854	i o n
-1.4691676	a o n
-0.7448404	n o n
-1.012138	r o n
-0.524676	s o n
-1.0045657	p o n
-1.0157667	l o n
-1.7292306	u o n
-0.8203981	g o n
-1.6805478	v o n
-0.47827986	c o n
-0.8913517	k o n
-0.71184796	t o n
-0.89398444	d o n
-1.6919672	f o n
-0.67337066	y o n
-1.3631344	w o n
-0.40685272	x o n
-0.56896496	z o n
-1.1538672	j o n
-0.623733	o h n
-2.1702147	e h n
-1.3685151	i h n
-1.2995702	a h n
-1.9550217	s h n
-2.7203338	p h n
-1.1216753	u h n
-1.9247196	g h n
-1.9570285	c h n
-2.7995763	t h n
-0.7224237	<w> e n
-1.192142	b e n
-1.2952223	o e n
-1.2097329	h e n
-0.9165458	e e n
-0.45235455	m e n
-0.9594363	i e n
-1.8008903	a e n
-1.6449336	n e n
-1.2340931	r e n
-1.0272453	s e n
-0.9230435	p e n
-1.2290101	l e n
-0.89954925	u e n
-0.7992675	g e n
-0.8928721	v e n
-0.8847349	c e n
-0.9921956	k e n
-1.0399371	t e n
-0.9283626	d e n
-1.0829415	f e n
-1.6985142	y e n
-1.2092098	w e n
-1.0858675	x e n
-1.2332125	z e n
-1.0973086	j e n
-2.3756802	o m n
-2.0937333	h m n
-1.8996546	e m n
-2.5753653	m m n
-2.6286979	i m n
-2.0638728	a m n
-2.64963	r m n
-2.054549	l m n
-1.6849123	u m n
-1.4616328	y m n
-0.18454115	<w> i n
-0.79303855	b i n
-0.5334798	o i n
-0.6236587	h i n
-0.59135795	e i n
-0.4884563	m i n
-0.5909997	i i n
-0.44933784	a i n
-0.6336223	n i n
-0.71809155	r i n
-0.73074824	s i n
-0.5372893	p i n
-0.6112053	l i n
-0.918798	u i n
-0.4747082	g i n
-0.6939511	v i n
-0.8942143	c i n
-0.22975835	k i n
-0.72219014	t i n
-0.686106	d i n
-0.75620586	f i n
-0.05925376	y i n
-0.47065976	w i n
-0.9479052	x i n
-0.19043247	z i n
-0.9650526	j i n
-0.8625892	<w> a n
-0.8499678	b a n
-1.1506896	o a n
-0.6833577	h a n
-1.1858346	e a n
-0.54087335	m a n
-0.5174302	i a n
-1.1539669	n a n
-0.8199228	r a n
-0.8007238	s a n
-0.9816991	p a n
-0.7854984	l a n
-1.1971002	u a n
-0.798855	g a n
-0.80904365	v a n
-0.98841465	c a n
-0.96018416	k a n
-0.8359403	t a n
-0.82133126	d a n
-1.1257486	f a n
-0.5261763	y a n
-1.253281	w a n
-1.0038879	x a n
-1.1239127	z a n
-0.7454264	j a n
-2.8434818	<w> n n
-1.7700197	o n n
-1.6586895	h n n
-1.6560907	e n n
-1.9465336	i n n
-1.3695369	a n n
-2.1345727	n n n
-2.6158583	r n n
-1.4807403	u n n
-1.3717093	y n n
-1.3849348	o r n
-1.4622128	e r n
-2.470467	i r n
-1.5505862	a r n
-1.1424587	u r n
-2.1567159	y r n
-1.7153037	<w> s n
-2.754534	e s n
-2.7546782	i s n
-2.6316671	a s n
-3.2686408	r s n
-1.9820567	s s n
-2.6048858	p s n
-1.8425679	u s n
-3.4817827	<w> p n
-2.7776418	o p n
-2.753242	e p n
-2.7477083	m p n
-2.4208822	a p n
-2.4469213	r p n
-2.9149945	s p n
-1.7121623	y p n
-2.3667028	o l n
-3.1635647	e l n
-3.0122337	i l n
-2.5763557	a l n
-2.3065271	l l n
-1.6609272	u l n
-2.7864566	f l n
-0.09927676	<w> u n
-1.2598653	b u n
-0.7374856	o u n
-0.7672631	h u n
-1.2334821	e u n
-0.7886148	m u n
-2.0598452	i u n
-1.0981112	a u n
-1.278169	n u n
-0.9103037	r u n
-1.2279991	s u n
-0.9689088	p u n
-1.060459	l u n
-0.96288717	u u n
-1.0815696	g u n
-1.7682694	c u n
-1.1578064	k u n
-1.130177	t u n
-1.2656115	d u n
-0.9082691	f u n
-1.0719023	y u n
-1.10383	w u n
-0.76057196	j u n
-2.2694325	<w> g n
-1.3688354	o g n
-1.896971	e g n
-0.83654916	i g n
-1.1129019	a g n
-3.2035534	n g n
-2.0109	u g n
-1.5885375	t g n
-1.5062913	y g n
-2.897201	e v n
-3.0990238	i v n
-2.5980248	o c n
-1.2004128	m c n
-2.929619	i c n
-3.1893027	a c n
-2.5485966	c c n
-0.8422518	<w> k n
-2.1924264	o k n
-1.3456246	e k n
-2.1365352	a k n
-1.8006574	n k n
-1.7586741	r k n
-2.2939289	s k n
-1.4461352	l k n
-0.8692957	g k n
-1.6749896	c k n
-1.1855681	k k n
-0.85276335	t k n
-0.9010292	y k n
-2.592539	o t n
-1.8965006	h t n
-2.471166	e t n
-2.3912654	i t n
-2.6320438	a t n
-2.8621516	n t n
-2.1797836	r t n
-2.5628076	s t n
-2.261966	p t n
-2.5365715	l t n
-2.1151545	u t n
-2.559069	c t n
-1.8353227	f t n
-3.2497158	<w> d n
-1.953381	o d n
-2.3583672	e d n
-1.8258467	i d n
-2.0321229	a d n
-2.3093896	n d n
-2.0052507	r d n
-1.8819306	l d n
-2.4796438	u d n
-1.6080339	y d n
-2.5120125	o f n
-2.826618	i f n
-2.27104	u f n
-2.412569	f f n
-1.7054656	o y n
-1.5663657	h y n
-1.6629883	e y n
-1.5621082	m y n
-1.5099928	a y n
-2.2649531	r y n
-0.7641227	s y n
-1.8091881	p y n
-1.9087989	l y n
-1.1654456	u y n
-1.3501618	g y n
-1.5053	c y n
-1.8209177	k y n
-1.8676289	t y n
-1.0083538	d y n
-0.89340574	w y n
-1.33385	z y n
-0.63624597	o w n
-1.9469783	e w n
-1.0038261	a w n
-1.9752083	o x n
-2.6596622	e x n
-2.010162	a x n
-2.090893	e q n
-3.22385	<w> b </w>
-1.3695407	b b </w>
-1.5612314	o b </w>
-1.5406168	h b </w>
-1.667229	e b </w>
-1.3730861	m b </w>
-1.8188287	i b </w>
-2.004404	a b </w>
-1.4059248	r b </w>
-1.4016289	l b </w>
-1.5112815	u b </w>
-0.8725359	c b </w>
-1.7399575	t b </w>
-1.6978227	y b </w>
-2.700232	<w> o </w>
-1.9391823	b o </w>
-1.7896712	o o </w>
-1.9807582	h o </w>
-1.4546884	e o </w>
-1.7660514	m o </w>
-1.6234411	i o </w>
-0.6463063	a o </w>
-1.3921384	n o </w>
-1.6805545	r o </w>
-1.618703	s o </w>
-2.118475	p o </w>
-1.6194814	l o </w>
-1.5905223	u o </w>
-1.142719	g o </w>
-1.5176535	v o </w>
-1.7612498	c o </w>
-1.4427617	k o </w>
-1.3279798	t o </w>
-1.1483452	d o </w>
-2.65074	f o </w>
-1.5222081	y o </w>
-1.8469641	w o </w>
-0.9126453	z o </w>
-1.9494294	j o </w>
-1.0453572	b h </w>
-1.5732057	o h </w>
-1.3557779	h h </w>
-1.3433703	e h </w>
-1.2489597	i h </w>
-0.5201223	a h </w>
-1.7433956	n h </w>
-1.5178555	r h </w>
-0.8362927	s h </w>
-1.4169374	p h </w>
-1.3665993	l h </w>
-0.43398276	u h </w>
-1.0332919	g h </w>
-0.92780715	c h </w>
-1.5156944	k h </w>
-0.86954117	t h </w>
-1.7482979	d h </w>
-2.1792388	w h </w>
-0.24901298	j h </w>
-1.464775	b e </w>
-1.0129508	o e </w>
-1.6230177	h e </w>
-0.93287337	e e </w>
-1.0684448	m e </w>
-1.013498	i e </w>
-0.7692877	a e </w>
-0.7632047	n e </w>
-1.0676674	r e </w>
-0.8014262	s e </w>
-1.2723856	p e </w>
-0.6021027	l e </w>
-0.66670114	u e </w>
-0.67769146	g e </w>
-0.7040529	v e </w>
-0.5439617	c e </w>
-0.7663036	k e </w>
-0.853829	t e </w>
-1.0039401	d e </w>
-1.2797868	f e </w>
-1.3559037	y e </w>
-1.8247249	w e </w>
-1.8258636	x e </w>
-0.5753198	z e </w>
-2.1314802	j e </w>
-3.060169	<w> m </w>
-1.0187774	b m </w>
-1.1337597	o m </w>
-1.2083579	h m </w>
-1.4533542	e m </w>
-1.6479439	m m </w>
-1.4093308	i m </w>
-1.025555	a m </w>
-1.9659208	n m </w>
-1.0787325	r m </w>
-0.36748475	s m </w>
-1.3362426	p m </w>
-1.0814528	l m </w>
-0.65532154	u m </w>
-1.6197901	g m </w>
-0.2479384	v m </w>
-0.90149236	c m </w>
-1.6663549	y m </w>
-1.3501161	w m </w>
-1.9471656	b i </w>
-1.948288	o i </w>
-1.9470652	h i </w>
-1.5658915	e i </w>
-1.9889615	m i </w>
-0.6504208	i i </w>
-1.79106	a i </w>
-1.5255998	n i </w>
-1.9993904	r i </w>
-2.13315	s i </w>
-2.2231078	p i </w>
-1.7957945	l i </w>
-2.2406445	u i </w>
-1.9245929	g i </w>
-2.6477363	v i </w>
-2.1777763	c i </w>
-1.4377401	k i </w>
-2.1784368	t i </w>
-2.0658216	d i </w>
-2.6329417	f i </w>
-2.1250799	y i </w>
-2.5734208	w i </w>
-1.9767731	x i </w>
-1.6869155	z i </w>
-0.96745884	j i </w>
-3.091632	<w> a </w>
-1.6728699	b a </w>
-1.813546	o a </w>
-1.8590013	h a </w>
-1.7499055	e a </w>
-1.4438586	m a </w>
-0.84010166	i a </w>
-1.4450817	a a </w>
-1.1426467	n a </w>
-1.5801687	r a </w>
-1.421551	s a </w>
-2.1233819	p a </w>
-1.4512063	l a </w>
-1.773574	u a </w>
-1.5268039	g a </w>
-1.265373	v a </w>
-1.6204247	c a </w>
-0.842035	k a </w>
-1.3820561	t a </w>
-1.1265827	d a </w>
-2.287823	f a </w>
-1.1754738	y a </w>
-1.9766011	w a </w>
-1.8082892	x a </w>
-1.0665205	z a </w>
-1.9456623	j a </w>
-0.50304294	o n </w>
-0.7278305	h n </w>
-0.9561177	e n </w>
-0.8751161	m n </w>
-1.2446855	i n </w>
-0.81628144	a n </w>
-1.2113842	n n </w>
-0.7254456	r n </w>
-1.8689146	s n </w>
-1.2890873	p n </w>
-1.3098096	l n </w>
-1.6603012	u n </w>
-1.220511	g n </w>
-1.2683085	c n </w>
-1.8835621	t n </w>
-1.6264141	d n </w>
-1.1568959	y n </w>
-0.3349431	w n </w>
-0.5320047	q n </w>
-2.6750028	b r </w>
-0.99116063	o r </w>
-1.6098921	h r </w>
-0.6130439	e r </w>
-1.3102924	i r </w>
-1.1468596	a r </w>
-1.9244628	r r </w>
-1.5720568	s r </w>
-2.9986897	p r </w>
-1.2859728	u r </w>
-2.898127	g r </w>
-3.2136993	t r </w>
-2.517627	d r </w>
-2.6574533	f r </w>
-1.8544471	y r </w>
-1.9322134	w r </w>
-3.318911	<w> s </w>
-0.56303847	b s </w>
-0.8606485	o s </w>
-0.1449319	h s </w>
-0.2905427	e s </w>
-0.11823982	m s </w>
-1.0407941	i s </w>
-0.8839735	a s </w>
-0.28439274	n s </w>
-0.17927933	r s </w>
-0.41865095	s s </w>
-0.2825314	p s </w>
-0.15478532	l s </w>
-0.4785266	u s </w>
-0.07448191	g s </w>
-0.60070324	v s </w>
-0.07813752	c s </w>
-0.1304733	k s </w>
-0.06664679	t s </w>
-0.13216905	d s </w>
-0.2721502	f s </w>
-0.24202418	y s </w>
-0.17722449	w s </w>
-0.32067198	x s </w>
-0.22031707	z s </w>
-3.3137488	<w> p </w>
-1.1863918	o p </w>
-1.3771728	h p </w>
-1.2582221	e p </w>
-1.3303382	m p </w>
-0.80058277	i p </w>
-1.5370562	a p </w>
-1.5364144	r p </w>
-1.9559782	s p </w>
-1.9361585	p p </w>
-1.2112083	l p </w>
-0.8005544	u p </w>
-1.1221374	f p </w>
-2.0307927	y p </w>
-0.2553061	j p </w>
-3.0070457	b l </w>
-1.3701223	o l </w>
-1.3743422	h l </w>
-1.0525861	e l </w>
-1.6984748	m l </w>
-1.2270497	i l </w>
-0.59891105	a l </w>
-2.0187545	n l </w>
-1.2460599	r l </w>
-2.605696	s l </w>
-2.8508146	p l </w>
-0.9182135	l l </w>
-0.9543578	u l </w>
-2.6378224	g l </w>
-2.6612375	t l </w>
-2.4745338	d l </w>
-1.1502968	y l </w>
-0.83215004	w l </w>
-2.5204816	b u </w>
-2.3259733	o u </w>
-1.9772446	h u </w>
-1.4345788	e u </w>
-2.434838	m u </w>
-2.0782413	i u </w>
-1.3494354	a u </w>
-1.7933807	n u </w>
-2.0868137	r u </w>
-2.0055525	s u </w>
-2.0575047	l u </w>
-1.1381085	u u </w>
-1.5076263	v u </w>
-2.569971	c u </w>
-1.1659774	k u </w>
-2.1382096	t u </w>
-2.3468654	d u </w>
-2.459092	f u </w>
-1.2329592	y u </w>
-1.0417016	z u </w>
-2.0033684	j u </w>
-1.4911222	o g </w>
-1.6570864	e g </w>
-0.79697835	m g </w>
-1.7505035	i g </w>
-1.7560327	a g </w>
-0.1388057	n g </w>
-0.9460353	r g </w>
-1.4115794	u g </w>
-1.7411392	g g </w>
-1.0018743	k g </w>
-2.067359	d g </w>
-1.0541372	f g </w>
-1.3732222	y g </w>
-0.9823433	w g </w>
-0.85183316	x g </w>
-0.6802583	z g </w>
-1.3658524	o v </w>
-1.7034173	e v </w>
-2.8045585	i v </w>
-2.0544286	a v </w>
-2.29676	r v </w>
-0.8013686	t v </w>
-3.371783	<w> c </w>
-1.1955047	b c </w>
-2.1115017	o c </w>
-1.9199296	e c </w>
-1.6858597	m c </w>
-0.64392114	i c </w>
-1.7574849	a c </w>
-2.3901663	n c </w>
-2.3719914	r c </w>
-2.1648574	s c </w>
-2.465207	u c </w>
-0.85484165	k c </w>
-2.0783238	t c </w>
-1.5326173	d c </w>
-1.5510985	f c </w>
-1.8641338	y c </w>
-2.4573982	<w> k </w>
-0.7293392	o k </w>
-1.052005	h k </w>
-0.50493765	e k </w>
-1.0855263	i k </w>
-1.005306	a k </w>
-0.67113745	n k </w>
-0.63258684	r k </w>
-1.1507211	s k </w>
-0.8555187	l k </w>
-0.94687784	u k </w>
-0.61286855	c k </w>
-1.0546491	y k </w>
-1.151789	w k </w>
-0.25070852	j k </w>
-3.1253674	<w> t </w>
-1.2755668	b t </w>
-0.9943956	o t </w>
-0.53652894	h t </w>
-0.8335353	e t </w>
-0.65631276	m t </w>
-1.2430224	i t </w>
-1.6257797	a t </w>
-0.6122776	n t </w>
-0.9268569	r t </w>
-0.8440908	s t </w>
-0.86945295	p t </w>
-0.93765897	l t </w>
-1.0113502	u t </w>
-1.6892002	g t </w>
-0.99593735	c t </w>
-1.2782012	k t </w>
-1.075378	t t </w>
-0.70153385	d t </w>
-0.70408386	f t </w>
-1.7135898	y t </w>
-0.92135143	w t </w>
-1.5263628	x t </w>
-0.53137255	z t </w>
-1.2786111	b d </w>
-0.83557975	o d </w>
-1.2613561	h d </w>
-0.07526981	e d </w>
-0.827568	m d </w>
-0.93357784	i d </w>
-1.0136681	a d </w>
-0.8248242	n d </w>
-0.51129615	r d </w>
-1.5026537	s d </w>
-0.51895356	l d </w>
-1.2505589	u d </w>
-1.2185854	g d </w>
-0.67538154	v d </w>
-1.1429199	c d </w>
-1.0982691	t d </w>
-1.5067769	d d </w>
-1.1669363	y d </w>
-1.0241847	w d </w>
-3.0811608	<w> f </w>
-0.7838652	b f </w>
-1.1336875	o f </w>
-1.4243778	h f </w>
-1.4113244	e f </w>
-1.4249501	m f </w>
-2.0727894	i f </w>
-1.3118502	a f </w>
-1.3354485	r f </w>
-1.7599978	s f </w>
-0.90992403	p f </w>
-0.9875596	l f </w>
-1.9064293	t f </w>
-0.8663465	f f </w>
-1.6937069	y f </w>
-1.0661368	x f </w>
-2.0211525	<w> y </w>
-0.42509943	b y </w>
-0.7462568	o y </w>
-0.55518115	h y </w>
-0.33422086	e y </w>
-0.3973467	m y </w>
-0.47913593	a y </w>
-0.30294514	n y </w>
-0.14542705	r y </w>
-0.61939114	s y </w>
-0.29058635	p y </w>
-0.06970381	l y </w>
-1.2251878	u y </w>
-0.17166594	g y </w>
-0.30930912	v y </w>
-0.1912331	c y </w>
-0.20879032	k y </w>
-0.17007679	t y </w>
-0.27788392	d y </w>
-0.2535788	f y </w>
-1.0304667	y y </w>
-0.8726703	w y </w>
-0.43973038	x y </w>
-0.3644715	z y </w>
-0.94500554	o w </w>
-1.774848	h w </w>
-0.92878664	e w </w>
-0.93078166	a w </w>
-2.2896283	s w </w>
-2.2763999	t w </w>
-1.8217342	d w </w>
-1.1097364	f w </w>
-1.124818	w w </w>
-0.25506836	q w </w>
-0.7610936	o x </w>
-1.3840339	e x </w>
-0.68219435	i x </w>
-0.9820457	a x </w>
-0.5474915	n x </w>
-0.81356573	r x </w>
-0.23960455	s x </w>
-0.36211258	u x </w>
-0.56349957	x x </w>
-1.8631189	e q </w>
-1.7158248	i q </w>
-1.3319561	a q </w>
-1.7136426	n q </w>
-1.9724747	s q </w>
-0.44391054	p q </w>
-0.20416075	z q </w>
-1.1582159	o z </w>
-0.48941013	e z </w>
-1.838285	i z </w>
-1.9393196	a z </w>
-1.18742	n z </w>
-1.0478343	r z </w>
-0.9097824	s z </w>
-1.0663738	l z </w>
-1.3435024	u z </w>
-0.89760447	c z </w>
-0.28618363	t z </w>
-1.112875	z z </w>
-2.6052952	<w> j </w>
-1.6486255	e j </w>
-1.2979722	a j </w>
-1.7848785	n j </w>
-1.6279409	d j </w>
-0.77665466	y j </w>
-1.2657529	</w> <w> r
-0.7898345	<w> b r
-1.8245188	b b r
-1.7689315	o b r
-1.4420118	h b r
-0.74799705	e b r
-1.106992	m b r
-1.13941	i b r
-1.3858333	a b r
-1.1505505	n b r
-1.5831534	r b r
-1.4005394	s b r
-1.0810887	p b r
-0.9633806	l b r
-1.4459499	u b r
-1.1618345	g b r
-0.8173128	c b r
-1.2495812	k b r
-0.9904805	t b r
-1.2506877	d b r
-0.6553242	f b r
-1.2074815	y b r
-1.214479	w b r
-0.65839857	x b r
-0.8385952	<w> o r
-0.811272	b o r
-1.1904557	o o r
-0.82216287	h o r
-0.776599	e o r
-0.7683188	m o r
-1.6603674	i o r
-1.1861461	a o r
-0.889045	n o r
-1.9394035	r o r
-0.91119975	s o r
-0.7568765	p o r
-1.0107727	l o r
-0.7768384	u o r
-0.91918063	g o r
-0.799442	v o r
-1.0616728	c o r
-1.0098125	k o r
-0.50751126	t o r
-1.0479603	d o r
-0.22975677	f o r
-0.7614615	y o r
-0.3691634	w o r
-0.8254322	x o r
-1.1942525	z o r
-1.0348988	j o r
-2.9074526	<w> h r
-1.8606485	o h r
-1.8555133	e h r
-1.4957955	a h r
-1.4763283	s h r
-1.5043393	p h r
-1.4195502	l h r
-0.97504914	u h r
-2.3113856	g h r
-1.3749143	c h r
-1.3993692	k h r
-1.0310286	t h r
-1.5009589	y h r
-2.35492	w h r
-1.4639148	<w> e r
-0.5358635	b e r
-0.9892812	o e r
-0.5823592	h e r
-1.0619495	e e r
-0.8752446	m e r
-0.97667253	i e r
-0.70612484	a e r
-0.95105225	n e r
-1.8547356	r e r
-1.0291551	s e r
-0.44523352	p e r
-1.1454365	l e r
-1.005285	u e r
-0.7291907	g e r
-0.46607333	v e r
-1.0733835	c e r
-0.70902926	k e r
-0.5384124	t e r
-0.6846982	d e r
-0.54399014	f e r
-0.7094004	y e r
-0.76382494	w e r
-0.8159367	x e r
-1.0488595	z e r
-0.95458496	j e r
-3.0802593	<w> m r
-2.6097238	o m r
-2.9954548	e m r
-2.324834	a m r
-2.7407362	r m r
-2.2459955	l m r
-1.1096425	x m r
-1.3164911	<w> i r
-1.1540046	b i r
-1.3368182	o i r
-1.1369948	h i r
-1.542195	e i r
-1.5541434	m i r
-0.73722637	a i r
-2.4686542	n i r
-2.1108158	s i r
-1.0159589	p i r
-2.7160075	l i r
-1.0909597	u i r
-1.5260676	g i r
-1.5344576	v i r
-1.4273922	c i r
-1.3857142	k i r
-2.028141	t i r
-1.628337	d i r
-1.0563	f i r
-1.4962407	w i r
-2.1089454	z i r
-0.9866087	<w> a r
-0.74596465	b a r
-0.825907	o a r
-0.7101472	h a r
-0.694487	e a r
-0.8516293	m a r
-1.3968363	i a r
-1.0201762	a a r
-1.1076305	n a r
-1.8514229	r a r
-1.1273738	s a r
-0.5586062	p a r
-0.9261305	l a r
-0.70011955	u a r
-0.7949518	g a r
-1.0205686	v a r
-0.86111575	c a r
-0.8685172	k a r
-0.9851793	t a r
-0.99733335	d a r
-0.938917	f a r
-0.7674924	y a r
-0.58078206	w a r
-1.7058526	x a r
-0.8443903	z a r
-1.2335855	j a r
-2.9798677	<w> n r
-2.349393	o n r
-2.1194668	e n r
-3.340623	i n r
-3.4116282	a n r
-2.2515244	r n r
-1.6121693	u n r
-2.24183	k n r
-2.2647715	w n r
-1.4489782	o r r
-2.5995193	h r r
-1.5540707	e r r
-1.1962544	i r r
-1.1825279	a r r
-1.237568	u r r
-2.131031	y r r
-3.3426178	<w> s r
-2.6829123	o s r
-3.5592093	e s r
-2.028808	i s r
-2.8797834	a s r
-3.2402735	n s r
-2.2709942	s s r
-2.5808938	l s r
-3.0873475	u s r
-2.239047	c s r
-2.123865	w s r
-0.5738338	<w> p r
-0.988713	b p r
-1.4441667	o p r
-0.8654548	h p r
-0.89584434	e p r
-1.0742192	m p r
-1.7014464	i p r
-1.7997683	a p r
-0.6385027	n p r
-0.7570409	r p r
-1.112977	s p r
-0.87834	p p r
-1.1223509	l p r
-1.416104	u p r
-1.1278024	g p r
-1.0012257	c p r
-1.0575178	t p r
-0.7353777	d p r
-0.91102225	f p r
-1.291951	y p r
-1.1866852	w p r
-0.84674346	x p r
-3.0000873	o l r
-2.7529495	e l r
-2.3775887	i l r
-2.23795	a l r
-2.1609087	n l r
-2.3466835	l l r
-2.2321873	y l r
-1.5131615	<w> u r
-0.5389633	b u r
-0.8555373	o u r
-0.78707975	h u r
-0.57425845	e u r
-1.0546819	m u r
-2.0413702	i u r
-1.2091908	a u r
-1.3980393	n u r
-2.3420491	r u r
-0.7155506	s u r
-0.6709274	p u r
-1.3437413	l u r
-1.1352843	g u r
-1.1682793	v u r
-0.6366928	c u r
-1.3084561	k u r
-0.39505783	t u r
-1.1341131	d u r
-1.0050126	f u r
-1.1992015	y u r
-0.6111898	w u r
-0.5694145	x u r
-0.6572666	z u r
-0.9062587	j u r
-0.53488827	<w> g r
-0.2629221	b g r
-0.7050727	o g r
-0.94308853	h g r
-0.76579815	e g r
-0.9076862	m g r
-1.3861623	i g r
-1.2474312	a g r
-1.7926667	n g r
-1.5148923	r g r
-0.6186886	s g r
-0.27559257	p g r
-0.89770025	l g r
-2.154002	u g r
-1.1466068	g g r
-0.7595273	c g r
-0.273869	k g r
-0.47636735	t g r
-1.4086218	d g r
-0.99317867	f g r
-0.93823034	y g r
-0.4026122	w g r
-2.5517776	<w> v r
-2.6302452	e v r
-2.8377702	i v r
-2.3604808	a v r
-1.5299536	u v r
-1.071506	<w> c r
-1.2979069	o c r
-1.4414759	h c r
-1.2876859	e c r
-1.5379263	m c r
-1.8193637	i c r
-1.5288025	a c r
-1.6267965	n c r
-1.6699017	r c r
-0.75327474	s c r
-1.8560678	l c r
-1.6974193	u c r
-1.0266705	g c r
-1.50382	c c r
-0.97316486	k c r
-1.8888717	t c r
-1.2461891	d c r
-0.9234042	f c r
-1.68137	y c r
-1.0950459	w c r
-1.6534934	x c r
-1.1938012	<w> k r
-2.3613462	o k r
-2.2497125	a k r
-2.1395173	n k r
-2.3351758	r k r
-1.4848626	u k r
-2.2105534	c k r
-0.6693502	<w> t r
-0.7936142	b t r
-1.6792914	o t r
-2.0325413	h t r
-1.1138601	e t r
-1.746984	i t r
-1.7107887	a t r
-1.1352692	n t r
-1.6056409	r t r
-0.8506644	s t r
-2.3293138	p t r
-1.2684643	l t r
-1.5018837	u t r
-1.7169814	g t r
-1.2271845	c t r
-1.6009828	t t r
-1.493272	d t r
-1.9231575	f t r
-1.3798519	y t r
-0.5330193	x t r
-1.0500363	<w> d r
-1.1392851	b d r
-1.8422319	o d r
-0.5563019	h d r
-2.15333	e d r
-1.1080501	m d r
-2.4994724	i d r
-1.4816278	a d r
-1.4036053	n d r
-1.7802851	r d r
-1.6009333	s d r
-0.8327968	p d r
-1.593939	l d r
-2.2552688	u d r
-1.2018538	g d r
-0.8194135	k d r
-0.97042626	t d r
-1.5014197	d d r
-0.99419826	f d r
-0.31926432	y d r
-1.2952669	w d r
-0.8185245	<w> f r
-0.7581401	b f r
-1.3613452	h f r
-1.177969	e f r
-2.2487183	i f r
-1.2669165	a f r
-1.0902792	n f r
-1.5346555	r f r
-1.690584	s f r
-1.1429102	p f r
-1.0928692	l f r
-1.8939971	u f r
-0.96646893	g f r
-0.82477105	c f r
-1.2811435	k f r
-1.2741693	t f r
-1.5508155	d f r
-1.555807	f f r
-1.0702821	y f r
-1.2159839	w f r
-0.877801	x f r
-1.6572435	<w> y r
-1.0426714	b y r
-2.0967593	o y r
-1.1725879	h y r
-2.344378	e y r
-1.3568385	m y r
-2.0620542	a y r
-1.4155331	s y r
-0.8828538	p y r
-2.3037689	l y r
-1.0473512	g y r
-1.8791333	c y r
-1.8456141	k y r
-1.6265663	t y r
-1.5170355	w y r
-1.2321304	<w> w r
-2.150984	o w r
-1.5658594	e w r
-1.6340287	a w r
-1.2754855	n w r
-1.2781707	r w r
-1.9700425	s w r
-0.9024042	p w r
-1.6543894	l w r
-1.1142377	g w r
-1.6327525	d w r
-1.032436	y w r
-0.9355037	w w r
-0.584261	<w> x r
-2.5990775	e x r
-1.9400058	e z r
-1.3104283	l z r
-1.905211	t z r
-2.862511	<w> j r
-0.9412047	</w> <w> s
-3.2935371	<w> b s
-1.5780448	b b s
-0.8365335	o b s
-1.5477742	e b s
-1.5169435	m b s
-1.8340931	i b s
-1.205502	a b s
-1.4587147	r b s
-1.5402035	l b s
-0.80267465	u b s
-1.4235995	g b s
-1.5823498	<w> o s
-1.5575625	b o s
-1.2843385	o o s
-1.2657261	h o s
-1.5429903	e o s
-1.2810334	m o s
-1.8912437	i o s
-1.1863523	a o s
-1.2191966	n o s
-1.0925938	r o s
-2.2263546	s o s
-0.71683866	p o s
-1.257809	l o s
-1.3053173	u o s
-1.2634908	g o s
-1.8399409	v o s
-1.5702493	c o s
-1.3712533	k o s
-1.6495622	t o s
-1.4320533	d o s
-1.7917565	f o s
-1.5181974	y o s
-1.7170817	w o s
-1.5335866	x o s
-1.5961132	z o s
-1.1894844	j o s
-1.2264116	i h s
-1.248364	a h s
-2.334379	s h s
-1.7888888	p h s
-1.6199332	u h s
-1.4563646	g h s
-1.8327249	c h s
-1.4281695	t h s
-2.4440172	w h s
-1.35327	<w> e s
-1.1862371	b e s
-0.6969505	o e s
-0.9158629	h e s
-1.1554953	e e s
-1.2543256	m e s
-0.47804776	i e s
-0.92896634	a e s
-0.6418749	n e s
-0.7991781	r e s
-0.9408572	s e s
-1.467104	p e s
-0.819947	l e s
-0.70331794	u e s
-0.9382513	g e s
-1.07551	v e s
-0.80394727	c e s
-1.1587918	k e s
-1.1203307	t e s
-0.98259497	d e s
-1.0538554	f e s
-1.2496862	y e s
-1.1115255	w e s
-0.7620311	x e s
-1.03828	z e s
-1.0201302	j e s
-3.081193	<w> m s
-1.3642739	b m s
-1.5207416	o m s
-1.1640453	h m s
-1.7201866	e m s
-2.1073527	m m s
-1.5440516	i m s
-1.2667004	a m s
-1.2894628	r m s
-1.4296858	s m s
-1.2956631	l m s
-1.24555	u m s
-1.6666402	g m s
-1.7098199	y m s
-1.5078045	<w> i s
-1.3702928	b i s
-0.75776863	o i s
-1.245668	h i s
-1.001386	e i s
-0.81745887	m i s
-0.8947749	i i s
-1.1774011	a i s
-0.7602356	n i s
-1.0620914	r i s
-1.1357659	s i s
-1.3154159	p i s
-0.9972648	l i s
-0.747144	u i s
-0.98072565	g i s
-0.81077737	v i s
-1.0655277	c i s
-1.3474537	k i s
-1.4460824	t i s
-0.58880895	d i s
-1.3670168	f i s
-1.4645649	y i s
-0.8931464	w i s
-0.71436095	x i s
-1.9611882	z i s
-1.5181634	j i s
-1.1283976	<w> a s
-1.0008726	b a s
-1.2274052	o a s
-1.4638356	h a s
-0.94637984	e a s
-1.2116792	m a s
-1.4696375	i a s
-1.3348656	a a s
-1.3918726	n a s
-1.3698248	r a s
-1.578194	s a s
-1.0827581	p a s
-1.0478835	l a s
-1.4331685	u a s
-1.2446009	g a s
-1.2261286	v a s
-1.1824652	c a s
-1.3373771	k a s
-1.5555886	t a s
-1.4118222	d a s
-1.0596123	f a s
-1.6880854	y a s
-1.2226933	w a s
-1.1984907	x a s
-1.7427819	z a s
-1.6090251	j a s
-0.7442514	o n s
-0.892014	h n s
-1.0905093	e n s
-1.303783	m n s
-1.3128686	i n s
-1.0018163	a n s
-1.4075059	n n s
-1.0909266	r n s
-2.154267	s n s
-1.8102224	l n s
-1.2050177	u n s
-1.4911611	g n s
-1.9320734	d n s
-1.6843485	y n s
-0.9129474	w n s
-0.5388204	q n s
-3.1529427	<w> r s
-1.035437	o r s
-0.7333443	e r s
-1.1702144	m r s
-1.2048011	i r s
-1.340327	a r s
-2.3383262	r r s
-1.4321909	s r s
-1.153729	u r s
-2.8964915	c r s
-3.2437189	t r s
-2.6619444	d r s
-1.8810403	y r s
-0.25714216	j r s
-3.1327667	<w> s s
-0.9439458	o s s
-0.7424649	e s s
-1.9180228	m s s
-1.2043833	i s s
-0.6817476	a s s
-2.4846582	n s s
-2.9946682	r s s
-2.2088625	s s s
-2.4490266	p s s
-2.026411	l s s
-1.3560501	u s s
-2.2542768	k s s
-2.6883206	t s s
-2.5993676	d s s
-1.9611112	y s s
-2.0182023	w s s
-1.8121188	<w> p s
-1.1481237	o p s
-1.4382905	e p s
-1.4121356	m p s
-0.9133964	i p s
-1.273656	a p s
-1.5432556	r p s
-2.409541	s p s
-2.228322	p p s
-1.2946951	l p s
-1.0978389	u p s
-1.0659217	c p s
-1.5543958	y p s
-3.1405602	<w> l s
-1.5588444	o l s
-2.0949874	h l s
-1.3070419	e l s
-1.7640487	m l s
-1.4641485	i l s
-1.3392239	a l s
-1.6625553	r l s
-1.2479621	l l s
-1.410961	u l s
-2.5436304	d l s
-1.5821284	y l s
-1.1763203	w l s
-1.486218	<w> u s
-1.011169	b u s
-0.498039	o u s
-1.0405661	h u s
-1.0141822	e u s
-0.63719386	m u s
-0.57006043	i u s
-0.84492713	a u s
-1.0664356	n u s
-0.71416646	r u s
-1.2693954	s u s
-1.2521597	p u s
-0.79760396	l u s
-1.1076119	g u s
-1.1721561	v u s
-0.90401804	c u s
-1.456907	k u s
-1.3888152	t u s
-1.0355579	d u s
-1.0155767	f u s
-0.9052313	y u s
-1.2341254	w u s
-1.0261283	z u s
-0.680238	j u s
-1.779519	o g s
-1.7844929	e g s
-1.8613559	i g s
-1.845489	a g s
-1.2239479	n g s
-1.588694	r g s
-1.4344124	u g s
-1.4967481	g g s
-2.8565257	<w> v s
-1.7423267	o v s
-2.006893	e v s
-2.9664419	i v s
-2.5154989	a v s
-1.2462473	b c s
-2.3441222	o c s
-2.2759807	e c s
-1.7096473	m c s
-1.3997157	i c s
-2.1055145	a c s
-2.7806544	n c s
-2.5596137	r c s
-2.9226956	s c s
-2.4736624	u c s
-1.6225059	d c s
-2.440747	<w> k s
-1.0275159	o k s
-0.9317613	e k s
-1.4155989	i k s
-1.2903295	a k s
-0.9193564	n k s
-0.82149243	r k s
-1.4280267	s k s
-0.8872426	l k s
-1.513122	u k s
-0.9142004	c k s
-1.0169423	w k s
-2.241917	<w> t s
-1.4454902	b t s
-1.2634428	o t s
-0.9717621	h t s
-1.093852	e t s
-1.1898324	m t s
-1.426494	i t s
-1.6646317	a t s
-1.0060165	n t s
-1.18786	r t s
-1.2381518	s t s
-1.34126	p t s
-1.1885552	l t s
-1.2386874	u t s
-1.2600819	c t s
-1.6206822	t t s
-1.3392386	d t s
-0.920703	f t s
-1.422004	w t s
-1.8056663	x t s
-1.1634203	o d s
-2.189551	e d s
-1.207815	m d s
-1.2746043	i d s
-1.2990617	a d s
-1.086456	n d s
-0.8142612	r d s
-1.0656385	l d s
-1.2073891	u d s
-2.1082444	d d s
-1.7502207	y d s
-1.5258586	w d s
-3.1281009	<w> f s
-1.5540891	o f s
-1.7203404	e f s
-2.4073722	i f s
-2.22337	a f s
-2.0667918	r f s
-1.0843834	l f s
-2.173159	u f s
-1.1961517	f f s
-0.86662364	b y s
-0.87811923	o y s
-0.7771804	h y s
-0.8106672	e y s
-0.7807102	m y s
-0.7790066	a y s
-1.0321827	n y s
-1.0930078	r y s
-1.1663914	s y s
-1.3813386	p y s
-1.6380997	l y s
-0.682616	u y s
-2.0545187	g y s
-1.3750727	v y s
-1.9797205	c y s
-1.0746713	k y s
-1.310106	t y s
-0.9262846	d y s
-3.158978	<w> w s
-1.0198272	o w s
-0.9706219	e w s
-1.0834388	a w s
-2.0737548	d w s
-1.7030412	o x s
-2.283952	e x s
-1.5544915	i x s
-1.7381428	a x s
-0.862852	r x s
-1.5677247	u x s
-2.2672427	a z s
-1.3605516	t z s
-2.032972	z z s
-1.1250572	</w> <w> p
-3.5175984	<w> b p
-2.7278004	m b p
-2.1583297	l b p
-1.9367801	u b p
-1.1129122	<w> o p
-2.6476467	b o p
-1.2320708	o o p
-1.2724923	h o p
-1.0907608	e o p
-2.0475616	m o p
-2.4209614	i o p
-1.7254558	n o p
-1.1057262	r o p
-1.4867332	s o p
-1.5422778	p o p
-1.4409726	l o p
-2.4186847	g o p
-2.328422	v o p
-1.6082563	c o p
-1.5291231	k o p
-1.3020767	t o p
-1.7049706	d o p
-2.663638	f o p
-1.7762802	y o p
-2.2735066	w o p
-1.4130262	x o p
-1.714149	z o p
-2.0429525	j o p
-3.1851568	<w> h p
-2.0471866	o h p
-2.9571319	s h p
-1.9526756	g h p
-2.924428	c h p
-2.4434903	t h p
-1.5858322	<w> e p
-2.704506	b e p
-2.0644894	o e p
-2.3615847	h e p
-1.0855467	e e p
-2.8497143	m e p
-2.4600022	i e p
-1.9262608	a e p
-2.3671875	n e p
-1.4023871	r e p
-1.8396627	s e p
-2.1724546	p e p
-2.1518986	l e p
-2.1515167	u e p
-2.213026	g e p
-2.8726552	v e p
-1.3501363	c e p
-2.146684	k e p
-1.9714953	t e p
-1.4540763	d e p
-2.6308672	f e p
-2.3355296	y e p
-2.4542823	w e p
-3.02985	<w> m p
-0.70392495	o m p
-2.0945127	h m p
-0.91345084	e m p
-2.57631	m m p
-0.6304343	i m p
-0.9290919	a m p
-2.5570474	r m p
-0.9098469	u m p
-0.76091033	y m p
-3.0473106	<w> i p
-2.4785216	b i p
-2.4675784	o i p
-0.99777913	h i p
-2.0402386	e i p
-2.5104146	m i p
-2.6099422	a i p
-1.9021319	n i p
-1.479313	r i p
-2.0560825	s i p
-1.8489239	p i p
-1.6556726	l i p
-1.6884999	u i p
-2.6002786	g i p
-2.7772355	v i p
-1.2176487	c i p
-1.7505308	k i p
-2.0983653	t i p
-2.127447	d i p
-2.0323427	w i p
-2.0069478	z i p
-1.1893533	<w> a p
-1.8776611	b a p
-1.8196499	o a p
-1.4271829	h a p
-1.7636417	e a p
-2.4557698	m a p
-2.2227044	i a p
-1.5656574	n a p
-1.2203382	r a p
-1.5441295	s a p
-1.5747331	p a p
-1.7225242	l a p
-2.2930992	g a p
-1.8854853	v a p
-1.249904	c a p
-1.6149204	k a p
-1.6593804	t a p
-1.5912472	d a p
-2.486216	f a p
-1.9726536	y a p
-2.5369024	w a p
-1.8293465	x a p
-1.9040297	z a p
-1.7635362	j a p
-2.2681873	o n p
-3.102855	e n p
-2.8068452	i n p
-3.0901256	a n p
-2.5699792	r n p
-1.643084	u n p
-2.1346235	g n p
-1.8625733	w n p
-3.4393086	<w> r p
-1.7054936	o r p
-1.7428818	e r p
-1.9680698	i r p
-1.8632927	a r p
-1.5923963	u r p
-1.1179885	<w> s p
-2.031112	b s p
-1.2579668	o s p
-1.548233	h s p
-1.6939323	e s p
-1.7846804	m s p
-1.516141	i s p
-1.5019227	a s p
-1.5970912	n s p
-2.109535	r s p
-2.7612522	s s p
-2.3272772	l s p
-1.8634202	u s p
-2.4478545	g s p
-1.839519	c s p
-2.2065623	k s p
-2.2713861	t s p
-1.9218943	d s p
-1.813835	f s p
-1.9447975	y s p
-1.414467	w s p
-0.9522163	o p p
-1.6681849	e p p
-2.7746606	m p p
-0.71511084	i p p
-0.5088533	a p p
-2.7715666	p p p
-0.7932072	u p p
-2.212808	o l p
-1.9483718	e l p
-2.706572	i l p
-2.195097	a l p
-2.579895	r l p
-2.1184638	l l p
-1.7996039	u l p
-2.081288	y l p
-1.1764796	<w> u p
-1.6569738	o u p
-1.7366862	h u p
-1.2081132	e u p
-2.4500487	m u p
-2.0906951	a u p
-1.4486628	n u p
-1.1300918	r u p
-0.8548101	s u p
-1.5859945	p u p
-2.4675932	l u p
-1.144269	u u p
-2.4438663	g u p
-1.375732	c u p
-0.5133679	k u p
-1.8358791	t u p
-1.1679416	d u p
-1.0907592	y u p
-0.94136065	w u p
-2.1013982	j u p
-2.730237	o g p
-3.0091	i g p
-2.3460085	a g p
-2.9547017	n g p
-3.552787	<w> c p
-1.8901472	m c p
-3.303252	i c p
-3.101588	a c p
-2.416865	n k p
-2.003369	r k p
-2.1854208	c k p
-2.6703153	o t p
-2.7183044	e t p
-3.5304265	a t p
-3.02376	n t p
-3.0379899	r t p
-2.503139	s t p
-1.9886808	u t p
-3.0827754	c t p
-2.4800658	o d p
-3.0997753	e d p
-2.7838838	i d p
-2.922825	a d p
-2.3753185	n d p
-2.8009648	r d p
-2.6017926	l d p
-3.4022279	<w> f p
-2.018018	o f p
-2.5032876	n f p
-1.4584885	l f p
-2.2368155	<w> y p
-1.348917	b y p
-0.81063366	h y p
-2.5144932	e y p
-2.5808213	a y p
-2.1036646	n y p
-1.8771687	r y p
-2.1915734	l y p
-1.280706	g y p
-1.9215826	c y p
-1.1212941	t y p
-2.0156305	o w p
-1.9476674	e w p
-2.4589605	a w p
-0.5473474	e x p
-1.9547793	i x p
-1.7273633	a x p
-0.8584952	k j p
-1.4567401	</w> <w> l
-1.0001428	<w> b l
-0.6619881	b b l
-0.9909132	o b l
-1.4831011	h b l
-1.2383592	e b l
-0.6550073	m b l
-0.5693979	i b l
-0.33895862	a b l
-1.1620305	n b l
-1.48405	r b l
-1.121496	p b l
-1.478622	l b l
-0.70037264	u b l
-1.3136928	g b l
-1.4018362	k b l
-1.279956	t b l
-0.99989337	d b l
-1.1353093	f b l
-1.5229707	y b l
-1.3590683	<w> o l
-1.1190761	b o l
-0.9952894	o o l
-0.8626029	h o l
-0.95464593	e o l
-1.252501	m o l
-1.6234411	i o l
-1.4771206	a o l
-1.3267093	n o l
-1.2509973	r o l
-0.8513773	s o l
-0.7919388	p o l
-2.2485034	l o l
-1.5905223	u o l
-1.1844351	g o l
-0.5281383	v o l
-1.0636392	c o l
-0.9598041	k o l
-1.392076	t o l
-1.1325741	d o l
-1.0890323	f o l
-1.7680376	y o l
-1.2767758	w o l
-1.3120219	z o l
-1.3203516	j o l
-3.2054212	<w> h l
-1.2766737	o h l
-1.8909719	e h l
-1.3573853	a h l
-1.8535012	s h l
-2.2852407	p h l
-1.5788786	u h l
-1.5844002	g h l
-1.7570555	c h l
-1.7932674	t h l
-1.5543468	x h l
-1.0285279	<w> e l
-0.882421	b e l
-1.1158161	o e l
-1.2131513	h e l
-1.1500211	e e l
-1.402603	m e l
-1.2373276	i e l
-0.8977151	a e l
-1.444695	n e l
-1.3785973	r e l
-0.98362696	s e l
-1.4001415	p e l
-2.1817594	l e l
-1.0503035	u e l
-1.4591887	g e l
-0.9785854	v e l
-1.1974566	c e l
-1.5297892	k e l
-1.4387954	t e l
-1.2788742	d e l
-1.1140977	f e l
-1.0481106	y e l
-0.62971044	w e l
-1.3801997	x e l
-1.6792973	z e l
-1.6393945	j e l
-3.045113	<w> m l
-2.3113208	o m l
-2.2582347	e m l
-2.5987005	m m l
-2.1401272	i m l
-2.117143	a m l
-1.8359756	r m l
-2.0716648	l m l
-2.1127627	u m l
-1.5591742	<w> i l
-0.5909985	b i l
-0.7769137	o i l
-0.9510077	h i l
-1.2040886	e i l
-0.9428892	m i l
-1.4980308	i i l
-0.8006408	a i l
-1.8952118	n i l
-1.5022601	r i l
-1.42407	s i l
-1.1931846	p i l
-2.181251	l i l
-0.8470715	u i l
-1.343314	g i l
-0.9625414	v i l
-1.2442485	c i l
-1.1154602	k i l
-1.5651833	t i l
-1.6253656	d i l
-1.0297701	f i l
-2.2509816	y i l
-0.8274908	w i l
-1.3273144	x i l
-1.4827942	z i l
-1.0856895	j i l
-0.9420961	<w> a l
-0.8463347	b a l
-1.2813843	o a l
-0.9501795	h a l
-1.1048129	e a l
-1.1343446	m a l
-0.6788671	i a l
-1.4450817	a a l
-0.67683935	n a l
-1.131038	r a l
-0.83319	s a l
-1.1540883	p a l
-2.4604776	l a l
-0.4774233	u a l
-0.85407627	g a l
-0.6370498	v a l
-0.5543165	c a l
-1.2005408	k a l
-0.8612727	t a l
-0.99733335	d a l
-1.0181595	f a l
-0.84799916	y a l
-0.93596566	w a l
-1.0022784	x a l
-1.472175	z a l
-1.864789	j a l
-2.6913402	<w> n l
-2.3291812	o n l
-1.964045	h n l
-2.0578687	e n l
-1.8476284	m n l
-2.293975	i n l
-2.360562	a n l
-2.5214376	r n l
-1.730531	u n l
-2.1373382	w n l
-3.381214	<w> r l
-1.925195	o r l
-1.7212989	e r l
-1.3592689	i r l
-1.4677869	a r l
-2.1631405	n r l
-1.5792565	u r l
-2.0306025	w r l
-1.4420656	<w> s l
-1.8752539	o s l
-2.1379166	h s l
-2.678862	e s l
-1.814394	i s l
-2.483201	a s l
-1.8874762	n s l
-2.9940305	r s l
-1.6400062	s s l
-2.5753894	l s l
-1.1772938	u s l
-2.381635	g s l
-2.3488245	k s l
-2.548822	t s l
-2.0095105	d s l
-2.3147929	y s l
-1.7874502	w s l
-1.1645018	<w> p l
-0.8576653	b p l
-1.5110677	o p l
-1.3047833	h p l
-1.1452291	e p l
-0.7207567	m p l
-1.1173956	i p l
-1.5813385	a p l
-0.8501135	n p l
-1.1244229	r p l
-1.1772286	s p l
-0.90326005	p p l
-1.1260889	l p l
-1.3251166	u p l
-1.0027184	g p l
-1.0079256	c p l
-0.8562762	t p l
-1.3191322	d p l
-1.0638063	f p l
-1.7451128	y p l
-0.63077784	x p l
-2.8748713	<w> l l
-0.8656615	o l l
-0.65780234	e l l
-1.7634184	m l l
-0.5461512	i l l
-0.6485173	a l l
-2.0776834	n l l
-2.5461426	s l l
-2.9192445	p l l
-2.994296	l l l
-0.77097	u l l
-2.5885458	t l l
-0.9525041	y l l
-1.6466273	<w> u l
-0.89022124	b u l
-1.4092748	o u l
-1.3953431	h u l
-1.9275643	e u l
-0.6201376	m u l
-1.9353054	i u l
-0.93453705	a u l
-1.4028013	n u l
-1.5044365	r u l
-1.1681707	s u l
-0.6664808	p u l
-1.6303099	l u l
-0.88674116	g u l
-0.24662831	v u l
-0.5607214	c u l
-0.8054275	k u l
-1.4029992	t u l
-0.87914324	d u l
-0.29208842	f u l
-0.92921877	w u l
-1.1759874	x u l
-1.2323716	j u l
-0.9966774	<w> g l
-1.6145399	o g l
-1.6197675	e g l
-0.60458845	m g l
-1.976619	i g l
-1.9306914	a g l
-1.3091406	n g l
-1.6471779	r g l
-1.3808459	s g l
-1.7579706	l g l
-1.4854165	u g l
