\data\
ngram 1=30
ngram 2=649
ngram 3=7370
ngram 4=35583
ngram 5=87727

\1-grams:
-2.6565945	<unk>	0
0	<s>	-0.37532234
-2.4264536	<w>	-0.36586997
-1.3984249	s	-0.98324037
-1.4155043	h	-0.8009753
-1.3819916	e	-1.1282504
-1.3984249	r	-0.8327276
-1.4155043	m	-0.8138956
-1.3984249	a	-1.1116894
-1.3984249	n	-0.8502346
-1.3984249	</w>	-1.2052101
-1.4155043	t	-0.9444227
-1.4332832	g	-0.79443145
-1.3819916	i	-1.0638809
-1.4332832	d	-0.8153058
-1.5586394	j	-0.6730366
-1.3819916	u	-1.0094318
-1.3984249	o	-1.0968603
-1.4518211	c	-0.81631404
-1.3984249	l	-0.86928236
-1.4155043	p	-0.85098636
-1.4155043	w	-0.7108804
-1.4155043	b	-0.82340306
-1.3984249	y	-0.88769865
-1.4332832	v	-0.6781029
-1.4332832	k	-0.7375512
-1.5586394	q	-0.7012106
-1.4332832	f	-0.79771817
-1.5350703	z	-0.6239426
-1.8152502	x	-0.4546337

\2-grams:
-0.23642616	<s> <w>	-0.2715959
-0.02784799	</w> <w>	-1.2711959
-1.2941743	<w> s	-0.27509722
-1.3686209	s s	-0.61893934
-1.4428223	h s	-0.47418648
-1.3522758	e s	-0.8916596
-1.340466	r s	-0.4912811
-1.2322003	m s	-0.51895684
-1.3357148	a s	-0.9068348
-1.257662	n s	-0.6405835
-1.2391275	t s	-0.6373622
-1.3883206	g s	-0.43539464
-1.2879064	i s	-0.9361127
-1.3192291	d s	-0.5692668
-1.776018	j s	-0.2715959
-1.2568365	u s	-0.81421727
-1.3208858	o s	-0.88946074
-1.2872213	c s	-0.5564256
-1.3929399	l s	-0.54903734
-1.2767134	p s	-0.6494481
-1.5759759	w s	-0.34077802
-1.2348334	b s	-0.5818696
-1.2104181	y s	-0.6876507
-1.4077871	v s	-0.41034734
-1.2497255	k s	-0.46868116
-1.3801512	f s	-0.44053876
-1.6818972	z s	-0.35587686
-1.0855733	x s	-0.65690684
-1.4205174	<w> h	-0.2715959
-1.2995458	s h	-0.7336753
-1.5565109	h h	-0.37524152
-1.4670402	e h	-0.5990132
-1.6116447	r h	-0.47929698
-1.7964939	m h	-0.30292138
-1.3538303	a h	-0.6600194
-1.5342197	n h	-0.53643376
-1.1988368	t h	-0.78599614
-1.2266517	g h	-0.499584
-1.7986575	i h	-0.3226895
-1.4355366	d h	-0.5856714
-1.7845844	j h	-0.2715959
-1.4076775	u h	-0.5098377
-1.5322341	o h	-0.516054
-1.1002883	c h	-0.75732106
-1.5728147	l h	-0.37960106
-1.2481126	p h	-0.75022465
-1.1506288	w h	-0.5791857
-1.9360001	b h	-0.35930464
-1.590298	y h	-0.50202
-1.3784418	k h	-0.5053879
-1.7568753	f h	-0.29487565
-1.7808018	z h	-0.2715959
-1.6026689	x h	-0.28697625
-1.4055985	<w> e	-0.2715959
-1.2555772	s e	-0.8167336
-1.093282	h e	-0.7265619
-1.385649	e e	-0.8076691
-1.0923128	r e	-0.9464268
-1.0531336	m e	-0.71728826
-1.4928607	a e	-0.5512505
-1.1076332	n e	-0.8437827
-1.2166324	t e	-0.8321624
-1.1049843	g e	-0.7419436
-1.3212795	i e	-0.87063164
-1.2275815	d e	-0.6994302
-0.94223785	j e	-0.37298474
-1.3343139	u e	-0.69473773
-1.3917291	o e	-0.5846944
-1.1435701	c e	-0.772757
-1.0726794	l e	-1.0005993
-1.1651741	p e	-0.7272742
-0.98036397	w e	-0.6207555
-1.0157485	b e	-0.75151753
-1.2324511	y e	-0.59401953
-0.8024206	v e	-0.67252904
-1.0961692	k e	-0.71295124
-1.549615	q e	-0.2715959
-1.0468938	f e	-0.65337974
-0.8937222	z e	-0.6267361
-1.082722	x e	-0.47713423
-1.4129939	<w> r	-0.2715959
-1.7528126	s r	-0.34648624
-1.2500017	h r	-0.59019524
-1.3522758	e r	-1.0739037
-1.6076411	r r	-0.5293157
-1.538715	m r	-0.40220475
-1.3357148	a r	-1.0471015
-1.5309993	n r	-0.4642332
-1.2614609	t r	-0.9392475
-1.0573727	g r	-0.80632246
-1.3801553	i r	-0.73659384
-1.1548594	d r	-0.7224257
-1.776018	j r	-0.2715959
-1.2391653	u r	-0.87794644
-1.3208858	o r	-0.99036664
-1.1964383	c r	-0.8039249
-1.694801	l r	-0.3507233
-1.1665559	p r	-0.83429044
-1.1841805	w r	-0.46458554
-1.0362691	b r	-0.90976655
-1.3432658	y r	-0.5455874
-1.4077871	v r	-0.4070294
-1.5533416	k r	-0.3696201
-1.1831235	f r	-0.6855766
-1.6818972	z r	-0.2715959
-1.5933597	x r	-0.2715959
-1.4205174	<w> m	-0.2715959
-1.3702492	s m	-0.7849882
-1.3194312	h m	-0.56606156
-1.3703914	e m	-0.88489413
-1.6116447	r m	-0.49283922
-1.4298794	m m	-0.5697417
-1.3368373	a m	-0.904287
-1.5850112	n m	-0.4727921
-1.4639062	t m	-0.78246105
-1.3436966	g m	-0.54427874
-1.3613968	i m	-0.8788245
-1.5326889	d m	-0.6256749
-1.2764932	u m	-0.81498283
-1.3566866	o m	-0.8077264
-1.9438529	c m	-0.2715959
-1.5728147	l m	-0.48271656
-1.4271854	p m	-0.45529294
-1.6841944	w m	-0.35587686
-1.698393	b m	-0.31323984
-1.2603714	y m	-0.6108083
-1.875456	v m	-0.2715959
-1.5577424	k m	-0.4827166
-1.7568753	f m	-0.29487565
-1.6896124	z m	-0.30292138
-1.6817364	x m	-0.2715959
-1.4129939	<w> a	-0.2715959
-1.2981616	s a	-0.7203151
-1.0733503	h a	-0.7656864
-1.3868611	e a	-0.8864151
-1.0750939	r a	-0.9529467
-1.014473	m a	-0.8123844
-1.7924541	a a	-0.304687
-1.166509	n a	-0.8174758
-1.2614609	t a	-0.8282705
-1.1063545	g a	-0.6388874
-1.3408751	i a	-0.7892207
-1.0720513	d a	-0.71850336
-0.80477786	j a	-0.42745185
-1.4060067	u a	-0.5751519
-1.4796441	o a	-0.60336274
-1.0574199	c a	-0.7813673
-1.091495	l a	-0.9117612
-1.1204443	p a	-0.69243866
-0.9376572	w a	-0.7180014
-1.0566611	b a	-0.73695457
-1.2851683	y a	-0.516343
-0.98826206	v a	-0.6317993
-1.0977001	k a	-0.53876925
-1.0480832	f a	-0.56248367
-0.95481074	z a	-0.4736671
-1.1582805	x a	-0.30498195
-1.4129939	<w> n	-0.2715959
-1.6441057	s n	-0.4944322
-1.3968028	h n	-0.42215315
-1.3522758	e n	-1.0173602
-1.6739863	r n	-0.4354126
-1.4271243	m n	-0.521018
-1.3526633	a n	-1.0355177
-1.48585	n n	-0.59578615
-1.3944937	t n	-0.55608976
-1.3883206	g n	-0.48454747
-1.2879064	i n	-0.98163474
-1.4327544	d n	-0.52237177
-1.776018	j n	-0.2715959
-1.2752573	u n	-0.82357204
-1.3208858	o n	-0.9092958
-1.626806	c n	-0.32948405
-1.6276166	l n	-0.42761207
-1.5231879	p n	-0.44153136
-1.8114535	w n	-0.30041006
-1.6934038	b n	-0.33238688
-1.258796	y n	-0.54883575
-1.7791374	v n	-0.2715959
-1.3294227	k n	-0.57772565
-1.5543609	q n	-0.2715959
-1.647168	f n	-0.2901188
-1.5933597	x n	-0.2715959
-1.1843778	s </w>	-1.3258963
-1.116934	h </w>	-1.1896765
-1.3522758	e </w>	-1.3258963
-1.1329345	r </w>	-1.2331423
-1.054296	m </w>	-1.2331423
-1.3357148	a </w>	-1.3258963
-1.146425	n </w>	-1.2533456
-1.142001	t </w>	-1.3088629
-1.0811734	g </w>	-1.1661954
-1.2879064	i </w>	-1.3258963
-1.1114846	d </w>	-1.2331423
-1.068915	j </w>	-0.75602096
-1.2568365	u </w>	-1.2911341
-1.3378342	o </w>	-1.3088629
-1.0990033	c </w>	-1.2119529
-1.1707592	l </w>	-1.2119529
-1.1665559	p </w>	-1.1661954
-1.1160688	w </w>	-1.057051
-1.2044531	b </w>	-1.0870142
-1.108831	y </w>	-1.2911341
-1.0728463	v </w>	-0.91092294
-1.1241426	k </w>	-1.1150429
-0.6422214	q </w>	-0.8140129
-1.0254698	f </w>	-1.2119529
-0.9881374	z </w>	-1.0248662
-0.92049146	x </w>	-0.91092294
-1.4205174	<w> t	-0.2715959
-1.25809	s t	-0.85050416
-1.4976178	h t	-0.35659862
-1.3533981	e t	-0.9266164
-1.5536057	r t	-0.54270065
-1.5422807	m t	-0.4086051
-1.3715156	a t	-0.95006144
-1.3433676	n t	-0.63163507
-1.6420171	t t	-0.55368984
-1.7623551	g t	-0.29487565
-1.3237071	i t	-1.0005642
-1.5326889	d t	-0.42422166
-1.3159763	u t	-0.7861049
-1.3390013	o t	-0.8632951
-1.5033453	c t	-0.5862571
-1.5211471	l t	-0.5435441
-1.4271854	p t	-0.6659295
-1.5809087	w t	-0.35463253
-1.8011457	b t	-0.31197858
-1.2603714	y t	-0.6208316
-1.787665	v t	-0.2715959
-1.5577424	k t	-0.36472812
-1.3827171	f t	-0.47808075
-1.7808018	z t	-0.2715959
-1.3605115	x t	-0.3472477
-1.4281735	<w> g	-0.2715959
-1.7020148	s g	-0.34340057
-1.9434092	h g	-0.30946705
-1.3892955	e g	-0.74987596
-1.6833731	r g	-0.49787557
-2.0221474	m g	-0.29487565
-1.3550006	a g	-0.9155955
-1.4124392	n g	-0.5411875
-1.6453652	t g	-0.36543545
-1.5078634	g g	-0.5173536
-1.3434151	i g	-0.85955703
-1.5948634	d g	-0.4054308
-1.3844582	u g	-0.6877708
-1.3763945	o g	-0.72090006
-2.0335677	c g	-0.28697625
-1.6353571	l g	-0.4831115
-1.6593426	p g	-0.34340057
-1.913159	w g	-0.2715959
-2.0285366	b g	-0.2715959
-1.3796501	y g	-0.37573016
-1.8776885	k g	-0.2715959
-1.9040182	f g	-0.2715959
-1.7905123	z g	-0.2715959
-1.6931742	x g	-0.2715959
-1.4055985	<w> i	-0.2715959
-1.2756912	s i	-0.8676067
-1.1390239	h i	-0.68487495
-1.4231191	e i	-0.76662153
-1.0739261	r i	-0.9530736
-1.0531336	m i	-0.7557639
-1.4265798	a i	-0.7800376
-1.1451035	n i	-0.7674972
-1.1964393	t i	-0.91686
-1.2230461	g i	-0.6365457
-1.696614	i i	-0.5035097
-1.1767466	d i	-0.7281304
-1.1464958	j i	-0.3416045
-1.3797232	u i	-0.5761111
-1.3725901	o i	-0.75960845
-1.222932	c i	-0.75082785
-1.1088332	l i	-0.9589298
-1.1651741	p i	-0.7204312
-1.0291232	w i	-0.645781
-1.076857	b i	-0.6705076
-1.3114672	y i	-0.67919266
-0.77806616	v i	-0.706877
-1.0255458	k i	-0.6096291
-1.549615	q i	-0.2715959
-1.0243407	f i	-0.69272345
-0.9533796	z i	-0.46458554
-1.0208391	x i	-0.39840913
-1.4281735	<w> d	-0.2715959
-1.4891456	s d	-0.49094808
-1.9434092	h d	-0.28697625
-1.3381286	e d	-0.8293679
-1.5055555	r d	-0.54160005
-1.6159073	m d	-0.30705234
-1.3550006	a d	-0.8093562
-1.58866	n d	-0.55296123
-1.7047138	t d	-0.34834817
-1.7686152	g d	-0.2715959
-1.3071921	i d	-0.86887085
-1.5948634	d d	-0.5322282
-1.6822685	j d	-0.2715959
-1.3609116	u d	-0.70360386
-1.3401715	o d	-0.7813684
-1.7179463	c d	-0.34566298
-1.5241596	l d	-0.4912811
-1.8453579	p d	-0.28697625
-1.828661	w d	-0.30292138
-1.7034402	b d	-0.3226895
-1.4531239	y d	-0.4462086
-1.7963635	v d	-0.2715959
-1.7454544	k d	-0.34340057
-1.9908013	f d	-0.2715959
-1.4771817	<w> j	-0.2715959
-2.3639753	s j	-0.2715959
-2.173785	h j	-0.2715959
-1.9506075	e j	-0.365149
-2.1407447	r j	-0.2715959
-1.9340467	a j	-0.3570806
-1.7440863	n j	-0.4722948
-2.3176417	t j	-0.2715959
-1.6409903	i j	-0.3585642
-2.0316412	d j	-0.29830557
-1.8219098	u j	-0.33238688
-2.0763407	o j	-0.2901188
-2.1849616	c j	-0.2715959
-2.2145088	p j	-0.2715959
-1.8480966	b j	-0.4527869
-2.0938973	y j	-0.30292138
-1.9370011	k j	-0.2715959
-2.1444552	f j	-0.2715959
-1.4055985	<w> u	-0.2715959
-1.296782	s u	-0.60509723
-1.115551	h u	-0.5006628
-1.4231191	e u	-0.6095003
-1.152663	r u	-0.72313046
-1.1719985	m u	-0.5762187
-1.4065583	a u	-0.75529796
-1.3096565	n u	-0.5474961
-1.2600745	t u	-0.7104985
-1.2230461	g u	-0.61073315
-1.4956229	i u	-0.6103069
-1.2851653	d u	-0.49105
-0.80387247	j u	-0.37989485
-1.7844641	u u	-0.29830557
-1.3542589	o u	-0.84636354
-1.1948355	c u	-0.6416272
-1.1916537	l u	-0.714592
-1.2447857	p u	-0.558146
-1.4206913	w u	-0.29705524
-1.1479943	b u	-0.61060023
-1.5836021	y u	-0.33767736
-1.3141016	v u	-0.3574516
-1.2853795	k u	-0.37835863
-0.32826832	q u	-0.83699393
-1.0468938	f u	-0.6211524
-1.2679678	z u	-0.3345768
-1.5842459	x u	-0.28697625
-1.4129939	<w> o	-0.2715959
-1.2568318	s o	-0.6794134
-1.0337445	h o	-0.75458324
-1.4877142	e o	-0.6326198
-1.0574074	r o	-0.9394672
-1.0981427	m o	-0.7384685
-1.573043	a o	-0.47330564
-1.2096984	n o	-0.7812958
-1.1976364	t o	-0.8106069
-1.1063545	g o	-0.6082151
-1.4233447	i o	-0.73973525
-1.0913205	d o	-0.7041801
-0.7668998	j o	-0.40444496
-1.5564297	u o	-0.44214302
-1.4341927	o o	-0.80169916
-1.0777141	c o	-0.7650689
-1.1099964	l o	-0.89229906
-1.0991035	p o	-0.7160362
-0.95907795	w o	-0.6167825
-1.0167917	b o	-0.76490986
-1.3132463	y o	-0.4316694
-1.0284982	v o	-0.56174856
-1.0727756	k o	-0.5241704
-1.0254698	f o	-0.61018956
-0.9881374	z o	-0.40593475
-1.2456568	x o	-0.3507233
-1.4359671	<w> c	-0.2715959
-1.3247871	s c	-0.8392324
-1.7164135	h c	-0.28474542
-1.3905178	e c	-0.8376255
-1.6881436	r c	-0.47611538
-1.549501	m c	-0.31228855
-1.356174	a c	-0.8949738
-1.5923396	n c	-0.58199865
-1.4683554	t c	-0.53750765
-1.3446907	i c	-0.9523933
-1.5397272	d c	-0.34475657
-1.3624175	u c	-0.6549314
-1.3970394	o c	-0.83492017
-1.5099049	c c	-0.5077188
-1.7084464	l c	-0.48016566
-1.74771	p c	-0.29830557
-1.5909457	w c	-0.37545863
-1.4918472	b c	-0.37506405
-1.3490348	y c	-0.50766695
-1.8052398	v c	-0.2715959
-1.752323	k c	-0.2901188
-1.912651	f c	-0.2715959
-1.6219082	x c	-0.2901188
-1.4129939	<w> l	-0.2715959
-1.3686209	s l	-0.73530054
-1.3551958	h l	-0.5656669
-1.3522758	e l	-0.9692041
-1.5501009	r l	-0.5375206
-1.4271243	m l	-0.49417958
-1.3357148	a l	-0.95884645
-1.48585	n l	-0.53111696
-1.3098997	t l	-0.81634486
-1.224845	g l	-0.6806214
-1.3224916	i l	-0.9269304
-1.3915265	d l	-0.7067116
-1.2752573	u l	-0.7857026
-1.3378342	o l	-0.8938856
-1.1964383	c l	-0.8961997
-1.3929399	l l	-0.56471944
-1.1915879	p l	-0.851935
-1.6779467	w l	-0.36986402
-1.2674996	b l	-0.70991075
-1.1881107	y l	-0.6924917
-1.7791374	v l	-0.2715959
-1.2877485	k l	-0.6403049
-1.5543609	q l	-0.2715959
-1.1831235	f l	-0.70732844
-1.6818972	z l	-0.2901188
-1.5019256	x l	-0.35587686
-1.4205174	<w> p	-0.2715959
-1.3453803	s p	-0.71732605
-1.8049954	h p	-0.2830798
-1.4257661	e p	-0.7346972
-1.6786543	r p	-0.45739615
-1.4298794	m p	-0.5677848
-1.3899517	a p	-0.812637
-1.5342197	n p	-0.44447
-1.768985	t p	-0.33238688
-1.7623551	g p	-0.29830557
-1.3815438	i p	-0.7373525
-1.6580317	d p	-0.37545863
-1.7845844	j p	-0.2715959
-1.3828741	u p	-0.6211933
-1.3566866	o p	-0.8270315
-1.9438529	c p	-0.30292138
-1.5211471	l p	-0.44195396
-1.5859513	p p	-0.52382755
-1.6841944	w p	-0.29830557
-2.0179353	b p	-0.2715959
-1.5386055	y p	-0.36529216
-1.787665	v p	-0.31947434
-1.8685453	k p	-0.31947434
-1.9804868	f p	-0.2715959
-1.6026689	x p	-0.2830798
-1.4205174	<w> w	-0.2715959
-1.4247156	s w	-0.56506777
-1.5565109	h w	-0.43744597
-1.4459131	e w	-0.7000524
-1.7579236	r w	-0.41648024
-1.9303278	m w	-0.2715959
-1.4293522	a w	-0.6675569
-1.5850112	n w	-0.45972237
-1.4288342	t w	-0.69715846
-1.6584285	g w	-0.30700088
-1.9225148	i w	-0.33238688
-1.4814017	d w	-0.6624464
-2.293361	u w	-0.2715959
-1.3943762	o w	-0.727131
-1.9438529	c w	-0.30292138
-1.699302	l w	-0.4133331
-1.6550596	p w	-0.31773818
-1.6841944	w w	-0.2715959
-1.8011457	b w	-0.2715959
-1.4125884	y w	-0.43978846
-1.4303944	k w	-0.5546622
-1.5591592	q w	-0.2715959
-1.9804868	f w	-0.2715959
-1.6896124	z w	-0.29487565
-1.6026689	x w	-0.30292138
-1.4205174	<w> b	-0.2715959
-1.3702492	s b	-0.7111958
-1.6246622	h b	-0.39154217
-1.3703914	e b	-0.77304363
-1.6116447	r b	-0.500337
-1.4824538	m b	-0.5653212
-1.3538303	a b	-0.9043423
-1.4887513	n b	-0.5184887
-1.5020614	t b	-0.4845832
-1.6584285	g b	-0.3181234
-1.4026709	i b	-0.7036222
-1.5326889	d b	-0.5193103
-1.6754862	j b	-0.2715959
-1.2764932	u b	-0.6613221
-1.4812627	o b	-0.72314423
-1.7126434	c b	-0.28697625
-1.433249	l b	-0.5283489
-1.6550596	p b	-0.3376614
-1.6841944	w b	-0.38937676
-1.4856539	b b	-0.5294381
-1.3451803	y b	-0.5414067
-1.8685453	k b	-0.32430613
-1.8955537	f b	-0.2715959
-1.7808018	z b	-0.2715959
-1.6026689	x b	-0.2715959
-1.4129939	<w> y	-0.2715959
-1.3686209	s y	-0.5856714
-1.3172288	h y	-0.49267906
-1.4445246	e y	-0.6574327
-1.1540632	r y	-0.6129753
-1.3805139	m y	-0.4968692
-1.4711533	a y	-0.7402235
-1.4075825	n y	-0.4849279
-1.3098997	t y	-0.62568843
-1.3413327	g y	-0.49466825
-1.9950836	i y	-0.30292138
-1.3915265	d y	-0.5408669
-1.776018	j y	-0.2715959
-1.7310891	u y	-0.35368392
-1.4796441	o y	-0.6502394
-1.4021367	c y	-0.43727875
-1.091495	l y	-0.6366814
-1.3826952	p y	-0.4337783
-1.3643736	w y	-0.315012
-1.2348334	b y	-0.55558944
-2.0904949	y y	-0.30292138
-1.177989	v y	-0.5286815
-1.2877485	k y	-0.45732564
-1.5635452	f y	-0.49417958
-1.1069102	z y	-0.41401994
-1.3551568	x y	-0.31323984
-1.4281735	<w> v	-0.2715959
-1.650279	s v	-0.6512856
-1.9434092	h v	-0.30292138
-1.4270958	e v	-0.7612088
-1.6833731	r v	-0.47668627
-2.0221474	m v	-0.2715959
-1.4105349	a v	-0.8142813
-1.793013	n v	-0.44881374
-1.8552116	t v	-0.35777783
-2.0643256	g v	-0.2715959
-1.4041332	i v	-0.78122175
-1.7431674	d v	-0.40353534
-1.6407264	u v	-0.51018596
-1.3763945	o v	-0.81416386
-2.1000102	c v	-0.2715959
-1.5762091	l v	-0.578296
-2.1304636	p v	-0.2715959
-2.0285366	b v	-0.30292138
-1.9030983	y v	-0.30946705
-1.7963635	v v	-0.2715959
-1.9575962	k v	-0.2715959
-1.5640111	q v	-0.2715959
-1.7905123	z v	-0.2715959
-1.6931742	x v	-0.2715959
-1.4281735	<w> k	-0.2715959
-1.3233204	s k	-0.74501467
-1.7109404	h k	-0.28697625
-1.5142773	e k	-0.5314715
-1.7635933	r k	-0.46120852
-1.9391664	m k	-0.30292138
-1.3550006	a k	-0.70676744
-1.58866	n k	-0.4698087
-1.8552116	t k	-0.31230283
-1.9932212	g k	-0.2715959
-1.4747417	i k	-0.66398394
-1.970136	d k	-0.2715959
-1.7933232	j k	-0.2715959
-1.3844582	u k	-0.42024544
-1.4828874	o k	-0.61938465
-1.4073246	c k	-0.5827248
-1.6353571	l k	-0.4779654
-1.7424663	p k	-0.36937222
-1.913159	w k	-0.28474542
-2.0980558	b k	-0.2715959
-1.5416111	y k	-0.33712754
-1.493213	k k	-0.33122247
-2.0633166	f k	-0.2715959
-1.6974671	z k	-0.35587686
-1.4771817	<w> q	-0.2715959
-1.7855049	s q	-0.51949185
-2.173785	h q	-0.2715959
-1.889236	e q	-0.5656669
-1.907299	r q	-0.5129829
-1.6887988	a q	-0.69390553
-1.8297151	n q	-0.5319681
-1.680184	i q	-0.7178726
-2.1213992	d q	-0.31947434
-2.231081	u q	-0.38804418
-2.324982	o q	-0.38804418
-2.1054082	c q	-0.31947434
-2.1676831	l q	-0.31947434
-2.2145088	p q	-0.2715959
-2.2630618	y q	-0.2715959
-2.108722	k q	-0.2715959
-1.9465171	z q	-0.2715959
-1.7689574	x q	-0.2715959
-1.4281735	<w> f	-0.2715959
-1.6040554	s f	-0.3893549
-1.7109404	h f	-0.34566298
-1.3892955	e f	-0.7330303
-1.6156856	r f	-0.45875597
-1.6159073	m f	-0.34340057
-1.4977164	a f	-0.6382939
-1.5374643	n f	-0.60779464
-1.4308805	t f	-0.6141549
-1.907849	g f	-0.29487565
-1.3627264	i f	-0.7340379
-1.5948634	d f	-0.34475657
-1.493958	u f	-0.57681274
-1.5077211	o f	-0.6007077
-2.0335677	c f	-0.2715959
-1.7038502	l f	-0.46112984
-1.5896015	p f	-0.3060159
-1.828661	w f	-0.29487565
-2.0285366	b f	-0.2715959
-1.7214004	y f	-0.32500076
-1.7454544	k f	-0.30700088
-1.337562	f f	-0.54678696
-1.8694023	z f	-0.2715959
-1.612182	x f	-0.2715959
-1.46862	<w> z	-0.2715959
-2.0453093	s z	-0.2901188
-2.0825202	h z	-0.2715959
-1.5224929	e z	-0.5279546
-1.5216004	r z	-0.30946705
-1.531254	a z	-0.67047304
-1.7388769	n z	-0.43115094
-1.6625047	t z	-0.4133331
-2.1315591	g z	-0.2715959
-1.3899685	i z	-0.8307457
-2.0207663	d z	-0.2715959
-1.5732573	u z	-0.43765962
-1.6357019	o z	-0.4971887
-1.8548374	c z	-0.2901188
-1.8136891	l z	-0.31083682
-2.0510678	w z	-0.2715959
-2.1724896	y z	-0.29487565
-1.9438115	v z	-0.2715959
-1.4605303	z z	-0.4774069
-1.5525295	<w> x	-0.2715959
-2.5165238	s x	-0.2715959
-1.621739	e x	-0.6070483
-2.369338	r x	-0.2715959
-1.6718738	a x	-0.5698668
-2.0072372	n x	-0.3376614
-1.661694	i x	-0.5292046
-1.6371704	u x	-0.40040997
-1.5604863	o x	-0.5339848
-1.6415248	x x	-0.31947434

\3-grams:
-0.0012755127	s </w> <w>	-1.10458
-0.0017463829	h </w> <w>	-0.645195
-0.0012755127	e </w> <w>	-1.0851572
-0.0015797653	r </w> <w>	-0.6107753
-0.0015797653	m </w> <w>	-0.7307674
-0.0012755127	a </w> <w>	-0.96988297
-0.0015078319	n </w> <w>	-0.7784325
-0.001326609	t </w> <w>	-0.9237813
-0.0018436234	g </w> <w>	-0.53343093
-0.0012755127	i </w> <w>	-0.7860716
-0.0015797653	d </w> <w>	-0.7366946
-0.0047566406	j </w> <w>	-0.2180502
-0.0013819963	u </w> <w>	-0.523397
-0.001326609	o </w> <w>	-0.8648797
-0.0016589084	c </w> <w>	-0.45585606
-0.0016589084	l </w> <w>	-0.69413686
-0.0018436234	p </w> <w>	-0.6073816
-0.002371821	w </w> <w>	-0.37168592
-0.0022132632	b </w> <w>	-0.44381833
-0.0013819963	y </w> <w>	-1.0106397
-0.003324178	v </w> <w>	-0.35299712
-0.0020746342	k </w> <w>	-0.6669083
-0.0041592005	q </w> <w>	-0.24215169
-0.0016589084	f </w> <w>	-0.46996102
-0.0025547824	z </w> <w>	-0.34640107
-0.003324178	x </w> <w>	-0.41865706
-0.30793184	<s> <w> s	-0.2029582
-1.3705205	</w> <w> s	-0.9932048
-1.3915209	<w> s s	-0.2029582
-1.382575	s s s	-0.24579293
-1.041265	e s s	-0.6603731
-1.5253282	r s s	-0.2029582
-1.4658306	m s s	-0.2610644
-1.0728284	a s s	-0.6472086
-1.4616355	n s s	-0.34469888
-1.8196858	t s s	-0.2029582
-1.135858	i s s	-0.63284445
-1.7117995	d s s	-0.2029582
-1.0097879	u s s	-0.5240097
-1.1688497	o s s	-0.44924742
-1.2285851	l s s	-0.29331946
-1.7789251	p s s	-0.2029582
-1.4270391	w s s	-0.2029582
-1.2887315	y s s	-0.23688129
-1.4296026	k s s	-0.29331946
-1.537332	s h s	-0.42004547
-1.0434425	a h s	-0.40269083
-1.0379865	t h s	-0.6764203
-1.3770018	g h s	-0.2558719
-0.98314536	i h s	-0.29331946
-1.5566337	u h s	-0.2029582
-1.2756151	c h s	-0.44324896
-1.2805395	p h s	-0.5169555
-1.6191525	w h s	-0.2029582
-1.3872654	<w> e s	-0.2029582
-1.1568034	s e s	-0.5576589
-1.2232088	h e s	-0.41169637
-1.0253525	e e s	-0.63852525
-1.1396065	r e s	-0.5784045
-1.0950923	m e s	-0.42880917
-0.9440233	a e s	-0.34922907
-0.97557926	n e s	-0.61504424
-1.126565	t e s	-0.5680052
-1.1128144	g e s	-0.48554397
-0.9027569	i e s	-0.73418593
-1.0879711	d e s	-0.4777628
-1.2712848	j e s	-0.24579293
-0.90376574	u e s	-0.5484963
-0.91591185	o e s	-0.50826776
-1.0648526	c e s	-0.522562
-1.1084819	l e s	-0.65239394
-1.10995	p e s	-0.5050306
-1.1795816	w e s	-0.34022036
-1.10409	b e s	-0.36297187
-1.1589389	y e s	-0.35207647
-1.0635103	v e s	-0.48814705
-1.0422684	k e s	-0.53462553
-1.0784018	f e s	-0.45480758
-0.85542524	z e s	-0.55690193
-0.7974364	x e s	-0.59613675
-1.2717319	<w> r s	-0.2029582
-1.0672222	s r s	-0.29331946
-1.1635096	e r s	-0.63595283
-1.246231	r r s	-0.29510674
-1.2454202	m r s	-0.2029582
-1.2431669	a r s	-0.57441115
-1.9503059	t r s	-0.2029582
-1.0745038	i r s	-0.38802412
-1.7503549	d r s	-0.2029582
-0.5902362	j r s	-0.2029582
-1.2488309	u r s	-0.46533573
-1.1501619	o r s	-0.52711284
-1.4225124	y r s	-0.29331946
-1.2532258	<w> m s	-0.2029582
-1.5390949	s m s	-0.29331946
-0.9076524	h m s	-0.33505312
-1.2463278	e m s	-0.44898647
-1.1225526	r m s	-0.33505312
-1.2513566	m m s	-0.29510674
-1.0586131	a m s	-0.4932597
-1.1623485	g m s	-0.29331946
-1.1236451	i m s	-0.4477527
-1.0749853	u m s	-0.46466598
-1.1674716	o m s	-0.44611984
-1.1642417	l m s	-0.2558719
-1.125083	b m s	-0.2029582
-1.3372083	y m s	-0.2610644
-1.3775841	<w> a s	-0.2029582
-1.3702233	s a s	-0.32132533
-1.3375769	h a s	-0.31051394
-1.0749115	e a s	-0.54637235
-1.2429098	r a s	-0.49462086
-1.0407474	m a s	-0.4837858
-1.3465233	a a s	-0.2029582
-1.2741058	n a s	-0.35661077
-1.298639	t a s	-0.39660585
-1.2305657	g a s	-0.29703784
-1.0026686	i a s	-0.5355339
-1.1693616	d a s	-0.5787821
-1.54376	j a s	-0.2029582
-1.5481756	u a s	-0.2610644
-1.21366	o a s	-0.33505312
-0.9742061	c a s	-0.516984
-1.1579413	l a s	-0.52952397
-1.0900337	p a s	-0.35853422
-1.2624193	w a s	-0.37630218
-1.1570241	b a s	-0.360326
-1.481533	y a s	-0.2029582
-1.1991453	v a s	-0.30153176
-1.3225982	k a s	-0.26106444
-1.1582953	f a s	-0.32423773
-1.1278657	z a s	-0.42004547
-1.3124547	x a s	-0.2029582
-1.2772883	<w> n s	-0.2029582
-1.4855154	s n s	-0.2029582
-1.191782	h n s	-0.24579293
-1.1408594	e n s	-0.6330075
-1.0573144	r n s	-0.33505312
-1.0972122	m n s	-0.29510674
-1.133372	a n s	-0.5120812
-0.9755575	n n s	-0.37153175
-1.4667746	g n s	-0.2029582
-1.13804	i n s	-0.52647185
-1.4440958	d n s	-0.2029582
-1.0590329	u n s	-0.41686243
-1.0604286	o n s	-0.58212173
-1.303649	l n s	-0.2029582
-1.1483504	w n s	-0.2522722
-1.314843	y n s	-0.2029582
-0.58164644	q n s	-0.2029582
-1.2571025	<w> t s	-0.2029582
-1.3211217	s t s	-0.50983447
-1.2446563	h t s	-0.23688129
-1.033643	e t s	-0.7301165
-1.1793897	r t s	-0.29144213
-1.1611623	m t s	-0.2029582
-1.1436763	a t s	-0.497276
-1.2492332	n t s	-0.34922907
-1.0966319	t t s	-0.37153175
-1.0347517	i t s	-0.7062416
-1.0810319	d t s	-0.29331946
-1.1273514	u t s	-0.4222269
-1.103381	o t s	-0.5073633
-1.1259384	c t s	-0.5169555
-1.1060399	l t s	-0.40199992
-1.0774173	p t s	-0.59613675
-1.1690941	w t s	-0.2029582
-1.010769	b t s	-0.29331946
-0.8855151	f t s	-0.5132109
-1.2976573	x t s	-0.2029582
-1.3645004	e g s	-0.5169555
-1.2581044	r g s	-0.24579293
-1.31534	a g s	-0.7210755
-1.2383242	n g s	-0.31363162
-1.0782534	g g s	-0.36708283
-1.2020366	i g s	-0.5982946
-1.2109524	u g s	-0.44626406
-1.1760182	o g s	-0.6630835
-0.7523675	b g s	-0.2029582
-1.320676	<w> i s	-0.2029582
-1.1999974	s i s	-0.5712028
-1.1129235	h i s	-0.3720873
-0.9416627	e i s	-0.37798208
-1.1669632	r i s	-0.57438016
-1.0280914	m i s	-0.42663962
-1.0328702	a i s	-0.38134617
-1.1076194	n i s	-0.4863544
-1.1397555	t i s	-0.5608865
-1.0679706	g i s	-0.32071525
-0.7225358	i i s	-0.24579293
-1.0760854	d i s	-0.44014782
-1.31931	j i s	-0.2029582
-0.7971506	u i s	-0.33749524
-0.7751924	o i s	-0.5025328
-1.1497706	c i s	-0.36722356
-1.167454	l i s	-0.545192
-1.2218188	p i s	-0.31510085
-0.8959392	w i s	-0.4097829
-1.1874073	b i s	-0.30370325
-0.8072176	y i s	-0.23688129
-1.0786006	v i s	-0.46452475
-0.9495958	k i s	-0.46844178
-1.0389682	f i s	-0.41081294
-1.541347	z i s	-0.2029582
-1.1290188	x i s	-0.27368048
-1.2883188	<w> d s	-0.2029582
-1.2859135	e d s	-0.53509116
-1.0594926	r d s	-0.3634318
-1.123184	m d s	-0.2029582
-1.17423	a d s	-0.56319976
-1.2569869	n d s	-0.29712096
-1.1008859	i d s	-0.5362965
-1.3820769	d d s	-0.29331946
-1.0083427	u d s	-0.44324896
-1.1093844	o d s	-0.463575
-1.133677	l d s	-0.37539026
-1.260699	w d s	-0.2029582
-1.4373004	y d s	-0.2029582
-0.32431364	c j s	-0.2029582
-1.2174222	<w> u s	-0.2029582
-1.0704261	s u s	-0.36438966
-1.1601808	h u s	-0.25869647
-0.847139	e u s	-0.5055126
-0.9241165	r u s	-0.4837858
-0.8720472	m u s	-0.33943728
-0.9986625	a u s	-0.40325508
-1.2175242	n u s	-0.29712096
-1.0667231	t u s	-0.45340443
-0.96579725	g u s	-0.3160972
-0.55643034	i u s	-0.597239
-1.213338	d u s	-0.2662458
-0.9996038	j u s	-0.2558719
-0.9608191	o u s	-0.7050254
-0.8464256	c u s	-0.44632873
-0.9332229	l u s	-0.4813997
-1.0229602	p u s	-0.34922907
-1.153666	w u s	-0.2029582
-0.91410315	b u s	-0.35388574
-0.74603903	y u s	-0.24579293
-0.9811852	v u s	-0.29331946
-1.1882458	k u s	-0.29331946
-0.91195226	f u s	-0.45999187
-0.949161	z u s	-0.2029582
-1.3550199	<w> o s	-0.2029582
-1.4925239	s o s	-0.42004547
-1.3058393	h o s	-0.3069574
-1.1454549	e o s	-0.2777521
-1.217248	r o s	-0.5038063
-1.0861658	m o s	-0.4265541
-1.0877532	a o s	-0.29510674
-1.1448132	n o s	-0.41610187
-1.2631989	t o s	-0.40487897
-1.1844544	g o s	-0.3385136
-1.0839971	i o s	-0.3621127
-1.2901558	d o s	-0.33094946
-1.3602976	j o s	-0.2029582
-1.2841923	u o s	-0.2029582
-1.1725237	o o s	-0.3405002
-1.1711425	c o s	-0.40248042
-1.2793992	l o s	-0.42133206
-0.9711801	p o s	-0.56840384
-1.7174848	w o s	-0.2029582
-1.698471	b o s	-0.23588686
-1.2688245	y o s	-0.2029582
-1.2537218	v o s	-0.27368048
-1.2156736	k o s	-0.2610644
-1.5819256	f o s	-0.24579293
-1.3215683	z o s	-0.29331946
-1.2635206	x o s	-0.2029582
-1.3202806	<w> c s	-0.2029582
-1.8766185	s c s	-0.2029582
-1.418266	e c s	-0.33505312
-1.5479841	r c s	-0.2029582
-1.3662341	m c s	-0.2029582
-1.4006846	a c s	-0.45999187
-1.3804234	n c s	-0.29510674
-1.1153336	i c s	-0.9319288
-1.2649472	d c s	-0.2029582
-1.5934569	u c s	-0.2029582
-1.9458296	o c s	-0.2029582
-0.9338533	b c s	-0.29331946
-0.92280704	k c s	-0.2029582
-1.2607429	<w> l s	-0.2029582
-1.6005158	h l s	-0.2029582
-1.0438299	e l s	-0.65648377
-1.011122	r l s	-0.44626406
-1.467223	m l s	-0.2029582
-1.0864127	a l s	-0.57850766
-1.1432465	i l s	-0.5377865
-1.3672223	u l s	-0.29421216
-1.172606	o l s	-0.53341424
-1.2605188	l l s	-0.3029133
-1.0619565	w l s	-0.2610644
-1.2122148	y l s	-0.29439092
-1.306033	<w> p s	-0.2029582
-1.6226355	s p s	-0.29331946
-1.1782751	e p s	-0.3484473
-1.3580313	r p s	-0.23104022
-1.0937296	m p s	-0.33505312
-1.0294333	a p s	-0.49554193
-1.0377926	i p s	-0.39182836
-0.9268649	u p s	-0.4590586
-1.0306684	o p s	-0.44618905
-0.7415923	c p s	-0.2029582
-1.1564462	l p s	-0.29510674
-1.3847487	p p s	-0.29331946
-1.1791269	y p s	-0.2029582
-0.5837545	f p s	-0.2029582
-1.3813885	<w> w s	-0.2029582
-1.0474703	e w s	-0.43831936
-1.0454814	a w s	-0.61354417
-1.759481	d w s	-0.2029582
-1.04022	o w s	-0.39403093
-1.2547026	<w> b s	-0.2029582
-1.383796	e b s	-0.36708283
-1.0392587	r b s	-0.36708283
-1.1601602	m b s	-0.36708283
-1.3835635	a b s	-0.26400265
-1.4861795	n b s	-0.2029582
-1.0988013	g b s	-0.2029582
-1.2088685	i b s	-0.2558719
-1.1301285	u b s	-0.36091268
-1.020006	o b s	-0.40269083
-0.9683346	c b s	-0.2029582
-1.2107034	l b s	-0.29510674
-1.1351628	p b s	-0.2029582
-1.0714707	b b s	-0.36708283
-1.2668554	<w> y s	-0.2029582
-1.1023725	s y s	-0.2701728
-1.2003927	h y s	-0.25781178
-0.90446144	e y s	-0.5012409
-0.86753535	r y s	-0.39339504
-0.82477415	m y s	-0.33505312
-0.9957942	a y s	-0.5483244
-1.09455	n y s	-0.31353983
-0.7639593	t y s	-0.5823852
-1.3272595	g y s	-0.2029582
-0.88301575	d y s	-0.39498654
-0.64722365	u y s	-0.24579293
-0.9199026	o y s	-0.62235534
-1.2036545	c y s	-0.2029582
-1.21133	l y s	-0.32530496
-1.2320657	p y s	-0.2029582
-0.709167	b y s	-0.46844178
-1.2182313	v y s	-0.2029582
-1.0716608	k y s	-0.2701728
-1.2242621	<w> v s	-0.2029582
-1.2331976	e v s	-0.29439092
-1.7171168	a v s	-0.29331946
-1.8470924	i v s	-0.2029582
-1.0938458	o v s	-0.37357217
-1.2629808	<w> k s	-0.2029582
-1.277586	s k s	-0.42004547
-0.98180276	e k s	-0.36708283
-1.0227182	r k s	-0.32545406
-1.1514268	a k s	-0.45999187
-1.0313183	n k s	-0.37153175
-1.1625601	i k s	-0.2558719
-1.3981727	u k s	-0.2029582
-1.3659629	o k s	-0.24659306
-1.1944497	c k s	-0.38317525
-0.88715583	l k s	-0.3385136
-1.0194079	w k s	-0.2029582
-1.3300534	<w> f s	-0.2029582
-1.6966834	e f s	-0.2610644
-1.3179436	r f s	-0.29331946
-1.7674313	a f s	-0.2029582
-1.5211064	i f s	-0.2610644
-1.5281332	u f s	-0.2029582
-1.5047026	o f s	-0.2029582
-1.094636	l f s	-0.36708283
-1.0515608	f f s	-0.3735692
-1.3021159	<w> z s	-0.2029582
-1.1180562	t z s	-0.2701728
-1.638995	z z s	-0.2029582
-0.99116874	<w> x s	-0.2029582
-1.5614989	e x s	-0.2029582
-0.70132947	r x s	-0.2029582
-1.3393165	a x s	-0.2029582
-1.3884526	i x s	-0.2029582
-1.232919	u x s	-0.2029582
-1.4669898	o x s	-0.2029582
-1.3953168	</w> <w> h	-0.89739484
-1.1759398	<w> s h	-0.21958861
-1.182524	s s h	-0.2662458
-0.9946719	h s h	-0.2029582
-1.2722875	e s h	-0.44494236
-1.230337	r s h	-0.27920967
-1.4383664	m s h	-0.2610644
-1.0433482	a s h	-0.62118495
-1.2668965	n s h	-0.38063198
-1.1126169	t s h	-0.25781178
-1.2089453	g s h	-0.2610644
-1.1308125	i s h	-0.68483007
-1.2181339	d s h	-0.2662458
-1.1401834	u s h	-0.42649153
-1.2009432	o s h	-0.35880318
-1.1072959	l s h	-0.24579293
-1.0780305	p s h	-0.2777521
-1.3896184	w s h	-0.2029582
-1.0658908	v s h	-0.2029582
-1.0041045	k s h	-0.2939144
-1.3699396	f s h	-0.2029582
-1.8688223	s h h	-0.2029582
-1.2351109	h h h	-0.2029582
-1.8023778	e h h	-0.2029582
-1.6178799	n h h	-0.2029582
-2.11549	t h h	-0.2029582
-1.5988034	u h h	-0.2029582
-1.7675676	c h h	-0.2610644
-1.4500877	<w> e h	-0.2029582
-1.8559422	s e h	-0.2610644
-2.0230875	h e h	-0.2029582
-1.801353	e e h	-0.24579293
-1.6957815	r e h	-0.32921773
-1.7361975	m e h	-0.2029582
-1.6553361	n e h	-0.22691563
-1.8602765	t e h	-0.24579293
-1.69603	g e h	-0.2610644
-2.1309865	i e h	-0.2029582
-1.8584341	d e h	-0.2029582
-1.5235814	j e h	-0.2029582
-1.6865518	o e h	-0.2029582
-2.038541	c e h	-0.2029582
-1.6570374	l e h	-0.30792728
-2.0136695	p e h	-0.2029582
-1.8666743	b e h	-0.23104022
-1.800209	y e h	-0.2029582
-1.6420953	v e h	-0.24579293
-1.8136133	k e h	-0.2029582
-1.3752725	<w> r h	-0.2029582
-1.397173	s r h	-0.2029582
-1.6337485	e r h	-0.38325274
-1.2970852	r r h	-0.2610644
-1.9988912	a r h	-0.2701728
-2.0911837	u r h	-0.2029582
-1.9114368	o r h	-0.24579293
-1.8349034	r m h	-0.2029582
-2.2202	u m h	-0.2029582
-1.9838715	o m h	-0.2029582
-1.9130298	y m h	-0.2029582
-1.3881663	<w> a h	-0.2029582
-1.8008589	s a h	-0.2029582
-1.5408012	h a h	-0.2662458
-1.8202006	e a h	-0.2610644
-1.5975766	r a h	-0.25078613
-1.7723666	m a h	-0.24215169
-1.3556368	a a h	-0.2029582
-1.6709723	n a h	-0.22691563
-1.5583112	t a h	-0.22691563
-1.8278223	g a h	-0.2029582
-1.381669	i a h	-0.59613675
-1.5306439	d a h	-0.24579293
-0.9643489	j a h	-0.2662458
-1.7228624	u a h	-0.2029582
-1.4639951	o a h	-0.24579293
-1.9819449	c a h	-0.2029582
-1.5406842	l a h	-0.3160972
-1.7562937	p a h	-0.2029582
-1.647012	w a h	-0.2029582
-1.5237033	b a h	-0.2558719
-1.6588097	y a h	-0.2029582
-1.5255984	v a h	-0.2701728
-1.590665	k a h	-0.2029582
-1.610393	f a h	-0.2029582
-1.606094	z a h	-0.2029582
-1.444255	e n h	-0.41153082
-1.3729082	r n h	-0.2610644
-1.8369616	a n h	-0.27211797
-1.7863729	n n h	-0.2029582
-1.6641536	i n h	-0.28647012
-2.162809	u n h	-0.2029582
-1.8444959	o n h	-0.33505312
-1.4684361	w n h	-0.2029582
-1.7729034	y n h	-0.2029582
-1.2341744	<w> t h	-0.2029582
-1.5088271	s t h	-0.2701728
-1.0886258	h t h	-0.23104022
-1.099573	e t h	-0.5749372
-1.1689702	r t h	-0.3461786
-1.147606	m t h	-0.2029582
-1.1141496	a t h	-0.60494006
-1.094907	n t h	-0.3559067
-1.4518129	t t h	-0.2029582
-1.0447879	g t h	-0.2029582
-1.2252176	i t h	-0.5038803
-0.7283931	d t h	-0.34469888
-1.2064301	u t h	-0.36250475
-1.0674815	o t h	-0.4930964
-1.6237458	c t h	-0.2029582
-1.1969135	l t h	-0.27073637
-1.6862899	p t h	-0.2029582
-0.911337	w t h	-0.24579293
-0.6568482	y t h	-0.26833576
-1.1574893	k t h	-0.2029582
-1.2057974	f t h	-0.24579293
-1.2764664	x t h	-0.2029582
-1.2160302	<w> g h	-0.2029582
-1.6887728	e g h	-0.2029582
-1.2142742	r g h	-0.2029582
-1.3544877	a g h	-0.2400846
-1.2934853	n g h	-0.26468492
-1.5235822	g g h	-0.2029582
-1.0966114	i g h	-0.4166087
-1.3920083	d g h	-0.2029582
-1.1002116	u g h	-0.31263116
-1.5321146	o g h	-0.2029582
-0.96603155	c g h	-0.2029582
-1.3567497	l g h	-0.2029582
-0.728786	f g h	-0.2029582
-1.5417987	<w> i h	-0.2029582
-2.3393257	s i h	-0.2029582
-2.1670606	h i h	-0.2029582
-2.4426246	r i h	-0.2029582
-1.881371	n i h	-0.2610644
-2.1807199	t i h	-0.2029582
-1.4679396	i i h	-0.2029582
-2.445489	l i h	-0.2029582
-1.3423944	<w> d h	-0.2029582
-1.9423418	e d h	-0.2029582
-1.5756924	r d h	-0.2029582
-1.5762365	a d h	-0.27368048
-1.1986346	n d h	-0.40269083
-1.6381646	d d h	-0.2029582
-0.598433	j d h	-0.2029582
-1.9224484	u d h	-0.2029582
-1.5871844	o d h	-0.27368048
-1.7215145	l d h	-0.2029582
-1.2919731	<w> j h	-0.2029582
-1.2846334	<w> u h	-0.2029582
-1.5471961	s u h	-0.24579293
-1.5748243	h u h	-0.24579293
-1.8222326	r u h	-0.2029582
-1.7562019	m u h	-0.2029582
-1.9927429	a u h	-0.2029582
-1.7793092	n u h	-0.2029582
-1.6427146	t u h	-0.2610644
-1.7642981	g u h	-0.2029582
-1.5390888	d u h	-0.2029582
-1.534261	j u h	-0.2029582
-1.2075841	w u h	-0.2029582
-1.8145188	b u h	-0.2029582
-1.3584871	y u h	-0.2029582
-1.0119071	v u h	-0.2610644
-1.2363473	k u h	-0.29331946
-1.5824053	f u h	-0.2029582
-1.4646134	<w> o h	-0.2029582
-1.6920475	s o h	-0.29510674
-1.940098	h o h	-0.2029582
-2.0189884	r o h	-0.2029582
-2.0693321	m o h	-0.2029582
-2.0375726	d o h	-0.2029582
-1.6451309	j o h	-0.2029582
-1.5832651	u o h	-0.2029582
-1.9310441	o o h	-0.2610644
-1.8017673	c o h	-0.27368048
-1.9430256	l o h	-0.2029582
-2.0485027	p o h	-0.2029582
-1.8321676	w o h	-0.2029582
-1.6284293	b o h	-0.2029582
-1.837973	k o h	-0.2029582
-1.4973009	f o h	-0.2610644
-1.2028158	<w> c h	-0.2029582
-0.799564	s c h	-0.45326036
-0.9680817	h c h	-0.2029582
-1.0038525	e c h	-0.34897298
-0.9342744	r c h	-0.37159446
-0.9712604	m c h	-0.2610644
-0.97264034	a c h	-0.5513229
-1.0153166	n c h	-0.37357104
-0.604202	t c h	-0.39169547
-1.0370458	i c h	-0.49959534
-1.1746755	d c h	-0.2029582
-0.8660923	u c h	-0.30104634
-0.9693233	o c h	-0.4784776
-1.2893143	c c h	-0.2610644
-0.66320235	l c h	-0.3160972
-0.7241429	p c h	-0.29331946
-0.81038696	y c h	-0.23526649
-0.5607585	v c h	-0.2029582
-0.87390935	k c h	-0.2029582
-1.059515	x c h	-0.2029582
-2.1556735	e l h	-0.2029582
-1.7369975	r l h	-0.2029582
-2.0198529	a l h	-0.2610644
-1.7853785	g l h	-0.2029582
-1.4408365	i l h	-0.28346026
-2.1364257	u l h	-0.2029582
-2.0911887	o l h	-0.2029582
-1.5544853	l l h	-0.2610644
-1.2894313	<w> p h	-0.2029582
-1.325079	s p h	-0.31787547
-0.97383034	e p h	-0.31510085
-1.201149	r p h	-0.23104022
-1.0885131	m p h	-0.26953918
-1.2383009	a p h	-0.26216978
-1.230081	n p h	-0.2029582
-1.2256122	t p h	-0.2029582
-1.132926	i p h	-0.30545825
-1.3287075	u p h	-0.2792016
-0.91114306	o p h	-0.52820355
-0.42560953	c p h	-0.2610644
-0.8921273	l p h	-0.27589664
-1.0230224	w p h	-0.2029582
-0.8542764	y p h	-0.23688129
-1.1859257	<w> w h	-0.2029582
-1.0934592	h w h	-0.2029582
-1.2977784	e w h	-0.33505312
-1.2640467	r w h	-0.2029582
-1.491595	a w h	-0.24579293
-0.94636697	n w h	-0.2610644
-1.3808279	t w h	-0.2029582
-1.5685987	d w h	-0.2029582
-1.4506352	o w h	-0.23688129
-0.41749805	c w h	-0.2029582
-1.2002692	l w h	-0.2029582
-1.12333	y w h	-0.29331946
-1.1102693	k w h	-0.2029582
-1.5132778	<w> b h	-0.2029582
-2.0513835	a b h	-0.2029582
-1.8662037	u b h	-0.2029582
-1.7572347	e y h	-0.29331946
-1.8744675	a y h	-0.2029582
-1.7324312	n y h	-0.2029582
-1.9166301	o y h	-0.2029582
-1.9774529	l y h	-0.2029582
-1.5935782	p y h	-0.2029582
-1.4614661	b y h	-0.29331946
-1.2292885	x y h	-0.2029582
-1.3292377	<w> k h	-0.2029582
-1.6360562	e k h	-0.2029582
-1.3017871	r k h	-0.27368048
-1.4341602	a k h	-0.24579293
-1.4608544	n k h	-0.2029582
-1.7314725	i k h	-0.2029582
-1.2398782	u k h	-0.2029582
-1.4032246	c k h	-0.35207647
-1.3511208	l k h	-0.2029582
-1.4706225	<w> f h	-0.2029582
-1.938374	a f h	-0.2029582
-1.7664129	l f h	-0.2029582
-1.662152	f f h	-0.29331946
-1.3223176	<w> z h	-0.2029582
-1.3329568	t z h	-0.2029582
-1.6537589	e x h	-0.23688129
-1.5236982	o x h	-0.2029582
-1.3768411	</w> <w> e	-0.8751036
-1.3246936	<w> s e	-0.2029582
-1.1067497	s s e	-0.4093178
-1.3896496	h s e	-0.2029582
-1.1346719	e s e	-0.42420682
-1.2177902	r s e	-0.30716333
-0.9423308	m s e	-0.32423773
-1.1483588	a s e	-0.5038803
-1.1356765	n s e	-0.39065343
-1.046946	t s e	-0.24215169
-1.1515235	i s e	-0.66441196
-1.4864943	d s e	-0.2029582
-0.9470445	u s e	-0.5500357
-1.0915719	o s e	-0.46328592
-1.4126954	c s e	-0.2029582
-1.0989809	l s e	-0.25376847
-1.0004164	p s e	-0.3815676
-1.3643878	w s e	-0.2029582
-0.9814771	b s e	-0.25489125
-0.9991245	y s e	-0.23368558
-1.381829	k s e	-0.2029582
-1.3506428	f s e	-0.2029582
-1.1527374	x s e	-0.2029582
-1.102766	<w> h e	-0.2029582
-0.92849416	s h e	-0.49780148
-0.8596244	h h e	-0.2029582
-0.8294748	e h e	-0.38237602
-0.7194879	r h e	-0.29712096
-0.92940825	m h e	-0.2029582
-1.288554	a h e	-0.2029582
-0.72579324	n h e	-0.23688129
-1.0046943	t h e	-0.5362725
-0.8467969	g h e	-0.339229
-0.8328039	d h e	-0.33505312
-1.0108125	o h e	-0.2029582
-0.9356019	c h e	-0.5560182
-0.8603864	l h e	-0.24579293
-0.836516	p h e	-0.3740673
-0.6954143	w h e	-0.34147623
-1.1132169	y h e	-0.2029582
-0.6699658	k h e	-0.29807654
-0.80369747	f h e	-0.2029582
-0.86597717	z h e	-0.2029582
-1.4063066	<w> e e	-0.2029582
-1.264284	s e e	-0.37545076
-1.2277112	h e e	-0.369955
-1.7722511	e e e	-0.2558719
-1.2590644	r e e	-0.47228655
-1.8287531	m e e	-0.23104022
-1.3376908	n e e	-0.3882721
-1.1915529	t e e	-0.45149714
-1.3464806	g e e	-0.39611453
-2.0786514	i e e	-0.2029582
-1.3929045	d e e	-0.26384676
-1.482399	j e e	-0.2029582
-1.875836	u e e	-0.2029582
-1.7977638	o e e	-0.2029582
-1.2488987	c e e	-0.36708283
-1.3438035	l e e	-0.43611294
-1.4626267	p e e	-0.26172733
-1.1136566	w e e	-0.27120152
-1.3087386	b e e	-0.3286302
-1.5766952	y e e	-0.2610644
-1.7475615	v e e	-0.2029582
-0.9710378	k e e	-0.45900095
-1.1433716	f e e	-0.26394832
-1.6014314	z e e	-0.2029582
-1.140747	<w> r e	-0.20295817
-0.83215183	s r e	-0.2522722
-0.824619	h r e	-0.24613565
-1.1795019	e r e	-0.6124051
-0.9358907	r r e	-0.3631616
-1.1808968	a r e	-0.59849834
-0.9795534	n r e	-0.22791134
-0.7307964	t r e	-0.4368694
-0.7055058	g r e	-0.41225109
-0.9797446	i r e	-0.50775564
-0.72740006	d r e	-0.34694785
-1.0279957	u r e	-0.62827647
-1.0709406	o r e	-0.60255
-0.7490565	c r e	-0.41266787
-1.159488	l r e	-0.2029582
-0.7223445	p r e	-0.3433973
-0.9502512	w r e	-0.2522722
-0.7358916	b r e	-0.33211595
-0.94754696	y r e	-0.34922907
-0.46889317	v r e	-0.2777521
-1.1692219	k r e	-0.2029582
-0.6444718	f r e	-0.2964162
-0.5595168	x r e	-0.2029582
-1.1437846	<w> m e	-0.2029582
-0.7088836	s m e	-0.3787072
-0.794835	h m e	-0.34581172
-0.87591165	e m e	-0.52506423
-0.97702354	r m e	-0.31694305
-0.8096133	m m e	-0.39102826
-0.9201981	a m e	-0.59077585
-0.6247326	n m e	-0.37862828
-0.5076121	t m e	-0.5823852
-0.5785835	g m e	-0.59613675
-0.9019466	i m e	-0.5893307
-0.64122117	d m e	-0.44626406
-0.98252946	u m e	-0.5151437
-0.9007054	o m e	-0.5537145
-0.87320477	l m e	-0.31611016
-0.80241334	p m e	-0.29510674
-0.5841321	w m e	-0.29510674
-0.8321698	b m e	-0.2029582
-0.66949856	y m e	-0.41153082
-0.4640997	k m e	-0.2558719
-0.7010831	z m e	-0.2029582
-1.4631826	<w> a e	-0.2029582
-2.02602	s a e	-0.2029582
-1.5733788	h a e	-0.2408195
-2.013826	e a e	-0.29331946
-1.6214621	r a e	-0.23526649
-1.823277	m a e	-0.2400846
-1.4193192	a a e	-0.2029582
-1.522711	n a e	-0.30779094
-1.7470417	g a e	-0.2029582
-1.7453637	i a e	-0.2610644
-1.8527141	d a e	-0.2029582
-1.911433	c a e	-0.2029582
-1.7164371	l a e	-0.24659306
-1.985573	p a e	-0.2029582
-2.0199115	b a e	-0.2029582
-1.8991463	v a e	-0.2029582
-1.6735971	f a e	-0.2029582
-1.684166	z a e	-0.2029582
-1.1870339	<w> n e	-0.2029582
-0.7472775	s n e	-0.24627282
-0.64135295	h n e	-0.29807654
-1.1853522	e n e	-0.57162905
-0.943632	r n e	-0.36815766
-0.7122967	m n e	-0.2701728
-1.1211424	a n e	-0.5805731
-0.88338315	n n e	-0.41017503
-0.3676725	t n e	-0.57131314
-0.8078341	g n e	-0.30409023
-1.1058204	i n e	-0.66596085
-0.5148141	d n e	-0.4208325
-1.1591256	u n e	-0.42687738
-1.046628	o n e	-0.666008
-0.6317566	c n e	-0.2029582
-0.6937268	l n e	-0.33505312
-0.34931636	p n e	-0.24659306
-1.0836546	w n e	-0.22384767
-0.7325858	b n e	-0.2029582
-0.6924494	y n e	-0.3983938
-0.561885	v n e	-0.2029582
-0.50968486	k n e	-0.32071525
-0.60496485	f n e	-0.2610644
-0.561885	x n e	-0.2029582
-1.2444143	<w> t e	-0.2029582
-0.9488494	s t e	-0.56917775
-1.2344887	h t e	-0.23368558
-1.0111066	e t e	-0.63390154
-1.0958326	r t e	-0.359073
-1.1536965	m t e	-0.2029582
-1.0055707	a t e	-0.7335867
-1.1648614	n t e	-0.39183366
-1.0920093	t t e	-0.38411617
-1.0510343	g t e	-0.2029582
-1.0742615	i t e	-0.6690457
-0.9924537	u t e	-0.6105872
-0.9378645	o t e	-0.5305789
-1.1213502	c t e	-0.3233368
-1.1012056	l t e	-0.3616952
-0.9423918	p t e	-0.5132109
-1.004166	b t e	-0.23688129
-0.60194784	y t e	-0.25869647
-0.9668743	f t e	-0.3125142
-0.57681865	z t e	-0.2029582
-0.7614268	x t e	-0.22691563
-1.1482824	<w> g e	-0.2029582
-0.9121763	s g e	-0.2029582
-0.88108945	h g e	-0.2029582
-0.7601882	e g e	-0.3922021
-0.9401652	r g e	-0.39041603
-0.82651216	a g e	-0.71580917
-1.0926708	n g e	-0.45709217
-0.57695043	t g e	-0.2029582
-0.91870207	g g e	-0.38254935
-1.0824621	i g e	-0.4724558
-0.76804686	d g e	-0.3726108
-0.90106165	u g e	-0.33858195
-0.9035983	o g e	-0.39182836
-0.9279553	c g e	-0.2029582
-0.6490521	l g e	-0.25781178
-1.2067873	y g e	-0.2029582
-0.56148064	z g e	-0.2029582
-1.3396181	<w> i e	-0.2029582
-1.168851	s i e	-0.51764405
-1.3371158	h i e	-0.31030926
-1.7753171	e i e	-0.2029582
-1.1450226	r i e	-0.5995549
-1.1918526	m i e	-0.30990538
-1.3448312	a i e	-0.2400846
-1.2236384	n i e	-0.4069458
-1.1704487	t i e	-0.6105872
-1.0724641	g i e	-0.45079577
-1.1173611	d i e	-0.542588
-1.7076443	u i e	-0.2029582
-1.7099557	o i e	-0.2029582
-1.1539387	c i e	-0.36708283
-1.0587387	l i e	-0.630365
-0.9202831	p i e	-0.44117036
-1.6109586	w i e	-0.2029582
-1.2612809	b i e	-0.30545825
-1.3005966	y i e	-0.29331946
-1.0825143	v i e	-0.36852947
-1.2212138	k i e	-0.29726458
-0.75950575	f i e	-0.5674747
-0.7505094	z i e	-0.3970567
-1.138014	x i e	-0.22691563
-1.2402368	<w> d e	-0.20295817
-0.949232	s d e	-0.2029582
-1.0852587	e d e	-0.45899683
-1.1246463	r d e	-0.31051394
-1.0922735	m d e	-0.2029582
-0.887818	a d e	-0.7033013
-1.0930604	n d e	-0.3959802
-0.8299812	g d e	-0.2029582
-0.82867706	i d e	-0.6393553
-0.9330862	d d e	-0.4441386
-0.99858445	u d e	-0.44496015
-0.93812263	o d e	-0.54328966
-1.1058235	c d e	-0.2029582
-1.0337398	l d e	-0.4068371
-1.0047307	w d e	-0.2029582
-0.6574955	y d e	-0.2792016
-0.9855438	<w> j e	-0.2029582
-0.70560277	e j e	-0.2701728
-0.7511637	r j e	-0.2029582
-0.9528542	a j e	-0.2029582
-1.0300224	n j e	-0.29331946
-1.0796883	i j e	-0.2029582
-0.68556553	d j e	-0.2029582
-0.8194346	o j e	-0.2029582
-0.22567432	b j e	-0.2558719
-1.2906792	s u e	-0.35479322
-1.5392407	h u e	-0.23688129
-1.4596524	e u e	-0.2610644
-1.3580127	r u e	-0.25706467
-1.260119	m u e	-0.2701728
-1.309147	a u e	-0.5132109
-1.3359994	n u e	-0.25489125
-1.3844513	t u e	-0.25781178
-0.9747866	g u e	-0.45193613
-1.1313986	d u e	-0.34931996
-1.4918023	j u e	-0.2029582
-1.6490043	o u e	-0.24579293
-1.4958944	c u e	-0.29408452
-1.2729663	l u e	-0.27920967
-1.5204332	p u e	-0.2029582
-1.4784287	b u e	-0.2029582
-1.2510448	v u e	-0.2029582
-0.59934723	q u e	-0.5121142
-1.5547146	f u e	-0.29331946
-1.220554	z u e	-0.2029582
-1.3946058	<w> o e	-0.2029582
-1.6445913	s o e	-0.24579293
-1.3170942	h o e	-0.28293145
-1.8141729	e o e	-0.2029582
-1.4517702	r o e	-0.31921256
-1.9758193	m o e	-0.2029582
-1.5370712	n o e	-0.2792016
-1.3181936	t o e	-0.37630218
-1.2807752	g o e	-0.37539026
-1.65205	i o e	-0.2610644
-1.3705838	d o e	-0.30792728
-1.5676863	j o e	-0.2029582
-1.3403366	o o e	-0.280684
-1.8767328	c o e	-0.22384767
-1.5888845	l o e	-0.28857473
-1.6909595	p o e	-0.2029582
-1.758756	w o e	-0.2029582
-1.9968996	b o e	-0.2029582
-1.7379386	v o e	-0.2029582
-1.6021345	k o e	-0.2029582
-1.6122131	f o e	-0.2610644
-1.348071	z o e	-0.2029582
-1.231664	<w> c e	-0.2029582
-1.0220103	s c e	-0.3785733
-0.9841474	h c e	-0.2029582
-1.2412992	e c e	-0.350499
-1.0456905	r c e	-0.32890463
-1.1245527	m c e	-0.2029582
-1.0832566	a c e	-0.44482845
-1.0242773	n c e	-0.38666624
-1.4396256	t c e	-0.2029582
-1.0410379	i c e	-0.5823882
-1.0272958	u c e	-0.31510085
-1.0871001	o c e	-0.32872054
-1.0296226	c c e	-0.2408195
-1.1841162	l c e	-0.2029582
-0.98897517	p c e	-0.2029582
-1.0865734	w c e	-0.2029582
-0.8170027	y c e	-0.23104022
-1.0791825	x c e	-0.2029582
-1.1052912	<w> l e	-0.2029582
-0.4717971	s l e	-0.40943527
-0.53936577	h l e	-0.2634917
-1.021649	e l e	-0.56043315
-0.95753926	r l e	-0.34075361
-0.6125472	m l e	-0.30792728
-1.0614375	a l e	-0.62497234
-0.7475189	n l e	-0.30545825
-0.57128495	t l e	-0.5370799
-0.70245767	g l e	-0.37976167
-1.0261953	i l e	-0.5682781
-0.6857356	d l e	-0.516984
-1.0260203	u l e	-0.50651854
-1.041647	o l e	-0.5087691
-0.7066973	c l e	-0.46588847
-1.0449545	l l e	-0.41513175
-0.7378216	p l e	-0.4844371
-0.81176925	w l e	-0.26468492
-0.68360966	b l e	-0.4558158
-0.81019837	y l e	-0.427296
-0.6984483	v l e	-0.2029582
-0.7611727	k l e	-0.2849371
-0.8214947	f l e	-0.30870804
-0.86531675	z l e	-0.2029582
-0.31843048	x l e	-0.2029582
-1.2387309	<w> p e	-0.2029582
-0.8100937	s p e	-0.43327212
-1.226355	e p e	-0.2841408
-0.9360847	r p e	-0.3021738
-1.1494267	m p e	-0.32132533
-1.0184939	a p e	-0.4606424
-1.199666	n p e	-0.2029582
-0.8002536	t p e	-0.2029582
-0.99646753	g p e	-0.2029582
-1.0697901	i p e	-0.3589836
-1.0944302	d p e	-0.2029582
-0.9586191	u p e	-0.31470233
-1.0543269	o p e	-0.4876043
-0.98330194	l p e	-0.2522722
-0.94895273	p p e	-0.36180422
-0.8158387	b p e	-0.2029582
-1.137394	y p e	-0.23104022
-1.028068	x p e	-0.2029582
-1.0791974	<w> w e	-0.2029582
-0.81184065	s w e	-0.2777521
-0.73488975	h w e	-0.24579293
-0.84259176	e w e	-0.47981006
-0.69211894	r w e	-0.25781178
-0.76392794	m w e	-0.2029582
-1.0122055	a w e	-0.33124712
-1.0536479	n w e	-0.2029582
-0.64676136	t w e	-0.33124712
-0.95973194	g w e	-0.2029582
-0.704508	i w e	-0.2029582
-0.8474992	d w e	-0.32423773
-0.9143884	o w e	-0.56879663
-1.1182892	l w e	-0.2029582
-0.76392794	b w e	-0.2029582
-1.0574727	y w e	-0.2029582
-1.2596184	k w e	-0.2029582
-0.5038258	z w e	-0.29331946
-0.6838942	x w e	-0.2029582
-1.1187801	<w> b e	-0.2029582
-0.8781791	s b e	-0.34922907
-1.1540104	h b e	-0.2029582
-0.8579979	e b e	-0.3385136
-0.9853563	r b e	-0.32411385
-1.0053176	m b e	-0.33505312
-1.0172391	a b e	-0.4780715
-0.60609466	n b e	-0.32545406
-0.95016325	t b e	-0.2029582
-0.79024506	g b e	-0.2029582
-0.7543719	i b e	-0.44223455
-0.7724045	d b e	-0.2662458
-0.7758591	u b e	-0.46168107
-0.9049542	o b e	-0.36857176
-0.8951889	c b e	-0.2029582
-0.76226014	l b e	-0.30792728
-0.65452176	p b e	-0.2029582
-0.78005	w b e	-0.24579293
-0.838942	b b e	-0.32269344
-0.76242256	y b e	-0.2522722
-0.5730889	k b e	-0.29331946
-0.7751169	f b e	-0.2029582
-0.54657507	z b e	-0.2029582
-1.2801468	<w> y e	-0.2029582
-1.58892	s y e	-0.2029582
-1.5204133	h y e	-0.2029582
-0.86870563	e y e	-0.34763753
-1.3142459	r y e	-0.23688129
-1.2630731	m y e	-0.2610644
-0.9635617	a y e	-0.4702116
-1.3786886	n y e	-0.2029582
-1.670356	t y e	-0.2029582
-0.6930477	i y e	-0.2029582
-1.5855346	d y e	-0.2029582
-1.2280923	u y e	-0.2029582
-0.9752149	o y e	-0.36708283
-1.2163285	l y e	-0.25136346
-1.4248307	p y e	-0.2029582
-0.98822856	w y e	-0.29331946
-1.2011282	b y e	-0.2701728
-1.4314134	k y e	-0.2029582
-0.90982974	<w> v e	-0.20295826
-0.54179895	s v e	-0.22691563
-0.6318227	h v e	-0.2029582
-0.6655959	e v e	-0.5571352
-0.85014707	r v e	-0.28912
-0.6262068	a v e	-0.6999253
-0.6775872	n v e	-0.28293145
-0.9178925	t v e	-0.2029582
-0.26021552	g v e	-0.2029582
-0.5649704	i v e	-0.7015901
-0.62074775	d v e	-0.2029582
-0.6069003	u v e	-0.2777521
-0.54326123	o v e	-0.60067225
-0.5999928	l v e	-0.26011354
-0.370942	b v e	-0.29331946
-0.54423547	y v e	-0.2029582
-0.4992158	v v e	-0.2029582
-0.4992158	z v e	-0.2029582
-1.1716723	<w> k e	-0.2029582
-1.0563289	s k e	-0.2782856
-0.9249067	h k e	-0.2029582
-0.87110114	e k e	-0.27470446
-0.98650575	r k e	-0.33359307
-0.77460206	a k e	-0.6288217
-0.9181448	n k e	-0.3004733
-0.7068601	i k e	-0.43745294
-0.7036478	d k e	-0.2029582
-0.5827882	u k e	-0.37630218
-0.7016061	o k e	-0.61411816
-0.99536276	c k e	-0.44413176
-0.86134505	l k e	-0.2715186
-0.54147404	p k e	-0.2610644
-0.96650004	w k e	-0.2029582
-0.8808706	y k e	-0.29331946
-0.70224077	k k e	-0.24579293
-0.3187303	k q e	-0.2029582
-1.1396611	<w> f e	-0.2029582
-1.0092518	s f e	-0.2029582
-1.0122359	e f e	-0.28975603
-0.9184926	r f e	-0.23526649
-0.89445984	m f e	-0.29331946
-0.88647044	a f e	-0.34417278
-0.9062211	n f e	-0.25376847
-1.4218516	t f e	-0.2029582
-0.75517756	g f e	-0.29331946
-1.0475566	i f e	-0.3142222
-1.2368863	o f e	-0.23688129
-0.69248456	c f e	-0.2029582
-0.9177117	l f e	-0.24579293
-1.080321	p f e	-0.2029582
-0.98447174	w f e	-0.2029582
-1.1210067	y f e	-0.2029582
-0.989756	k f e	-0.2029582
-1.0638319	f f e	-0.34089273
-0.28991	z f e	-0.2029582
-0.9702676	<w> z e	-0.2029582
-0.56256074	s z e	-0.2029582
-0.5217076	h z e	-0.2029582
-1.1166254	e z e	-0.2610644
-0.87918675	r z e	-0.2029582
-0.6854904	a z e	-0.42133206
-0.6960527	n z e	-0.27368048
-0.9300429	t z e	-0.2558719
-0.6674297	i z e	-0.62332565
-0.65107155	d z e	-0.2029582
-0.9937695	u z e	-0.2029582
-0.7438379	o z e	-0.27470446
-0.8000387	c z e	-0.2029582
-0.70164716	l z e	-0.2029582
-0.74230057	y z e	-0.2029582
-0.85966414	z z e	-0.23104022
-0.98993886	<w> x e	-0.2029582
-0.96164435	e x e	-0.27004778
-0.75406545	a x e	-0.41128147
-0.88281834	n x e	-0.2029582
-1.0568202	i x e	-0.29331946
-0.8816074	u x e	-0.2029582
-1.0734557	o x e	-0.22691563
-1.4134126	</w> <w> r	-0.8688265
-1.5644774	<w> s r	-0.2029582
-1.3312926	s s r	-0.29331946
-2.344294	a s r	-0.2029582
-2.086541	n s r	-0.2029582
-1.8756105	i s r	-0.23104022
-2.3039575	o s r	-0.2029582
-1.5859696	w s r	-0.2029582
-1.1814239	<w> h r	-0.2029582
-1.6077236	s h r	-0.23526649
-1.4709558	e h r	-0.2029582
-1.336194	a h r	-0.29331946
-1.2120587	t h r	-0.41106158
-1.588112	g h r	-0.2029582
-1.0932212	u h r	-0.2029582
-1.5320578	o h r	-0.2029582
-1.3041502	c h r	-0.34469888
-1.0719465	l h r	-0.2029582
-1.1662533	p h r	-0.33867595
-1.53242	w h r	-0.2029582
-1.158891	y h r	-0.2029582
-1.3892294	k h r	-0.2029582
-1.3872654	<w> e r	-0.20295826
-1.222994	s e r	-0.43962842
-1.0986509	h e r	-0.4327736
-0.97402346	e e r	-0.7456777
-1.4563465	r e r	-0.44949615
-0.9706073	m e r	-0.48362723
-1.0167673	a e r	-0.25136346
-1.0358084	n e r	-0.5964118
-1.0244687	t e r	-0.6703665
-0.9967751	g e r	-0.519233
-0.9241911	i e r	-0.513975
-1.0214672	d e r	-0.5207768
-1.1084442	j e r	-0.23688129
-1.0872738	u e r	-0.34564146
-1.2680264	o e r	-0.2558719
-0.9968534	c e r	-0.4308371
-1.1268497	l e r	-0.67227256
-1.0047587	p e r	-0.54076856
-1.1795816	w e r	-0.28423604
-0.8419221	b e r	-0.6241799
-0.7519172	y e r	-0.56332505
-0.94803363	v e r	-0.5389335
-1.0037979	k e r	-0.46066207
-0.93519866	f e r	-0.47296208
-0.85542524	z e r	-0.31608498
-1.0051482	x e r	-0.24659306
-1.723378	h r r	-0.2029582
-1.3733158	e r r	-0.59632754
-1.2577178	a r r	-0.7307229
-1.5073469	i r r	-0.27470446
-1.3103881	u r r	-0.4506857
-1.29228	o r r	-0.505309
-1.742394	y r r	-0.2029582
-1.3985103	<w> m r	-0.2029582
-2.1463294	e m r	-0.2029582
-2.0149567	a m r	-0.2029582
-1.5235566	n m r	-0.2029582
-2.0955093	o m r	-0.2029582
-1.649104	l m r	-0.2029582
-1.363023	p m r	-0.2029582
-1.3775841	<w> a r	-0.2029582
-1.1487122	s a r	-0.34590423
-1.0690998	h a r	-0.42637914
-1.0234727	e a r	-0.6475136
-1.4432999	r a r	-0.3446989
-1.0407474	m a r	-0.4454493
-1.1397425	a a r	-0.2029582
-1.1612306	n a r	-0.4275493
-1.1736932	t a r	-0.42340434
-0.8550654	g a r	-0.45928088
-1.1977999	i a r	-0.35716605
-1.4270736	d a r	-0.2615157
-1.3700182	j a r	-0.22384767
-0.99532	u a r	-0.26172733
-1.1290116	o a r	-0.27589664
-1.0998923	c a r	-0.39865816
-1.2731302	l a r	-0.4885343
-1.0102379	p a r	-0.46207476
-0.9275998	w a r	-0.442826
-0.99501336	b a r	-0.37243292
-0.8086219	y a r	-0.54762304
-1.0168834	v a r	-0.29693443
-1.1410487	k a r	-0.25832376
-1.0302826	f a r	-0.31421378
-0.9316307	z a r	-0.25438604
-1.3124547	x a r	-0.2029582
-1.4089198	<w> n r	-0.2029582
-1.6258563	e n r	-0.2852363
-1.7188177	r n r	-0.2029582
-2.1916847	i n r	-0.2029582
-0.31813264	j n r	-0.2029582
-1.8570529	u n r	-0.2522722
-1.586443	o n r	-0.25781178
-1.4670473	w n r	-0.2029582
-1.5081875	k n r	-0.2029582
-1.2694154	<w> t r	-0.2029582
-0.9521053	s t r	-0.76685846
-1.4181097	h t r	-0.2029582
-1.2543478	e t r	-0.521903
-1.2825294	r t r	-0.3146208
-1.3064065	a t r	-0.4274765
-1.1737816	n t r	-0.47119796
-1.343468	t t r	-0.2777521
-1.066043	g t r	-0.2029582
-1.3354714	i t r	-0.42617497
-1.4670985	u t r	-0.27211797
-1.3739029	o t r	-0.39611453
-1.2350379	c t r	-0.26890638
-1.2138481	l t r	-0.2610644
-1.5627924	p t r	-0.2029582
-1.017088	b t r	-0.2029582
-1.5653961	y t r	-0.2029582
-1.5371718	f t r	-0.2029582
-1.3090016	x t r	-0.2029582
-1.1195103	<w> g r	-0.2029582
-0.89777815	s g r	-0.2029582
-1.0476488	e g r	-0.42861032
-1.4098803	r g r	-0.2029582
-1.2671669	a g r	-0.3989041
-1.0788257	n g r	-0.32872054
-0.9045786	t g r	-0.2029582
-1.4140261	g g r	-0.2029582
-1.2082772	i g r	-0.47697866
-1.1365129	d g r	-0.2029582
-1.6102813	u g r	-0.2029582
-0.89762163	o g r	-0.6457289
-0.6598532	c g r	-0.2029582
-1.2734473	l g r	-0.2029582
-0.47478616	p g r	-0.2610644
-0.694941	w g r	-0.2029582
-0.694941	b g r	-0.2029582
-1.1808007	y g r	-0.2029582
-0.694941	k g r	-0.2029582
-1.3714904	<w> i r	-0.2029582
-1.9555635	s i r	-0.24579293
-1.4296007	h i r	-0.26296616
-1.3318654	e i r	-0.26468492
-1.1990845	m i r	-0.33505312
-1.0406048	a i r	-0.44428477
-1.7558869	n i r	-0.2029582
-1.5096008	t i r	-0.29807654
-1.4005874	g i r	-0.2777521
-1.3903428	d i r	-0.32545406
-1.2803563	u i r	-0.21958861
-1.0965346	o i r	-0.3989041
-1.6683186	c i r	-0.2701728
-2.0606086	l i r	-0.2029582
-1.3059989	p i r	-0.33256975
-1.3382018	w i r	-0.2610644
-1.0886419	b i r	-0.3836363
-1.7444798	v i r	-0.2029582
-1.339316	k i r	-0.23526649
-1.0485797	f i r	-0.45999187
-1.5957237	z i r	-0.2029582
-1.1986793	<w> d r	-0.2029582
-0.9444522	h d r	-0.2029582
-1.3072292	e d r	-0.44051895
-1.3243796	r d r	-0.24579293
-1.0645876	m d r	-0.2029582
-1.2267634	a d r	-0.45209146
-1.1389284	n d r	-0.44465837
-0.86790645	t d r	-0.29331946
-1.8992944	i d r	-0.2029582
-1.484259	d d r	-0.2029582
-1.7316768	u d r	-0.2029582
-1.6154443	o d r	-0.24579293
-1.3023012	l d r	-0.2029582
-0.9444522	p d r	-0.2029582
-0.9817573	w d r	-0.2029582
-1.1423941	b d r	-0.2029582
-1.0047827	y d r	-0.23688129
-0.9616207	k d r	-0.2029582
-0.71571064	f d r	-0.2029582
-1.2904867	<w> j r	-0.2029582
-1.2086974	<w> u r	-0.2029582
-0.9720242	s u r	-0.33528256
-1.077904	h u r	-0.24315283
-0.7719384	e u r	-0.48810482
-1.6208957	r u r	-0.2029582
-1.0519882	m u r	-0.2517608
-1.3567971	a u r	-0.3030751
-1.3067362	n u r	-0.2400846
-0.88960826	t u r	-0.49092054
-1.224922	g u r	-0.24964182
-1.5733514	i u r	-0.2029582
-1.110393	d u r	-0.29620904
-1.1350616	j u r	-0.27211797
-0.95952165	o u r	-0.572996
-0.9714238	c u r	-0.42778885
-1.199156	l u r	-0.25438604
-1.0200585	p u r	-0.2724572
-0.90734416	w u r	-0.29331946
-0.73480016	b u r	-0.44035256
-1.2812951	y u r	-0.2029582
-0.9770075	v u r	-0.2029582
-1.3693382	k u r	-0.2029582
-1.0420719	f u r	-0.25381088
-0.75850415	z u r	-0.2029582
-0.69170845	x u r	-0.2029582
-1.3550199	<w> o r	-0.2029582
-1.016952	s o r	-0.3428241
-1.1325809	h o r	-0.41017503
-1.2300236	e o r	-0.27267537
-1.5905071	r o r	-0.32897428
-1.0195	m o r	-0.4598422
-1.2624942	a o r	-0.2029582
-1.1448132	n o r	-0.48475295
-1.1507045	t o r	-0.5970125
-1.1844544	g o r	-0.25538132
-1.0839971	i o r	-0.3882721
-1.1366363	d o r	-0.4265541
-1.0714489	j o r	-0.25136346
-1.1172744	u o r	-0.23688129
-1.1725237	o o r	-0.32999733
-1.1711425	c o r	-0.35911623
-1.1838619	l o r	-0.50341
-0.9432728	p o r	-0.48102617
-0.51871043	w o r	-0.5469472
-1.0620327	b o r	-0.42054614
-1.1292632	y o r	-0.2408195
-0.99179125	v o r	-0.3012332
-1.2156736	k o r	-0.2029582
-0.58744204	f o r	-0.5154393
-1.3215683	z o r	-0.2029582
-1.2635206	x o r	-0.2029582
-1.2655776	<w> c r	-0.2029582
-0.7724584	s c r	-0.52141577
-1.250455	e c r	-0.34469888
-1.3367344	r c r	-0.2029582
-1.3109051	m c r	-0.2029582
-1.4494148	a c r	-0.32110482
-1.0342942	n c r	-0.28391227
-1.4691553	t c r	-0.2029582
-1.8737675	i c r	-0.2610644
-1.2236116	d c r	-0.2029582
-1.4198568	u c r	-0.24579293
-1.3178284	o c r	-0.33274448
-1.3328297	c c r	-0.2029582
-1.4017075	l c r	-0.2029582
-1.4461503	y c r	-0.2029582
-1.1017647	x c r	-0.2029582
-1.7675598	e l r	-0.27368048
-1.9008527	a l r	-0.2029582
-1.678981	n l r	-0.2029582
-2.1661172	i l r	-0.29331946
-2.330451	o l r	-0.2029582
-1.9622654	l l r	-0.2029582
-1.2396061	<w> p r	-0.2029582
-0.9906552	s p r	-0.348618
-1.0285926	h p r	-0.2029582
-1.3050725	e p r	-0.29439092
-1.0391054	r p r	-0.2777521
-1.4827766	m p r	-0.26890638
-1.4222028	a p r	-0.2777521
-1.2002032	n p r	-0.2610644
-1.1876904	t p r	-0.2029582
-1.6534345	i p r	-0.2029582
-1.0949242	d p r	-0.2029582
-1.539831	u p r	-0.23688129
-1.4261475	o p r	-0.24659306
-1.123379	l p r	-0.2029582
-1.1963569	p p r	-0.2777521
-0.8161691	b p r	-0.2029582
-0.98617554	y p r	-0.24579293
-1.0285926	x p r	-0.2029582
-1.2050811	<w> w r	-0.2029582
-1.2795682	s w r	-0.29331946
-1.6369542	e w r	-0.29331946
-1.2804203	r w r	-0.2029582
-1.5070896	a w r	-0.24579293
-1.3377086	n w r	-0.2029582
-1.0438858	g w r	-0.2029582
-1.5873889	d w r	-0.2029582
-1.5776674	o w r	-0.24579293
-1.0092036	p w r	-0.2029582
-0.8203131	w w r	-0.2029582
-1.1344864	y w r	-0.29331946
-1.1325934	<w> b r	-0.2029582
-1.3697102	s b r	-0.2029582
-0.97151035	h b r	-0.2029582
-0.8259713	e b r	-0.46143812
-1.120863	r b r	-0.2029582
-0.9325465	m b r	-0.348618
-1.1740412	a b r	-0.40378672
-1.0703303	n b r	-0.2558719
-0.69548696	t b r	-0.23688129
-1.0182781	g b r	-0.2029582
-1.2583275	i b r	-0.2701728
-1.3463631	d b r	-0.2029582
-1.1497631	u b r	-0.30896434
-1.3229804	o b r	-0.2701728
-0.9031027	c b r	-0.2029582
-1.0152048	l b r	-0.2701728
-1.0517464	p b r	-0.2029582
-1.1503488	w b r	-0.2029582
-1.4142836	b b r	-0.2029582
-0.8759121	y b r	-0.24579293
-0.99263185	k b r	-0.2029582
-0.5502313	x b r	-0.2029582
-1.3428736	<w> y r	-0.2029582
-1.4503832	s y r	-0.24579293
-1.5861983	h y r	-0.2029582
-1.6611438	e y r	-0.2029582
-1.515953	m y r	-0.2029582
-1.5037079	a y r	-0.29439092
-1.0569296	t y r	-0.25869647
-1.3780699	g y r	-0.2029582
-1.7819982	o y r	-0.2029582
-1.2469085	c y r	-0.2029582
-1.682245	l y r	-0.29331946
-1.2788014	p y r	-0.2029582
-1.3975873	b y r	-0.2029582
-1.4890223	k y r	-0.2029582
-1.2242621	<w> v r	-0.2029582
-1.6768571	e v r	-0.2029582
-1.7171168	a v r	-0.2029582
-1.8470924	i v r	-0.2029582
-1.1745809	u v r	-0.29331946
-1.404119	<w> k r	-0.2029582
-1.7219492	r k r	-0.2029582
-1.6240511	a k r	-0.2610644
-1.52427	n k r	-0.29331946
-1.5342518	u k r	-0.2029582
-1.4450128	c k r	-0.2701728
-1.2249849	<w> f r	-0.2029582
-1.2667106	s f r	-0.2029582
-1.3454993	e f r	-0.25781178
-1.0970072	r f r	-0.2610644
-1.1195835	a f r	-0.28159198
-0.92760646	n f r	-0.3357836
-1.4951092	t f r	-0.2029582
-1.0391333	g f r	-0.2029582
-1.2171522	d f r	-0.2029582
-1.443962	u f r	-0.2029582
-1.187862	l f r	-0.24579293
-1.1477128	p f r	-0.2029582
-1.19215	y f r	-0.2029582
-1.1983225	f f r	-0.2522722
-1.6310073	e z r	-0.2029582
-1.5864785	t z r	-0.2029582
-1.3378736	l z r	-0.2029582
-1.1440904	<w> x r	-0.2029582
-1.8710666	e x r	-0.2029582
-1.3775768	</w> <w> m	-0.83937806
-1.3924311	<w> s m	-0.2029582
-1.3829788	s s m	-0.34469888
-1.2421379	e s m	-0.62235534
-1.6796837	r s m	-0.2029582
-1.4664464	m s m	-0.2029582
-1.306576	a s m	-0.38254935
-1.3621573	n s m	-0.2522722
-1.1934304	t s m	-0.43558595
-1.0294465	i s m	-0.7078671
-1.1224424	d s m	-0.2610644
-1.7381021	u s m	-0.29510674
-1.938556	o s m	-0.2610644
-1.7006514	l s m	-0.2029582
-1.7798631	p s m	-0.2029582
-1.4278884	w s m	-0.2029582
-1.6059659	y s m	-0.2029582
-1.4302388	k s m	-0.2029582
-1.2117771	<w> h m	-0.2029582
-1.405927	s h m	-0.38225693
-1.4986908	e h m	-0.2029582
-1.4423711	r h m	-0.2029582
-1.353659	a h m	-0.24579293
-1.4793544	t h m	-0.27368048
-1.6347715	g h m	-0.2029582
-1.2108289	i h m	-0.2029582
-1.5027809	u h m	-0.2029582
-1.0576851	o h m	-0.2610644
-1.317049	c h m	-0.42187065
-1.4177606	k h m	-0.2029582
-1.3976793	<w> e m	-0.2029582
-1.2624968	s e m	-0.47981006
-1.2256899	h e m	-0.38198557
-1.5382305	e e m	-0.3080182
-1.3467861	r e m	-0.49341488
-1.398076	m e m	-0.24215169
-1.696068	a e m	-0.2029582
-1.4314356	n e m	-0.35880318
-1.2247463	t e m	-0.40075645
-1.274314	g e m	-0.33124712
-1.6489438	i e m	-0.24579293
-1.3231492	d e m	-0.36180422
-1.4742553	j e m	-0.2029582
-1.7031776	u e m	-0.2029582
-1.5085889	o e m	-0.24579293
-1.3069248	c e m	-0.44626406
-1.2338817	l e m	-0.483105
-1.9475551	p e m	-0.2029582
-1.8065358	w e m	-0.2029582
-1.9617128	b e m	-0.2029582
-1.3752054	v e m	-0.44626406
-1.6354958	k e m	-0.23104022
-1.6821687	f e m	-0.24579293
-1.4421293	z e m	-0.2701728
-1.1680442	x e m	-0.2029582
-1.7247165	h r m	-0.2029582
-1.4333881	e r m	-0.60755575
-1.7312276	r r m	-0.2029582
-1.4170945	a r m	-0.5545832
-1.4191544	i r m	-0.26833576
-1.5198127	u r m	-0.27211797
-1.4328567	o r m	-0.43672228
-1.3530537	<w> m m	-0.2029582
-1.6311955	h m m	-0.2029582
-1.213493	e m m	-0.40839902
-1.4726149	m m m	-0.2610644
-1.2114878	a m m	-0.46789372
-1.0566212	i m m	-0.4673425
-1.0922544	u m m	-0.42691898
-1.1893133	o m m	-0.35047847
-1.7592475	y m m	-0.2029582
-1.378245	<w> a m	-0.20295817
-1.3035953	s a m	-0.2976063
-1.0988034	h a m	-0.44800144
-1.4374439	e a m	-0.41106275
-1.1925414	r a m	-0.543354
-1.8857151	m a m	-0.23688129
-0.9697011	a a m	-0.24579293
-1.1294068	n a m	-0.3899156
-1.3499671	t a m	-0.35645163
-1.1024698	g a m	-0.32423773
-1.3786772	i a m	-0.2715186
-1.221059	d a m	-0.35505226
-1.2187107	j a m	-0.22691563
-1.5486622	u a m	-0.29331946
-1.3191711	o a m	-0.2852363
-1.4041421	c a m	-0.27747768
-1.2118312	l a m	-0.4894125
-1.8807744	p a m	-0.2029582
-1.7675052	w a m	-0.2029582
-1.7788777	b a m	-0.2029582
-1.482011	y a m	-0.29331946
-1.6537483	v a m	-0.29331946
-1.4534897	k a m	-0.2029582
-1.6019084	f a m	-0.2610644
-1.5958081	z a m	-0.2029582
-1.0932422	x a m	-0.2029582
-1.4299359	<w> n m	-0.2029582
-1.7649177	e n m	-0.2662458
-1.3852125	r n m	-0.2701728
-2.4136398	a n m	-0.2029582
-1.6099064	g n m	-0.2029582
-1.9334712	i n m	-0.2558719
-1.8735136	u n m	-0.25781178
-1.5936124	o n m	-0.3970567
-1.4846994	s t m	-0.40839902
-1.5345122	h t m	-0.2029582
-1.7765559	e t m	-0.24579293
-1.4792633	r t m	-0.2777521
-1.6872547	a t m	-0.2792016
-1.4030825	n t m	-0.2662458
-1.5645245	t t m	-0.2029582
-1.7178322	i t m	-0.27368048
-1.5118412	u t m	-0.280684
-1.8129207	o t m	-0.2610644
-1.4313104	c t m	-0.29510674
-1.4102211	l t m	-0.2029582
-1.2732044	<w> g m	-0.2029582
-1.7451733	e g m	-0.2029582
-0.85630274	m g m	-0.2029582
-1.9143109	a g m	-0.23104022
-1.5894362	n g m	-0.2610644
-1.312416	i g m	-0.34931996
-0.9190204	d g m	-0.42004547
-1.7999848	u g m	-0.2029582
-1.8741219	o g m	-0.2029582
-1.3175083	y g m	-0.2029582
-1.3615507	<w> i m	-0.2029582
-1.3853709	s i m	-0.33906478
-1.2780311	h i m	-0.31363162
-1.6557164	e i m	-0.2029582
-1.323983	r i m	-0.48966733
-1.8201922	m i m	-0.29331946
-1.3515971	a i m	-0.2743629
-1.624521	n i m	-0.25869647
-1.0943041	t i m	-0.5479164
-1.6702155	g i m	-0.2029582
-1.3192438	d i m	-0.37862828
-0.7806041	j i m	-0.2408195
-1.7331339	u i m	-0.2029582
-1.6617622	c i m	-0.2610644
-1.2575399	l i m	-0.36144483
-1.9091905	p i m	-0.2029582
-1.6281735	w i m	-0.24579293
-1.7206501	b i m	-0.2029582
-1.8883516	v i m	-0.2029582
-1.4760942	k i m	-0.26890638
-1.2431571	z i m	-0.2029582
-1.1481724	x i m	-0.26106444
-1.6929848	e d m	-0.2610644
-1.4473981	r d m	-0.24579293
-1.5953188	a d m	-0.32921773
-1.2999452	n d m	-0.28159198
-1.9584295	i d m	-0.2029582
-1.7871537	u d m	-0.2029582
-1.9103737	o d m	-0.2610644
-1.5936755	l d m	-0.2029582
-1.2269162	<w> u m	-0.2029582
-1.1313798	s u m	-0.32119504
-0.90947616	h u m	-0.38515574
-1.2031622	e u m	-0.30896434
-1.049552	r u m	-0.43188012
-1.2465022	m u m	-0.26890638
-1.3651145	a u m	-0.2522722
-0.9228871	n u m	-0.3958339
-1.1662964	t u m	-0.39339504
-1.2334884	g u m	-0.23526649
-0.47997636	i u m	-0.6458364
-1.2189872	d u m	-0.23155566
-1.456239	j u m	-0.2029582
-0.7559289	u u m	-0.24579293
-1.6311927	o u m	-0.24579293
-1.0284028	c u m	-0.28144535
-0.9647457	l u m	-0.49719608
-1.494937	p u m	-0.2029582
-0.91583335	w u m	-0.2029582
-1.5879089	b u m	-0.24579293
-1.299795	y u m	-0.2029582
-1.3900214	k u m	-0.2029582
-1.5308061	f u m	-0.24579293
-1.3753808	<w> o m	-0.2029582
-0.9531884	s o m	-0.5292524
-1.2608637	h o m	-0.30740365
-1.4856647	e o m	-0.2029582
-1.220371	r o m	-0.47897017
-1.6970385	m o m	-0.2522722
-1.4946971	a o m	-0.2029582
-1.2735312	n o m	-0.4884792
-1.2266337	t o m	-0.4488293
-1.5120746	g o m	-0.24579293
-1.4011071	i o m	-0.28391227
-1.0268763	d o m	-0.44316113
-1.5032138	u o m	-0.2029582
-1.2231743	o o m	-0.40512803
-0.9382975	c o m	-0.5280419
-1.3209472	l o m	-0.32699737
-1.8001001	p o m	-0.23104022
-0.9777428	w o m	-0.37539026
-1.9723434	b o m	-0.2029582
-1.5889169	y o m	-0.2029582
-1.7162707	v o m	-0.2029582
-1.2238169	k o m	-0.22691563
-1.5201602	z o m	-0.2029582
-1.026809	x o m	-0.2029582
-1.579982	<w> c m	-0.2029582
-1.8276271	r c m	-0.2029582
-2.3849545	a c m	-0.2029582
-1.32314	<w> l m	-0.2029582
-1.3424748	e l m	-0.40839902
-1.7369975	r l m	-0.2029582
-1.3291366	a l m	-0.39955896
-1.3926173	i l m	-0.34751704
-1.6612208	u l m	-0.29439092
-1.6036032	o l m	-0.43296188
-1.2911538	l l m	-0.42004547
-1.3857121	<w> p m	-0.2029582
-1.9413235	e p m	-0.2029582
-1.6128918	r p m	-0.2029582
-1.7805737	m p m	-0.2029582
-2.0397258	a p m	-0.2029582
-1.7803947	i p m	-0.2610644
-1.8372115	u p m	-0.2029582
-1.8821734	o p m	-0.2029582
-1.5718598	l p m	-0.2029582
-1.6471617	p p m	-0.2029582
-1.4154328	<w> w m	-0.2029582
-1.8494486	e w m	-0.2029582
-1.8397099	a w m	-0.2029582
-1.4677893	o w m	-0.37357217
-1.4536315	<w> b m	-0.2029582
-2.0624502	e b m	-0.2029582
-1.9930288	i b m	-0.2029582
-2.0308557	u b m	-0.2029582
-1.0563458	c b m	-0.2029582
-1.2966033	<w> y m	-0.2029582
-1.1120315	s y m	-0.29712096
-1.215481	h y m	-0.22691563
-1.4918226	e y m	-0.24579293
-1.4526333	r y m	-0.2777521
-1.4746815	m y m	-0.2029582
-1.4803141	a y m	-0.29408452
-1.2479092	n y m	-0.22384767
-1.2387105	t y m	-0.2029582
-1.1032145	g y m	-0.2029582
-1.4409683	d y m	-0.2610644
-0.58195126	j y m	-0.2029582
-1.5758762	o y m	-0.29331946
-1.5196635	l y m	-0.23526649
-1.2233452	w y m	-0.2029582
-1.2646056	z y m	-0.2029582
-1.1355704	x y m	-0.2029582
-0.908818	m v m	-0.2029582
-1.6776882	s k m	-0.2029582
-1.5170603	r k m	-0.2610644
-1.9900473	a k m	-0.2029582
-1.3551959	n k m	-0.2610644
-1.841645	o k m	-0.2029582
-1.3360475	c k m	-0.40199992
-1.4706225	<w> f m	-0.2029582
-1.938374	a f m	-0.2029582
-1.8636512	o f m	-0.2029582
-1.662152	f f m	-0.29331946
-1.5888549	t z m	-0.2029582
-1.3395698	l z m	-0.2029582
-1.6413089	z z m	-0.2029582
-1.7906833	o x m	-0.2029582
-1.3601792	</w> <w> a	-0.9424863
-1.3507005	<w> s a	-0.2029582
-1.2636908	s s a	-0.3132734
-1.1772441	h s a	-0.2029582
-1.2721205	e s a	-0.26468492
-1.2299558	r s a	-0.23819743
-1.6068654	m s a	-0.2029582
-1.2569244	a s a	-0.25321656
-1.3448962	n s a	-0.2711484
-1.6301049	t s a	-0.2029582
-1.4220325	g s a	-0.2029582
-1.3043364	i s a	-0.36558253
-1.6685718	d s a	-0.2029582
-1.2792618	u s a	-0.36271006
-1.2008007	o s a	-0.29553193
-1.4966087	l s a	-0.24579293
-1.2733762	p s a	-0.2029582
-1.3888408	w s a	-0.2029582
-1.7573352	y s a	-0.2029582
-1.2546477	k s a	-0.2610644
-1.3693488	f s a	-0.2029582
-1.0917529	<w> h a	-0.2029582
-0.8705473	s h a	-0.38505325
-0.82668656	e h a	-0.30239162
-0.71663666	r h a	-0.22384767
-0.6662645	m h a	-0.2029582
-0.8612179	a h a	-0.27004778
-0.65051734	n h a	-0.25438604
-1.0322946	t h a	-0.43835312
-0.8431523	g h a	-0.29665527
-0.7261411	i h a	-0.2610644
-0.6218718	d h a	-0.22147639
-1.0486223	u h a	-0.2029582
-0.82008296	o h a	-0.2610644
-1.0179242	c h a	-0.43208534
-0.8554367	l h a	-0.24579293
-0.76758385	p h a	-0.38509637
-0.8534299	w h a	-0.24627282
-0.78252566	k h a	-0.25630802
-0.51823115	f h a	-0.2029582
-0.85955864	z h a	-0.2029582
-0.9168256	x h a	-0.2029582
-1.4069865	<w> e a	-0.2029582
-1.4020981	s e a	-0.2892494
-0.9501847	h e a	-0.6048543
-1.7727104	e e a	-0.2610644
-1.2084106	r e a	-0.54439837
-1.2241466	m e a	-0.29559904
-1.220626	a e a	-0.2701728
-1.2966889	n e a	-0.31506923
-1.4026821	t e a	-0.2672114
-1.2766671	g e a	-0.35388574
-1.3931504	d e a	-0.2631599
-1.4830403	j e a	-0.2029582
-1.8765924	u e a	-0.2029582
-1.798578	o e a	-0.2029582
-1.2490479	c e a	-0.31096017
-1.314038	l e a	-0.40432894
-1.2539911	p e a	-0.28424934
-1.2701017	w e a	-0.28916603
-1.1074294	b e a	-0.4062939
-1.4234642	y e a	-0.2400846
-1.3786929	v e a	-0.23688129
-1.7772968	k e a	-0.2029582
-1.406169	f e a	-0.2792016
-1.6019015	z e a	-0.2029582
-1.1303649	<w> r a	-0.2029582
-0.8278284	s r a	-0.2029582
-0.9080939	h r a	-0.24215169
-1.1958865	e r a	-0.6312922
-0.932284	r r a	-0.2792626
-0.5778235	m r a	-0.29331946
-1.2831442	a r a	-0.48969617
-0.6263926	n r a	-0.22147639
-0.7299185	t r a	-0.49597296
-0.66476	g r a	-0.4151979
-1.0073055	i r a	-0.28494555
-0.8275993	d r a	-0.25161773
-1.1220608	u r a	-0.5293808
-1.1696786	o r a	-0.48663408
-0.70422137	c r a	-0.36462355
-0.95112455	l r a	-0.2029582
-0.8135085	p r a	-0.31360692
-1.2924169	w r a	-0.2029582
-0.8673718	b r a	-0.3017979
-0.79213023	y r a	-0.2558719
-1.0725712	v r a	-0.2029582
-0.6308949	k r a	-0.21958861
-0.8346565	f r a	-0.29534712
-0.69899285	z r a	-0.2029582
-1.1179146	<w> m a	-0.2029582
-0.59792185	s m a	-0.4848776
-0.6580398	h m a	-0.39240083
-0.9220743	e m a	-0.4902984
-0.82711196	r m a	-0.34829852
-0.9516214	m m a	-0.3148371
-1.0356047	a m a	-0.54559624
-0.7064636	n m a	-0.278532
-0.5057162	t m a	-0.49911612
-0.57472885	g m a	-0.27470446
-0.95454466	i m a	-0.4430961
-0.6375288	d m a	-0.37630218
-1.1272793	u m a	-0.2849371
-0.896296	o m a	-0.43105167
-0.8394112	c m a	-0.2029582
-0.78411627	l m a	-0.34684402
-0.42621863	p m a	-0.3620535
-0.5781223	w m a	-0.2701728
-1.029122	b m a	-0.2029582
-0.74389017	y m a	-0.43181878
-0.580281	k m a	-0.24659306
-0.50941443	f m a	-0.2029582
-0.40302426	z m a	-0.29331946
-1.587561	<w> a a	-0.2029582
-1.9805619	s a a	-0.2029582
-2.0646124	h a a	-0.2029582
-2.2902427	m a a	-0.2029582
-1.5209194	a a a	-0.2029582
-2.0757084	g a a	-0.2029582
-2.4136007	l a a	-0.2029582
-2.1689599	w a a	-0.2029582
-1.5594091	z a a	-0.2029582
-1.2239276	<w> n a	-0.2029582
-0.95365834	s n a	-0.23104022
-1.001606	h n a	-0.23104022
-1.2130183	e n a	-0.48833776
-1.1277616	r n a	-0.2777521
-0.92246413	m n a	-0.23104022
-1.1645797	a n a	-0.5355737
-1.0465715	n n a	-0.26603225
-1.4166499	t n a	-0.2029582
-0.72839916	g n a	-0.3270026
-1.1696312	i n a	-0.5993748
-0.8665111	d n a	-0.27368048
-1.2041926	u n a	-0.2864404
-1.1134108	o n a	-0.50086474
-1.0779202	c n a	-0.2029582
-1.2716619	w n a	-0.2029582
-1.0082293	b n a	-0.2029582
-1.1511976	y n a	-0.2029582
-0.9720897	k n a	-0.23688129
-0.8930223	f n a	-0.2029582
-0.57035184	x n a	-0.2029582
-1.2694154	<w> t a	-0.2029582
-0.9088427	s t a	-0.58258927
-0.8588351	h t a	-0.23104022
-1.0805494	e t a	-0.41056192
-1.1848615	r t a	-0.27394593
-1.145641	a t a	-0.39128575
-1.0469683	n t a	-0.40189874
-1.101036	t t a	-0.34649962
-1.1228902	i t a	-0.63292915
-1.3190243	d t a	-0.2029582
-1.171051	u t a	-0.3024905
-1.0734261	o t a	-0.38570696
-0.9754147	c t a	-0.28637543
-1.2138481	l t a	-0.26766282
-1.0806668	p t a	-0.2885306
-1.2388325	b t a	-0.2029582
-0.92687565	k t a	-0.2029582
-1.3722346	f t a	-0.2029582
-1.0999596	x t a	-0.2029582
-1.1490918	<w> g a	-0.2029582
-0.7370826	s g a	-0.2029582
-0.6078263	h g a	-0.29331946
-0.9336073	e g a	-0.36857176
-1.0415146	r g a	-0.25869647
-0.95619816	a g a	-0.38933295
-1.0930533	n g a	-0.32911658
-0.9188565	t g a	-0.2029582
-1.1597115	g g a	-0.2610644
-1.0456371	i g a	-0.40843558
-1.1589333	d g a	-0.2029582
-0.9529204	u g a	-0.35388574
-0.94080526	o g a	-0.3542276
-0.64920956	l g a	-0.29807654
-0.6796499	p g a	-0.2029582
-1.207516	y g a	-0.2029582
-0.7058348	f g a	-0.2029582
-1.1706845	s i a	-0.49386573
-1.4201858	h i a	-0.27609888
-1.4091166	e i a	-0.29439092
-1.3218403	r i a	-0.5089354
-1.3732656	m i a	-0.3286302
-1.8039013	a i a	-0.2029582
-1.2715546	n i a	-0.45265377
-1.2689707	t i a	-0.48994362
-1.0222049	g i a	-0.41316086
-1.3628324	i i a	-0.2029582
-1.2066759	d i a	-0.48308367
-1.5582681	u i a	-0.2029582
-1.4231454	o i a	-0.2701728
-1.1094769	c i a	-0.4914381
-1.4013472	l i a	-0.41706496
-1.1176516	p i a	-0.34022036
-1.7843723	w i a	-0.2029582
-1.0841781	b i a	-0.41153082
-1.1978092	v i a	-0.36145696
-1.3302182	k i a	-0.29331946
-1.4186864	f i a	-0.24659306
-1.3930768	z i a	-0.2029582
-1.1430634	x i a	-0.2029582
-1.1477857	<w> d a	-0.2029582
-0.41590428	s d a	-0.28346026
-0.662848	h d a	-0.2029582
-1.2424762	e d a	-0.28975603
-1.0841907	r d a	-0.27520284
-1.0295005	m d a	-0.2029582
-1.1069016	a d a	-0.34476078
-1.182911	n d a	-0.3428241
-1.0732574	t d a	-0.2029582
-0.7916633	g d a	-0.2029582
-0.95362073	i d a	-0.45391572
-0.82257736	d d a	-0.23688129
-0.5562747	j d a	-0.2029582
-1.0697122	u d a	-0.23368558
-1.3178301	o d a	-0.25869647
-1.0463401	c d a	-0.2029582
-1.0687058	l d a	-0.32423773
-0.662848	p d a	-0.2029582
-0.952293	w d a	-0.2029582
-0.725863	b d a	-0.2610644
-0.98226404	y d a	-0.29510674
-0.4765011	k d a	-0.2610644
-0.69830626	f d a	-0.2029582
-0.8991442	<w> j a	-0.2029582
-0.66692585	e j a	-0.2610644
-0.69873494	r j a	-0.2029582
-0.6345744	a j a	-0.23688129
-0.7016962	n j a	-0.24579293
-0.4998421	t j a	-0.2029582
-0.57401407	i j a	-0.23688129
-0.6426979	d j a	-0.2029582
-0.85593104	u j a	-0.2029582
-0.26057658	p j a	-0.2029582
-0.63261354	y j a	-0.2029582
-0.6218691	k j a	-0.2029582
-1.0913253	s u a	-0.33124712
-1.4356172	h u a	-0.23688129
-1.6890991	r u a	-0.27368048
-1.9916131	a u a	-0.2029582
-1.2515104	n u a	-0.28159198
-1.0401416	t u a	-0.5364696
-0.8140875	g u a	-0.40503615
-1.6537013	i u a	-0.2029582
-1.2518684	d u a	-0.2662458
-1.343857	j u a	-0.29331946
-1.9376175	o u a	-0.2029582
-1.6673523	c u a	-0.2029582
-1.6734853	l u a	-0.23104022
-1.7302675	p u a	-0.2029582
-1.8134729	b u a	-0.2029582
-0.60112166	q u a	-0.3659629
-1.0098064	x u a	-0.2029582
-1.4397392	<w> o a	-0.2029582
-1.9725344	s o a	-0.2029582
-1.6452488	h o a	-0.21958861
-1.4204597	r o a	-0.42049092
-1.7421153	m o a	-0.2610644
-1.9337962	n o a	-0.2029582
-1.8340327	t o a	-0.24579293
-1.5515652	g o a	-0.23104022
-2.0025587	i o a	-0.2029582
-1.7123756	d o a	-0.2029582
-1.617461	j o a	-0.2029582
-1.2301944	c o a	-0.39260152
-1.2597194	l o a	-0.41316086
-1.8613898	p o a	-0.24579293
-0.9822296	b o a	-0.5823852
-1.8054155	k o a	-0.2029582
-1.8359777	f o a	-0.2029582
-1.58621	z o a	-0.2029582
-1.1733142	<w> c a	-0.2029582
-0.95923567	s c a	-0.36801568
-0.9511652	h c a	-0.2029582
-1.0353462	e c a	-0.35116422
-0.8449676	r c a	-0.31790197
-0.95525	m c a	-0.24579293
-1.2106007	a c a	-0.2676587
-1.0057231	n c a	-0.27966794
-0.8205668	t c a	-0.27368048
-0.9324126	i c a	-0.5936105
-0.8019814	d c a	-0.2029582
-1.1526077	u c a	-0.2610644
-1.0349715	o c a	-0.37649903
-0.8251088	c c a	-0.26468492
-0.8541984	l c a	-0.23104022
-0.9566257	p c a	-0.2029582
-0.46224862	w c a	-0.24579293
-0.88064265	b c a	-0.2029582
-1.1997082	y c a	-0.2029582
-0.8604048	k c a	-0.2029582
-0.69495195	f c a	-0.2029582
-0.8265798	x c a	-0.2029582
-1.1160442	<w> l a	-0.2029582
-0.9496381	s l a	-0.28701755
-0.9745653	h l a	-0.2701728
-1.0814737	e l a	-0.4792086
-1.0629674	r l a	-0.27060363
-1.3270272	m l a	-0.2029582
-1.1690425	a l a	-0.43940908
-0.9458663	n l a	-0.2262141
-0.8302936	t l a	-0.39240083
-0.8931818	g l a	-0.33027104
-1.1399877	i l a	-0.39914495
-1.0781438	d l a	-0.24659306
-1.0287375	u l a	-0.52925473
-1.0025833	o l a	-0.541667
-0.671093	c l a	-0.42062753
-1.1103537	l l a	-0.38762325
-0.5821202	p l a	-0.5588989
-1.183353	w l a	-0.2029582
-1.0096382	b l a	-0.2568803
-0.85387707	y l a	-0.25296822
-0.7026305	v l a	-0.2029582
-0.8531518	k l a	-0.27350914
-0.293897	q l a	-0.2029582
-0.76098025	f l a	-0.27402848
-1.2098511	<w> p a	-0.2029582
-0.8862092	s p a	-0.32090276
-1.0105225	h p a	-0.2029582
-1.000163	e p a	-0.29559904
-1.0266323	r p a	-0.2408195
-1.0615636	m p a	-0.3003927
-1.1235881	a p a	-0.29589382
-1.0321025	n p a	-0.23688129
-0.95999384	t p a	-0.29331946
-1.0629199	i p a	-0.31865478
-0.8307558	d p a	-0.2029582
-1.2879378	u p a	-0.2610644
-1.2192469	o p a	-0.26468492
-0.97224116	l p a	-0.2029582
-1.0443	p p a	-0.26468492
-0.7283309	w p a	-0.2029582
-0.8047049	b p a	-0.2029582
-1.2835708	y p a	-0.2029582
-0.6779641	k p a	-0.2029582
-0.77035266	x p a	-0.2029582
-1.0500495	<w> w a	-0.2029582
-0.80363107	s w a	-0.2408195
-0.6185167	h w a	-0.23874702
-0.89753187	e w a	-0.44003958
-0.68335074	r w a	-0.28159198
-0.74957967	m w a	-0.2029582
-0.86007464	a w a	-0.36530527
-0.55491173	n w a	-0.31921256
-0.8274795	t w a	-0.24579293
-0.727862	g w a	-0.29331946
-0.51301783	i w a	-0.24579293
-0.6587209	d w a	-0.31368518
-0.27843368	u w a	-0.2029582
-1.0007977	o w a	-0.25618687
-0.58867705	l w a	-0.2662458
-0.5104188	p w a	-0.2029582
-0.74957967	w w a	-0.2029582
-0.74957967	b w a	-0.2029582
-0.56994545	y w a	-0.31353983
-0.3888842	k w a	-0.2610644
-0.5313062	f w a	-0.2029582
-1.146107	<w> b a	-0.2029582
-0.8837455	s b a	-0.22691563
-0.8130871	h b a	-0.23688129
-1.0947659	e b a	-0.31096017
-0.9970149	r b a	-0.24579297
-1.0158142	m b a	-0.3235096
-0.9613268	a b a	-0.391446
-0.82889825	n b a	-0.25781178
-0.8103037	t b a	-0.27368048
-1.027564	g b a	-0.2029582
-1.0915262	i b a	-0.23688129
-0.8886462	d b a	-0.23104022
-1.093928	u b a	-0.25869647
-1.0447178	o b a	-0.2743629
-0.91969985	l b a	-0.2946592
-1.0613384	p b a	-0.2029582
-0.63109785	w b a	-0.27368048
-1.2895418	b b a	-0.2029582
-1.1851424	y b a	-0.2029582
-1.001255	k b a	-0.2029582
-0.7872902	f b a	-0.2029582
-1.3108528	<w> y a	-0.20295817
-1.3758961	h y a	-0.2029582
-1.2653561	e y a	-0.2777521
-1.4618794	r y a	-0.2610644
-1.0034813	a y a	-0.3542276
-1.2556454	n y a	-0.2610644
-1.5364336	t y a	-0.2610644
-0.98587054	i y a	-0.2029582
-1.0511264	d y a	-0.2558719
-0.8372227	o y a	-0.32423773
-1.4338009	c y a	-0.2029582
-1.2275136	l y a	-0.2610644
-1.4542819	p y a	-0.2029582
-1.2341952	w y a	-0.2029582
-1.5740681	b y a	-0.2029582
-1.0894248	k y a	-0.2610644
-1.028182	<w> v a	-0.2029582
-0.7469785	e v a	-0.3677721
-0.76221	r v a	-0.23819743
-0.750969	a v a	-0.41571254
-0.71994054	n v a	-0.26890638
-0.6161765	t v a	-0.2610644
-0.6711958	i v a	-0.46313426
-1.0601635	d v a	-0.2029582
-0.7504378	u v a	-0.23688129
-0.8626348	o v a	-0.34195462
-0.6257942	l v a	-0.26766282
-0.8435445	y v a	-0.2029582
-1.1726464	<w> k a	-0.2029582
-0.9864483	s k a	-0.25489125
-0.925439	h k a	-0.2029582
-1.1890666	e k a	-0.2029582
-1.0806162	r k a	-0.2610644
-1.0680101	a k a	-0.23874702
-1.0892164	n k a	-0.2522722
-0.7265324	t k a	-0.29331946
-0.80820864	i k a	-0.42268428
-1.1426316	u k a	-0.2610644
-1.1844976	o k a	-0.2522722
-1.22357	c k a	-0.29620904
-1.1040571	l k a	-0.23104022
-0.99768996	p k a	-0.2029582
-0.88129914	y k a	-0.29331946
-0.7025286	k k a	-0.2029582
-0.29442266	f k a	-0.2029582
-1.1404486	<w> f a	-0.2029582
-1.1946902	s f a	-0.2029582
-1.0359861	h f a	-0.2029582
-1.0124388	e f a	-0.36021614
-0.9188	r f a	-0.23155566
-1.0107207	a f a	-0.25781178
-0.8208261	n f a	-0.26766282
-0.72972023	t f a	-0.33505312
-1.2872833	i f a	-0.29331946
-0.79961824	d f a	-0.24579293
-1.3734858	u f a	-0.2029582
-0.92849916	o f a	-0.23526649
-0.6927656	c f a	-0.2029582
-0.91801685	l f a	-0.23688129
-1.0809555	p f a	-0.2029582
-0.98499376	w f a	-0.2029582
-1.1216738	y f a	-0.2029582
-0.75858784	k f a	-0.2029582
-1.0641826	f f a	-0.25489125
-1.0082494	<w> z a	-0.2029582
-1.2999641	e z a	-0.2029582
-0.9070895	r z a	-0.24579293
-0.7391717	a z a	-0.29648504
-0.7096589	n z a	-0.23104022
-1.2166476	t z a	-0.2029582
-0.28041053	g z a	-0.2029582
-0.74652326	i z a	-0.43955955
-1.0207841	u z a	-0.2029582
-0.9958477	o z a	-0.24579293
-0.5764091	c z a	-0.2029582
-0.87171173	l z a	-0.2029582
-0.49939328	y z a	-0.2029582
-0.7771663	z z a	-0.30896434
-1.0209922	<w> x a	-0.2029582
-0.8641026	e x a	-0.32872054
-1.2292879	a x a	-0.24579293
-1.4301478	i x a	-0.2029582
-1.2720088	u x a	-0.2029582
-0.9063761	o x a	-0.2662458
-1.3949335	</w> <w> n	-0.74477124
-1.5239373	<w> s n	-0.2029582
-1.7654786	s s n	-0.23688129
-1.7893909	e s n	-0.22691563
-1.839393	r s n	-0.2029582
-1.9311267	a s n	-0.24579293
-1.8570279	i s n	-0.2029582
-1.817638	u s n	-0.2029582
-1.9160914	p s n	-0.2029582
-1.7692137	b s n	-0.2029582
-1.4221973	s h n	-0.44626406
-1.724246	e h n	-0.2029582
-1.3707672	a h n	-0.34469888
-1.8679016	t h n	-0.2610644
-1.5135311	g h n	-0.24579293
-1.237909	i h n	-0.2029582
-1.120926	u h n	-0.29510674
-0.8607193	o h n	-0.29726458
-1.5828247	c h n	-0.2610644
-1.892856	p h n	-0.2029582
-1.3872654	<w> e n	-0.2029582
-1.1271429	s e n	-0.5322846
-1.1363356	h e n	-0.3553263
-1.1508211	e e n	-0.41745988
-1.230199	r e n	-0.5556035
-0.8739697	m e n	-0.6463133
-1.5120026	a e n	-0.2029582
-1.5503887	n e n	-0.29003713
-1.0725236	t e n	-0.6239224
-0.9967751	g e n	-0.5216489
-1.0508476	i e n	-0.48272663
-0.9916812	d e n	-0.5309646
-1.4644132	j e n	-0.2029582
-1.1484835	u e n	-0.31921256
-1.1858608	o e n	-0.2662458
-1.0648526	c e n	-0.44626406
-1.2571502	l e n	-0.56278116
-1.0047587	p e n	-0.506118
-1.1092386	w e n	-0.36708283
-1.1924952	b e n	-0.30429584
-1.1589389	y e n	-0.23104022
-1.0215129	v e n	-0.44528496
-1.1312425	k e n	-0.41463363
-1.1389828	f e n	-0.2857681
-1.0205312	z e n	-0.3041276
-1.0051482	x e n	-0.2400846
-1.3490775	e r n	-0.62226284
-1.4204364	a r n	-0.5453513
-1.9499943	i r n	-0.2029582
-1.4075432	u r n	-0.42575997
-1.3968911	o r n	-0.38429436
-1.7669668	y r n	-0.2029582
-1.6300038	h m n	-0.2029582
-1.6026767	e m n	-0.25489125
-1.6673155	r m n	-0.2029582
-1.9698913	a m n	-0.2029582
-1.8875343	i m n	-0.29331946
-1.7130957	u m n	-0.26106444
-1.8628423	o m n	-0.2610644
-1.3846815	l m n	-0.2029582
-1.5565293	y m n	-0.2029582
-1.38749	<w> a n	-0.2029582
-1.1092404	s a n	-0.40016827
-1.0428462	h a n	-0.5329537
-1.1346285	e a n	-0.5064597
-1.2183597	r a n	-0.64031744
-0.90356606	m a n	-0.6310772
-1.1975328	n a n	-0.516984
-1.1082028	t a n	-0.52449393
-1.0052167	g a n	-0.47835153
-0.8932064	i a n	-0.6986751
-1.0834332	d a n	-0.37849188
-1.0746385	j a n	-0.24579297
-0.75071216	u a n	-0.28865588
-0.8979399	o a n	-0.43558595
-1.1815965	c a n	-0.40766937
-1.0479913	l a n	-0.6192726
-1.0500504	p a n	-0.3848768
-1.1072371	w a n	-0.31003013
-1.1123319	b a n	-0.3435668
-0.76190954	y a n	-0.3649023
-0.97157675	v a n	-0.44051895
-1.2261243	k a n	-0.25296822
-1.3452284	f a n	-0.2552179
-0.74403906	z a n	-0.26384676
-1.0976591	x a n	-0.2029582
-1.3901131	<w> n n	-0.2029582
-1.4985052	h n n	-0.2029582
-1.2153823	e n n	-0.7099536
-1.6927135	r n n	-0.2029582
-1.1858348	a n n	-0.66567755
-1.3729428	n n n	-0.24579293
-1.320254	i n n	-0.5476414
-1.2428863	u n n	-0.46929526
-1.379272	o n n	-0.4989298
-1.3761972	y n n	-0.27368048
-1.3368325	<w> t n	-0.2029582
-1.7944402	s t n	-0.2558719
-1.4972023	h t n	-0.2029582
-1.8905236	e t n	-0.2701728
-1.31845	r t n	-0.36708283
-1.7749443	a t n	-0.27368048
-1.3880644	n t n	-0.42004547
-1.6213951	i t n	-0.59613675
-1.6006703	u t n	-0.23688129
-2.0796528	o t n	-0.2029582
-1.5688579	c t n	-0.29331946
-1.7177074	l t n	-0.2029582
-1.4540249	p t n	-0.29510674
-1.2625912	f t n	-0.29510674
-1.2929372	<w> g n	-0.2029582
-1.6170115	e g n	-0.2701728
-1.31534	a g n	-0.462434
-1.7586461	n g n	-0.2029582
-1.2489173	t g n	-0.2029582
-1.0713003	i g n	-0.47634286
-1.6370845	u g n	-0.2029582
-1.4429065	o g n	-0.2610644
-1.3346508	y g n	-0.2029582
-1.320676	<w> i n	-0.2029582
-1.1336372	s i n	-0.4914192
-1.0722207	h i n	-0.39183366
-0.883042	e i n	-0.46089095
-1.1669632	r i n	-0.6064033
-1.0280914	m i n	-0.5480984
-0.8801729	a i n	-0.5968205
-1.0760634	n i n	-0.52042234
-1.1136858	t i n	-0.60171807
-0.9695963	g i n	-0.5079904
-1.0901014	i i n	-0.29331946
-1.0760854	d i n	-0.55607516
-1.1063008	j i n	-0.2029582
-0.9402228	u i n	-0.3665758
-0.8347537	o i n	-0.45424744
-0.95658064	c i n	-0.4087534
-1.0375302	l i n	-0.7410118
-0.91766816	p i n	-0.4764644
-0.7784583	w i n	-0.43286604
-1.0315665	b i n	-0.47013408
-0.26721033	y i n	-0.77800864
-1.0786006	v i n	-0.43872496
-0.6426543	k i n	-0.6313392
-1.0915078	f i n	-0.40431598
-0.80933845	z i n	-0.38112214
-0.9804611	x i n	-0.2777521
-1.3411909	<w> d n	-0.2029582
-1.3527136	e d n	-0.5111444
-1.5745863	r d n	-0.2610644
-1.3127599	a d n	-0.42114773
-1.3857548	n d n	-0.42004547
-1.4290054	i d n	-0.29807654
-1.920757	u d n	-0.2029582
-1.8681391	o d n	-0.2610644
-1.2631028	l d n	-0.2701728
-1.2470818	y d n	-0.2029582
-1.2904867	<w> j n	-0.2029582
-1.2263258	<w> u n	-0.2029582
-1.1978629	s u n	-0.24605946
-1.2617761	h u n	-0.2743629
-1.4393852	e u n	-0.2029582
-0.9831693	r u n	-0.38987735
-1.0580013	m u n	-0.29569152
-1.1044227	a u n	-0.5051534
-1.2222195	n u n	-0.23526649
-1.1148441	t u n	-0.30164874
-1.0398285	g u n	-0.29186594
-1.5920886	i u n	-0.2029582
-1.2186375	d u n	-0.22691563
-0.8965025	j u n	-0.24964182
-0.75574106	u u n	-0.2029582
-1.0363495	o u n	-0.51540965
-1.3418844	c u n	-0.24659306
-1.0684997	l u n	-0.40603045
-0.95514154	p u n	-0.2517608
-1.1609024	w u n	-0.2029582
-1.1431276	b u n	-0.24639285
-1.0848781	y u n	-0.2029582
-1.0310721	k u n	-0.2610644
-0.91390693	f u n	-0.33858195
-1.3550199	<w> o n	-0.2029582
-0.7742467	s o n	-0.6563815
-1.3626227	h o n	-0.33562696
-1.0138742	e o n	-0.368927
-1.217248	r o n	-0.53100705
-0.9896492	m o n	-0.5371673
-1.4777873	a o n	-0.2029582
-1.2232201	n o n	-0.3514786
-0.96531445	t o n	-0.70613533
-1.0561739	g o n	-0.38790828
-0.9354379	i o n	-0.65148306
-1.023439	d o n	-0.442655
-1.3602976	j o n	-0.23104022
-1.2841923	u o n	-0.2029582
-0.966444	o o n	-0.6106891
-1.0674628	c o n	-0.4618746
-1.2451645	l o n	-0.45937783
-1.0330291	p o n	-0.40842304
-1.7174848	w o n	-0.2029582
-0.99990016	b o n	-0.4103671
-0.807183	y o n	-0.34090856
-1.147893	v o n	-0.2522722
-1.2156736	k o n	-0.26384676
-1.2990828	f o n	-0.23104022
-0.684285	z o n	-0.36708283
-0.65891176	x o n	-0.2662458
-1.4834598	<w> c n	-0.2029582
-1.531834	m c n	-0.2029582
-2.2456777	a c n	-0.2029582
-2.2647243	i c n	-0.2029582
-1.92366	o c n	-0.2029582
-1.7153944	c c n	-0.2029582
-2.1773572	e l n	-0.2029582
-1.7781342	a l n	-0.2777521
-2.1413856	i l n	-0.2029582
-1.9824804	u l n	-0.29331946
-1.6989253	o l n	-0.24659306
-1.5681452	l l n	-0.2701728
-1.8114398	f l n	-0.2029582
-1.4297609	<w> p n	-0.2029582
-1.925725	s p n	-0.2029582
-1.99652	e p n	-0.2029582
-1.6616	r p n	-0.2029582
-1.6463431	m p n	-0.29331946
-1.758003	a p n	-0.2610644
-2.1060333	o p n	-0.2029582
-1.4907964	y p n	-0.2029582
-1.6963427	e w n	-0.29510674
-0.971026	a w n	-0.41275853
-1.1362479	o w n	-0.46850932
-1.8400515	m b n	-0.2029582
-2.2331455	a b n	-0.2029582
-1.9910764	i b n	-0.2029582
-2.028509	u b n	-0.2029582
-2.0512981	o b n	-0.2029582
-0.99981964	s y n	-0.3060776
-0.9596712	h y n	-0.22691563
-1.1781024	e y n	-0.2777521
-1.4520346	r y n	-0.24579293
-1.4738588	m y n	-0.2029582
-1.1774476	a y n	-0.49037915
-1.6872696	t y n	-0.2029582
-0.91400707	g y n	-0.2029582
-1.2957374	d y n	-0.29331946
-1.239448	u y n	-0.2029582
-1.4364156	o y n	-0.2029582
-1.4200335	c y n	-0.2029582
-0.96067744	l y n	-0.3616952
-1.4397458	p y n	-0.2029582
-0.99533916	w y n	-0.23688129
-1.2485297	k y n	-0.2029582
-1.0193602	z y n	-0.2029582
-2.0338233	e v n	-0.2029582
-1.9787726	i v n	-0.2029582
-1.3051279	<w> k n	-0.2029582
-1.8074952	s k n	-0.2029582
-1.4202363	e k n	-0.29331946
-1.4314914	r k n	-0.2610644
-1.8540692	a k n	-0.2029582
-1.4400916	n k n	-0.2029582
-1.7212462	o k n	-0.2029582
-1.3890966	c k n	-0.24659306
-1.3352047	l k n	-0.2029582
-0.9346472	y k n	-0.29331946
-1.3023142	e q n	-0.2029582
-1.437382	<w> f n	-0.2029582
-1.9981613	i f n	-0.2029582
-1.6096277	u f n	-0.2029582
-1.8253661	o f n	-0.2029582
-1.6345551	f f n	-0.29331946
-1.7586061	a x n	-0.2029582
-1.7553291	o x n	-0.2029582
-1.279032	<w> s </w>	-0.2029582
-0.7406218	s s </w>	-1.0221055
-0.40664566	h s </w>	-0.772228
-0.92857355	e s </w>	-1.1981968
-0.6941849	r s </w>	-0.9319288
-0.55212903	m s </w>	-0.96411353
-0.9117238	a s </w>	-1.1981968
-0.80746555	n s </w>	-1.0484344
-0.6413093	t s </w>	-1.1190155
-0.45860982	g s </w>	-0.772228
-1.017355	i s </w>	-1.1797134
-0.69850063	d s </w>	-0.8971667
-0.30108678	j s </w>	-0.2029582
-0.7935989	u s </w>	-1.1981968
-0.85365945	o s </w>	-1.1981968
-0.2951801	c s </w>	-0.8593781
-0.7349274	l s </w>	-0.8593781
-0.7143748	p s </w>	-0.9319288
-0.75712764	w s </w>	-0.5169555
-0.49317956	b s </w>	-0.96411353
-0.542349	y s </w>	-1.096739
-0.37522838	v s </w>	-0.42004547
-0.59106266	k s </w>	-0.8971667
-0.42003655	f s </w>	-0.7210755
-0.32614163	z s </w>	-0.29510674
-0.13314903	x s </w>	-0.6630835
-1.1155409	<w> h </w>	-0.2029582
-1.1147194	s h </w>	-0.772228
-0.86532664	h h </w>	-0.29331946
-0.892297	e h </w>	-0.6630835
-1.1510482	r h </w>	-0.29331946
-0.63180876	a h </w>	-1.096739
-1.2355933	n h </w>	-0.29331946
-0.8801437	t h </w>	-1.096739
-0.97280043	g h </w>	-0.59613675
-0.9096091	i h </w>	-0.29331946
-1.3875676	d h </w>	-0.2029582
-0.29600906	j h </w>	-0.2029582
-0.3889741	u h </w>	-0.8971667
-0.91167337	o h </w>	-0.5169555
-1.0572474	c h </w>	-0.8971667
-1.030838	l h </w>	-0.29331946
-1.2248822	p h </w>	-0.5169555
-1.2783453	w h </w>	-0.29331946
-1.1195326	k h </w>	-0.29331946
-1.3872654	<w> e </w>	-0.2029582
-1.1568034	s e </w>	-0.96411353
-1.3985393	h e </w>	-0.59613675
-0.8672614	e e </w>	-1.1797134
-1.230199	r e </w>	-1.0484344
-1.1739109	m e </w>	-0.8179855
-0.7353426	a e </w>	-0.8593781
-1.1891743	n e </w>	-0.96411353
-1.126565	t e </w>	-0.9940767
-1.0705949	g e </w>	-0.8593781
-0.9027569	i e </w>	-1.1402048
-1.1665332	d e </w>	-0.8179855
-1.2712848	j e </w>	-0.29331946
-0.8678738	u e </w>	-0.9319288
-0.8421341	o e </w>	-0.9319288
-1.0648526	c e </w>	-0.8971667
-1.1460286	l e </w>	-1.1604081
-1.037072	p e </w>	-0.9319288
-1.2635628	w e </w>	-0.5169555
-1.146047	b e </w>	-0.8179855
-0.8348286	y e </w>	-0.8179855
-1.0215129	v e </w>	-0.8593781
-1.0422684	k e </w>	-0.8593781
-1.1389828	f e </w>	-0.6630835
-0.85542524	z e </w>	-0.8179855
-1.3337232	x e </w>	-0.29331946
-1.1645871	<w> r </w>	-0.2029582
-1.0076405	s r </w>	-0.29331946
-0.757143	h r </w>	-0.6630835
-1.1488286	e r </w>	-1.2159255
-1.0487466	r r </w>	-0.42004547
-0.75236994	m r </w>	-0.29510674
-1.1491392	a r </w>	-1.1981968
-1.3420085	n r </w>	-0.2029582
-1.8407496	t r </w>	-0.2029582
-1.6930689	g r </w>	-0.2029582
-1.0844756	i r </w>	-0.8593781
-1.312436	d r </w>	-0.29510674
-0.56564415	j r </w>	-0.2029582
-1.1584127	u r </w>	-0.96411353
-1.0569378	o r </w>	-1.1981968
-1.5056043	c r </w>	-0.29331946
-1.5269263	p r </w>	-0.29331946
-1.1257398	w r </w>	-0.29331946
-1.7808725	b r </w>	-0.2029582
-1.1995385	y r </w>	-0.29510674
-1.5566825	f r </w>	-0.2029582
-1.1445507	<w> m </w>	-0.2029582
-1.1816559	s m </w>	-0.42004547
-0.9864113	h m </w>	-0.42004547
-0.95349485	e m </w>	-0.9940767
-1.0708429	r m </w>	-0.42004547
-0.7503536	m m </w>	-0.7210755
-0.94184667	a m </w>	-1.096739
-1.3016791	n m </w>	-0.2029582
-1.5428486	t m </w>	-0.2029582
-0.7856369	g m </w>	-0.42004547
-0.9589484	i m </w>	-0.96411353
-0.8232654	u m </w>	-1.096739
-0.9566382	o m </w>	-0.96411353
-0.8532345	c m </w>	-0.2029582
-0.87345725	l m </w>	-0.5169555
-0.9774446	p m </w>	-0.29331946
-1.0132002	w m </w>	-0.2029582
-0.65731096	b m </w>	-0.29510674
-0.9712564	y m </w>	-0.59613675
-0.29059774	v m </w>	-0.2029582
-0.79320616	f m </w>	-0.2029582
-1.3775841	<w> a </w>	-0.2029582
-1.2454956	s a </w>	-0.7210755
-1.2019124	h a </w>	-0.8593781
-1.1656833	e a </w>	-0.9319288
-1.1692631	r a </w>	-1.096739
-1.0986472	m a </w>	-0.96411353
-1.1397425	a a </w>	-0.29331946
-1.2331337	n a </w>	-0.8593781
-1.0767789	t a </w>	-0.9940767
-1.1023194	g a </w>	-0.7210755
-0.89223266	i a </w>	-1.0732579
-1.0436634	d a </w>	-0.8971667
-1.2183908	j a </w>	-0.29510674
-1.4029088	u a </w>	-0.29510674
-0.9973342	o a </w>	-0.7210755
-1.0023842	c a </w>	-0.9940767
-1.211728	l a </w>	-0.9940767
-1.187867	p a </w>	-0.7210755
-1.4114393	w a </w>	-0.5169555
-1.1570241	b a </w>	-0.772228
-0.92441547	y a </w>	-0.6630835
-1.0168834	v a </w>	-0.772228
-0.7994542	k a </w>	-0.9319288
-1.4718432	f a </w>	-0.29510674
-1.0187576	z a </w>	-0.5169555
-1.3124547	x a </w>	-0.2029582
-1.2115524	<w> n </w>	-0.2029582
-0.83997595	s n </w>	-0.5169555
-0.8461306	h n </w>	-0.42004547
-1.113921	e n </w>	-1.1981968
-1.1209171	r n </w>	-0.42004547
-0.8062289	m n </w>	-0.5169555
-1.0897319	a n </w>	-1.2159255
-0.9590797	n n </w>	-0.59613675
-1.4066049	t n </w>	-0.2029582
-1.4042592	g n </w>	-0.2029582
-1.0920222	i n </w>	-1.1981968
-1.0209683	d n </w>	-0.29510674
-1.0471506	u n </w>	-1.0221055
-1.0321761	o n </w>	-1.1797134
-0.82635444	c n </w>	-0.29331946
-0.58097374	l n </w>	-0.5169555
-1.1107825	p n </w>	-0.2029582
-0.9602351	w n </w>	-0.29510674
-1.001638	b n </w>	-0.2029582
-0.89596796	y n </w>	-0.6630835
-0.56757337	q n </w>	-0.2029582
-0.88744354	f n </w>	-0.2029582
-1.200287	<w> t </w>	-0.2029582
-1.1718413	s t </w>	-0.8593781
-1.068378	h t </w>	-0.29510674
-0.94876325	e t </w>	-1.1981968
-1.1530194	r t </w>	-0.5169555
-0.39213896	m t </w>	-0.5169555
-1.1085801	a t </w>	-1.0484344
-0.8931627	n t </w>	-0.8593781
-0.9281625	t t </w>	-0.6630835
-0.7778888	g t </w>	-0.29331946
-1.0280143	i t </w>	-1.1604081
-0.60370827	d t </w>	-0.5169555
-0.9845734	u t </w>	-0.9940767
-0.9792539	o t </w>	-1.0484344
-0.89896405	c t </w>	-0.7210755
-1.0049661	l t </w>	-0.59613675
-0.8808521	p t </w>	-0.772228
-0.5468346	w t </w>	-0.42004547
-0.8144185	b t </w>	-0.29510674
-1.1489105	y t </w>	-0.29510674
-0.5669464	v t </w>	-0.2029582
-1.1342822	k t </w>	-0.2029582
-0.8697675	f t </w>	-0.59613675
-0.5669464	z t </w>	-0.2029582
-1.2449961	x t </w>	-0.2029582
-1.1340493	<w> g </w>	-0.2029582
-1.0516961	e g </w>	-0.772228
-1.034476	r g </w>	-0.42004547
-0.5193277	m g </w>	-0.29331946
-1.101669	a g </w>	-0.8971667
-0.92575806	n g </w>	-0.772228
-0.83099616	g g </w>	-0.59613675
-0.9479625	i g </w>	-0.9940767
-1.3024803	d g </w>	-0.2029582
-0.7727642	u g </w>	-0.8971667
-0.97762465	o g </w>	-0.8179855
-0.70035374	w g </w>	-0.2029582
-0.70035374	b g </w>	-0.2029582
-1.1939529	y g </w>	-0.2029582
-0.70035374	k g </w>	-0.2029582
-0.70035374	f g </w>	-0.2029582
-0.5577501	z g </w>	-0.2029582
-0.29300722	x g </w>	-0.2029582
-1.320676	<w> i </w>	-0.2029582
-1.3235706	s i </w>	-0.772228
-1.2079418	h i </w>	-0.7210755
-1.0477732	e i </w>	-0.8593781
-1.3529371	r i </w>	-0.8593781
-1.3627429	m i </w>	-0.59613675
-0.9977337	a i </w>	-0.9319288
-1.2634284	n i </w>	-0.772228
-1.3412393	t i </w>	-0.8179855
-1.195361	g i </w>	-0.59613675
-0.42373154	i i </w>	-0.6630835
-1.1990093	d i </w>	-0.772228
-0.93274343	j i </w>	-0.29510674
-1.1550238	u i </w>	-0.5169555
-1.2198328	o i </w>	-0.59613675
-1.4079792	c i </w>	-0.5169555
-1.3942876	l i </w>	-0.8179855
-1.3704597	p i </w>	-0.5169555
-1.5959424	w i </w>	-0.29331946
-1.1874073	b i </w>	-0.6630835
-1.2937279	y i </w>	-0.29331946
-1.5712004	v i </w>	-0.29510674
-1.1316803	k i </w>	-0.59613675
-1.6715	f i </w>	-0.29331946
-1.2227205	z i </w>	-0.29510674
-1.4599164	x i </w>	-0.2029582
-1.1724875	<w> d </w>	-0.2029582
-1.0980048	s d </w>	-0.29331946
-0.93017757	h d </w>	-0.2029582
-0.7970326	e d </w>	-1.2493492
-0.9545439	r d </w>	-0.6630835
-0.62879497	m d </w>	-0.29510674
-1.083205	a d </w>	-0.96411353
-1.126791	n d </w>	-0.59613675
-0.6738253	t d </w>	-0.29510674
-0.80236995	g d </w>	-0.2029582
-0.9073167	i d </w>	-1.0732579
-1.019224	d d </w>	-0.42004547
-1.0277219	u d </w>	-0.772228
-0.9828449	o d </w>	-0.96411353
-0.6348319	c d </w>	-0.29510674
-0.94399256	l d </w>	-0.6630835
-0.93017757	p d </w>	-0.2029582
-0.9667753	w d </w>	-0.29331946
-1.1218059	b d </w>	-0.2029582
-0.84404707	y d </w>	-0.42004547
-0.56246936	v d </w>	-0.2029582
-1.0559016	<w> j </w>	-0.2029582
-1.1217523	e j </w>	-0.2029582
-0.84846735	a j </w>	-0.29510674
-1.2738395	n j </w>	-0.2029582
-0.951681	i j </w>	-0.29331946
-0.9611751	d j </w>	-0.2029582
-0.40930143	y j </w>	-0.29331946
-1.2174222	<w> u </w>	-0.2029582
-1.367289	s u </w>	-0.42004547
-1.2560542	h u </w>	-0.42004547
-1.3003175	e u </w>	-0.42004547
-1.4178241	r u </w>	-0.5169555
-1.512696	m u </w>	-0.29331946
-1.1021979	a u </w>	-0.8593781
-1.3125094	n u </w>	-0.42004547
-1.2209997	t u </w>	-0.6630835
-1.3795571	i u </w>	-0.29331946
-1.4666826	d u </w>	-0.29331946
-1.2838753	j u </w>	-0.29331946
-1.0256182	u u </w>	-0.2029582
-1.4540068	o u </w>	-0.59613675
-1.468682	c u </w>	-0.29510674
-1.3243102	l u </w>	-0.59613675
-1.153666	w u </w>	-0.2029582
-1.71423	b u </w>	-0.2029582
-1.0793353	y u </w>	-0.29331946
-1.2213397	v u </w>	-0.2029582
-0.8727097	k u </w>	-0.42004547
-1.729934	q u </w>	-0.2029582
-1.6831336	f u </w>	-0.2029582
-0.7611621	z u </w>	-0.29510674
-1.3647492	<w> o </w>	-0.2029582
-1.056558	s o </w>	-0.8593781
-1.2581531	h o </w>	-0.772228
-0.9622227	e o </w>	-0.772228
-1.2721674	r o </w>	-0.9940767
-1.21281	m o </w>	-0.772228
-0.5181103	a o </w>	-0.772228
-1.184253	n o </w>	-0.8593781
-1.1869481	t o </w>	-0.8971667
-1.0058923	g o </w>	-0.772228
-0.9062342	i o </w>	-0.9940767
-1.0974967	d o </w>	-0.8593781
-1.2196798	j o </w>	-0.29510674
-0.8466685	u o </w>	-0.5169555
-1.1743925	o o </w>	-0.8179855
-1.2142711	c o </w>	-0.8179855
-1.2469574	l o </w>	-0.9319288
-1.3030146	p o </w>	-0.6630835
-1.7276134	w o </w>	-0.2029582
-1.333711	b o </w>	-0.6630835
-1.1332386	y o </w>	-0.42004547
-1.0653903	v o </w>	-0.59613675
-1.3190598	k o </w>	-0.42004547
-1.7513199	f o </w>	-0.2029582
-1.0220511	z o </w>	-0.42004547
-1.2019447	<w> c </w>	-0.2029582
-1.3355219	s c </w>	-0.42004547
-0.96758926	h c </w>	-0.2029582
-1.0037028	e c </w>	-0.8971667
-1.289041	r c </w>	-0.29331946
-1.2466376	m c </w>	-0.2029582
-1.0780852	a c </w>	-0.96411353
-1.1880883	n c </w>	-0.42004547
-0.9373996	t c </w>	-0.42004547
-0.9833928	i c </w>	-1.0484344
-0.81205356	d c </w>	-0.29510674
-1.4989706	u c </w>	-0.29331946
-1.232303	o c </w>	-0.6630835
-1.1538006	c c </w>	-0.29510674
-0.8260298	w c </w>	-0.29331946
-0.5442422	b c </w>	-0.42004547
-1.2171507	y c </w>	-0.29331946
-0.56055975	v c </w>	-0.2029582
-0.60356253	k c </w>	-0.29331946
-0.70426035	f c </w>	-0.2029582
-1.1591333	<w> l </w>	-0.2029582
-1.4727368	s l </w>	-0.29331946
-0.87725735	h l </w>	-0.5169555
-1.0120915	e l </w>	-1.1981968
-0.8216982	r l </w>	-0.6630835
-1.3689239	m l </w>	-0.2029582
-1.0522727	a l </w>	-1.1797134
-1.2719225	n l </w>	-0.29331946
-1.7077405	t l </w>	-0.2029582
-1.6039218	g l </w>	-0.2029582
-1.0561695	i l </w>	-1.1190155
-1.4126936	d l </w>	-0.29331946
-1.3246019	u l </w>	-0.6630835
-1.0987402	o l </w>	-1.0484344
-0.91940445	l l </w>	-0.8179855
-1.5846279	p l </w>	-0.29331946
-1.007722	w l </w>	-0.29331946
-1.6332113	b l </w>	-0.2029582
-1.0222695	y l </w>	-0.6630835
-1.6188262	f l </w>	-0.2029582
-1.2396061	<w> p </w>	-0.2029582
-1.2027231	s p </w>	-0.5169555
-1.0285926	h p </w>	-0.2029582
-1.1602418	e p </w>	-0.6630835
-1.1739323	r p </w>	-0.29510674
-1.1497867	m p </w>	-0.5169555
-0.9869774	a p </w>	-0.96411353
-1.2002032	n p </w>	-0.29331946
-1.1876904	t p </w>	-0.2029582
-0.9118697	i p </w>	-0.9319288
-0.29981512	j p </w>	-0.2029582
-0.7690761	u p </w>	-0.96411353
-0.98842126	o p </w>	-0.96411353
