\data\
ngram 1=30
ngram 2=629
ngram 3=6902
ngram 4=33603

\1-grams:
-2.6430006	<unk>	0
0	<s>	-0.35148263
-2.4128594	<w>	-0.35403812
-1.4382269	k	-0.6976604
-1.3683976	e	-1.0692143
-1.4196892	m	-0.74432075
-1.4382269	c	-0.7669042
-1.4196892	h	-0.73361
-1.4196892	n	-0.7567849
-1.5699672	j	-0.7048232
-1.3683976	u	-0.94212794
-1.4382269	g	-0.72833616
-1.3848308	a	-1.0476874
-1.3848308	</w>	-1.1528729
-1.4019103	s	-0.9109387
-1.3848308	o	-1.0348896
-1.4575915	p	-0.780002
-1.4019103	r	-0.74640644
-1.3848308	i	-1.0037652
-1.4019103	t	-0.86785287
-1.3848308	l	-0.7874007
-1.4196892	d	-0.7301801
-1.4196892	f	-0.7688936
-1.4019103	b	-0.747745
-1.4019103	y	-0.82378274
-1.8477489	x	-0.429111
-1.4575915	v	-0.6697545
-1.4019103	w	-0.62920904
-1.6245607	q	-0.6547269
-1.5214763	z	-0.62929964

\2-grams:
-0.25448865	<s> <w>	-0.28464362
-0.031543214	</w> <w>	-1.2359974
-1.2229747	<w> k	-0.29023445
-1.6335703	k k	-0.32550165
-1.5080984	e k	-0.5067131
-1.9155399	m k	-0.3113729
-1.3610303	c k	-0.5516
-1.6965004	h k	-0.29780266
-1.5487183	n k	-0.4678629
-1.3948259	u k	-0.41741118
-1.8894768	g k	-0.28464362
-1.34371	a k	-0.6713706
-1.2997789	s k	-0.72138417
-1.4986379	o k	-0.5878156
-1.713993	p k	-0.35730878
-1.7295146	r k	-0.4548164
-1.4938883	i k	-0.62617797
-1.8344321	t k	-0.31932208
-1.6051629	l k	-0.45627028
-1.9403768	d k	-0.28464362
-2.036686	f k	-0.28464362
-2.038756	b k	-0.28464362
-1.5629679	y k	-0.33410636
-1.8012815	w k	-0.2958982
-1.7253214	z k	-0.3113729
-1.403429	<w> e	-0.28464362
-1.071463	k e	-0.7049122
-1.3773353	e e	-0.78054976
-1.004335	m e	-0.7026858
-1.0906285	c e	-0.7515254
-1.0727347	h e	-0.70551604
-1.0649059	n e	-0.82628405
-0.8574885	j e	-0.37865856
-1.339359	u e	-0.67039263
-1.0644587	g e	-0.71954614
-1.503475	a e	-0.5245201
-1.2499232	s e	-0.79610604
-1.3803356	o e	-0.5441479
-1.1262803	p e	-0.70881534
-1.0531341	r e	-0.918577
-1.3118861	i e	-0.8443395
-1.2120116	t e	-0.81209016
-1.0383275	l e	-0.9788209
-1.1893963	d e	-0.6759222
-1.0016994	f e	-0.63415897
-0.9666076	b e	-0.73389554
-1.220232	y e	-0.5309407
-1.0466349	x e	-0.46899593
-0.7724764	v e	-0.64720553
-0.93778765	w e	-0.6187667
-1.429184	q e	-0.28464362
-0.87522393	z e	-0.6303891
-1.4272807	<w> m	-0.28464362
-1.5437189	k m	-0.43715823
-1.363874	e m	-0.85448146
-1.4407792	m m	-0.5323738
-1.9245843	c m	-0.28464362
-1.3398548	h m	-0.53737307
-1.602071	n m	-0.4828875
-1.2808821	u m	-0.79693305
-1.4097886	g m	-0.5161136
-1.342347	a m	-0.8724827
-1.346592	s m	-0.7637654
-1.347242	o m	-0.78647554
-1.4930062	p m	-0.497219
-1.5757662	r m	-0.48923075
-1.3538243	i m	-0.8443329
-1.4405344	t m	-0.78310275
-1.600648	l m	-0.4627124
-1.498017	d m	-0.5919156
-1.8936081	f m	-0.3113729
-1.7672007	b m	-0.30453476
-1.2805365	y m	-0.5965502
-1.6557901	x m	-0.28464362
-1.7925777	w m	-0.35730878
-1.7185112	z m	-0.3113729
-1.4355315	<w> c	-0.28464362
-1.8779836	k c	-0.28464362
-1.3829864	e c	-0.804065
-1.5059237	m c	-0.31843925
-1.5971661	c c	-0.5381887
-1.6965004	h c	-0.29780266
-1.5487183	n c	-0.5600989
-1.3698895	u c	-0.6285428
-1.34371	a c	-0.8673759
-1.3234466	s c	-0.8349536
-1.3864975	o c	-0.8025119
-1.8199918	p c	-0.3113729
-1.7295146	r c	-0.45795238
-1.3360432	i c	-0.92006576
-1.4431232	t c	-0.5211059
-1.6742301	l c	-0.4778092
-1.6294576	d c	-0.33736837
-1.9012836	f c	-0.28464362
-1.7744823	b c	-0.3253809
-1.345966	y c	-0.5210497
-1.5166625	x c	-0.30048296
-1.8652161	v c	-0.28464362
-1.8027538	w c	-0.32554194
-1.4272807	<w> h	-0.28464362
-1.3598189	k h	-0.49919984
-1.4605681	e h	-0.5802305
-1.9054174	m h	-0.30048296
-1.0482635	c h	-0.72371966
-1.5399075	h h	-0.37665415
-1.4936092	n h	-0.5299556
-1.4472394	u h	-0.41995123
-1.1891181	g h	-0.4945824
-1.3977466	a h	-0.59482396
-1.2757324	s h	-0.73154944
-1.5508225	o h	-0.45627028
-1.211656	p h	-0.71885055
-1.5757662	r h	-0.49919984
-1.8490512	i h	-0.31701675
-1.1749363	t h	-0.773455
-1.600648	l h	-0.38068125
-1.4465114	d h	-0.59945834
-1.8936081	f h	-0.28464362
-1.9082305	b h	-0.3475324
-1.5591971	y h	-0.5016332
-1.5082968	x h	-0.29780266
-1.1108563	w h	-0.5955137
-1.7167927	z h	-0.28464362
-1.4272807	<w> n	-0.28464362
-1.3125165	k n	-0.5910891
-1.3468739	e n	-0.9841763
-1.4407792	m n	-0.49161556
-1.7845526	c n	-0.3400223
-1.3819028	h n	-0.42722797
-1.4936092	n n	-0.54846597
-1.2615745	u n	-0.7901658
-1.3557771	g n	-0.4847136
-1.342347	a n	-1.014387
-1.676045	s n	-0.47128636
-1.3295492	o n	-0.8853376
-1.4930062	p n	-0.46496105
-1.6431416	r n	-0.430039
-1.2814246	i n	-0.96066415
-1.4053726	t n	-0.5981265
-1.600648	l n	-0.40696913
-1.4004717	d n	-0.55052286
-1.7410694	f n	-0.30453476
-1.7672007	b n	-0.3400223
-1.2521064	y n	-0.49241918
-1.5082968	x n	-0.28464362
-1.8545198	v n	-0.28464362
-1.7925777	w n	-0.30797905
-1.4886266	<w> j	-0.28464362
-1.9457562	k j	-0.28464362
-1.949739	e j	-0.3550884
-2.1359725	h j	-0.28464362
-1.7098556	n j	-0.4730701
-1.8128047	u j	-0.33166543
-1.928212	a j	-0.3602235
-2.3205678	s j	-0.28464362
-2.0751035	o j	-0.30048296
-2.1682162	p j	-0.28464362
-2.030072	r j	-0.28464362
-1.6365167	i j	-0.36715817
-2.271987	t j	-0.28464362
-2.0134037	d j	-0.3113729
-2.1211398	f j	-0.28464362
-1.9844891	b j	-0.3475324
-2.2213936	y j	-0.28464362
-1.403429	<w> u	-0.28464362
-1.304066	k u	-0.35186884
-1.4774524	e u	-0.58743757
-1.123798	m u	-0.5658949
-1.142468	c u	-0.64665014
-1.1431423	h u	-0.4872497
-1.2659755	n u	-0.5338808
-0.71357846	j u	-0.37936288
-1.9050748	u u	-0.30048296
-1.1831744	g u	-0.60784346
-1.413072	a u	-0.73887813
-1.3409802	s u	-0.5833928
-1.3430105	o u	-0.8192362
-1.2060952	p u	-0.55319
-1.1133184	r u	-0.70841527
-1.5129557	i u	-0.60956293
-1.2576021	t u	-0.6837783
-1.1570466	l u	-0.69926304
-1.2467599	d u	-0.47107142
-1.0016994	f u	-0.6176706
-1.099326	b u	-0.59788126
-1.6062006	y u	-0.34935334
-1.4841256	x u	-0.29780266
-1.3711723	v u	-0.36687022
-1.3790095	w u	-0.3113729
-0.20897263	q u	-0.8410469
-1.2594595	z u	-0.31701675
-1.4355315	<w> g	-0.28464362
-1.8779836	k g	-0.28464362
-1.3829864	e g	-0.72407436
-1.9346263	c g	-0.30048296
-1.9327344	h g	-0.31692198
-1.3721067	n g	-0.52202845
-1.3698895	u g	-0.6469557
-1.5479527	g g	-0.49253094
-1.34371	a g	-0.8793514
-1.6800838	s g	-0.3400223
-1.3671676	o g	-0.68968886
-1.713993	p g	-0.33420497
-1.6486194	r g	-0.4722693
-1.3360432	i g	-0.81839466
-1.6828331	t g	-0.3293696
-1.6051629	l g	-0.4769234
-1.6294576	d g	-0.40987393
-1.9012836	f g	-0.28464362
-2.038756	b g	-0.28464362
-1.3815428	y g	-0.37839764
-1.6675851	x g	-0.28464362
-1.9220619	w g	-0.28464362
-1.8733921	z g	-0.28464362
-1.411235	<w> a	-0.28464362
-1.0730989	k a	-0.5281472
-1.3787411	e a	-0.8671849
-0.96559554	m a	-0.8060285
-1.0241445	c a	-0.7532029
-1.0530304	h a	-0.7389395
-1.123774	n a	-0.7923901
-0.75723773	j a	-0.4281721
-1.388991	u a	-0.5612846
-1.0659585	g a	-0.6197702
-1.8834091	a a	-0.3016368
-1.2725456	s a	-0.7167269
-1.4681201	o a	-0.56966174
-1.0815868	p a	-0.6735412
-1.0361369	r a	-0.9270112
-1.3316141	i a	-0.7741751
-1.235817	t a	-0.81049216
-1.0572779	l a	-0.88368595
-1.0537477	d a	-0.6884658
-1.0028812	f a	-0.5530783
-1.0077587	b a	-0.7126093
-1.2484196	y a	-0.50552094
-1.1252819	x a	-0.31142485
-0.93596494	v a	-0.6146817
-0.89517736	w a	-0.7071867
-0.93734735	z a	-0.4747896
-1.1910592	k </w>	-1.007518
-1.3611609	e </w>	-1.2915148
-1.2173475	m </w>	-1.007518
-1.400142	c </w>	-0.84781724
-1.1712865	h </w>	-1.0976948
-1.2682112	n </w>	-1.0696659
-1.5288129	j </w>	-0.3253809
-1.2979437	u </w>	-1.215794
-1.3499602	g </w>	-0.84781724
-1.3572142	a </w>	-1.273786
-1.2312992	s </w>	-1.2359974
-1.3818679	o </w>	-1.2359974
-1.386877	p </w>	-0.8935747
-1.3352222	r </w>	-0.97275597
-1.2957116	i </w>	-1.2915148
-1.1721448	t </w>	-1.2359974
-1.3233247	l </w>	-1.007518
-1.2490342	d </w>	-1.0397028
-1.2928416	f </w>	-0.8935747
-1.3363307	b </w>	-0.8935747
-1.0901134	y </w>	-1.2553025
-0.9850085	x </w>	-0.7966647
-1.374658	v </w>	-0.59254473
-1.3829079	w </w>	-0.73867273
-1.1666033	q </w>	-0.3253809
-1.0082092	z </w>	-0.97275597
-1.4191837	<w> s	-0.28464362
-1.267293	k s	-0.45907798
-1.3455672	e s	-0.86610425
-1.2194042	m s	-0.49949557
-1.4564339	c s	-0.54716873
-1.476781	h s	-0.45330596
-1.3664488	n s	-0.59483445
-1.2417104	u s	-0.8125534
-1.4064853	g s	-0.4225001
-1.3240403	a s	-0.89055455
-1.461211	s s	-0.5585104
-1.3112425	o s	-0.8577632
-1.3085967	p s	-0.627606
-1.5133966	r s	-0.44963002
-1.280118	i s	-0.9114408
-1.2610031	t s	-0.61274755
-1.4402165	l s	-0.5245201
-1.3972521	d s	-0.5612039
-1.3987191	f s	-0.4696673
-1.3864423	b s	-0.52738523
-1.2502592	y s	-0.61037815
-1.644307	x s	-0.28464362
-1.50395	v s	-0.31692198
-1.6453065	w s	-0.32917964
-1.8498191	z s	-0.28464362
-1.411235	<w> o	-0.28464362
-1.0480132	k o	-0.5044703
-1.4792235	e o	-0.599176
-1.0734794	m o	-0.7177759
-1.0241445	c o	-0.7442895
-1.0134783	h o	-0.722291
-1.1667942	n o	-0.7549265
-0.675198	j o	-0.40038127
-1.5759834	u o	-0.4162433
-1.092831	g o	-0.5813689
-1.6545497	a o	-0.43216476
-1.2312992	s o	-0.6597225
-1.4228563	o o	-0.7822845
-1.0601957	p o	-0.6990888
-1.018486	r o	-0.9182
-1.4137744	i o	-0.7124145
-1.1721448	t o	-0.79117215
-1.07575	l o	-0.8705585
-1.0537477	d o	-0.68404555
-0.9799906	f o	-0.630154
-0.967752	b o	-0.7354014
-1.3067398	y o	-0.4067375
-1.217133	x o	-0.3543664
-0.977321	v o	-0.52864563
-0.9166288	w o	-0.64485127
-0.97133464	z o	-0.40980533
-1.443942	<w> p	-0.28464362
-1.8900443	k p	-0.3253809
-1.4426811	e p	-0.71007514
-1.4476988	m p	-0.533364
-1.9449062	c p	-0.3253809
-1.943795	h p	-0.29780266
-1.5530157	n p	-0.44890887
-1.3967884	u p	-0.5698526
-1.9011518	g p	-0.3113729
-1.381452	a p	-0.7810348
-1.3252352	s p	-0.70409864
-1.3686541	o p	-0.7897219
-1.6337591	p p	-0.47832227
-1.736207	r p	-0.4529522
-1.3985326	i p	-0.69005805
-1.8408728	t p	-0.33550248
-1.549562	l p	-0.4204963
-1.7172496	d p	-0.38965738
-1.9271673	b p	-0.28464362
-1.5667717	y p	-0.36420006
-1.5251924	x p	-0.29447532
-1.813174	w p	-0.29780266
-1.4191837	<w> r	-0.28464362
-1.5389018	k r	-0.3747844
-1.3455672	e r	-1.0518081
-1.6527982	m r	-0.41530073
-1.1457592	c r	-0.8229937
-1.2639502	h r	-0.56656843
-1.6629083	n r	-0.4335499
-1.2240347	u r	-0.8570396
-1.0180833	g r	-0.79663086
-1.3240403	a r	-1.0170344
-1.7300276	s r	-0.33797124
-1.3112425	o r	-0.965578
-1.1545491	p r	-0.8292322
-1.5711299	r r	-0.51550657
-1.3723645	i r	-0.70739996
-1.2374309	t r	-0.9677757
-1.6637172	l r	-0.3543664
-1.1670862	d r	-0.75905997
-1.1415448	f r	-0.69214714
-0.9884952	b r	-0.9128151
-1.3413944	y r	-0.5372163
-1.5000894	x r	-0.28464362
-1.3781719	v r	-0.3475324
-1.144419	w r	-0.46499437
-1.7101139	z r	-0.28464362
-1.411235	<w> i	-0.28464362
-1.0018104	k i	-0.5979084
-1.4161925	e i	-0.74588263
-1.0055933	m i	-0.7395214
-1.1726633	c i	-0.7211449
-1.1200608	h i	-0.66957825
-1.123774	n i	-0.7390172
-1.0758251	j i	-0.34781247
-1.388991	u i	-0.5506081
-1.1851467	g i	-0.6194806
-1.4146764	a i	-0.7615634
-1.2514329	s i	-0.84714115
-1.3627386	o i	-0.7317612
-1.1278156	p i	-0.7015197
-1.0361369	r i	-0.9401954
-1.6883397	i i	-0.47206694
-1.1721448	t i	-0.89779365
-1.07575	l i	-0.94004905
-1.1652021	d i	-0.7092913
-0.9799906	f i	-0.6879757
-1.0518284	b i	-0.6573125
-1.2766016	y i	-0.723222
-1.0495062	x i	-0.38792232
-0.72222745	v i	-0.7025135
-1.0149174	w i	-0.63443637
-0.93734735	z i	-0.45954335
-1.4191837	<w> t	-0.28464362
-1.5389018	k t	-0.36687022
-1.3455672	e t	-0.9054885
-1.6527982	m t	-0.29780266
-1.4564339	c t	-0.55817187
-1.476781	h t	-0.3568119
-1.444712	n t	-0.5895924
-1.299513	u t	-0.7588766
-1.8699116	g t	-0.29780266
-1.3586247	a t	-0.93668437
-1.2327454	s t	-0.8377276
-1.3281906	o t	-0.83908695
-1.3896786	p t	-0.64011633
-1.5711299	r t	-0.52249414
-1.3147024	i t	-0.98497236
-1.6739067	t t	-0.5330126
-1.5377454	l t	-0.5344146
-1.5518595	d t	-0.45695412
-1.4615272	f t	-0.43724298
-1.8983525	b t	-0.30925736
-1.2502592	y t	-0.61010635
-1.3393486	x t	-0.3489693
-1.8440806	v t	-0.28464362
-1.7826346	w t	-0.30453476
-1.8498191	z t	-0.28464362
-1.411235	<w> l	-0.28464362
-1.2647374	k l	-0.62602556
-1.3442645	e l	-0.9446404
-1.3811417	m l	-0.49819538
-1.1441106	c l	-0.8788515
-1.3758018	h l	-0.55161345
-1.4861404	n l	-0.5605563
-1.2587026	u l	-0.76657903
-1.2208629	g l	-0.71748346
-1.339634	a l	-0.9280274
-1.3428427	s l	-0.7781165
-1.3444164	o l	-0.8630332
-1.1529167	p l	-0.8935747
-1.6323891	r l	-0.49143896
-1.313292	i l	-0.8985952
-1.3104547	t l	-0.8327661
-1.5338768	l l	-0.5321815
-1.353015	d l	-0.70701635
-1.1399193	f l	-0.7102114
-1.2195772	b l	-0.7304148
-1.1734236	y l	-0.6453423
-1.4937167	x l	-0.3475324
-1.6728044	v l	-0.28464362
-1.6381998	w l	-0.36786345
-1.4333111	q l	-0.28464362
-1.7018759	z l	-0.30048296
-1.4272807	<w> d	-0.28464362
-1.7317929	k d	-0.3400223
-1.3305142	e d	-0.80426854
-1.7645955	m d	-0.28464362
-1.9260399	c d	-0.33420497
-1.9219486	h d	-0.29780266
-1.5444629	n d	-0.5315926
-1.7546023	j d	-0.28464362
-1.3445599	u d	-0.6765556
-1.7374326	g d	-0.28464362
-1.342347	a d	-0.78061545
-1.5366622	s d	-0.50635606
-1.347242	o d	-0.75437176
-1.9487658	p d	-0.30453476
-1.4660509	r d	-0.517285
-1.2984247	i d	-0.8449633
-1.9281796	t d	-0.33166543
-1.600648	l d	-0.46782756
-1.5564632	d d	-0.50951093
-2.024079	f d	-0.28464362
-1.9082305	b d	-0.31483278
-1.5066904	y d	-0.4247585
-1.8545198	v d	-0.28464362
-1.7925777	w d	-0.3113729
-1.4272807	<w> f	-0.28464362
-1.7317929	k f	-0.31483278
-1.3815668	e f	-0.7086499
-1.658427	m f	-0.35000807
-2.0437884	c f	-0.28464362
-1.6902072	h f	-0.34007782
-1.4936092	n f	-0.6047792
-1.4772085	u f	-0.615002
-1.8795841	g f	-0.30745223
-1.5094317	a f	-0.6060663
-1.6244521	s f	-0.39765042
-1.496634	o f	-0.5733974
-1.5535865	p f	-0.31397197
-1.7229238	r f	-0.41446197
-1.3538243	i f	-0.6997498
-1.4405344	t f	-0.62313414
-1.6689419	l f	-0.44161087
-1.7040483	d f	-0.34924483
-1.2974806	f f	-0.5000361
-2.0254672	b f	-0.28464362
-1.7707034	y f	-0.32554194
-1.5082968	x f	-0.28464362
-1.7925777	w f	-0.30453476
-1.8614457	z f	-0.28464362
-1.4191837	<w> b	-0.28464362
-1.858928	k b	-0.32550165
-1.3801516	e b	-0.72968924
-1.4980204	m b	-0.55276895
-1.9161922	c b	-0.28464362
-1.6840038	h b	-0.36101314
-1.4898587	n b	-0.52915955
-1.7469274	j b	-0.28464362
-1.2601362	u b	-0.6312103
-1.7304386	g b	-0.32550165
-1.3409884	a b	-0.8914411
-1.3710406	s b	-0.68473995
-1.4699965	o b	-0.6742695
-1.7022902	p b	-0.34007782
-1.6377321	r b	-0.47321814
-1.393422	i b	-0.6976998
-1.5176629	t b	-0.4828875
-1.486249	l b	-0.49294817
-1.4939902	d b	-0.5085153
-1.8829455	f b	-0.28464362
-1.570973	b b	-0.5130529
-1.3413944	y b	-0.5470071
-1.5000894	x b	-0.28464362
-1.6453065	w b	-0.38142952
-1.7084281	z b	-0.28464362
-1.4191837	<w> y	-0.28464362
-1.3096813	k y	-0.44098347
-1.4588714	e y	-0.6239572
-1.3367424	m y	-0.45146993
-1.3556403	c y	-0.44242638
-1.2989755	h y	-0.45167843
-1.4038199	n y	-0.45516628
-1.7161885	u y	-0.34426168
-1.3051325	g y	-0.5081526
-1.459475	a y	-0.70811045
-1.3710406	s y	-0.5632659
-1.4946393	o y	-0.6043685
-1.3472482	p y	-0.44435155
-1.1387827	r y	-0.57448304
-2.081457	i y	-0.30048296
-1.2859285	t y	-0.5747444
-1.0585651	l y	-0.61391115
-1.3559219	d y	-0.5091154
-1.5349798	f y	-0.44444242
-1.1886275	b y	-0.47835296
-1.9942957	y y	-0.3113729
-1.3393486	x y	-0.31701675
-1.134057	v y	-0.56187105
-1.3868415	w y	-0.30925736
-1.0949444	z y	-0.43096012
-1.5713267	<w> x	-0.28464362
-1.6205246	e x	-0.5769372
-1.9919932	n x	-0.33420497
-1.6761671	u x	-0.3835109
-1.6666105	a x	-0.5253361
-1.5559707	o x	-0.5060216
-2.3312764	r x	-0.28464362
-1.7028034	i x	-0.49778464
-1.6571523	x x	-0.3253809
-1.443942	<w> v	-0.28464362
-2.0095503	k v	-0.28464362
-1.4223764	e v	-0.7545526
-2.0494432	m v	-0.28464362
-1.943795	h v	-0.3113729
-1.7606881	n v	-0.4373466
-1.6300509	u v	-0.4799418
-2.0279193	g v	-0.28464362
-1.4008495	a v	-0.8291612
-1.631651	s v	-0.6339374
-1.3880517	o v	-0.79052675
-1.6541672	r v	-0.45986247
-1.3985326	i v	-0.77056223
-2.0804422	t v	-0.3253809
-1.609725	l v	-0.5917307
-1.7172496	d v	-0.38746792
-1.9271673	b v	-0.3113729
-1.8883421	y v	-0.30453476
-1.6797093	x v	-0.28464362
-1.7015476	v v	-0.28464362
-1.4502236	q v	-0.28464362
-1.734021	z v	-0.28464362
-1.4191837	<w> w	-0.28464362
-1.4093411	k w	-0.5512482
-1.4378138	e w	-0.6744964
-1.8941106	m w	-0.28464362
-1.914769	c w	-0.3253809
-1.5355097	h w	-0.4373466
-1.5972625	n w	-0.4608277
-2.2328722	u w	-0.28464362
-1.6242136	g w	-0.31483278
-1.4162868	a w	-0.6375135
-1.3990675	s w	-0.5640404
-1.403489	o w	-0.6939146
-1.8051088	p w	-0.30048296
-1.7164314	r w	-0.406425
-1.9098886	i w	-0.33166543
-1.4029987	t w	-0.7028656
-1.6637172	l w	-0.40991902
-1.4429332	d w	-0.6694235
-2.0118277	f w	-0.28464362
-1.8983525	b w	-0.28464362
-1.4568762	y w	-0.45466116
-1.5000894	x w	-0.3113729
-1.6453065	w w	-0.28464362
-1.437478	q w	-0.28464362
-1.7101139	z w	-0.30453476
-1.5078726	<w> q	-0.28464362
-2.122052	k q	-0.28464362
-1.9603556	e q	-0.73867273
-2.0246096	c q	-0.3253809
-2.1723287	h q	-0.28464362
-1.8124181	n q	-0.52362365
-2.2595294	u q	-0.370696
-1.6864079	a q	-0.69351876
-1.8536105	s q	-0.671726
-2.3585052	o q	-0.370696
-1.9015505	r q	-0.49563473
-1.7267239	i q	-0.7868651
-2.087236	l q	-0.3253809
-2.0390956	d q	-0.3253809
-1.775629	x q	-0.28464362
-1.4701974	<w> z	-0.28464362
-1.5410721	e z	-0.51253927
-1.8220829	c z	-0.30048296
-1.9772557	h z	-0.28464362
-1.7821083	n z	-0.4022898
-1.5582025	u z	-0.4368016
-2.0713055	g z	-0.28464362
-1.5195451	a z	-0.65546733
-2.1668286	s z	-0.30453476
-1.6260103	o z	-0.46345
-1.5383241	r z	-0.3133466
-1.4037039	i z	-0.7798522
-1.6391582	t z	-0.40621424
-1.7829057	l z	-0.30453476
-1.9876727	d z	-0.28464362
-2.0604331	y z	-0.30453476
-1.9108484	v z	-0.28464362
-1.9799615	w z	-0.28464362
-1.4603609	z z	-0.47784257

\3-grams:
-0.0030006114	k </w> <w>	-1.1611142
-0.0015577346	e </w> <w>	-2.1068301
-0.0030006114	m </w> <w>	-1.2857777
-0.0043409294	c </w> <w>	-1.2272002
-0.002436427	h </w> <w>	-1.2837842
-0.0025993371	n </w> <w>	-1.9277596
-0.014626529	j </w> <w>	-0.26923093
-0.001855062	u </w> <w>	-0.5316985
-0.0043409294	g </w> <w>	-1.9226917
-0.0016227389	a </w> <w>	-1.4323944
-0.0017705807	s </w> <w>	-2.381791
-0.0017705807	o </w> <w>	-1.174156
-0.00390485	p </w> <w>	-0.929773
-0.0032516161	r </w> <w>	-1.7606856
-0.0015577346	i </w> <w>	-0.984342
-0.0017705807	t </w> <w>	-1.8079689
-0.0030006114	l </w> <w>	-1.618028
-0.0027855728	d </w> <w>	-2.0984228
-0.00390485	f </w> <w>	-0.66171104
-0.00390485	b </w> <w>	-0.5030439
-0.001693444	y </w> <w>	-1.9857097
-0.0048865997	x </w> <w>	-0.45176134
-0.007845155	v </w> <w>	-0.4196843
-0.00558918	w </w> <w>	-0.6823474
-0.014626529	q </w> <w>	-0.26923093
-0.0032516161	z </w> <w>	-0.53903466
-0.29085988	<s> <w> k	-0.26923093
-1.4011723	</w> <w> k	-1.4229763
-1.4820154	e k k	-0.26923093
-1.5122149	u k k	-0.26923093
-1.7745926	a k k	-0.26923093
-1.5928696	o k k	-0.28152886
-1.77782	i k k	-0.26923093
-1.4608319	<w> e k	-0.26923093
-1.9900167	k e k	-0.26923093
-1.3857993	e e k	-0.58151466
-2.0246694	m e k	-0.26923093
-1.7468681	h e k	-0.28152886
-2.021707	n e k	-0.30020377
-1.7364194	a e k	-0.26923093
-2.129064	s e k	-0.2878109
-1.8576143	p e k	-0.26923093
-2.0102847	r e k	-0.27533635
-1.9589355	i e k	-0.27842152
-1.9952438	t e k	-0.28152886
-2.173592	l e k	-0.2878109
-2.0029728	d e k	-0.26923093
-1.8972185	f e k	-0.26923093
-1.581756	b e k	-0.27842152
-1.7551061	y e k	-0.26923093
-1.6243982	z e k	-0.2878109
-2.2746599	e m k	-0.26923093
-1.7988007	m m k	-0.26923093
-2.2387002	o m k	-0.26923093
-1.0320976	e c k	-0.78198105
-1.3877382	m c k	-0.3807795
-1.2470342	n c k	-0.28309086
-0.8264258	u c k	-0.80901694
-1.0289892	a c k	-1.1012791
-1.0099759	o c k	-0.91813374
-1.3883693	r c k	-0.26923093
-1.0383953	i c k	-1.0892737
-1.4720604	l c k	-0.26923093
-1.282528	y c k	-0.26923093
-1.7907345	c h k	-0.31103918
-1.8275402	g h k	-0.26923093
-1.9284708	a h k	-0.26923093
-1.8920163	s h k	-0.26923093
-2.175109	t h k	-0.26923093
-1.2616831	<w> n k	-0.26923093
-1.7442727	e n k	-0.30020377
-1.1521909	u n k	-0.72054446
-1.3627008	a n k	-0.76129013
-1.4674544	o n k	-0.39976582
-1.7157354	r n k	-0.26923093
-1.4186771	i n k	-0.81755716
-1.4945685	y n k	-0.26923093
-1.257593	<w> u k	-0.2878109
-1.4004225	k u k	-0.26923093
-1.7694796	e u k	-0.26923093
-1.7310026	m u k	-0.26923093
-1.7533263	n u k	-0.26923093
-1.5203633	j u k	-0.26923093
-1.6925071	a u k	-0.31103918
-1.650471	s u k	-0.28152886
-1.6476629	o u k	-0.30020377
-1.7147925	p u k	-0.26923093
-1.9372581	r u k	-0.2878109
-1.6264287	i u k	-0.26923093
-1.7897681	l u k	-0.30020377
-1.6675775	d u k	-0.2878109
-1.6316959	b u k	-0.28152886
-1.0539186	y u k	-0.26923093
-1.1707394	z u k	-0.26923093
-2.0016212	n g k	-0.26923093
-1.6287348	d g k	-0.26923093
-1.3765167	<w> a k	-0.28152886
-1.5721812	k a k	-0.26923093
-1.3696988	e a k	-0.7321018
-1.3335243	m a k	-0.9510781
-1.9463212	c a k	-0.31103918
-1.4489938	h a k	-0.47804683
-1.5634855	n a k	-0.5367917
-1.3500841	j a k	-0.2878109
-1.6946546	u a k	-0.6012338
-1.797565	g a k	-0.26923093
-1.2443585	a a k	-0.26923093
-1.302173	s a k	-0.4830799
-1.1944563	o a k	-0.35076165
-1.7317209	p a k	-0.30020377
-1.585942	r a k	-0.43524107
-1.6907817	i a k	-0.31103918
-1.2976121	t a k	-0.895208
-1.7627878	l a k	-0.6981438
-1.7547523	d a k	-0.26923093
-1.7350358	f a k	-0.31103918
-1.5098115	b a k	-0.55550367
-1.4679192	y a k	-0.27842152
-1.7865515	v a k	-0.26923093
-1.7542597	w a k	-0.84427184
-1.4189326	z a k	-0.26923093
-1.310423	<w> s k	-1.0195545
-1.5310155	k s k	-0.2878109
-1.8150387	e s k	-0.27656785
-1.579598	m s k	-0.26923093
-1.5282423	n s k	-0.5114809
-1.3849715	u s k	-0.35226396
-1.188399	g s k	-0.26923093
-1.1993971	a s k	-0.6482529
-1.4488229	o s k	-0.28152886
-1.7083125	p s k	-0.26923093
-1.327914	r s k	-0.28963217
-1.466504	i s k	-0.529896
-1.2435279	t s k	-0.35657895
-1.3234622	l s k	-0.26923093
-1.6379268	d s k	-0.26923093
-1.1021799	f s k	-0.2878109
-1.5490919	b s k	-0.26923093
-0.6287905	v s k	-0.5114809
-1.3692719	w s k	-0.3971138
-1.4376692	<w> o k	-0.29382998
-1.3396225	k o k	-0.27842152
-1.8729385	m o k	-0.48839635
-2.061306	c o k	-0.2878109
-1.7717686	h o k	-0.27656785
-2.0682783	n o k	-0.26923093
-1.4163718	j o k	-0.37301123
-1.5134774	u o k	-0.26923093
-1.9618642	s o k	-0.4359779
-1.1238883	o o k	-0.8588482
-1.7232099	p o k	-0.72200215
-1.6879013	r o k	-0.65942454
-1.8388944	t o k	-0.439958
-2.0516546	l o k	-0.28152886
-1.4452889	y o k	-0.35657895
-1.4298038	v o k	-0.644021
-1.5957156	w o k	-0.2878109
-2.0643542	e p k	-0.26923093
-1.6743717	m p k	-0.2878109
-1.9350882	u p k	-0.26923093
-2.1613429	a p k	-0.2878109
-1.9489598	o p k	-0.27842152
-1.6385198	e r k	-0.40070555
-1.4570543	u r k	-0.39575583
-1.4807911	a r k	-0.9302235
-1.4763426	o r k	-0.7083629
-1.3427017	i r k	-0.35009363
-1.4028966	<w> i k	-0.26923093
-1.8434942	k i k	-0.26923093
-1.6887116	e i k	-0.28152886
-1.8628994	m i k	-0.27656785
-1.8209713	h i k	-0.28963217
-1.4625683	n i k	-0.4209721
-1.8456258	a i k	-0.27842152
-2.1485069	s i k	-0.26923093
-1.9450165	o i k	-0.26923093
-1.6651778	p i k	-0.679016
-1.5741113	r i k	-0.38552028
-2.0540555	t i k	-0.26923093
-1.205258	l i k	-1.2502759
-1.7525442	f i k	-0.26923093
-1.9324554	b i k	-0.26923093
-1.7798868	v i k	-0.26923093
-2.1678605	e t k	-0.26923093
-1.0579718	m t k	-0.26923093
-2.0179825	a t k	-0.30020377
-1.9663156	r t k	-0.26923093
-2.447304	i t k	-0.26923093
-2.0091028	e l k	-0.27842152
-1.4643625	u l k	-0.30315757
-1.6715316	a l k	-0.6179478
-1.593981	o l k	-0.42653704
-1.5475473	i l k	-0.3856306
-1.8810117	l l k	-0.26923093
-1.8856093	y l k	-0.26923093
-2.0537221	n d k	-0.2878109
-1.8691479	u d k	-0.2878109
-2.249154	o d k	-0.26923093
-1.9819194	a f k	-0.26923093
-2.122624	u b k	-0.26923093
-1.894618	e y k	-0.26923093
-1.5685819	p y k	-0.26923093
-1.6744359	r y k	-0.26923093
-1.7908647	t y k	-0.26923093
-1.9370255	l y k	-0.26923093
-1.1349697	d y k	-0.30020377
-1.297541	w y k	-0.26923093
-1.3267633	z y k	-0.26923093
-1.2935897	a w k	-0.33300322
-0.89268446	z w k	-0.26923093
-1.3616194	r z k	-0.26923093
-1.0847584	t z k	-0.28152886
-1.3588585	</w> <w> e	-1.6827496
-0.9251665	<w> k e	-0.64139384
-0.59281516	k k e	-0.27842152
-0.84896225	e k e	-0.39785296
-0.9675509	c k e	-1.2342305
-0.9105925	h k e	-0.26923093
-0.9089266	n k e	-0.7074146
-0.53380233	u k e	-0.44661504
-0.7363689	a k e	-1.0149021
-1.0406274	s k e	-0.5588934
-0.65664005	o k e	-0.92217606
-0.5477486	p k e	-0.28152886
-0.98208135	r k e	-0.6935748
-0.8149162	i k e	-0.86406124
-0.8462954	l k e	-0.5324948
-0.68972594	d k e	-0.2878109
-0.839363	y k e	-0.4359779
-0.9523361	w k e	-0.27842152
-1.3950242	<w> e e	-0.2878109
-0.9647088	k e e	-0.6015654
-1.8669618	e e e	-0.26923093
-1.8085483	m e e	-0.3838014
-1.2395846	c e e	-0.73953646
-1.2135627	h e e	-0.6463393
-1.3312575	n e e	-0.70645344
-1.4516659	j e e	-0.28152886
-1.8390696	u e e	-0.30097798
-1.3364528	g e e	-0.42747885
-1.2474486	s e e	-0.5774793
-1.7373679	o e e	-0.26923093
-1.4464405	p e e	-0.4995979
-1.2476759	r e e	-0.84367144
-2.046309	i e e	-0.26923093
-1.1826417	t e e	-0.7615773
-1.3374296	l e e	-0.5787566
-1.455196	d e e	-0.57565355
-1.1263013	f e e	-0.4906947
-1.4469937	b e e	-0.38749516
-1.5107152	y e e	-0.28152886
-1.7203968	v e e	-0.3971138
-1.0975922	w e e	-0.66129696
-1.5800327	z e e	-0.26923093
-1.0022454	<w> m e	-1.1854479
-0.5471928	k m e	-0.30020377
-0.855198	e m e	-1.2170036
-0.7550167	m m e	-1.0048239
-0.7301662	h m e	-0.9130992
-0.58932585	n m e	-0.8571044
-0.95426226	u m e	-0.9537969
-0.533846	g m e	-1.2141292
-0.8801665	a m e	-0.97485715
-0.6978927	s m e	-0.6440666
-0.8790592	o m e	-1.0108223
-0.72564924	p m e	-0.8339179
-0.96001947	r m e	-0.93613803
-0.86696994	i m e	-1.061269
-0.45399293	t m e	-1.1545739
-0.85242474	l m e	-0.5665829
-0.7110076	d m e	-0.8339179
-0.74251014	b m e	-0.28152886
-0.64279747	y m e	-0.792492
-0.53830487	w m e	-0.53288794
-0.6806932	z m e	-0.26923093
-1.0662599	<w> c e	-0.8982194
-1.1980208	e c e	-0.83638513
-1.0813054	m c e	-0.27842152
-0.97469217	c c e	-0.79889494
-0.9171627	h c e	-0.2878109
-1.0010232	n c e	-1.4581492
-0.9963745	u c e	-0.661423
-1.0617639	a c e	-0.9125531
-1.0036117	s c e	-0.90771294
-1.0619429	o c e	-0.63769186
-0.92170024	p c e	-0.26923093
-1.0237697	r c e	-0.719177
-1.0174546	i c e	-0.9971721
-1.3741146	t c e	-0.26923093
-1.1599352	l c e	-0.37301123
-0.7896393	y c e	-0.49286348
-1.052021	x c e	-0.5764891
-0.92633784	w c e	-0.26923093
-1.01173	<w> h e	-1.045207
-0.6718014	k h e	-0.39580283
-0.81955844	e h e	-0.7678552
-0.85855687	m h e	-0.26923093
-0.91401494	c h e	-1.1980107
-0.8161582	h h e	-0.27842152
-0.7262997	n h e	-0.5472858
-0.83857983	g h e	-0.5131049
-1.226872	a h e	-0.26923093
-0.9018118	s h e	-1.1647594
-1.0874007	o h e	-0.4116401
-0.81848663	p h e	-0.74724984
-0.6718014	r h e	-0.53169733
-0.9940093	t h e	-1.2656039
-0.82383907	l h e	-0.2960334
-0.7836983	d h e	-0.58724564
-0.68999976	f h e	-0.26923093
-1.0965555	y h e	-0.26923093
-0.67323476	w h e	-0.7767621
-0.8536527	z h e	-0.26923093
-1.0717106	<w> n e	-0.9368759
-0.49045533	k n e	-0.54324186
-1.162746	e n e	-1.0928828
-0.693223	m n e	-0.30097798
-0.4862322	c n e	-0.27656785
-0.6075647	h n e	-0.80328816
-0.84293014	n n e	-0.9416635
-1.1296015	u n e	-0.6302641
-0.79277456	g n e	-0.74967694
-1.1094027	a n e	-0.79142714
-0.595224	s n e	-0.8586519
-1.0512898	o n e	-1.1416843
-0.30556157	p n e	-0.35657895
-0.9286586	r n e	-0.94412076
-1.0946566	i n e	-1.2879994
-0.31453362	t n e	-1.0469928
-0.6417049	l n e	-1.0148084
-0.4432662	d n e	-0.9199192
-0.51378965	f n e	-0.2878109
-0.6673272	b n e	-0.26923093
-0.6214803	y n e	-0.54324186
-0.54500014	x n e	-0.26923093
-0.27943656	v n e	-0.26923093
-1.063918	w n e	-0.54123145
-0.77406144	<w> j e	-0.64155996
-0.68862635	e j e	-0.7165716
-0.97757894	n j e	-0.7370079
-0.8486556	a j e	-0.47629505
-0.7807776	o j e	-0.94786125
-0.71606064	r j e	-0.26923093
-1.0013955	i j e	-0.26923093
-0.6134292	d j e	-0.30020377
-0.30719876	b j e	-1.1295075
-1.450638	e u e	-0.28152886
-1.2545415	m u e	-0.3971138
-1.4893436	c u e	-0.35560608
-1.5201364	h u e	-0.28152886
-1.3317233	n u e	-0.39956227
-1.4885765	j u e	-0.26923093
-0.9719799	g u e	-0.9373814
-1.3579555	a u e	-0.54324186
-1.2694565	s u e	-0.45331356
-1.6318957	o u e	-0.37301123
-1.5173757	p u e	-0.30020377
-1.346725	r u e	-0.34673545
-1.3753773	t u e	-0.33908942
-1.2715806	l u e	-0.58037615
-1.1163709	d u e	-0.3363426
-1.5433989	f u e	-0.6120692
-1.4803871	b u e	-0.28963217
-0.62326914	q u e	-1.0550742
-1.1540444	z u e	-0.2878109
-1.0532162	<w> g e	-0.9382737
-0.73239374	e g e	-0.62059337
-0.8560099	c g e	-0.26923093
-0.86103636	h g e	-0.26923093
-1.067076	n g e	-1.2410078
-0.8535738	u g e	-0.47490042
-0.87261784	g g e	-1.094741
-0.80092084	a g e	-1.1920425
-0.8952422	s g e	-0.26923093
-0.8804772	o g e	-0.66993046
-0.9132268	r g e	-0.94766676
-1.0503573	i g e	-0.7997334
-0.7056348	t g e	-0.26923093
-0.6484747	l g e	-0.36539686
-0.7527294	d g e	-0.8464174
-1.1523608	y g e	-0.2878109
-0.27939853	z g e	-0.26923093
-1.4586726	<w> a e	-0.7126701
-2.1629028	e a e	-0.26923093
-1.824622	m a e	-0.27533635
-1.8924438	c a e	-0.26923093
-1.5648129	h a e	-0.38791788
-1.5164329	n a e	-0.3284822
-1.7297968	g a e	-0.26923093
-1.300991	a a e	-0.26923093
-1.9695282	p a e	-0.28152886
-1.6144823	r a e	-0.33522266
-1.7438982	i a e	-0.28152886
-1.7075192	l a e	-0.2921017
-1.8317643	d a e	-0.26923093
-1.6709495	f a e	-0.26923093
-2.0004823	b a e	-0.26923093
-1.8873959	v a e	-0.26923093
-1.6785088	z a e	-0.26923093
-1.283184	<w> s e	-1.2016884
-1.3381257	k s e	-0.26923093
-1.1234758	e s e	-0.9183438
-1.0055667	m s e	-0.4209721
-1.3580947	h s e	-0.2878109
-1.0958152	n s e	-0.8178392
-0.9202189	u s e	-0.91665083
-1.1275512	a s e	-0.94575024
-1.0417339	s s e	-1.149147
-1.0710471	o s e	-0.8556885
-0.97652894	p s e	-0.59734595
-1.1797065	r s e	-0.76415735
-1.140224	i s e	-1.0892808
-1.0236	t s e	-0.3248656
-1.060272	l s e	-0.3202921
-1.6074142	d s e	-0.26923093
-1.3246487	f s e	-0.2878109
-0.92046946	b s e	-0.7005923
-0.9216774	y s e	-0.2805704
-0.29244906	x s e	-0.26923093
-1.3411491	w s e	-0.26923093
-1.3802758	<w> o e	-0.28152886
-1.5700402	k o e	-0.27842152
-1.7722832	e o e	-0.26923093
-1.9462837	m o e	-0.26923093
-1.8534117	c o e	-0.35919136
-1.2972107	h o e	-0.3932013
-1.5185423	n o e	-0.29396316
-1.5482949	j o e	-0.26923093
-1.2536075	g o e	-0.48839635
-1.6316599	s o e	-0.28152886
-1.3183572	o o e	-0.30481446
-1.679848	p o e	-0.46881697
-1.4455146	r o e	-0.32314485
-1.6272111	i o e	-0.28152886
-1.3124132	t o e	-0.47879976
-1.5811472	l o e	-0.39976582
-1.3630601	d o e	-0.4139589
-1.59741	f o e	-0.26923093
-1.9567816	b o e	-0.26923093
-1.6971065	v o e	-0.26923093
-1.7513952	w o e	-0.28152886
-1.5177947	z o e	-0.2878109
-1.1203053	<w> p e	-1.2585795
-1.2056772	e p e	-0.76545966
-1.1155705	m p e	-1.017373
-1.1625584	n p e	-0.28152886
-1.0157943	u p e	-0.99738157
-0.9331766	g p e	-0.26923093
-0.9890618	a p e	-0.80734724
-0.7913997	s p e	-1.2355738
-1.0240486	o p e	-0.9951706
-0.9107677	p p e	-1.1528105
-0.92297035	r p e	-0.74748313
-1.0265819	i p e	-0.5011091
-0.77723914	t p e	-0.26923093
-0.9647234	l p e	-0.3971138
-1.0429673	d p e	-0.26923093
-0.7985609	b p e	-0.2878109
-1.0833399	y p e	-0.6263096
-1.0085542	x p e	-0.86761284
-0.97453	<w> r e	-1.5854788
-1.1289256	k r e	-0.26923093
-1.1683875	e r e	-1.2005206
-0.7344126	c r e	-1.0134284
-0.7880889	h r e	-0.56276953
-0.90919435	n r e	-0.5639462
-1.0109901	u r e	-1.2593036
-0.70427275	g r e	-1.0292504
-1.161636	a r e	-0.9425781
-0.7860663	s r e	-0.43325263
-1.0569208	o r e	-0.9908712
-0.70652527	p r e	-1.1925161
-0.9206107	r r e	-0.97111475
-0.95773864	i r e	-1.005434
-0.7210483	t r e	-0.92712504
-1.1338896	l r e	-0.2878109
-0.69682294	d r e	-0.78864014
-0.6106499	f r e	-0.7763301
-0.7623203	b r e	-0.8081977
-1.1335639	y r e	-0.30020377
-0.54313266	x r e	-0.26923093
-0.5933943	v r e	-0.30020377
-0.9338774	w r e	-0.49667576
-1.3168234	<w> i e	-0.26923093
-1.2171677	k i e	-0.55819136
-1.7503724	e i e	-0.26923093
-1.1770945	m i e	-0.48462996
-1.1392713	c i e	-1.0027556
-1.3248718	h i e	-0.73994094
-1.2093174	n i e	-0.7404791
-1.6704775	u i e	-0.71498895
-1.0676094	g i e	-0.79389346
-1.3235679	a i e	-0.28917617
-1.161424	s i e	-0.6496433
-1.6800106	o i e	-0.26923093
-0.91263443	p i e	-0.72862524
-1.1381407	r i e	-1.1764282
-1.1658185	t i e	-1.2803181
-1.0748253	l i e	-1.0199543
-1.1052597	d i e	-0.8482622
-0.75571996	f i e	-1.2485621
-1.2507136	b i e	-0.49977618
-1.2743983	y i e	-0.53288794
-1.1320399	x i e	-0.27842152
-1.0723846	v i e	-0.7337877
-1.5923378	w i e	-0.35657895
-0.74259645	z i e	-0.49286348
-1.1430793	<w> t e	-1.1702061
-0.99714595	e t e	-1.1658074
-0.95450026	m t e	-0.26923093
-1.0965558	c t e	-1.2835664
-1.2295624	h t e	-0.83112204
-1.1344243	n t e	-1.4271625
-0.9774482	u t e	-1.0279412
-0.95450026	g t e	-0.26923093
-0.99073094	a t e	-1.6891611
-0.9439203	s t e	-1.3490883
-0.9270631	o t e	-0.8377626
-0.91807806	p t e	-0.85951173
-1.1671114	r t e	-0.9519085
-1.0636702	i t e	-1.1825583
-1.0733616	t t e	-1.4332323
-1.0797023	l t e	-1.0619502
-0.93748033	f t e	-0.74763757
-0.9537825	b t e	-0.2921017
-0.5911088	y t e	-0.29774123
-0.7676147	x t e	-0.7353661
-0.934724	<w> l e	-0.9594736
-0.75947064	k l e	-0.79842275
-1.0072497	e l e	-1.0762467
-0.59526193	m l e	-0.5185
-0.7056034	c l e	-0.895805
-0.5127593	h l e	-0.5629308
-0.6987878	n l e	-0.6017696
-1.0145524	u l e	-0.63139933
-0.676533	g l e	-0.76681936
-1.0388777	a l e	-0.93223155
-0.4287743	s l e	-0.60885686
-1.0206137	o l e	-0.8505951
-0.7203266	p l e	-0.9848149
-0.9031879	r l e	-0.69304276
-1.0068036	i l e	-0.97813964
-0.5464628	t l e	-0.98882407
-1.0147169	l l e	-1.2107053
-0.6756512	d l e	-0.96324015
-0.8122306	f l e	-0.6982431
-0.6670245	b l e	-1.4563311
-0.7688079	y l e	-0.4239321
-0.3263287	x l e	-0.26923093
-0.68236554	v l e	-0.26923093
-0.8122877	w l e	-0.70141155
-0.8477453	z l e	-0.5928796
-1.1514827	<w> d e	-1.3925028
-1.0638461	e d e	-0.8115689
-0.8869747	m d e	-0.26923093
-0.8992679	c d e	-0.26923093
-1.0755267	n d e	-1.2842746
-0.9770368	u d e	-1.0318133
-0.8131448	g d e	-0.26923093
-0.86557615	a d e	-1.1217847
-0.9155627	s d e	-0.27656785
-0.9133682	o d e	-0.8526792
-1.0822948	r d e	-0.8891329
-0.81489927	i d e	-1.212764
-0.99687093	l d e	-1.1085062
-0.9186315	d d e	-0.91919
-0.5843108	y d e	-0.2878109
-0.9919596	w d e	-0.560947
-1.0008816	<w> f e	-0.95014274
-0.96519727	k f e	-0.26923093
-0.99369586	e f e	-0.8352576
-0.79139	m f e	-0.2878109
-0.5344583	c f e	-0.31103918
-0.89230025	n f e	-0.7422624
-0.6995777	g f e	-0.2878109
-0.85820174	a f e	-0.40070555
-0.9579281	s f e	-0.6740412
-1.2042396	o f e	-0.7130925
-1.0359801	p f e	-0.26923093
-0.8786725	r f e	-0.68342054
-1.0075614	i f e	-0.5670271
-1.3883475	t f e	-0.26923093
-0.8891078	l f e	-0.29382998
-1.0141231	f f e	-0.99679375
-1.059802	y f e	-0.26923093
-0.96058124	w f e	-0.26923093
-0.27368543	z f e	-0.26923093
-0.9823417	<w> b e	-1.2044774
-0.5745857	k b e	-0.30159828
-0.8213586	e b e	-0.47503242
-0.9800985	m b e	-0.8856852
-0.66488254	c b e	-0.26923093
-1.0895278	h b e	-0.26923093
-0.56540716	n b e	-0.58173794
-0.7461082	u b e	-0.62646705
-0.7378966	g b e	-0.26923093
-0.99138415	a b e	-0.7861679
-0.83389807	s b e	-0.45635206
-0.85822344	o b e	-0.6777404
-0.61848605	p b e	-0.26923093
-0.9590089	r b e	-0.60343105
-0.7287053	i b e	-0.9754192
-0.92982394	t b e	-0.26923093
-0.6924774	l b e	-0.5185
-0.76611483	d b e	-0.2921017
-0.66488254	f b e	-0.26923093
-0.7937976	b b e	-0.7681817
-0.74584067	y b e	-0.33690202
-0.7749677	w b e	-0.29382998
-0.5280348	z b e	-0.26923093
-1.0392131	<w> y e	-0.7182752
-1.3783178	k y e	-0.26923093
-0.8520783	e y e	-0.517733
-1.1729863	m y e	-0.2878109
-1.4693172	h y e	-0.26923093
-1.4835742	n y e	-0.2878109
-1.1718348	u y e	-0.2878109
-0.94413626	a y e	-0.8897085
-1.5499213	s y e	-0.26923093
-0.93244815	o y e	-0.50901556
-1.2851436	r y e	-0.27842152
-0.6178834	i y e	-0.26923093
-1.6031637	t y e	-0.26923093
-1.2787385	l y e	-0.3307955
-1.5214931	d y e	-0.27842152
-1.267327	b y e	-0.31103918
-0.9559925	w y e	-0.4359779
-0.84529966	<w> x e	-0.31103918
-0.9238561	e x e	-0.62242305
-0.8608731	n x e	-0.26923093
-0.839275	u x e	-0.26923093
-0.70079696	a x e	-0.4658595
-1.1610291	o x e	-0.2844413
-1.0112594	i x e	-0.43597794
-0.85048777	<w> v e	-0.9866232
-0.6354239	e v e	-1.1306291
-0.61492944	h v e	-0.26923093
-0.67177516	n v e	-0.9439696
-0.5608548	u v e	-0.5178821
-0.24530779	g v e	-0.26923093
-0.60556847	a v e	-1.1031691
-0.54255736	s v e	-0.3326717
-0.5075449	o v e	-1.405026
-0.8117691	r v e	-0.8301176
-0.5763761	i v e	-1.6207141
-0.5813835	l v e	-0.69411224
-0.72964346	d v e	-0.9068744
-0.36255887	b v e	-0.6120692
-0.69048846	y v e	-0.26923093
-0.48404288	v v e	-0.26923093
-0.48404288	z v e	-0.26923093
-0.98453	<w> w e	-0.954309
-1.2281116	k w e	-0.2878109
-0.8004165	e w e	-0.7280645
-0.65722686	m w e	-0.2878109
-0.7135523	h w e	-0.4139589
-1.0202729	n w e	-0.29382998
-0.9355697	g w e	-0.26923093
-0.9837528	a w e	-0.3918124
-0.75781715	s w e	-0.84454757
-0.8851864	o w e	-1.0426477
-0.6873922	r w e	-0.37110472
-0.6894818	i w e	-0.26923093
-0.6352889	t w e	-0.40501168
-1.0867825	l w e	-0.26923093
-0.8072082	d w e	-0.5508554
-0.65722686	b w e	-0.26923093
-1.0176817	y w e	-0.28152886
-0.66433966	x w e	-0.26923093
-0.49367243	z w e	-0.2878109
-0.30094194	k q e	-0.26923093
-0.8883983	<w> z e	-0.34743145
-1.0888045	e z e	-0.41145775
-0.7881309	c z e	-0.26923093
-0.50921136	h z e	-0.26923093
-0.65183836	n z e	-0.28608856
-0.9819181	u z e	-0.28152886
-0.65939605	a z e	-0.5436413
-0.48183122	s z e	-0.26923093
-0.7235051	o z e	-0.4032894
-0.85355675	r z e	-0.26923093
-0.62845194	i z e	-1.4954133
-1.008082	t z e	-0.49794996
-0.81252635	l z e	-0.26923093
-0.63928884	d z e	-0.26923093
-0.7297881	y z e	-0.3908732
-0.8489998	z z e	-0.28665838
-1.3963428	</w> <w> m	-2.2094617
-1.4245847	c k m	-0.740988
-1.3547442	n k m	-0.30020377
-1.9394506	a k m	-0.26923093
-1.6542394	s k m	-0.26923093
-1.7880741	o k m	-0.26923093
-1.5069001	r k m	-0.3971138
-1.3876923	<w> e m	-1.0448861
-1.6334686	k e m	-0.27533635
-1.6145297	e e m	-0.5456903
-1.3880255	m e m	-0.7890159
-1.2978249	c e m	-0.8884755
-1.2117193	h e m	-0.74374235
-1.4250895	n e m	-0.61426383
-1.444934	j e m	-0.26923093
-1.6703519	u e m	-0.27842152
-1.2644006	g e m	-0.71647686
-1.6575491	a e m	-0.26923093
-1.2458304	s e m	-0.9626148
-1.4556735	o e m	-0.29382998
-1.9200909	p e m	-0.30020377
-1.335305	r e m	-1.020198
-1.7723974	i e m	-0.26923093
-1.2159414	t e m	-0.93383735
-1.2524118	l e m	-0.8808408
-1.3060765	d e m	-0.9001554
-1.657012	f e m	-0.35560608
-1.9355785	b e m	-0.2878109
-1.1746719	x e m	-0.5491025
-1.36064	v e m	-0.90226376
-1.7885883	w e m	-0.26923093
-1.5749557	z e m	-0.2878109
-1.1746027	<w> m m	-0.26923093
-1.1997687	e m m	-0.6077025
-1.4239256	m m m	-0.26923093
-1.1152166	u m m	-0.8078513
-1.1778662	a m m	-0.85688686
-1.1756699	o m m	-1.2238932
-1.0277934	i m m	-0.8634088
-1.7168686	y m m	-0.679016
-2.3490849	a c m	-0.26923093
-1.7994063	r c m	-0.26923093
-1.1126051	<w> h m	-0.26923093
-1.4142619	k h m	-0.26923093
-1.4908022	e h m	-0.28152886
-1.3704711	c h m	-0.7980342
-1.4169261	u h m	-0.26923093
-1.6368514	g h m	-0.26923093
-1.3059835	a h m	-0.27842152
-1.3917651	s h m	-0.77177
-1.0066289	o h m	-0.28963217
-1.1542003	i h m	-0.26923093
-1.4788774	t h m	-0.33116263
-1.7525189	e n m	-0.29396316
-1.8623681	u n m	-0.591673
-1.5958643	g n m	-0.53288794
-2.4029088	a n m	-0.26923093
-1.5886483	o n m	-0.567351
-1.3914521	r n m	-0.6523863
-1.9342942	i n m	-0.5011091
-1.2108772	<w> u m	-0.29382998
-1.345365	k u m	-0.26923093
-1.1902217	e u m	-0.5465287
-1.2407714	m u m	-0.3363426
-1.0087767	c u m	-0.6602699
-0.8895006	h u m	-0.75169176
-0.9147491	n u m	-0.78209573
-1.4532093	j u m	-0.5057183
-0.62502164	u u m	-0.27842152
-1.2343895	g u m	-0.38608617
-1.4254768	a u m	-0.38608617
-1.1081045	s u m	-0.7792827
-1.7371578	o u m	-0.27842152
-1.49176	p u m	-0.4145709
-1.0357441	r u m	-0.7184185
-0.4959085	i u m	-1.1327473
-1.1560489	t u m	-0.61890864
-0.96221364	l u m	-0.84694546
-1.2052957	d u m	-0.40501168
-1.5198963	f u m	-0.4597164
-1.5783674	b u m	-0.45775777
-0.8454527	w u m	-0.26923093
-1.7447456	e g m	-0.30020377
-1.6012206	n g m	-0.28152886
-1.7881517	u g m	-0.31103918
-1.9113692	a g m	-0.41608325
-1.8838087	o g m	-0.53288794
-1.2956892	i g m	-0.5185
-0.921356	d g m	-0.6120692
-1.295618	y g m	-0.26923093
-1.3757529	<w> a m	-0.9754883
-1.4525245	k a m	-0.28665838
-1.4286159	e a m	-0.7548787
-1.877037	m a m	-0.4606788
-1.3915515	c a m	-0.77481794
-1.0870748	h a m	-0.86271
-1.1207194	n a m	-0.77144086
-1.2056087	j a m	-0.3424087
-1.5302821	u a m	-0.31103918
-1.0879235	g a m	-0.51657385
-1.0086726	a a m	-0.26923093
-1.3019348	s a m	-0.36933935
-1.3005457	o a m	-0.29855403
-1.8628001	p a m	-0.49794996
-1.2080755	r a m	-0.93348867
-1.3703167	i a m	-0.48397052
-1.3487306	t a m	-0.5953791
-1.1998415	l a m	-0.8382094
-1.2058839	d a m	-0.58736145
-1.5972837	f a m	-0.64776546
-1.7598312	b a m	-0.29382998
-1.4673523	y a m	-0.31103918
-1.0927044	x a m	-0.602008
-1.6428845	v a m	-0.4359779
-1.7535708	w a m	-0.4145709
-1.3347034	<w> s m	-0.97341657
-1.3766831	k s m	-0.28152886
-1.2674378	e s m	-0.66840035
-1.4297174	m s m	-0.26923093
-1.319328	n s m	-0.541022
-1.7179013	u s m	-0.4359779
-1.3311379	a s m	-0.48482788
-1.3163939	s s m	-0.69016534
-1.8983322	o s m	-0.49286348
-1.7359726	p s m	-0.26923093
-1.6173326	r s m	-0.26923093
-1.057017	i s m	-1.4280401
-1.1682788	t s m	-0.5736598
-1.6473093	l s m	-0.26923093
-1.1889789	d s m	-0.3629802
-1.5147071	y s m	-0.26923093
-1.3943896	w s m	-0.26923093
-1.3627807	<w> o m	-0.44730106
-1.3019893	k o m	-0.27533635
-1.464994	e o m	-0.439958
-1.6867641	m o m	-0.6012338
-0.92997444	c o m	-1.5045898
-1.2411189	h o m	-0.76738536
-1.2551416	n o m	-0.97605586
-1.446962	u o m	-0.26923093
-1.61098	g o m	-0.28152886
-1.4148561	a o m	-0.26923093
-0.93936265	s o m	-0.8821064
-1.2008154	o o m	-0.81945425
-1.7776632	p o m	-0.5876884
-1.2147924	r o m	-0.9093214
-1.3741645	i o m	-0.33411837
-1.2210568	t o m	-0.73669195
-1.3141536	l o m	-0.5079256
-1.020004	d o m	-0.8447561
-1.933566	b o m	-0.94786125
-1.548145	y o m	-0.26923093
-1.0213529	x o m	-0.26923093
-1.676492	v o m	-0.2878109
-0.9631945	w o m	-0.5261849
-1.4998051	z o m	-0.2878109
-1.9538457	e p m	-0.2878109
-1.7830144	m p m	-0.26923093
-1.822094	u p m	-0.26923093
-2.0448492	a p m	-0.26923093
-1.875269	o p m	-0.3971138
-1.6320031	p p m	-0.2878109
-1.7614281	i p m	-0.48713046
-1.5793136	l p m	-0.26923093
-1.4259472	e r m	-1.3062456
-1.6706848	h r m	-0.26923093
-1.5058101	u r m	-0.4359779
-1.4018098	a r m	-0.8671961
-1.4219632	o r m	-1.0785252
-1.6962885	r r m	-0.26923093
-1.4014353	i r m	-0.67842466
-1.3383422	<w> i m	-1.4598092
-1.4743958	k i m	-0.3034715
-1.7705307	e i m	-0.5371214
-1.7976334	m i m	-0.4359779
-1.6472032	c i m	-0.34673545
-1.2661533	h i m	-0.4032894
-1.6095215	n i m	-0.6417715
-0.76670676	j i m	-0.29396316
-1.6969604	u i m	-0.26923093
-1.6532135	g i m	-0.48839635
-1.3307377	a i m	-0.5437261
-1.3781661	s i m	-0.76364595
-1.8841183	p i m	-0.47629505
-1.3174682	r i m	-0.8299464
-1.0900747	t i m	-1.0331497
-1.2536026	l i m	-0.7216459
-1.3077601	d i m	-0.7851167
-1.7014415	b i m	-0.27842152
-1.2917666	x i m	-0.57645035
-1.8712422	v i m	-0.26923093
-1.6104023	w i m	-0.2840308
-1.3862776	z i m	-0.26923093
-1.8985267	e t m	-0.28152886
-1.4064753	c t m	-0.4359779
-1.5154868	h t m	-0.31103918
-1.3713176	n t m	-0.560947
-1.4949961	u t m	-0.35626712
-1.6722264	a t m	-0.4020246
-1.4787078	s t m	-0.68915814
-1.7990346	o t m	-0.2878109
-1.4704063	r t m	-0.6358077
-1.7063878	i t m	-0.3051146
-1.7163984	t t m	-0.26923093
-1.5361928	l t m	-0.28152886
-1.3745774	e l m	-0.45657593
-1.6648897	u l m	-0.5742806
-1.313611	a l m	-0.5189173
-1.5933751	o l m	-0.6355503
-1.6900107	r l m	-0.26923093
-1.4296114	i l m	-0.3682438
-1.2777035	l l m	-0.679016
-1.6718891	e d m	-0.2921017
-1.2870145	n d m	-0.48276377
-1.7498167	u d m	-0.26923093
-1.5721753	a d m	-0.91854227
-1.8689802	o d m	-0.2878109
-1.560239	r d m	-0.26923093
-1.9258155	i d m	-0.26923093
-1.5467786	l d m	-0.26923093
-1.9464083	a f m	-0.26923093
-1.8719883	o f m	-0.26923093
-1.6470416	f f m	-0.4359779
-1.2444899	<w> b m	-0.26923093
-2.0434425	e b m	-0.26923093
-0.77177227	c b m	-0.26923093
-2.026982	u b m	-0.5228267
-1.0589237	<w> y m	-0.26923093
-1.4580798	e y m	-0.439958
-1.1948384	h y m	-0.34032866
-1.2190671	n y m	-0.32758307
-1.0852599	g y m	-0.4145709
-1.469325	a y m	-0.58724564
-1.0929854	s y m	-0.8637995
-1.5374193	o y m	-0.6120692
-1.436222	r y m	-0.3628064
-1.1913313	t y m	-0.26923093
-1.5181873	l y m	-0.5725836
-1.3836412	d y m	-0.28152886
-1.1346699	x y m	-0.26923093
-1.2027409	w y m	-0.26923093
-1.2486132	z y m	-0.28152886
-1.7366834	o x m	-0.26923093
-1.8382838	e w m	-0.26923093
-1.8458853	a w m	-0.29382998
-1.5827154	o w m	-0.37798598
-1.5465761	t z m	-0.26923093
-1.3049767	l z m	-0.26923093
-1.6283177	z z m	-0.26923093
-1.3604834	</w> <w> c	-2.3972468
-1.8500041	n k c	-0.26923093
-1.9092271	o k c	-0.2878109
-1.3980712	<w> e c	-0.6293511
-1.3680332	e e c	-0.6523863
-1.6988319	m e c	-0.6758674
-1.8179824	c e c	-0.28152886
-1.5718272	h e c	-0.637932
-1.2908401	n e c	-0.7623756
-0.6396912	j e c	-1.6332585
-1.6785169	u e c	-0.2878109
-1.9290648	g e c	-0.26923093
-1.3480444	a e c	-0.26923093
-1.335148	s e c	-0.89191985
-1.7410581	o e c	-0.26923093
-1.2968622	p e c	-1.1243584
-1.3374219	r e c	-1.2895558
-1.4527678	i e c	-0.69439954
-1.343106	t e c	-0.9878928
-1.4422607	l e c	-1.2007527
-1.554353	d e c	-0.98607427
-1.2847332	f e c	-1.273757
-1.3650541	b e c	-0.51732254
-1.5431794	x e c	-0.73953646
-1.602307	v e c	-0.37301123
-1.6416882	w e c	-0.26923093
-1.582135	z e c	-0.26923093
-1.1919625	<w> m c	-0.5241744
-1.9104531	e m c	-0.26923093
-2.0512085	u m c	-0.2878109
-1.9642406	a m c	-0.26923093
-1.6961925	r m c	-0.2878109
-1.7282009	i m c	-0.30020377
-1.7468004	y m c	-0.26923093
-1.26273	e c c	-0.5185
-1.4924521	m c c	-0.3659067
-1.2282453	u c c	-0.6047888
-1.3620597	a c c	-1.0710931
-1.1584696	o c c	-0.7854261
-1.577574	i c c	-0.28963217
-2.1391368	c h c	-0.26923093
-1.8275402	g h c	-0.26923093
-1.7042304	a h c	-0.2878109
-2.103657	s h c	-0.28152886
-2.175109	t h c	-0.2878109
-1.2616831	<w> n c	-0.26923093
-1.2743936	e n c	-1.3879855
-1.1521909	u n c	-1.1306207
-1.1615282	a n c	-1.3866987
-1.6522293	o n c	-0.99209756
-1.2638044	i n c	-1.1457839
-1.4945685	y n c	-0.5970634
-1.4692694	w n c	-0.26923093
-1.2479842	<w> u c	-0.26923093
-1.5938338	e u c	-0.26923093
-1.4096956	m u c	-0.29114455
-1.4105408	h u c	-0.679016
-1.0847864	n u c	-0.73847
-1.5062873	j u c	-0.26923093
-1.0535309	a u c	-0.48989332
-1.3796196	s u c	-0.8337704
-1.2758102	o u c	-0.89602315
-1.700044	p u c	-0.31103918
-1.4345684	r u c	-0.9801416
-1.391326	i u c	-0.2878109
-1.3820629	t u c	-0.7088033
-1.0762652	l u c	-0.67842466
-0.96564907	d u c	-1.0697024
-1.5549248	f u c	-0.3051146
-1.3487296	b u c	-0.8253089
-1.2912439	y u c	-0.26923093
-1.3765167	<w> a c	-1.1369175
-1.3176533	e a c	-1.0160189
-1.2819682	m a c	-0.57371664
-1.4727433	c a c	-0.3629802
-1.4489938	h a c	-0.8783674
-1.2248981	n a c	-0.616477
-0.71261954	j a c	-0.7452185
-1.5308586	u a c	-0.33908942
-1.797565	g a c	-0.26923093
-1.0089879	a a c	-0.29382998
-1.4500153	s a c	-0.6895969
-1.1090473	o a c	-0.87914586
-1.1766608	p a c	-1.0041796
-1.2081937	r a c	-1.262455
-1.3009406	i a c	-0.46819293
-1.2517109	t a c	-0.8301176
-1.2296379	l a c	-0.94603217
-1.3328325	d a c	-0.29855403
-0.93360054	f a c	-0.9589615
-0.8394189	b a c	-0.9181214
-1.4679192	y a c	-0.6523863
-1.31128	x a c	-0.53288794
-1.3845407	v a c	-0.5836473
-1.6358601	w a c	-0.439958
-1.4189326	z a c	-0.26923093
-1.3228561	<w> s c	-1.4523915
-1.5448653	k s c	-0.26923093
-1.2270736	e s c	-1.0341429
-1.5937148	m s c	-0.30159828
-1.389775	h s c	-0.26923093
-1.3136894	n s c	-0.830926
-1.2070514	u s c	-0.42315218
-1.1666476	a s c	-0.75967187
-1.7110965	s s c	-0.26923093
-1.2258404	o s c	-0.53486884
-1.7224493	p s c	-0.26923093
-1.3367302	r s c	-0.4139589
-1.2303851	i s c	-1.0913601
-1.2484922	t s c	-0.5491025
-1.4772751	d s c	-0.3971138
-1.2080266	b s c	-0.54049313
-1.2071944	y s c	-0.2840308
-0.29633957	z s c	-0.26923093
-1.3834639	<w> o c	-0.85985374
-1.717156	k o c	-0.31103918
-1.2220936	e o c	-0.33690202
-1.5723445	m o c	-0.5793807
-1.2590986	c o c	-0.6158818
-1.423979	h o c	-0.73484206
-1.2605128	n o c	-0.46897143
-1.5518925	j o c	-0.30481446
-1.6294293	g o c	-0.27842152
-1.4006267	s o c	-0.8363161
-1.5789757	o o c	-0.4359779
-1.451224	p o c	-0.48782623
-1.3017852	r o c	-0.79529965
-1.2253695	i o c	-0.34891814
-1.4231751	t o c	-0.7199479
-1.1560055	l o c	-0.8870481
-1.2960507	d o c	-0.6287733
-1.3040123	f o c	-0.6358077
-1.5731004	b o c	-0.3971138
-1.2646302	y o c	-0.30020377
-0.98107827	v o c	-1.0305822
-1.7546647	w o c	-0.26923093
-1.8663799	e p c	-0.26923093
-1.7414675	u p c	-0.26923093
-2.210801	o p c	-0.2878109
-2.0971382	i p c	-0.26923093
-1.5449761	e r c	-0.9766663
-1.4570543	u r c	-0.7942106
-1.3495501	a r c	-0.98461705
-1.4319124	o r c	-0.87934726
-1.6284233	i r c	-0.7916411
-1.3293421	<w> i c	-0.34511566
-1.7474775	k i c	-0.6120692
-1.501022	e i c	-0.5057183
-1.0534482	m i c	-1.0981452
-1.4058622	c i c	-0.28707704
-1.2629907	h i c	-0.89842623
-1.0679439	n i c	-1.0561843
-1.1422665	u i c	-0.66840035
-1.2008532	g i c	-1.164005
-1.2574399	a i c	-0.48853672
-1.1986617	s i c	-0.77331626
-1.297757	o i c	-0.5479982
-1.1632905	p i c	-0.7854261
-1.1165222	r i c	-1.2173963
-1.1978856	t i c	-1.5873615
-1.1941586	l i c	-1.1434186
-1.1081208	d i c	-1.0638164
-1.0957004	f i c	-1.1279868
-1.25523	b i c	-0.42986575
-1.138444	x i c	-0.5481526
-1.0750782	v i c	-0.76980925
-0.9390797	w i c	-0.80913347
-1.5569403	z i c	-0.2878109
-1.2307603	<w> t c	-0.2878109
-1.5725758	e t c	-0.98028016
-1.7418673	c t c	-0.26923093
-1.5168378	h t c	-0.2878109
-1.6549312	n t c	-0.2878109
-1.278673	u t c	-0.63506186
-1.354763	a t c	-1.2913653
-1.6706804	s t c	-0.2840308
-1.6570679	o t c	-0.8120872
-1.7989538	p t c	-0.26923093
-1.7636092	r t c	-0.28152886
-1.2689996	i t c	-1.2178557
-1.8720345	e l c	-0.6120692
-1.3971605	u l c	-0.38585377
-1.4874921	a l c	-0.74613595
-1.6925845	o l c	-0.29114455
-1.7196054	i l c	-0.28963217
-1.4043273	l l c	-0.27656785
-2.0000806	e d c	-0.4359779
-1.907808	n d c	-0.26923093
-1.9998378	u d c	-0.26923093
-2.0006375	a d c	-0.47629505
-2.11087	o d c	-0.26923093
-1.7957174	l d c	-0.2878109
-2.0799716	e f c	-0.26923093
-1.780943	l f c	-0.26923093
-2.0300632	u b c	-0.53288794
-2.238601	a b c	-0.26923093
-2.0323656	o b c	-0.26923093
-1.9938369	i b c	-0.26923093
-1.770551	e y c	-0.26923093
-1.0417905	m y c	-0.2960334
-0.9024975	c y c	-1.1349479
-1.7447505	a y c	-0.28152886
-1.264944	s y c	-0.97823036
-1.4282078	o y c	-0.30159828
-1.476556	p y c	-0.26923093
-1.4600185	r y c	-0.28152886
-1.5012585	t y c	-0.26923093
-1.4117668	l y c	-0.48853672
-1.1919224	f y c	-0.26923093
-0.98616445	w y c	-0.2840308
-1.270055	z y c	-0.26923093
-1.434549	e x c	-0.82715356
-1.2967217	o x c	-0.30020377
-2.0236354	e v c	-0.26923093
-1.8406546	e w c	-0.27842152
-1.8485131	a w c	-0.26923093
-2.141057	o w c	-0.26923093
-1.4156786	</w> <w> h	-2.1466506
-1.2462219	<w> k h	-0.4597164
-1.5964681	e k h	-0.26923093
-1.3782746	c k h	-0.44341728
-1.4441708	n k h	-0.28152886
-1.1895316	u k h	-0.26923093
-1.399084	a k h	-0.27842152
-1.3030328	r k h	-0.2840308
-1.6673903	i k h	-0.26923093
-1.3258015	l k h	-0.2878109
-1.4380493	<w> e h	-0.26923093
-1.8001184	k e h	-0.26923093
-1.7806317	e e h	-0.2840308
-1.7290112	m e h	-0.26923093
-2.0121477	c e h	-0.2878109
-1.9950325	h e h	-0.2878109
-1.6497744	n e h	-0.27445891
-1.4909775	j e h	-0.26923093
-1.6883564	g e h	-0.28152886
-1.8425428	s e h	-0.54324186
-1.6240191	o e h	-0.26923093
-1.9858272	p e h	-0.26923093
-1.6842713	r e h	-0.89773715
-2.1000848	i e h	-0.2878109
-1.852754	t e h	-0.2840308
-1.6509897	l e h	-0.33411837
-1.8318152	d e h	-0.2921017
-1.8440783	b e h	-0.59872675
-1.7297388	y e h	-0.26923093
-1.6296768	v e h	-0.35626712
-2.229647	u m h	-0.26923093
-1.9856383	o m h	-0.26923093
-1.8524301	r m h	-0.30020377
-1.0449467	<w> c h	-1.6627619
-0.54234743	k c h	-0.26923093
-0.9628224	e c h	-0.6877396
-0.9402625	m c h	-0.30020377
-1.2375453	c c h	-0.28152886
-0.9023825	h c h	-0.2878109
-0.9911668	n c h	-1.0517448
-0.8366847	u c h	-0.5725351
-0.9520186	a c h	-1.0354366
-0.7816665	s c h	-0.9386155
-0.9452269	o c h	-0.6405513
-0.65867895	p c h	-0.2878109
-0.9137774	r c h	-0.97829485
-1.0420527	i c h	-0.749235
-0.5592028	t c h	-1.0536034
-0.6602056	l c h	-0.48276377
-1.0713146	d c h	-0.26923093
-0.78298664	y c h	-0.7525015
-1.0321018	x c h	-0.3971138
-0.27799535	v c h	-0.26923093
-1.7739412	e h h	-0.26923093
-1.7485948	c h h	-0.30020377
-1.1835098	h h h	-0.26923093
-1.6004565	n h h	-0.26923093
-1.4965966	u h h	-0.26923093
-2.0224166	s h h	-0.26923093
-2.0886831	t h h	-0.28152886
-1.4249876	e n h	-0.6234674
-1.7191312	n n h	-0.26923093
-2.1021733	u n h	-0.4795628
-1.823997	a n h	-0.33411837
-1.8269136	o n h	-0.439958
-1.3641464	r n h	-0.30020377
-1.653378	i n h	-0.70104146
-1.6823848	y n h	-0.26923093
-1.445834	w n h	-0.26923093
-1.2766978	<w> u h	-0.26923093
-1.1950803	k u h	-0.2878109
-1.7611154	m u h	-0.26923093
-1.5700676	h u h	-0.26923093
-1.7876151	n u h	-0.26923093
-1.5487957	j u h	-0.26923093
-1.7741299	g u h	-0.26923093
-1.9944179	a u h	-0.26923093
-1.5425606	s u h	-0.27842152
-1.972328	r u h	-0.26923093
-1.6477454	t u h	-0.28152886
-1.5322909	d u h	-0.28152886
-1.5819114	f u h	-0.28152886
-1.8232467	b u h	-0.26923093
-1.2287873	v u h	-0.26923093
-1.1118267	<w> g h	-0.58542615
-1.6408408	e g h	-0.28152886
-0.89094853	c g h	-0.26923093
-1.2683575	n g h	-0.5323914
-1.1381863	u g h	-0.8904311
-1.4615498	g g h	-0.26923093
-1.3260057	a g h	-0.28665838
-1.5011206	o g h	-0.26923093
-1.3172143	r g h	-0.27975056
-1.0665934	i g h	-1.2831036
-1.3290191	l g h	-0.26923093
-1.3598313	d g h	-0.26923093
-0.5622824	f g h	-0.2878109
-1.4059435	<w> a h	-0.2921017
-1.5984439	k a h	-0.26923093
-1.8299218	e a h	-0.30020377
-1.7870947	m a h	-0.28556162
-1.9838159	c a h	-0.26923093
-1.5403649	h a h	-0.2921017
-1.8037065	n a h	-0.27445891
-0.94735885	j a h	-0.2960334
-1.8161767	s a h	-0.26923093
-1.4596666	o a h	-0.27842152
-1.9009918	p a h	-0.2878109
-1.5965705	r a h	-0.3671506
-1.3797488	i a h	-0.679016
-1.5669848	t a h	-0.27445891
-1.603677	l a h	-0.4116401
-1.5281948	d a h	-0.27842152
-1.6242853	f a h	-0.26923093
-1.5244927	b a h	-0.2840308
-1.6662284	y a h	-0.26923093
-1.539784	v a h	-0.31103918
-1.6558527	w a h	-0.26923093
-1.6222806	z a h	-0.26923093
-1.2974622	<w> s h	-1.6005431
-0.9528283	k s h	-0.3067224
-1.2587937	e s h	-0.62919354
-1.4011686	m s h	-0.28152886
-0.9797312	h s h	-0.26923093
-1.2235225	n s h	-0.9402936
-1.1128724	u s h	-0.79660773
-1.1812267	g s h	-0.30159828
-1.0209221	a s h	-0.908054
-1.1147351	s s h	-0.2921017
-1.2202868	o s h	-0.44975114
-1.0522764	p s h	-0.3628064
-1.1873431	r s h	-0.7909233
-1.1181875	i s h	-1.3011024
-1.086869	t s h	-0.2921017
-1.0651381	l s h	-0.29114455
-1.1745164	d s h	-0.5732051
-1.3348602	f s h	-0.26923093
-0.91470176	v s h	-0.26923093
-1.3558834	w s h	-0.28152886
-1.460443	<w> o h	-0.26923093
-1.820146	k o h	-0.26923093
-2.0591655	m o h	-0.31103918
-1.8040963	c o h	-0.65729713
-1.9205952	h o h	-0.26923093
-1.639874	j o h	-0.48713046
-1.5334417	u o h	-0.26923093
-1.6905361	s o h	-0.31103918
-2.0393455	p o h	-0.2878109
-2.0231009	r o h	-0.5114809
-1.9465054	l o h	-0.26923093
-2.0288215	d o h	-0.26923093
-1.6556108	f o h	-0.26923093
-1.6135974	b o h	-0.28691426
-1.8338083	w o h	-0.28152886
-1.1619322	<w> p h	-1.1579309
-0.9578973	e p h	-0.57007354
-1.1382998	m p h	-0.56225634
-0.25468993	c p h	-0.28152886
-1.1936147	n p h	-0.26923093
-1.2770717	u p h	-0.5107925
-1.208451	a p h	-0.96458495
-1.3059859	s p h	-0.77351654
-0.88302994	o p h	-1.0528345
-1.1890657	r p h	-0.566713
-1.0907935	i p h	-0.5220525
-1.1847447	t p h	-0.26923093
-0.87678194	l p h	-0.4659127
-0.80635047	y p h	-0.40124616
-0.95440125	w p h	-0.26923093
-1.1314286	<w> r h	-0.66322166
-1.6254404	e r h	-0.655654
-2.2216432	u r h	-0.26923093
-1.9791981	a r h	-0.30159828
-1.3321898	s r h	-0.26923093
-1.8973056	o r h	-0.29382998
-1.2910501	r r h	-0.29396316
-1.5193564	<w> i h	-0.26923093
-2.1684153	h i h	-0.26923093
-1.8853856	n i h	-0.47629505
-2.3413582	s i h	-0.26923093
-1.4338502	i i h	-0.26923093
-2.1829069	t i h	-0.26923093
-2.4509223	l i h	-0.28152886
-1.1262624	<w> t h	-1.466122
-1.1400975	k t h	-0.2878109
-1.0836968	e t h	-0.89637196
-0.94385624	m t h	-0.26923093
-1.5745181	c t h	-0.26923093
-1.088391	h t h	-0.28665838
-1.1261744	n t h	-0.8027193
-1.2365193	u t h	-0.760534
-0.94385624	g t h	-0.42514256
-1.0977019	a t h	-1.055984
-1.4984188	s t h	-0.71933305
-1.0544573	o t h	-0.9324381
-1.6393999	p t h	-0.26923093
-1.1567559	r t h	-0.7782053
-1.2126203	i t h	-0.70769036
-1.4154247	t t h	-0.26923093
-1.172066	l t h	-0.44364548
-0.63311225	d t h	-0.4209721
-1.1708121	f t h	-0.2878109
-0.64497685	y t h	-0.47987688
-1.257801	x t h	-0.26923093
-0.7825967	w t h	-0.37301123
-2.1476135	e l h	-0.26923093
-2.1333952	u l h	-0.26923093
-2.1509836	a l h	-0.2878109
-2.0774927	o l h	-0.26923093
-1.6900107	r l h	-0.26923093
-1.4296114	i l h	-0.42061588
-1.5471598	l l h	-0.28152886
-1.2552844	<w> d h	-0.26923093
-1.9234376	e d h	-0.37301123
-1.2772338	n d h	-0.3629802
-1.8998648	u d h	-0.26923093
-1.5615562	a d h	-0.6318255
-1.5724286	o d h	-0.2840308
-1.7208337	r d h	-0.26923093
-1.694793	l d h	-0.26923093
-1.6187123	d d h	-0.30020377
-1.9464083	a f h	-0.26923093
-1.778825	l f h	-0.26923093
-1.6470416	f f h	-0.2878109
-1.2636724	<w> b h	-0.26923093
-1.8316096	u b h	-0.26923093
-2.2839186	a b h	-0.2878109
-1.6934832	e y h	-0.2878109
-1.6695684	n y h	-0.26923093
-1.8364357	a y h	-0.28152886
-1.8493603	o y h	-0.26923093
-1.5672051	p y h	-0.26923093
-1.9348509	l y h	-0.53288794
-1.3646299	b y h	-0.2878109
-1.2120057	x y h	-0.26923093
-1.5884906	e x h	-0.6995383
-1.4586271	o x h	-0.26923093
-1.0760719	<w> w h	-1.3698242
-1.094978	k w h	-0.26923093
-1.2551221	e w h	-0.439958
-0.2488077	c w h	-0.26923093
-1.0610526	h w h	-0.26923093
-0.9301133	n w h	-0.28152886
-1.4550298	a w h	-0.27842152
-1.4139493	o w h	-0.2921017
-1.231584	r w h	-0.4359779
-1.3579637	t w h	-0.26923093
-1.1730945	l w h	-0.26923093
-1.5237479	d w h	-0.26923093
-1.0825154	y w h	-0.2878109
-1.1545067	<w> z h	-0.28152886
-1.2726016	t z h	-0.26923093
-1.3778312	</w> <w> n	-1.7996193
-1.2269361	<w> k n	-0.89837587
-1.3884609	e k n	-0.31103918
-1.4895301	c k n	-0.65782666
-1.4239821	n k n	-0.3971138
-1.8018947	a k n	-0.2878109
-1.7726164	s k n	-0.26923093
-1.667908	o k n	-0.26923093
-1.4181914	r k n	-0.28152886
-1.3099341	l k n	-0.28152886
-1.150953	y k n	-0.26923093
-1.3782855	<w> e n	-1.0497594
-1.1256424	k e n	-0.7813839
-1.125558	e e n	-0.73077476
-0.86278343	m e n	-1.5606545
-1.0940576	c e n	-1.1725308
-1.1223133	h e n	-0.68398494
-1.5440229	n e n	-0.6344793
-1.4362833	j e n	-0.3908732
-1.1227214	u e n	-0.8711035
-0.9866714	g e n	-1.0243425
-1.6474777	a e n	-0.26923093
-1.1103306	s e n	-1.0312088
-1.1250088	o e n	-0.34511566
-0.9870116	p e n	-0.94290036
-1.2448612	r e n	-1.0588831
-1.0377715	i e n	-0.9983365
-1.0637857	t e n	-1.2506691
-1.2510058	l e n	-1.0065432
-0.9741838	d e n	-1.0896382
-1.1222103	f e n	-0.6970684
-1.2302786	b e n	-0.6064994
-1.1048386	y e n	-0.28963217
-1.0097744	x e n	-0.35009363
-1.0064672	v e n	-1.0306637
-1.0936241	w e n	-0.5228267
-1.0002233	z e n	-0.38608617
-1.592858	e m n	-0.35976776
-1.7036132	u m n	-0.33029538
-1.9379689	a m n	-0.28309086
-1.8468214	o m n	-0.3807795
-1.6622447	r m n	-0.26923093
-1.8569301	i m n	-0.31103918
-1.3704091	l m n	-0.26923093
-1.5066022	y m n	-0.439958
-1.554069	m c n	-0.31103918
-2.293235	a c n	-0.26923093
-1.938378	o c n	-0.26923093
-2.301213	i c n	-0.4359779
-1.6955804	e h n	-0.26923093
-1.5618364	c h n	-0.5371214
-1.0425627	u h n	-0.4359779
-1.4977072	g h n	-0.4209721
-1.46254	a h n	-0.3971138
-1.4002272	s h n	-0.7370079
-0.8024007	o h n	-0.44382477
-1.8533988	p h n	-0.26923093
-1.1669822	i h n	-0.26923093
-1.8472396	t h n	-0.28152886
-1.2222178	e n n	-0.92207646
-1.4704046	h n n	-0.26923093
-1.3471919	n n n	-0.29382998
-1.2231363	u n n	-0.75954
-1.179699	a n n	-1.0773944
-1.4143293	o n n	-0.9739813
-1.6847978	r n n	-0.26923093
-1.3155358	i n n	-0.8642533
-1.3208586	y n n	-0.37798598
-1.2022387	<w> u n	-1.3534942
-0.98868304	k u n	-0.28152886
-1.5435866	e u n	-0.3971138
-1.0465553	m u n	-0.7171348
-1.3255569	c u n	-0.3628064
-1.2419608	h u n	-0.64846146
-1.2117631	n u n	-0.5465287
-0.89874524	j u n	-0.5120933
-0.90809774	u u n	-0.26923093
-1.0352083	g u n	-0.40008414
-1.080453	a u n	-0.91495204
-1.2509309	s u n	-0.48589408
-1.0132697	o u n	-1.4353948
-0.95588756	p u n	-0.5833121
-0.99913776	r u n	-0.56532335
-1.5655789	i u n	-0.26923093
-1.152992	t u n	-0.6349361
-1.0639368	l u n	-0.7767621
-1.1997242	d u n	-0.2925559
-0.902243	f u n	-0.67842466
-1.1375703	b u n	-0.45620006
-1.0232077	y u n	-0.26923093
-1.0960822	w u n	-0.26923093
-1.1765699	<w> g n	-0.48713046
-1.5897702	e g n	-0.3807795
-1.7136538	n g n	-0.31103918
-1.5781616	u g n	-0.28152886
-1.2903881	a g n	-0.92494375
-1.4205961	o g n	-0.6490952
-1.0435231	i g n	-1.0046229
-1.1914275	t g n	-0.26923093
-1.2774999	y g n	-0.26923093
-1.3757529	<w> a n	-1.1541469
-1.2175837	k a n	-0.2921017
-1.1231151	e a n	-0.8252499
-0.8918103	m a n	-1.2440261
-1.1663496	c a n	-0.93307185
-1.0296853	h a n	-1.0912113
-1.1872236	n a n	-0.92859274
-1.052557	j a n	-0.38715452
-0.7713536	u a n	-0.46348646
-1.035274	g a n	-0.843572
-1.1041747	s a n	-0.8671297
-0.92263126	o a n	-0.53889763
-1.0360553	p a n	-0.73516065
-1.2080755	r a n	-1.2567143
-0.8810222	i a n	-1.3910668
-1.1050917	t a n	-1.0818411
-1.0348668	l a n	-1.2440102
-1.066165	d a n	-0.6880979
-1.3455248	f a n	-0.55809975
-1.0984083	b a n	-0.7343287
-0.74771315	y a n	-0.59219605
-1.0927044	x a n	-0.28665838
-0.9667587	v a n	-0.75548375
-1.0914758	w a n	-0.46981242
-0.73728305	z a n	-0.2921017
-1.4705515	<w> s n	-1.0584273
-1.944848	e s n	-0.2921017
-2.1767774	u s n	-1.0891905
-2.2793057	a s n	-0.26923093
-1.705482	s s n	-0.90226376
-1.8953649	p s n	-0.26923093
-1.8058741	r s n	-0.26923093
-2.0104785	i s n	-0.26923093
-1.35317	<w> o n	-0.42259434
-1.1963204	k o n	-0.3707324
-0.9939007	e o n	-0.5670271
-1.0118115	m o n	-1.0181205
-1.0606343	c o n	-1.4865767
-1.3459007	h o n	-0.8267925
-1.2070918	n o n	-0.6153932
-1.3531649	j o n	-0.2921017
-1.2327354	u o n	-0.26923093
-1.0302655	g o n	-0.7577549
-0.76134074	s o n	-1.2386986
-0.9444471	o o n	-0.75406265
-1.022614	p o n	-0.84249926
-1.2131883	r o n	-0.9771757
-0.90765	i o n	-2.0848114
-0.961281	t o n	-1.270634
-1.2403537	l o n	-0.9235268
-1.0182481	d o n	-0.7186333
-1.2923765	f o n	-0.44382477
-0.97779065	b o n	-0.6288371
-0.8370901	y o n	-0.39156497
-0.66724616	x o n	-0.3971138
-1.3804836	v o n	-0.27656785
-1.7236214	w o n	-0.8120872
-0.6656687	z o n	-0.47212467
-1.2702802	<w> p n	-0.26923093
-1.9538457	e p n	-0.26923093
-1.603476	m p n	-0.2878109
-1.8718488	a p n	-0.2878109
-1.8881422	s p n	-0.26923093
-2.049953	o p n	-0.26923093
-1.6318166	r p n	-0.26923093
-1.4343065	y p n	-0.4359779
-1.3696945	e r n	-1.1458797
-1.3948302	u r n	-0.8381164
-1.4058489	a r n	-0.8926854
-1.3868835	o r n	-0.75110686
-1.9151183	i r n	-0.27842152
-1.6999195	y r n	-0.26923093
-1.3005601	<w> i n	-1.5385752
-0.63756335	k i n	-1.2807268
-0.8689516	e i n	-0.7173057
-1.0131876	m i n	-1.3202424
-0.9745895	c i n	-0.93825006
-1.0597333	h i n	-1.1298497
-1.0622559	n i n	-1.3569044
-1.0858244	j i n	-0.27656785
-0.9156906	u i n	-0.6355286
-0.96492016	g i n	-1.1932702
-0.8570038	a i n	-1.1502284
-1.1263804	s i n	-1.126494
-0.81630814	o i n	-0.9113472
-0.9101395	p i n	-1.0172056
-1.1602395	r i n	-1.4917717
-1.0558027	i i n	-0.31103918
-1.1092409	t i n	-1.6395812
-1.0336318	l i n	-1.4932426
-1.0641863	d i n	-1.4585066
-1.0888895	f i n	-0.95333916
-1.0205275	b i n	-0.88777804
-0.23533335	y i n	-1.6250921
-0.9727157	x i n	-0.6318255
-1.0687932	v i n	-1.0590047
-0.768155	w i n	-0.9648976
-0.80209935	z i n	-1.2369143
-1.8856494	e t n	-0.31103918
-1.7206897	c t n	-0.2878109
-1.496758	h t n	-0.3971138
-1.3633565	n t n	-0.53288794
-1.5913275	u t n	-0.2878109
-1.904838	a t n	-0.3629802
-1.7984757	s t n	-0.4477263
-2.062314	o t n	-0.2878109
-1.4395692	p t n	-0.31103918
-1.3178161	r t n	-0.6523863
-1.6994506	i t n	-0.78816044
-1.7006714	l t n	-0.26923093
-1.2408962	f t n	-0.4359779
-2.1476135	e l n	-0.26923093
-1.9582186	u l n	-1.2318579
-1.7583559	a l n	-0.4139589
-1.6812674	o l n	-0.37301123
-2.1071663	i l n	-0.26923093
-1.5471598	l l n	-0.6012338
-1.786878	f l n	-0.26923093
-1.2393444	<w> d n	-0.26923093
-1.332599	e d n	-0.85013247
-1.3702989	n d n	-0.679016
-1.8717446	u d n	-0.26923093
-1.342488	a d n	-0.47212467
-1.8259484	o d n	-0.28152886
-1.5234836	r d n	-0.47629505
-1.4148027	i d n	-0.51105714
-1.3741965	l d n	-0.4359779
-1.1695347	y d n	-0.26923093
-1.5807352	u f n	-0.26923093
-1.8278702	o f n	-0.26923093
-1.9909792	i f n	-0.26923093
-1.615463	f f n	-0.31103918
-1.8415737	m b n	-0.26923093
-2.026982	u b n	-0.26923093
-2.2358644	a b n	-0.30020377
-2.0295596	o b n	-0.26923093
-1.1923888	k y n	-0.26923093
-1.127079	e y n	-0.3628064
-1.3904887	m y n	-0.26923093
-1.4041033	c y n	-0.37301123
-1.0389624	h y n	-0.28152886
-1.18446	u y n	-0.2878109
-0.90304804	g y n	-0.29382998
-1.1585518	a y n	-0.5664595
-0.9743427	s y n	-0.66855055
-1.5244156	o y n	-0.26923093
-1.4284482	p y n	-0.26923093
-1.4251626	r y n	-0.27842152
-0.9476095	l y n	-0.4514715
-1.234059	d y n	-0.88138187
-0.96427655	w y n	-0.27842152
-0.99198174	z y n	-0.26923093
-1.6659015	a x n	-0.26923093
-1.6752509	o x n	-0.26923093
-1.9722373	i v n	-0.26923093
-1.8382838	e w n	-0.31103918
-0.9959467	a w n	-0.42021483
-1.1160042	o w n	-0.9296418
-1.4189258	</w> <w> j	-1.7248975
-2.0753388	c k j	-0.26923093
-2.0095093	s k j	-0.26923093
-1.6140254	<w> e j	-0.30020377
-2.2581215	m e j	-0.26923093
-1.6477965	j e j	-0.26923093
-2.1321633	r e j	-0.58542615
-2.5606742	l e j	-0.26923093
-2.240068	d e j	-0.3971138
-2.1611323	v e j	-0.26923093
-2.0687408	a h j	-0.26923093
-1.2993658	<w> n j	-0.26923093
-1.969791	e n j	-0.5906622
-2.0416067	u n j	-0.29382998
-2.1313834	a n j	-0.26923093
-2.0305564	o n j	-0.5771844
-2.1099217	i n j	-0.73847
-1.7037905	j u j	-0.26923093
-2.1923077	a u j	-0.26923093
-2.2815425	o u j	-0.26923093
-2.1751254	r u j	-0.2878109
-2.1673284	l u j	-0.2878109
-1.9309171	f u j	-0.2878109
-1.409653	y u j	-0.26923093
-1.6087675	<w> a j	-0.26923093
-2.01853	k a j	-0.26923093
-2.33203	m a j	-0.47629505
-2.0836744	h a j	-0.26923093
-2.1820302	p a j	-0.2878109
-2.1197002	r a j	-0.26923093
-1.8943276	y a j	-0.26923093
-2.3027716	i s j	-0.26923093
-2.047749	k o j	-0.26923093
-2.3337345	h o j	-0.26923093
-2.2354615	s o j	-0.31103918
-2.3240583	r o j	-0.94786125
-2.4008286	t o j	-0.26923093
-2.2012293	i p j	-0.26923093
-2.2529042	e r j	-0.26923093
-2.6384833	a r j	-0.26923093
-1.4573667	<w> i j	-0.26923093
-2.108197	m i j	-0.26923093
-2.060577	h i j	-0.31103918
-2.1471806	n i j	-0.26923093
-1.8957243	a i j	-0.2878109
-2.0139139	o i j	-0.26923093
-2.3390324	r i j	-0.26923093
-1.3996868	i i j	-0.26923093
-2.2926416	t i j	-0.26923093
-2.3404086	l i j	-0.26923093
-2.10128	d i j	-0.26923093
-2.012941	b i j	-0.26923093
-1.3681487	<w> t j	-0.26923093
-1.3765742	<w> d j	-0.31103918
-1.7608817	a d j	-0.7980342
-2.325663	i d j	-0.26923093
-1.2839481	<w> f j	-0.26923093
-2.1065345	u b j	-0.6026283
-2.305789	a b j	-0.31103918
-2.1014106	o b j	-1.0380379
-1.6534891	k y j	-0.2878109
-1.3950188	</w> <w> u	-1.7477908
-1.2233591	<w> k u	-0.2844413
-1.0779891	k k u	-0.26923093
-1.3611852	c k u	-0.30020377
-1.1744249	u k u	-0.26923093
-1.3854228	a k u	-0.2840308
-1.7679659	s k u	-0.3971138
-1.3494842	o k u	-0.30159828
-1.568021	r k u	-0.26923093
-1.4404973	i k u	-0.26923093
-1.0339338	t k u	-0.26923093
-1.4462911	<w> e u	-0.45781165
-1.971419	k e u	-0.26923093
-2.004461	m e u	-0.26923093
-2.0227256	c e u	-0.26923093
-1.4940743	h e u	-0.3838014
-1.5713552	n e u	-0.6737068
-1.2758507	j e u	-0.31103918
-1.8982251	u e u	-0.26923093
-1.9901015	g e u	-0.26923093
-1.372111	a e u	-0.31103918
-1.4600251	s e u	-0.52532023
-1.7151155	p e u	-0.27842152
-1.5603166	r e u	-0.3782947
-1.4672747	i e u	-0.42418188
-1.7239276	t e u	-0.5528736
-1.5940464	l e u	-0.33522266
-1.5817673	d e u	-0.30020377
-1.5637509	f e u	-0.38608617
-2.0104752	b e u	-0.26923093
-1.0598733	<w> m u	-1.0110763
-1.3370633	e m u	-0.35670704
-1.0368066	m m u	-1.0395
-1.4219971	h m u	-0.26923093
-0.97163236	n m u	-0.26923093
-1.584944	u m u	-0.6981438
-1.3043169	g m u	-0.26923093
-1.2294322	a m u	-0.59156656
-1.1916585	s m u	-0.38608617
-1.4719778	o m u	-0.35009363
-1.0910257	r m u	-0.6012338
-1.3028686	i m u	-0.72261995
-1.2514967	l m u	-0.27842152
-1.3861902	d m u	-0.26923093
-1.0114714	b m u	-0.26923093
-1.5367721	y m u	-0.26923093
-1.0909353	<w> c u	-0.99658394
-1.0116718	e c u	-0.8722764
-0.8740028	c c u	-0.86734164
-0.93399405	h c u	-0.26923093
-1.1906888	n c u	-0.655654
-1.3814561	u c u	-0.3807795
-1.2538173	a c u	-0.45566875
-1.0713514	s c u	-0.70875525
-1.1654562	o c u	-0.6036822
-1.0386151	r c u	-0.6927397
-1.1561099	i c u	-0.84630954
-1.4033505	t c u	-0.2878109
-1.3644762	l c u	-0.8742351
-0.8894383	d c u	-0.26923093
-1.0750009	x c u	-0.4359779
-0.9424516	w c u	-0.26923093
-1.0420923	<w> h u	-0.8771529
-1.2837582	e h u	-0.30159828
-0.87889737	m h u	-0.26923093
-1.1602478	c h u	-0.51284784
-1.0776223	h h u	-0.26923093
-1.239648	n h u	-0.31103918
-1.3165026	u h u	-0.26923093
-1.3816435	g h u	-0.26923093
-1.6027583	a h u	-0.26923093
-1.2671702	s h u	-0.5106685
-1.3169506	p h u	-0.2960334
-1.32953	r h u	-0.26923093
-1.2353723	t h u	-0.566713
-1.2077035	l h u	-0.26923093
-0.81672263	b h u	-0.26923093
-0.93420416	x h u	-0.26923093
-0.8745245	z h u	-0.26923093
-1.1661634	<w> n u	-0.6204099
-1.406699	k n u	-0.4359779
-1.4355334	e n u	-0.42067856
-1.3755045	h n u	-0.26923093
-1.2906278	n n u	-0.30097798
-1.7336913	u n u	-0.2921017
-1.2563627	g n u	-0.4359779
-1.5241021	a n u	-0.43968564
-1.3850384	s n u	-0.30097798
-1.4746457	o n u	-0.35640353
-1.2886035	r n u	-0.29382998
-1.5543567	i n u	-0.5906873
-1.0191386	t n u	-0.30159828
-1.0152094	l n u	-0.4359779
-1.3306493	w n u	-0.26923093
-0.70649374	<w> j u	-0.77297354
-0.7613199	e j u	-0.47629505
-0.23568615	h j u	-0.26923093
-0.48489988	n j u	-0.6708542
-0.799181	u j u	-0.26923093
-0.7812298	a j u	-0.26923093
-0.46750394	s j u	-0.26923093
-0.71451265	o j u	-0.26923093
-0.65638715	r j u	-0.26923093
-0.76722574	i j u	-0.2878109
-0.7580909	d j u	-0.7030546
-0.6838883	b j u	-0.2878109
-2.0471601	c u u	-0.31103918
-2.0221567	n u u	-0.26923093
-2.230257	a u u	-0.26923093
-2.206639	l u u	-0.26923093
-1.9580619	f u u	-0.26923093
-1.1092336	<w> g u	-0.8868749
-1.221263	e g u	-0.61686873
-1.17501	n g u	-0.82846075
-1.136988	u g u	-0.45775777
-1.1287166	a g u	-0.6919462
-1.154638	s g u	-0.4359779
-1.1291478	o g u	-0.9372827
-1.0449567	r g u	-0.35919136
-1.2042452	i g u	-0.65004814
-1.1282567	t g u	-0.2878109
-1.1799109	d g u	-0.28152886
-1.2091255	y g u	-0.26923093
-0.5615493	w g u	-0.26923093
-1.4139851	<w> a u	-0.9779818
-1.605587	k a u	-0.30020377
-1.3259287	e a u	-0.6514005
-1.9134653	m a u	-0.3307955
-1.274253	c a u	-0.6638364
-1.2866408	h a u	-0.5758571
-1.4318473	n a u	-0.5261849
-1.567592	j a u	-0.26923093
-1.5622296	g a u	-0.3194776
-1.4660279	s a u	-0.42803052
-1.6422977	p a u	-0.602008
-1.3651252	r a u	-0.41462195
-1.99745	i a u	-0.26923093
-1.5704381	t a u	-0.46819293
-1.3034189	l a u	-0.76144123
-1.6680323	d a u	-0.33908942
-1.3643247	f a u	-0.49560577
-1.2675256	b a u	-0.3220649
-1.6750416	y a u	-0.26923093
-1.4019887	v a u	-0.34673545
-1.9372452	w a u	-0.26923093
-1.3318592	<w> s u	-1.3083122
-1.4634895	e s u	-0.5953791
-1.603972	m s u	-0.26923093
-1.3179817	n s u	-0.70855534
-1.8386018	u s u	-0.37798598
-1.4185905	g s u	-0.26923093
-1.5923978	a s u	-0.7531012
-1.3149402	s s u	-0.6635354
-1.5392928	o s u	-0.5114809
-1.4142084	p s u	-0.27656785
-1.4676448	r s u	-0.4879859
-1.6756809	i s u	-0.5529693
-1.4965495	t s u	-0.27656785
-1.6621065	d s u	-0.26923093
-1.3682224	b s u	-0.47629505
-1.3657265	y s u	-0.26923093
-1.3914449	w s u	-0.2878109
-1.3604984	<w> o u	-1.1836
-1.1172296	k o u	-0.5057183
-0.9954436	e o u	-1.1710947
-1.0452809	m o u	-0.9456141
-1.2529956	c o u	-1.1307491
-0.9923242	h o u	-0.9003994
-1.1675206	n o u	-0.83551586
-0.87538576	j o u	-0.8539036
-0.55915654	u o u	-1.3653969
-1.1624284	g o u	-0.3729262
-0.8522537	a o u	-0.26923093
-1.3904037	s o u	-0.68431044
-1.2937533	p o u	-0.67842466
-1.2403139	r o u	-1.1212528
-0.908624	i o u	-1.6547923
-1.307055	t o u	-0.767925
-1.2418103	l o u	-0.8799257
-1.4345542	d o u	-0.69445986
-1.0964589	f o u	-0.8216322
-1.1563137	b o u	-0.7446057
-1.2512951	y o u	-0.4795628
-1.0476698	v o u	-0.4627354
-1.5456898	w o u	-0.4359779
-1.4974598	z o u	-0.26923093
-1.1593485	<w> p u	-0.97670335
-1.5297924	e p u	-0.5955466
-1.2346768	m p u	-0.6340332
-0.95284504	h p u	-0.26923093
-1.1917093	n p u	-0.26923093
-1.6352284	u p u	-0.4359779
-1.5052664	a p u	-0.49794996
-1.1986804	s p u	-0.6515778
-1.5081115	o p u	-0.9036583
-1.3148656	p p u	-0.26923093
-1.3161533	r p u	-0.27842152
-1.1481781	i p u	-0.4968457
-1.1823221	t p u	-0.31103918
-1.0377349	x p u	-0.27842152
-0.95284504	w p u	-0.26923093
-0.9995888	<w> r u	-0.8520225
-0.94455093	k r u	-0.2921017
-1.4382218	e r u	-0.44828945
-0.9822416	c r u	-0.69038975
-0.8847953	h r u	-0.4148935
-1.0762938	n r u	-0.27842152
-1.6235253	u r u	-0.27842152
-1.0833545	g r u	-0.41154554
-1.6181595	a r u	-0.27380192
-1.1566604	s r u	-0.7370079
-1.6629721	o r u	-0.5011091
-1.3574294	p r u	-0.45872217
-1.0382774	r r u	-0.69439954
-1.5577992	i r u	-0.27656785
-0.82570827	t r u	-0.97549045
-1.1649024	l r u	-0.26923093
-0.94351196	d r u	-0.5866493
-1.1784412	f r u	-0.5771844
-0.91558635	b r u	-0.5843812
-1.1536529	y r u	-0.2878109
-1.4108238	<w> i u	-0.26923093
-1.4766455	m i u	-0.49794996
-1.2778822	c i u	-0.38608617
-1.986129	h i u	-0.26923093
-1.655671	n i u	-0.6638364
-1.7886181	u i u	-0.26923093
-1.5800753	g i u	-0.28963217
-2.0320747	a i u	-0.26923093
-1.7265832	s i u	-0.31103918
-1.811498	p i u	-0.26923093
-1.6480572	r i u	-0.8753106
-1.6834682	t i u	-0.49794996
-1.8425574	l i u	-0.5057183
-1.3318167	d i u	-0.74803364
-1.9683292	v i u	-0.26923093
-1.162689	<w> t u	-0.80568564
-1.1710225	k t u	-0.2878109
-1.5354463	e t u	-0.40755606
-1.0208033	c t u	-1.2443625
-1.4104103	h t u	-0.2878109
-1.224674	n t u	-0.6217688
-1.4522403	u t u	-0.29114455
-1.1590192	a t u	-0.8275217
-1.2698373	s t u	-0.7565208
-1.6054002	o t u	-0.34032866
-0.9851188	p t u	-0.7152768
-1.1789912	r t u	-0.72200215
-1.2532433	i t u	-0.9382137
-1.4556094	t t u	-0.26923093
-1.6094606	l t u	-0.8253089
-1.4920063	f t u	-0.26923093
-1.0955925	x t u	-0.5491025
-1.0579728	w t u	-0.26923093
-0.9794366	<w> l u	-0.7707386
-1.296744	k l u	-0.26923093
-1.5681354	e l u	-0.4373176
-1.0427481	c l u	-0.7820449
-1.4550947	h l u	-0.26923093
-1.4321914	n l u	-0.2878109
-1.3767393	u l u	-0.35626712
-1.089336	g l u	-0.50292474
-1.5751873	a l u	-0.5546221
-1.4488349	s l u	-0.5015283
-1.259799	o l u	-0.80535376
-1.2654274	p l u	-0.60976547
-1.4585086	r l u	-0.27842152
-1.59868	i l u	-0.35962772
-1.2704091	l l u	-0.72054446
-1.3975224	d l u	-0.27842152
-0.99054265	f l u	-0.5486187
-1.2831502	b l u	-0.597909
-1.4950471	y l u	-0.26923093
-1.1778352	<w> d u	-0.70031816
-1.2585899	e d u	-0.91107213
-0.90110826	m d u	-0.26923093
-1.2294579	n d u	-0.73018354
-1.6376779	u d u	-0.26923093
-1.7134387	a d u	-0.8339179
-1.3378422	s d u	-0.2878109
-1.2757335	o d u	-0.9736962
-1.3334014	r d u	-0.27656785
-1.5686194	i d u	-0.61653507
-1.4333384	l d u	-0.31103918
-1.5153904	d d u	-0.26923093
-0.7979005	b d u	-0.29382998
-1.2239343	w d u	-0.26923093
-1.0008816	<w> f u	-0.8335634
-0.7445765	k f u	-0.31103918
-0.728558	e f u	-0.79904544
-0.627344	m f u	-0.4359779
-0.6254533	h f u	-0.980046
-0.89230025	n f u	-0.63176
-1.3370101	u f u	-0.26923093
-0.6995777	g f u	-0.6120692
-0.9579281	s f u	-0.6523863
-1.3136263	o f u	-0.29382998
-0.6884239	p f u	-0.53288794
-1.0098988	r f u	-0.69563675
-1.3617159	i f u	-0.71498895
-0.57871646	t f u	-1.3902204
-0.9825915	l f u	-0.6740412
-0.90070343	d f u	-0.5057183
-1.1009651	f f u	-0.6740412
-0.7198829	y f u	-0.4359779
-0.96058124	w f u	-0.53288794
-1.0487351	<w> b u	-1.0925033
-0.96257675	e b u	-0.4394055
-1.0144582	m b u	-0.6868838
-0.805586	n b u	-0.7709512
-1.2188078	u b u	-0.5261849
-1.2163925	a b u	-0.5847362
-0.52489954	s b u	-0.9565878
-1.2135634	o b u	-0.5261849
-1.0468348	p b u	-0.26923093
-1.1348541	r b u	-0.35962772
-1.1650407	i b u	-0.7742996
-0.96583796	t b u	-0.30020377
-1.1178974	l b u	-0.30159828
-0.7890591	d b u	-0.35657895
-1.2764317	b b u	-0.26923093
-0.88117516	y b u	-0.29761416
-1.1713623	w b u	-0.4359779
-1.1369494	<w> y u	-0.28028327
-1.2901134	u y u	-0.26923093
-1.8532765	a y u	-0.26923093
-1.8886529	r y u	-0.26923093
-0.9643629	i y u	-0.26923093
-1.8097861	t y u	-0.26923093
-1.7750909	l y u	-0.26923093
-1.4272037	e x u	-0.4116401
-1.3603978	u x u	-0.4359779
-1.1220027	<w> v u	-0.6012338
-1.638382	e v u	-0.26923093
-1.1300299	n v u	-0.6120692
-1.3705679	a v u	-0.2840308
-1.2663865	i v u	-0.27842152
-1.184415	<w> w u	-0.26923093
-1.4150848	k w u	-0.2878109
-1.8569343	e w u	-0.26923093
-1.377032	h w u	-0.26923093
-1.5244378	s w u	-0.26923093
-1.7615565	o w u	-0.26923093
-1.260976	t w u	-0.31103918
-0.09599658	<w> q u	-1.3574154
-0.031384103	e q u	-1.3066726
-0.0864824	c q u	-0.737008
-0.09599658	h q u	-0.2878109
-0.09394312	n q u	-1.0552372
-0.07710277	u q u	-0.3971138
-0.08638574	a q u	-0.65782666
-0.03684258	s q u	-1.2257506
-0.07710277	o q u	-0.45084536
-0.056506302	r q u	-0.6875721
-0.0487109	i q u	-1.0056924
-0.0864824	l q u	-0.28152886
-0.0864824	d q u	-0.31103918
-0.09599658	x q u	-0.31103918
-1.0522435	<w> z u	-0.28152886
-1.4510486	e z u	-0.2878109
-1.3426665	u z u	-0.26923093
-1.4548362	a z u	-0.26923093
-1.5480939	i z u	-0.26923093
-1.1716325	l z u	-0.26923093
-1.4500053	z z u	-0.26923093
-1.396785	</w> <w> g	-1.9358667
-2.048433	c k g	-0.2878109
-1.8500041	n k g	-0.26923093
-1.3980712	<w> e g	-0.35640353
-1.7649571	k e g	-0.26923093
-1.8698447	e e g	-0.2878109
-1.570964	m e g	-0.77732503
-1.9616042	c e g	-0.26923093
-1.941219	h e g	-0.31103918
-1.6306129	n e g	-0.5734161
-1.8425562	u e g	-0.26923093
-1.9290648	g e g	-0.26923093
-1.6686794	a e g	-0.26923093
-1.589906	s e g	-0.5206022
-1.5900311	o e g	-0.26923093
-1.4477295	p e g	-0.28707704
-1.4090695	r e g	-0.9576116
-1.6414262	i e g	-0.3326717
-1.5989261	t e g	-0.589894
-1.5797906	l e g	-0.85148036
-1.7916179	d e g	-0.567351
-1.6656234	f e g	-0.31103918
-1.6863408	b e g	-0.4295983
-1.6855729	y e g	-0.26923093
-1.5431794	x e g	-0.26923093
-1.602307	v e g	-0.439958
-1.5091499	w e g	-0.28152886
-1.5914868	m c g	-0.27656785
-2.3526802	a c g	-0.26923093
-2.0091188	c h g	-0.29382998
-1.914602	g h g	-0.26923093
-2.279014	t h g	-0.26923093
-1.2068634	<w> n g	-0.26923093
-1.4127464	e n g	-0.8080481
-1.4233524	h n g	-0.26923093
-1.6571249	n n g	-0.26923093
-1.0477316	u n g	-0.78632885
-1.2400849	a n g	-1.0913408
-1.2548027	o n g	-0.82523453
-1.6106182	r n g	-0.26923093
-1.0852787	i n g	-2.117533
-1.0364267	l n g	-0.26923093
-1.436694	y n g	-0.2878109
-1.3880528	w n g	-0.2878109
-1.2479842	<w> u g	-0.31103918
-1.5938338	e u g	-0.4359779
-1.547722	m u g	-0.49794996
-1.272875	h u g	-0.40777332
-1.4751599	n u g	-0.27533635
-1.1827296	j u g	-0.6523863
-1.5512699	g u g	-0.28152886
-1.0921341	a u g	-0.9561338
-1.6385683	s u g	-0.68180954
-1.0803468	o u g	-1.1513506
-1.5299845	p u g	-0.2878109
-1.1719908	r u g	-0.5079256
-1.7426144	t u g	-0.2840308
-1.4273244	l u g	-0.53591496
-1.4988067	d u g	-0.26923093
-1.2544379	f u g	-0.48276377
-1.3487296	b u g	-0.3629802
-1.2912439	y u g	-0.2878109
-1.1996512	e g g	-0.5324948
-1.8357216	n g g	-0.26923093
-0.84566706	u g g	-0.91107213
-0.9862633	a g g	-0.92399865
-1.1118224	o g g	-0.4947062
-1.095515	i g g	-0.7268882
-1.3765167	<w> a g	-0.8174711
-1.2178864	k a g	-0.6318255
-1.4288414	e a g	-0.65942454
-1.2819682	m a g	-0.8775028
-1.5722786	c a g	-0.4139589
-1.3267548	h a g	-0.4505435
-1.3113354	n a g	-0.65532
-1.5292816	j a g	-0.28963217
-1.3955092	u a g	-0.3971138
-1.4030384	g a g	-0.5455257
-1.302173	s a g	-0.7114475
-1.570995	o a g	-0.27842152
-1.2357886	p a g	-0.69708496
-1.2618362	r a g	-0.91274995
-1.4535131	i a g	-0.5268233
-1.2102007	t a g	-0.8478023
-1.3331687	l a g	-0.64380115
-1.4134641	d a g	-0.47378796
-1.7350358	f a g	-0.26923093
-1.2572229	b a g	-0.3234012
-1.4679192	y a g	-0.3971138
-1.31128	x a g	-0.4477263
-1.5208243	v a g	-0.4809057
-1.4016799	w a g	-0.56276953
-1.4189326	z a g	-0.28152886
-1.4733825	k s g	-0.26923093
-2.283031	e s g	-0.26923093
-1.9989886	n s g	-0.2878109
-2.1787426	u s g	-0.26923093
-2.2813854	a s g	-0.26923093
-2.2356634	o s g	-0.26923093
-1.896938	p s g	-0.26923093
-2.1576872	i s g	-0.54324186
-1.3733898	<w> o g	-0.27842152
-1.704107	k o g	-0.26923093
-1.6043915	e o g	-0.8339179
-1.4675912	m o g	-0.5728576
-1.7359377	c o g	-0.8253089
-1.7203525	h o g	-0.3782947
-1.4353416	n o g	-0.6523863
-1.5405359	j o g	-0.26923093
-1.6204551	g o g	-0.3326717
-1.7419686	s o g	-0.26923093
-1.4702156	o o g	-0.26923093
-1.545827	p o g	-0.439958
-1.2702495	r o g	-0.75281096
-1.378201	i o g	-0.8742351
-1.4197102	t o g	-0.70846325
-1.3165917	l o g	-1.1010134
-1.4406012	d o g	-0.33029538
-1.5922759	f o g	-0.439958
-1.8146652	b o g	-0.332819
-1.3950793	y o g	-0.26923093
-1.2730412	x o g	-0.2878109
-1.688975	v o g	-0.26923093
-1.5107117	z o g	-0.26923093
-1.8952416	m p g	-0.2878109
-1.9350882	u p g	-0.31103918
-2.1613429	a p g	-0.26923093
-2.1653502	o p g	-0.26923093
-2.0530584	i p g	-0.26923093
-1.4301838	e r g	-0.8869964
-1.4505045	u r g	-0.8697162
-1.8976226	g r g	-0.26923093
-1.4759955	a r g	-0.88736224
-1.3872101	o r g	-0.920946
-1.6148187	i r g	-0.63625264
-1.3293421	<w> i g	-0.6875721
-1.000328	e i g	-1.0397146
-1.4415139	m i g	-0.6651159
-1.8959576	c i g	-0.53288794
-1.4094708	h i g	-0.8437493
-1.2127148	n i g	-0.68908453
-1.3240571	j i g	-0.2878109
-1.6858473	u i g	-0.26923093
-1.786174	g i g	-0.37301123
-1.4117274	a i g	-0.6160493
-1.3240618	s i g	-1.0805006
-1.6903031	o i g	-0.4359779
-1.6123767	p i g	-0.3628875
-1.2189386	r i g	-0.9279047
-1.44064	t i g	-0.73486125
-1.1679115	l i g	-1.1162323
-1.3716077	d i g	-0.5512719
-1.3129691	f i g	-0.62861305
-1.3377559	b i g	-0.39711383
-1.4697285	x i g	-0.26923093
-1.4487859	v i g	-0.5220525
-1.3233855	w i g	-0.34032866
-1.3795414	z i g	-0.26923093
-1.950646	n t g	-0.26923093
-2.1591291	u t g	-0.29382998
-2.2320378	s t g	-0.26923093
-2.223708	o t g	-0.2878109
-1.8981508	r t g	-0.2878109
-2.176831	i t g	-0.26923093
-1.6035504	t t g	-0.26923093
-2.149415	e l g	-0.3971138
-1.665782	u l g	-0.56091666
-1.8689507	a l g	-0.49577862
-1.941167	o l g	-0.3629802
-1.8202302	i l g	-0.35657895
-1.695749	l l g	-0.26923093
-1.8856093	y l g	-0.26923093
-1.3571699	e d g	-0.73352706
-1.7238863	n d g	-0.28152886
-1.1859003	u d g	-0.8652494
-1.858696	a d g	-0.54324186
-1.262205	o d g	-0.6153656
-1.4419163	i d g	-1.0299948
-1.9485416	a f g	-0.2878109
-1.780943	l f g	-0.26923093
-2.122624	u b g	-0.2878109
-1.4656074	c y g	-0.26923093
-1.5633011	h y g	-0.26923093
-1.5802006	n y g	-0.26923093
-1.9095501	a y g	-0.26923093
-1.6367396	s y g	-0.26923093
-1.7596617	r y g	-0.26923093
-1.6997929	t y g	-0.26923093
-1.823588	l y g	-0.26923093
-1.4205506	d y g	-0.26923093
-1.5328954	b y g	-0.26923093
-1.1668764	x y g	-0.2878109
-1.2808198	z y g	-0.2878109
-1.5839546	i x g	-0.26923093
-1.9475858	o w g	-0.26923093
-1.5824279	t z g	-0.26923093
-1.376985	</w> <w> a	-1.8359536
-1.1098092	<w> k a	-0.5261547
-0.76509035	k k a	-0.26923093
-1.1654418	e k a	-0.26923093
-1.1925321	c k a	-0.48204058
-0.91116077	h k a	-0.31103918
-1.079758	n k a	-0.29855403
-1.095531	u k a	-0.28152886
-1.028992	a k a	-0.36972016
-0.9710959	s k a	-0.29391193
-1.1411936	o k a	-0.27975056
-0.97551155	p k a	-0.26923093
-1.0752025	r k a	-0.44700366
-0.7537017	i k a	-0.5114809
-0.7186069	t k a	-0.2878109
-1.0875323	l k a	-0.376878
-0.28012773	f k a	-0.26923093
-0.83980656	y k a	-0.2878109
-1.3957839	<w> e a	-0.93917143
-1.7629337	k e a	-0.26923093
-1.8676808	e e a	-0.53288794
-1.21337	m e a	-0.6974562
-1.2397656	c e a	-0.624173
-0.93582827	h e a	-1.2081015
-1.2903258	n e a	-0.5970139
-1.4523629	j e a	-0.37798598
-1.8399386	u e a	-0.376878
-1.2666235	g e a	-0.6041622
-1.3468696	a e a	-0.30020377
-1.3855333	s e a	-0.6368884
-1.7382874	o e a	-0.26923093
-1.2368038	p e a	-0.92566764
-1.1971406	r e a	-1.2153418
-1.451675	t e a	-0.7184185
-1.3077359	l e a	-0.91534436
-1.3759962	d e a	-0.6576519
-1.3910177	f e a	-0.90873253
-1.092505	b e a	-0.7488831
-1.3713284	y e a	-0.65112364
-1.3639212	v e a	-0.44700366
-1.2560861	w e a	-0.74065214
-1.5805573	z e a	-0.47629505
-0.98179656	<w> m a	-1.3584361
-0.5420548	k m a	-0.64776546
-0.9002262	e m a	-0.8927146
-0.8954622	m m a	-0.7217297
-0.5278432	c m a	-0.26923093
-0.65335166	h m a	-0.6461959
-0.6719093	n m a	-0.4451214
-1.0965837	u m a	-0.75120723
-0.52968705	g m a	-0.517012
-0.9940967	a m a	-0.80098116
-0.5872172	s m a	-0.8191222
-0.90049934	o m a	-0.7873194
-0.33371547	p m a	-0.53288794
-0.81162274	r m a	-0.993428
-0.94935226	i m a	-0.9340957
-0.49674666	t m a	-0.68668824
-0.7639121	l m a	-0.65599984
-0.6155551	d m a	-0.46499395
-0.39323464	f m a	-0.3971138
-0.9439195	b m a	-0.3971138
-0.6796016	y m a	-0.5281457
-0.53226113	w m a	-0.5057183
-0.39323464	z m a	-0.2878109
-1.0323516	<w> c a	-1.3967793
-0.5383488	k c a	-0.2878109
-1.0360197	e c a	-0.56162834
-0.9310701	m c a	-0.2840308
-0.76828825	c c a	-0.41135427
-0.8935443	h c a	-0.26923093
-0.9852197	n c a	-0.38812813
-1.1224848	u c a	-0.6012338
-1.18872	a c a	-0.49768597
-0.9426295	s c a	-0.838478
-1.0118967	o c a	-0.91759765
-0.907484	r c a	-0.500524
-0.93351555	i c a	-1.4948971
-0.7789587	t c a	-0.4139589
-0.8527156	l c a	-0.34032866
-0.69881046	d c a	-0.4209721
-0.5383488	f c a	-0.26923093
-0.51095754	b c a	-0.26923093
-1.170349	y c a	-0.26923093
-0.8158527	x c a	-0.30159828
-0.47918594	w c a	-0.28152886
-1.0027288	<w> h a	-1.1561854
-0.78474593	k h a	-0.28588217
-0.81661016	e h a	-0.5081035
-0.85243726	m h a	-0.26923093
-0.99544775	c h a	-1.064206
-0.65083224	n h a	-0.42904782
-0.9644276	u h a	-0.26923093
-0.83483154	g h a	-0.5178821
-0.8868846	a h a	-0.29465497
-0.84363794	s h a	-0.8072818
-0.842392	o h a	-0.34673545
-0.74969965	p h a	-0.7099817
-0.66927177	r h a	-0.3791701
-0.6677951	i h a	-0.28152886
-1.0213581	t h a	-0.660125
-0.8191345	l h a	-0.37301123
-0.56734824	d h a	-0.27329165
-0.68568546	f h a	-0.2878109
-0.90409255	x h a	-0.68180954
-0.8340456	w h a	-0.38273245
-0.84737813	z h a	-0.26923093
-1.101763	<w> n a	-0.79832155
-0.95888674	k n a	-0.29396316
-1.1909792	e n a	-0.75285226
-0.90284455	m n a	-0.376878
-0.941191	c n a	-0.26923093
-0.973035	h n a	-0.27975056
-1.005165	n n a	-0.47018725
-1.17515	u n a	-0.5371454
-0.7137981	g n a	-0.68936986
-1.1531332	a n a	-0.8610281
-0.8095562	s n a	-0.4810763
-1.0992765	o n a	-1.2189468
-1.1110682	r n a	-0.7801244
-1.1585336	i n a	-1.1692787
-1.3781446	t n a	-0.28152886
-0.8033136	d n a	-0.45251608
-0.8027415	f n a	-0.26923093
-0.941191	b n a	-0.26923093
-1.2101299	y n a	-0.5560624
-0.5537215	x n a	-0.26923093
-1.2438501	w n a	-0.26923093
-0.7282474	<w> j a	-0.61554986
-0.47991768	k j a	-0.26923093
-0.656127	e j a	-0.28152886
-0.67761093	n j a	-0.27842152
-0.8234151	u j a	-0.2878109
-0.54407305	a j a	-0.2840308
-0.24292232	p j a	-0.26923093
-0.67571676	r j a	-0.26923093
-0.52006066	i j a	-0.35657895
-0.5831249	d j a	-0.27842152
-0.24292232	y j a	-0.2878109
-1.6433685	c u a	-0.30020377
-1.4172755	h u a	-0.27842152
-1.2415618	n u a	-0.6077025
-1.33405	j u a	-0.4359779
-0.8084232	g u a	-0.6950123
-1.9560719	a u a	-0.26923093
-1.0645525	s u a	-0.626862
-1.9015728	o u a	-0.26923093
-1.7113725	p u a	-0.26923093
-1.7947769	r u a	-0.26923093
-1.6239753	i u a	-0.26923093
-1.0280718	t u a	-1.1759043
-1.6673133	l u a	-0.65112364
-1.2333648	d u a	-0.84427184
-1.7873713	b u a	-0.26923093
-0.99698055	x u a	-0.6120692
-0.58305836	q u a	-0.8753641
-1.0539744	<w> g a	-1.0090218
-0.9414903	e g a	-0.8619554
-0.59805393	h g a	-0.2878109
-1.067529	n g a	-0.6043392
-0.90516514	u g a	-0.6234674
-1.1143724	g g a	-0.4209721
-0.9296893	a g a	-0.5523073
-0.7380426	s g a	-0.26923093
-0.95725286	o g a	-0.65524113
-0.8666191	p g a	-0.26923093
-1.0131567	r g a	-0.7626669
-1.0140388	i g a	-0.888535
-0.8661183	t g a	-0.28152886
-0.6486663	l g a	-0.40666905
-1.1308203	d g a	-0.28152886
-0.54516506	f g a	-0.26923093
-1.1531284	y g a	-0.26923093
-1.5971797	<w> a a	-0.26923093
-2.071531	h a a	-0.26923093
-2.0861866	g a a	-0.26923093
-1.3885782	a a a	-0.26923093
-1.9957808	s a a	-0.35657895
-2.4302907	l a a	-0.26923093
-1.5637132	z a a	-0.28152886
-1.2957196	<w> s a	-1.0753857
-1.3476129	k s a	-0.26923093
-1.2583752	e s a	-0.29555348
-1.5629725	m s a	-0.26923093
-1.1455364	h s a	-0.28152886
-1.3004701	n s a	-0.63965976
-1.2526153	u s a	-0.49396986
-1.3863193	g s a	-0.26923093
-1.2342577	a s a	-0.4972051
-1.195636	s s a	-0.59761465
-1.1782839	o s a	-0.4292254
-1.2480047	p s a	-0.27656785
-1.1864173	r s a	-0.4787642
-1.2905362	i s a	-0.70544076
-1.5895936	t s a	-0.30020377
-1.4454731	l s a	-0.439958
-1.6214279	d s a	-0.26923093
-1.3336191	f s a	-0.26923093
-1.6576297	y s a	-0.26923093
-1.3540844	w s a	-0.26923093
-1.4236329	<w> o a	-0.54324186
-1.7701278	k o a	-0.26923093
-1.7333372	m o a	-0.47629505
-1.2220423	c o a	-0.67568916
-1.6256138	h o a	-0.28937152
-2.048118	n o a	-0.26923093
-1.5975245	j o a	-0.28152886
-1.5276278	g o a	-0.29396316
-1.9422063	s o a	-0.35626712
-1.8385812	p o a	-0.29382998
-1.4149578	r o a	-0.8229225
-1.9613757	i o a	-0.2878109
-1.8278422	t o a	-0.4139589
-1.2535686	l o a	-0.80414337
-1.705351	d o a	-0.26923093
-1.8226044	f o a	-0.4477263
-0.95885664	b o a	-1.0387743
-1.5624698	z o a	-0.28152886
-1.0968424	<w> p a	-1.2937069
-0.6676997	k p a	-0.26923093
-0.98188096	e p a	-0.77795833
-1.0281928	m p a	-0.92055017
-0.9140868	h p a	-0.26923093
-1.0071335	n p a	-0.32112223
-1.2320237	u p a	-0.49286348
-1.0925056	a p a	-0.5543652
-0.86689645	s p a	-0.769571
-1.240583	o p a	-0.49061108
-1.1374391	p p a	-0.47130597
-1.0120523	r p a	-0.29899344
-1.0679666	i p a	-0.6723866
-0.9230245	t p a	-0.2878109
-0.95257163	l p a	-0.27975056
-0.7809308	d p a	-0.26923093
-0.78721774	b p a	-0.2878109
-1.2312049	y p a	-0.2878109
-0.75974405	x p a	-0.7089792
-0.9140868	w p a	-0.26923093
-0.9670839	<w> r a	-1.0192498
-0.60514474	k r a	-0.32758307
-1.1843505	e r a	-1.2452161
-0.42521325	m r a	-0.4477263
-0.6893809	c r a	-0.8430289
-0.87146306	h r a	-0.5352861
-0.6386123	n r a	-0.2851131
-1.1036873	u r a	-0.9766663
-0.6635305	g r a	-1.1781234
-1.2621293	a r a	-0.9143537
-0.7817835	s r a	-0.37301123
-1.1542027	o r a	-0.9512547
-0.7976801	p r a	-0.7005923
-0.9167298	r r a	-0.69205374
-0.98458266	i r a	-0.6088979
-0.72018015	t r a	-1.2746267
-0.9354888	l r a	-0.26923093
-0.7984579	d r a	-0.6662995
-0.8024821	f r a	-0.8619778
-0.8540194	b r a	-0.74750566
-0.73127836	y r a	-0.517012
-0.9938208	v r a	-0.26923093
-1.2550875	w r a	-0.40038154
-0.6818634	z r a	-0.26923093
-1.3268262	k i a	-0.3807795
-1.3959864	e i a	-0.3807795
-1.3592178	m i a	-0.52189875
-1.1417414	c i a	-1.12561
-1.4083441	h i a	-0.48802847
-1.3076794	n i a	-1.0164382
-1.5250002	u i a	-0.26923093
-1.0174913	g i a	-0.62940484
-1.9192873	a i a	-0.26923093
-1.1633676	s i a	-0.86950517
-1.4063821	o i a	-0.30020377
-1.1101131	p i a	-0.6340332
-1.3150696	r i a	-1.1759043
-1.3208741	i i a	-0.26923093
-1.2642916	t i a	-1.1379312
-1.3968552	l i a	-0.9320624
-1.194708	d i a	-0.905825
-1.4177679	f i a	-0.49286348
-1.0730855	b i a	-0.6222303
-1.1372894	x i a	-0.439958
-1.1884204	v i a	-0.737008
-1.7617023	w i a	-0.26923093
-1.3778367	z i a	-0.26923093
-1.1534649	<w> t a	-0.92876714
-0.91782516	k t a	-0.28152886
-1.0894585	e t a	-0.77874887
-1.017236	c t a	-0.7236527
-0.859033	h t a	-0.27533635
-1.0135523	n t a	-1.134318
-1.153188	u t a	-0.5997077
-1.1292711	a t a	-0.6343452
-0.902596	s t a	-1.260725
-1.1272442	o t a	-0.6120692
-1.2478142	p t a	-0.37558523
-1.1734295	r t a	-0.7933391
-1.1108242	i t a	-1.2316655
-1.0783234	t t a	-0.6732589
-1.1888728	l t a	-0.53489834
-1.2420717	d t a	-0.26923093
-1.3224597	f t a	-0.28152886
-1.1838387	b t a	-0.6120692
-1.0887581	x t a	-0.28152886
-0.9423756	<w> l a	-1.0132492
-0.851369	k l a	-0.35009363
-1.1098161	e l a	-0.76623476
-1.2947791	m l a	-0.2878109
-0.6702094	c l a	-0.9165523
-0.9491321	h l a	-0.47629505
-0.90331733	n l a	-0.45577043
-1.0175676	u l a	-1.275036
-0.87013286	g l a	-0.67790556
-1.1455697	a l a	-0.69534385
-0.9138761	s l a	-0.750818
-1.0021704	o l a	-0.8278682
-0.563461	p l a	-1.1635853
-1.0084636	r l a	-0.5521687
-1.1196126	i l a	-0.769659
-0.87085015	t l a	-0.61479217
-1.079224	l l a	-0.87560976
-1.0692303	d l a	-0.4145709
-0.75169337	f l a	-0.7156097
-0.9960982	b l a	-0.66207755
-0.8124172	y l a	-0.36972016
-0.6866284	v l a	-0.26923093
-1.1572466	w l a	-0.26923093
-0.27878225	q l a	-0.26923093
-1.0816494	<w> d a	-0.8337284
-0.48487133	k d a	-0.28152886
-1.266639	e d a	-0.4492253
-0.84760994	m d a	-0.26923093
-0.863009	c d a	-0.26923093
-0.6570571	h d a	-0.26923093
-1.1657051	n d a	-0.8103748
-0.27847585	j d a	-0.26923093
-1.0488129	u d a	-0.31646803
-0.7797037	g d a	-0.26923093
-1.1156471	a d a	-0.5238224
-0.3736948	s d a	-0.4694497
-1.2919066	o d a	-0.43998823
-0.51221657	p d a	-0.28152886
-1.0460402	r d a	-0.37747425
-0.9398125	i d a	-0.65095925
-0.9591897	t d a	-0.26923093
-1.1222715	l d a	-0.4145709
-0.8097624	d d a	-0.3561957
-0.7579222	b d a	-0.26923093
-0.923204	y d a	-0.31103918
-0.94522715	w d a	-0.26923093
-1.0014936	<w> f a	-1.0592613
-0.74489284	k f a	-0.30020377
-0.9939226	e f a	-0.43998823
-0.5346673	c f a	-0.26923093
-1.0051649	h f a	-0.2878109
-0.8072793	n f a	-0.4538626
-1.3376304	u f a	-0.6120692
-0.9802782	a f a	-0.34032866
-1.1437932	s f a	-0.5491025
-0.903401	o f a	-0.3326717
-1.0366004	p f a	-0.26923093
-0.87901497	r f a	-0.55117255
-1.362256	i f a	-0.28152886
-0.7159929	t f a	-0.5491025
-0.8894374	l f a	-0.27656785
-0.7521846	d f a	-0.2840308
-1.1014345	f f a	-0.3260966
-1.0604401	y f a	-0.26923093
-0.961114	w f a	-0.26923093
-1.0040113	<w> b a	-1.2255317
-0.9725671	k b a	-0.26923093
-1.0550807	e b a	-0.488475
-0.9915913	m b a	-0.5809151
-0.78041303	h b a	-0.27656785
-0.79052424	n b a	-0.3363426
-1.059191	u b a	-0.3307955
-0.9725671	g b a	-0.26923093
-0.9363374	a b a	-0.4926083
-0.9271776	s b a	-0.43850648
-1.0510086	o b a	-0.5023334
-1.007399	p b a	-0.26923093
-0.97218305	r b a	-0.65434396
-1.0644181	i b a	-0.44637233
-0.79063225	t b a	-0.3628064
-0.8506236	l b a	-0.43597794
-0.88178146	d b a	-0.27975056
-0.6751802	f b a	-0.2878109
-1.2317774	b b a	-0.27533635
-1.1545465	y b a	-0.28152886
-0.6284427	w b a	-0.2960334
-1.0486556	<w> y a	-0.5360108
-1.1912215	k y a	-0.28152886
-1.2093089	e y a	-0.3628064
-1.4022105	c y a	-0.4359779
-1.3214923	h y a	-0.27656785
-1.2090387	n y a	-0.30020377
-1.0609857	a y a	-0.42991325
-0.79225063	o y a	-0.5753145
-1.4264553	p y a	-0.26923093
-1.4236959	r y a	-0.30020377
-0.90514493	i y a	-0.26923093
-1.4615014	t y a	-0.30020377
-1.2081915	l y a	-0.28152886
-0.9742709	d y a	-0.29382998
-1.4651036	b y a	-0.26923093
-1.1892796	w y a	-0.26923093
-0.8694539	<w> x a	-0.26923093
-0.8281095	e x a	-0.7299184
-1.2144043	u x a	-0.26923093
-1.1770661	a x a	-0.29382998
-0.8670746	o x a	-0.35657895
-1.3660218	i x a	-0.26923093
-0.9446564	<w> v a	-0.9202213
-0.71493804	e v a	-0.63438004
-0.7131544	n v a	-0.62509674
-0.70220697	u v a	-0.27656785
-0.7286117	a v a	-0.6812513
-0.8248986	o v a	-0.4708638
-0.7179797	r v a	-0.6040692
-0.65410936	i v a	-0.9283391
-0.49700537	t v a	-0.26923093
-0.604449	l v a	-0.40735793
-0.9960851	d v a	-0.91309917
-0.75038266	y v a	-0.26923093
-0.95938456	<w> w a	-1.1096699
-0.3880259	k w a	-0.35009363
-0.8544866	e w a	-0.7306283
-0.6452107	m w a	-0.26923093
-0.59636915	h w a	-0.5326702
-0.5337292	n w a	-0.5640092
-0.2621154	u w a	-0.2878109
-0.71337754	g w a	-0.31103918
-0.83400553	a w a	-0.6137036
-0.7498192	s w a	-0.50625825
-0.9687618	o w a	-0.37882596
-0.5612445	p w a	-0.28152886
-0.67763585	r w a	-0.66895473
-0.5151901	i w a	-0.27842152
-0.8156996	t w a	-0.41185296
-0.58679664	l w a	-0.44700366
-0.61661434	d w a	-0.49560577
-0.2621154	f w a	-0.2878109
-0.6452107	b w a	-0.2878109
-0.5327951	y w a	-0.40124616
-0.72981024	w w a	-0.26923093
-0.92053974	<w> z a	-0.27842152
-1.2677517	e z a	-0.2878109
-0.57067156	c z a	-0.30020377
-0.6657646	n z a	-0.5129932
-1.0098664	u z a	-0.26923093
-0.26699996	g z a	-0.26923093
-0.7135116	a z a	-0.48099858
-0.9747744	o z a	-0.2840308
-0.88118094	r z a	-0.27842152
-0.70786107	i z a	-1.2155163
-1.1788881	t z a	-0.26923093
-0.83811593	l z a	-0.26923093
-0.49359387	y z a	-0.27842152
-0.7660347	z z a	-0.3424087
-0.58975476	e k </w>	-1.2652817
-1.0402218	c k </w>	-2.180271
-0.94856465	h k </w>	-0.26923093
-1.0160213	n k </w>	-1.5742806
-0.9874979	u k </w>	-0.53288794
-0.99785835	a k </w>	-1.377986
-0.924683	s k </w>	-1.0891905
-0.9114825	o k </w>	-1.4871304
-1.0130177	r k </w>	-1.6192478
-0.9922626	i k </w>	-1.0380379
-0.97872984	l k </w>	-1.0380379
-0.8687178	y k </w>	-0.2878109
-0.994524	w k </w>	-0.2878109
-1.0376999	k e </w>	-1.9642516
-0.90320724	e e </w>	-1.833918
-1.2109457	m e </w>	-1.989254
-1.0568427	c e </w>	-2.4851959
-1.5650685	h e </w>	-1.4966757
-1.2163494	n e </w>	-2.456132
-1.4435645	j e </w>	-0.26923093
-0.9170355	u e </w>	-1.825144
-1.1043271	g e </w>	-2.2283697
-0.70674556	a e </w>	-1.1349479
-1.2079713	s e </w>	-2.3524318
-1.1274244	o e </w>	-1.0380379
-1.0940479	p e </w>	-1.6192478
-1.3033392	r e </w>	-2.404461
-0.91180074	i e </w>	-2.0128949
-1.1191007	t e </w>	-2.6077044
-1.1610057	l e </w>	-2.7803702
-1.1967885	d e </w>	-2.223084
-1.195377	f e </w>	-1.3110392
-1.1798202	b e </w>	-1.3902204
-1.019234	y e </w>	-0.8753106
-1.3303009	x e </w>	-0.2878109
-1.1492244	v e </w>	-2.3950193
-1.3597975	w e </w>	-0.8753106
-0.834214	z e </w>	-1.8713444
-1.0501492	e m </w>	-1.3524319
-0.94600755	m m </w>	-0.679016
-1.1249335	h m </w>	-0.679016
-0.88816607	u m </w>	-1.995286
-1.1131828	g m </w>	-0.2878109
-1.0223608	a m </w>	-1.8161892
-1.3671287	s m </w>	-2.1149514
-1.0253041	o m </w>	-1.7260125
-1.1170915	r m </w>	-1.4359779
-1.0119312	i m </w>	-1.3902204
-1.0058132	l m </w>	-0.980046
-0.7907939	b m </w>	-0.2878109
-1.5957495	y m </w>	-0.2878109
-1.1273323	e c </w>	-0.8339179
-1.4067881	n c </w>	-0.4359779
-1.789707	u c </w>	-0.26923093
-1.1987884	a c </w>	-1.2652817
-1.9185241	s c </w>	-0.26923093
-1.4223228	o c </w>	-0.6120692
-1.4024725	r c </w>	-0.2878109
-0.9843617	i c </w>	-2.5622716
-1.2920493	t c </w>	-0.2878109
-1.130287	k h </w>	-0.2878109
-0.96443236	e h </w>	-0.7370079
-1.0826019	c h </w>	-2.1103797
-1.0875807	h h </w>	-0.26923093
-1.2498108	n h </w>	-0.31103918
-0.5615733	u h </w>	-0.8339179
-0.98116845	g h </w>	-1.4966757
-0.7125701	a h </w>	-1.4359779
-1.2087475	s h </w>	-2.1194751
-1.255473	o h </w>	-0.2878109
-1.3247895	p h </w>	-1.1956458
-1.3429978	r h </w>	-0.26923093
-1.093862	i h </w>	-0.26923093
-0.8999976	t h </w>	-2.0794306
-1.0071893	l h </w>	-0.2878109
-1.4797285	w h </w>	-0.26923093
-1.1843673	e n </w>	-2.451966
-0.92734116	m n </w>	-0.679016
-0.84192514	h n </w>	-1.0380379
-0.94449425	n n </w>	-1.3252796
-1.2384932	u n </w>	-1.2141292
-1.4579974	g n </w>	-0.980046
-1.1089534	a n </w>	-2.6003308
-1.3860307	s n </w>	-0.26923093
-1.072277	o n </w>	-3.0149035
-1.1578295	r n </w>	-1.7734371
-1.1141208	i n </w>	-2.3404229
-0.66639787	l n </w>	-0.4359779
-0.99441063	d n </w>	-0.31103918
-1.0075676	y n </w>	-0.8753106
-1.0074581	w n </w>	-1.6664269
-1.2746669	e j </w>	-0.26923093
-1.301954	a j </w>	-0.26923093
-1.1528598	k u </w>	-0.31103918
-1.298327	e u </w>	-0.7370079
-1.671341	m u </w>	-0.26923093
-1.7563543	c u </w>	-0.26923093
-1.3834234	h u </w>	-0.4359779
-1.3194108	n u </w>	-0.53288794
-1.2982994	j u </w>	-0.2878109
-0.91590714	u u </w>	-0.26923093
-1.1262821	a u </w>	-1.2318579
-1.4881986	s u </w>	-0.679016
-1.522029	o u </w>	-0.6120692
-1.513773	r u </w>	-0.53288794
-1.5831944	i u </w>	-0.26923093
-1.2852209	t u </w>	-0.6120692
-1.4098312	l u </w>	-0.6120692
-1.6037564	d u </w>	-0.26923093
-1.6955618	f u </w>	-0.26923093
-1.7276816	b u </w>	-0.26923093
-1.2629777	y u </w>	-0.26923093
-1.1847997	v u </w>	-0.26923093
-0.8869897	z u </w>	-0.2878109
-1.3369423	e g </w>	-0.679016
-1.0064732	n g </w>	-3.3046224
-1.0022539	u g </w>	-0.8753106
