\data\
ngram 1=30
ngram 2=649
ngram 3=7370

\1-grams:
-2.6565945	<unk>	0
0	<s>	-0.37532234
-2.4264536	<w>	-0.3668976
-1.3819916	i	-1.0403785
-1.4155043	m	-0.7924027
-1.4155043	p	-0.8282678
-1.3984249	o	-1.0733578
-1.4332832	v	-0.66661286
-1.3819916	e	-1.1047479
-1.3984249	r	-0.8103197
-1.3984249	s	-0.96020424
-1.4155043	h	-0.7788928
-1.4332832	d	-0.7926768
-1.3984249	</w>	-1.1817076
-1.4518211	c	-0.7961847
-1.3984249	a	-1.088187
-1.5350703	z	-0.60742164
-1.3984249	l	-0.8466888
-1.3984249	y	-0.8662635
-1.4332832	g	-0.7725502
-1.3984249	n	-0.8267323
-1.4155043	w	-0.6897331
-1.4155043	b	-0.8042747
-1.3819916	u	-0.986156
-1.4155043	t	-0.92116547
-1.5586394	j	-0.6590657
-1.4332832	f	-0.7780836
-1.5586394	q	-0.68785
-1.8152502	x	-0.44451058
-1.4332832	k	-0.7152349

\2-grams:
-0.23642616	<s> <w>	-0.32391307
-0.029450234	</w> <w>	-3.0419948
-1.2803811	<w> i	-1.7982368
-1.6961521	i i	-0.4848127
-1.0534222	m i	-1.6461941
-1.1653645	p i	-1.402245
-1.3723869	o i	-1.2616554
-0.77959543	v i	-1.5178719
-1.4229069	e i	-1.1947868
-1.0738859	r i	-1.9427923
-1.2756218	s i	-1.7025316
-1.1391505	h i	-1.5230384
-1.1766931	d i	-1.7468851
-1.2233679	c i	-1.5237896
-1.4263575	a i	-1.5312797
-0.9547719	z i	-0.9192022
-1.1088617	l i	-1.9025323
-1.3116518	y i	-1.3507975
-1.223605	g i	-1.3458695
-1.1448913	n i	-1.6561027
-1.0295779	w i	-1.349073
-1.0773741	b i	-1.2969214
-1.3795531	u i	-1.2427993
-1.1964464	t i	-2.1476507
-1.1526219	j i	-0.4967119
-1.0249176	f i	-1.4727787
-1.5456617	q i	-0.32391307
-1.0244877	x i	-0.82260394
-1.0256599	k i	-1.2739415
-1.4209648	<w> m	-1.9992403
-1.3613309	i m	-1.6336951
-1.4308478	m m	-1.4393318
-1.4278047	p m	-0.62916386
-1.356626	o m	-1.6599267
-1.8684667	v m	-0.32391307
-1.3703332	e m	-1.6576356
-1.6119323	r m	-1.4205561
-1.3703406	s m	-1.6183444
-1.3198535	h m	-1.0023702
-1.5329409	d m	-1.1207654
-1.9470073	c m	-0.32391307
-1.3367814	a m	-1.5681812
-1.6978669	z m	-0.26358286
-1.5732589	l m	-1.0186353
-1.2606955	y m	-0.9302972
-1.3446801	g m	-0.8546194
-1.5848306	n m	-0.9494204
-1.6868843	w m	-0.6360804
-1.7010151	b m	-0.45385534
-1.2764953	u m	-1.4329199
-1.4641633	t m	-1.2083799
-1.7605684	f m	-0.45784557
-1.6751493	x m	-0.32391307
-1.5585982	k m	-0.81283784
-1.4209648	<w> p	-2.1404636
-1.3814746	i p	-1.2872754
-1.4308478	m p	-1.535233
-1.5868441	p p	-1.4968195
-1.356626	o p	-1.4442494
-1.7754285	v p	-0.23629473
-1.4257002	e p	-1.4050305
-1.6789899	r p	-1.13828
-1.3454666	s p	-1.6367313
-1.8062887	h p	-0.26925245
-1.658368	d p	-0.39753357
-1.9470073	c p	-0.40563145
-1.3898885	a p	-1.4912612
-1.5215415	l p	-0.70531404
-1.5392203	y p	-0.83759737
-1.764939	g p	-0.3441888
-1.5340592	n p	-0.75763005
-1.6868843	w p	-0.3899463
-2.0012543	b p	-0.24778034
-1.3828768	u p	-1.1195121
-1.7695041	t p	-0.44705915
-1.7775897	j p	-0.32391307
-1.9636066	f p	-0.32391307
-1.5912367	x p	-1.2016622
-1.8702976	k p	-0.42419833
-1.4134513	<w> o	-1.4372319
-1.4231836	i o	-1.934956
-1.0985283	m o	-1.4686825
-1.0993305	p o	-1.4911767
-1.4340395	o o	-1.4578241
-1.0312645	v o	-1.1246313
-1.4875529	e o	-1.0290401
-1.0574282	r o	-1.7443715
-1.2568338	s o	-1.397304
-1.0339035	h o	-1.5166643
-1.0913441	d o	-1.270735
-1.0780841	c o	-1.8151323
-1.572839	a o	-0.4778239
-0.9897061	z o	-0.55634546
-1.1100872	l o	-1.6133231
-1.3135219	y o	-0.7060605
-1.1068527	g o	-1.1495749
-1.2095373	n o	-1.4036138
-0.959524	w o	-1.1603073
-1.0172892	b o	-1.3626636
-1.556304	u o	-0.7193637
-1.1977096	t o	-1.6105275
-0.7694728	j o	-0.78995824
-1.0261006	f o	-1.3682337
-1.2518961	x o	-0.46538633
-1.0729791	k o	-0.69170207
-1.4286107	<w> v	-1.7597399
-1.4041418	i v	-1.8194956
-2.004083	m v	-0.32391307
-2.114397	p v	-0.32391307
-1.376402	o v	-1.6353714
-1.784112	v v	-0.32391307
-1.4271036	e v	-1.5616233
-1.6839637	r v	-1.4189281
-1.6506227	s v	-0.90583336
-1.9456756	h v	-0.26358286
-1.7438802	d v	-1.0375055
-2.0856504	c v	-0.32391307
-1.4105427	a v	-1.4454728
-1.7756195	z v	-0.32391307
-1.576839	l v	-1.251617
-1.9048752	y v	-0.25246105
-2.0491872	g v	-0.32391307
-1.7930477	n v	-1.4272211
-2.0119162	b v	-0.47986466
-1.6408888	u v	-0.71554124
-1.856145	t v	-0.28995913
-1.5603784	q v	-0.32391307
-1.6866821	x v	-0.32391307
-1.9388843	k v	-0.32391307
-1.4060656	<w> e	-1.6691383
-1.3210847	i e	-1.7292424
-1.0534222	m e	-1.7124467
-1.1653645	p e	-1.6541592
-1.3915168	o e	-0.80892557
-0.8040383	v e	-1.7665923
-1.3854542	e e	-1.4134156
-1.092271	r e	-2.040514
-1.2555109	s e	-1.7214653
-1.0933958	h e	-1.695843
-1.2275213	d e	-1.8111179
-1.143933	c e	-1.7117358
-1.4926018	a e	-0.74270964
-0.89493555	z e	-1.285435
-1.0727056	l e	-1.9645983
-1.232605	y e	-1.0261141
-1.1054101	g e	-1.6386148
-1.1074386	n e	-1.7951351
-0.98077023	w e	-1.3325758
-1.0161977	b e	-1.4614567
-1.3341606	u e	-1.2493855
-1.21664	t e	-2.0621042
-0.94605535	j e	-0.87652946
-1.0475016	f e	-1.3520557
-1.5456617	q e	-0.32391307
-1.0869321	x e	-0.83256376
-1.0963035	k e	-1.506694
-1.4134513	<w> r	-2.1750088
-1.3800094	i r	-1.382708
-1.5397788	m r	-0.4183105
-1.1668212	p r	-2.09137
-1.3207678	o r	-1.8730693
-1.414442	v r	-0.4848127
-1.3521577	e r	-2.2135744
-1.6077149	r r	-1.6434518
-1.7528188	s r	-0.65792835
-1.2502633	h r	-1.3231922
-1.1548867	d r	-1.5447332
-1.1969246	c r	-1.854041
-1.3355969	a r	-1.9064946
-1.689703	z r	-0.32391304
-1.6951499	l r	-0.48327133
-1.343561	y r	-0.8592398
-1.0578178	g r	-1.8780859
-1.5306616	n r	-0.971215
-1.1849298	w r	-1.0227596
-1.0367894	b r	-1.8205448
-1.2391047	u r	-1.6147879
-1.2615457	t r	-2.1976266
-1.768886	j r	-0.32391307
-1.1840305	f r	-1.6109128
-1.5819553	x r	-0.23629473
-1.5539575	k r	-0.76584196
-1.4134513	<w> s	-2.1460404
-1.2877884	i s	-1.8958468
-1.2327251	m s	-1.1392676
-1.2770553	p s	-1.2774245
-1.3207678	o s	-1.517259
-1.414442	v s	-0.7837152
-1.3521577	e s	-2.188578
-1.3405058	r s	-1.8301885
-1.3686234	s s	-1.7772455
-1.4432304	h s	-1.1022203
-1.3192691	d s	-1.4272523
-1.2878208	c s	-1.2654208
-1.3355969	a s	-1.7267959
-1.689703	z s	-0.4848127
-1.3931141	l s	-1.435247
-1.2106357	y s	-1.4039699
-1.3892746	g s	-1.4340829
-1.257482	n s	-1.8487852
-1.5778251	w s	-0.81359094
-1.2356554	b s	-1.1724194
-1.2567734	u s	-1.7184461
-1.2392081	t s	-1.6603489
-1.768886	j s	-0.32391307
-1.3815799	f s	-0.855048
-1.0898795	x s	-0.66090393
-1.2500315	k s	-1.1663911
-1.4209648	<w> h	-2.0160222
-1.7984769	i h	-0.38533676
-1.7987497	m h	-0.3467912
-1.2485225	p h	-1.533153
-1.5321434	o h	-0.7771024
-1.4669676	e h	-0.9269313
-1.6119323	r h	-0.8924258
-1.2996235	s h	-1.6475137
-1.5572402	h h	-0.4071809
-1.4357381	d h	-0.8232237
-1.100739	c h	-1.7373263
-1.3537723	a h	-0.8191005
-1.765873	z h	-0.2927012
-1.5732589	l h	-0.5513853
-1.5909908	y h	-0.7396952
-1.2274027	g h	-1.2803298
-1.5340592	n h	-1.0134349
-1.1514144	w h	-1.3267963
-1.9405419	b h	-0.3546931
-1.4076804	u h	-0.60053325
-1.1989764	t h	-1.6281401
-1.7775897	j h	-0.32391307
-1.7605684	f h	-0.3117175
-1.5912367	x h	-0.64555424
-1.3790078	k h	-0.72650707
-1.4286107	<w> d	-2.1189303
-1.307199	i d	-1.5201465
-1.6176103	m d	-0.3170955
-1.847338	p d	-0.29303628
-1.3401784	o d	-1.3037715
-1.784112	v d	-0.26358286
-1.338135	e d	-2.1625419
-1.5059477	r d	-1.4446847
-1.4893827	s d	-0.6676224
-1.9456756	h d	-0.37241876
-1.5953699	d d	-1.1707664
-1.720073	c d	-0.4071809
-1.3550075	a d	-1.4691476
-1.5247182	l d	-1.1585351
-1.4537536	y d	-0.75445616
-1.7715647	g d	-0.4386652
-1.5886816	n d	-1.7002645
-1.8328588	w d	-0.455787
-1.7063231	b d	-0.4103896
-1.360997	u d	-1.2105349
-1.7053738	t d	-0.44242305
-1.6689243	j d	-0.26358286
-1.9739877	f d	-0.28321338
-1.747134	k d	-0.38280565
-1.2877884	i </w>	-2.407577
-1.0546445	m </w>	-2.6952965
-1.1668212	p </w>	-2.3411999
-1.3377115	o </w>	-2.6048033
-1.0759112	v </w>	-1.5900801
-1.3521577	e </w>	-3.5313172
-1.1329591	r </w>	-3.1694694
-1.1843795	s </w>	-3.8397002
-1.1171265	h </w>	-2.701134
-1.1115093	d </w>	-3.5164936
-1.0993919	c </w>	-2.6375563
-1.3355969	a </w>	-2.8386452
-0.9897061	z </w>	-1.7856935
-1.1708636	l </w>	-3.0369706
-1.1090032	y </w>	-3.3949711
-1.0816436	g </w>	-3.3260643
-1.1462857	n </w>	-3.3526034
-1.1167092	w </w>	-2.1166868
-1.2052196	b </w>	-1.902199
-1.2567734	u </w>	-1.8911101
-1.1420654	t </w>	-3.2235487
-1.0740881	j </w>	-0.86804485
-1.0261006	f </w>	-2.0519614
-0.6477051	q </w>	-0.86804485
-0.9234313	x </w>	-1.8797306
-1.1243716	k </w>	-2.5541935
-1.4363935	<w> c	-2.1938334
-1.3447692	i c	-1.9655932
-1.5511475	m c	-0.58579874
-1.7495751	p c	-0.29303628
-1.3971215	o c	-1.4655694
-1.7929726	v c	-0.32391307
-1.390593	e c	-1.7458596
-1.6889951	r c	-1.3369249
-1.3250296	s c	-1.7841755
-1.7180442	h c	-0.2810794
-1.5403632	d c	-0.5034306
-1.5113782	c c	-1.2385577
-1.3562462	a c	-1.7107415
-1.7095479	l c	-0.87541914
-1.3496282	y c	-0.9346849
-1.5925668	n c	-1.8008494
-1.593624	w c	-0.3223283
-1.493757	b c	-0.41439432
-1.3625861	u c	-1.3389124
-1.4688613	t c	-1.2959428
-1.9187644	f c	-0.32391304
-1.6104168	x c	-0.8108046
-1.7543962	k c	-0.26358286
-1.4134513	<w> a	-1.839653
-1.3407418	i a	-1.6309383
-1.0147909	m a	-1.717008
-1.120683	p a	-1.5182914
-1.479474	o a	-1.1812711
-0.9907829	v a	-1.307834
-1.3867332	e a	-1.7382288
-1.0751154	r a	-1.8965478
-1.2981639	s a	-1.3856575
-1.0735246	h a	-1.5519857
-1.0720738	d a	-1.2927175
-1.057773	c a	-1.7447717
-1.7921163	a a	-0.33656868
-0.95626336	z a	-0.9599942
-1.091582	l a	-1.7403185
-1.2854266	y a	-0.85139966
-1.1068527	g a	-1.3715559
-1.1663631	n a	-1.638931
-0.93808174	w a	-1.2990232
-1.0572064	b a	-1.4114395
-1.4059176	u a	-1.2372841
-1.2615457	t a	-1.740206
-0.8075861	j a	-0.7441515
-1.0487477	f a	-1.1631987
-1.1633761	x a	-0.69141454
-1.0979156	k a	-0.87798184
-1.4689994	<w> z	-0.8151714
-1.3903712	i z	-1.6488824
-1.6363595	o z	-0.62500674
-1.9375942	v z	-0.32391307
-1.5229641	e z	-0.7432797
-1.5228744	r z	-0.32224503
-2.0482752	s z	-0.26358286
-2.064446	h z	-0.26358286
-2.0250087	d z	-0.32391304
-1.8595043	c z	-0.36791003
-1.5317537	a z	-1.0478723
-1.466464	z z	-0.83451414
-1.8163567	l z	-0.2801681
-2.1547444	y z	-0.63758713
-2.1175601	g z	-0.32391307
-1.7403498	n z	-0.7162529
-2.0374482	w z	-0.32391307
-1.574072	u z	-0.60384524
-1.6640675	t z	-0.72785074
-1.4134513	<w> l	-1.9380754
-1.3223639	i l	-1.642099
-1.4279468	m l	-0.72145116
-1.1918689	p l	-1.8262261
-1.3377115	o l	-1.6186107
-1.7669153	v l	-0.3117175
-1.3521577	e l	-1.7915102
-1.5501654	r l	-1.3017391
-1.3686234	s l	-1.5787041
-1.3555293	h l	-1.0177984
-1.3915735	d l	-1.4608866
-1.1969246	c l	-1.7951351
-1.3355969	a l	-1.9400383
-1.689703	z l	-0.8665765
-1.3931141	l l	-1.8382496
-1.1883173	y l	-0.8903742
-1.2254997	g l	-1.6218644
-1.4855455	n l	-1.0572468
-1.6802866	w l	-0.9075434
-1.268386	b l	-2.000572
-1.2751914	u l	-1.5159516
-1.3099945	t l	-1.6780267
-1.1840305	f l	-1.5841058
-1.5505121	q l	-0.23629473
-1.513248	x l	-0.4848127
-1.2880825	k l	-1.2007892
-1.4134513	<w> y	-1.0109277
-1.9944825	i y	-0.26358286
-1.3812526	m y	-0.927743
-1.3831317	p y	-0.7307766
-1.479474	o y	-0.9010611
-1.1818972	v y	-0.69012934
-1.4443787	e y	-1.223726
-1.1540891	r y	-1.3764989
-1.3686234	s y	-1.1643013
-1.3175343	h y	-1.175529
-1.3915735	d y	-0.94115883
-1.402918	c y	-1.0524936
-1.470992	a y	-1.2374324
-1.1089735	z y	-0.52288246
-1.091582	l y	-1.7554424
-2.0721126	y y	-0.26358286
-1.3421888	g y	-1.1094853
-1.4073282	n y	-0.9313308
-1.3655087	w y	-0.57051325
-1.2356554	b y	-0.783472
-1.7309009	u y	-0.32897088
-1.3099945	t y	-1.5841125
-1.768886	j y	-0.32391307
-1.5657265	f y	-1.3247095
-1.363202	x y	-0.49448815
-1.2880825	k y	-0.91288334
-1.4286107	<w> g	-1.9109316
-1.3434227	i g	-1.5394921
-2.004083	m g	-0.28321338
-1.6606319	p g	-0.45930463
-1.376402	o g	-1.297282
-1.3893026	e g	-1.2682682
-1.6839637	r g	-1.3628232
-1.702402	s g	-0.4810688
-1.9456756	h g	-0.36458588
-1.5953699	d g	-1.0317817
-2.016232	c g	-0.2717051
-1.3550075	a g	-1.5317869
-1.7756195	z g	-0.32391307
-1.636079	l g	-0.78972685
-1.3801817	y g	-0.40588623
-1.5094789	g g	-1.2008594
-1.4124537	n g	-2.1222193
-1.8953685	w g	-0.32391304
-2.0119162	b g	-0.27789804
-1.3845482	u g	-1.2177873
-1.6459408	t g	-0.3497899
-1.9096099	f g	-0.27789804
-1.6866821	x g	-0.32391307
-1.8799676	k g	-0.3117175
-1.4134513	<w> n	-1.5968013
-1.2877884	i n	-2.2593756
-1.4279468	m n	-0.7450785
-1.5237913	p n	-0.5517595
-1.3207678	o n	-2.074315
-1.7669153	v n	-0.32391307
-1.3521577	e n	-2.004854
-1.6740723	r n	-1.3033864
-1.6441104	s n	-1.0778372
-1.3971697	h n	-0.8010882
-1.4328063	d n	-0.95070714
-1.6281174	c n	-0.44463944
-1.3525406	a n	-2.032271
-1.6279155	l n	-0.8918401
-1.259039	y n	-0.9025065
-1.3892746	g n	-1.2138026
-1.4855455	n n	-1.5225286
-1.8146386	w n	-0.96321267
-1.6957712	b n	-0.39794374
-1.2751914	u n	-1.6485281
-1.394609	t n	-0.8988713
-1.768886	j n	-0.32391307
-1.6498138	f n	-0.3806733
-1.5505121	q n	-0.32391307
-1.5819553	x n	-0.32391307
-1.3297904	k n	-1.1343088
-1.4209648	<w> w	-1.8290386
-1.9222746	i w	-0.3467912
-1.9334006	m w	-0.31372648
-1.6561066	p w	-0.3441888
-1.3943101	o w	-1.3536179
-1.4458439	e w	-1.045681
-1.7583263	r w	-0.8084171
-1.4248194	s w	-1.2248642
-1.5572402	h w	-0.7568871
-1.4816257	d w	-0.8981885
-1.9470073	c w	-0.30872142
-1.429283	a w	-0.959416
-1.6978669	z w	-0.27789804
-1.6998965	l w	-0.67306465
-1.4130484	y w	-0.49656403
-1.6604612	g w	-0.37991706
-1.5848306	n w	-0.8390739
-1.6868843	w w	-0.28671923
-1.8044704	b w	-0.28671923
-2.2760494	u w	-0.23629473
-1.4290713	t w	-0.99578136
-1.9636066	f w	-0.26358286
-1.5554173	q w	-0.32391307
-1.5912367	x w	-0.23629473
-1.4310325	k w	-0.67730033
-1.4209648	<w> b	-2.0556154
-1.4025983	i b	-1.3587084
-1.4835469	m b	-1.3414817
-1.6561066	p b	-0.3531102
-1.4811821	o b	-1.2014388
-1.3703332	e b	-1.0554407
-1.6119323	r b	-1.20505
-1.3703406	s b	-0.84481156
-1.6255156	h b	-0.71087295
-1.5329409	d b	-0.6381843
-1.7144929	c b	-0.2717051
-1.3537723	a b	-1.5993917
-1.765873	z b	-0.26358286
-1.4335711	l b	-0.74491775
-1.3455741	y b	-0.6645771
-1.6604612	g b	-0.36290643
-1.4886067	n b	-0.8703438
-1.6868843	w b	-0.54804313
-1.4872587	b b	-1.0666571
-1.2764953	u b	-1.0945392
-1.502342	t b	-0.5856069
-1.6621324	j b	-0.26358286
-1.9006444	f b	-0.28671923
-1.5912367	x b	-0.32391307
-1.8702976	k b	-0.5865898
-1.4060656	<w> u	-1.716464
-1.4953319	i u	-1.0701952
-1.1723781	m u	-1.2417498
-1.2450144	p u	-1.2132732
-1.3540642	o u	-1.7234713
-1.3193786	v u	-0.57879406
-1.4229069	e u	-0.9295384
-1.1526148	r u	-1.3210181
-1.2967092	s u	-1.4101231
-1.1156709	h u	-1.0520763
-1.2850966	d u	-1.1012068
-1.1952441	c u	-1.3801082
-1.406346	a u	-1.2853576
-1.2708457	z u	-0.34836012
-1.1916882	l u	-1.2914461
-1.5839475	y u	-0.27929932
-1.223605	g u	-1.2653016
-1.3093464	n u	-0.9940198
-1.421812	w u	-0.3467912
-1.1486036	b u	-1.3101113
-1.784032	u u	-0.3441888
-1.260083	t u	-1.4058337
-0.80664504	j u	-0.9051305
-1.0475016	f u	-1.2995337
-0.33091217	q u	-1.8420367
-1.572868	x u	-0.46946302
-1.2855871	k u	-0.48273295
-1.4209648	<w> t	-1.9907669
-1.3236467	i t	-1.8795619
-1.5435355	m t	-0.4923421
-1.4278047	p t	-1.2941796
-1.3389432	o t	-1.4741197
-1.7754285	v t	-0.32391307
-1.3533423	e t	-1.6660327
-1.5538572	r t	-1.5874752
-1.2581607	s t	-2.0726635
-1.4982547	h t	-1.1188538
-1.5329409	d t	-0.61630696
-1.5044866	c t	-1.7182064
-1.3714552	a t	-2.0853066
-1.765873	z t	-0.32391307
-1.5215415	l t	-1.2755227
-1.2606955	y t	-0.8952886
-1.764939	g t	-0.9200355
-1.343264	n t	-2.0458605
-1.5830278	w t	-0.45385534
-1.8044704	b t	-0.48995078
-1.3159785	u t	-1.4242475
-1.6424046	t t	-1.5908526
-1.3842738	f t	-0.93620455
-1.3687869	x t	-0.91352093
-1.5585982	k t	-0.3147073
-1.4775482	<w> j	-1.6058904
-1.6418493	i j	-0.35164
-2.1998758	p j	-0.23629473
-2.0785134	o j	-0.68438506
-1.9521196	e j	-0.70986044
-2.122452	r j	-0.32391307
-2.3485463	s j	-0.32391307
-2.1592631	h j	-0.32391307
-2.036587	d j	-0.7595482
-2.1718585	c j	-0.32391307
-1.9355587	a j	-0.4456523
-2.0999565	y j	-0.23629473
-1.7458694	n j	-0.8643131
-1.8540602	b j	-1.0536631
-1.8235949	u j	-0.3771093
-2.302326	t j	-0.32391307
-2.1322968	f j	-0.32391307
-1.9429991	k j	-0.27789804
-1.4286107	<w> f	-1.9626098
-1.3627342	i f	-1.4465731
-1.6176103	m f	-0.5389977
-1.5906993	p f	-0.35977507
-1.5077312	o f	-1.1363149
-1.3893026	e f	-1.319206
-1.6161909	r f	-1.0070721
-1.6043644	s f	-0.72969854
-1.712266	h f	-0.6121305
-1.5953699	d f	-0.5025414
-2.016232	c f	-0.3117175
-1.497726	a f	-1.1382525
-1.8586106	z f	-0.32391307
-1.7046953	l f	-0.74311095
-1.7225689	y f	-0.35977507
-1.9119183	g f	-0.38012338
-1.5374835	n f	-1.4451197
-1.8328588	w f	-0.40067375
-2.0119162	b f	-0.32391307
-1.4940739	u f	-1.1034878
-1.4312317	t f	-0.9097479
-1.3390722	f f	-1.3041362
-1.6007209	x f	-0.30872142
-1.747134	k f	-0.44463944
-1.4775482	<w> q	-1.9319707
-1.6811241	i q	-1.2684901
-2.1998758	p q	-0.32391307
-2.328841	o q	-0.9405955
-1.8905485	e q	-1.4162294
-1.910826	r q	-1.057101
-1.7873652	s q	-1.4544522
-2.1592631	h q	-0.23629473
-2.103005	d q	-0.42871213
-2.0885768	c q	-1.2245921
-1.6896577	a q	-0.91578645
-1.9368473	z q	-0.32391307
-2.1494033	l q	-0.30377337
-2.2488873	y q	-0.32391307
-1.8318878	n q	-1.3787593
-2.2354176	u q	-0.5256221
-1.7631608	x q	-0.30377337
-2.094099	k q	-0.32391307
-1.552771	<w> x	-0.28879926
-1.6637782	i x	-0.75429153
-1.5620155	o x	-0.7799647
-1.6233773	e x	-1.4341898
-2.3573973	r x	-0.27789804
-2.5043366	s x	-0.32391307
-1.6737846	a x	-0.78589404
-2.0148385	n x	-0.4157384
-1.6395268	u x	-0.6643054
-1.6612625	x x	-0.23629473
-1.4286107	<w> k	-1.3839623
-1.4747518	i k	-1.0395356
-1.9427592	m k	-0.30872142
-1.744028	p k	-0.46149588
-1.4828968	o k	-1.0658301
-1.5142869	e k	-0.71840703
-1.7643039	r k	-1.063429
-1.3234823	s k	-1.2349515
-1.712266	h k	-0.29303628
-1.9713387	d k	-0.25246105
-1.4083633	c k	-1.4790968
-1.3550075	a k	-1.1434451
-1.7061871	z k	-0.30377337
-1.636079	l k	-0.8536842
-1.5423832	y k	-0.3034869
-1.9750378	g k	-0.32391307
-1.5886816	n k	-1.091548
-1.8953685	w k	-0.37461346
-2.0846915	b k	-0.32391307
-1.3845482	u k	-0.5056771
-1.856145	t k	-0.32215255
-1.7864715	j k	-0.32391307
-2.049875	f k	-0.32391307
-1.494152	k k	-0.38536286

\3-grams:
-0.000111375724	i </w> <w>
-0.000057418878	m </w> <w>
-0.00012978575	p </w> <w>
-0.00007075212	o </w> <w>
-0.00073236175	v </w> <w>
-0.0000083871355	e </w> <w>
-0.000019259587	r </w> <w>
-0.000004090002	s </w> <w>
-0.00005664219	h </w> <w>
-0.0000086718865	d </w> <w>
-0.0000656	c </w> <w>
-0.000041315972	a </w> <w>
-0.00046663813	z </w> <w>
-0.000026171503	l </w> <w>
-0.000011467636	y </w> <w>
-0.000013409139	g </w> <w>
-0.000012632537	n </w> <w>
-0.00021770378	w </w> <w>
-0.0003568034	b </w> <w>
-0.0003660524	u </w> <w>
-0.000016981527	t </w> <w>
-0.0038755967	j </w> <w>
-0.00025269468	f </w> <w>
-0.0038755967	q </w> <w>
-0.000375742	x </w> <w>
-0.0000794772	k </w> <w>
-0.25921524	<s> <w> i
-1.3976904	</w> <w> i
-3.2020922	<w> i i
-2.488604	e i i
-3.3916197	r i i
-2.714161	h i i
-3.0888753	d i i
-2.8143985	a i i
-2.75421	g i i
-3.1114087	n i i
-2.1365404	x i i
-2.228674	k i i
-0.7616385	<w> m i
-0.8978659	i m i
-0.7851591	m m i
-0.8921648	o m i
-0.7980664	e m i
-0.67563677	r m i
-1.0178685	s m i
-1.1096437	h m i
-0.34873796	d m i
-0.8324578	c m i
-0.8266794	a m i
-0.9459054	l m i
-1.477301	y m i
-1.5451874	g m i
-1.0986803	n m i
-1.289357	w m i
-0.5324632	b m i
-1.1524476	u m i
-1.5286798	t m i
-0.24595258	x m i
-1.5068432	k m i
-1.1405782	<w> p i
-1.3081696	i p i
-1.2438717	m p i
-0.7983885	p p i
-1.0202463	o p i
-0.98147595	e p i
-1.284437	r p i
-0.8058126	s p i
-0.9183411	h p i
-1.1978892	a p i
-1.2728767	l p i
-1.0447462	y p i
-0.5089718	g p i
-1.3342689	n p i
-1.094703	w p i
-1.2053806	u p i
-1.5022353	x p i
-0.4624701	k p i
-1.8809937	<w> o i
-3.0696099	i o i
-1.7696023	m o i
-1.2657185	p o i
-2.6072288	o o i
-1.2066398	v o i
-2.137556	e o i
-1.7446756	r o i
-1.8827956	s o i
-1.9263711	h o i
-1.8513429	d o i
-2.0245557	c o i
-1.2327404	a o i
-1.6142226	z o i
-1.6947986	l o i
-1.4569483	g o i
-1.7108347	n o i
-1.5481467	b o i
-1.5729891	u o i
-1.7850255	t o i
-0.8084843	j o i
-2.1029887	f o i
-1.8525527	k o i
-0.4762232	<w> v i
-0.7710807	i v i
-0.6773477	m v i
-0.8695744	o v i
-0.66329503	e v i
-0.47363636	r v i
-0.2661127	s v i
-0.431459	h v i
-0.56987906	d v i
-0.59870994	a v i
-0.68478376	l v i
-0.58379835	y v i
-0.53516304	n v i
-0.6522045	b v i
-0.8967823	u v i
-0.7484782	t v i
-0.21863475	q v i
-0.21863475	x v i
-0.46645004	k v i
-1.864882	<w> e i
-2.3159387	m e i
-2.362742	p e i
-1.6031607	o e i
-2.1911197	v e i
-1.9364423	e e i
-1.7877165	r e i
-2.0732098	s e i
-1.5370444	h e i
-2.4991357	d e i
-1.6186285	c e i
-2.249498	z e i
-2.0070834	l e i
-2.141401	y e i
-2.4346867	g e i
-2.0222383	n e i
-1.102072	w e i
-1.8727919	b e i
-2.091462	t e i
-1.8541974	f e i
-1.9529128	x e i
-2.3068523	k e i
-1.1023088	<w> r i
-1.1032044	i r i
-1.072374	m r i
-0.86195254	p r i
-0.99004155	o r i
-1.1461182	v r i
-1.0838999	e r i
-0.5813393	r r i
-1.5196388	s r i
-0.6252548	h r i
-0.7118414	d r i
-0.69608694	c r i
-0.9048029	a r i
-0.6670891	z r i
-1.2125854	l r i
-0.66811025	y r i
-0.9587319	g r i
-0.75504124	n r i
-0.38629547	w r i
-0.61463803	b r i
-0.9733102	u r i
-0.637621	t r i
-0.76132464	f r i
-0.8317699	k r i
-1.2102157	<w> s i
-1.2781949	i s i
-1.7595286	m s i
-1.1707139	p s i
-0.8536411	o s i
-1.5045213	e s i
-1.3149592	r s i
-0.6892796	s s i
-2.0794313	h s i
-1.8838073	d s i
-1.6540278	c s i
-1.2038155	a s i
-1.2655454	l s i
-1.028964	y s i
-2.1854029	g s i
-1.0559255	n s i
-1.7101376	w s i
-1.229769	b s i
-1.0610867	u s i
-2.0769444	t s i
-1.9112527	k s i
-1.0196112	<w> h i
-0.55220056	i h i
-0.63633585	p h i
-0.99342704	o h i
-1.3141506	e h i
-1.1069777	r h i
-0.6587701	s h i
-1.1840363	d h i
-0.8074356	c h i
-1.2978952	a h i
-0.752341	z h i
-1.3154463	l h i
-1.695361	g h i
-0.96658635	n h i
-0.36346996	w h i
-1.489222	u h i
-1.0051217	t h i
-0.53084886	x h i
-0.5120517	<w> d i
-0.9680679	i d i
-1.0016822	p d i
-0.81582844	o d i
-0.50026095	v d i
-1.3979528	e d i
-0.8199961	r d i
-0.78723884	s d i
-1.1423854	h d i
-0.58106446	d d i
-0.83929384	a d i
-0.8959625	l d i
-1.4521883	y d i
-0.80535465	n d i
-1.3121065	w d i
-0.80147135	b d i
-0.70357084	u d i
-1.1163902	t d i
-1.597016	<w> c i
-0.9795641	i c i
-1.1032265	m c i
-1.0170124	p c i
-1.0396895	o c i
-1.093971	e c i
-1.0907967	r c i
-1.1251793	s c i
-1.2225078	c c i
-1.0740263	a c i
-1.1557131	l c i
-1.6596669	y c i
-0.95036083	n c i
-1.0138307	u c i
-0.91114634	x c i
-1.6304789	<w> a i
-2.8047314	i a i
-1.5227449	m a i
-1.2881297	p a i
-1.4628077	v a i
-1.2808537	r a i
-1.3602512	s a i
-1.4448129	h a i
-1.4344962	d a i
-2.1433992	c a i
-2.1580408	z a i
-1.3346957	l a i
-1.3990166	g a i
-1.642516	n a i
-1.3023102	w a i
-1.765775	b a i
-1.802084	u a i
-1.1076199	t a i
-1.6208596	j a i
-0.975291	f a i
-1.7832204	k a i
-0.70481336	<w> z i
-0.84327894	i z i
-1.0790999	o z i
-1.1155088	e z i
-1.0131656	r z i
-0.62762994	h z i
-0.64233017	d z i
-0.62411386	a z i
-0.8004184	z z i
-0.9275095	l z i
-1.2174634	y z i
-0.8736514	n z i
-1.360919	u z i
-1.3494339	t z i
-0.65182054	<w> l i
-0.67848444	i l i
-0.7407479	m l i
-0.7289789	p l i
-0.84280205	o l i
-0.8920978	e l i
-0.6747113	r l i
-0.90299916	s l i
-0.8775947	h l i
-0.83908534	d l i
-0.8110993	c l i
-0.7781844	a l i
-0.75082445	z l i
-0.82752573	l l i
-0.81695145	y l i
-0.80936986	g l i
-0.65627986	n l i
-0.7431982	w l i
-0.9216695	b l i
-1.3430686	u l i
-1.0008359	t l i
-0.9066754	f l i
-0.7176318	k l i
-1.3476046	<w> y i
-1.3620579	p y i
-1.3366497	o y i
-1.3016925	v y i
-1.7104475	e y i
-1.4627078	r y i
-1.4393026	d y i
-2.1186676	c y i
-1.2086078	a y i
-1.9122449	l y i
-1.5039445	n y i
-1.8557591	b y i
-1.188165	u y i
-2.2927163	t y i
-0.43192297	f y i
-1.1620388	<w> g i
-1.1485081	i g i
-0.62641233	o g i
-0.8162138	e g i
-0.8009503	r g i
-1.0687095	s g i
-1.2029787	d g i
-1.0547822	a g i
-0.57057893	l g i
-0.98752445	y g i
-0.6934736	g g i
-1.7904221	n g i
-1.8267102	u g i
-0.9090643	<w> n i
-1.4497826	i n i
-0.6191959	m n i
-1.2391671	p n i
-1.214113	o n i
-0.5275224	v n i
-1.3396301	e n i
-0.833935	r n i
-1.028207	s n i
-0.8753637	h n i
-1.3821249	d n i
-0.53611714	c n i
-1.1300621	a n i
-1.7270793	l n i
-1.4878575	y n i
-0.6424029	g n i
-0.64084816	n n i
-1.080114	w n i
-1.0603241	u n i
-1.0677216	t n i
-0.97918403	f n i
-0.8272111	k n i
-0.68251777	<w> w i
-0.9676036	i w i
-0.8762369	m w i
-0.99698526	p w i
-1.1569891	o w i
-0.86924815	e w i
-0.9405631	r w i
-0.6178276	s w i
-0.9574346	h w i
-0.60252994	d w i
-1.2815444	a w i
-1.1641612	l w i
-1.0964202	y w i
-0.8094975	g w i
-0.6397633	n w i
-0.43103734	t w i
-1.4489369	k w i
-1.1795313	<w> b i
-0.7707418	i b i
-0.91050744	m b i
-0.9521719	o b i
-1.4227015	e b i
-0.81306076	r b i
-1.6325765	s b i
-1.40931	h b i
-1.1100842	d b i
-0.9236242	a b i
-1.3257974	l b i
-1.5095291	y b i
-1.6672754	n b i
-0.9457164	w b i
-0.6982126	b b i
-1.1942472	u b i
-1.3400192	t b i
-0.48763418	j b i
-0.8286401	f b i
-1.2790127	k b i
-2.4239204	m u i
-2.4015603	p u i
-2.0651371	o u i
-2.0446942	e u i
-1.2223965	r u i
-1.4374894	s u i
-2.0850892	h u i
-1.9906088	d u i
-1.8428433	c u i
-2.5113716	a u i
-1.62437	l u i
-0.6980934	g u i
-1.4579173	n u i
-1.4053712	b u i
-1.9719379	t u i
-1.7182137	j u i
-2.4708157	f u i
-0.49112156	q u i
-1.0969069	<w> t i
-0.7051529	i t i
-0.35005447	p t i
-0.8378792	o t i
-0.9047844	e t i
-0.6591936	r t i
-0.80067456	s t i
-1.1610616	h t i
-1.3807279	d t i
-0.39358538	c t i
-0.4158836	a t i
-0.67744225	l t i
-0.7197496	y t i
-1.623659	g t i
-0.8149985	n t i
-1.324192	w t i
-1.1026663	b t i
-0.76509964	u t i
-0.8276815	t t i
-1.1957111	f t i
-1.0435728	x t i
-0.88123727	k t i
-1.2868652	<w> j i
-1.1221365	i j i
-1.3744732	o j i
-1.2663306	a j i
-1.448032	n j i
-0.58895004	u j i
-0.8411234	<w> f i
-0.41822457	i f i
-1.2057613	m f i
-1.1302236	p f i
-1.0141068	o f i
-0.8582102	e f i
-1.0185118	r f i
-0.86662614	s f i
-0.7866344	h f i
-0.88584596	d f i
-1.3626182	a f i
-0.7393488	l f i
-1.1302236	y f i
-1.0208985	g f i
-0.6730484	n f i
-1.0110859	w f i
-0.511985	b f i
-0.8188731	t f i
-0.6676903	f f i
-1.0794219	k f i
-2.1607695	s q i
-1.0647147	<w> x i
-0.88324827	i x i
-0.5262173	o x i
-1.0950154	e x i
-0.58559674	r x i
-0.46811992	a x i
-0.50152934	n x i
-1.4164524	u x i
-0.62537897	<w> k i
-1.0801841	i k i
-0.37297702	m k i
-0.31558868	p k i
-0.96257603	o k i
-0.98563904	e k i
-0.93066555	r k i
-0.42567274	s k i
-0.944183	h k i
-0.8017804	d k i
-1.0013657	c k i
-0.8314241	a k i
-0.83831304	l k i
-0.7878745	y k i
-0.51209295	g k i
-0.8787109	n k i
-0.6293854	w k i
-1.292934	u k i
-0.48982885	t k i
-1.1010083	k k i
-1.245787	</w> <w> m
-0.8441206	<w> i m
-2.2394154	m i m
-2.047071	p i m
-2.7146485	v i m
-1.3834989	e i m
-1.4139918	r i m
-1.3968354	s i m
-1.5644927	h i m
-1.6872656	d i m
-1.9061527	c i m
-1.4233582	a i m
-1.6772782	z i m
-1.5349729	l i m
-1.7594541	g i m
-1.6114936	n i m
-2.0334182	w i m
-2.1815283	b i m
-2.4275095	u i m
-1.5244666	t i m
-0.56722593	j i m
-0.7820932	x i m
-1.6109734	k i m
-2.7401073	<w> m m
-1.0737088	i m m
-2.2865274	m m m
-0.8903656	o m m
-1.6744362	e m m
-2.0700438	h m m
-1.1638073	a m m
-1.3940153	y m m
-1.085781	u m m
-3.2751455	<w> p m
-1.7655002	i p m
-2.6815107	m p m
-2.5393372	p p m
-2.2092545	o p m
-2.544137	e p m
-2.3132322	r p m
-2.7317445	a p m
-1.8750558	l p m
-2.3665223	u p m
-1.7153862	<w> o m
-2.339127	i o m
-1.7199385	m o m
-1.8450942	p o m
-1.0592765	o o m
-2.0765462	v o m
-1.5868491	e o m
-1.2020878	r o m
-1.044951	s o m
-1.2601647	h o m
-0.97732097	d o m
-0.72050333	c o m
-1.5214193	a o m
-1.6065116	z o m
-1.7395687	l o m
-1.8860483	y o m
-1.9182886	g o m
-1.0538906	n o m
-1.3677417	w o m
-1.7757396	b o m
-1.8272667	u o m
-1.2111633	t o m
-1.3464094	x o m
-1.351721	k o m
-0.8606341	m v m
-1.0761393	<w> e m
-2.6126876	i e m
-1.5814716	m e m
-2.5952559	p e m
-1.590214	o e m
-2.0590765	v e m
-1.4349337	e e m
-1.4656024	r e m
-1.3379146	s e m
-1.3544477	h e m
-1.4135346	d e m
-1.6538917	c e m
-1.9050407	a e m
-1.9686731	z e m
-1.5414761	l e m
-1.6538982	g e m
-1.8761219	n e m
-2.5285864	w e m
-2.4089406	b e m
-2.0015728	u e m
-1.6343683	t e m
-2.0612185	j e m
-1.900795	f e m
-1.0647178	x e m
-2.1410975	k e m
-1.2484025	i r m
-1.2390983	o r m
-1.4927446	e r m
-2.857874	r r m
-2.3624976	h r m
-1.3812788	a r m
-1.8667322	u r m
-1.7842159	<w> s m
-1.0598516	i s m
-2.1983585	m s m
-2.4079883	p s m
-1.8426366	o s m
-2.294234	e s m
-3.0314918	r s m
-1.9507533	s s m
-1.777199	d s m
-1.878052	a s m
-2.5970252	l s m
-2.4407878	y s m
-2.1463284	n s m
-1.8908397	w s m
-2.3443651	u s m
-1.9069228	t s m
-1.9370768	k s m
-2.7048368	<w> h m
-1.3105216	i h m
-1.0680717	o h m
-1.779808	e h m
-1.8960437	r h m
-1.6863031	s h m
-1.6692216	c h m
-1.1672128	a h m
-2.3625827	g h m
-1.581383	u h m
-1.9354167	t h m
-1.6734136	k h m
-2.724357	i d m
-2.1316764	o d m
-2.85738	e d m
-2.3178978	r d m
-1.3442366	a d m
-2.3769732	l d m
-2.0300992	n d m
-2.3893814	u d m
-3.350284	<w> c m
-2.7380958	r c m
-3.2300324	a c m
-1.3080287	<w> a m
-1.672311	i a m
-2.118878	m a m
-1.9988985	p a m
-1.5320151	o a m
-2.1586573	v a m
-1.3172709	e a m
-1.3316823	r a m
-1.4357791	s a m
-1.0765624	h a m
-1.0197461	d a m
-1.4550276	c a m
-0.87152565	a a m
-2.1028876	z a m
-1.328791	l a m
-1.7932297	y a m
-1.310369	g a m
-1.4673499	n a m
-1.9014226	w a m
-2.0605652	b a m
-2.1942625	u a m
-1.6183532	t a m
-1.0953802	j a m
-1.3412803	f a m
-0.5976386	x a m
-1.5034664	k a m
-2.0257306	z z m
-1.3181608	l z m
-1.9173572	t z m
-3.174661	<w> l m
-1.8824941	i l m
-1.8143127	o l m
-1.8169535	e l m
-2.5336595	r l m
-1.8554568	a l m
-2.1323597	l l m
-2.0086656	u l m
-1.7265408	<w> y m
-1.9468294	m y m
-1.4614804	o y m
-1.7620363	e y m
-1.8821076	r y m
-0.7202467	s y m
-1.4419965	h y m
-1.8322295	d y m
-1.389874	a y m
-1.1004351	z y m
-1.9515944	l y m
-1.0570502	g y m
-1.1437482	n y m
-1.4988469	w y m
-2.2794354	t y m
-0.5393177	j y m
-1.2400564	x y m
-3.0368495	<w> g m
-1.7257282	i g m
-0.954025	m g m
-2.0075467	o g m
-2.0927336	e g m
-1.4625899	d g m
-1.836189	a g m
-1.3426945	y g m
-3.0160787	n g m
-2.1196353	u g m
-2.794111	<w> n m
-2.8341053	i n m
-2.4241414	o n m
-2.7171009	e n m
-1.798511	r n m
-3.4223158	a n m
-1.7818928	g n m
-1.8363013	u n m
-3.1258423	<w> w m
-1.9700346	o w m
-2.3291554	e w m
-1.6925969	a w m
-3.3035922	<w> b m
-2.6649287	i b m
-2.375882	e b m
-0.88424826	c b m
-1.4256148	u b m
-2.064644	<w> u m
-0.22801617	i u m
-1.4157002	m u m
-1.5831513	p u m
-2.4181094	o u m
-1.1115551	e u m
-0.89811397	r u m
-1.1255374	s u m
-0.678172	h u m
-1.2582103	d u m
-1.0435622	c u m
-1.6760554	a u m
-0.8172447	l u m
-1.2770219	y u m
-1.5450934	g u m
-0.79082626	n u m
-1.1176965	w u m
-1.505802	b u m
-0.5188759	u u m
-1.2780628	t u m
-1.3160404	j u m
-1.5856637	f u m
-1.5149817	k u m
-2.4042058	i t m
-2.3914185	o t m
-2.5055845	e t m
-1.8518195	r t m
-2.2016478	s t m
-2.1204832	h t m
-2.3924222	c t m
-2.5538888	a t m
-1.9740138	l t m
-2.3689198	n t m
-2.0037246	u t m
-2.714127	t t m
-3.3165069	<w> f m
-2.4329262	o f m
-2.453653	a f m
-2.1827743	f f m
-2.0410178	o x m
-2.2235553	o k m
-1.6928831	r k m
-2.3165781	s k m
-1.809944	c k m
-2.4585135	a k m
-1.9470239	n k m
-1.1221932	</w> <w> p
-3.0138028	<w> i p
-2.8780375	m i p
-1.7749639	p i p
-2.7283378	v i p
-1.9644643	e i p
-1.4579406	r i p
-2.00112	s i p
-0.95910746	h i p
-2.0655117	d i p
-1.2073563	c i p
-2.535407	a i p
-1.8387088	z i p
-1.6178029	l i p
-2.2803583	y i p
-2.5643373	g i p
-1.8418123	n i p
-1.948677	w i p
-2.4480302	b i p
-1.8107369	u i p
-2.215915	t i p
-1.7303277	k i p
-2.8517954	<w> m p
-0.6034292	i m p
-0.68327725	o m p
-0.912386	e m p
-2.5370057	r m p
-2.0700438	h m p
-0.907861	a m p
-0.6908772	y m p
-0.9161671	u m p
-3.4552937	<w> p p
-0.72826576	i p p
-2.861052	m p p
-0.96229213	o p p
-1.6980424	e p p
-0.51668644	a p p
-0.79005706	u p p
-1.1208483	<w> o p
-2.4289575	i o p
-1.9572972	m o p
-1.5026736	p o p
-1.1729733	o o p
-2.2948508	v o p
-1.1119636	e o p
-1.0696902	r o p
-1.4714925	s o p
-1.2601647	h o p
-1.7616911	d o p
-1.5946243	c o p
-1.6975713	z o p
-1.379483	l o p
-1.6750865	y o p
-2.3508186	g o p
-1.6389663	n o p
-2.2430482	w o p
-2.5241117	b o p
-1.3798708	t o p
-1.9862701	j o p
-2.5538187	f o p
-1.3464094	x o p
-1.5004715	k o p
-2.9718585	<w> v p
-0.85582733	m v p
-1.5724373	<w> e p
-2.4371114	i e p
-2.8092575	m e p
-2.1244216	p e p
-1.9834998	o e p
-3.0305672	v e p
-1.06911	e e p
-1.3875002	r e p
-1.8260953	s e p
-2.3704638	h e p
-1.4280709	d e p
-1.3334957	c e p
-1.9384973	a e p
-2.196863	l e p
-2.2344198	y e p
-2.6840487	g e p
-2.5406203	n e p
-2.4804897	w e p
-2.6760526	b e p
-2.4065123	u e p
-2.1318533	t e p
-2.1507525	k e p
-3.439549	<w> r p
-1.9406399	i r p
-1.6939273	o r p
-1.7978032	e r p
-1.8633009	a r p
-1.6319348	u r p
-1.1054647	<w> s p
-1.5047929	i s p
-1.7740347	m s p
-1.2580954	o s p
-1.70775	e s p
-2.2152398	r s p
-2.9634423	s s p
-1.9681484	d s p
-1.4562716	a s p
-2.5814698	l s p
-2.42907	y s p
-1.6393893	n s p
-1.5883576	w s p
-2.0126176	b s p
-1.8139588	u s p
-2.7699246	t s p
-1.8044064	f s p
-2.3107145	k s p
-3.1830096	<w> h p
-3.1133728	s h p
-2.5771418	g h p
-2.5373533	t h p
-3.4239397	<w> d p
-2.7787266	i d p
-2.7035468	o d p
-3.5778956	e d p
-2.9006963	a d p
-2.5928998	n d p
-3.693405	<w> c p
-1.9003588	m c p
-3.092123	a c p
-1.1765085	<w> a p
-2.2603142	i a p
-2.3685932	m a p
-1.6128994	p a p
-1.9063748	o a p
-1.9113173	v a p
-1.7320772	e a p
-1.1968689	r a p
-1.5007768	s a p
-1.452643	h a p
-1.5652131	d a p
-1.239466	c a p
-2.0455365	z a p
-1.667376	l a p
-2.0416498	y a p
-2.1672688	g a p
-1.5515426	n a p
-2.472828	w a p
-1.8692931	b a p
-1.672655	t a p
-1.7524409	j a p
-1.8070538	x a p
-1.583655	k a p
-3.1500726	<w> l p
-2.7817194	i l p
-2.1846452	o l p
-1.9245005	e l p
-2.5093267	r l p
-2.2016528	a l p
-2.4834044	l l p
-2.00003	y l p
-1.7577851	u l p
-2.249611	<w> y p
-2.0602338	r y p
-0.8270725	h y p
-2.1075914	c y p
-2.3660073	l y p
-1.1800385	g y p
-2.1958015	n y p
-1.4821086	b y p
-1.2727953	t y p
-3.240744	<w> g p
-2.9292197	i g p
-2.3071082	a g p
-3.4713142	n g p
-3.0329912	i n p
-2.6831045	o n p
-3.0317721	e n p
-2.5104961	r n p
-2.2322943	s n p
-3.389217	a n p
-2.0856447	g n p
-2.084179	w n p
-1.595769	u n p
-3.1258423	<w> w p
-2.3288047	o w p
-1.9859427	e w p
-2.360461	a w p
-2.7516174	m b p
-1.8929508	u b p
-1.2144725	<w> u p
-2.4260273	m u p
-1.5116545	p u p
-1.6756927	o u p
-1.2883146	e u p
-1.118968	r u p
-0.875492	s u p
-1.9513047	h u p
-1.3640014	d u p
-1.3506757	c u p
-2.1853426	a u p
-2.460974	l u p
-1.8785921	n u p
-1.288285	w u p
-1.1126409	u u p
-1.8719591	t u p
-2.0929892	j u p
-0.6960207	k u p
-2.811592	o t p
-3.0286295	e t p
-2.7558956	s t p
-3.555167	a t p
-3.4760184	n t p
-1.9825559	u t p
-0.85320127	k j p
-3.385254	<w> f p
-2.6737988	n f p
-0.5431855	e x p
-1.7042654	a x p
-2.347246	r k p
-2.1267164	c k p
-2.5243971	n k p
-1.6338019	</w> <w> o
-1.7928435	<w> i o
-2.7076077	m i o
-1.6864252	p i o
-1.2881631	v i o
-1.3715553	r i o
-0.81792307	s i o
-1.6442026	h i o
-1.4419638	d i o
-1.1150844	c i o
-1.3421247	z i o
-1.6740419	l i o
-1.2769251	g i o
-1.4968348	n i o
-1.3845005	b i o
-2.4676998	u i o
-0.48407644	t i o
-2.6248717	f i o
-1.0809702	x i o
-2.440622	k i o
-0.730891	<w> m o
-1.3521134	i m o
-0.8834909	m m o
-1.1147763	p m o
-1.352771	o m o
-0.93424886	e m o
-0.85571605	r m o
-0.98977816	s m o
-1.3071713	h m o
-0.8147261	d m o
-0.844851	c m o
-1.2025646	a m o
-0.97603893	l m o
-0.9821707	y m o
-1.0392784	n m o
-1.5794797	u m o
-0.90234053	t m o
-0.98771995	f m o
-1.395349	k m o
-0.8702713	<w> p o
-1.4744799	i p o
-0.99504495	m p o
-0.93967414	p p o
-1.0375533	o p o
-1.1152046	e p o
-0.66548836	r p o
-0.76728344	s p o
-0.8971436	h p o
-0.454826	d p o
-1.1255758	a p o
-1.2552346	l p o
-0.59822357	y p o
-1.0249279	g p o
-0.7655728	n p o
-0.41639566	w p o
-0.7828829	b p o
-1.6166544	u p o
-0.44987354	t p o
-0.9336625	x p o
-0.58823466	k p o
-2.2298234	<w> o o
-1.4333581	m o o
-1.5332489	p o o
-1.8631132	o o o
-1.9503176	v o o
-1.2351704	r o o
-1.9285425	s o o
-1.0329702	h o o
-1.3154064	d o o
-1.5965058	c o o
-0.8177113	z o o
-1.2095536	l o o
-1.7051493	y o o
-1.1695167	g o o
-1.8340979	n o o
-0.5558731	w o o
-0.9715489	b o o
-1.5340737	t o o
-1.0952159	f o o
-1.5210335	k o o
-0.8200549	<w> v o
-1.7119329	i v o
-1.5406009	o v o
-0.9290775	e v o
-1.3006086	r v o
-1.1083978	d v o
-0.91258866	a v o
-0.51290333	z v o
-1.888973	l v o
-0.9990363	n v o
-1.0668322	u v o
-2.9296377	<w> e o
-2.378393	m e o
-2.4453237	p e o
-2.1018486	o e o
-2.8572638	v e o
-2.0561802	r e o
-2.7284	s e o
-1.7956638	h e o
-2.2315192	d e o
-2.7894828	c e o
-1.5452695	a e o
-2.1106203	l e o
-1.3855728	g e o
-1.9557981	n e o
-2.71304	b e o
-2.5279067	u e o
-2.285144	t e o
-1.8860803	j e o
-2.4317856	k e o
-0.88163817	<w> r o
-1.3201125	i r o
-0.8935373	m r o
-0.37620813	p r o
-1.6397116	o r o
-0.8111305	v r o
-1.6447992	e r o
-0.83331937	r r o
-0.8486561	s r o
-0.44110787	h r o
-0.6740817	d r o
-0.7174177	c r o
-1.680908	a r o
-0.6639819	z r o
-0.5388442	l r o
-0.5028091	y r o
-0.8527734	g r o
-0.8673569	n r o
-1.059956	w r o
-0.65355736	b r o
-1.602812	u r o
-0.81632483	t r o
-0.7611247	f r o
-0.58392036	x r o
-0.6796618	k r o
-1.1440824	<w> s o
-1.4370811	i s o
-1.6690192	m s o
-1.3416169	p s o
-1.5319055	o s o
-1.9318657	e s o
-1.4246057	r s o
-1.299572	s s o
-1.9592783	h s o
-1.4523737	d s o
-1.8351883	c s o
-1.5917938	a s o
-1.3631741	l s o
-1.8988633	y s o
-2.3390737	g s o
-1.4528675	n s o
-1.4573007	w s o
-1.0674149	b s o
-2.1682045	u s o
-1.9946499	t s o
-1.7666041	f s o
-1.436935	k s o
-0.6324093	<w> h o
-1.0720601	i h o
-0.44940358	m h o
-0.60763085	p h o
-1.0912954	o h o
-0.6771865	e h o
-0.71395516	r h o
-0.9139434	s h o
-0.5140308	h h o
-0.6155361	d h o
-1.0481931	c h o
-1.1260418	a h o
-0.87046754	z h o
-0.5091535	l h o
-0.13301444	y h o
-1.4129637	g h o
-0.70411056	n h o
-0.83092844	w h o
-0.3380825	b h o
-0.9609647	t h o
-0.82317495	f h o
-1.1145005	x h o
-0.58208466	k h o
-0.9723825	<w> d o
-1.5330255	i d o
-1.0112113	m d o
-0.835124	p d o
-1.1501813	o d o
-2.1339078	e d o
-1.3706381	r d o
-1.396833	s d o
-0.7954414	h d o
-1.5203556	d d o
-0.42180705	c d o
-1.2172431	a d o
-1.3931552	l d o
-1.5626291	y d o
-0.3295759	g d o
-1.20202	n d o
-1.130115	w d o
-0.78628874	b d o
-1.410149	u d o
-0.427596	t d o
-0.53196764	f d o
-0.41509604	k d o
-0.37573537	<w> c o
-1.59025	i c o
-1.2964758	m c o
-0.6359582	p c o
-1.2628219	o c o
-0.9385494	e c o
-1.0594702	r c o
-0.7182278	s c o
-0.71067804	h c o
-0.5921482	d c o
-0.6054593	c c o
-1.5760155	a c o
-0.4945449	l c o
-0.76152706	y c o
-1.0116866	n c o
-0.9076343	w c o
-0.47781026	b c o
-1.7307457	u c o
-1.5419238	t c o
-0.66786647	f c o
-1.480941	x c o
-3.155568	<w> a o
-2.7284236	i a o
-3.0993571	m a o
-2.8901765	p a o
-2.6391978	v a o
-2.9351625	r a o
-2.759118	s a o
-2.8645682	h a o
-3.0194361	c a o
-2.5786083	l a o
-2.9344273	n a o
-2.5746646	w a o
-2.7704678	b a o
-2.6188605	t a o
-2.2252836	k a o
-0.68268436	<w> z o
-1.804315	i z o
-0.89698505	o z o
-0.24091075	v z o
-1.3681588	e z o
-0.74271894	r z o
-0.70843935	s z o
-1.0574969	a z o
-1.337525	z z o
-1.0396905	l z o
-1.1493912	n z o
-1.1473042	u z o
-1.5605732	t z o
-0.68516225	<w> l o
-1.5188044	i l o
-1.3162146	m l o
-0.9794796	p l o
-0.8109645	o l o
-0.46884006	v l o
-1.3591747	e l o
-0.97708565	r l o
-0.9196025	s l o
-0.84833604	h l o
-1.6024401	d l o
-0.7501071	c l o
-1.5999146	a l o
-1.4938807	z l o
-1.0831848	l l o
-0.8844019	y l o
-0.8946549	g l o
-0.9800658	n l o
-1.1816878	b l o
-1.4445608	u l o
-1.9192548	t l o
-0.6431812	f l o
-1.8091695	k l o
-0.5694511	<w> y o
-0.77896374	i y o
-1.1270769	m y o
-1.6876748	p y o
-1.4715135	o y o
-1.9269326	e y o
-1.838159	r y o
-2.0705914	d y o
-2.1197293	c y o
-1.4425617	a y o
-2.6350257	l y o
-1.3155338	n y o
-1.5226251	w y o
-2.0638127	f y o
-1.6922249	k y o
-0.95092833	<w> g o
-1.4684492	i g o
-1.0677212	p g o
-1.8015734	o g o
-0.96364504	e g o
-1.1778499	r g o
-1.3126299	s g o
-0.45910388	h g o
-0.93210995	c g o
-1.0710529	a g o
-1.4018315	l g o
-0.49392885	y g o
-1.8118191	g g o
-2.17595	n g o
-1.7953422	u g o
-0.90751207	t g o
-0.84382373	k g o
-0.52387476	<w> n o
-1.9077501	i n o
-1.03109	m n o
-0.57186383	p n o
-1.615107	o n o
-1.7245216	e n o
-1.278199	r n o
-0.7512938	s n o
-1.377468	h n o
-1.8562591	d n o
-1.683478	a n o
-1.7575669	l n o
-0.951495	y n o
-0.754109	g n o
-0.99614596	n n o
-0.3823411	b n o
-1.9739425	u n o
-1.5412792	t n o
-0.37067777	k n o
-0.81739116	<w> w o
-0.938913	i w o
-0.8510482	m w o
-0.96617794	p w o
-2.1465607	o w o
-1.3118995	e w o
-0.7868482	r w o
-0.98916745	s w o
-0.946309	h w o
-0.8118147	d w o
-1.6558081	a w o
-0.722844	z w o
-0.40387002	l w o
-0.7321193	y w o
-0.62196213	g w o
-0.8923424	n w o
-0.79087305	b w o
-0.7110308	t w o
-0.5630094	x w o
-0.5513883	k w o
-0.8143921	<w> b o
-1.6000665	i b o
-0.96492577	m b o
-0.56743133	p b o
-1.2427989	o b o
-0.8209496	e b o
-0.6887177	r b o
-0.89032114	s b o
-0.22182256	h b o
-0.70609605	d b o
-1.1148713	a b o
-0.6428344	z b o
-0.53305525	l b o
-0.5206816	y b o
-0.4901143	g b o
-0.9328301	n b o
-0.58555084	w b o
-1.1282524	b b o
-1.5176787	u b o
-0.62068087	t b o
-0.8102546	f b o
-0.5108659	x b o
-0.3310296	k b o
-2.5275226	m u o
-2.4510367	r u o
-2.533441	s u o
-2.3938637	h u o
-2.4378922	d u o
-1.982247	c u o
-1.822897	l u o
-2.0823905	g u o
-1.3544091	n u o
-2.2434194	b u o
-1.6458509	t u o
-1.5444328	q u o
-0.9063905	<w> t o
-1.3771031	i t o
-1.1923283	m t o
-1.0863066	p t o
-1.0887668	o t o
-0.5332533	v t o
-1.4086282	e t o
-1.2542208	r t o
-1.0895696	s t o
-1.6392646	h t o
-0.99018127	c t o
-1.2368941	a t o
-1.1116979	l t o
-0.96038216	y t o
-0.25501597	g t o
-1.522205	n t o
-0.8483113	w t o
-1.1298567	u t o
-1.2710059	t t o
-1.4293349	f t o
-1.4172843	x t o
-0.7032738	k t o
-0.6104616	<w> j o
-0.9214157	i j o
-0.7766504	o j o
-0.53606826	e j o
-0.6735257	r j o
-0.4640943	s j o
-0.7484041	d j o
-0.74004436	a j o
-0.6894423	n j o
-0.5236244	u j o
-0.4640943	t j o
-0.21730176	f j o
-0.5236306	k j o
-0.73174405	<w> f o
-1.5670553	i f o
-0.2951796	m f o
-1.1308817	p f o
-1.3363559	o f o
-1.044375	e f o
-0.80700856	r f o
-0.68062794	s f o
-1.0789381	h f o
-0.8861157	d f o
-1.40806	a f o
-1.1612189	l f o
-0.70340705	y f o
-1.0213865	g f o
-0.6730672	n f o
-0.66418797	w f o
-0.85891277	t f o
-1.2711601	f f o
-0.37302518	x f o
-0.7412642	k f o
-1.146133	i x o
-1.7394295	o x o
-1.6498502	e x o
-1.1806862	a x o
-1.6324097	u x o
-0.950781	<w> k o
-1.1240102	i k o
-0.76210505	m k o
-1.2809243	o k o
-1.5900085	e k o
-1.7628927	r k o
-1.2769543	s k o
-0.82986	h k o
-0.66732115	d k o
-1.6858275	c k o
-1.4445212	a k o
-0.5322823	z k o
-1.7106514	l k o
-0.5186603	g k o
-1.5178932	n k o
-0.24736798	b k o
-0.87448454	t k o
-1.12354	k k o
-1.7991158	</w> <w> v
-2.5717	<w> i v
-2.4500325	p i v
-1.4109068	v i v
-1.2407349	e i v
-1.566966	r i v
-1.1690943	s i v
-1.9818953	h i v
-1.4225248	d i v
-1.8107594	c i v
-2.2065063	a i v
-1.673608	l i v
-1.4972174	g i v
-1.8829132	n i v
-2.1553257	w i v
-2.3344872	b i v
-1.6484548	u i v
-1.1574485	t i v
-1.572325	j i v
-2.6145675	f i v
-2.5070477	k i v
-3.1414952	<w> m v
-2.9361236	u m v
-3.6600394	<w> p v
-0.8117264	<w> o v
-2.7011604	i o v
-1.6382196	m o v
-2.4263797	p o v
-2.1678042	o o v
-2.1397383	e o v
-1.3659031	r o v
-2.0582924	s o v
-1.7721398	h o v
-2.029474	d o v
-1.7538067	c o v
-1.6161642	z o v
-1.4821138	l o v
-1.8179669	y o v
-1.2993252	g o v
-1.3499359	n o v
-2.11277	w o v
-2.1970937	b o v
-1.8383094	u o v
-2.6859448	t o v
-1.796807	j o v
-2.5670576	f o v
-1.0819534	k o v
-2.843003	e v v
-2.7439058	a v v
-1.2664516	<w> e v
-1.4711229	i e v
-2.926906	m e v
-2.8656476	p e v
-1.5183408	o e v
-2.9574876	v e v
-2.0369759	e e v
-1.502165	r e v
-1.8261622	s e v
-1.9697711	h e v
-1.6304662	d e v
-2.969906	c e v
-1.9393232	a e v
-1.7748243	l e v
-1.6342529	y e v
-2.6846328	g e v
-2.0620868	n e v
-2.4812295	w e v
-2.0212643	b e v
-2.489569	u e v
-2.585347	t e v
-2.1298308	f e v
-2.1124523	i r v
-3.0862463	o r v
-1.6341374	e r v
-2.8852983	r r v
-1.8839221	a r v
-1.7028731	u r v
-3.3206096	<w> s v
-3.32112	i s v
-2.9105644	o s v
-3.064616	e s v
-3.200399	r s v
-2.722731	d s v
-2.6269917	l s v
-2.4882715	n s v
-2.920629	t s v
-3.1715462	s h v
-3.2836752	c h v
-2.2617326	a h v
-3.4597836	<w> d v
-3.5158703	e d v
-1.2475263	a d v
-2.4666116	l d v
-3.1697419	n d v
-3.7379787	<w> c v
-1.7218426	<w> a v
-2.8722777	i a v
-2.807824	m a v
-1.9020615	p a v
-2.3962264	o a v
-1.5414441	e a v
-1.576302	r a v
-1.5190037	s a v
-1.6160442	h a v
-1.5935202	d a v
-1.7455589	c a v
-1.7302346	l a v
-2.0171313	g a v
-1.8064855	n a v
-1.6061548	w a v
-2.6642973	b a v
-1.9619664	u a v
-2.12227	t a v
-1.894432	j a v
-1.439082	f a v
-1.7085437	x a v
-2.1216297	k a v
-2.8362782	i z v
-1.9390737	e z v
-2.4568198	i l v
-1.580725	o l v
-1.9637831	e l v
-2.0244052	a l v
-3.182888	l l v
-1.5372032	y l v
-3.112935	b l v
-2.497641	u l v
-2.3952372	<w> y v
-2.540725	e y v
-2.3521435	n y v
-1.4932289	u y v
-3.703856	n g v
-1.8877414	i n v
-1.8037575	o n v
-2.1141245	e n v
-2.6267095	a n v
-2.899546	u n v
-2.1223972	o b v
-1.9949808	u b v
-2.186021	i u v
-2.0518043	o u v
-1.4034041	e u v
-2.7299175	r u v
-2.5627692	s u v
-2.3847919	d u v
-2.5767915	a u v
-2.600082	l u v
-2.3758464	n u v
-2.2392244	j u v
-3.2677457	<w> t v
-3.0605507	e t v
-3.439928	s t v
-1.5239025	w t v
-2.8515017	t t v
-1.5978537	a q v
-2.0454264	o x v
-2.833475	<w> k v
-3.0227249	c k v
-1.3865265	</w> <w> e
-2.9027963	<w> i e
-1.7728643	m i e
-1.0682576	p i e
-2.3046913	o i e
-1.0991696	v i e
-2.3001897	e i e
-1.0211297	r i e
-1.4088714	s i e
-1.228796	h i e
-1.2975692	d i e
-1.0034033	c i e
-2.0603583	a i e
-0.98592377	z i e
-1.2282851	l i e
-1.6060687	y i e
-1.3148445	g i e
-1.3154633	n i e
-1.804141	w i e
-1.4171921	b i e
-1.3773246	u i e
-1.310584	t i e
-0.68957067	f i e
-1.2210864	x i e
-1.3761508	k i e
-0.78502434	<w> m e
-0.72733843	i m e
-0.47346586	m m e
-0.4583518	p m e
-0.70394754	o m e
-0.62785155	e m e
-0.76491725	r m e
-1.0597869	s m e
-0.4755141	h m e
-0.92601866	d m e
-0.7373588	a m e
-0.6508872	z m e
-0.6683378	l m e
-0.5815699	y m e
-0.35141343	g m e
-0.3377888	n m e
-0.6442062	w m e
-0.9872655	b m e
-0.89892817	u m e
-0.30879435	t m e
-0.88409734	k m e
-0.8586906	<w> p e
-1.1457115	i p e
-0.7709345	m p e
-0.4694924	p p e
-0.68689674	o p e
-0.94204897	e p e
-0.6839261	r p e
-0.5282997	s p e
-1.1240903	d p e
-0.9023685	a p e
-0.9153149	l p e
-0.52613807	y p e
-1.0489454	g p e
-1.486551	n p e
-0.79992145	b p e
-0.69552106	u p e
-1.0455716	t p e
-0.46254176	x p e
-2.152597	<w> o e
-2.951776	i o e
-2.7196503	m o e
-1.7686989	p o e
-2.1008894	o o e
-2.3172445	v o e
-2.2310112	e o e
-2.1410928	r o e
-2.3617144	s o e
-1.7732656	h o e
-1.6930807	d o e
-2.1569357	c o e
-1.4710244	z o e
-1.9426408	l o e
-1.491637	g o e
-2.0425017	n o e
-1.9666393	w o e
-2.430753	b o e
-1.9625989	t o e
-1.555114	j o e
-2.3614812	f o e
-1.6117889	k o e
-0.5679236	<w> v e
-0.16405994	i v e
-0.16548932	o v e
-0.4719668	v v e
-0.3513107	e v e
-0.42539537	r v e
-0.42705357	s v e
-0.58368856	h v e
-0.35889754	d v e
-0.36944032	a v e
-0.4719668	z v e
-0.26314068	l v e
-0.592349	y v e
-0.22174408	g v e
-0.35434523	n v e
-0.25722718	b v e
-0.25374648	u v e
-0.85715604	t v e
-2.461641	<w> e e
-2.953751	i e e
-2.117676	m e e
-1.6294346	p e e
-2.033923	o e e
-2.4961371	v e e
-2.2394292	e e e
-1.3526015	r e e
-1.4888988	s e e
-1.4296519	h e e
-1.868164	d e e
-1.8454297	c e e
-2.2361076	z e e
-1.7378862	l e e
-1.9801407	y e e
-1.9604414	g e e
-1.6835767	n e e
-1.0911125	w e e
-1.4962642	b e e
-1.732772	u e e
-1.6768932	t e e
-1.7013113	j e e
-1.3285716	f e e
-1.319974	k e e
-0.25291452	<w> r e
-0.5904283	i r e
-0.4511065	p r e
-0.97523856	o r e
-0.31372103	v r e
-1.0891668	e r e
-0.55355215	r r e
-0.49759403	s r e
-0.8247465	h r e
-0.6693634	d r e
-0.59768754	c r e
-1.1583059	a r e
-1.2208047	l r e
-0.9774308	y r e
-0.65353096	g r e
-0.36863	n r e
-0.64713645	w r e
-0.75598335	b r e
-0.71369606	u r e
-0.9499767	t r e
-0.5192097	f r e
-0.5905013	x r e
-1.1865716	k r e
-0.997179	<w> s e
-1.1032853	i s e
-1.4331594	m s e
-1.0471499	p s e
-0.7501455	o s e
-1.5715871	e s e
-1.1072246	r s e
-0.7391696	s s e
-1.7885213	h s e
-2.4242702	d s e
-2.1513772	c s e
-1.0876523	a s e
-1.4903843	l s e
-1.4191678	y s e
-1.1994331	n s e
-1.7016227	w s e
-0.75912917	b s e
-0.91384107	u s e
-1.959563	t s e
-1.6432238	f s e
-1.1516304	x s e
-2.1752706	k s e
-0.6509686	<w> h e
-0.9913996	m h e
-0.7950175	p h e
-0.7894243	o h e
-0.51842916	e h e
-0.49935204	r h e
-0.6760877	s h e
-0.6485611	h h e
-0.45682824	d h e
-0.57210624	c h e
-1.4282954	a h e
-0.8903665	z h e
-0.76202244	l h e
-1.3229396	y h e
-1.1927168	g h e
-0.588545	n h e
-0.58550614	w h e
-0.5018247	t h e
-0.84020025	f h e
-0.67155296	k h e
-0.46974713	<w> d e
-0.3917553	i d e
-1.0607686	m d e
-0.81686795	o d e
-1.635608	e d e
-0.7956754	r d e
-0.96826565	s d e
-0.5893875	d d e
-1.196369	c d e
-0.6625672	a d e
-0.56721044	l d e
-0.9502635	y d e
-1.0591048	g d e
-0.52658683	n d e
-0.43237913	w d e
-0.5031108	u d e
-1.45859	<w> c e
-1.1557703	i c e
-1.152026	m c e
-0.990252	p c e
-1.1694815	o c e
-1.0714319	e c e
-0.6655164	r c e
-0.9246623	s c e
-0.91539305	h c e
-0.6650562	c c e
-0.91451347	a c e
-1.2201719	l c e
-0.81815064	y c e
-0.35833266	n c e
-1.0617622	w c e
-0.96355766	u c e
-2.224164	t c e
-0.47122332	x c e
-1.9707918	<w> a e
-2.6998863	i a e
-2.3323307	m a e
-2.6298642	p a e
-2.5913882	v a e
-2.961141	e a e
-2.3791537	r a e
-2.7067251	s a e
-1.9107546	h a e
-2.5229352	d a e
-2.8437016	c a e
-1.4978975	a a e
-2.1959689	z a e
-2.492859	l a e
-2.3015864	g a e
-2.118495	n a e
-2.719691	b a e
-2.3943183	f a e
-0.5509362	<w> z e
-0.2619198	i z e
-0.5023668	o z e
-0.648265	e z e
-0.9795561	r z e
-0.679239	s z e
-0.45695984	h z e
-0.6277566	d z e
-0.858484	c z e
-0.5246318	a z e
-1.0621697	z z e
-0.75786626	l z e
-0.22428948	y z e
-0.66044855	n z e
-1.1109648	u z e
-0.79886115	t z e
-0.6981797	<w> l e
-0.9089278	i l e
-0.49993724	m l e
-0.57096964	p l e
-0.9066896	o l e
-0.8344674	v l e
-0.84503925	e l e
-0.6557696	r l e
-0.8078526	s l e
-0.46071148	h l e
-0.38850915	d l e
-0.5814911	c l e
-1.1702725	a l e
-0.17679396	z l e
-0.69108856	l l e
-0.7564912	y l e
-0.6147056	g l e
-0.6551158	n l e
-0.40158072	w l e
-0.23560195	b l e
-1.216698	u l e
-0.3733772	t l e
-0.67199105	f l e
-0.21281755	x l e
-0.28149882	k l e
-0.6529905	<w> y e
-0.76503223	i y e
-1.5238178	m y e
-1.7427871	p y e
-0.89605737	o y e
-0.92337084	e y e
-2.0814757	r y e
-2.1916578	s y e
-2.2281516	h y e
-1.6835738	d y e
-0.8353133	a y e
-2.0795481	l y e
-1.8115697	n y e
-0.7134098	w y e
-1.3091967	b y e
-1.1586063	u y e
-2.6333232	t y e
-1.9150771	k y e
-0.9325334	<w> g e
-1.145221	i g e
-1.0304718	o g e
-0.92088616	e g e
-0.46015364	r g e
-1.2047964	s g e
-1.0017729	h g e
-0.11782376	d g e
-0.7908634	c g e
-0.427486	a g e
-0.5228165	z g e
-0.5380734	l g e
-1.1250408	y g e
-0.40670413	g g e
-1.240226	n g e
-1.0015799	u g e
-0.7383245	t g e
-0.5828464	<w> n e
-1.0761606	i n e
-0.7727281	m n e
-0.38148138	p n e
-1.1512884	o n e
-0.5230676	v n e
-1.0792447	e n e
-0.5726435	r n e
-0.45100766	s n e
-0.5404468	h n e
-0.17465645	d n e
-0.6298807	c n e
-1.3910573	a n e
-0.13764784	l n e
-0.66850185	y n e
-0.6498261	g n e
-0.46775764	n n e
-0.7900295	w n e
-0.9048854	b n e
-1.3476144	u n e
-0.15646392	t n e
-0.40783152	f n e
-0.5230676	x n e
-0.5691068	k n e
-0.80808556	<w> w e
-0.8183156	i w e
-0.51951575	m w e
-0.65905446	o w e
-0.72860944	e w e
-0.68047446	r w e
-0.48286015	s w e
-0.7576022	h w e
-0.69388866	d w e
-1.1579252	a w e
-0.5768564	z w e
-1.3074768	l w e
-1.0776284	y w e
-1.0756267	g w e
-1.1211984	n w e
-0.79820114	b w e
-0.68802553	t w e
-0.5678659	x w e
-1.3241564	k w e
-0.7226611	<w> b e
-0.70527864	i b e
-0.680534	m b e
-0.74485224	p b e
-0.8368764	o b e
-0.77021986	e b e
-0.6886857	r b e
-0.7070092	s b e
-1.4820918	h b e
-0.7059733	d b e
-0.8974664	c b e
-1.2166525	a b e
-0.4785215	z b e
-0.69175166	l b e
-0.6412979	y b e
-1.025826	g b e
-0.50601083	n b e
-0.8164114	w b e
-0.5856353	b b e
-0.99059445	u b e
-1.1665869	t b e
-0.8099042	f b e
-0.63564396	k b e
-1.9265683	m u e
-2.0185933	p u e
-2.432488	o u e
-1.508737	v u e
-1.891163	e u e
-1.5111898	r u e
-1.5903845	s u e
-1.8351543	h u e
-1.4187218	d u e
-1.8370866	c u e
-1.7631559	a u e
-1.1150763	z u e
-1.1832075	l u e
-0.7034264	g u e
-1.1470462	n u e
-1.8680614	b u e
-1.7499976	t u e
-1.9818677	j u e
-1.8736434	f u e
-0.44475698	q u e
-0.83338034	<w> t e
-0.907579	i t e
-1.1982572	m t e
-1.1019475	p t e
-0.79215825	o t e
-0.7911172	e t e
-0.83432007	r t e
-0.76017165	s t e
-0.63831264	h t e
-0.9822613	c t e
-0.5431062	a t e
-0.5351601	z t e
-0.73295087	l t e
-0.7525801	y t e
-1.7592279	g t e
-0.72767234	n t e
-0.830388	b t e
-0.84484625	u t e
-0.3765254	t t e
-0.52028394	f t e
-0.51216555	x t e
-0.6825446	<w> j e
-1.0243067	i j e
-0.2012259	o j e
-0.4307954	e j e
-0.73254	r j e
-1.0578942	d j e
-0.6372179	a j e
-0.89378583	n j e
-0.048830286	b j e
-0.9649542	<w> f e
-1.0939627	i f e
-1.2155174	m f e
-1.1426483	p f e
-0.99540913	o f e
-0.7288831	e f e
-0.6662363	r f e
-0.6823878	s f e
-0.46140212	c f e
-0.9689194	a f e
-0.24551232	z f e
-1.0155941	l f e
-1.1426483	y f e
-0.86016196	g f e
-0.8062966	n f e
-1.1356189	w f e
-1.7436843	t f e
-0.49587697	f f e
-1.1998221	k f e
-0.2682776	k q e
-0.82415134	<w> x e
-0.70160556	i x e
-0.98249763	o x e
-1.1072534	e x e
-0.7612182	a x e
-1.0465499	n x e
-0.86981285	u x e
-0.7145558	<w> k e
-0.27103794	i k e
-0.74805355	p k e
-0.43228465	o k e
-0.7176844	e k e
-0.5801889	r k e
-0.7470753	s k e
-0.9726182	h k e
-0.6723398	d k e
-0.5779604	c k e
-0.3250341	a k e
-0.6658443	l k e
-0.63289726	y k e
-0.5773357	n k e
-0.76138544	w k e
-0.43015742	u k e
-0.645852	k k e
-1.2588776	</w> <w> r
-1.3103118	<w> i r
-1.5236053	m i r
-1.0249057	p i r
-1.3151737	o i r
-1.4955657	v i r
-1.4963503	e i r
-2.0556612	s i r
-1.2781101	h i r
-1.6995763	d i r
-1.4233444	c i r
-0.7611453	a i r
-2.0795095	z i r
-2.7482405	l i r
-1.6232268	g i r
-2.5059688	n i r
-1.55397	w i r
-1.1584634	b i r
-1.0501021	u i r
-2.0390708	t i r
-1.1068624	f i r
-1.3598918	k i r
-2.878012	<w> m r
-1.5687147	p m r
-2.5672326	o m r
-2.936961	e m r
-2.4825587	a m r
-2.1995523	l m r
-2.004546	n m r
-0.59109426	<w> p r
-2.0652504	i p r
-1.0507112	m p r
-0.85123515	p p r
-1.4411926	o p r
-0.90593684	e p r
-0.7901239	r p r
-1.1494473	s p r
-1.0496163	h p r
-1.1246201	d p r
-1.8956523	a p r
-1.273244	l p r
-1.3664633	y p r
-0.64905804	n p r
-0.9446629	b p r
-1.3977517	u p r
-1.3262084	t p r
-0.914326	x p r
-0.78102934	<w> o r
-1.6983532	i o r
-0.7528657	m o r
-0.7490495	p o r
-1.2379016	o o r
-0.8140349	v o r
-0.7836092	e o r
-1.9269484	r o r
-0.9106003	s o r
-0.8350891	h o r
-1.0171418	d o r
-1.0550637	c o r
-1.2197125	a o r
-1.4461228	z o r
-1.0195773	l o r
-0.8883554	y o r
-0.878649	g o r
-0.8465546	n o r
-0.34603012	w o r
-0.82068586	b o r
-0.897848	u o r
-0.48802492	t o r
-1.1106775	j o r
-0.20000122	f o r
-0.9747539	x o r
-1.0137898	k o r
-2.5382128	<w> v r
-2.7892017	i v r
-2.5803242	e v r
-2.312768	a v r
-1.5214902	u v r
-1.4165512	<w> e r
-0.977337	i e r
-0.8843672	m e r
-0.43729103	p e r
-0.9686082	o e r
-0.4614463	v e r
-0.9805488	e e r
-1.8649213	r e r
-1.000861	s e r
-0.587415	h e r
-0.6692749	d e r
-1.0337404	c e r
-0.6950433	a e r
-1.0520701	z e r
-1.1341513	l e r
-0.5783107	y e r
-0.71527827	g e r
-0.9359386	n e r
-0.7539949	w e r
-0.53437316	b e r
-0.97924924	u e r
-0.54215914	t e r
-0.9073613	j e r
-0.498167	f e r
-0.79346746	x e r
-0.6675785	k e r
-1.138821	i r r
-1.4213971	o r r
-1.5562416	e r r
-2.4998193	h r r
-1.187335	a r r
-2.0646505	y r r
-1.2171845	u r r
-3.1835546	<w> s r
-2.0175915	i s r
-2.84958	o s r
-2.295334	s s r
-3.1760895	a s r
-3.3124285	n s r
-2.1761196	w s r
-2.838348	<w> h r
-1.5055206	p h r
-1.805563	o h r
-1.7547895	e h r
-1.4645247	s h r
-1.3725967	c h r
-1.4737729	a h r
-1.3588811	l h r
-1.3656452	y h r
-2.3880203	g h r
-2.2910662	w h r
-0.9627753	u h r
-1.1147451	t h r
-1.3405323	k h r
-1.0750209	<w> d r
-2.5621526	i d r
-1.0355654	m d r
-0.99413633	p d r
-1.893313	o d r
-2.3711774	e d r
-2.033153	r d r
-0.49194247	h d r
-1.6029968	d d r
-1.4562622	a d r
-1.7199011	l d r
-0.2709111	y d r
-1.4653053	n d r
-1.3015416	w d r
-1.2606162	b d r
-2.2414238	u d r
-1.1094189	t d r
-0.906307	f d r
-0.94722956	k d r
-1.0741726	<w> c r
-1.800696	i c r
-1.6471572	m c r
-1.3195146	o c r
-1.3260968	e c r
-1.8494679	r c r
-0.74389446	s c r
-1.3784193	d c r
-1.4829576	c c r
-1.5381591	a c r
-1.8424858	l c r
-1.899965	y c r
-1.6550539	n c r
-1.6534983	u c r
-2.0033443	t c r
-1.6774969	x c r
-0.98663217	<w> a r
-1.3868089	i a r
-0.84952956	m a r
-0.55780745	p a r
-0.78955376	o a r
-0.99975777	v a r
-0.7575845	e a r
-1.8689305	r a r
-1.1071767	s a r
-0.68846357	h a r
-1.0582014	d a r
-0.8670653	c a r
-1.1551187	a a r
-0.84481007	z a r
-0.9514702	l a r
-0.75609094	y a r
-0.7953014	g a r
-1.1011529	n a r
-0.56796753	w a r
-0.74631536	b a r
-0.7525886	u a r
-1.0020337	t a r
-1.1764846	j a r
-0.9470207	f a r
-1.7773392	x a r
-0.8493056	k a r
-1.914768	e z r
-1.3163611	l z r
-1.9148084	t z r
-2.5673199	i l r
-3.073341	o l r
-2.6925669	e l r
-2.4836695	a l r
-3.248243	l l r
-2.105126	n l r
-1.90334	<w> y r
-1.3304482	m y r
-0.85794497	p y r
-2.0497127	o y r
-2.3148031	e y r
-1.3734586	s y r
-1.2060516	h y r
-1.705502	c y r
-1.993309	a y r
-2.3378127	l y r
-1.321176	g y r
-1.0936447	b y r
-1.5548251	t y r
-1.9768752	k y r
-0.56021607	<w> g r
-1.3257927	i g r
-0.2745378	p g r
-0.67374223	o g r
-0.81197447	e g r
-1.6876094	r g r
-0.64786154	s g r
-1.6024472	d g r
-0.77801466	c g r
-1.2407883	a g r
-1.229023	l g r
-1.2072884	y g r
-1.152395	g g r
-1.8637929	n g r
-0.6640566	w g r
-0.5917995	b g r
-2.155418	u g r
-0.728777	t g r
-0.4626939	k g r
-2.6106138	<w> n r
-3.5546381	i n r
-2.5653005	o n r
-2.1067245	e n r
-2.6041362	r n r
-2.1955986	w n r
-1.5661399	u n r
-0.26789552	j n r
-2.1530375	k n r
-1.2184601	<w> w r
-0.91072005	p w r
-2.1756804	o w r
-1.5548391	e w r
-1.1928315	r w r
-2.0569158	s w r
-1.8336097	d w r
-1.5984269	a w r
-0.9810109	y w r
-1.1695895	g w r
-1.7322313	n w r
-0.69549257	w w r
-0.79225445	<w> b r
-1.1303557	i b r
-1.0672085	m b r
-1.052885	p b r
-1.8104389	o b r
-0.7257559	e b r
-1.6900729	r b r
-1.4745408	s b r
-1.3918865	h b r
-1.4767623	d b r
-0.9057291	c b r
-1.4064969	a b r
-1.0596595	l b r
-1.0910009	y b r
-1.0348345	g b r
-1.2582003	n b r
-1.3488644	w b r
-1.7995057	b b r
-1.3908298	u b r
-0.74167633	t b r
-0.51369345	x b r
-1.261824	k b r
-1.4950166	<w> u r
-2.023344	i u r
-1.0535082	m u r
-0.66841954	p u r
-0.9090954	o u r
-1.1604102	v u r
-0.53225434	e u r
-2.303931	r u r
-0.7351425	s u r
-0.77387303	h u r
-1.0803674	d u r
-0.6348288	c u r
-1.1991799	a u r
-0.5853317	z u r
-1.2996202	l u r
-1.1531966	y u r
-1.1771905	g u r
-1.3973665	n u r
-0.6103231	w u r
-0.52278197	b u r
-0.41837758	t u r
-0.8786814	j u r
-0.9702799	f u r
-0.5684954	x u r
-1.2463381	k u r
-0.6390239	<w> t r
-1.7410605	i t r
-2.2924411	p t r
-1.7293036	o t r
-1.1144557	e t r
-1.6426649	r t r
-0.8429884	s t r
-2.2295887	h t r
-1.2179962	c t r
-1.7020004	a t r
-1.3298758	l t r
-1.8516294	y t r
-1.7774961	g t r
-1.1488096	n t r
-0.77184594	b t r
-1.4881533	u t r
-1.6095856	t t r
-2.0077312	f t r
-0.46654934	x t r
-2.6568317	<w> j r
-0.8096246	<w> f r
-1.2115301	p f r
-1.2052307	e f r
-1.7498391	r f r
-1.6624407	s f r
-1.3808471	d f r
-1.2663376	a f r
-1.0826501	l f r
-1.2115301	y f r
-1.2053425	g f r
-1.1360614	n f r
-1.913263	u f r
-1.8219808	t f r
-1.6044639	f f r
-1.1342252	<w> x r
-2.6114907	e x r
-1.1912556	<w> k r
-2.3468573	r k r
-2.3267465	c k r
-2.2009747	a k r
-2.112874	n k r
-1.5194695	u k r
-0.9542624	</w> <w> s
-1.49308	<w> i s
-0.80605584	i i s
-0.7837449	m i s
-1.3118958	p i s
-0.73751104	o i s
-0.78465056	v i s
-0.9419724	e i s
-1.0542624	r i s
-1.124537	s i s
-1.2279577	h i s
-0.5681795	d i s
-1.0517706	c i s
-1.2032449	a i s
-1.9397864	z i s
-0.9807272	l i s
-1.4220128	y i s
-0.97705925	g i s
-0.7553702	n i s
-0.9282941	w i s
-1.3424606	b i s
-0.72255015	u i s
-1.4645346	t i s
-1.5138261	j i s
-1.3157306	f i s
-0.8235942	x i s
-1.3013111	k i s
-3.0303912	<w> m s
-1.4976968	i m s
-2.0715587	m m s
-1.5132064	o m s
-1.7291428	e m s
-1.2753896	r m s
-1.3972754	s m s
-1.1265996	h m s
-1.2280555	a m s
-1.3046185	l m s
-1.7763487	y m s
-1.6140765	g m s
-1.3409365	b m s
-1.2540026	u m s
-1.9199499	<w> p s
-0.9014805	i p s
-1.3977946	m p s
-2.1698601	p p s
-1.113613	o p s
-1.4439485	e p s
-1.4622597	r p s
-2.3496764	s p s
-0.89998555	c p s
-1.2462431	a p s
-1.2984805	l p s
-1.3894705	y p s
-1.093446	u p s
-0.5407667	f p s
-1.5159112	<w> o s
-1.9404197	i o s
-1.2816204	m o s
-0.71988046	p o s
-1.2847277	o o s
-1.7265533	v o s
-1.5809488	e o s
-1.1074562	r o s
-2.2425828	s o s
-1.2397274	h o s
-1.4031166	d o s
-1.6376178	c o s
-1.2197125	a o s
-1.5884352	z o s
-1.2470778	l o s
-1.4156164	y o s
-1.2540997	g o s
-1.1834674	n o s
-2.223595	w o s
-1.5069981	b o s
-1.3968756	u o s
-1.700075	t o s
-1.1460396	j o s
-1.7328572	f o s
-1.4542472	x o s
-1.3442686	k o s
-2.8401566	<w> v s
-2.908081	i v s
-1.706683	o v s
-2.0222163	e v s
-2.479006	a v s
-1.3185804	<w> e s
-0.45376253	i e s
-1.2413714	m e s
-1.4184142	p e s
-0.6762185	o e s
-1.0284708	v e s
-1.0862472	e e s
-0.7799451	r e s
-0.8754902	s e s
-0.8955833	h e s
-0.9613467	d e s
-0.7761757	c e s
-0.9181653	a e s
-0.99625206	z e s
-0.8034301	l e s
-1.1704047	y e s
-0.91854817	g e s
-0.6036925	n e s
-1.0708263	w e s
-1.2145073	b e s
-0.69957495	u e s
-1.0974808	t e s
-0.97250664	j e s
-1.0633972	f e s
-0.7395281	x e s
-1.1142094	k e s
-3.2768512	<w> r s
-1.2916325	i r s
-1.2986101	m r s
-1.0240535	o r s
-0.7172855	e r s
-2.300312	r r s
-1.3607192	s r s
-2.581715	d r s
-1.326038	a r s
-1.8349705	y r s
-1.1403025	u r s
-3.2137108	t r s
-0.5459365	j r s
-3.2048326	<w> s s
-1.2092884	i s s
-1.892983	m s s
-2.4069989	p s s
-0.9649069	o s s
-0.7463243	e s s
-2.9541132	r s s
-2.531011	s s s
-2.575496	d s s
-0.69323564	a s s
-2.0067825	l s s
-1.9162587	y s s
-2.4511995	n s s
-1.9777496	w s s
-1.3606566	u s s
-2.783226	t s s
-2.2357247	k s s
-1.2113688	i h s
-1.7256498	p h s
-2.5513856	s h s
-1.8340567	c h s
-1.2283766	a h s
-1.5354568	g h s
-2.3802764	w h s
-1.6336045	u h s
-1.372926	t h s
-3.1552207	<w> d s
-1.2631154	i d s
-1.0887984	m d s
-1.1603899	o d s
-2.1220496	e d s
-0.78078663	r d s
-2.1549537	d d s
-1.2701898	a d s
-1.0113313	l d s
-1.6665102	y d s
-1.0703332	n d s
-1.4852523	w d s
-1.232594	u d s
-3.3371024	<w> c s
-1.4047478	i c s
-1.6378131	m c s
-2.257531	o c s
-2.2054737	e c s
-2.434107	r c s
-2.8328834	s c s
-1.4193708	d c s
-2.009578	a c s
-2.695064	n c s
-1.1203209	b c s
-2.3700798	u c s
-0.9366539	k c s
-1.1108899	<w> a s
-1.452565	i a s
-1.2238051	m a s
-1.0876873	p a s
-1.2229019	o a s
-1.2019584	v a s
-0.91684675	e a s
-1.3666079	r a s
-1.5700624	s a s
-1.424589	h a s
-1.3437253	d a s
-1.1981041	c a s
-1.3156381	a a s
-1.7298436	z a s
-1.0900499	l a s
-1.6481056	y a s
-1.2287269	g a s
-1.3574857	n a s
-1.2473404	w a s
-1.050589	b a s
-1.543285	u a s
-1.529454	t a s
-1.593282	j a s
-1.1316862	f a s
-1.1424977	x a s
-1.345347	k a s
-2.0343587	<w> z s
-2.0231717	z z s
-1.3599577	t z s
-2.8231995	<w> l s
-1.4303579	i l s
-1.713034	m l s
-1.5227358	o l s
-1.2425153	e l s
-1.6626477	r l s
-2.0580149	h l s
-1.3061998	a l s
-1.2626088	l l s
-1.5111324	y l s
-1.126423	w l s
-1.4244512	u l s
-2.0547788	<w> y s
-0.77492714	m y s
-1.3389428	p y s
-0.87433326	o y s
-1.2795775	v y s
-0.7686096	e y s
-1.0630333	r y s
-1.2085564	s y s
-0.7789518	h y s
-0.8954625	d y s
-1.9705625	c y s
-0.7643727	a y s
-1.7375976	l y s
-2.002678	g y s
-0.99561286	n y s
-0.89204335	b y s
-0.68964934	u y s
-1.426644	t y s
-1.0527287	k y s
-1.8299875	i g s
-1.7397536	o g s
-1.9089046	e g s
-1.5408145	r g s
-1.840069	a g s
-1.5256996	g g s
-1.1926382	n g s
-0.81549305	b g s
-1.48085	u g s
-2.7005703	<w> n s
-1.2914194	i n s
-1.4272947	m n s
-0.71966434	o n s
-1.0777631	e n s
-1.0395839	r n s
-2.0950785	s n s
-1.0353031	h n s
-1.8794079	d n s
-0.97383523	a n s
-1.7786373	l n s
-1.6241461	y n s
-1.5714946	g n s
-1.3988817	n n s
-0.79672956	w n s
-1.1855171	u n s
-0.5390272	q n s
-3.078073	<w> w s
-0.9512553	o w s
-0.9499733	e w s
-2.0108898	d w s
-1.0708867	a w s
-3.0792048	<w> b s
-1.7936757	i b s
-1.5770679	m b s
-1.1333307	p b s
-0.8441055	o b s
-1.4493601	e b s
-1.40639	r b s
-0.9739325	c b s
-1.2158792	a b s
-1.5256476	l b s
-1.2361519	g b s
-1.8463426	n b s
-1.5399332	b b s
-0.7538883	u b s
-1.4561801	<w> u s
-0.55485487	i u s
-0.62435293	m u s
-1.297083	p u s
-0.4596831	o u s
-1.1642369	v u s
-1.0121363	e u s
-0.7121837	r u s
-1.2376485	s u s
-1.0302933	h u s
-1.0813202	d u s
-0.9178948	c u s
-0.838272	a u s
-1.0927267	z u s
-0.7903642	l u s
-0.82798207	y u s
-1.0693501	g u s
-1.0448922	n u s
-1.1114429	w u s
-1.0047402	b u s
-1.39438	t u s
-0.6783637	j u s
-0.9911206	f u s
-1.406723	k u s
-2.1556206	<w> t s
-1.4235723	i t s
-1.2050954	m t s
-1.3139496	p t s
-1.2531501	o t s
-1.0953555	e t s
-1.1716737	r t s
-1.2115663	s t s
-0.88252825	h t s
-1.0344818	d t s
-1.2613208	c t s
-1.6845154	a t s
-1.1426506	l t s
-0.9796538	n t s
-1.3438497	w t s
-1.4182252	b t s
-1.2124778	u t s
-1.5662655	t t s
-0.8668486	f t s
-1.6954939	x t s
-0.27267095	c j s
-3.0357232	<w> f s
-2.3374622	i f s
-2.0004086	o f s
-1.75166	e f s
-1.9831051	r f s
-2.277598	a f s
-1.2256277	l f s
-2.1140604	u f s
-1.1898788	f f s
-1.1003911	<w> x s
-1.5370021	i x s
-1.7192707	o x s
-2.4066563	e x s
-0.7587211	r x s
-1.6582956	a x s
-1.5406591	u x s
-2.286444	<w> k s
-1.2898825	i k s
-0.99379426	o k s
-0.9251263	e k s
-0.81330943	r k s
-1.40112	s k s
-0.8906611	c k s
-1.2257321	a k s
-0.8271912	l k s
-0.92699033	n k s
-0.9682232	w k s
-1.5082306	u k s
-1.4102132	</w> <w> h
-3.2512836	<w> i h
-1.4632905	i i h
-3.4465313	r i h
-2.9186447	s i h
-3.0272014	h i h
-3.129236	l i h
-2.498043	n i h
-3.5281055	t i h
-2.9819047	o m h
-2.2944195	r m h
-2.2755697	y m h
-2.8602972	u m h
-1.329652	<w> p h
-1.3717645	i p h
-1.2944022	m p h
-0.84397715	o p h
-1.2651825	e p h
-1.0178229	r p h
-1.3019885	s p h
-0.28061634	c p h
-0.83246607	a p h
-0.555527	l p h
-1.1021252	y p h
-1.6704794	n p h
-1.1217316	w p h
-1.3496786	u p h
-1.3664147	t p h
-2.4433665	<w> o h
-2.599965	m o h
-2.6224594	p o h
-2.5516672	o o h
-2.3200521	r o h
-2.4091432	s o h
-2.7953546	h o h
-2.6196191	d o h
-2.142391	c o h
-2.7620075	l o h
-2.165109	w o h
-1.9117222	b o h
-1.9174443	u o h
-1.1645834	j o h
-2.4123642	f o h
-1.8038008	k o h
-2.9173162	<w> e h
-2.9257467	i e h
-2.8281221	m e h
-2.9623432	p e h
-2.0061615	o e h
-2.325713	v e h
-2.2604246	e e h
-2.0336864	r e h
-2.4692278	s e h
-2.9433575	h e h
-2.5662062	d e h
-2.91575	c e h
-2.466205	l e h
-2.1625414	y e h
-2.7007675	g e h
-2.4895937	n e h
-1.719422	b e h
-2.8619971	t e h
-2.0288377	j e h
-2.707503	k e h
-1.8958592	<w> r h
-2.7103496	o r h
-2.3682306	e r h
-1.9643635	r r h
-1.7681879	s r h
-2.8499742	a r h
-2.9271348	u r h
-1.0255424	<w> s h
-0.9318091	i s h
-2.02374	m s h
-1.6348354	p s h
-1.6593475	o s h
-1.4777447	v s h
-1.9646581	e s h
-1.3875998	r s h
-2.362704	s s h
-1.7999816	h s h
-1.5367415	d s h
-1.0715437	a s h
-1.7580806	l s h
-1.8093532	g s h
-1.621366	n s h
-1.7200037	w s h
-1.2582626	u s h
-2.1269188	t s h
-1.7854064	f s h
-1.441161	k s h
-2.1494267	e h h
-2.8886406	s h h
-1.2899728	h h h
-2.6987064	c h h
-2.1367702	n h h
-1.6744642	u h h
-2.7588494	t h h
-3.2120264	<w> d h
-2.1107054	o d h
-2.8418455	e d h
-2.5895011	r d h
-1.8624033	d d h
-1.9051516	a d h
-2.191414	l d h
-2.3320942	n d h
-2.4338481	u d h
-0.7095094	j d h
-0.89865065	<w> c h
-1.4062744	i c h
-1.3060533	m c h
-0.83775586	p c h
-1.113839	o c h
-0.52223444	v c h
-1.2483855	e c h
-0.4581697	r c h
-0.70255464	s c h
-0.90156853	h c h
-1.329926	d c h
-1.9808165	c c h
-0.899245	a c h
-0.7332328	l c h
-0.46725404	y c h
-0.8889046	n c h
-0.9275017	u c h
-0.07477489	t c h
-1.228768	x c h
-0.88329315	k c h
-2.4196315	<w> a h
-2.253826	i a h
-2.0910406	m a h
-2.4413223	p a h
-2.0057485	o a h
-2.164134	v a h
-2.6341903	e a h
-2.3022954	r a h
-2.4361775	s a h
-2.2205358	h a h
-2.199004	d a h
-2.8955271	c a h
-1.4276137	a a h
-2.1136832	z a h
-2.169007	l a h
-1.9362735	y a h
-2.5780911	g a h
-2.277838	n a h
-2.209713	w a h
-2.1322324	b a h
-2.4131782	u a h
-2.3600717	t a h
-1.3399197	j a h
-2.1991117	f a h
-1.7600522	k a h
-1.6951727	<w> z h
-1.5659461	t z h
-2.064353	i l h
-2.6276436	o l h
-3.0761573	e l h
-2.5336595	r l h
-2.9538817	a l h
-2.9324923	l l h
-2.7329955	g l h
-2.8823457	u l h
-1.9219884	p y h
-2.1907358	o y h
-2.4356174	e y h
-2.3257232	a y h
-2.6024275	l y h
-2.2225316	n y h
-1.8648018	b y h
-1.4782745	x y h
-1.8687772	<w> g h
-0.46301347	i g h
-2.2052562	o g h
-2.1813803	e g h
-1.7143786	r g h
-2.0441353	d g h
-0.9714998	c g h
-2.002191	a g h
-1.6090645	l g h
-2.226969	g g h
-2.2768955	n g h
-0.40418065	u g h
-0.61788577	f g h
-2.2268198	i n h
-2.8446803	o n h
-2.20149	e n h
-2.0818815	r n h
-2.486248	a n h
-2.1434193	y n h
-2.7192974	n n h
-2.197305	w n h
-1.9794805	u n h
-0.8363028	<w> w h
-1.8884274	o w h
-1.6026701	e w h
-1.3047295	r w h
-1.3585489	h w h
-1.8144242	d w h
-0.38507727	c w h
-1.7499357	a w h
-1.4957033	l w h
-1.2969928	y w h
-1.4407357	n w h
-1.783823	t w h
-1.3950505	k w h
-3.5192401	<w> b h
-2.7206006	a b h
-2.5010734	u b h
-2.6422267	<w> u h
-2.4415624	m u h
-1.1922952	v u h
-2.508882	r u h
-2.337925	s u h
-1.8545974	h u h
-2.1392741	d u h
-2.5309305	a u h
-1.3411167	y u h
-2.4509704	g u h
-2.23237	n u h
-1.2970994	w u h
-2.5487967	b u h
-2.4401078	t u h
-2.1086555	j u h
-2.090819	f u h
-1.4704193	k u h
-0.7437078	<w> t h
-1.367615	i t h
-1.1927307	m t h
-2.257204	p t h
-0.801383	o t h
-1.1211417	e t h
-0.91692555	r t h
-2.2049646	s t h
-1.6395307	h t h
-0.6601094	d t h
-2.7648587	c t h
-1.2290617	a t h
-1.2056901	l t h
-0.4204472	y t h
-0.5426771	g t h
-1.5272405	n t h
-0.62529343	w t h
-0.9506423	u t h
-2.5730276	t t h
-1.5147536	f t h
-1.9104854	x t h
-1.0625194	k t h
-2.8154223	<w> j h
-3.3165069	<w> f h
-2.453653	a f h
-2.0918	l f h
-2.5576792	f f h
-1.8800088	o x h
-1.3718231	e x h
-1.7500312	<w> k h
-2.122469	i k h
-1.8549856	e k h
-1.7560488	r k h
-1.860051	c k h
-1.9943027	a k h
-1.5426452	l k h
-2.0538735	n k h
-1.4614189	u k h
-1.2313429	</w> <w> d
-1.4935648	<w> i d
-1.4349835	m i d
-1.4659535	p i d
-0.8866584	o i d
-1.2221674	v i d
-1.2724297	e i d
-1.4325231	r i d
-1.1493849	s i d
-1.7726793	h i d
-1.9624037	d i d
-1.2955058	c i d
-1.308858	a i d
-2.034164	z i d
-1.6936635	l i d
-2.2526464	y i d
-1.841227	g i d
-2.5750353	n i d
-1.2908604	w i d
-1.4365714	b i d
-1.2144167	u i d
-2.227722	t i d
-1.5241262	j i d
-1.4383147	f i d
-1.2194034	x i d
-1.4880272	k i d
-3.338673	<w> m d
-3.0163991	o m d
-0.9333985	c m d
-2.8262193	a m d
-2.2319145	l m d
-2.499372	u m d
-3.5751238	<w> p d
-2.448492	a p d
-1.1881511	g p d
-2.4663436	u p d
-1.7372619	<w> o d
-2.0312047	i o d
-1.1532395	m o d
-1.9053236	p o d
-0.7236402	o o d
-1.5841932	e o d
-1.4550539	r o d
-1.8125354	s o d
-1.5036762	h o d
-1.8459762	d o d
-2.1521025	c o d
-1.5133419	a o d
-1.6874812	z o d
-1.7228839	l o d
-1.6682734	y o d
-1.2357581	g o d
-1.7918389	n o d
-2.3157985	w o d
-1.1813426	b o d
-1.8179139	u o d
-2.0150647	t o d
-1.9748331	j o d
-2.467374	f o d
-1.3408382	x o d
-1.4957494	k o d
-2.6912253	o v d
-2.2408142	l v d
-1.4712157	<w> e d
-0.98816377	i e d
-0.9838519	m e d
-0.943881	p e d
-1.0939429	o e d
-1.3346955	v e d
-0.8794744	e e d
-0.8883182	r e d
-0.9271097	s e d
-0.9481948	h e d
-0.9923154	d e d
-1.0722752	c e d
-1.8848163	a e d
-0.40840116	z e d
-0.93309635	l e d
-0.6396817	y e d
-0.9184275	g e d
-0.88751185	n e d
-0.8398012	w e d
-1.0453387	b e d
-1.223898	u e d
-0.64725316	t e d
-1.8304709	j e d
-1.2974231	f e d
-0.26166523	q e d
-0.7390172	x e d
-0.74285984	k e d
-2.8943498	<w> r d
-1.3922031	i r d
-1.1923012	o r d
-2.1809042	e r d
-2.6561375	d r d
-0.93103784	a r d
-1.5047628	l r d
-1.7153814	y r d
-1.6145866	u r d
-3.4655385	<w> s d
-2.3689983	i s d
-2.3584156	m s d
-2.730069	o s d
-3.0329869	e s d
-2.7188263	r s d
-2.6441104	d s d
-3.0254288	a s d
-2.666747	l s d
-2.555077	g s d
-2.603748	n s d
-3.0115895	u s d
-2.9377046	t s d
-2.0887783	o h d
-2.6389437	c h d
-2.4531224	t h d
-1.3195398	i d d
-1.2504491	o d d
-2.0946717	e d d
-1.1769654	a d d
-2.5062404	l d d
-2.9947624	n d d
-0.99781203	u d d
-3.3045068	<w> c d
-1.651802	m c d
-2.6221075	e c d
-3.0178225	a c d
-1.3728243	b c d
-1.0525997	<w> a d
-2.194168	i a d
-1.5968539	m a d
-1.8384757	p a d
-0.74754673	o a d
-1.436024	v a d
-0.9722464	e a d
-1.2668046	r a d
-1.4666665	s a d
-1.6842782	h a d
-1.7529387	d a d
-1.5404016	c a d
-1.4282879	a a d
-2.0278788	z a d
-1.5953412	l a d
-1.936938	y a d
-1.8952166	g a d
-1.6155028	n a d
-1.7652298	w a d
-1.6742387	b a d
-1.2947494	u a d
-2.6625082	t a d
-1.8630567	j a d
-1.891584	f a d
-1.3947484	k a d
-3.1516273	<w> l d
-1.3766806	i l d
-1.0207741	o l d
-1.3248447	e l d
-1.6733198	r l d
-1.8348411	a l d
-3.151599	l l d
-3.0943346	b l d
-1.6016847	u l d
-2.20473	<w> y d
-1.4177336	o y d
-1.9573716	e y d
-2.3995028	r y d
-2.315872	s y d
-0.89814997	h y d
-2.0596538	d y d
-1.9313285	a y d
-2.9557004	l y d
-2.0511622	n y d
-1.440126	x y d
-2.7024891	o g d
-2.6808572	r g d
-2.9354622	a g d
-3.0008235	n g d
-2.7956846	<w> n d
-1.393719	i n d
-1.4789326	o n d
-1.0806127	e n d
-0.8719978	a n d
-1.2194129	y n d
-2.1044726	w n d
-0.67449117	u n d
-1.4808989	o w d
-1.7810103	e w d
-1.9336324	a w d
-2.94478	<w> b d
-2.5704522	o b d
-2.2742867	a b d
-1.9881217	l b d
-1.7895603	u b d
-2.6262755	<w> u d
-2.0821714	i u d
-1.4218069	m u d
-1.5493164	p u d
-1.7295156	o u d
-1.2108344	e u d
-1.144229	r u d
-2.0149615	s u d
-1.383877	h u d
-1.984519	d u d
-2.0271506	c u d
-1.0522648	a u d
-1.1948985	l u d
-1.5026842	n u d
-1.3856969	b u d
-1.1525605	t u d
-0.7435928	j u d
-1.8781891	f u d
-1.3567554	x u d
-3.2972922	i t d
-2.8959994	o t d
-3.4943507	s t d
-2.491059	h t d
-3.4161859	a t d
-2.6266427	l t d
-2.0285575	u t d
-2.783262	<w> j d
-1.436269	a j d
-3.018615	<w> f d
-2.3814178	e f d
-2.0270176	e k d
-2.4397616	r k d
-2.262924	c k d
-2.4352403	a k d
-2.9477336	<w> i </w>
-0.4219148	i i </w>
-1.8532563	m i </w>
-2.0319445	p i </w>
-1.6776814	o i </w>
-2.4799864	v i </w>
-1.4295468	e i </w>
-1.9151821	r i </w>
-2.018513	s i </w>
-1.7940909	h i </w>
-2.0060444	d i </w>
-2.1327012	c i </w>
-1.6106662	a i </w>
-1.8040397	z i </w>
-1.7419983	l i </w>
-1.9194927	y i </w>
-1.8381763	g i </w>
-1.4680288	n i </w>
-2.3919086	w i </w>
-1.8544292	b i </w>
-1.8645973	u i </w>
-2.1023686	t i </w>
-0.95360374	j i </w>
-2.5471525	f i </w>
-1.9197652	x i </w>
-1.3547025	k i </w>
-2.9585395	<w> m </w>
-1.3091549	i m </w>
-1.5641398	m m </w>
-1.2758081	p m </w>
-1.1586146	o m </w>
-0.24604277	v m </w>
-1.3963853	e m </w>
-1.1320913	r m </w>
-0.35188502	s m </w>
-1.1097819	h m </w>
-0.83280605	c m </w>
-0.95860595	a m </w>
-0.9459967	l m </w>
-1.3338354	y m </w>
-1.2176555	g m </w>
-1.7809186	n m </w>
-1.289843	w m </w>
-0.98763424	b m </w>
-0.615587	u m </w>
-1.978326	t m </w>
-0.97542816	f m </w>
-3.183097	<w> p </w>
-0.73743695	i p </w>
-1.3337092	m p </w>
-1.8754233	p p </w>
-1.1028793	o p </w>
-0.33804005	v p </w>
-1.3482913	e p </w>
-1.5013791	r p </w>
-1.8573004	s p </w>
-1.0496163	h p </w>
-1.3856716	a p </w>
-1.1190104	l p </w>
-1.7491822	y p </w>
-1.6308445	n p </w>
-0.9826152	u p </w>
-1.3262084	t p </w>
-0.25339088	j p </w>
-0.52997744	f p </w>
-2.655819	<w> o </w>
-1.5573733	i o </w>
-1.6962237	m o </w>
-2.0183113	p o </w>
-1.6079704	o o </w>
-1.5416183	v o </w>
-1.238863	e o </w>
-1.6470085	r o </w>
-1.5143806	s o </w>
-1.8928324	h o </w>
-1.078557	d o </w>
-1.6701947	c o </w>
-0.48892805	a o </w>
-0.9036324	z o </w>
-1.5177044	l o </w>
-1.334331	y o </w>
-1.0775992	g o </w>
-1.2768967	n o </w>
-2.3141847	w o </w>
-1.7414882	b o </w>
-1.2832042	u o </w>
-1.2618805	t o </w>
-1.7798622	j o </w>
-2.5409718	f o </w>
-1.4152353	k o </w>
-2.6506639	<w> v </w>
-2.6357162	i v </w>
-0.7663882	m v </w>
-1.3159287	o v </w>
-1.5590516	e v </w>
-2.0052853	r v </w>
-0.24757516	c v </w>
-1.8720933	a v </w>
-0.67616713	t v </w>
-0.51904726	k v </w>
-2.9023914	<w> e </w>
-0.9693079	i e </w>
-1.0983102	m e </w>
-1.3836858	p e </w>
-0.83701956	o e </w>
-0.68242323	v e </w>
-0.8567872	e e </w>
-1.0472035	r e </w>
-0.7705932	s e </w>
-1.5431278	h e </w>
-1.0061867	d e </w>
-0.52552795	c e </w>
-0.6760768	a e </w>
-0.57858735	z e </w>
-0.5856607	l e </w>
-1.1431978	y e </w>
-0.69073397	g e </w>
-0.7477394	n e </w>
-1.5650496	w e </w>
-1.42237	b e </w>
-0.6384723	u e </w>
-0.83454704	t e </w>
-1.9694169	j e </w>
-1.2979821	f e </w>
-1.6460179	x e </w>
-0.834254	k e </w>
-3.1453466	<w> r </w>
-1.2329987	i r </w>
-0.9120699	m r </w>
-2.8963313	p r </w>
-0.9876069	o r </w>
-0.59966314	e r </w>
-1.8199409	r r </w>
-1.303397	s r </w>
-1.4956229	h r </w>
-2.2303643	d r </w>
-2.659002	c r </w>
-1.1853942	a r </w>
-1.5998722	y r </w>
-2.7777061	g r </w>
-1.8801825	n r </w>
-1.8309793	w r </w>
-2.7084618	b r </w>
-1.2898607	u r </w>
-3.1030288	t r </w>
-0.52613974	j r </w>
-2.492086	f r </w>
-3.2379878	<w> s </w>
-1.0216539	i s </w>
-0.106363066	m s </w>
-0.25900495	p s </w>
-0.7950534	o s </w>
-0.49385247	v s </w>
-0.27152047	e s </w>
-0.15984787	r s </w>
-0.40515357	s s </w>
-0.0819288	h s </w>
-0.10006187	d s </w>
-0.04586546	c s </w>
-0.8253268	a s </w>
-0.21729308	z s </w>
-0.1269964	l s </w>
-0.19046506	y s </w>
-0.054167684	g s </w>
-0.26157436	n s </w>
-0.17035447	w s </w>
-0.53784543	b s </w>
-0.4629939	u s </w>
-0.046128005	t s </w>
-0.25438833	j s </w>
-0.11450909	f s </w>
-0.13220778	x s </w>
-0.11059682	k s </w>
-2.9777286	<w> h </w>
-1.1075189	i h </w>
-1.3601315	p h </w>
-1.1059816	o h </w>
-1.1505933	e h </w>
-1.6930779	r h </w>
-0.80305123	s h </w>
-1.0247526	h h </w>
-1.6401695	d h </w>
-0.93782485	c h </w>
-0.44602266	a h </w>
-1.3060242	l h </w>
-0.9685476	g h </w>
-1.6852003	n h </w>
-2.1227257	w h </w>
-0.3322121	u h </w>
-0.88137996	t h </w>
-0.2503533	j h </w>
-1.4704205	k h </w>
-3.097992	<w> d </w>
-0.89197123	i d </w>
-0.68826896	m d </w>
-0.9783804	p d </w>
-0.79102534	o d </w>
-0.662777	v d </w>
-0.06957724	e d </w>
-0.49565235	r d </w>
-1.4054775	s d </w>
-1.1156566	h d </w>
-1.5239415	d d </w>
-0.8344532	c d </w>
-1.0025028	a d </w>
-0.514773	l d </w>
-0.93807423	y d </w>
-1.0274252	g d </w>
-0.82702905	n d </w>
-0.9866267	w d </w>
-1.2385666	b d </w>
-1.147611	u d </w>
-0.7333683	t d </w>
-3.1942663	<w> c </w>
-0.61877996	i c </w>
-1.5737028	m c </w>
-1.8544468	o c </w>
-0.5220655	v c </w>
-1.8273038	e c </w>
-2.1297984	r c </w>
-2.3688374	s c </w>
-1.025912	h c </w>
-1.0562596	d c </w>
-1.9802258	c c </w>
-1.6390569	a c </w>
-1.7556031	y c </w>
-2.314132	n c </w>
-0.9143721	w c </w>
-0.703486	b c </w>
-2.2558582	u c </w>
-1.8188095	t c </w>
-0.6717188	f c </w>
-0.7370031	k c </w>
-3.0637648	<w> a </w>
-0.8293791	i a </w>
-1.4054837	m a </w>
-1.9611157	p a </w>
-1.574895	o a </w>
-1.1769418	v a </w>
-1.7159318	e a </w>
-1.4967611	r a </w>
-1.3944136	s a </w>
-1.7318025	h a </w>
-1.0502269	d a </w>
-1.5484583	c a </w>
-1.3156381	a a </w>
-1.0254734	z a </w>
-1.4007035	l a </w>
-1.0979432	y a </w>
-1.4808853	g a </w>
-1.1157364	n a </w>
-1.8041265	w a </w>
-1.6018107	b a </w>
-1.6255318	u a </w>
-1.3274854	t a </w>
-1.7290622	j a </w>
-2.0641716	f a </w>
-1.7773392	x a </w>
-0.8089929	k a </w>
-1.6618565	<w> z </w>
-1.703171	i z </w>
-1.0898293	o z </w>
-0.38320225	e z </w>
-1.0318446	r z </w>
-0.84338915	s z </w>
-0.8934088	c z </w>
-1.882929	a z </w>
-1.4733458	z z </w>
-1.0396905	l z </w>
-1.0395194	n z </w>
-1.2930543	u z </w>
-0.28457162	t z </w>
-2.943503	<w> l </w>
-1.1894656	i l </w>
-1.6109152	m l </w>
-2.6594675	p l </w>
-1.3601309	o l </w>
-1.0155473	e l </w>
-1.2724847	r l </w>
-2.426487	s l </w>
-1.3166775	h l </w>
-2.2832477	d l </w>
-0.5787662	a l </w>
-0.8895543	l l </w>
-0.9694248	y l </w>
-2.5493107	g l </w>
-1.9209744	n l </w>
-0.7462893	w l </w>
-2.9280183	b l </w>
-0.9286697	u l </w>
-2.5800188	t l </w>
-2.5153039	f l </w>
-1.9830495	<w> y </w>
-0.38895902	m y </w>
-0.30025548	p y </w>
-0.6312386	o y </w>
-0.1506994	v y </w>
-0.26736867	e y </w>
-0.12304049	r y </w>
-0.60676074	s y </w>
-0.5325435	h y </w>
-0.27011073	d y </w>
-0.17631158	c y </w>
-0.48197168	a y </w>
-0.29851753	z y </w>
-0.055076636	l y </w>
-0.6622898	y y </w>
-0.15657055	g y </w>
-0.262729	n y </w>
-0.70193267	w y </w>
-0.3403351	b y </w>
-0.9509765	u y </w>
-0.084639356	t y </w>
-0.23951216	f y </w>
-0.36640084	x y </w>
-0.17295189	k y </w>
-2.8598778	<w> g </w>
-1.5192094	i g </w>
-0.7374477	m g </w>
-1.3567026	o g </w>
-1.4870641	e g </w>
-0.89178497	r g </w>
-1.9496423	d g </w>
-1.5111593	a g </w>
-0.5197973	z g </w>
-1.2203283	y g </w>
-1.5486743	g g </w>
-0.12999009	n g </w>
-0.6685208	w g </w>
-0.7566805	b g </w>
-1.1690922	u g </w>
-0.7566805	f g </w>
-0.24797639	x g </w>
-0.8369681	k g </w>
-2.6196473	<w> n </w>
-1.2151029	i n </w>
-0.8820807	m n </w>
-1.2396529	p n </w>
-0.4749871	o n </w>
-0.9504371	e n </w>
-0.7599436	r n </w>
-1.5412524	s n </w>
-0.67751753	h n </w>
-1.5509166	d n </w>
-1.1248376	c n </w>
-0.7925763	a n </w>
-1.1368697	l n </w>
-1.0320154	y n </w>
-1.239608	g n </w>
-1.1560862	n n </w>
-0.36398664	w n </w>
-1.0606414	b n </w>
-1.6665521	u n </w>
-1.7874575	t n </w>
-0.9795799	f n </w>
-0.5276818	q n </w>
-2.8022633	<w> w </w>
-1.0314747	p w </w>
-0.81460094	o w </w>
-0.83234316	e w </w>
-1.7179639	s w </w>
-1.6138632	h w </w>
-1.3950639	d w </w>
-0.8587699	a w </w>
-1.69605	n w </w>
-0.8397407	w w </w>
-0.8397407	b w </w>
-1.8677793	t w </w>
-0.6637806	f w </w>
-0.25032637	q w </w>
-3.124869	<w> b </w>
-1.6740708	i b </w>
-1.3797529	m b </w>
-1.2815886	o b </w>
-1.3917102	e b </w>
-1.3200217	r b </w>
-1.5794104	h b </w>
-0.8146205	c b </w>
-1.7673526	a b </w>
-1.3626202	l b </w>
-1.5797638	y b </w>
-1.2544436	b b </w>
-1.3878094	u b </w>
-1.505759	t b </w>
-0.6794404	j b </w>
-2.7970736	<w> u </w>
-1.9205287	i u </w>
-2.2700207	m u </w>
-2.1962056	o u </w>
-1.4765611	v u </w>
-1.4154353	e u </w>
-1.9697224	r u </w>
-1.9452038	s u </w>
-1.7348964	h u </w>
-2.1740863	d u </w>
-2.3147726	c u </w>
-1.3086159	a u </w>
-0.90151757	z u </w>
-1.9338578	l u </w>
-1.1607293	y u </w>
-1.7390453	n u </w>
-1.2383165	w u </w>
-2.4410589	b u </w>
-1.0784681	u u </w>
-2.0080628	t u </w>
-1.9373956	j u </w>
-2.3908179	f u </w>
-2.756832	q u </w>
-0.88288176	k u </w>
-3.0063422	<w> t </w>
-1.2445045	i t </w>
-0.31665933	m t </w>
-0.87896097	p t </w>
-0.99850345	o t </w>
-0.52719796	v t </w>
-0.80903685	e t </w>
-0.87873995	r t </w>
-0.81681883	s t </w>
-0.49980456	h t </w>
-0.38895315	d t </w>
-0.99775505	c t </w>
-1.5707483	a t </w>
-0.52719796	z t </w>
-0.9017003	l t </w>
-1.5290935	y t </w>
-1.6054221	g t </w>
-0.5849509	n t </w>
-0.7156316	w t </w>
-1.2333114	b t </w>
-1.0322105	u t </w>
-1.0161277	t t </w>
-0.57941675	f t </w>
-1.5139967	x t </w>
-1.1550477	k t </w>
-2.49411	<w> j </w>
-1.0878189	i j </w>
-1.4897922	e j </w>
-1.5394801	d j </w>
-1.0847721	a j </w>
-0.5871205	y j </w>
-1.6864061	n j </w>
-2.879533	<w> f </w>
-1.8973787	i f </w>
-1.2062795	m f </w>
-0.8681662	p f </w>
-1.0576515	o f </w>
-1.3769803	e f </w>
-1.1352196	r f </w>
-1.4840443	s f </w>
-1.3562641	h f </w>
-1.2955831	d f </w>
-0.82081705	c f </w>
-1.3218243	a f </w>
-0.6394699	l f </w>
-1.1308817	y f </w>
-1.1290786	g f </w>
-0.512157	b f </w>
-1.6967057	u f </w>
-1.6424093	t f </w>
-0.85410917	f f </w>
-0.75037897	x f </w>
-2.2394886	<w> q </w>
-1.6738364	i q </w>
-0.19899683	p q </w>
-1.6457487	e q </w>
-1.7611063	s q </w>
-1.3078197	a q </w>
-0.19899683	z q </w>
-1.6862772	n q </w>
-1.0048432	<w> x </w>
-0.53298664	i x </w>
-0.73331845	o x </w>
-1.261543	e x </w>
-0.71148545	r x </w>
-0.23489638	s x </w>
-0.7461293	a x </w>
-0.48861992	n x </w>
-0.31561607	u x </w>
-0.5543312	x x </w>
-2.3878531	<w> k </w>
-0.9595551	i k </w>
-0.65967405	o k </w>
-0.4854927	e k </w>
-0.60799605	r k </w>
-1.1232663	s k </w>
-0.98315704	h k </w>
-0.60948896	c k </w>
-0.92944455	a k </w>
-0.81954944	l k </w>
-0.9918447	y k </w>
-0.6851271	n k </w>
-1.1061147	w k </w>
-0.8567776	u k </w>
-0.25081667	j k </w>
-1.1465605	k k </w>
-1.0244801	</w> <w> c
-2.064275	<w> i c
-0.9497694	m i c
-0.8901628	p i c
-1.2891716	o i c
-1.125644	v i c
-1.6896803	e i c
-1.0062351	r i c
-1.3777307	s i c
-1.091732	h i c
-1.0650561	d i c
-1.9043845	c i c
-1.8137686	a i c
-1.9696536	z i c
-1.1150315	l i c
-0.93366617	g i c
-0.9548088	n i c
-1.2266884	w i c
-1.3991807	b i c
-1.2702187	u i c
-0.9104645	t i c
-0.69255084	f i c
-0.9331721	x i c
-1.8853401	k i c
-1.5321014	<w> m c
-2.3433752	i m c
-2.8383555	e m c
-2.5911956	r m c
-2.7959206	a m c
-2.1715965	y m c
-2.47964	u m c
-2.702261	i p c
-2.7456942	o p c
-2.6803355	e p c
-2.9618688	s p c
-2.4330242	u p c
-1.2409258	<w> o c
-2.0764618	i o c
-1.6792264	m o c
-1.7017206	p o c
-2.3602357	o o c
-0.8453623	v o c
-1.3836813	e o c
-1.2993913	r o c
-1.2324209	s o c
-1.6430845	h o c
-1.225094	d o c
-1.7545459	c o c
-1.1727676	l o c
-1.5432619	y o c
-2.0342553	g o c
-1.3978263	n o c
-2.3521605	w o c
-2.1216333	b o c
-1.5535958	t o c
-1.3991286	j o c
-1.6005124	f o c
-1.747421	k o c
-2.845768	e v c
-2.7467818	a v c
-1.609938	<w> e c
-1.8281515	i e c
-1.985213	m e c
-1.0449326	p e c
-1.9634604	o e c
-2.4278827	v e c
-1.6274712	e e c
-1.1635728	r e c
-1.3382636	s e c
-1.9064933	h e c
-1.3215418	d e c
-2.7491333	c e c
-1.4092299	a e c
-2.3819013	z e c
-1.3791103	l e c
-2.8679042	g e c
-1.6269262	n e c
-2.4616182	w e c
-1.5236757	b e c
-2.3872447	u e c
-1.9055136	t e c
-0.44501615	j e c
-1.017338	f e c
-0.9289116	x e c
-3.4433746	<w> r c
-1.2401654	i r c
-1.7178578	o r c
-1.6855894	e r c
-1.3784992	a r c
-1.571254	u r c
-1.1444304	<w> s c
-1.2300552	i s c
-1.7699802	m s c
-2.3813272	p s c
-1.4911579	o s c
-1.6328112	e s c
-2.2554169	r s c
-2.949178	s s c
-2.1035824	h s c
-2.0540285	d s c
-1.4179115	a s c
-0.98672324	z s c
-2.0004303	y s c
-1.6139815	n s c
-1.0933616	b s c
-1.7592158	u s c
-2.083454	t s c
-1.7960811	f s c
-2.297742	k s c
-2.7870796	s h c
-3.178259	c h c
-2.050719	a h c
-2.6677663	g h c
-2.8123446	t h c
-3.3676498	<w> d c
-2.2463655	o d c
-3.1314094	e d c
-1.120089	c d c
-2.198067	a d c
-2.3805552	l d c
-2.8284311	n d c
-2.4949632	u d c
-3.0866811	<w> c c
-2.5606875	i c c
-0.65610456	m c c
-1.150066	o c c
-1.907343	e c c
-2.4174907	c c c
-1.0287765	a c c
-1.2272667	u c c
-1.0750556	<w> a c
-1.7669955	i a c
-1.32982	m a c
-1.1614792	p a c
-1.072403	o a c
-1.3038977	v a c
-1.3515306	e a c
-1.0499556	r a c
-1.2906154	s a c
-1.6843524	h a c
-1.7149559	d a c
-2.1039176	c a c
-0.87454027	a a c
-1.8864886	z a c
-1.2560273	l a c
-1.2189648	y a c
-2.5108383	g a c
-1.3986826	n a c
-1.8532822	w a c
-0.9883326	b a c
-1.5845308	u a c
-1.353867	t a c
-0.54454917	j a c
-0.7442012	f a c
-0.8956926	x a c
-2.477059	i l c
-2.2018893	o l c
-2.228959	e l c
-1.8786191	a l c
-2.6782203	l l c
-1.9403052	u l c
-2.1444442	<w> y c
-1.253169	m y c
-1.8093672	p y c
-1.4778192	o y c
-2.3970299	e y c
-2.2184398	r y c
-0.8156619	s y c
-0.9221029	c y c
-2.2345548	a y c
-1.452047	z y c
-2.0924006	l y c
-0.8027617	w y c
-2.611867	t y c
-2.073143	f y c
-2.628529	<w> n c
-1.497984	i n c
-1.545665	o n c
-1.0597849	e n c
-1.0391805	a n c
-1.1323466	y n c
-2.2256458	w n c
-0.9641089	u n c
-2.7165115	o w c
-1.8492199	e w c
-2.339607	s w c
-2.2107184	a w c
-1.5909653	y w c
-3.2188401	<w> b c
-2.5692644	i b c
-2.459725	o b c
-1.932203	s b c
-2.7683873	a b c
-1.9692117	n b c
-2.1431425	b b c
-1.9239377	u b c
-2.8646662	<w> u c
-1.9590205	i u c
-1.6061974	m u c
-2.0268128	p u c
-1.6749228	o u c
-1.9029918	e u c
-0.9769192	r u c
-1.4085909	s u c
-1.6319314	h u c
-0.53559685	d u c
-2.569939	c u c
-1.2042919	a u c
-1.1066092	l u c
-1.2022191	y u c
-1.1714495	n u c
-1.2080771	b u c
-1.6342229	t u c
-2.07993	j u c
-1.7415631	f u c
-2.8136706	<w> t c
-1.5441493	i t c
-2.3931813	p t c
-1.8393258	o t c
-1.6829195	e t c
-2.647949	r t c
-2.794374	s t c
-2.2720785	h t c
-2.9361389	c t c
-1.7235851	a t c
-3.225492	n t c
-1.5147529	u t c
-1.4188505	p f c
-2.7333326	e f c
-2.1464586	l f c
-1.5119226	o x c
-0.9075931	e x c
-2.6362588	<w> k c
-2.291176	o k c
-2.5593176	a k c
-2.4784055	n k c
-1.2007244	</w> <w> a
-1.3551011	i i a
-1.6730833	m i a
-1.3772552	p i a
-2.0219252	o i a
-1.2229736	v i a
-1.8712788	e i a
-1.1071813	r i a
-1.4159645	s i a
-1.5497246	h i a
-1.12028	d i a
-0.82728314	c i a
-2.6413853	a i a
-1.9676038	z i a
-1.3065529	l i a
-1.2874677	g i a
-1.1897023	n i a
-2.5033832	w i a
-1.3288257	b i a
-2.3370159	u i a
-1.4966154	t i a
-1.7458652	f i a
-1.286867	x i a
-1.9540085	k i a
-0.486435	<w> m a
-0.8934349	i m a
-0.7459648	m m a
-0.4559476	p m a
-1.0364928	o m a
-0.8522363	e m a
-0.5683546	r m a
-0.71876216	s m a
-0.49888778	h m a
-0.6476688	d m a
-0.82108617	c m a
-0.9990483	a m a
-0.4782989	z m a
-0.49927592	l m a
-0.9003586	y m a
-0.45564905	g m a
-0.5886935	n m a
-0.28158313	w m a
-0.69657356	b m a
-1.132433	u m a
-0.5101017	t m a
-0.27162293	f m a
-0.15582101	k m a
-0.715541	<w> p a
-1.0969489	i p a
-0.90825784	m p a
-1.3376762	p p a
-1.4546275	o p a
-0.94094294	e p a
-1.2171754	r p a
-0.9014771	s p a
-0.90423805	h p a
-0.7758657	d p a
-1.2796983	a p a
-1.051103	l p a
-1.7229452	y p a
-0.6736777	n p a
-0.94011813	w p a
-0.7886036	b p a
-1.3915054	u p a
-1.1969175	t p a
-1.0647814	x p a
-0.9795796	k p a
-1.7735047	<w> o a
-3.1283016	i o a
-2.2479665	m o a
-2.3553405	p o a
-1.4468426	r o a
-2.0235212	s o a
-1.8776796	h o a
-2.0521867	d o a
-1.634138	c o a
-1.4984293	z o a
-1.4849744	l o a
-1.618756	g o a
-2.643712	n o a
-0.9993048	b o a
-2.2263064	t o a
-1.6864258	j o a
-1.9605095	f o a
-1.9942225	k o a
-0.6647591	<w> v a
-0.9581325	i v a
-1.1402409	o v a
-0.7930118	e v a
-0.6784284	r v a
-0.7668689	d v a
-0.8649358	a v a
-0.6923819	l v a
-0.7898196	y v a
-0.90606385	n v a
-0.9411412	u v a
-0.6573655	t v a
-1.3983686	<w> e a
-1.4707621	m e a
-1.214996	p e a
-2.0348065	o e a
-2.268127	v e a
-2.1582432	e e a
-1.0365272	r e a
-1.3934543	s e a
-0.93026596	h e a
-1.5430839	d e a
-1.6294706	c e a
-1.4084986	a e a
-1.8827552	z e a
-1.2610023	l e a
-1.1451364	y e a
-1.760679	g e a
-1.6118678	n e a
-0.94085693	w e a
-1.0461491	b e a
-1.6027364	u e a
-1.7023203	t e a
-1.4304183	j e a
-1.1765625	f e a
-2.2979522	k e a
-0.8505194	<w> r a
-1.1101736	i r a
-0.424298	m r a
-1.174912	p r a
-1.1397718	o r a
-1.1465932	v r a
-1.2075154	e r a
-0.8197249	r r a
-0.8510183	s r a
-1.0139657	h r a
-0.65419203	d r a
-0.6843047	c r a
-1.2172296	a r a
-0.6673174	z r a
-0.8927133	l r a
-0.73284566	y r a
-0.31695572	g r a
-0.93875813	n r a
-0.81933457	w r a
-0.58684933	b r a
-1.0448856	u r a
-0.43627396	t r a
-0.5388799	f r a
-0.5374141	k r a
-1.0737598	<w> s a
-1.469605	i s a
-2.245506	m s a
-1.7725632	p s a
-1.4899249	o s a
-2.3260398	e s a
-1.6547946	r s a
-1.2340081	s s a
-1.7996161	h s a
-2.531724	d s a
-1.6514038	a s a
-1.9223926	l s a
-2.4945385	y s a
-2.4627607	g s a
-1.7221518	n s a
-1.7194129	w s a
-1.641031	u s a
-2.3896732	t s a
-1.7847819	f s a
-2.0636785	k s a
-0.53989935	<w> h a
-0.7590058	i h a
-0.8449718	m h a
-0.8974122	p h a
-0.89512837	o h a
-0.67916167	e h a
-0.6631729	r h a
-0.83205974	s h a
-0.6587417	d h a
-0.7310066	c h a
-0.8836265	a h a
-0.88392115	z h a
-0.68326074	l h a
-1.3088278	g h a
-0.5198091	n h a
-0.99884367	w h a
-1.2077721	u h a
-1.1275079	t h a
-0.46460983	f h a
-0.38898468	x h a
-0.513194	k h a
-1.074444	<w> d a
-1.086588	i d a
-1.0033875	m d a
-0.63484603	p d a
-1.450081	o d a
-2.2010298	e d a
-1.3692938	r d a
-0.30853125	s d a
-0.97521716	h d a
-1.1785038	d d a
-1.1330891	c d a
-1.2304826	a d a
-1.5980065	l d a
-1.4145976	y d a
-1.0152104	g d a
-1.1323783	n d a
-1.258928	w d a
-0.9493484	b d a
-1.378537	u d a
-1.1976466	t d a
-0.48688728	j d a
-0.73517185	f d a
-0.73041826	k d a
-0.75289404	<w> c a
-0.59102404	i c a
-1.2002496	m c a
-0.9574517	p c a
-0.83065295	o c a
-1.3529431	e c a
-1.1707844	r c a
-0.8414756	s c a
-1.0070223	h c a
-0.524775	d c a
-0.90739095	c c a
-1.5524315	a c a
-1.0175536	l c a
-1.7331882	y c a
-1.5768869	n c a
-0.5336934	w c a
-1.0473706	b c a
-1.4069313	u c a
-1.4224612	t c a
-0.664048	f c a
-1.219492	x c a
-0.72678953	k c a
-2.5760603	<w> a a
-3.2275932	m a a
-2.0653787	s a a
-2.6394236	h a a
-1.4620744	a a a
-1.8143381	z a a
-3.1585956	l a a
-2.8399415	g a a
-2.7858944	w a a
-0.8944852	<w> z a
-0.6835385	i z a
-0.8903767	o z a
-1.4748248	e z a
-0.7334452	r z a
-0.3997354	c z a
-0.82963437	a z a
-0.9163399	z z a
-0.9282437	l z a
-0.7149528	y z a
-0.23798014	g z a
-0.49843788	n z a
-1.2759906	u z a
-1.5370059	t z a
-0.61707693	<w> l a
-1.2619876	i l a
-1.4681307	m l a
-0.46438605	p l a
-1.1266717	o l a
-0.8397055	v l a
-1.1992369	e l a
-0.8572356	r l a
-0.6988594	s l a
-1.305152	h l a
-1.6004122	d l a
-0.5641233	c l a
-1.4239048	a l a
-1.0414807	l l a
-0.85939646	y l a
-0.8866036	g l a
-0.8500885	n l a
-1.6852126	w l a
-1.0901175	b l a
-0.62115693	u l a
-1.1855395	t l a
-0.60263306	f l a
-0.33102518	q l a
-0.9418697	k l a
-0.5776352	<w> y a
-0.9360714	i y a
-1.7737961	p y a
-0.71290743	o y a
-1.7064208	e y a
-2.0964909	r y a
-1.7732822	h y a
-1.5927663	d y a
-1.5763142	c y a
-1.2898515	a y a
-2.3846216	l y a
-1.6918848	n y a
-1.5101769	w y a
-1.8404533	b y a
-2.286025	t y a
-1.5195093	k y a
-0.7225803	<w> g a
-1.0110973	i g a
-0.9193534	p g a
-1.0616837	o g a
-0.6780807	e g a
-0.8838421	r g a
-1.038791	s g a
-0.65276164	h g a
-1.7595086	d g a
-1.1974307	a g a
-0.6611162	l g a
-1.2337719	y g a
-1.439568	g g a
-1.925287	n g a
-1.112872	u g a
-0.90751207	t g a
-0.76283544	f g a
-0.7164018	<w> n a
-1.3138256	i n a
-0.6917713	m n a
-1.1286128	o n a
-1.4922825	e n a
-0.77018714	r n a
-0.6907697	s n a
-1.0257984	h n a
-0.9168688	d n a
-0.9458414	c n a
-1.375645	a n a
-0.81561446	y n a
-0.66787356	g n a
-0.9551115	n n a
-1.9752274	w n a
-1.0671332	b n a
-1.3110597	u n a
-1.5291514	t n a
-0.98517907	f n a
-0.5299273	x n a
-1.1276338	k n a
-0.59438026	<w> w a
-0.4370225	i w a
-0.8428123	m w a
-0.48012692	p w a
-1.3049518	o w a
-0.77596587	e w a
-0.49747455	r w a
-0.57569444	s w a
-0.34924072	h w a
-0.619239	d w a
-0.67633593	a w a
-0.479859	l w a
-0.49429888	y w a
-0.6177698	g w a
-0.35725704	n w a
-0.78323746	w w a
-0.6431229	b w a
-0.31286362	u w a
-0.85533977	t w a
-0.46520323	f w a
-0.3335523	k w a
-0.7237171	<w> b a
-1.3773243	i b a
-0.9977993	m b a
-1.0621628	p b a
-1.0467584	o b a
-0.9296942	e b a
-0.7080032	r b a
-0.77452546	s b a
-0.8571896	h b a
-0.82888186	d b a
-1.3026953	a b a
-0.8224402	l b a
-1.2534261	y b a
-0.878278	g b a
-0.817658	n b a
-0.7307938	w b a
-1.4356998	b b a
-1.3667291	u b a
-0.62467235	t b a
-0.671316	f b a
-1.2705868	k b a
-2.10171	i u a
-2.4183486	p u a
-2.8972607	o u a
-2.0712273	r u a
-1.3838538	s u a
-1.8541592	h u a
-1.1183894	d u a
-2.232527	c u a
-2.529716	a u a
-1.5715004	l u a
-0.93288195	g u a
-1.1298332	n u a
-2.5476015	b u a
-0.97358376	t u a
-1.6129147	j u a
-0.5626905	q u a
-0.5786458	x u a
-0.8920156	<w> t a
-0.9747847	i t a
-1.2466087	p t a
-1.2276273	o t a
-1.1421647	e t a
-1.0592079	r t a
-0.84387356	s t a
-1.7212793	h t a
-1.527611	d t a
-1.1910933	c t a
-1.7137051	a t a
-1.0868508	l t a
-1.0561118	n t a
-0.9115363	b t a
-1.303479	u t a
-1.0414197	t t a
-1.7867833	f t a
-1.7031589	x t a
-0.8956485	k t a
-0.6225358	<w> j a
-0.44457024	i j a
-0.29241338	p j a
-1.1185105	e j a
-0.68762934	r j a
-0.91384166	d j a
-0.6750707	a j a
-0.52258277	y j a
-1.1900861	n j a
-0.8487676	u j a
-0.4727477	t j a
-0.6705036	k j a
-0.7686749	<w> f a
-1.9816115	i f a
-1.0386227	p f a
-1.3396621	o f a
-1.3549333	e f a
-0.829848	r f a
-0.81476754	s f a
-1.2564605	h f a
-0.7734565	d f a
-0.8275796	c f a
-1.411945	a f a
-1.3075336	l f a
-1.1433253	y f a
-0.9987952	n f a
-1.1362252	w f a
-1.34739	u f a
-0.9541735	t f a
-1.4013625	f f a
-0.7453978	k f a
-1.0211297	<w> x a
-1.6714258	i x a
-1.0934335	o x a
-1.0129343	e x a
-1.3240485	a x a
-1.5841159	u x a
-0.7736342	<w> k a
-1.1698114	i k a
-1.0961185	p k a
-1.5156349	o k a
-1.358717	e k a
-1.3503457	r k a
-1.2486677	s k a
-0.6395401	h k a
-1.5875107	c k a
-1.2786987	a k a
-0.936253	l k a
-0.9819625	y k a
-1.3893968	n k a
-1.0493593	u k a
-0.8818544	t k a
-0.24908893	f k a
-0.64608693	k k a
-2.696699	</w> <w> z
-2.815036	<w> i z
-1.7232065	m i z
-2.443917	p i z
-2.432194	o i z
-2.7343187	v i z
-1.6958404	e i z
-1.6492624	r i z
-1.7839079	s i z
-1.9452609	h i z
-2.272768	d i z
-2.0382638	c i z
-2.7478726	a i z
-1.1982504	l i z
-1.6547623	g i z
-1.316861	n i z
-2.5350394	w i z
-2.191003	b i z
-2.0815578	u i z
-2.118924	t i z
-2.606987	f i z
-2.4221392	k i z
-2.1939554	<w> o z
-3.306915	i o z
-2.3660102	m o z
-2.9044263	p o z
-2.5868256	o o z
-2.477559	r o z
-2.85039	h o z
-2.079415	d o z
-3.012687	c o z
-2.4213755	n o z
-2.485294	w o z
-2.9433773	t o z
-2.0920703	k o z
-2.8856606	e v z
-3.0257642	<w> e z
-2.6567981	i e z
-2.983107	m e z
-2.6460078	p e z
-3.0951943	v e z
-1.7077564	e e z
-2.9716005	r e z
-3.005254	s e z
-2.8486123	h e z
-2.9735398	d e z
-2.945416	c e z
-2.977484	l e z
-2.2907434	y e z
-2.7139676	n e z
-2.6026971	b e z
-2.30608	u e z
-3.4137824	t e z
-2.824837	k e z
-2.721825	i r z
-3.0248356	o r z
-3.229063	e r z
-2.8292673	a r z
-2.0290475	y r z
-2.9622889	g r z
-2.8801792	u r z
-3.290705	t r z
-1.799379	k r z
-3.417739	<w> s z
-3.7815952	e s z
-2.273532	w s z
-3.2797637	u s z
-2.942895	p h z
-2.1365438	a h z
-3.7491028	e d z
-3.0799513	a d z
-2.6976829	u d z
-2.9186437	<w> c z
-3.2859335	i c z
-2.899226	o c z
-3.1955519	n c z
-2.6773267	<w> a z
-2.446315	i a z
-2.1066163	m a z
-2.4694877	o a z
-2.9817424	e a z
-2.0591953	r a z
-1.999891	h a z
-1.9190774	d a z
-1.9477355	l a z
-1.8241595	g a z
-2.368727	n a z
-2.5534544	w a z
-2.6590078	b a z
-1.8058616	j a z
-2.4153223	f a z
-1.7535464	x a z
-1.9658978	k a z
-1.273637	i z z
-0.8751194	o z z
-1.0221319	e z z
-0.8501967	a z z
-0.24458435	u z z
-3.1644874	i l z
-2.8543835	o l z
-3.1843646	e l z
-3.008521	a l z
-2.5471203	u l z
-2.203807	l y z
-1.7420111	b y z
-3.04519	i g z
-3.2306519	i n z
-2.8739398	o n z
-2.2665508	e n z
-2.7151432	r n z
-2.5001235	a n z
-3.1418667	u n z
-2.9215276	o w z
-1.9699988	m u z
-1.8615736	p u z
-3.0795794	o u z
-2.6895177	r u z
-2.3863063	s u z
-2.3117704	h u z
-2.6383502	a u z
-2.567709	l u z
-2.4306636	g u z
-2.3377843	n u z
-2.1314821	b u z
-2.297791	f u z
-1.8260002	i t z
-2.4526005	e t z
-2.331976	r t z
-2.8636427	a t z
-1.9047921	l t z
-3.424561	n t z
-2.432139	u t z
-2.9158144	t t z
-1.4668548	</w> <w> l
-1.5912277	<w> i l
-0.99124444	m i l
-1.1652924	p i l
-0.79465044	o i l
-0.95989954	v i l
-1.1718931	e i l
-1.4873027	r i l
-1.4222438	s i l
-0.9154643	h i l
-1.5935916	d i l
-1.2288089	c i l
-0.7749722	a i l
-1.4673096	z i l
-2.1389992	l i l
-1.3005819	g i l
-1.8569427	n i l
-0.8031087	w i l
-0.5845485	b i l
-0.91965747	u i l
-1.5851885	t i l
-1.2520938	j i l
-1.0448041	f i l
-1.3582867	x i l
-1.1150197	k i l
-3.0014539	<w> m l
-2.1572537	i m l
-2.5705328	m m l
-2.538475	o m l
-2.2015662	e m l
-1.8296434	r m l
-2.1854916	a m l
-2.1470356	l m l
-2.0872889	u m l
-1.171649	<w> p l
-1.159518	i p l
-0.7279429	m p l
-0.8773457	p p l
-1.6011626	o p l
-1.1580924	e p l
-1.1422983	r p l
-1.182995	s p l
-1.0597297	h p l
-1.602865	a p l
-1.279417	l p l
-1.76292	y p l
-0.91238064	g p l
-0.8091135	n p l
-1.2703893	u p l
-1.2258129	t p l
-0.60541946	x p l
-1.3714563	<w> o l
-1.6302207	i o l
-1.2200629	m o l
-0.7957082	p o l
-1.0142767	o o l
-0.5457265	v o l
-0.94680315	e o l
-1.3102298	r o l
-0.8534463	s o l
-0.8610873	h o l
-1.1692194	d o l
-1.0997885	c o l
-1.5121169	a o l
-1.2991482	z o l
-2.165067	l o l
-1.7964976	y o l
-1.2169667	g o l
-1.2584492	n o l
-1.2295951	w o l
-1.089586	b o l
-1.5621921	u o l
-1.3865306	t o l
-1.2760129	j o l
-1.1025153	f o l
-0.98735476	k o l
-2.9695148	<w> v l
-2.1932302	a v l
-1.0154366	<w> e l
-1.2352656	i e l
-1.381608	m e l
-1.3904129	p e l
-1.1255925	o e l
-0.9755861	v e l
-1.1469901	e e l
-1.3612504	r e l
-1.1681454	s e l
-1.2150724	h e l
-1.2541889	d e l
-1.2101043	c e l
-0.8869113	a e l
-1.638124	z e l
-2.2118027	l e l
-1.0082734	y e l
-1.4361746	g e l
-1.4427807	n e l
-0.7229984	w e l
-0.8806699	b e l
-1.0466858	u e l
-1.4478465	t e l
-1.5837675	j e l
-1.0976689	f e l
-1.3578322	x e l
-1.481766	k e l
-3.3853288	<w> r l
-1.3675684	i r l
-2.0910318	o r l
-1.7275004	e r l
-1.452378	a r l
-1.9397657	n r l
-1.9811171	w r l
-1.5682361	u r l
-1.440627	<w> s l
-1.8219028	i s l
-1.875264	o s l
-2.6536686	e s l
-2.9541132	r s l
-1.657497	s s l
