\data\
ngram 1=30
ngram 2=629
ngram 3=6902
ngram 4=33609

\1-grams:
-2.6430006	<unk>	0
0	<s>	-0.35148263
-2.4128594	<w>	-0.35291076
-1.4382269	g	-0.7447255
-1.3848308	a	-1.0670636
-1.4019103	w	-0.6473334
-1.4196892	d	-0.7489045
-1.4196892	m	-0.7626629
-1.3848308	i	-1.0231414
-1.4196892	h	-0.751891
-1.4019103	t	-0.8870301
-1.4019103	y	-0.841519
-1.3848308	</w>	-1.1722491
-1.4019103	s	-0.9301238
-1.3683976	u	-0.9613203
-1.4019103	r	-0.7649496
-1.4196892	n	-0.77616113
-1.3683976	e	-1.0885906
-1.4382269	c	-0.7820149
-1.3848308	l	-0.8060986
-1.4575915	p	-0.79839176
-1.5214763	z	-0.6429119
-1.4196892	f	-0.78429884
-1.3848308	o	-1.0542657
-1.4382269	k	-0.71432257
-1.4575915	v	-0.6840041
-1.4019103	b	-0.76481646
-1.6245607	q	-0.6595317
-1.5699672	j	-0.7197999
-1.8477489	x	-0.43648168

\2-grams:
-0.25448865	<s> <w>	-0.28464362
-0.030117955	</w> <w>	-1.2405292
-1.2310934	<w> g	-0.2911733
-1.5455225	g g	-0.49253094
-1.3436881	a g	-0.8793514
-1.934953	w g	-0.28464362
-1.6288512	d g	-0.40987393
-1.3360195	i g	-0.81839466
-1.9305397	h g	-0.31692198
-1.6821952	t g	-0.3293696
-1.3808738	y g	-0.37839764
-1.6796932	s g	-0.3400223
-1.3697888	u g	-0.6469557
-1.6480145	r g	-0.4722693
-1.3720613	n g	-0.52202845
-1.3829638	e g	-0.72407436
-1.9480976	c g	-0.30048296
-1.604454	l g	-0.4769234
-1.7121313	p g	-0.33420497
-1.8820484	z g	-0.28464362
-1.9147519	f g	-0.28464362
-1.367144	o g	-0.68968886
-1.8923635	k g	-0.28464362
-2.0508502	b g	-0.28464362
-1.6722237	x g	-0.28464362
-1.4107044	<w> a	-0.28464362
-1.0653226	g a	-0.6197702
-1.8839532	a a	-0.3016368
-0.89485765	w a	-0.7071867
-1.0537704	d a	-0.6884658
-0.96530366	m a	-0.8060285
-1.3317829	i a	-0.7741751
-1.0529183	h a	-0.7389395
-1.2357976	t a	-0.81049216
-1.2481474	y a	-0.50552094
-1.2725985	s a	-0.7167269
-1.3891362	u a	-0.5612846
-1.0361577	r a	-0.9270112
-1.1239588	n a	-0.7923901
-1.3789032	e a	-0.8671849
-1.0235792	c a	-0.7532029
-1.0572395	l a	-0.88368595
-1.0813239	p a	-0.6735412
-0.93586445	z a	-0.4747896
-1.002076	f a	-0.5530783
-1.4683354	o a	-0.56966174
-1.0726384	k a	-0.5281472
-0.93388927	v a	-0.6146817
-1.0073429	b a	-0.7126093
-0.7543298	j a	-0.4281721
-1.1202031	x a	-0.31142485
-1.4186642	<w> w	-0.28464362
-1.6217183	g w	-0.31483278
-1.416402	a w	-0.6375135
-1.6432195	w w	-0.28464362
-1.4428389	d w	-0.6694235
-1.9094626	m w	-0.28464362
-1.9102856	i w	-0.33166543
-1.5349892	h w	-0.4373466
-1.402868	t w	-0.7028656
-1.4563175	y w	-0.45466116
-1.3990464	s w	-0.5640404
-2.2476556	u w	-0.28464362
-1.7162626	r w	-0.406425
-1.5976038	n w	-0.4608277
-1.4379289	e w	-0.6744964
-1.9283135	c w	-0.3253809
-1.6633432	l w	-0.40991902
-1.8034177	p w	-0.30048296
-1.7011478	z w	-0.30453476
-2.0224524	f w	-0.28464362
-1.4036041	o w	-0.6939146
-1.4082094	k w	-0.5512482
-1.8947576	b w	-0.28464362
-1.4386278	q w	-0.28464362
-1.5097007	x w	-0.3113729
-1.4267726	<w> d	-0.28464362
-1.7339379	g d	-0.28464362
-1.3423847	a d	-0.78061545
-1.7892429	w d	-0.3113729
-1.5561457	d d	-0.50951093
-1.762166	m d	-0.28464362
-1.2984624	i d	-0.8449633
-1.9202448	h d	-0.29780266
-1.9273999	t d	-0.33166543
-1.5059311	y d	-0.4247585
-1.5365074	s d	-0.50635606
-1.3445402	u d	-0.6765556
-1.4658048	r d	-0.517285
-1.5445802	n d	-0.5315926
-1.3305491	e d	-0.80426854
-1.9208767	c d	-0.33420497
-1.6001356	l d	-0.46782756
-1.9641547	p d	-0.30453476
-2.0345676	f d	-0.28464362
-1.3472812	o d	-0.75437176
-1.729139	k d	-0.3400223
-1.8627591	v d	-0.28464362
-1.9041717	b d	-0.31483278
-1.7609293	j d	-0.28464362
-1.4267726	<w> m	-0.28464362
-1.4081416	g m	-0.5161136
-1.3423847	a m	-0.8724827
-1.7892429	w m	-0.35730878
-1.4977393	d m	-0.5919156
-1.4396249	m m	-0.5323738
-1.353867	i m	-0.8443329
-1.3394082	h m	-0.53737307
-1.4402806	t m	-0.78310275
-1.2800853	y m	-0.5965502
-1.3464919	s m	-0.7637654
-1.2808651	u m	-0.79693305
-1.5754493	r m	-0.48923075
-1.602205	n m	-0.4828875
-1.3639116	e m	-0.85448146
-1.9380928	c m	-0.28464362
-1.6001356	l m	-0.4627124
-1.4920336	p m	-0.497219
-1.7091157	z m	-0.3113729
-1.8867545	f m	-0.3113729
-1.3472812	o m	-0.78647554
-1.5419959	k m	-0.43715823
-1.7642635	b m	-0.30453476
-1.6605017	x m	-0.28464362
-1.4107044	<w> i	-0.28464362
-1.1843102	g i	-0.6194806
-1.4148613	a i	-0.7615634
-1.0144962	w i	-0.63443637
-1.1652318	d i	-0.7092913
-1.0052733	m i	-0.7395214
-1.6887238	i i	-0.47206694
-1.11993	h i	-0.66957825
-1.1721281	t i	-0.89779365
-1.2763109	y i	-0.723222
-1.2514833	s i	-0.84714115
-1.3891362	u i	-0.5506081
-1.0361577	r i	-0.9401954
-1.1239588	n i	-0.7390172
-1.4163691	e i	-0.74588263
-1.1718677	c i	-0.7211449
-1.0757098	l i	-0.94004905
-1.1275232	p i	-0.7015197
-0.93586445	z i	-0.45954335
-0.9792267	f i	-0.6879757
-1.3629074	o i	-0.7317612
-1.0014195	k i	-0.5979084
-0.72095734	v i	-0.7025135
-1.0513682	b i	-0.6573125
-1.0697911	j i	-0.34781247
-1.0452367	x i	-0.38792232
-1.4267726	<w> h	-0.28464362
-1.1881266	g h	-0.4945824
-1.3977894	a h	-0.59482396
-1.1101601	w h	-0.5955137
-1.4462649	d h	-0.59945834
-1.9020611	m h	-0.30048296
-1.8491852	i h	-0.31701675
-1.5391997	h h	-0.37665415
-1.1747986	t h	-0.773455
-1.5583403	y h	-0.5016332
-1.2756474	s h	-0.73154944
-1.4472145	u h	-0.41995123
-1.5754493	r h	-0.49919984
-1.4937135	n h	-0.5299556
-1.4606152	e h	-0.5802305
-1.0475758	c h	-0.72371966
-1.6001356	l h	-0.38068125
-1.2111467	p h	-0.71885055
-1.7293183	z h	-0.28464362
-1.8867545	f h	-0.28464362
-1.5508852	o h	-0.45627028
-1.35869	k h	-0.49919984
-1.9041717	b h	-0.3475324
-1.517951	x h	-0.29780266
-1.4186642	<w> t	-0.28464362
-1.8841268	g t	-0.29780266
-1.3587254	a t	-0.93668437
-1.779774	w t	-0.30453476
-1.5517384	d t	-0.45695412
-1.6511492	m t	-0.29780266
-1.3148032	i t	-0.98497236
-1.4763263	h t	-0.3568119
-1.673663	t t	-0.5330126
-1.2499119	y t	-0.61010635
-1.232731	s t	-0.8377276
-1.2995633	u t	-0.7588766
-1.571009	r t	-0.52249414
-1.4449522	n t	-0.5895924
-1.3456603	e t	-0.9054885
-1.4547911	c t	-0.55817187
-1.5374655	l t	-0.5344146
-1.389028	p t	-0.64011633
-1.8587357	z t	-0.28464362
-1.4590983	f t	-0.43724298
-1.3282872	o t	-0.83908695
-1.5373775	k t	-0.36687022
-1.8524616	v t	-0.28464362
-1.8947576	b t	-0.30925736
-1.3309722	x t	-0.3489693
-1.4186642	<w> y	-0.28464362
-1.3039339	g y	-0.5081526
-1.4596021	a y	-0.70811045
-1.3856894	w y	-0.30925736
-1.3558447	d y	-0.5091154
-1.3359452	m y	-0.45146993
-2.0820465	i y	-0.30048296
-1.2986735	h y	-0.45167843
-1.2858287	t y	-0.5747444
-2.0094795	y y	-0.3113729
-1.3710209	s y	-0.5632659
-1.7163196	u y	-0.34426168
-1.138738	r y	-0.57448304
-1.4040384	n y	-0.45516628
-1.458992	e y	-0.6239572
-1.3543371	c y	-0.44242638
-1.0584723	l y	-0.61391115
-1.3466581	p y	-0.44435155
-1.0927525	z y	-0.43096012
-1.5321048	f y	-0.44444242
-1.4947813	o y	-0.6043685
-1.3087814	k y	-0.44098347
-1.1307218	v y	-0.56187105
-1.1879237	b y	-0.47835296
-1.3309722	x y	-0.31701675
-1.3487382	g </w>	-0.84781724
-1.3573761	a </w>	-1.273786
-1.3819258	w </w>	-0.73867273
-1.24907	d </w>	-1.0397028
-1.2168264	m </w>	-1.007518
-1.2958671	i </w>	-1.2915148
-1.1711394	h </w>	-1.0976948
-1.1721281	t </w>	-1.2359974
-1.0899243	y </w>	-1.2553025
-1.2313473	s </w>	-1.2359974
-1.2980614	u </w>	-1.215794
-1.335264	r </w>	-0.97275597
-1.268469	n </w>	-1.0696659
-1.3613163	e </w>	-1.2915148
-1.3987997	c </w>	-0.84781724
-1.3232539	l </w>	-1.007518
-1.3863462	p </w>	-0.8935747
-1.0064641	z </w>	-0.97275597
-1.291273	f </w>	-0.8935747
-1.3820443	o </w>	-1.2359974
-1.1904552	k </w>	-1.007518
-1.3689818	v </w>	-0.59254473
-1.3354452	b </w>	-0.8935747
-1.177271	q </w>	-0.3253809
-1.5413253	j </w>	-0.3253809
-0.9813257	x </w>	-0.7966647
-1.4186642	<w> s	-0.28464362
-1.4049723	g s	-0.4225001
-1.3241334	a s	-0.89055455
-1.6432195	w s	-0.32917964
-1.3971672	d s	-0.5612039
-1.2187957	m s	-0.49949557
-1.2802111	i s	-0.9114408
-1.4763263	h s	-0.45330596
-1.2609088	t s	-0.61274755
-1.2499119	y s	-0.61037815
-1.4611866	s s	-0.5585104
-1.2417544	u s	-0.8125534
-1.5132909	r s	-0.44963002
-1.3666493	n s	-0.59483445
-1.3456603	e s	-0.86610425
-1.4547911	c s	-0.54716873
-1.439993	l s	-0.5245201
-1.3080568	p s	-0.627606
-1.8587357	z s	-0.28464362
-1.3966165	f s	-0.4696673
-1.3113356	o s	-0.8577632
-1.2664768	k s	-0.45907798
-1.4961733	v s	-0.31692198
-1.3853331	b s	-0.52738523
-1.6490878	x s	-0.28464362
-1.402888	<w> u	-0.28464362
-1.1824144	g u	-0.60784346
-1.4133261	a u	-0.73887813
-1.3781945	w u	-0.3113729
-1.2468913	d u	-0.47107142
-1.1234462	m u	-0.5658949
-1.5133095	i u	-0.60956293
-1.1430775	h u	-0.4872497
-1.2576549	t u	-0.6837783
-1.6057473	y u	-0.34935334
-1.3411224	s u	-0.5833928
-1.9058261	u u	-0.30048296
-1.1134106	r u	-0.70841527
-1.2663293	n u	-0.5338808
-1.4777329	e u	-0.58743757
-1.1417817	c u	-0.64665014
-1.1570663	l u	-0.69926304
-1.2058215	p u	-0.55319
-1.2564423	z u	-0.31701675
-1.0009375	f u	-0.6176706
-1.3432331	o u	-0.8192362
-1.3033873	k u	-0.35186884
-1.3656518	v u	-0.36687022
-1.0988724	b u	-0.59788126
-0.20625126	q u	-0.8410469
-0.7109716	j u	-0.37936288
-1.4936559	x u	-0.29780266
-1.4186642	<w> r	-0.28464362
-1.0174639	g r	-0.79663086
-1.3241334	a r	-1.0170344
-1.1437593	w r	-0.46499437
-1.1670363	d r	-0.75905997
-1.6511492	m r	-0.41530073
-1.3724797	i r	-0.70739996
-1.2636716	h r	-0.56656843
-1.2373416	t r	-0.9677757
-1.3409662	y r	-0.5372163
-1.7299825	s r	-0.33797124
-1.2240769	u r	-0.8570396
-1.571009	r r	-0.51550657
-1.6633053	n r	-0.4335499
-1.3456603	e r	-1.0518081
-1.144955	c r	-0.8229937
-1.6633432	l r	-0.3543664
-1.1541704	p r	-0.8292322
-1.7011478	z r	-0.28464362
-1.1403805	f r	-0.69214714
-1.3113356	o r	-0.965578
-1.5373775	k r	-0.3747844
-1.3723376	v r	-0.3475324
-0.9880511	b r	-0.9128151
-1.5097007	x r	-0.28464362
-1.4267726	<w> n	-0.28464362
-1.3543224	g n	-0.4847136
-1.3423847	a n	-1.014387
-1.7892429	w n	-0.30797905
-1.4002498	d n	-0.55052286
-1.4396249	m n	-0.49161556
-1.2814609	i n	-0.96066415
-1.3814108	h n	-0.42722797
-1.4051385	t n	-0.5981265
-1.2516837	y n	-0.49241918
-1.6758316	s n	-0.47128636
-1.2615583	u n	-0.7901658
-1.6427717	r n	-0.430039
-1.4937135	n n	-0.54846597
-1.3469101	e n	-0.9841763
-1.7808188	c n	-0.3400223
-1.6001356	l n	-0.40696913
-1.4920336	p n	-0.46496105
-1.7362344	f n	-0.30453476
-1.3295869	o n	-0.8853376
-1.3115039	k n	-0.5910891
-1.8627591	v n	-0.28464362
-1.7642635	b n	-0.3400223
-1.517951	x n	-0.28464362
-1.402888	<w> e	-0.28464362
-1.0638804	g e	-0.71954614
-1.5037879	a e	-0.5245201
-0.9374923	w e	-0.6187667
-1.1895114	d e	-0.6759222
-1.0040679	m e	-0.7026858
-1.3121088	i e	-0.8443395
-1.0726795	h e	-0.70551604
-1.2120591	t e	-0.81209016
-1.2200456	y e	-0.5309407
-1.2500386	s e	-0.79610604
-1.339563	u e	-0.67039263
-1.0532143	r e	-0.918577
-1.0651284	n e	-0.82628405
-1.377558	e e	-0.78054976
-1.0900193	c e	-0.7515254
-1.0383425	l e	-0.9788209
-1.1260524	p e	-0.70881534
-0.8739759	z e	-0.6303891
-1.0009375	f e	-0.63415897
-1.3805782	o e	-0.5441479
-1.0710657	k e	-0.7049122
-0.77107894	v e	-0.64720553
-0.9662734	b e	-0.73389554
-1.4304028	q e	-0.28464362
-0.8538618	j e	-0.37865856
-1.042441	x e	-0.46899593
-1.4350352	<w> c	-0.28464362
-1.3436881	a c	-0.8673759
-1.7989228	w c	-0.32554194
-1.6288512	d c	-0.33736837
-1.5044186	m c	-0.31843925
-1.3360195	i c	-0.92006576
-1.6952252	h c	-0.29780266
-1.4427558	t c	-0.5211059
-1.3453496	y c	-0.5210497
-1.3232746	s c	-0.8349536
-1.3697888	u c	-0.6285428
-1.728786	r c	-0.45795238
-1.5486501	n c	-0.5600989
-1.3829638	e c	-0.804065
-1.5945784	c c	-0.5381887
-1.6733993	l c	-0.4778092
-1.8176169	p c	-0.3113729
-1.9147519	f c	-0.28464362
-1.3864727	o c	-0.8025119
-1.8923635	k c	-0.28464362
-1.8733066	v c	-0.28464362
-1.7712146	b c	-0.3253809
-1.5263611	x c	-0.30048296
-1.4107044	<w> l	-0.28464362
-1.2199547	g l	-0.71748346
-1.3397894	a l	-0.9280274
-1.6364334	w l	-0.36786345
-1.3530606	d l	-0.70701635
-1.3803823	m l	-0.49819538
-1.3134539	i l	-0.8985952
-1.3755661	h l	-0.55161345
-1.3104318	t l	-0.8327661
-1.1731944	y l	-0.6453423
-1.3429049	s l	-0.7781165
-1.2588102	u l	-0.76657903
-1.6324719	r l	-0.49143896
-1.4865663	n l	-0.5605563
-1.3444141	e l	-0.9446404
-1.1433655	c l	-0.8788515
-1.5337617	l l	-0.5321815
-1.1526068	p l	-0.8935747
-1.6933234	z l	-0.30048296
-1.1388158	f l	-0.7102114
-1.3445783	o l	-0.8630332
-1.2640216	k l	-0.62602556
-1.6854918	v l	-0.28464362
-1.2189002	b l	-0.7304148
-1.4344959	q l	-0.28464362
-1.481945	x l	-0.3475324
-1.4434582	<w> p	-0.28464362
-1.8953143	g p	-0.3113729
-1.3813632	a p	-0.7810348
-1.8088235	w p	-0.29780266
-1.716225	d p	-0.38965738
-1.4462384	m p	-0.533364
-1.3984305	i p	-0.69005805
-1.9410846	h p	-0.29780266
-1.8396755	t p	-0.33550248
-1.5655948	y p	-0.36420006
-1.3249853	s p	-0.70409864
-1.3965962	u p	-0.5698526
-1.7351859	r p	-0.4529522
-1.5527586	n p	-0.44890887
-1.4425839	e p	-0.71007514
-1.9583383	c p	-0.3253809
-1.5487703	l p	-0.4204963
-1.6320074	p p	-0.47832227
-1.3685654	o p	-0.7897219
-1.8854271	k p	-0.3253809
-1.9416337	b p	-0.28464362
-1.5349373	x p	-0.29447532
-1.4697539	<w> z	-0.28464362
-2.0821018	g z	-0.28464362
-1.5191555	a z	-0.65546733
-1.9921113	w z	-0.28464362
-1.9841933	d z	-0.28464362
-1.4033737	i z	-0.7798522
-1.9923581	h z	-0.28464362
-1.6378783	t z	-0.40621424
-2.0751984	y z	-0.30453476
-2.1634915	s z	-0.30453476
-1.5575542	u z	-0.4368016
-1.5371413	r z	-0.3133466
-1.7807164	n z	-0.4022898
-1.5406824	e z	-0.51253927
-1.8166877	c z	-0.30048296
-1.7806914	l z	-0.30453476
-1.4544379	z z	-0.47784257
-1.6254976	o z	-0.46345
-1.9182618	v z	-0.28464362
-1.4267726	<w> f	-0.28464362
-1.8937504	g f	-0.30745223
-1.5094872	a f	-0.6060663
-1.7892429	w f	-0.30453476
-1.7036022	d f	-0.34924483
-1.6565233	m f	-0.35000807
-1.353867	i f	-0.6997498
-1.6892071	h f	-0.34007782
-1.4402806	t f	-0.62313414
-1.7693098	y f	-0.32554194
-1.6242626	s f	-0.39765042
-1.4771817	u f	-0.615002
-1.7224791	r f	-0.41446197
-1.4937135	n f	-0.6047792
-1.381606	e f	-0.7086499
-2.0546114	c f	-0.28464362
-1.6683421	l f	-0.44161087
-1.5524684	p f	-0.31397197
-1.8702357	z f	-0.28464362
-1.2957333	f f	-0.5000361
-1.4966893	o f	-0.5733974
-1.729139	k f	-0.31483278
-2.0377107	b f	-0.28464362
-1.517951	x f	-0.28464362
-1.4107044	<w> o	-0.28464362
-1.0921545	g o	-0.5813689
-1.6548709	a o	-0.43216476
-0.91629285	w o	-0.64485127
-1.0537704	d o	-0.68404555
-1.0731052	m o	-0.7177759
-1.4139783	i o	-0.7124145
-1.0133759	h o	-0.722291
-1.1721281	t o	-0.79117215
-1.3064283	y o	-0.4067375
-1.2313473	s o	-0.6597225
-1.5762068	u o	-0.4162433
-1.0185062	r o	-0.9182
-1.1669981	n o	-0.7549265
-1.4794276	e o	-0.599176
-1.0235792	c o	-0.7442895
-1.0757098	l o	-0.8705585
-1.0599453	p o	-0.6990888
-0.9697313	z o	-0.40980533
-0.9792267	f o	-0.630154
-1.4230502	o o	-0.7822845
-1.0475785	k o	-0.5044703
-0.9750385	v o	-0.52864563
-0.9673728	b o	-0.7354014
-0.6727893	j o	-0.40038127
-1.2108667	x o	-0.3543664
-1.4350352	<w> k	-0.28464362
-1.9035921	g k	-0.28464362
-1.3436881	a k	-0.6713706
-1.8163959	w k	-0.2958982
-1.9391366	d k	-0.28464362
-1.9116845	m k	-0.3113729
-1.4938543	i k	-0.62617797
-1.6952252	h k	-0.29780266
-1.8335279	t k	-0.31932208
-1.5619524	y k	-0.33410636
-1.2996161	s k	-0.72138417
-1.3947191	u k	-0.41741118
-1.728786	r k	-0.4548164
-1.5486501	n k	-0.4678629
-1.5080681	e k	-0.5067131
-1.359526	c k	-0.5516
-1.604454	l k	-0.45627028
-1.7121313	p k	-0.35730878
-1.7378254	z k	-0.3113729
-2.0470307	f k	-0.28464362
-1.4986058	o k	-0.5878156
-1.6312293	k k	-0.32550165
-2.0508502	b k	-0.28464362
-1.4434582	<w> v	-0.28464362
-2.0392442	g v	-0.28464362
-1.4007567	a v	-0.8291612
-1.716225	d v	-0.38746792
-2.0622737	m v	-0.28464362
-1.3984305	i v	-0.77056223
-1.9410846	h v	-0.3113729
-2.0783658	t v	-0.3253809
-1.8858778	y v	-0.30453476
-1.631145	s v	-0.6339374
-1.629722	u v	-0.4799418
-1.6533216	r v	-0.45986247
-1.7602732	n v	-0.4373466
-1.4222836	e v	-0.7545526
-1.6088159	l v	-0.5917307
-1.7465026	z v	-0.28464362
-1.3879589	o v	-0.79052675
-2.021398	k v	-0.28464362
-1.7141284	v v	-0.28464362
-1.9416337	b v	-0.3113729
-1.4512652	q v	-0.28464362
-1.6842709	x v	-0.28464362
-1.4186642	<w> b	-0.28464362
-1.7272544	g b	-0.32550165
-1.3410851	a b	-0.8914411
-1.6432195	w b	-0.38142952
-1.4938842	d b	-0.5085153
-1.4968653	m b	-0.55276895
-1.3935428	i b	-0.6976998
-1.6832713	h b	-0.36101314
-1.5174928	t b	-0.4828875
-1.3409662	y b	-0.5470071
-1.3710209	s b	-0.68473995
-1.260182	u b	-0.6312103
-1.6375912	r b	-0.47321814
-1.4901252	n b	-0.52915955
-1.3802525	e b	-0.72968924
-1.9114733	c b	-0.28464362
-1.4860004	l b	-0.49294817
-1.7009549	p b	-0.34007782
-1.7209744	z b	-0.28464362
-1.8964938	f b	-0.28464362
-1.4701306	o b	-0.6742695
-1.855749	k b	-0.32550165
-1.5692778	b b	-0.5130529
-1.7534044	j b	-0.28464362
-1.5097007	x b	-0.28464362
-1.5074909	<w> q	-0.28464362
-1.6853124	a q	-0.69351876
-2.054116	d q	-0.3253809
-1.7253941	i q	-0.7868651
-2.1841578	h q	-0.28464362
-1.8509442	s q	-0.671726
-2.253826	u q	-0.370696
-1.8971888	r q	-0.49563473
-1.8095628	n q	-0.52362365
-1.9583986	e q	-0.73867273
-2.037704	c q	-0.3253809
-2.1021724	l q	-0.3253809
-2.3532279	o q	-0.370696
-2.1324863	k q	-0.28464362
-1.779499	x q	-0.28464362
-1.4882126	<w> j	-0.28464362
-1.926758	a j	-0.3602235
-2.0086052	d j	-0.3113729
-1.6356943	i j	-0.36715817
-2.1483164	h j	-0.28464362
-2.284985	t j	-0.28464362
-2.2332397	y j	-0.28464362
-2.3337395	s j	-0.28464362
-1.8111985	u j	-0.33166543
-2.0452406	r j	-0.28464362
-1.7081376	n j	-0.4730701
-1.948285	e j	-0.3550884
-2.1802294	p j	-0.28464362
-2.130406	f j	-0.28464362
-2.0730047	o j	-0.30048296
-1.9597518	k j	-0.28464362
-1.9764892	b j	-0.3475324
-1.5710626	<w> x	-0.28464362
-1.6648144	a x	-0.5253361
-1.7006445	i x	-0.49778464
-1.673705	u x	-0.3835109
-2.341301	r x	-0.28464362
-1.9846177	n x	-0.33420497
-1.6189871	e x	-0.5769372
-1.5545363	o x	-0.5060216
-1.6369072	x x	-0.3253809

\3-grams:
-0.004150602	g </w> <w>	-1.9215858
-0.0015518115	a </w> <w>	-1.4131052
-0.0053438186	w </w> <w>	-0.68620765
-0.002663664	d </w> <w>	-2.0923324
-0.0028692356	m </w> <w>	-1.2663321
-0.0014896491	i </w> <w>	-0.989809
-0.0023298145	h </w> <w>	-1.2839835
-0.0016931841	t </w> <w>	-1.8005488
-0.001619413	y </w> <w>	-1.984619
-0.0016931841	s </w> <w>	-2.3687046
-0.0017739596	u </w> <w>	-0.47201216
-0.0031092137	r </w> <w>	-1.7711495
-0.0024855772	n </w> <w>	-1.9203396
-0.0014896491	e </w> <w>	-2.1226685
-0.004150602	c </w> <w>	-1.2323886
-0.0028692356	l </w> <w>	-1.618142
-0.0037337209	p </w> <w>	-0.92336273
-0.0031092137	z </w> <w>	-0.50266886
-0.0037337209	f </w> <w>	-0.6291784
-0.0016931841	o </w> <w>	-1.1675167
-0.0028692356	k </w> <w>	-1.1547104
-0.007499873	v </w> <w>	-0.35238558
-0.0037337209	b </w> <w>	-0.48670444
-0.013977937	q </w> <w>	-0.2691725
-0.013977937	j </w> <w>	-0.2691725
-0.0046722214	x </w> <w>	-0.5476781
-0.29134846	<s> <w> g	-0.2691725
-1.3696966	</w> <w> g	-1.9344666
-0.986175	a g g	-0.9231945
-1.0953844	i g g	-0.7259446
-0.84555805	u g g	-0.91053385
-1.8343029	n g g	-0.2691725
-1.199445	e g g	-0.5319931
-1.11164	o g g	-0.49420452
-1.3765044	<w> a g	-0.8165074
-1.4030324	g a g	-0.54476374
-1.401675	w a g	-0.56186944
-1.4134588	d a g	-0.47341493
-1.2819653	m a g	-0.8769212
-1.4535084	i a g	-0.52613825
-1.3267509	h a g	-0.4498349
-1.2101982	t a g	-0.8469981
-1.4679102	y a g	-0.39628893
-1.3021692	s a g	-0.7113742
-1.3955026	u a g	-0.39628893
-1.261834	r a g	-0.9121334
-1.3113322	n a g	-0.6549629
-1.4288378	e a g	-0.6590515
-1.5722721	c a g	-0.4130153
-1.333166	l a g	-0.6434752
-1.235785	p a g	-0.6964
-1.418924	z a g	-0.28242007
-1.7350208	f a g	-0.2691725
-1.5709851	o a g	-0.2790701
-1.2178816	k a g	-0.63175094
-1.5208164	v a g	-0.4799621
-1.2572194	b a g	-0.3231403
-1.5292691	j a g	-0.2890749
-1.31127	x a g	-0.4476483
-1.95032	o w g	-0.2691725
-1.8585256	a d g	-0.542417
-1.4418601	i d g	-1.0294375
-1.1858542	u d g	-0.86483866
-1.7236645	n d g	-0.28242007
-1.3571191	e d g	-0.7340821
-1.2621591	o d g	-0.61502284
-1.32933	<w> i g	-0.68701494
-1.786158	g i g	-0.3723485
-1.4117225	a i g	-0.61538655
-1.3233802	w i g	-0.3402583
-1.3716027	d i g	-0.55041647
-1.4415084	m i g	-0.6645109
-1.4094648	h i g	-0.8433212
-1.4406362	t i g	-0.7343017
-1.3240585	s i g	-1.0796206
-1.6858324	u i g	-0.2691725
-1.2189364	r i g	-0.9269255
-1.2127115	n i g	-0.6893389
-1.000326	e i g	-1.0393968
-1.8959413	c i g	-0.53178215
-1.1679097	l i g	-1.1152405
-1.6123679	p i g	-0.36234918
-1.3795322	z i g	-0.2691725
-1.3129646	f i g	-0.62829536
-1.6902931	o i g	-0.4348721
-1.4487798	v i g	-0.52122766
-1.3377507	b i g	-0.39628893
-1.3240467	j i g	-0.28919855
-1.4697154	x i g	-0.2691725
-1.9139268	g h g	-0.2691725
-2.278192	t h g	-0.2691725
-2.0086234	c h g	-0.29316723
-2.176625	i t g	-0.2691725
-1.6033946	t t g	-0.2691725
-2.2317092	s t g	-0.2691725
-2.158796	u t g	-0.29316723
-1.8978362	r t g	-0.28919855
-1.9503418	n t g	-0.2691725
-2.2233865	o t g	-0.28919855
-1.909108	a y g	-0.2691725
-1.4203238	d y g	-0.2691725
-1.5629417	h y g	-0.2691725
-1.699422	t y g	-0.2691725
-1.6364104	s y g	-0.2691725
-1.759236	r y g	-0.2691725
-1.5798298	n y g	-0.2691725
-1.4653141	c y g	-0.2691725
-1.8231375	l y g	-0.2691725
-1.280623	z y g	-0.28919855
-1.5325801	b y g	-0.2691725
-1.1666796	x y g	-0.28919855
-2.2811847	a s g	-0.2691725
-2.1575434	i s g	-0.542417
-2.1785529	u s g	-0.2691725
-1.9987816	n s g	-0.28919855
-2.2828178	e s g	-0.2691725
-1.8967862	p s g	-0.2691725
-2.2354686	o s g	-0.2691725
-1.4732982	k s g	-0.2691725
-1.2479447	<w> u g	-0.30993336
-1.5512321	g u g	-0.28242007
-1.0921245	a u g	-0.955028
-1.4987609	d u g	-0.2691725
-1.5476807	m u g	-0.4972872
-1.2728487	h u g	-0.4071106
-1.7425652	t u g	-0.2851188
-1.2912062	y u g	-0.28919855
-1.6385194	s u g	-0.68173146
-1.1719782	r u g	-0.50766474
-1.4751222	n u g	-0.2757458
-1.5937902	e u g	-0.4348721
-1.4273014	l u g	-0.53583884
-1.5299437	p u g	-0.28919855
-1.2544192	f u g	-0.48177204
-1.080339	o u g	-1.1512761
-1.3487054	b u g	-0.36290568
-1.1827023	j u g	-0.65156144
-1.897451	g r g	-0.2691725
-1.4759564	a r g	-0.8864452
-1.6147089	i r g	-0.6355899
-1.4504513	u r g	-0.8686625
-1.4301512	e r g	-0.8858905
-1.3871744	o r g	-0.92057294
-1.2068473	<w> n g	-0.2691725
-1.2400817	a n g	-1.0905966
-1.3880297	w n g	-0.28919855
-1.0852762	i n g	-2.1166458
-1.4233333	h n g	-0.2691725
-1.4366772	y n g	-0.28919855
-1.0477282	u n g	-0.785424
-1.610589	r n g	-0.2691725
-1.6571002	n n g	-0.2691725
-1.4127412	e n g	-0.8071433
-1.0364184	l n g	-0.2691725
-1.2547982	o n g	-0.8244916
-1.398059	<w> e g	-0.35590184
-1.9290495	g e g	-0.2691725
-1.6686662	a e g	-0.2691725
-1.5091426	w e g	-0.28242007
-1.7916056	d e g	-0.5676053
-1.5709571	m e g	-0.7765002
-1.6414204	i e g	-0.33260274
-1.9412029	h e g	-0.30993336
-1.5989202	t e g	-0.58925116
-1.6855595	y e g	-0.2691725
-1.5899	s e g	-0.51996887
-1.8425422	u e g	-0.2691725
-1.4090667	r e g	-0.95663244
-1.6306068	n e g	-0.5725362
-1.8698332	e e g	-0.28919855
-1.961589	c e g	-0.2691725
-1.5797869	l e g	-0.8508637
-1.4477243	p e g	-0.28727219
-1.6656132	f e g	-0.30993336
-1.5900208	o e g	-0.2691725
-1.7649463	k e g	-0.2691725
-1.6022985	v e g	-0.4392953
-1.6863323	b e g	-0.42882165
-1.5431682	x e g	-0.2691725
-2.3574197	a c g	-0.2691725
-1.5943879	m c g	-0.2770724
-1.8687971	a l g	-0.49514526
-1.8200833	i l g	-0.3560217
-1.8853031	y l g	-0.2691725
-1.6656424	u l g	-0.5598109
-2.149133	e l g	-0.39628893
-1.6954925	l l g	-0.2691725
-1.9409562	o l g	-0.36290568
-2.1604784	a p g	-0.2691725
-1.8944131	m p g	-0.28919855
-2.0522277	i p g	-0.2691725
-1.9342532	u p g	-0.30993336
-2.164495	o p g	-0.2691725
-1.5841525	t z g	-0.2691725
-1.9522198	a f g	-0.28919855
-1.7845945	l f g	-0.2691725
-1.3733773	<w> o g	-0.2790701
-1.620444	g o g	-0.33260274
-1.4405954	d o g	-0.33051702
-1.4675856	m o g	-0.5721235
-1.3781964	i o g	-0.87341017
-1.7203424	h o g	-0.3785491
-1.4197059	t o g	-0.7080526
-1.3950695	y o g	-0.2691725
-1.7419564	s o g	-0.2691725
-1.2702471	r o g	-0.7520035
-1.4353368	n o g	-0.65156144
-1.6043812	e o g	-0.83281213
-1.7359278	c o g	-0.8246462
-1.3165889	l o g	-1.1004268
-1.5458199	p o g	-0.4392953
-1.5106988	z o g	-0.2691725
-1.5922666	f o g	-0.4392953
-1.4702106	o o g	-0.2691725
-1.7040911	k o g	-0.2691725
-1.6889603	v o g	-0.2691725
-1.814653	b o g	-0.33247623
-1.5405219	j o g	-0.2691725
-1.2730328	x o g	-0.28919855
-1.8545437	n k g	-0.2691725
-2.0543542	c k g	-0.28919855
-2.1260192	u b g	-0.28919855
-1.585166	i x g	-0.2691725
-1.3814883	</w> <w> a	-1.8350044
-0.87981296	<w> g a	-1.008069
-1.1141436	g g a	-0.4208976
-0.9296279	a g a	-0.552006
-1.1305329	d g a	-0.28242007
-1.013953	i g a	-0.88782036
-0.5979495	h g a	-0.28919855
-0.8659302	t g a	-0.28242007
-1.1528032	y g a	-0.2691725
-0.73790586	s g a	-0.2691725
-0.9050661	u g a	-0.62256724
-1.0129668	r g a	-0.7622338
-1.067337	n g a	-0.60360515
-0.9414001	e g a	-0.861148
-0.6485852	l g a	-0.40718544
-0.8664328	p g a	-0.2691725
-0.54506546	f g a	-0.2691725
-0.95715165	o g a	-0.6542693
-1.5973257	<w> a a	-0.2691725
-2.0863948	g a a	-0.2691725
-1.3886651	a a a	-0.2691725
-2.0716841	h a a	-0.2691725
-1.995916	s a a	-0.3560217
-2.430541	l a a	-0.2691725
-1.5638006	z a a	-0.28242007
-0.95919204	<w> w a	-1.1086704
-0.7132756	g w a	-0.30993336
-0.8339416	a w a	-0.6127792
-0.72969675	w w a	-0.2691725
-0.6165783	d w a	-0.49553126
-0.6451173	m w a	-0.2691725
-0.515128	i w a	-0.2790701
-0.5963104	h w a	-0.53211296
-0.81564677	t w a	-0.411784
-0.5327464	y w a	-0.40117407
-0.7497567	s w a	-0.50543344
-0.2620767	u w a	-0.28919855
-0.67755985	r w a	-0.66854405
-0.53368104	n w a	-0.5632472
-0.85442495	e w a	-0.72985166
-0.5867354	l w a	-0.4469316
-0.5611703	p w a	-0.28242007
-0.2620767	f w a	-0.28919855
-0.96868515	o w a	-0.37900937
-0.38799796	k w a	-0.35002157
-0.6451173	b w a	-0.28919855
-1.081662	<w> d a	-0.8328881
-0.77971	g d a	-0.2691725
-1.1156514	a d a	-0.52334356
-0.9452358	w d a	-0.2691725
-0.8097664	d d a	-0.35612872
-0.8476173	m d a	-0.2691725
-0.939815	i d a	-0.6502627
-0.6570617	h d a	-0.2691725
-0.9591983	t d a	-0.2691725
-0.9232103	y d a	-0.30993336
-0.37369627	s d a	-0.46881634
-1.0488176	u d a	-0.31662273
-1.046047	r d a	-0.37670696
-1.1657138	n d a	-0.8096204
-1.2666448	e d a	-0.44930667
-0.86301583	c d a	-0.2691725
-1.1222807	l d a	-0.41401362
-0.51221985	p d a	-0.28242007
-1.2919136	o d a	-0.44040436
-0.48487413	k d a	-0.28242007
-0.7579278	b d a	-0.2691725
-0.27847788	j d a	-0.2691725
-0.9816392	<w> m a	-1.3574314
-0.52965444	g m a	-0.5161119
-0.99405485	a m a	-0.80029607
-0.53221387	w m a	-0.5056402
-0.6155217	d m a	-0.46521562
-0.8953893	m m a	-0.7209534
-0.949312	i m a	-0.9330778
-0.65331036	h m a	-0.64543396
-0.49673036	t m a	-0.6861067
-0.67956334	y m a	-0.5277726
-0.5871962	s m a	-0.8182807
-1.0965207	u m a	-0.7505444
-0.81155634	r m a	-0.9925174
-0.67186046	n m a	-0.44484606
-0.90019107	e m a	-0.8917582
-0.52778786	c m a	-0.2691725
-0.76384884	l m a	-0.65575165
-0.33369377	p m a	-0.53178215
-0.3931965	z m a	-0.28919855
-0.3931965	f m a	-0.39628893
-0.9004582	o m a	-0.7867998
-0.54201454	k m a	-0.6473547
-0.94378173	b m a	-0.39628893
-1.017511	g i a	-0.6289031
-1.9194005	a i a	-0.2691725
-1.7618077	w i a	-0.2691725
-1.1947321	d i a	-0.904823
-1.3592505	m i a	-0.52145576
-1.3209296	i i a	-0.2691725
-1.4083872	h i a	-0.4876554
-1.2643099	t i a	-1.1369877
-1.163384	s i a	-0.8688993
-1.5250744	u i a	-0.2691725
-1.3150883	r i a	-1.1749125
-1.3077085	n i a	-1.0157235
-1.3960216	e i a	-0.38070148
-1.1417621	c i a	-1.1246665
-1.3968778	l i a	-0.9315835
-1.1101334	p i a	-0.6333482
-1.3779019	z i a	-0.2691725
-1.4178101	f i a	-0.4924528
-1.4064193	o i a	-0.29937893
-1.3268683	k i a	-0.38070148
-1.1884446	v i a	-0.7359021
-1.073106	b i a	-0.62164867
-1.1373335	x i a	-0.4392953
-1.0026771	<w> h a	-1.1552914
-0.83480984	g h a	-0.5178076
-0.88686514	a h a	-0.294212
-0.8340284	w h a	-0.38223076
-0.56733894	d h a	-0.2735436
-0.85240185	m h a	-0.2691725
-0.6677729	i h a	-0.28242007
-1.0213406	t h a	-0.65951896
-0.84362507	s h a	-0.8063203
-0.9643928	u h a	-0.2691725
-0.6692571	r h a	-0.37930754
-0.6508191	n h a	-0.42858166
-0.81659305	e h a	-0.50769275
-0.9954292	c h a	-1.0634146
-0.8191073	l h a	-0.3723485
-0.749689	p h a	-0.7094872
-0.8473419	z h a	-0.2691725
-0.6856605	f h a	-0.28919855
-0.8423679	o h a	-0.34632474
-0.78472674	k h a	-0.28622788
-0.9040525	x h a	-0.68173146
-1.1534566	<w> t a	-0.9278577
-1.1292694	a t a	-0.6337215
-1.242065	d t a	-0.2691725
-1.1108228	i t a	-1.2312402
-0.8590294	h t a	-0.2757458
-1.0783194	t t a	-0.67276436
-0.9025947	s t a	-1.259718
-1.1531852	u t a	-0.5989219
-1.1734245	r t a	-0.7923473
-1.0135493	n t a	-1.1333354
-1.0894568	e t a	-0.7777771
-1.0172328	c t a	-0.7230937
-1.1888678	l t a	-0.5343251
-1.2478096	p t a	-0.375115
-1.3224511	f t a	-0.28242007
-1.127242	o t a	-0.61096334
-0.91782117	k t a	-0.28242007
-1.1838304	b t a	-0.61096334
-1.0887519	x t a	-0.28242007
-1.0485663	<w> y a	-0.5353348
-1.060951	a y a	-0.42922825
-1.189163	w y a	-0.2691725
-0.974226	d y a	-0.29316723
-0.90508306	i y a	-0.2691725
-1.3213784	h y a	-0.2770724
-1.461383	t y a	-0.29937893
-1.4235872	r y a	-0.29937893
-1.2089515	n y a	-0.29937893
-1.2092497	e y a	-0.3618628
-1.4020704	c y a	-0.4348721
-1.2081311	l y a	-0.28242007
-1.4263077	p y a	-0.2691725
-0.79222697	o y a	-0.5747087
-1.191135	k y a	-0.28242007
-1.4649545	b y a	-0.2691725
-1.2957487	<w> s a	-1.0743643
-1.3863453	g s a	-0.2691725
-1.2342639	a s a	-0.4974128
-1.3541143	w s a	-0.2691725
-1.6214603	d s a	-0.2691725
-1.5630052	m s a	-0.2691725
-1.2905428	i s a	-0.704366
-1.1455503	h s a	-0.28242007
-1.5896204	t s a	-0.29937893
-1.6576612	y s a	-0.2691725
-1.1956484	s s a	-0.5968088
-1.2526231	u s a	-0.49286404
-1.1864327	r s a	-0.47833276
-1.3004845	n s a	-0.6389633
-1.2583821	e s a	-0.29535043
-1.4454966	l s a	-0.4392953
-1.2480164	p s a	-0.2770724
-1.3336397	f s a	-0.2691725
-1.1782899	o s a	-0.42942047
-1.3476347	k s a	-0.2691725
-0.80843264	g u a	-0.6947514
-1.9561696	a u a	-0.2691725
-1.2333992	d u a	-0.84344697
-1.6240366	i u a	-0.2691725
-1.417326	h u a	-0.2790701
-1.0280849	t u a	-1.1749125
-1.0645705	s u a	-0.62678534
-1.7948493	r u a	-0.2691725
-1.2415919	n u a	-0.6067108
-1.6434273	c u a	-0.29937893
-1.6673684	l u a	-0.6510516
-1.7114578	p u a	-0.2691725
-1.9016445	o u a	-0.2691725
-1.787463	b u a	-0.2691725
-0.58306164	q u a	-0.87481844
-1.3341035	j u a	-0.4348721
-0.9970102	x u a	-0.61096334
-0.96709317	<w> r a	-1.0182014
-0.6635319	g r a	-1.1773974
-1.2621328	a r a	-0.91348404
-1.2550994	w r a	-0.39979994
-0.79846	d r a	-0.6657476
-0.4252152	m r a	-0.4476483
-0.98458636	i r a	-0.6082013
-0.871467	h r a	-0.53481585
-0.7201812	t r a	-1.273776
-0.73128134	y r a	-0.5161119
-0.7817889	s r a	-0.3723485
-1.1036907	u r a	-0.9757956
-0.9167347	r r a	-0.69139934
-0.63861537	n r a	-0.2850453
-1.1843531	e r a	-1.2442164
-0.6893823	c r a	-0.8420048
-0.93549615	l r a	-0.2691725
-0.79768187	p r a	-0.6999495
-0.6818682	z r a	-0.2691725
-0.80248463	f r a	-0.8610342
-1.1542058	o r a	-0.95061433
-0.60514796	k r a	-0.32726538
-0.99382937	v r a	-0.2691725
-0.85402113	b r a	-0.7468059
-1.1018542	<w> n a	-0.79774
-0.71382165	g n a	-0.688545
-1.1531522	a n a	-0.8600284
-1.24397	w n a	-0.2691725
-0.8033385	d n a	-0.4528659
-0.9028804	m n a	-0.3765049
-1.1585555	i n a	-1.1685369
-0.9730838	h n a	-0.28050265
-1.3782284	t n a	-0.28242007
-1.2102025	y n a	-0.5557447
-0.8095864	s n a	-0.48085862
-1.1751838	u n a	-0.5364193
-1.1111349	r n a	-0.7795078
-1.0052047	n n a	-0.469856
-1.1910017	e n a	-0.7518281
-0.9412465	c n a	-0.2691725
-0.8027853	f n a	-0.2691725
-1.0992993	o n a	-1.2180512
-0.9589191	k n a	-0.2942589
-0.9412465	b n a	-0.2691725
-0.5537473	x n a	-0.2691725
-1.3958713	<w> e a	-0.9382915
-1.2666473	g e a	-0.60326207
-1.3469145	a e a	-0.29937893
-1.2561154	w e a	-0.73988485
-1.3760302	d e a	-0.65681463
-1.2133919	m e a	-0.6967222
-0.9358398	h e a	-1.2071966
-1.4517046	t e a	-0.71755385
-1.3713752	y e a	-0.6510516
-1.3855597	s e a	-0.6365485
-1.8400387	u e a	-0.3765049
-1.1971534	r e a	-1.2143407
-1.2903454	n e a	-0.59663343
-1.8677635	e e a	-0.53178215
-1.2397865	c e a	-0.62339634
-1.3077503	l e a	-0.91445506
-1.2368265	p e a	-0.9246139
-1.5806177	z e a	-0.4754702
-1.3910564	f e a	-0.9077408
-1.7383933	o e a	-0.2691725
-1.7630111	k e a	-0.2691725
-1.3639563	v e a	-0.4469316
-1.0925205	b e a	-0.7479407
-1.4524431	j e a	-0.37688014
-1.0320524	<w> c a	-1.3959086
-1.1886079	a c a	-0.49723792
-0.47910976	w c a	-0.28242007
-0.6986875	d c a	-0.4208976
-0.9308508	m c a	-0.2851188
-0.93346035	i c a	-1.4941632
-0.89333344	h c a	-0.2691725
-0.77886176	t c a	-0.4130153
-1.1701105	y c a	-0.2691725
-0.942561	s c a	-0.8377963
-1.122318	u c a	-0.6004089
-0.9073334	r c a	-0.50005376
-0.9850773	n c a	-0.38771743
-1.0359285	e c a	-0.5606015
-0.76819736	c c a	-0.41052938
-0.8525888	l c a	-0.3402583
-0.53825283	f c a	-0.2691725
-1.0118101	o c a	-0.9167369
-0.53825283	k c a	-0.28919855
-0.5108755	b c a	-0.2691725
-0.8156774	x c a	-0.30152023
-0.9423603	<w> l a	-1.012432
-0.87012804	g l a	-0.676899
-1.1455642	a l a	-0.6947376
-1.1572258	w l a	-0.2691725
-1.0692226	d l a	-0.41401362
-1.294758	m l a	-0.28919855
-1.119607	i l a	-0.76904243
-0.9491237	h l a	-0.4754702
-0.8708465	t l a	-0.61471766
-0.81241226	y l a	-0.36964905
-0.9138715	s l a	-0.75003517
-1.0175617	u l a	-1.2747319
-1.0084525	r l a	-0.5518303
-0.90330994	n l a	-0.45547366
-1.1098112	e l a	-0.7654306
-0.6702074	c l a	-0.9156232
-1.0792122	l l a	-0.87472045
-0.5634594	p l a	-1.1628625
-0.7516897	f l a	-0.71450394
-1.0021659	o l a	-0.82729167
-0.85136336	k l a	-0.35002157
-0.68661994	v l a	-0.2691725
-0.996092	b l a	-0.66157794
-0.2787789	q l a	-0.2691725
-1.096701	<w> p a	-1.2927974
-1.0924609	a p a	-0.5536312
-0.91399676	w p a	-0.2691725
-0.78087723	d p a	-0.2691725
-1.0281247	m p a	-0.9197427
-1.0679146	i p a	-0.6713524
-0.91399676	h p a	-0.2691725
-0.9229402	t p a	-0.28919855
-1.2310444	y p a	-0.28919855
-0.8668648	s p a	-0.76870644
-1.2319236	u p a	-0.4924528
-1.0119733	r p a	-0.29871807
-1.0070548	n p a	-0.32124585
-0.98184025	e p a	-0.7774722
-0.9524974	l p a	-0.28050265
-1.1373398	p p a	-0.47062093
-1.2405213	o p a	-0.48992607
-0.6676518	k p a	-0.2691725
-0.7871484	b p a	-0.28919855
-0.75968045	x p a	-0.70787334
-0.91979843	<w> z a	-0.2790701
-0.26683524	g z a	-0.2691725
-0.7133155	a z a	-0.48092532
-0.7077157	i z a	-1.2149347
-1.1778727	t z a	-0.2691725
-0.49332875	y z a	-0.2790701
-1.0092248	u z a	-0.2691725
-0.880547	r z a	-0.2790701
-0.6654499	n z a	-0.5132476
-1.2667762	e z a	-0.28919855
-0.570352	c z a	-0.29937893
-0.83753014	l z a	-0.2691725
-0.76570165	z z a	-0.3416745
-0.9742178	o z a	-0.2851188
-1.0010767	<w> f a	-1.0585126
-0.9800887	a f a	-0.3402583
-0.96075106	w f a	-0.2691725
-0.7519822	d f a	-0.2851188
-1.3618882	i f a	-0.28242007
-1.0047948	h f a	-0.28919855
-0.7158938	t f a	-0.54843974
-1.0600054	y f a	-0.2691725
-1.1433471	s f a	-0.54843974
-1.3372078	u f a	-0.61096334
-0.8787817	r f a	-0.55056757
-0.80715173	n f a	-0.45309526
-0.9937682	e f a	-0.44040436
-0.5345249	c f a	-0.2691725
-0.8892129	l f a	-0.2770724
-1.0361779	p f a	-0.2691725
-1.1011147	f f a	-0.32602337
-0.9032299	o f a	-0.33260274
-0.74467736	k f a	-0.29937893
-1.4237337	<w> o a	-0.542417
-1.5276926	g o a	-0.2942589
-1.705428	d o a	-0.2691725
-1.7334131	m o a	-0.4754702
-1.9615057	i o a	-0.28919855
-1.6256723	h o a	-0.28909254
-1.827922	t o a	-0.4130153
-1.9423466	s o a	-0.35580862
-1.4149806	r o a	-0.8218167
-2.048262	n o a	-0.2691725
-1.2220644	c o a	-0.6750829
-1.2535863	l o a	-0.80386806
-1.8386822	p o a	-0.29316723
-1.5625739	z o a	-0.28242007
-1.8227185	f o a	-0.4476483
-1.7702627	k o a	-0.2691725
-0.9588689	b o a	-1.0382726
-1.5976398	j o a	-0.28242007
-1.0920072	<w> k a	-0.52593696
-1.0289034	a k a	-0.36964905
-0.7536495	i k a	-0.5109236
-0.9110009	h k a	-0.30993336
-0.7185092	t k a	-0.28919855
-0.8396818	y k a	-0.28919855
-0.9710268	s k a	-0.2938387
-1.0953455	u k a	-0.28242007
-1.07504	r k a	-0.4469316
-1.0795988	n k a	-0.29847795
-1.1652642	e k a	-0.2691725
-1.1923617	c k a	-0.48157033
-1.0873657	l k a	-0.3765049
-0.9753499	p k a	-0.2691725
-0.2800892	f k a	-0.2691725
-1.1410544	o k a	-0.28050265
-0.76498324	k k a	-0.2691725
-0.9435556	<w> v a	-0.9196063
-0.7284205	a v a	-0.68028766
-0.9951071	d v a	-0.9119933
-0.653925	i v a	-0.92723334
-0.49664754	t v a	-0.2691725
-0.7497101	y v a	-0.2691725
-0.7018049	u v a	-0.2770724
-0.7175431	r v a	-0.6035947
-0.71269953	n v a	-0.62407887
-0.714718	e v a	-0.63359886
-0.6042008	l v a	-0.4071097
-0.82463765	o v a	-0.47052535
-1.0037972	<w> b a	-1.2246772
-0.97238576	g b a	-0.2691725
-0.9362921	a b a	-0.4920125
-0.6283705	w b a	-0.29595888
-0.88168496	d b a	-0.28050265
-0.99147904	m b a	-0.5802357
-1.064323	i b a	-0.44630536
-0.7803057	h b a	-0.2770724
-0.7905493	t b a	-0.3618628
-1.154381	y b a	-0.28242007
-0.9271062	s b a	-0.43768162
-1.0590816	u b a	-0.33072096
-0.9720541	r b a	-0.65366465
-0.7904497	n b a	-0.33626655
-1.0549942	e b a	-0.48803204
-0.85053056	l b a	-0.4348721
-1.0072091	p b a	-0.2691725
-0.67507976	f b a	-0.28919855
-1.0509113	o b a	-0.50161874
-0.97238576	k b a	-0.2691725
-1.2315637	b b a	-0.2757458
-0.7268326	<w> j a	-0.6148648
-0.54329455	a j a	-0.2851188
-0.5821719	d j a	-0.2790701
-0.5193356	i j a	-0.3560217
-0.24245904	y j a	-0.28919855
-0.8218347	u j a	-0.28919855
-0.6744629	r j a	-0.2691725
-0.67679447	n j a	-0.2790701
-0.6551076	e j a	-0.28242007
-0.24245904	p j a	-0.2691725
-0.47911847	k j a	-0.2691725
-0.8679848	<w> x a	-0.2691725
-1.1753526	a x a	-0.29316723
-1.3632044	i x a	-0.2691725
-1.2118183	u x a	-0.2691725
-0.8274274	e x a	-0.72892666
-0.8661964	o x a	-0.3560217
-1.4004042	</w> <w> w	-1.9272248
-1.2816184	<w> g w	-0.2691725
-1.9880204	a g w	-0.2691725
-1.3022728	d g w	-0.2691725
-1.5378487	n g w	-0.30152023
-2.0001493	o g w	-0.2691725
-1.4157145	<w> a w	-0.5840531
-1.6924797	g a w	-0.2691725
-1.2717935	a a w	-0.2691725
-1.7916094	d a w	-0.30152023
-1.9151095	m a w	-0.2691725
-1.999598	i a w	-0.2691725
-1.4648387	h a w	-0.5071152
-1.41932	t a w	-0.36348093
-1.4966688	y a w	-0.2770724
-1.3836994	s a w	-0.28332967
-1.737985	u a w	-0.2691725
-1.541875	r a w	-0.54489756
-1.681536	n a w	-0.3371564
-1.5945706	e a w	-0.4392953
-1.8526458	c a w	-0.2691725
-1.5397967	l a w	-0.3766189
-1.6434919	p a w	-0.28242007
-1.6329812	f a w	-0.2890749
-1.3389305	k a w	-0.29937893
-1.9454355	b a w	-0.2851188
-1.5693622	j a w	-0.2691725
-1.2556002	<w> w w	-0.2691725
-1.9979651	a w w	-0.2691725
-0.8794246	w w w	-0.2691725
-2.0634227	o w w	-0.2691725
-1.2540532	<w> d w	-0.48177204
-1.7976912	a d w	-0.40117407
-2.0709214	i d w	-0.3560217
-1.5896287	u d w	-0.2790701
-1.2433448	r d w	-0.2868453
-1.5203078	n d w	-0.28910577
-1.9217054	e d w	-0.29796395
-1.239158	l d w	-0.28242007
-1.8453021	o d w	-0.35595587
-2.079543	a m w	-0.2691725
-2.2365994	o m w	-0.28919855
-2.2145123	a i w	-0.2691725
-2.2357554	d i w	-0.2691725
-2.4760203	r i w	-0.2691725
-2.1739793	p i w	-0.2691725
-1.7747339	k i w	-0.28919855
-2.1349382	b i w	-0.2691725
-1.1638801	<w> h w	-0.2691725
-1.7501565	g h w	-0.4348721
-1.8509747	a h w	-0.2691725
-1.4287577	t h w	-0.48374397
-1.5393804	s h w	-0.28628054
-1.5987813	n h w	-0.2691725
-1.7470865	c h w	-0.41082436
-1.2175331	<w> t w	-0.9077408
-1.767938	a t w	-0.2691725
-2.2112167	i t w	-0.2691725
-1.3067464	h t w	-0.28242007
-1.6951604	t t w	-0.2691725
-1.4725096	s t w	-0.4754702
-1.8488394	u t w	-0.28050265
-1.457931	r t w	-0.2770724
-1.7948439	n t w	-0.2691725
-1.884707	e t w	-0.2790701
-1.7192562	c t w	-0.2691725
-1.3891921	f t w	-0.2691725
-1.786214	o t w	-0.2790701
-1.6610508	a y w	-0.29595888
-1.4444672	d y w	-0.2691725
-1.7396191	t y w	-0.2691725
-1.4951577	r y w	-0.2691725
-1.6200254	n y w	-0.28242007
-1.6574286	e y w	-0.2691725
-1.4402659	l y w	-0.2851188
-1.5266535	p y w	-0.2691725
-1.4854524	k y w	-0.28919855
-1.5665159	b y w	-0.2691725
-1.360412	<w> s w	-1.2747252
-1.4438782	g s w	-0.28919855
-2.1148024	a s w	-0.2691725
-1.2155385	w s w	-0.28919855
-1.6945602	d s w	-0.2691725
-2.161433	i s w	-0.2691725
-1.5159448	t s w	-0.2691725
-1.6037658	s s w	-0.3723485
-1.4942827	r s w	-0.28919855
-1.5681975	n s w	-0.4972872
-2.107963	e s w	-0.2691725
-1.6778733	l s w	-0.2691725
-1.7655036	p s w	-0.2691725
-2.0731583	o s w	-0.2691725
-1.3954849	k s w	-0.2691725
-2.3208926	r u w	-0.28919855
-2.0094495	a r w	-0.3560217
-1.9405409	i r w	-0.4392953
-2.3025475	u r w	-0.2691725
-1.6930237	e r w	-0.58303404
-1.9254415	o r w	-0.53178215
-2.4001713	a n w	-0.2691725
-1.488642	w n w	-0.2691725
-2.2068102	i n w	-0.4348721
-1.9991719	u n w	-0.60123134
-1.5442942	r n w	-0.28242007
-1.8382764	e n w	-0.4528659
-1.7460873	o n w	-0.35053146
-1.4267409	<w> e w	-0.2691725
-1.8107091	g e w	-0.29316723
-1.5708108	d e w	-0.37102866
-1.4850621	m e w	-0.29139888
-1.9292016	i e w	-0.57535625
-1.4856861	h e w	-0.42782867
-1.612206	t e w	-0.5322164
-1.7172023	y e w	-0.2691725
-1.6034039	s e w	-0.38819176
-1.3430636	r e w	-0.5630759
-1.4957393	n e w	-0.55074906
-1.7726563	e e w	-0.29316723
-1.714044	c e w	-0.28242007
-1.6472231	l e w	-0.33072096
-1.5638692	p e w	-0.35002157
-1.8559272	f e w	-0.2691725
-1.7760551	o e w	-0.2691725
-1.5162026	k e w	-0.2691725
-1.7494216	v e w	-0.30993336
-1.9851717	b e w	-0.5178076
-1.480678	j e w	-0.5178076
-2.3504264	a c w	-0.28919855
-1.5901029	m c w	-0.2691725
-1.880911	a l w	-0.29595888
-1.6280996	i l w	-0.30387086
-2.168881	u l w	-0.2691725
-1.71378	r l w	-0.2691725
-1.4025918	l l w	-0.38771743
-2.2821178	o l w	-0.28919855
-2.090658	i p w	-0.28919855
-1.9728904	u p w	-0.28919855
-1.8627304	e p w	-0.2691725
-2.2041101	o p w	-0.2691725
-1.1522465	<w> z w	-0.2691725
-1.8282466	a z w	-0.2691725
-1.4210281	n z w	-0.2691725
-1.8109471	l f w	-0.28919855
-1.3922001	<w> o w	-0.5723802
-1.2580674	g o w	-0.3618628
-1.0604162	d o w	-0.77691686
-1.9625568	m o w	-0.2691725
-1.765587	i o w	-0.28919855
-1.3595121	h o w	-0.5228497
-1.0634938	t o w	-0.85376436
-1.5823647	y o w	-0.2691725
-1.7604935	s o w	-0.2890749
-1.407591	r o w	-0.88921547
-1.5240532	n o w	-0.5303006
-1.6198512	e o w	-0.2691725
-1.8657176	c o w	-0.3354495
-1.1854738	l o w	-0.99673694
-1.3730072	p o w	-0.8112623
-1.530068	z o w	-0.2691725
-1.7872176	f o w	-0.28919855
-1.3171581	k o w	-0.28242007
-1.542167	v o w	-0.3723485
-1.475287	b o w	-0.38771743
-1.5617687	j o w	-0.28919855
-1.2421008	<w> k w	-0.29937893
-1.6952015	a k w	-0.28919855
-1.0533178	w k w	-0.30993336
-1.4584389	r k w	-0.2691725
-1.6217797	e k w	-0.2691725
-1.3919028	c k w	-0.3928689
-1.340868	l k w	-0.2691725
-1.7213567	o k w	-0.2691725
-2.0767202	u b w	-0.28919855
-2.084205	e b w	-0.2691725
-2.0746326	o b w	-0.2691725
-1.3796811	a q w	-0.2691725
-1.4405233	a x w	-0.2691725
-1.6758934	o x w	-0.2691725
-1.3823367	</w> <w> d	-2.1828644
-2.2452955	a g d	-0.2691725
-1.7389898	r g d	-0.2691725
-1.7236501	n g d	-0.53178215
-2.0513477	o g d	-0.2691725
-1.3757741	<w> a d	-1.0628257
-1.537002	g a d	-0.29139888
-1.2438316	a a d	-0.2691725
-1.3192234	w a d	-0.30152023
-1.6406239	d a d	-0.2770724
-1.2357265	m a d	-0.48000336
-1.5557777	i a d	-0.29937893
-1.3833224	h a d	-0.46749872
-1.7770594	t a d	-0.2790701
-1.4673679	y a d	-0.2691725
-1.3695627	s a d	-0.50766474
-1.3950988	u a d	-0.61538655
-1.2912265	r a d	-0.9862088
-1.3111368	n a d	-0.6568571
-1.3174835	e a d	-0.8959012
-1.1663541	c a d	-0.7916614
-1.3329995	l a d	-0.5200412
-1.3852615	p a d	-0.42938626
-1.418404	z a d	-0.28919855
-1.7341222	f a d	-0.29316723
-1.108839	o a d	-0.711389
-1.3193676	k a d	-0.35053146
-1.1971632	v a d	-0.554325
-1.7598503	b a d	-0.28622788
-1.5285231	j a d	-0.28919855
-1.5091106	a w d	-0.2691725
-1.6662056	e w d	-0.28242007
-1.4613352	o w d	-0.522318
-1.1404767	a d d	-0.72617716
-1.145773	i d d	-0.74098206
-1.0597854	u d d	-0.6829342
-1.8653738	n d d	-0.2691725
-1.2035754	e d d	-0.6964
-1.7575614	l d d	-0.2691725
-1.1079497	o d d	-0.5750108
-2.2706616	a m d	-0.2691725
-1.9456421	u m d	-0.2691725
-1.7056508	l m d	-0.2691725
-2.1796124	o m d	-0.2691725
-1.3097221	<w> i d	-0.78804106
-1.6258397	g i d	-0.2868453
-1.1920228	a i d	-0.8159644
-1.2078023	w i d	-0.7036208
-1.5356563	d i d	-0.3231403
-1.2267327	m i d	-0.5094472
-1.321876	h i d	-0.65156144
-1.4343659	t i d	-0.5240552
-1.5295129	y i d	-0.2691725
-1.0703393	s i d	-1.2124797
-1.2413385	u i d	-0.5128628
-1.2155118	r i d	-0.9231245
-1.7074906	n i d	-0.2790701
-1.1247537	e i d	-0.5178076
-1.1893679	c i d	-0.8389841
-1.4873654	l i d	-0.7227881
-1.1060195	p i d	-0.48211163
-1.5348524	z i d	-0.2691725
-1.3053999	f i d	-0.6708667
-0.96927387	o i d	-0.7909561
-1.5785598	k i d	-0.5504447
-1.2531695	v i d	-0.7035562
-1.2481145	b i d	-0.48728794
-1.3072436	j i d	-0.2691725
-1.4484007	x i d	-0.4972872
-2.0339894	t h d	-0.4754702
-1.6604488	c h d	-0.29316723
-1.7265081	o h d	-0.2691725
-1.7040739	h t d	-0.2691725
-2.3408237	s t d	-0.2691725
-2.030029	u t d	-0.40117407
-2.3297749	o t d	-0.2691725
-1.6760172	a y d	-0.2770724
-0.9626498	h y d	-1.1744401
-1.6935035	s y d	-0.2691725
-1.5090351	r y d	-0.2691725
-1.6446767	n y d	-0.2691725
-1.6755084	e y d	-0.2691725
-1.7363873	l y d	-0.2691725
-1.3097663	o y d	-0.29316723
-1.1998975	x y d	-0.2691725
-1.4963034	g s d	-0.2691725
-2.2017395	a s d	-0.2691725
-1.7065039	m s d	-0.2691725
-1.8265836	i s d	-0.384862
-1.8899468	t s d	-0.2691725
-2.1031294	u s d	-0.2691725
-1.5497866	r s d	-0.28242007
-1.6148294	n s d	-0.2851188
-1.9051275	e s d	-0.4348721
-1.7505506	l s d	-0.2691725
-2.1581576	o s d	-0.2691725
-1.2378664	<w> u d	-0.2691725
-1.1317453	a u d	-0.70340234
-1.6350577	d u d	-0.2691725
-1.0592461	m u d	-0.32602337
-1.6046548	i u d	-0.2691725
-1.2661288	h u d	-0.49995917
-1.4782258	t u d	-0.89060616
-1.626102	s u d	-0.29937893
-1.279561	r u d	-0.7622338
-1.5835148	n u d	-0.30993336
-1.4523621	e u d	-0.33247623
-1.624803	c u d	-0.2770724
-1.2135928	l u d	-0.81883764
-1.3834152	p u d	-0.39708352
-1.5453905	f u d	-0.30152023
-1.5333997	o u d	-0.45561785
-1.4821897	b u d	-0.5046923
-1.0245504	j u d	-0.68824404
-0.98752373	x u d	-0.2691725
-1.1086789	<w> r d	-0.2691725
-1.195829	a r d	-1.2088956
-1.7908146	d r d	-0.2691725
-1.3853079	i r d	-0.5014436
-1.4064581	y r d	-0.2691725
-1.3779773	u r d	-0.61120534
-1.5665282	e r d	-0.5546894
-1.3056524	l r d	-0.2691725
-1.275197	o r d	-1.0829523
-1.2605697	<w> n d	-0.2691725
-1.1613634	a n d	-1.2203332
-1.4675689	w n d	-0.28919855
-1.2382796	i n d	-1.1076986
-1.3313823	y n d	-0.39531973
-1.0317315	u n d	-1.2290149
-1.1601129	e n d	-1.2991692
-1.2691863	o n d	-1.0075364
-1.369098	<w> e d	-0.676899
-1.100991	g e d	-1.384095
-1.6376557	a e d	-0.2691725
-1.0913962	w e d	-0.9804487
-1.1061325	d e d	-1.551717
-1.2065182	m e d	-1.2608379
-1.0082067	i e d	-1.4112294
-1.2576965	h e d	-1.2914275
-1.0885464	t e d	-2.156503
-1.0150044	y e d	-1.4215949
-1.1701508	s e d	-1.3918535
-0.9576813	u e d	-1.1286827
-1.2432775	r e d	-1.414261
-1.2841667	n e d	-1.6633792
-1.1618471	e e d	-0.84381014
-1.1344823	c e d	-1.1776836
-1.1798713	l e d	-1.7104119
-1.0178853	p e d	-1.2719743
-0.998473	z e d	-1.9041448
-1.059302	f e d	-0.87341017
-0.9922694	o e d	-0.6348641
-0.96095645	k e d	-1.470779
-1.2037966	v e d	-1.3554165
-1.0494412	b e d	-0.84793913
-0.29668337	q e d	-0.2691725
-1.4278198	j e d	-0.2691725
-0.89054686	x e d	-0.8494698
-2.347744	a c d	-0.2691725
-1.5884523	m c d	-0.2691725
-2.211935	e c d	-0.30993336
-1.3498404	a l d	-0.5989579
-1.4843216	i l d	-0.627439
-1.8162087	u l d	-0.5479858
-1.6898075	r l d	-0.28050265
-1.4670304	e l d	-0.9929804
-1.8782185	l l d	-0.2691725
-1.1140121	o l d	-0.92097807
-1.8225608	a p d	-0.2790701
-2.0299125	u p d	-0.28919855
-2.1152406	e f d	-0.30993336
-1.3628018	<w> o d	-0.30344734
-1.3508164	g o d	-0.3785076
-1.4148731	a o d	-0.2691725
-1.7680731	d o d	-0.41401362
-1.2059586	m o d	-0.8871698
-1.6156098	i o d	-0.6204281
-1.4937832	h o d	-0.5916642
-1.7790923	t o d	-0.2763483
-1.3866558	y o d	-0.28242007
-1.4902806	s o d	-0.411267
-1.4469808	u o d	-0.2691725
-1.485269	r o d	-0.7769276
-1.4311758	n o d	-0.3238988
-1.3223058	e o d	-0.4392953
-1.6037424	c o d	-0.43693066
-1.6514951	l o d	-0.4208797
-1.441802	p o d	-0.28727219
-1.4998267	z o d	-0.2691725
-1.5843414	f o d	-0.2691725
-1.1538427	o o d	-0.8848355
-1.690487	k o d	-0.2790701
-1.2030866	b o d	-0.7642657
-1.5286355	j o d	-0.2691725
-1.0213611	x o d	-0.2691725
-2.027873	a k d	-0.28919855
-1.791491	r k d	-0.2691725
-1.756074	e k d	-0.2691725
-1.6205146	c k d	-0.29595888
-1.696908	o v d	-0.28919855
-2.0209181	a b d	-0.2890749
-1.8308113	u b d	-0.36290568
-2.0776262	o b d	-0.2691725
-1.351169	a j d	-0.2691725
-1.3645831	</w> <w> m	-2.2089322
-1.9106783	a g m	-0.41633764
-0.9211476	d g m	-0.61096334
-1.2954966	i g m	-0.51776576
-1.2950875	y g m	-0.2691725
-1.7872636	u g m	-0.30993336
-1.6004505	n g m	-0.28242007
-1.7440726	e g m	-0.29937893
-1.8828056	o g m	-0.53178215
-1.3757741	<w> a m	-0.9744705
-1.0879285	g a m	-0.5158591
-1.0086814	a a m	-0.2691725
-1.7535899	w a m	-0.41401362
-1.2058895	d a m	-0.58643585
-1.8770572	m a m	-0.46026808
-1.3703235	i a m	-0.48412406
-1.0870786	h a m	-0.86196244
-1.3487364	t a m	-0.59443545
-1.4673679	y a m	-0.30993336
-1.3019414	s a m	-0.36912936
-1.5302981	u a m	-0.30993336
-1.2080787	r a m	-0.9324544
-1.120723	n a m	-0.7710077
-1.4286222	e a m	-0.75436735
-1.391559	c a m	-0.77444494
-1.1998451	l a m	-0.83747554
-1.8628266	p a m	-0.4972872
-1.5973027	f a m	-0.6473547
-1.300555	o a m	-0.29847795
-1.4525388	k a m	-0.28617525
-1.6429029	v a m	-0.4348721
-1.7598503	b a m	-0.29316723
-1.205619	j a m	-0.3416745
-1.0927148	x a m	-0.60159725
-1.8450141	a w m	-0.29316723
-1.8374975	e w m	-0.2691725
-1.5822978	o w m	-0.37688014
-1.5721207	a d m	-0.91790885
-1.9257092	i d m	-0.2691725
-1.7497122	u d m	-0.2691725
-1.5601416	r d m	-0.2691725
-1.2869642	n d m	-0.48177204
-1.671824	e d m	-0.29202962
-1.5466728	l d m	-0.2691725
-1.8688654	o d m	-0.28919855
-1.1742777	<w> m m	-0.2691725
-1.1777816	a m m	-0.8561325
-1.4235994	m m m	-0.2691725
-1.0277295	i m m	-0.8624652
-1.7163165	y m m	-0.67791015
-1.1151295	u m m	-0.80687946
-1.1996759	e m m	-0.6067108
-1.1755674	o m m	-1.2231388
-1.3383635	<w> i m	-1.4590101
-1.653234	g i m	-0.48832428
-1.3307447	a i m	-0.5430114
-1.6104202	w i m	-0.2851188
-1.3077676	d i m	-0.78477395
-1.7976551	m i m	-0.4348721
-1.2661608	h i m	-0.40321335
-1.0900776	t i m	-1.0324602
-1.3781725	s i m	-0.76299834
-1.696987	u i m	-0.2691725
-1.3174727	r i m	-0.8289444
-1.6095356	n i m	-0.64101714
-1.7705507	e i m	-0.5361297
-1.6472192	c i m	-0.34632474
-1.2536066	l i m	-0.72065413
-1.8841472	p i m	-0.4754702
-1.3862936	z i m	-0.2691725
-1.4744099	k i m	-0.3028899
-1.8712702	v i m	-0.2691725
-1.7014625	b i m	-0.2790701
-0.7667117	j i m	-0.2942589
-1.2917818	x i m	-0.5760772
-1.1124676	<w> h m	-0.2691725
-1.636568	g h m	-0.2691725
-1.3058784	a h m	-0.2790701
-1.1540599	i h m	-0.2691725
-1.4787737	t h m	-0.33087063
-1.3916717	s h m	-0.7706642
-1.4167233	u h m	-0.2691725
-1.4906359	e h m	-0.28242007
-1.3703805	c h m	-0.7970425
-1.0065564	o h m	-0.2890749
-1.4140939	k h m	-0.2691725
-1.6721764	a t m	-0.40156612
-1.7063392	i t m	-0.30465612
-1.5153543	h t m	-0.30993336
-1.7162579	t t m	-0.2691725
-1.4786675	s t m	-0.6887474
-1.4949459	u t m	-0.35580862
-1.4703248	r t m	-0.6348641
-1.371262	n t m	-0.56087494
-1.8984361	e t m	-0.28242007
-1.4064105	c t m	-0.4348721
-1.5361003	l t m	-0.28242007
-1.7989507	o t m	-0.28919855
-1.0587829	<w> y m	-0.2691725
-1.0851705	g y m	-0.41401362
-1.4691885	a y m	-0.5861398
-1.2025558	w y m	-0.2691725
-1.383464	d y m	-0.28242007
-1.1947074	h y m	-0.3402583
-1.1912334	t y m	-0.2691725
-1.0929053	s y m	-0.8628994
-1.4360498	r y m	-0.3618628
-1.2189298	n y m	-0.32726538
-1.4579183	e y m	-0.4392953
-1.5179974	l y m	-0.5719209
-1.2484578	z y m	-0.28242007
-1.5372165	o y m	-0.61096334
-1.1345143	x y m	-0.2691725
-1.3346528	<w> s m	-0.97238237
-1.3311255	a s m	-0.48406595
-1.3943374	w s m	-0.2691725
-1.1889598	d s m	-0.36290568
-1.429679	m s m	-0.2691725
-1.0570107	i s m	-1.4272411
-1.1682626	t s m	-0.5727162
-1.5146708	y s m	-0.2691725
-1.3163681	s s m	-0.68922174
-1.7178652	u s m	-0.4348721
-1.6172663	r s m	-0.2691725
-1.3193041	n s m	-0.5412764
-1.2674265	e s m	-0.66740865
-1.6472497	l s m	-0.2691725
-1.735915	p s m	-0.2691725
-1.8982829	o s m	-0.4924528
-1.3766459	k s m	-0.28242007
-1.2108697	<w> u m	-0.29316723
-1.2343858	g u m	-0.38601577
-1.4254725	a u m	-0.38601577
-0.8454497	w u m	-0.2691725
-1.2052909	d u m	-0.4041317
-1.2407672	m u m	-0.33626655
-0.49590778	i u m	-1.1317556
-0.8894983	h u m	-0.7506852
-1.1560463	t u m	-0.6181543
-1.1081015	s u m	-0.7786034
-0.6250198	u u m	-0.2790701
-1.0357423	r u m	-0.71755385
-0.91474694	n u m	-0.78141075
-1.1902181	e u m	-0.5457945
-1.0087745	c u m	-0.659677
-0.96221197	l u m	-0.8459276
-1.4917521	p u m	-0.41401362
-1.5198892	f u m	-0.45877284
-1.7371505	o u m	-0.2790701
-1.3453562	k u m	-0.2691725
-1.5783588	b u m	-0.45741498
-1.4531987	j u m	-0.5056402
-1.4017894	a r m	-0.86667645
-1.4013937	i r m	-0.67770994
-1.6705779	h r m	-0.2691725
-1.5057726	u r m	-0.4348721
-1.6961609	r r m	-0.2691725
-1.4259272	e r m	-1.3055308
-1.4219391	o r m	-1.0779955
-1.5959076	g n m	-0.53178215
-2.4029908	a n m	-0.2691725
-1.9343257	i n m	-0.5001655
-1.8624077	u n m	-0.5906551
-1.3914827	r n m	-0.65156144
-1.7525384	e n m	-0.2942589
-1.5886652	o n m	-0.5676053
-1.3877131	<w> e m	-1.0438262
-1.2644063	g e m	-0.7164091
-1.6575713	a e m	-0.2691725
-1.7886124	w e m	-0.2691725
-1.3060836	d e m	-0.8993139
-1.3880334	m e m	-0.788136
-1.7724112	i e m	-0.2691725
-1.2117245	h e m	-0.74323094
-1.2159456	t e m	-0.93293726
-1.245835	s e m	-0.9620415
-1.6703682	u e m	-0.2790701
-1.3353093	r e m	-1.0195814
-1.4250959	n e m	-0.61398846
-1.6145408	e e m	-0.5450475
-1.2978306	c e m	-0.8876506
-1.2524148	l e m	-0.8800333
-1.9201175	p e m	-0.29937893
-1.5749701	z e m	-0.28919855
-1.6570292	f e m	-0.35595587
-1.4556868	o e m	-0.29316723
-1.6334825	k e m	-0.2757458
-1.3606484	v e m	-0.90143895
-1.9356045	b e m	-0.28919855
-1.444953	j e m	-0.2691725
-1.1746802	x e m	-0.54843974
-2.353909	a c m	-0.2691725
-1.8028936	r c m	-0.2691725
-1.3135798	a l m	-0.5179929
-1.4295677	i l m	-0.3681683
-1.664788	u l m	-0.57317483
-1.6898075	r l m	-0.2691725
-1.3745427	e l m	-0.4558612
-1.277632	l l m	-0.67791015
-1.593306	o l m	-0.6344445
-2.0442753	a p m	-0.2691725
-1.7824588	m p m	-0.2691725
-1.7610594	i p m	-0.48602462
-1.821535	u p m	-0.2691725
-1.9532975	e p m	-0.28919855
-1.5788628	l p m	-0.2691725
-1.6315576	p p m	-0.28919855
-1.8748882	o p m	-0.39628893
-1.5440745	t z m	-0.2691725
-1.3031626	l z m	-0.2691725
-1.6257573	z z m	-0.2691725
-1.9444803	a f m	-0.2691725
-1.6458052	f f m	-0.4348721
-1.8702366	o f m	-0.2691725
-1.3628018	<w> o m	-0.44722655
-1.6109989	g o m	-0.28242007
-1.4148731	a o m	-0.2691725
-0.9631982	w o m	-0.5261128
-1.0200078	d o m	-0.8440414
-1.6867806	m o m	-0.6004089
-1.3741726	i o m	-0.33463478
-1.2411247	h o m	-0.76701796
-1.2210616	t o m	-0.73602885
-1.5481695	y o m	-0.2691725
-0.93936604	s o m	-0.88130236
-1.4469808	u o m	-0.2691725
-1.2147958	r o m	-0.90877056
-1.2551472	n o m	-0.9755974
-1.465007	e o m	-0.4392953
-0.9299771	c o m	-1.5035629
-1.3141584	l o m	-0.50766474
-1.7776845	p o m	-0.5872053
-1.4998267	z o m	-0.28919855
-1.2008201	o o m	-0.81937814
-1.3020004	k o m	-0.2757458
-1.6765168	v o m	-0.28919855
-1.9335939	b o m	-0.94675547
-1.0213611	x o m	-0.2691725
-1.9385364	a k m	-0.2691725
-1.6538167	s k m	-0.2691725
-1.5063438	r k m	-0.39628893
-1.3543639	n k m	-0.29937893
-1.4242164	c k m	-0.7403253
-1.787292	o k m	-0.2691725
-1.244031	<w> b m	-0.2691725
-2.0257308	u b m	-0.522416
-2.0424063	e b m	-0.2691725
-0.7716177	c b m	-0.2691725
-1.7384477	o x m	-0.2691725
-1.3814883	</w> <w> i	-1.8516195
-1.1335721	<w> g i	-0.651289
-0.8948401	g g i	-0.8769212
-0.9941555	a g i	-0.81618416
-0.8855166	d g i	-0.83281213
-1.2624618	i g i	-0.6651232
-0.98845303	y g i	-0.2691725
-0.7608867	s g i	-0.28242007
-1.5054973	u g i	-0.2851188
-0.9388931	r g i	-0.5961304
-1.1753447	n g i	-0.8172437
-0.9980384	e g i	-0.71773684
-0.7822659	l g i	-0.39037794
-1.1965201	o g i	-1.1445433
-1.4149152	<w> a i	-0.73284584
-1.2295746	g a i	-0.732884
-1.3318243	w a i	-0.5776574
-1.2762142	d a i	-0.54592794
-1.2909594	m a i	-0.71856886
-1.998605	i a i	-0.28919855
-1.464524	h a i	-0.6915921
-1.1438304	t a i	-1.2533814
-1.2010579	s a i	-0.56197125
-1.5595139	u a i	-0.542417
-1.2983031	r a i	-1.0385565
-1.2330254	n a i	-0.7018109
-1.4886228	c a i	-0.3830672
-1.2362853	l a i	-0.89466906
-1.3171527	p a i	-0.8460775
-1.631816	z a i	-0.2691725
-1.174028	f a i	-0.8389841
-1.6064122	k a i	-0.28242007
-1.2949803	v a i	-0.7730801
-1.668392	b a i	-0.4071106
-1.5685439	j a i	-0.30993336
-1.0272197	<w> w i	-1.1208514
-0.7479685	g w i	-0.2691725
-1.0995948	a w i	-0.7387116
-0.6285371	d w i	-0.53899693
-0.9440604	i w i	-0.2691725
-0.88267887	h w i	-0.28919855
-0.6971178	t w i	-0.60351664
-0.9044884	y w i	-0.28242007
-0.88241154	s w i	-0.4979701
-0.85620236	r w i	-0.36290568
-0.7526379	n w i	-0.29208297
-0.7827526	e w i	-0.6273797
-0.9253596	l w i	-0.28919855
-0.8399087	p w i	-0.2691725
-0.9945191	o w i	-0.8295615
-1.2684914	k w i	-0.2691725
-1.139817	<w> d i	-1.4484925
-0.9439757	a d i	-0.898504
-1.1842589	w d i	-0.28919855
-0.9145296	d d i	-0.8453377
-0.8766725	i d i	-0.728224
-0.9409622	h d i	-0.2691725
-0.9976978	t d i	-0.28919855
-0.95148027	y d i	-0.2691725
-0.91146	s d i	-0.4754702
-0.89530313	u d i	-0.7296356
-1.0764335	r d i	-0.80799186
-1.1321692	n d i	-1.0247993
-0.9793359	e d i	-0.9297663
-1.0689683	l d i	-0.91790885
-0.8608602	o d i	-0.70671505
-0.28712684	v d i	-0.2691725
-1.0305611	b d i	-0.28919855
-1.00273	<w> m i	-1.2604052
-1.245553	g m i	-0.2691725
-0.88026094	a m i	-0.93490136
-0.9504919	w m i	-0.2691725
-0.8267456	d m i	-0.6273797
-0.90503705	m m i	-0.8561325
-0.9546113	i m i	-0.9718967
-0.9229637	h m i	-0.35002157
-1.2786688	t m i	-0.28242007
-0.98901457	y m i	-0.29316723
-0.7409033	s m i	-0.7263999
-0.9874079	u m i	-0.7660795
-0.9602939	r m i	-1.068638
-0.9411509	n m i	-0.28050265
-0.99161565	e m i	-0.9197524
-0.53508896	c m i	-0.2691725
-0.9514718	l m i	-0.67152613
-1.0328896	o m i	-0.9726684
-1.0979328	k m i	-0.2691725
-0.96219003	b m i	-0.37688014
-0.27403125	x m i	-0.2691725
-1.4746126	<w> i i	-0.2691725
-1.991344	g i i	-0.2691725
-2.1238325	a i i	-0.2691725
-1.9401253	d i i	-0.2691725
-1.7486584	h i i	-0.28242007
-2.368466	r i i	-0.2691725
-2.1772757	n i i	-0.2691725
-2.108723	e i i	-0.2691725
-1.9426246	k i i	-0.2790701
-1.6306671	x i i	-0.2691725
-1.0323912	<w> h i	-0.8348676
-1.0477062	g h i	-0.39531973
-1.0712262	a h i	-0.27480063
-0.5580443	w h i	-0.75759965
-1.1273608	d h i	-0.4348721
-0.8476607	i h i	-0.4754702
-1.1003237	t h i	-0.9094856
-0.82502633	s h i	-1.1038858
-1.3031945	u h i	-0.2691725
-1.1148492	r h i	-0.4392953
-1.0873363	n h i	-0.624867
-1.0384454	e h i	-0.28617525
-0.9467099	c h i	-1.00026
-0.99191064	l h i	-0.2691725
-0.9498299	p h i	-0.93886805
-0.8679054	z h i	-0.28919855
-1.1038871	o h i	-0.54843974
-0.9268429	x h i	-0.55679274
-1.1249567	<w> t i	-0.8885772
-0.94302344	g t i	-0.28919855
-0.9878371	a t i	-1.761378
-1.0293496	w t i	-0.2691725
-0.98042953	d t i	-0.2691725
-1.0606079	i t i	-1.3258262
-1.0873771	h t i	-0.514352
-0.98277956	t t i	-0.92427444
-0.9931794	y t i	-0.6348641
-1.0702972	s t i	-1.2994201
-0.973228	u t i	-1.0059661
-1.0800575	r t i	-1.0370239
-1.2027094	n t i	-1.1802465
-1.0364047	e t i	-0.9994405
-0.93705595	c t i	-1.4406412
-0.98926836	l t i	-0.74477935
-0.9132428	p t i	-0.944076
-1.0331994	f t i	-0.4469316
-0.88111484	o t i	-0.9135281
-0.90387934	k t i	-0.28242007
-1.1549623	b t i	-0.2790701
-1.0674008	x t i	-0.34632474
-1.0576022	<w> y i	-0.3723485
-1.0644354	a y i	-1.1122923
-0.88999724	d y i	-0.542417
-1.3373768	t y i	-0.30993336
-1.193676	u y i	-0.2691725
-0.98906	r y i	-1.1115657
-1.2177767	n y i	-0.2851188
-1.2152175	e y i	-0.7359021
-1.416336	c y i	-0.2691725
-1.0889974	l y i	-0.83281213
-0.9346035	p y i	-0.29937893
-0.71839255	f y i	-1.3379622
-1.0720545	o y i	-0.6004089
-0.9209355	v y i	-0.28919855
-1.48015	b y i	-0.2691725
-1.2840579	<w> s i	-1.0540209
-1.3758454	g s i	-0.30993336
-1.1942121	a s i	-0.69025105
-1.3420504	w s i	-0.28242007
-0.9738497	d s i	-0.3560217
-1.1139414	m s i	-0.2691725
-1.2227073	i s i	-0.9548181
-1.3587986	h s i	-0.2691725
-1.1514087	t s i	-0.2891243
-1.082618	y s i	-0.7326264
-1.1100037	s s i	-1.1188059
-1.0373181	u s i	-0.9441735
-1.1801772	r s i	-0.6294077
-1.2179374	n s i	-0.97734755
-1.2186232	e s i	-0.8437613
-1.0131581	c s i	-0.2790701
-1.1667659	l s i	-0.5723802
-0.8608654	p s i	-0.34632474
-0.9620825	o s i	-0.94026697
-1.3387891	k s i	-0.2790701
-1.0349917	b s i	-0.60490084
-0.91325486	g u i	-0.80463284
-1.9561696	a u i	-0.2691725
-1.3764216	d u i	-0.2790701
-1.7276411	m u i	-0.2691725
-1.5440027	h u i	-0.2691725
-1.4903356	t u i	-0.7359021
-1.1252364	s u i	-0.8786874
-1.286762	r u i	-0.83649254
-1.4822342	n u i	-0.40156612
-1.6020635	e u i	-0.28919855
-1.5045954	c u i	-0.46516615
-1.5337033	l u i	-0.41962412
-1.7114578	p u i	-0.2691725
-1.5434418	o u i	-0.64394295
-1.2454046	b u i	-1.0195382
-0.624575	q u i	-0.9264811
-1.5171827	j u i	-0.4348721
-0.96709317	<w> r i	-0.9125467
-0.8491439	g r i	-0.6758727
-1.1595042	a r i	-1.1856524
-0.43456006	w r i	-0.87420475
-0.74393463	d r i	-0.62706894
-1.0201825	m r i	-0.2691725
-0.98458636	i r i	-0.66529435
-0.9786881	h r i	-0.70427537
-0.8606405	t r i	-1.139838
-0.73128134	y r i	-0.43768162
-1.1157978	s r i	-0.2691725
-0.9491777	u r i	-0.91937834
-0.8352493	r r i	-0.8741293
-0.9046383	n r i	-0.349306
-1.1491377	e r i	-1.276102
-0.8367168	c r i	-0.981092
-0.93549615	l r i	-0.28919855
-0.7490789	p r i	-0.9237289
-0.6818682	z r i	-0.2691725
-0.6647253	f r i	-0.60436076
-1.0731392	o r i	-1.0878006
-0.9210444	k r i	-0.5056402
-0.99382937	v r i	-0.2691725
-0.5633838	b r i	-0.8463347
-1.1018542	<w> n i	-0.6721914
-0.91418296	g n i	-0.8901366
-1.0976312	a n i	-1.0525407
-1.091908	w n i	-0.84344697
-0.8033385	d n i	-0.2790701
-0.9028804	m n i	-0.33238596
-1.1385757	i n i	-1.1076982
-0.9730838	h n i	-0.48832428
-0.82798946	t n i	-0.3723485
-1.3268526	y n i	-0.39628893
-0.96895456	s n i	-0.36290568
-1.2551583	u n i	-0.9146798
-1.1111349	r n i	-0.75480807
-0.92211616	n n i	-0.7590475
-1.1499271	e n i	-0.92394876
-0.67754954	c n i	-0.39628893
-1.1952467	l n i	-0.2691725
-1.0661852	p n i	-0.2691725
-0.8027853	f n i	-0.2691725
-1.0783234	o n i	-1.146932
-1.350889	k n i	-0.411267
-1.4156975	<w> e i	-0.39582956
-1.5336227	g e i	-0.29316723
-1.1023339	w e i	-0.6200029
-1.6943374	d e i	-0.2757458
-1.5808994	m e i	-0.35053146
-1.2186363	h e i	-0.60587543
-1.7064517	t e i	-0.92405283
-1.525924	y e i	-0.28919855
-1.5178715	s e i	-0.35002157
-1.5508462	r e i	-0.74071544
-1.5593758	n e i	-0.542417
-1.5262904	e e i	-0.65156144
-1.4612739	c e i	-0.7422226
-1.34102	l e i	-0.38879305
-1.4550836	p e i	-0.2757458
-1.782743	z e i	-0.28242007
-1.6801667	f e i	-0.40117407
-1.4734834	o e i	-0.28919855
-1.7805077	k e i	-0.2790701
-1.6144722	v e i	-0.5379541
-1.5599786	b e i	-0.39898866
-1.5592542	x e i	-0.2691725
-1.1042457	<w> c i	-0.7745831
-0.98833996	a c i	-0.87136877
-0.9825516	m c i	-0.29595888
-0.9707191	i c i	-1.0978703
-1.2266726	y c i	-0.28242007
-0.9580789	s c i	-0.706246
-1.0106336	u c i	-0.53927994
-1.0464828	r c i	-0.459306
-1.0993149	n c i	-0.956107
-1.2131796	e c i	-0.780071
-0.99144167	c c i	-0.5723802
-1.3805431	l c i	-0.2890749
-0.9469371	p c i	-0.2691725
-1.0730119	o c i	-0.7505257
-1.0873587	x c i	-0.6025502
-0.9496277	<w> l i	-1.0546788
-0.6795275	g l i	-0.5888764
-1.0622072	a l i	-1.3100259
-0.6625454	w l i	-0.6570517
-0.6297649	d l i	-0.7458761
-0.9638136	m l i	-0.4208976
-0.9734565	i l i	-1.1809559
-1.1015731	h l i	-0.411267
-0.75288534	t l i	-0.87654424
-0.9121169	y l i	-0.44484606
-0.7778528	s l i	-0.5898504
-1.0203959	u l i	-0.5854365
-0.9117345	r l i	-0.7795403
-0.7932555	n l i	-0.4993961
-1.0294755	e l i	-0.98616976
-0.70780957	c l i	-0.7486528
-1.0848339	l l i	-1.004859
-0.7625282	p l i	-0.96881944
-0.5969492	z l i	-0.542417
-0.81639814	f l i	-0.6607036
-1.0474185	o l i	-0.9864352
-0.62576175	k l i	-0.611262
-0.71866196	b l i	-0.89453495
-1.1209413	<w> p i	-0.93063706
-0.6733473	g p i	-0.2790701
-1.0230867	a p i	-0.65689826
-0.9292805	w p i	-0.2691725
-0.97475725	m p i	-0.65890974
-0.9820351	i p i	-0.5349906
-0.9292805	h p i	-0.28919855
-1.2586496	y p i	-0.40156612
-0.91893715	s p i	-0.9307755
-1.0807247	u p i	-0.54592794
-1.0253425	r p i	-0.5051123
-1.0203966	n p i	-0.2790701
-0.91065764	e p i	-0.6506214
-1.2267392	l p i	-0.30152023
-0.9110189	p p i	-0.9782119
-1.0242077	o p i	-0.7669221
-0.67571884	k p i	-0.2770724
-1.0090349	x p i	-0.38070148
-0.91979843	<w> z i	-0.29202962
-0.76507175	a z i	-0.58502483
-0.65670264	d z i	-0.2691725
-0.7077157	i z i	-1.6588869
-0.5220507	h z i	-0.2691725
-1.0393411	t z i	-0.2691725
-0.7503501	y z i	-0.2691725
-1.1694063	u z i	-0.2691725
-0.880547	r z i	-0.2691725
-0.95151377	n z i	-0.28617525
-1.1182119	e z i	-0.39628893
-0.83753014	l z i	-0.2691725
-0.76570165	z z i	-0.33247623
-0.8398982	o z i	-0.28919855
-0.98909	<w> f i	-1.0385563
-0.9195112	g f i	-0.2691725
-1.1419147	a f i	-0.3402583
-0.7355504	w f i	-0.2691725
-0.74611986	d f i	-0.28242007
-0.9988059	m f i	-0.2691725
-0.7751479	i f i	-1.3320098
-0.62104356	h f i	-0.39628893
-0.6394995	t f i	-0.5969889
-1.0475179	y f i	-0.2691725
-0.6507708	s f i	-0.4208976
-1.0009413	r f i	-0.3830672
-0.7327948	n f i	-0.73559207
-0.89658254	e f i	-0.7803723
-0.88271725	l f i	-0.4989513
-1.0240331	p f i	-0.2691725
-1.0066826	f f i	-0.85063577
-0.9764916	o f i	-0.45580935
-0.95504594	k f i	-0.2691725
-0.27145097	b f i	-0.2691725
-1.3711407	<w> o i	-0.5523163
-1.165806	g o i	-0.67791015
-1.4215539	a o i	-0.30993336
-1.3595371	d o i	-0.6004089
-1.5652795	m o i	-0.6004089
-1.7469538	i o i	-0.2691725
-1.4978789	h o i	-0.28727219
-1.4189293	t o i	-0.3862253
-1.4949763	s o i	-0.42550597
-1.4544497	u o i	-0.28242007
-1.4024236	r o i	-0.5728525
-1.5142653	n o i	-0.5277726
-1.7613862	e o i	-0.28919855
-1.6087627	c o i	-0.6590515
-1.4027052	l o i	-0.5725362
-1.2385409	p o i	-0.9059308
-1.5083988	z o i	-0.2691725
-1.7636831	f o i	-0.29316723
-1.8313613	o o i	-0.28919855
-1.5615102	k o i	-0.2691725
-1.1374288	v o i	-0.5760772
-1.3163025	b o i	-0.59571767
-0.9664357	j o i	-0.8567128
-1.0519012	<w> k i	-0.7700288
-0.5344087	g k i	-0.2691725
-0.78465325	a k i	-0.873232
-0.6966399	w k i	-0.2790701
-0.67364126	d k i	-0.2691725
-0.39775226	m k i	-0.28919855
-0.74495643	i k i	-0.67337847
-0.8849304	h k i	-0.2691725
-0.7023969	t k i	-0.4348721
-0.6607211	y k i	-0.30993336
-0.57106787	s k i	-0.7413422
-1.0652264	u k i	-0.28919855
-0.96089643	r k i	-1.0175235
-0.9650242	n k i	-0.8468245
-0.9142665	e k i	-0.6004089
-1.0448532	c k i	-1.0065361
-0.8307492	l k i	-0.5668093
-0.5378657	p k i	-0.61096334
-0.82322454	o k i	-0.70340234
-0.9697929	k k i	-0.2691725
-0.81776243	<w> v i	-0.99983543
-0.6237755	a v i	-0.8038035
-0.4197759	d v i	-0.7140453
-0.23695205	m v i	-0.2691725
-0.6992472	i v i	-0.9618694
-0.35228944	h v i	-0.28919855
-0.4515965	t v i	-0.28919855
-0.4462008	y v i	-0.28919855
-0.2484301	s v i	-0.9789401
-0.6514982	u v i	-0.2691725
-0.48373532	r v i	-0.88546443
-0.6562109	n v i	-0.60958695
-0.7186523	e v i	-0.84351337
-0.48617184	l v i	-0.5557447
-0.6725765	o v i	-0.7640492
-0.23695205	k v i	-0.2691725
-0.59673524	b v i	-0.30993336
-0.23695205	q v i	-0.2691725
-0.23695205	x v i	-0.2691725
-1.0259126	<w> b i	-0.8095901
-0.94088066	a b i	-0.96277726
-0.9498589	w b i	-0.28242007
-1.039344	d b i	-0.28919855
-1.002933	m b i	-0.60219264
-0.8976146	i b i	-0.8818125
-1.1364821	h b i	-0.2691725
-1.2830096	t b i	-0.2691725
-1.3521872	y b i	-0.2691725
-1.5084596	s b i	-0.2691725
-0.9684428	u b i	-0.3164298
-0.9852349	r b i	-0.65945315
-1.194279	n b i	-0.2691725
-1.1299201	e b i	-0.29937893
-1.1012129	l b i	-0.2790701
-0.91134703	o b i	-0.539593
-0.9910371	k b i	-0.2691725
-0.89324385	b b i	-0.6762568
-0.27826807	j b i	-0.2691725
-0.85272765	<w> j i	-0.34100312
-0.92712635	a j i	-0.28919855
-0.9050365	i j i	-0.2691725
-0.72050613	u j i	-0.2790701
-0.90540713	n j i	-0.30993336
-0.8576548	o j i	-0.2691725
-0.7604358	a x i	-0.51146513
-0.7507214	i x i	-0.35002157
-1.1719255	u x i	-0.28919855
-0.54185575	r x i	-0.2691725
-0.8604503	n x i	-0.28919855
-0.866758	e x i	-0.5861418
-0.7842362	o x i	-0.6019374
-1.3823367	</w> <w> h	-2.145707
-1.1353048	<w> g h	-0.5844344
-1.460952	g g h	-0.2691725
-1.325826	a g h	-0.28617525
-1.3592594	d g h	-0.2691725
-1.0664797	i g h	-1.282356
-1.1379874	u g h	-0.88975734
-1.3167651	r g h	-0.28050265
-1.2679995	n g h	-0.53204864
-1.6403108	e g h	-0.28242007
-0.89069843	c g h	-0.2691725
-1.3285625	l g h	-0.2691725
-0.56216073	f g h	-0.28919855
-1.5007048	o g h	-0.2691725
-1.4059662	<w> a h	-0.29202962
-1.6558679	w a h	-0.2691725
-1.5282066	d a h	-0.2790701
-1.7871112	m a h	-0.28573477
-1.3797557	i a h	-0.67791015
-1.5403757	h a h	-0.29202962
-1.5669945	t a h	-0.27480063
-1.6662532	y a h	-0.2691725
-1.8161982	s a h	-0.2691725
-1.5965786	r a h	-0.3663257
-1.803724	n a h	-0.27480063
-1.8299376	e a h	-0.29937893
-1.9838451	c a h	-0.2691725
-1.6036861	l a h	-0.411267
-1.9010208	p a h	-0.28919855
-1.6223046	z a h	-0.2691725
-1.6243056	f a h	-0.2691725
-1.45968	o a h	-0.2790701
-1.598464	k a h	-0.2691725
-1.5397984	v a h	-0.30993336
-1.5245038	b a h	-0.2851188
-0.9473645	j a h	-0.29595888
-1.0757381	<w> w h	-1.3688064
-1.4546754	a w h	-0.2790701
-1.5233622	d w h	-0.2691725
-1.0608257	h w h	-0.2691725
-1.3577199	t w h	-0.2691725
-1.0822864	y w h	-0.28919855
-1.2312232	r w h	-0.4348721
-0.9299543	n w h	-0.28242007
-1.2549167	e w h	-0.4392953
-0.24876247	c w h	-0.2691725
-1.1727817	l w h	-0.2691725
-1.4136661	o w h	-0.29202962
-1.0947893	k w h	-0.2691725
-1.2552019	<w> d h	-0.2691725
-1.561503	a d h	-0.63175094
-1.6185988	d d h	-0.29937893
-1.8997173	u d h	-0.2691725
-1.7206928	r d h	-0.2691725
-1.2771847	n d h	-0.36290568
-1.9233215	e d h	-0.3723485
-1.6946442	l d h	-0.2691725
-1.5723706	o d h	-0.2851188
-2.228514	u m h	-0.2691725
-1.8514643	r m h	-0.29937893
-1.984976	o m h	-0.2691725
-1.5193889	<w> i h	-0.2691725
-1.4338676	i i h	-0.2691725
-2.1684752	h i h	-0.2691725
-2.1829433	t i h	-0.2691725
-2.3414173	s i h	-0.2691725
-1.8854122	n i h	-0.4754702
-2.4509838	l i h	-0.28242007
-1.1833789	h h h	-0.2691725
-2.0882611	t h h	-0.28242007
-2.0220175	s h h	-0.2691725
-1.4963529	u h h	-0.2691725
-1.6002162	n h h	-0.2691725
-1.773622	e h h	-0.2691725
-1.7483785	c h h	-0.29937893
-1.1261985	<w> t h	-1.4650162
-0.94381547	g t h	-0.42431766
-1.0976886	a t h	-1.0551821
-0.78256905	w t h	-0.3723485
-0.6330984	d t h	-0.4208976
-0.94381547	m t h	-0.2691725
-1.2126046	i t h	-0.70661825
-1.0883414	h t h	-0.28617525
-1.4153544	t t h	-0.2691725
-0.6449669	y t h	-0.4789599
-1.4983766	s t h	-0.71850824
-1.2364917	u t h	-0.75977635
-1.1567161	r t h	-0.77754986
-1.1261429	n t h	-0.80181444
-1.083683	e t h	-0.8960706
-1.5744225	c t h	-0.2691725
-1.1720259	l t h	-0.44323474
-1.639308	p t h	-0.2691725
-1.1707623	f t h	-0.28919855
-1.0544422	o t h	-0.9315581
-1.1400429	k t h	-0.28919855
-1.2577264	x t h	-0.2691725
-1.8361177	a y h	-0.28242007
-1.6691809	n y h	-0.2691725
-1.6932056	e y h	-0.28919855
-1.9343557	l y h	-0.53178215
-1.5668911	p y h	-0.2691725
-1.8489444	o y h	-0.2691725
-1.3644477	b y h	-0.28919855
-1.2118199	x y h	-0.2691725
-1.2974157	<w> s h	-1.5994374
-1.1812009	g s h	-0.30152023
-1.020916	a s h	-0.9072964
-1.3558354	w s h	-0.28242007
-1.174498	d s h	-0.5723802
-1.4011328	m s h	-0.28242007
-1.1181803	i s h	-1.3003448
-0.9797161	h s h	-0.2691725
-1.0868556	t s h	-0.29202962
-1.114719	s s h	-0.29202962
-1.1128633	u s h	-0.79617625
-1.1873184	r s h	-0.79043716
-1.2235035	n s h	-0.93971205
-1.2587825	e s h	-0.6284898
-1.0651225	l s h	-0.29139888
-1.0522645	p s h	-0.3618628
-1.3348272	f s h	-0.2691725
-1.2202765	o s h	-0.4498886
-0.9528142	k s h	-0.306089
-0.91468394	v s h	-0.2691725
-1.276689	<w> u h	-0.2691725
-1.7741169	g u h	-0.2691725
-1.9944018	a u h	-0.2691725
-1.5322807	d u h	-0.28242007
-1.7611015	m u h	-0.2691725
-1.5700568	h u h	-0.2691725
-1.647737	t u h	-0.28242007
-1.5425525	s u h	-0.2790701
-1.9723116	r u h	-0.2691725
-1.7875991	n u h	-0.2691725
-1.5819032	f u h	-0.28242007
-1.1950741	k u h	-0.28919855
-1.2287807	v u h	-0.2691725
-1.8232318	b u h	-0.2691725
-1.5487826	j u h	-0.2691725
-1.1313694	<w> r h	-0.6621159
-1.979121	a r h	-0.30152023
-1.3321067	s r h	-0.2691725
-2.2214484	u r h	-0.2691725
-1.2909999	r r h	-0.2942589
-1.6254088	e r h	-0.65507245
-1.8972336	o r h	-0.29316723
-1.8240186	a n h	-0.33463478
-1.44588	w n h	-0.2691725
-1.6533946	i n h	-0.7002423
-1.6824366	y n h	-0.2691725
-2.102242	u n h	-0.4789812
-1.3641751	r n h	-0.29937893
-1.7191808	n n h	-0.2691725
-1.4249967	e n h	-0.62256724
-1.8269429	o n h	-0.4392953
-1.4380726	<w> e h	-0.2691725
-1.6883715	g e h	-0.28242007
-1.8318386	d e h	-0.29202962
-1.7290285	m e h	-0.2691725
-2.1001143	i e h	-0.28919855
-1.9950643	h e h	-0.28919855
-1.8527719	t e h	-0.2851188
-1.7297646	y e h	-0.2691725
-1.8425609	s e h	-0.542417
-1.6842809	r e h	-0.8967453
-1.6497853	n e h	-0.27480063
-1.780648	e e h	-0.2851188
-2.0121775	c e h	-0.28919855
-1.6509974	l e h	-0.33463478
-1.985858	p e h	-0.2691725
-1.6240387	o e h	-0.2691725
-1.8001388	k e h	-0.2691725
-1.6296926	v e h	-0.35580862
-1.8440993	b e h	-0.5983537
-1.4909987	j e h	-0.2691725
-1.0445921	<w> c h	-1.661656
-0.9519438	a c h	-1.034572
-1.0709809	d c h	-0.2691725
-0.9400047	m c h	-0.29937893
-1.0419712	i c h	-0.7487405
-0.9021348	h c h	-0.28919855
-0.55913556	t c h	-1.0532446
-0.7828741	y c h	-0.7516766
-0.78161204	s c h	-0.93760484
-0.8365853	u c h	-0.57223105
-0.9136015	r c h	-0.97757375
-0.99100065	n c h	-1.0511281
-0.9627336	e c h	-0.6867604
-1.2372372	c c h	-0.28242007
-0.6601119	l c h	-0.48177204
-0.658542	p c h	-0.28919855
-0.9451414	o c h	-0.63981736
-0.542236	k c h	-0.2691725
-0.27793473	v c h	-0.2691725
-1.0317699	x c h	-0.39628893
-2.1507688	a l h	-0.28919855
-1.4295677	i l h	-0.41962412
-2.133096	u l h	-0.2691725
-1.6898075	r l h	-0.2691725
-2.1474085	e l h	-0.2691725
-1.5470268	l l h	-0.28242007
-2.077282	o l h	-0.2691725
-1.1616963	<w> p h	-1.1569391
-1.2083673	a p h	-0.9635671
-0.95425934	w p h	-0.2691725
-1.1381738	m p h	-0.5619042
-1.0907148	i p h	-0.52122766
-1.1845236	t p h	-0.2691725
-0.8062638	y p h	-0.40117407
-1.3058608	s p h	-0.7724987
-1.2769122	u p h	-0.5098008
-1.1888953	r p h	-0.56613135
-1.1934409	n p h	-0.2691725
-0.95784193	e p h	-0.56981266
-0.25466338	c p h	-0.28242007
-0.8766924	l p h	-0.46487844
-0.8829911	o p h	-1.0519174
-1.1562667	<w> z h	-0.28242007
-1.2743475	t z h	-0.2691725
-1.9444803	a f h	-0.2691725
-1.7769108	l f h	-0.2691725
-1.6458052	f f h	-0.28919855
-1.4604694	<w> o h	-0.2691725
-1.8338356	w o h	-0.28242007
-2.0288603	d o h	-0.2691725
-2.059204	m o h	-0.30993336
-1.9206231	h o h	-0.2691725
-1.6905551	s o h	-0.30993336
-1.5334648	u o h	-0.2691725
-2.0231235	r o h	-0.5109236
-1.8041165	c o h	-0.6568386
-1.9465265	l o h	-0.2691725
-2.0393841	p o h	-0.28919855
-1.6556294	f o h	-0.2691725
-1.8201824	k o h	-0.2691725
-1.6136106	b o h	-0.2868453
-1.6399046	j o h	-0.48602462
-1.2239084	<w> k h	-0.45877284
-1.3988204	a k h	-0.2790701
-1.6668478	i k h	-0.2691725
-1.1892396	u k h	-0.2691725
-1.3026849	r k h	-0.2851188
-1.4437037	n k h	-0.28242007
-1.5958616	e k h	-0.2691725
-1.3779435	c k h	-0.44295883
-1.3254361	l k h	-0.28919855
-1.2631927	<w> b h	-0.2691725
-2.2826767	a b h	-0.28919855
-1.8308113	u b h	-0.2691725
-1.5915433	e x h	-0.69946027
-1.4612912	o x h	-0.2691725
-1.3819122	</w> <w> t	-2.077094
-1.5896202	n g t	-0.98977745
-2.1088748	o g t	-0.2691725
-1.3848609	<w> a t	-0.9683857
-0.99003345	g a t	-1.1998925
-1.0508953	w a t	-0.9382915
-1.1562943	d a t	-1.1198258
-1.0318049	m a t	-1.2169797
-1.0615389	i a t	-1.2278748
-1.2788184	h a t	-0.6782957
-1.1388917	t a t	-1.3969299
-1.3356781	y a t	-0.2691725
-1.1477907	s a t	-0.9086176
-0.91920495	u a t	-0.98907423
-1.2094736	r a t	-1.512446
-1.2267126	n a t	-1.4157736
-1.0390942	e a t	-1.0516666
-1.0201415	c a t	-1.2532741
-1.2013575	l a t	-1.2932341
-0.9314425	p a t	-1.1059284
-1.4248543	z a t	-1.616397
-1.2474529	f a t	-0.5111526
-1.0396756	o a t	-0.76423794
-1.138157	k a t	-0.35842314
-1.1295218	v a t	-1.1241623
-1.1471038	b a t	-0.80018365
-0.93160576	x a t	-0.53178215
-1.507955	a w t	-0.28242007
-1.8352398	e w t	-0.29595888
-2.130774	o w t	-0.4348721
-1.9686885	a d t	-0.2691725
-1.7966431	i d t	-0.37688014
-1.7778233	r d t	-0.39628893
-1.6938463	n d t	-0.36290568
-1.9698048	e d t	-0.2691725
-1.5664713	l d t	-0.28919855
-2.067694	o d t	-0.2691725
-2.0146174	a m t	-0.28242007
-2.1445603	i m t	-0.2691725
-2.1265302	u m t	-0.2691725
-1.7631063	r m t	-0.2691725
-2.1286423	o m t	-0.2691725
-1.3183528	<w> i t	-0.44484606
-1.1970404	g i t	-0.58910656
-1.1414131	a i t	-0.5578813
-0.9910513	w i t	-0.8399878
-1.1922724	d i t	-0.89074963
-0.9839415	m i t	-0.8795037
-1.1050793	h i t	-0.5879339
-1.1958864	t i t	-0.886376
-1.1964117	s i t	-1.0203127
-0.86579335	u i t	-0.73076826
-1.2170349	r i t	-1.1498302
-1.1690423	n i t	-0.98178124
-0.99852777	e i t	-0.4140404
-1.0931268	c i t	-0.858588
-1.1415609	l i t	-1.3340603
-1.0613816	p i t	-0.6680576
-1.371269	z i t	-0.2691725
-1.2244278	f i t	-0.42434928
-1.0730668	o i t	-0.41491067
-1.1333889	k i t	-0.43353295
-1.1859821	v i t	-0.745826
-1.0244235	b i t	-0.74147457
-1.3146532	j i t	-0.30993336
-1.2775161	x i t	-0.3560217
-1.3881836	g h t	-1.1019208
-1.6357291	a h t	-0.2691725
-1.8911295	t h t	-0.2790701
-1.8156797	s h t	-0.2691725
-1.4736497	u h t	-0.2691725
-1.3948851	c h t	-0.4799621
-1.5500369	p h t	-0.28242007
-1.4606929	k h t	-0.2691725
-1.0538677	a t t	-1.1581025
-1.1587406	i t t	-1.0561246
-1.6217611	h t t	-0.2691725
-1.2289646	y t t	-0.2691725
-1.0073125	u t t	-0.8297778
-0.99834347	e t t	-1.1582606
-1.0566223	o t t	-0.9826058
-1.4598321	a y t	-0.28242007
-1.5396439	d y t	-0.2691725
-0.85933304	m y t	-0.8112623
-1.1857281	h y t	-0.4392953
-1.5670075	s y t	-0.28919855
-1.1836088	u y t	-0.2691725
-1.5397252	r y t	-0.28242007
-1.5024226	n y t	-0.28242007
-1.5675898	e y t	-0.2691725
-1.2041976	c y t	-0.29796395
-1.2867984	l y t	-0.5236162
-1.4272628	p y t	-0.28919855
-1.6722062	o y t	-0.2691725
-1.3935372	k y t	-0.2691725
-1.46592	b y t	-0.28919855
-1.1238759	x y t	-0.2691725
-1.2734632	<w> s t	-1.8610346
-1.1676944	g s t	-0.4541576
-0.9944015	a s t	-1.2128233
-1.3311265	w s t	-0.2691725
-0.89922893	d s t	-0.4766585
-1.1095437	m s t	-0.2942589
-0.9746201	i s t	-1.572569
-1.134713	h s t	-0.37688014
-1.3272362	t s t	-0.30568078
-0.71131694	y s t	-0.7679136
-1.2840661	s s t	-0.2691725
-0.9452975	u s t	-1.0762839
-1.0763949	r s t	-0.7270996
-1.0429525	n s t	-1.2437466
-0.9037044	e s t	-1.4067147
-1.2709785	c s t	-0.28919855
-0.97228944	l s t	-0.58744407
-1.0459533	p s t	-0.4154636
-1.0868554	f s t	-0.2691725
-1.0116855	o s t	-0.9001734
-1.1979773	k s t	-0.30344734
-0.9180378	b s t	-0.8683521
-1.2190341	<w> u t	-0.6004089
-1.6905984	g u t	-0.38601577
-1.0468602	a u t	-0.9447
-1.6048628	d u t	-0.29202962
-0.9810426	m u t	-0.57317483
-1.2534333	h u t	-0.4024142
-1.3660988	t u t	-0.8459276
-1.7329433	s u t	-0.2691725
-0.916243	u u t	-0.2691725
-1.1626205	r u t	-0.5936301
-0.9170571	n u t	-0.5498533
-0.87793005	e u t	-0.52925324
-0.82744384	c u t	-0.6908772
-1.0685736	l u t	-0.87388253
-0.8454504	p u t	-0.6822041
-1.1411297	z u t	-0.2691725
-1.240549	f u t	-0.2868453
-0.9651968	o u t	-0.9112698
-1.153375	k u t	-0.2691725
-1.0747269	b u t	-0.6776491
-1.4647119	j u t	-0.2691725
-1.2655959	a r t	-1.0927961
-1.4782982	w r t	-0.2691725
-1.1615676	i r t	-0.63024884
-1.6747084	y r t	-0.2691725
-1.2212025	u r t	-0.63068974
-1.3389912	e r t	-1.145376
-1.2528622	o r t	-1.2118653
-1.5386738	g n t	-0.2691725
-1.1569036	a n t	-1.4994632
-1.4237114	w n t	-0.2770724
-1.2322655	i n t	-1.4055133
-1.309868	y n t	-0.6348641
-1.0813874	u n t	-1.0808742
-1.4880004	r n t	-0.2790701
-1.6953193	n n t	-0.2691725
-1.1969631	e n t	-1.7857251
-1.3289378	o n t	-1.1969428
-1.3776078	<w> e t	-0.5916934
-1.261588	g e t	-0.5370182
-1.1881009	a e t	-0.28919855
-1.2498959	w e t	-0.42550597
-1.3688517	d e t	-0.93879044
-1.0173416	m e t	-1.1677682
-1.1009134	i e t	-0.58777165
-1.2601776	h e t	-0.7286874
-1.292376	t e t	-0.4558612
-1.1046336	y e t	-0.3416745
-1.2435696	s e t	-0.8757174
-1.0609549	u e t	-0.56981266
-1.2722785	r e t	-1.0551994
-1.3717945	n e t	-0.7679651
-1.2052654	e e t	-0.65769994
-1.1829367	c e t	-0.43128657
-1.180975	l e t	-0.9566637
-1.2319837	p e t	-0.8740752
-1.742824	z e t	-0.28919855
-1.1220422	f e t	-0.4544192
-1.3123991	o e t	-0.33051702
-1.2380015	k e t	-0.7978414
-1.0063422	v e t	-0.47133175
-1.2301072	b e t	-0.58894396
-1.2371519	j e t	-0.2790701
-1.5244464	x e t	-0.2691725
-1.2081169	<w> c t	-0.2691725
-1.0942552	a c t	-1.2254297
-1.4695643	i c t	-1.0174952
-1.2116202	u c t	-0.95679855
-1.6206689	r c t	-0.29937893
-1.1506761	n c t	-0.83296853
-1.0825024	e c t	-1.4322551
-1.341519	o c t	-0.6056861
-1.1897669	a l t	-0.91513455
-1.3517637	w l t	-0.2691725
-1.3326085	i l t	-0.56775457
-1.8550872	y l t	-0.2691725
-1.0055152	u l t	-0.9267329
-1.2611986	e l t	-0.5761576
-1.6700251	l l t	-0.2691725
-1.4511297	o l t	-0.4775734
-1.2352095	<w> p t	-0.29937893
-1.1793898	a p t	-0.76359946
-1.0893631	m p t	-0.706246
-1.4423263	i p t	-0.6250783
-1.0014534	y p t	-0.35002157
-1.4690678	u p t	-0.5894893
-1.389853	r p t	-0.3723485
-1.01744	e p t	-0.8846291
-1.5280404	l p t	-0.36290568
-1.7017033	o p t	-0.71850824
-1.3864807	r z t	-0.2691725
-1.0523417	a f t	-0.73614407
-0.9479922	i f t	-0.67254996
-1.2489947	u f t	-0.2691725
-1.2824126	e f t	-0.34421983
-1.4096946	l f t	-0.2691725
-1.5303675	f f t	-0.2691725
-1.0613441	o f t	-0.56087494
-1.3524778	<w> o t	-0.5727162
-1.2429112	g o t	-0.4924528
-1.0193297	a o t	-0.29937893
-1.7229125	w o t	-0.2691725
-1.4307437	d o t	-0.29202962
-1.078552	m o t	-1.0007777
-1.2171139	i o t	-0.48803204
-1.5828528	h o t	-0.63948876
-1.4123482	t o t	-0.47035015
-1.2465683	y o t	-0.2790701
-1.4844127	s o t	-0.290998
-1.4377134	u o t	-0.39628893
-1.2388891	r o t	-0.88981783
-1.2069242	n o t	-0.74472046
-1.3177171	e o t	-0.36290568
-1.3586853	c o t	-0.6087551
-1.1788199	l o t	-0.76521957
-1.1363465	p o t	-0.70183825
-1.3072182	z o t	-0.2691725
-1.1517943	o o t	-0.7680934
-1.5440469	k o t	-0.2691725
-1.2379978	v o t	-0.5983537
-1.4578043	b o t	-0.5609205
-1.5170658	j o t	-0.28919855
-1.0173261	x o t	-0.2790701
-1.7439473	a k t	-0.28242007
-1.4821378	u k t	-0.28919855
-1.703404	r k t	-0.2691725
-1.5090504	n k t	-0.2691725
-1.6827558	e k t	-0.28919855
-1.5707608	c k t	-0.2790701
-1.2167244	<w> v t	-0.2691725
-1.8289363	u b t	-0.46026808
-2.084205	e b t	-0.2691725
-1.8166885	o b t	-0.53178215
-1.2359473	a x t	-0.28919855
-1.0771401	i x t	-0.3402583
-1.069529	u x t	-0.2790701
-1.1284238	e x t	-0.93021655
-1.4834214	</w> <w> y	-1.174701
-1.1839712	<w> g y	-0.48602462
-0.9124663	g g y	-0.83281213
-2.0085251	a g y	-0.2691725
-1.2226677	d g y	-0.28919855
-1.9468731	i g y	-0.2691725
-1.2586743	y g y	-0.2691725
-1.2233034	r g y	-0.5056402
-1.4349716	n g y	-0.67791015
-1.5723107	e g y	-0.30152023
-1.4077269	o g y	-1.3407717
-1.4375728	<w> a y	-0.2691725
-1.5774224	g a y	-0.2757458
-0.81452477	w a y	-1.1096895
-0.9694541	d a y	-0.77415866
-1.8097632	m a y	-0.3583457
-1.6562628	h a y	-0.31236765
-1.8226062	t a y	-0.27480063
-1.4757048	s a y	-0.4789812
-1.762334	u a y	-0.2691725
-1.3346791	r a y	-0.7488692
-1.8280569	n a y	-0.30993336
-1.4976089	c a y	-0.2790701
-1.2726265	l a y	-0.62810314
-1.4099985	p a y	-0.3933416
-1.5197638	f a y	-0.28242007
-1.3492484	k a y	-0.3723485
-1.6958369	v a y	-0.2691725
-1.5397173	b a y	-0.30000767
-1.5917493	j a y	-0.28919855
-1.1866195	<w> w y	-0.33455992
-1.698427	a w y	-0.30993336
-1.6543708	d w y	-0.2691725
-1.3524199	r w y	-0.2691725
-1.8611705	e w y	-0.2691725
-1.2757845	l w y	-0.2691725
-1.5058206	o w y	-0.4348721
-1.222823	<w> d y	-0.65156144
-1.3938274	a d y	-0.76915085
-1.0370682	w d y	-0.30993336
-0.94219077	d d y	-0.7983172
-1.7385387	i d y	-0.29595888
-1.2292243	u d y	-0.46516615
-1.1164364	r d y	-0.5941973
-1.48771	n d y	-0.70220405
-1.4535336	e d y	-0.59010494
-1.4870007	l d y	-0.28919855
-1.1346598	o d y	-0.62157094
-1.1424671	<w> m y	-0.59645915
-1.5265534	a m y	-0.6004089
-1.0791216	m m y	-0.87420475
-1.4730024	y m y	-0.2691725
-1.769046	s m y	-0.2691725
-1.2938136	r m y	-0.4348721
-1.4194131	n m y	-0.2691725
-1.3772029	e m y	-0.5379541
-1.3369842	l m y	-0.28919855
-1.3494287	o m y	-0.66393566
-2.2927728	m i y	-0.2691725
-2.5404725	r i y	-0.2691725
-1.8017645	k i y	-0.2691725
-2.1999733	v i y	-0.2691725
-1.0995133	<w> h y	-0.89597607
-1.6102741	g h y	-0.2691725
-1.3195757	w h y	-0.2691725
-1.2635	t h y	-0.9011446
-1.1595359	y h y	-0.2691725
-1.3828251	s h y	-0.48602462
-1.3983154	r h y	-0.4348721
-1.5028455	n h y	-0.28919855
-1.3340698	e h y	-0.2790701
-1.2952907	c h y	-0.6570517
-1.0236635	p h y	-1.0966642
-1.3050714	o h y	-0.2691725
-1.1742456	<w> t y	-0.7298703
-1.7333336	a t y	-0.4208976
-1.1938012	i t y	-1.9268869
-1.2618129	h t y	-0.6355899
-1.0880657	t t y	-0.8729508
-1.3251306	s t y	-0.8290411
-1.5560117	u t y	-0.29316723
-1.185893	r t y	-0.7237854
-1.1492836	n t y	-0.8729508
-1.3225758	e t y	-0.89801884
-1.6483859	c t y	-0.2691725
-1.0945776	l t y	-1.0880846
-1.5436687	p t y	-0.29316723
-1.0605903	f t y	-0.7359021
-1.4359205	o t y	-0.4469316
-1.2049037	b t y	-0.28919855
-1.3143601	x t y	-0.2691725
-1.1859063	<w> y y	-0.2691725
-0.44820133	y y y	-0.2691725
-1.3468733	<w> s y	-0.97931045
-1.7015996	a s y	-0.5457945
-1.4069979	w s y	-0.2691725
-1.4389213	m s y	-0.28919855
-2.0171738	i s y	-0.28919855
-1.636652	t s y	-0.28242007
-1.2165293	s s y	-0.74825656
-1.8528898	u s y	-0.39628893
-1.3535507	r s y	-0.2790701
-1.3250362	n s y	-0.35002157
-1.7166306	e s y	-0.29937893
-1.661735	l s y	-0.2691725
-1.1544745	p s y	-1.0028409
-1.5456979	o s y	-0.35580862
-1.5717506	k s y	-0.2691725
-1.5851874	b s y	-0.28919855
-1.8943692	g u y	-0.2691725
-1.8423321	d u y	-0.2691725
-1.6667355	h u y	-0.28242007
-2.1289701	r u y	-0.2691725
-1.8732425	p u y	-0.2691725
-1.5171218	k u y	-0.2691725
-1.9641576	b u y	-0.2790701
-1.5547265	q u y	-0.28242007
-1.0095687	<w> r y	-0.2691725
-1.6845369	g r y	-0.28919855
-1.3018283	a r y	-1.2721308
-0.95460093	w r y	-0.39628893
-1.1513506	d r y	-0.39566562
-1.57149	i r y	-0.61096334
-1.470432	h r y	-0.28919855
-1.0164797	t r y	-0.96929836
-1.2837304	u r y	-1.0091705
-1.0446624	r r y	-0.8554729
-1.0847303	n r y	-0.4348721
-1.2564504	e r y	-1.1213317
-0.9849947	c r y	-0.58103406
-0.9687845	l r y	-0.4754702
-1.5133977	p r y	-0.2691725
-1.5390815	f r y	-0.2691725
-1.4062716	o r y	-1.3498037
-1.1698225	k r y	-0.2691725
-1.5774734	b r y	-0.28242007
-1.2179294	<w> n y	-0.3723485
-1.4574559	a n y	-0.4580844
-1.198276	w n y	-0.4348721
-1.5153825	m n y	-0.2691725
-1.7829753	i n y	-0.6973189
-1.1969472	s n y	-0.2691725
-1.663776	u n y	-0.2691725
-1.3375481	r n y	-0.30152023
-0.9604386	n n y	-0.9733217
-1.7172003	e n y	-0.33871633
-1.2578735	o n y	-0.9797932
-1.4372716	<w> e y	-0.8729508
-1.4359516	g e y	-0.30056724
-1.5321779	w e y	-0.28242007
-1.59282	m e y	-0.30056724
-1.4902312	h e y	-0.5051123
-1.7188303	t e y	-0.29937893
-1.2563665	s e y	-0.6204281
-1.7089729	u e y	-0.28919855
-1.4180937	r e y	-0.5075835
-1.1932485	n e y	-0.7856574
-1.7209797	c e y	-0.39628893
-1.188203	l e y	-1.169203
-1.9847938	p e y	-0.2691725
-1.8054304	z e y	-0.2691725
-1.8686095	f e y	-0.2691725
-1.6233625	o e y	-0.4348721
-1.253638	k e y	-0.6112566
-1.3801774	v e y	-0.46226397
-1.4634283	b e y	-0.33051702
-1.5788497	x e y	-0.2691725
-1.1760745	<w> c y	-0.48211163
-1.1946843	a c y	-1.1077002
-1.6490237	i c y	-0.48602462
-1.5068479	t c y	-0.2691725
-1.5940264	u c y	-0.28919855
-1.385874	r c y	-0.30993336
-1.245608	n c y	-1.2287978
-1.7884548	e c y	-0.28919855
-1.2448934	l c y	-0.2691725
-1.3280106	o c y	-0.48602462
-0.9428512	<w> l y	-0.41629618
-0.7332771	g l y	-1.5102323
-1.3940097	a l y	-0.6897769
-0.9675016	w l y	-0.38070148
-0.6285303	d l y	-1.8414123
-0.5975213	m l y	-0.8112623
-1.0720878	i l y	-1.4194087
-0.8397813	h l y	-1.2130233
-0.58127344	t l y	-1.8169137
-1.1132586	y l y	-0.61096334
-1.0036356	s l y	-1.7245309
-1.4907955	u l y	-0.4754702
-0.90786403	r l y	-1.3031374
-0.70127255	n l y	-1.351326
-1.1332304	e l y	-1.5786451
-1.2329266	c l y	-0.2770724
-1.148379	l l y	-1.6400356
-0.9093684	p l y	-0.726536
-0.8541465	z l y	-0.28919855
-0.9760876	f l y	-0.37399545
-1.3625733	o l y	-0.50441533
-0.687678	k l y	-0.87341017
-0.7172266	b l y	-1.7059191
-0.7973548	x l y	-0.2691725
-1.2192886	<w> p y	-0.44999948
-1.8078694	a p y	-0.30993336
-1.4144266	m p y	-0.61096334
-1.7000613	i p y	-0.2691725
-1.6318513	s p y	-0.2691725
-1.5820305	u p y	-0.28242007
-1.5546681	r p y	-0.2691725
-1.86545	e p y	-0.30993336
-1.5053656	l p y	-0.2691725
-0.94723463	p p y	-0.7403253
-1.3602102	o p y	-0.4506466
-1.2572955	a z y	-0.29937893
-0.28173777	w z y	-0.2691725
-0.6942282	d z y	-0.2691725
-1.2608526	u z y	-0.2691725
-1.1331426	r z y	-0.2691725
-1.2073687	n z y	-0.29937893
-1.3634522	e z y	-0.2691725
-0.86457956	c z y	-0.2691725
-1.0535989	z z y	-0.53178215
-1.026748	o z y	-0.28242007
-1.1984128	<w> f y	-0.2691725
-1.811813	a f y	-0.2691725
-0.90188587	i f y	-1.3446954
-1.3584545	s f y	-0.2691725
-1.5727055	e f y	-0.28919855
-1.4033741	f f y	-0.6004089
-1.4359246	<w> o y	-0.30152023
-1.8481965	g o y	-0.2691725
-1.9931101	d o y	-0.2691725
-1.8711854	m o y	-0.2691725
-1.8948109	h o y	-0.2691725
-1.9622648	t o y	-0.2691725
-1.9594071	s o y	-0.28242007
-1.511943	u o y	-0.2790701
-1.5065259	r o y	-0.5105328
-1.915902	n o y	-0.28050265
-2.0587635	c o y	-0.2790701
-1.5331312	l o y	-0.54524547
-1.8365325	f o y	-0.2691725
-1.7866622	k o y	-0.2691725
-1.2725961	v o y	-0.5178076
-1.2199101	b o y	-0.4385845
-1.2617123	j o y	-0.28050265
-1.2042266	<w> k y	-0.2691725
-1.5255008	a k y	-0.542417
-1.0290413	w k y	-0.2691725
-0.8797376	s k y	-0.67342836
-1.1445968	r k y	-0.53178215
-1.1476982	n k y	-0.4754702
-1.2655872	c k y	-0.81883764
-1.1588391	l k y	-0.5056402
-0.7346212	z k y	-0.28919855
-1.3508314	o k y	-0.29937893
-1.0369389	<w> v y	-0.2691725
-1.2175379	a v y	-0.53178215
-1.5123867	i v y	-0.2691725
-1.2808423	r v y	-0.2691725
-1.269662	n v y	-0.2691725
-1.2752539	e v y	-0.29937893
-1.5248889	o v y	-0.28919855
-0.5546857	v v y	-0.2691725
-1.0874479	<w> b y	-0.371445
-1.0421202	g b y	-0.2691725
-1.35817	a b y	-0.30020133
-1.2278731	d b y	-0.28242007
-1.4060657	m b y	-0.28919855
-1.5549337	i b y	-0.28242007
-1.2034678	h b y	-0.2691725
-1.4243318	y b y	-0.2691725
-1.0703415	s b y	-0.36290568
-1.1651402	r b y	-0.61096334
-1.602947	e b y	-0.53178215
-1.4560378	l b y	-0.2691725
-1.580239	o b y	-0.28919855
-1.0292637	b b y	-0.7387116
-0.9194221	<w> x y	-0.28242007
-1.3876312	a x y	-0.28919855
-1.5237844	e x y	-0.28919855
-0.98639923	o x y	-0.37399545
-1.0353043	g g </w>	-0.4348721
-1.350873	a g </w>	-1.0089034
-1.1730435	i g </w>	-0.9789401
-1.00213	u g </w>	-0.87420475
-1.0800945	r g </w>	-1.49557
-1.0063065	n g </w>	-3.3035166
-1.3367182	e g </w>	-0.67791015
-1.154723	o g </w>	-0.94675547
-0.2975397	x g </w>	-0.2691725
-1.2200513	g a </w>	-1.1550314
-1.6410648	w a </w>	-0.7359021
-1.1097027	d a </w>	-1.5140533
-1.1225376	m a </w>	-1.6779102
-0.9071102	i a </w>	-2.0733614
-1.3862861	h a </w>	-1.0880846
-1.1064172	t a </w>	-1.7193029
-0.9879551	y a </w>	-0.83281213
-1.245703	s a </w>	-1.3379622
-1.3996918	u a </w>	-0.7359021
-1.2093602	r a </w>	-1.7723314
-1.2677879	n a </w>	-1.8858906
-1.2727312	e a </w>	-1.2641759
-1.1260836	c a </w>	-1.4662806
-1.2974261	l a </w>	-1.7136257
-1.3887244	p a </w>	-0.7359021
-1.0193727	z a </w>	-1.063261
-1.4842119	f a </w>	-0.30993336
-1.1970339	o a </w>	-0.61096334
-0.79209745	k a </w>	-1.3241738
-1.0687615	v a </w>	-1.3099333
-1.2593648	b a </w>	-1.0880846
-1.5370461	j a </w>	-0.2691725
-1.3174182	x a </w>	-0.2691725
-1.1147215	a w </w>	-1.2307521
-0.8484993	w w </w>	-0.2691725
-1.6528711	d w </w>	-0.2691725
-1.5255477	s w </w>	-0.2691725
-1.0454239	e w </w>	-1.3891146
-1.0878077	o w </w>	-1.7673106
-0.29901677	q w </w>	-0.2691725
-0.82549155	g d </w>	-0.2691725
-1.2236091	a d </w>	-1.7822021
-1.00959	w d </w>	-0.30993336
-1.1939299	d d </w>	-0.4348721
-0.9016484	m d </w>	-0.2691725
-0.98570216	i d </w>	-1.8105357
-0.9645042	h d </w>	-0.2691725
-1.344567	y d </w>	-0.30993336
-1.2105855	u d </w>	-1.1338421
-1.0124913	r d </w>	-2.1570945
-1.2301093	n d </w>	-2.2075605
-0.821328	e d </w>	-3.4196243
-1.0092334	l d </w>	-1.89351
-1.1220396	o d </w>	-1.7570914
-1.1130579	g m </w>	-0.28919855
-1.0223161	a m </w>	-1.8150834
-0.94592565	m m </w>	-0.67791015
-1.0118847	i m </w>	-1.3891146
-1.1248112	h m </w>	-0.67791015
-1.5954342	y m </w>	-0.28919855
-1.367002	s m </w>	-2.1138456
-0.8881271	u m </w>	-1.9941801
-1.1169574	r m </w>	-1.4348722
-1.0500996	e m </w>	-1.351326
-1.0057029	l m </w>	-0.9789401
-1.0252494	o m </w>	-1.7249067
-0.7906971	b m </w>	-0.28919855
-1.1935104	g i </w>	-0.7359021
-1.1916702	a i </w>	-0.9789401
-1.7390296	w i </w>	-0.2691725
-1.2970037	d i </w>	-1.0089034
-1.5296893	m i </w>	-1.0369321
-0.39951634	i i </w>	-0.7359021
-1.3212886	h i </w>	-0.9789401
-1.4339157	t i </w>	-1.3241738
-1.5286756	y i </w>	-0.28919855
-1.4263033	s i </w>	-0.94675547
-1.5089325	u i </w>	-0.28919855
-1.388955	r i </w>	-1.3379622
-1.357448	n i </w>	-1.5403823
-1.0776218	e i </w>	-0.9789401
-1.3965677	c i </w>	-0.67791015
-1.3919127	l i </w>	-1.5140533
-1.5968446	p i </w>	-0.53178215
-1.2249709	z i </w>	-0.30993336
-1.8113577	f i </w>	-0.2691725
-1.541582	o i </w>	-0.30993336
-1.2138686	k i </w>	-1.1338421
-1.6930288	v i </w>	-0.28919855
-1.3285514	b i </w>	-0.61096334
-0.92665076	j i </w>	-0.53178215
-1.4468983	x i </w>	-0.2691725
-0.981138	g h </w>	-1.49557
-0.7125571	a h </w>	-1.4348722
-1.4796524	w h </w>	-0.2691725
-1.0938027	i h </w>	-0.2691725
-1.0875297	h h </w>	-0.2691725
-0.8999843	t h </w>	-2.0783248
-1.2087178	s h </w>	-2.1183693
-0.56155956	u h </w>	-0.83281213
-1.3429285	r h </w>	-0.2691725
-1.2497587	n h </w>	-0.30993336
-0.96440834	e h </w>	-0.7359021
-1.0825793	c h </w>	-2.109274
-1.0071473	l h </w>	-0.28919855
-1.3247495	p h </w>	-1.19454
-1.2554106	o h </w>	-0.28919855
-1.1302446	k h </w>	-0.28919855
-1.210731	a t </w>	-1.7622311
-0.78203094	w t </w>	-0.30993336
-0.5088857	d t </w>	-0.9789401
-0.6785169	m t </w>	-0.30993336
-1.0397764	i t </w>	-1.8820301
-1.0873771	h t </w>	-1.8105357
-0.98277956	t t </w>	-1.696135
-1.3057048	y t </w>	-0.28919855
-1.2119241	s t </w>	-2.541233
-1.0335516	u t </w>	-1.6716611
-1.1559453	r t </w>	-1.9851005
-1.0600139	n t </w>	-2.6907473
-0.99399126	e t </w>	-2.163226
-1.0059153	c t </w>	-1.8371335
-1.0707958	l t </w>	-1.50491
-0.9132428	p t </w>	-1.4560614
-0.28759748	z t </w>	-0.2691725
-1.0331994	f t </w>	-1.3891146
-1.0247948	o t </w>	-1.7193029
-1.1389818	k t </w>	-0.2691725
-0.9426187	b t </w>	-0.28919855
-1.2562771	x t </w>	-0.4348721
-0.3512744	g y </w>	-1.6901447
-0.84181577	a y </w>	-1.9599168
-0.9172029	w y </w>	-0.53178215
-0.63292646	d y </w>	-1.8105357
-0.55666816	m y </w>	-1.4662806
-0.74636835	h y </w>	-1.7020438
-0.589658	t y </w>	-2.5587237
-0.6990786	y y </w>	-0.2691725
-0.47817752	s y </w>	-1.5403823
-1.1142904	u y </w>	-0.2691725
-0.66681206	r y </w>	-2.480195
-0.61754435	n y </w>	-1.801295
-0.62617284	e y </w>	-2.133842
-0.52542657	c y </w>	-1.8540014
-0.6172026	l y </w>	-3.0077438
-0.515672	p y </w>	-1.3891146
-0.40517366	z y </w>	-0.9119933
-0.3963708	f y </w>	-1.50491
-0.86257863	o y </w>	-1.2952101
-0.45442888	k y </w>	-1.6588869
-0.2258292	v y </w>	-0.9789401
-0.42840374	b y </w>	-1.4125957
-0.6748733	x y </w>	-0.78705466
-0.5024289	g s </w>	-2.2576938
-0.9942985	a s </w>	-2.0001295
-0.86518145	w s </w>	-1.7193029
-0.7355131	d s </w>	-2.357857
-0.56317353	m s </w>	-2.0555286
-1.0289981	i s </w>	-2.1529584
-0.4475924	h s </w>	-1.6321527
-0.69091475	t s </w>	-2.8227067
-0.7546814	y s </w>	-1.8662359
-0.98015755	s s </w>	-2.5879245
-0.827067	u s </w>	-2.5176575
-0.87036335	r s </w>	-2.8515127
-0.9576668	n s </w>	-2.8173394
-0.9393154	e s </w>	-3.2180607
-0.27265927	c s </w>	-1.8498454
-0.78715175	l s </w>	-2.3781192
-0.81101644	p s </w>	-2.0423272
-0.38160032	f s </w>	-1.2952101
-0.89389706	o s </w>	-1.8150834
-0.6225932	k s </w>	-2.109274
-0.6212356	v s </w>	-0.28919855
-0.6346292	b s </w>	-1.5731748
-1.1262965	a u </w>	-1.2307521
-1.6038369	d u </w>	-0.2691725
-1.6714165	m u </w>	-0.2691725
-1.5832502	i u </w>	-0.2691725
-1.3834702	h u </w>	-0.4348721
-1.2852446	t u </w>	-0.61096334
-1.2630264	y u </w>	-0.2691725
-1.4882462	s u </w>	-0.67791015
-0.9159316	u u </w>	-0.2691725
-1.5138109	r u </w>	-0.53178215
-1.319447	n u </w>	-0.53178215
-1.2983575	e u </w>	-0.7359021
-1.7564307	c u </w>	-0.2691725
-1.4098616	l u </w>	-0.61096334
-0.88701177	z u </w>	-0.28919855
-1.6956327	f u </w>	-0.2691725
-1.522059	o u </w>	-0.61096334
-1.1528974	k u </w>	-0.30993336
-1.1848387	v u </w>	-0.2691725
-1.7277615	b u </w>	-0.2691725
-1.2983487	j u </w>	-0.28919855
-1.7837803	g r </w>	-0.2691725
-1.1689394	a r </w>	-2.1161134
-1.3992643	w r </w>	-0.2691725
-1.2355825	i r </w>	-1.4348722
-0.9135833	h r </w>	-0.67791015
-1.5723898	y r </w>	-0.2691725
-1.2552226	s r </w>	-0.2691725
-1.2367821	u r </w>	-1.652356
-1.0853497	r r </w>	-0.78705466
-1.1571873	e r </w>	-3.0071628
-1.7981044	p r </w>	-0.2691725
-1.0993989	o r </w>	-2.2721448
-1.4581282	g n </w>	-0.9789401
-1.1089706	a n </w>	-2.599225
-1.0075277	w n </w>	-1.665321
-0.9944492	d n </w>	-0.30993336
-0.9273791	m n </w>	-0.67791015
-1.1141406	i n </w>	-2.339317
-0.84196126	h n </w>	-1.0369321
-1.0076131	y n </w>	-0.87420475
-1.3861449	s n </w>	-0.2691725
-1.2385322	u n </w>	-1.2130233
-1.1579037	r n </w>	-1.7723314
-0.9445289	n n </w>	-1.3241738
-1.1843894	e n </w>	-2.4508603
-0.6664231	l n </w>	-0.4348721
-1.0722983	o n </w>	-3.0137978
-1.1043435	g e </w>	-2.2272637
-0.7067559	a e </w>	-1.1338421
-1.3598348	w e </w>	-0.87420475
-1.196811	d e </w>	-2.2219782
-1.2109675	m e </w>	-1.9881482
-0.91180867	i e </w>	-2.011789
-1.5651175	h e </w>	-1.49557
-1.1191144	t e </w>	-2.6065986
-1.0192548	y e </w>	-0.87420475
-1.2079889	s e </w>	-2.351326
-0.91704744	u e </w>	-1.8240381
-1.3033556	r e </w>	-2.4033551
-1.216366	n e </w>	-2.4550261
-0.9032162	e e </w>	-1.8328121
-1.0568564	c e </w>	-2.4831197
-1.161016	l e </w>	-2.7792645
-1.0940644	p e </w>	-1.618142
-0.8342248	z e </w>	-1.8702385
-1.1954017	f e </w>	-1.3099333
-1.1274503	o e </w>	-1.0369321
-1.0377145	k e </w>	-1.9631459
-1.149246	v e </w>	-2.3939135
-1.1798391	b e </w>	-1.3891146
-1.4436431	j e </w>	-0.2691725
-1.3303502	x e </w>	-0.28919855
-1.1986737	a c </w>	-1.2641759
-0.98429966	i c </w>	-2.5611658
-1.2917336	t c </w>	-0.28919855
-1.917876	s c </w>	-0.2691725
-1.7889321	u c </w>	-0.2691725
-1.4020019	r c </w>	-0.28919855
-1.4064124	n c </w>	-0.4348721
-1.1272197	e c </w>	-0.83281213
-1.4221	o c </w>	-0.61096334
-1.0642993	a l </w>	-2.7375276
-1.0425521	w l </w>	-0.9789401
-1.6706817	d l </w>	-0.2691725
-1.1496234	i l </w>	-1.7918535
-0.9950094	h l </w>	-0.53178215
-1.7641879	t l </w>	-0.2691725
-1.2787535	y l </w>	-0.83281213
-1.4178247	u l </w>	-1.9191719
-1.0699452	r l </w>	-0.9789401
-1.0299275	e l </w>	-2.0928836
-1.145458	l l </w>	-2.1849947
-1.1509805	o l </w>	-1.5810001
-1.7041203	b l </w>	-0.2691725
-1.2327565	a p </w>	-1.1752348
-1.283457	m p </w>	-1.4010139
-1.247386	i p </w>	-1.7304392
-1.4987588	s p </w>	-0.7359021
-0.8124079	u p </w>	-1.3241738
-1.2400639	r p </w>	-0.67791015
-1.2540737	e p </w>	-1.2307521
-1.1787658	l p </w>	-0.61096334
-1.2292936	p p </w>	-0.4348721
-1.2337575	o p </w>	-1.4860246
-1.4917108	a z </w>	-0.2691725
-1.1814257	i z </w>	-0.53178215
-0.54142046	t z </w>	-1.351326
-0.77196205	s z </w>	-0.2691725
-1.0384022	u z </w>	-0.28919855
-0.9093638	r z </w>	-0.28919855
-0.83368623	n z </w>	-0.4348721
-0.43682468	e z </w>	-1.1752348
-0.8372021	c z </w>	-0.28919855
-1.0509524	l z </w>	-0.2691725
-1.1521311	z z </w>	-0.30993336
-0.99941915	o z </w>	-0.30993336
-1.2305675	a f </w>	-0.78705466
-1.4710556	i f </w>	-0.4348721
-1.114702	h f </w>	-0.2691725
-1.1019285	r f </w>	-0.67791015
-1.3645093	e f </w>	-1.0089034
-1.0627059	l f </w>	-1.1752348
-0.9183524	p f </w>	-0.30993336
-1.0042909	f f </w>	-1.59624
-1.3050644	o f </w>	-1.063261
-0.5735893	x f </w>	-0.2691725
-1.0368233	g o </w>	-1.2952101
-0.63829243	a o </w>	-0.7359021
-1.1383282	d o </w>	-1.5140533
-1.2625744	m o </w>	-1.1115657
-0.9802912	i o </w>	-1.588687
-1.502748	h o </w>	-0.78705466
-1.2251213	t o </w>	-1.7078733
-1.1148682	y o </w>	-0.53178215
-1.0906136	s o </w>	-1.19454
-1.08537	u o </w>	-0.30993336
-1.3331952	r o </w>	-1.445596
-1.2136995	n o </w>	-1.4348722
-1.2213228	e o </w>	-0.7359021
-1.2584976	c o </w>	-1.4860246
