\data\
ngram 1=30
ngram 2=684
ngram 3=8942
ngram 4=58647

\1-grams:
-2.679406	<unk>	0
0	<s>	-0.27106678
-2.449265	<w>	-0.29979447
-1.4212363	l	-1.0486583
-1.404803	a	-1.3268856
-1.4212363	n	-1.0433986
-1.4383159	p	-1.0162476
-1.4212363	h	-1.0172892
-1.404803	i	-1.2988126
-1.4212363	e	-1.3235576
-1.4212363	r	-1.0034046
-1.4212363	</w>	-1.3569814
-1.4212363	v	-0.8751918
-1.4212363	c	-1.0194882
-1.404803	m	-1.0044591
-1.4212363	o	-1.3099848
-1.4383159	k	-1.0362698
-1.4212363	t	-1.1544204
-1.4383159	f	-0.9814067
-1.4212363	s	-1.2059109
-1.4212363	g	-0.98822975
-1.404803	u	-1.2502166
-1.4212363	y	-1.1783066
-1.4383159	w	-0.88136286
-1.4212363	d	-1.0546646
-1.4383159	b	-1.0052476
-1.5142654	q	-0.8010561
-1.4746325	j	-0.83765256
-1.4383159	z	-0.95931065
-1.6328121	x	-0.73310226

\2-grams:
-0.3314373	<s> <w>	-0.29406428
-0.019451179	</w> <w>	-1.2574927
-1.0570462	<w> l	-0.31040823
-1.5700275	l l	-0.56754273
-1.384444	a l	-1.0868078
-1.531585	n l	-0.6468366
-1.1129878	p l	-0.90746444
-1.3203382	h l	-0.60755324
-1.3897603	i l	-1.0135206
-1.3974898	e l	-1.0985694
-1.588209	r l	-0.54120344
-1.3802766	v l	-0.51059806
-1.1913617	c l	-0.9053605
-1.5028166	m l	-0.63905305
-1.383917	o l	-1.0132176
-1.3717021	k l	-0.7825257
-1.3045156	t l	-0.93284124
-1.090326	f l	-0.91215104
-1.3643353	s l	-0.9212594
-1.2954335	g l	-0.8233443
-1.3241488	u l	-0.9170828
-1.3086749	y l	-0.77977914
-1.703646	w l	-0.34630227
-1.4490412	d l	-0.76722836
-1.1541024	b l	-0.851324
-1.675869	j l	-0.29406428
-1.3095587	z l	-0.5576359
-1.3265113	x l	-0.52913684
-1.4325233	<w> a	-0.29406428
-1.142942	l a	-1.0303347
-1.4531547	a a	-0.7335383
-1.1165788	n a	-0.94743395
-1.0742981	p a	-0.7904446
-1.0666801	h a	-0.93678176
-1.3556467	i a	-0.9002726
-1.413723	e a	-0.9732681
-1.0935701	r a	-1.0584333
-0.93235165	v a	-0.67391175
-1.1073015	c a	-0.85773987
-1.0225354	m a	-0.909918
-1.4362539	o a	-0.7154508
-1.1034198	k a	-0.7845019
-1.2456902	t a	-0.88298595
-1.0498457	f a	-0.74227005
-1.2878602	s a	-0.88302886
-1.0781784	g a	-0.7856796
-1.3957291	u a	-0.6721496
-1.2875866	y a	-0.75463843
-0.90796435	w a	-0.83814627
-1.1292198	d a	-0.84898317
-1.033491	b a	-0.8536006
-1.2785721	q a	-0.29406428
-0.8315655	j a	-0.6325741
-1.1308762	z a	-0.68105227
-1.1413759	x a	-0.3852812
-1.4412289	<w> n	-0.29406428
-1.7463808	l n	-0.51038975
-1.384444	a n	-1.1207206
-1.5772127	n n	-0.5687885
-1.4579344	p n	-0.54557025
-1.3877153	h n	-0.55402434
-1.356371	i n	-1.0615615
-1.3974898	e n	-1.1433512
-1.491591	r n	-0.5289391
-1.5352064	v n	-0.4825057
-1.6958193	c n	-0.34821305
-1.5028166	m n	-0.5489963
-1.383917	o n	-1.0470449
-1.2810043	k n	-0.6858381
-1.4508016	t n	-0.71441644
-1.5137339	f n	-0.51059806
-1.4824092	s n	-0.74660116
-1.4424564	g n	-0.5771085
-1.3241488	u n	-0.9403727
-1.2690371	y n	-0.7182305
-1.6026307	w n	-0.35896564
-1.4142336	d n	-0.66890585
-1.6615067	b n	-0.4478629
-1.529897	j n	-0.3480161
-1.3897316	z n	-0.5921844
-1.6505792	x n	-0.3441132
-1.4501127	<w> p	-0.29406428
-1.6236252	l p	-0.5199906
-1.4548563	a p	-0.88477564
-1.5793885	n p	-0.5470838
-1.6173564	p p	-0.54880136
-1.8754634	h p	-0.34765056
-1.3905437	i p	-0.8247205
-1.4330306	e p	-0.82479733
-1.7159247	r p	-0.4997217
-2.1101284	v p	-0.29406428
-2.008696	c p	-0.3245144
-1.5566975	m p	-0.55275166
-1.3846705	o p	-0.8741892
-1.7137614	k p	-0.34059533
-1.7851316	t p	-0.415016
-1.9578235	f p	-0.29406428
-1.3864818	s p	-0.8031794
-1.7502882	g p	-0.37108454
-1.397508	u p	-0.75872827
-1.4566017	y p	-0.5104453
-1.8412653	w p	-0.34765056
-1.6862582	d p	-0.4313947
-1.9790268	b p	-0.33086926
-1.93309	z p	-0.29406428
-1.6558617	x p	-0.33086926
-1.4412289	<w> h	-0.29406428
-1.5700275	l h	-0.71684694
-1.4178331	a h	-0.94853425
-1.4902985	n h	-0.7202655
-1.2255788	p h	-0.8115114
-1.9989129	h h	-0.35444632
-1.4865532	i h	-0.599161
-1.4145052	e h	-0.95250565
-1.491591	r h	-0.5983402
-1.7783144	v h	-0.3572615
-1.0717503	c h	-0.87807
-1.554439	m h	-0.54965484
-1.4186417	o h	-0.79270077
-1.3393188	k h	-0.6328565
-1.2464744	t h	-0.8439485
-1.640994	f h	-0.35164928
-1.3063536	s h	-0.8071676
-1.3277901	g h	-0.6257005
-1.3773357	u h	-0.6673748
-1.4855105	y h	-0.55610096
-1.1450913	w h	-0.70592314
-1.4490412	d h	-0.64838094
-1.5931308	b h	-0.44099498
-2.026362	j h	-0.29406428
-1.2744159	z h	-0.542719
-1.4102033	x h	-0.41697282
-1.4325233	<w> i	-0.29406428
-1.1082253	l i	-0.9974883
-1.417051	a i	-0.90332377
-1.1165788	n i	-0.90997154
-1.1324605	p i	-0.77660656
-1.0666801	h i	-0.7992974
-1.5820963	i i	-0.42103237
-1.4313998	e i	-0.91758907
-1.1296737	r i	-1.0035866
-0.8294294	v i	-0.7998813
-1.1681018	c i	-0.8223558
-1.1116087	m i	-0.82808477
-1.4001502	o i	-0.77103263
-1.1034198	k i	-0.7254569
-1.2456902	t i	-0.89898
-1.0895108	f i	-0.78088415
-1.270859	s i	-0.902879
-1.2360375	g i	-0.73420805
-1.3957291	u i	-0.6826966
-1.3513504	y i	-0.5887703
-0.96633166	w i	-0.7475681
-1.1846731	d i	-0.80971265
-1.1095321	b i	-0.82298887
-0.9886258	q i	-0.3324822
-0.9773168	j i	-0.50780934
-1.0635953	z i	-0.71394825
-1.051864	x i	-0.5013657
-1.4412289	<w> e	-0.29406428
-1.1259949	l e	-1.0818592
-1.4732866	a e	-0.6887949
-1.1173309	n e	-0.95758104
-1.1545902	p e	-0.7776703
-1.085181	h e	-0.8389646
-1.3897603	i e	-0.9690824
-1.4506767	e e	-0.9338369
-1.1305237	r e	-1.0788745
-0.84875154	v e	-0.7606101
-1.1689967	c e	-0.7929846
-1.074506	m e	-0.85190487
-1.4563859	o e	-0.85133725
-1.1227102	k e	-0.83586836
-1.2287318	t e	-0.9203263
-1.0700035	f e	-0.72737885
-1.2886277	s e	-0.9239629
-1.118598	g e	-0.782586
-1.3411641	u e	-0.84010977
-1.3086749	y e	-0.6888949
-0.9467292	w e	-0.80516654
-1.1477149	d e	-0.86012304
-1.0519964	b e	-0.8741693
-0.80807555	j e	-0.6032685
-1.1081655	z e	-0.7274368
-1.1959991	x e	-0.5068827
-1.4412289	<w> r	-0.29406428
-1.6793216	l r	-0.5705099
-1.4008178	a r	-1.1414285
-1.628203	n r	-0.57210624
-1.1545902	p r	-0.8682511
-1.3203382	h r	-0.6249623
-1.3897603	i r	-0.8896823
-1.3974898	e r	-1.1530349
-1.5372187	r r	-0.5441391
-1.2663181	v r	-0.51669014
-1.2149411	c r	-0.9303759
-1.5028166	m r	-0.5587609
-1.383917	o r	-1.092579
-1.3393188	k r	-0.67986333
-1.2842944	t r	-0.9987793
-1.1577096	f r	-0.8717489
-1.6073122	s r	-0.52483845
-1.098327	g r	-0.9211265
-1.307775	u r	-1.0206841
-1.3758696	y r	-0.6726671
-1.0597658	w r	-0.64814156
-1.2057492	d r	-0.83886164
-1.0900087	b r	-1.0190659
-2.026362	j r	-0.29406428
-1.7966999	z r	-0.3658678
-1.964724	x r	-0.29406428
-1.1437315	l </w>	-1.2519602
-1.4178331	a </w>	-1.269689
-1.3279032	n </w>	-1.0758688
-1.41612	p </w>	-0.9131416
-1.2620238	h </w>	-1.0758688
-1.3727448	i </w>	-1.2867223
-1.4145052	e </w>	-1.269689
-1.3158891	r </w>	-1.0478401
-1.4508691	v </w>	-0.6499002
-1.4300128	c </w>	-0.9131416
-1.2512985	m </w>	-1.0758688
-1.4186417	o </w>	-1.2519602
-1.3393188	k </w>	-1.017877
-1.2649728	t </w>	-1.2334768
-1.373541	f </w>	-0.9131416
-1.3063536	s </w>	-1.2519602
-1.4424564	g </w>	-0.8717489
-1.3588734	u </w>	-1.2519602
-1.2690371	y </w>	-1.2334768
-1.6026307	w </w>	-0.570719
-1.3239543	d </w>	-1.0758688
-1.4356686	b </w>	-0.8717489
-0.89475405	q </w>	-0.6499002
-1.4211036	j </w>	-0.570719
-1.1833836	z </w>	-1.0758688
-0.94589865	x </w>	-1.017877
-1.4412289	<w> v	-0.29406428
-1.6212455	l v	-0.536389
-1.4008178	a v	-0.88640964
-1.6859866	n v	-0.48591617
-1.8709068	h v	-0.40529263
-1.4259317	i v	-0.7994111
-1.4145052	e v	-0.8528292
-1.7126617	r v	-0.4997217
-1.6399672	v v	-0.3441132
-2.0025463	c v	-0.3572615
-1.9879256	m v	-0.3572615
-1.4009323	o v	-0.8476113
-1.7107505	k v	-0.3594155
-1.5478499	t v	-0.55457824
-2.2393155	f v	-0.29406428
-1.5104308	s v	-0.7398295
-1.9727122	g v	-0.3405794
-1.5627011	u v	-0.6996264
-1.5178671	y v	-0.59387493
-1.8359377	w v	-0.3572615
-1.6835482	d v	-0.4738089
-1.9726735	b v	-0.33086926
-1.2810521	q v	-0.3926808
-2.026362	j v	-0.29406428
-1.7966999	z v	-0.3572615
-1.6510204	x v	-0.3926808
-1.4412289	<w> c	-0.29406428
-1.5242176	l c	-0.5227778
-1.4008178	a c	-0.9998956
-1.531585	n c	-0.6005361
-1.6148297	p c	-0.42328075
-1.8709068	h c	-0.36101502
-1.3727448	i c	-1.0169739
-1.3974898	e c	-0.9296721
-1.6459926	r c	-0.5168116
-1.7783144	v c	-0.3926808
-1.6280648	c c	-0.5613837
-1.5028166	m c	-0.41352135
-1.383917	o c	-0.9463825
-1.6429374	k c	-0.4314168
-1.5478499	t c	-0.62644154
-1.7220412	f c	-0.41999236
-1.3248339	s c	-0.8787837
-1.8451244	g c	-0.32611138
-1.3773357	u c	-0.8183832
-1.3758696	y c	-0.722731
-1.8355142	w c	-0.3441132
-1.6254292	d c	-0.4943168
-1.7426964	b c	-0.3385457
-1.529897	j c	-0.35304555
-1.4881334	z c	-0.38061345
-1.6505792	x c	-0.32739145
-1.4325233	<w> m	-0.29406428
-1.5223238	l m	-0.5546063
-1.4000657	a m	-0.94690704
-1.5296354	n m	-0.6596285
-1.5538113	p m	-0.57468766
-1.3862281	h m	-0.61235076
-1.388978	i m	-0.89992166
-1.3967377	e m	-0.9117725
-1.5350536	r m	-0.49560037
-1.7737067	v m	-0.3926808
-1.6928163	c m	-0.40498537
-1.4548886	m m	-0.57155085
-1.3831649	o m	-0.8517485
-1.4052086	k m	-0.67930627
-1.3704828	t m	-0.80850804
-1.5115762	f m	-0.4955064
-1.3845615	s m	-0.8561866
-1.4406531	g m	-0.5853344
-1.3233967	u m	-0.8755461
-1.3748701	y m	-0.66839826
-1.6994493	w m	-0.37128368
-1.5264555	d m	-0.7290814
-1.5906796	b m	-0.5368991
-1.748796	q m	-0.29406428
-1.6715162	j m	-0.29406428
-1.3081387	z m	-0.6302989
-1.5101521	x m	-0.35304555
-1.4412289	<w> o	-0.29406428
-1.1259949	l o	-1.018706
-1.5603187	a o	-0.52444184
-1.1520555	n o	-0.8900646
-1.1129878	p o	-0.8004773
-1.0673921	h o	-0.9013084
-1.3897603	i o	-0.8349849
-1.4901367	e o	-0.7306911
-1.0773368	r o	-1.0818592
-0.98229736	v o	-0.6216023
-1.0717503	c o	-0.8937999
-1.1326983	m o	-0.7776703
-1.4765639	o o	-0.8833784
-1.0863727	k o	-0.7541445
-1.2116857	t o	-0.895751
-1.0700035	f o	-0.7025357
-1.3063536	s o	-0.7981542
-1.0604203	g o	-0.7462728
-1.5084351	u o	-0.5089389
-1.3299387	y o	-0.6342102
-0.9467292	w o	-0.6463443
-1.1477149	d o	-0.8322291
-1.0705868	b o	-0.8432012
-0.83219206	j o	-0.550866
-1.1833836	z o	-0.57185984
-1.1959991	x o	-0.41062403
-1.4501127	<w> k	-0.29406428
-1.5721418	l k	-0.51454353
-1.4186167	a k	-0.87357503
-1.5335433	n k	-0.5226193
-1.6858449	p k	-0.50367314
-1.5675647	h k	-0.4758916
-1.4082856	i k	-0.8446873
-1.4152888	e k	-0.75955015
-1.7159247	r k	-0.49837688
-1.7838774	v k	-0.3405794
-1.3934681	c k	-0.66260976
-1.5566975	m k	-0.49666357
-1.4017159	o k	-0.8029714
-1.5865452	k k	-0.48346975
-1.4520597	t k	-0.7018264
-1.5752039	f k	-0.38571495
-1.3256696	s k	-0.84600365
-1.9788823	g k	-0.3405794
-1.4177285	u k	-0.72205675
-1.3532461	y k	-0.66916
-1.7078837	w k	-0.34640473
-1.6277987	d k	-0.5111125
-1.5955961	b k	-0.37658453
-1.5330342	j k	-0.32060328
-1.4902843	z k	-0.3723185
-1.4412289	<w> t	-0.29406428
-1.5242176	l t	-0.56182295
-1.4008178	a t	-1.048608
-1.4902985	n t	-0.59459203
-1.4579344	p t	-0.6624535
-1.4674999	h t	-0.49388507
-1.3727448	i t	-1.0502185
-1.3974898	e t	-1.025988
-1.6459926	r t	-0.55462635
-1.7783144	v t	-0.29406428
-1.4717126	c t	-0.61263597
-1.554439	m t	-0.43306676
-1.383917	o t	-0.9598347
-1.4864805	k t	-0.48935348
-1.5857013	t t	-0.59957814
-1.415437	f t	-0.5473695
-1.2886277	s t	-0.85545605
-1.5401508	g t	-0.40399903
-1.3588734	u t	-0.94283813
-1.3299387	y t	-0.65325016
-1.8355142	w t	-0.33019617
-1.5741776	d t	-0.4886185
-1.8426368	b t	-0.3369257
-2.026362	j t	-0.29406428
-1.547194	z t	-0.33652157
-1.3265113	x t	-0.37843937
-1.4501127	<w> f	-0.29406428
-1.6236252	l f	-0.5344029
-1.4548563	a f	-0.789393
-1.5793885	n f	-0.60709345
-1.4596934	p f	-0.4758916
-1.5156556	h f	-0.39180258
-1.4267833	i f	-0.8426307
-1.4515283	e f	-0.8498312
-1.7159247	r f	-0.45564014
-2.008696	c f	-0.32060328
-1.6156216	m f	-0.3974068
-1.4572762	o f	-0.7391273
-1.7137614	k f	-0.476588
-1.4520597	t f	-0.69548035
-1.3751101	f f	-0.5552109
-1.483611	s f	-0.64027196
-1.5424196	g f	-0.45792508
-1.4389366	u f	-0.6144926
-1.5925004	y f	-0.4952944
-1.8412653	w f	-0.36846834
-1.5762829	d f	-0.56010294
-1.7461792	b f	-0.29406428
-2.0362792	j f	-0.29406428
-1.93309	z f	-0.3572615
-1.4132327	x f	-0.4314168
-1.4412289	<w> s	-0.29406428
-1.4827821	l s	-0.6217127
-1.384444	a s	-1.0346493
-1.4179112	n s	-0.6578356
-1.3779804	p s	-0.6884669
-1.51366	h s	-0.45447397
-1.356371	i s	-0.9857984
-1.3974898	e s	-1.0481305
-1.5372187	r s	-0.5034108
-1.3802766	v s	-0.393321
-1.3919686	c s	-0.468616
-1.3419613	m s	-0.5444442
-1.383917	o s	-0.99540627
-1.3717021	k s	-0.58775276
-1.2842944	t s	-0.7809537
-1.5137339	f s	-0.48713994
-1.4824092	s s	-0.6101712
-1.4007788	g s	-0.5127865
-1.3241488	u s	-0.929208
-1.3086749	y s	-0.7337272
-1.703646	w s	-0.3448061
-1.4142336	d s	-0.60606664
-1.4820883	b s	-0.5264603
-1.675869	j s	-0.29406428
-1.547194	z s	-0.37616575
-1.3265113	x s	-0.3973674
-1.4412289	<w> g	-0.29406428
-1.6793216	l g	-0.57154995
-1.4008178	a g	-0.9874654
-1.531585	n g	-0.5712701
-1.7636299	p g	-0.37336123
-1.7721668	h g	-0.35444632
-1.3897603	i g	-0.93777037
-1.4145052	e g	-0.9340452
-1.588209	r g	-0.5078588
-1.7783144	v g	-0.3405794
-2.0029547	c g	-0.3245144
-1.6807903	m g	-0.35164928
-1.4009323	o g	-0.90520257
-1.8898875	k g	-0.35304555
-1.6271694	t g	-0.50976664
-1.8217655	f g	-0.3572615
-1.5403858	s g	-0.55471563
-1.5401508	g g	-0.550101
-1.4167957	u g	-0.7884069
-1.3086749	y g	-0.5675529
-1.8355142	w g	-0.29406428
-1.6254292	d g	-0.48806882
-1.9730903	b g	-0.29406428
-1.7544622	q g	-0.29406428
-1.6967595	z g	-0.35444632
-1.6510204	x g	-0.29406428
-1.4325233	<w> u	-0.29406428
-1.1806765	l u	-0.7880087
-1.417051	a u	-0.95607525
-1.2523564	n u	-0.63183784
-1.1996346	p u	-0.5636709
-1.1029556	h u	-0.7235396
-1.4443251	i u	-0.6449185
-1.4313998	e u	-0.7443518
-1.1296737	r u	-0.850853
-1.3178072	v u	-0.36766055
-1.1904194	c u	-0.72907114
-1.1530728	m u	-0.68066686
-1.417827	o u	-0.9490364
-1.2798903	k u	-0.5895158
-1.3036195	t u	-0.72282875
-1.0498457	f u	-0.6822444
-1.406783	s u	-0.7128184
-1.20966	g u	-0.6920464
-1.832587	u u	-0.36349022
-1.3997369	y u	-0.5076541
-1.3903701	w u	-0.33709064
-1.2260122	d u	-0.6378143
-1.0698494	b u	-0.73295915
-0.2987312	q u	-0.8516594
-0.94399065	j u	-0.4464721
-1.2731061	z u	-0.46604574
-1.407195	x u	-0.35205996
-1.4412289	<w> y	-0.29406428
-1.1437315	l y	-0.71035635
-1.4540046	a y	-0.8938713
-1.2099777	n y	-0.5638708
-1.4579344	p y	-0.42300695
-1.2620238	h y	-0.5214922
-1.5322458	i y	-0.6618203
-1.3974898	e y	-0.7693432
-1.1305237	r y	-0.7704433
-1.2663181	v y	-0.48233116
-1.3246204	c y	-0.49618536
-1.3095913	m y	-0.49984932
-1.4186417	o y	-0.79454994
-1.2810043	k y	-0.49158406
-1.3715283	t y	-0.57435274
-1.5137339	f y	-0.45779687
-1.4077924	s y	-0.56812096
-1.3627529	g y	-0.41676652
-1.4836497	u y	-0.50376886
-2.1631968	y y	-0.3572615
-1.212989	w y	-0.44934002
-1.2975992	d y	-0.61668444
-1.1103401	b y	-0.54318523
-1.6753939	j y	-0.3405794
-1.2744159	z y	-0.49130586
-1.4102033	x y	-0.36302814
-1.4501127	<w> w	-0.29406428
-1.5261197	l w	-0.6430817
-1.4186167	a w	-0.76646507
-1.5793885	n w	-0.5841423
-1.6858449	p w	-0.47307575
-1.6265312	h w	-0.46333385
-1.533334	i w	-0.6867449
-1.4330306	e w	-0.77063483
-1.7159247	r w	-0.510989
-1.7797748	c w	-0.34282485
-1.5566975	m w	-0.43457648
-1.4379555	o w	-0.8560345
-1.446388	k w	-0.6084085
-1.4821527	t w	-0.8007517
-2.2509687	f w	-0.29406428
-1.4088043	s w	-0.90123886
-1.4442672	g w	-0.64163446
-1.7403612	u w	-0.5245999
-1.4868004	y w	-0.6250766
-1.8416945	w w	-0.29406428
-1.530235	d w	-0.7384377
-1.8470253	b w	-0.3926808
-2.0362792	j w	-0.29406428
-1.4380592	z w	-0.5001378
-1.6563084	x w	-0.3572615
-1.4412289	<w> d	-0.29406428
-1.5242176	l d	-0.5704776
-1.4178331	a d	-0.954427
-1.531585	n d	-0.5902877
-1.7636299	p d	-0.38845426
-1.4674999	h d	-0.43008578
-1.3727448	i d	-0.9254804
-1.3974898	e d	-0.9512627
-1.491591	r d	-0.50396776
-1.7783144	v d	-0.37108454
-1.8747497	c d	-0.34821305
-1.6807903	m d	-0.41036093
-1.4186417	o d	-0.8631389
-1.7107505	k d	-0.4728095
-1.7242869	t d	-0.47752345
-1.7220412	f d	-0.29406428
-1.4824092	s d	-0.7224462
-1.4885623	g d	-0.5939909
-1.3588734	u d	-0.8455071
-1.3758696	y d	-0.5996445
-1.8355142	w d	-0.35304555
-1.6835482	d d	-0.5153776
-1.5931308	b d	-0.41407898
-1.6753939	j d	-0.3245144
-1.6967595	z d	-0.32848382
-1.6510204	x d	-0.3926808
-1.4501127	<w> b	-0.29406428
-1.5261197	l b	-0.6306502
-1.3851695	a b	-0.93310857
-1.5335433	n b	-0.67287576
-1.6173564	p b	-0.41789964
-1.6265312	h b	-0.46619838
-1.4267833	i b	-0.88916147
-1.4152888	e b	-0.93489283
-1.5393945	r b	-0.5799041
-2.008696	c b	-0.36584923
-1.458486	m b	-0.60686976
-1.4194578	o b	-0.85644984
-1.5865452	k b	-0.4700876
-1.4821527	t b	-0.6407568
-1.7255497	f b	-0.41999236
-1.3450094	s b	-0.9401713
-1.6694369	g b	-0.46826148
-1.3596896	u b	-0.78838706
-1.3532461	y b	-0.69877636
-1.8412653	w b	-0.34711155
-1.4886048	d b	-0.61211157
-1.6643935	b b	-0.5518993
-1.7602035	q b	-0.29406428
-1.3914456	z b	-0.4977182
-1.4132327	x b	-0.35726154
-1.4875848	<w> q	-0.29406428
-1.7625042	l q	-0.6499002
-1.5657871	a q	-0.7732694
-1.700156	n q	-0.6355368
-2.3433127	h q	-0.29406428
-1.6482452	i q	-0.6618657
-1.6729902	e q	-0.90853804
-1.8113924	r q	-0.570719
-1.7946509	c q	-0.4738089
-1.883087	m q	-0.3345068
-1.7658606	o q	-0.9131416
-2.489181	t q	-0.29406428
-2.3009858	f q	-0.29406428
-1.8552259	s q	-0.58138394
-2.0049171	g q	-0.3572615
-1.9760395	u q	-0.6499002
-2.194994	y q	-0.3926808
-2.1919935	w q	-0.29406428
-1.8494369	d q	-0.4314168
-1.9572356	z q	-0.3488702
-1.6781286	x q	-0.3926808
-1.4684447	<w> j	-0.29406428
-1.6875367	l j	-0.39661554
-1.496269	a j	-0.6856393
-1.7625192	n j	-0.52657616
-1.8764832	p j	-0.3405794
-1.8847221	h j	-0.3926808
-1.6778607	i j	-0.58634675
-1.514243	e j	-0.5732361
-1.8033072	r j	-0.39605123
-2.132507	v j	-0.29406428
-2.320156	c j	-0.29406428
-2.305127	m j	-0.29406428
-1.5230712	o j	-0.57754487
-1.650707	k j	-0.3856593
-1.7905917	t j	-0.4563255
-2.2752576	f j	-0.29406428
-2.0987825	s j	-0.32060328
-1.9914919	g j	-0.29406428
-1.5666302	u j	-0.5430833
-2.4797137	y j	-0.29406428
-1.6325771	d j	-0.44099498
-1.8559375	b j	-0.40529263
-2.05682	j j	-0.29406428
-1.4501127	<w> z	-0.29406428
-1.6820428	l z	-0.41736192
-1.4186167	a z	-0.7646407
-1.6887838	n z	-0.49407044
-2.2885423	p z	-0.29406428
-1.4267833	i z	-0.8171789
-1.4152888	e z	-0.6876406
-1.3471957	r z	-0.60622525
-2.1101284	v z	-0.29406428
-1.2159381	c z	-0.76754534
-1.7647457	m z	-0.36584923
-1.4987048	o z	-0.71027315
-2.3115706	k z	-0.29406428
-1.5144869	t z	-0.57146335
-1.8261843	f z	-0.3345068
-1.6883891	s z	-0.5401989
-1.9792957	g z	-0.29406428
-1.397508	u z	-0.7056393
-1.6806532	y z	-0.44533068
-2.142941	w z	-0.29406428
-1.4886048	d z	-0.5009248
-1.9786044	b z	-0.29406428
-2.0362792	j z	-0.29406428
-1.7002423	z z	-0.48572904
-1.9756842	x z	-0.29406428
-1.5394864	<w> x	-0.29406428
-2.11723	l x	-0.29406428
-1.524521	a x	-0.66084623
-1.7148033	n x	-0.41697282
-2.4113493	p x	-0.29406428
-1.5686929	i x	-0.6380938
-1.543965	e x	-0.6516857
-2.0818422	r x	-0.3375325
-1.5798651	o x	-0.6101041
-2.5638723	t x	-0.29406428
-2.3728864	f x	-0.29406428
-2.618882	s x	-0.29406428
-2.3891912	g x	-0.29406428
-1.67602	u x	-0.45673597
-1.8154792	y x	-0.51199585
-1.7065401	x x	-0.33086926

\3-grams:
-0.0010661788	l </w> <w>	-2.0690668
-0.0010234938	a </w> <w>	-2.1956196
-0.0016002383	n </w> <w>	-2.4904587
-0.0023295803	p </w> <w>	-1.321633
-0.0016002383	h </w> <w>	-1.8452116
-0.000984082	i </w> <w>	-1.8870971
-0.0010234938	e </w> <w>	-2.5235505
-0.0017071135	r </w> <w>	-2.4003873
-0.0042805104	v </w> <w>	-0.6547116
-0.0023295803	c </w> <w>	-1.4858913
-0.0016002383	m </w> <w>	-1.7017543
-0.0010661788	o </w> <w>	-2.0276759
-0.0018293258	k </w> <w>	-1.8591864
-0.001112605	t </w> <w>	-2.1817393
-0.0023295803	f </w> <w>	-1.302116
-0.0010661788	s </w> <w>	-2.6659524
-0.002563219	g </w> <w>	-2.182168
-0.0010661788	u </w> <w>	-1.1214685
-0.001112605	y </w> <w>	-2.3049765
-0.005141709	w </w> <w>	-1.2529137
-0.0016002383	d </w> <w>	-2.3088355
-0.002563219	b </w> <w>	-0.9227468
-0.0042805104	q </w> <w>	-0.3440263
-0.005141709	j </w> <w>	-0.32657582
-0.0016002383	z </w> <w>	-1.3904154
-0.0018293258	x </w> <w>	-1.0926514
-0.27045453	<s> <w> l	-0.29833382
-1.3579289	</w> <w> l	-2.5387478
-1.2374042	<w> l l	-0.5402366
-1.2688553	a l l	-1.7175562
-1.1796833	i l l	-1.7368004
-1.2333034	e l l	-1.8275505
-1.801214	r l l	-0.2611524
-1.2260581	o l l	-1.5034192
-1.1324689	u l l	-1.2456307
-1.03875	y l l	-0.5386848
-1.8833537	d l l	-0.29833382
-1.3991939	<w> a l	-1.4157398
-1.5833431	l a l	-0.6145584
-1.094936	a a l	-0.496647
-1.2895967	n a l	-1.4230807
-1.27299	p a l	-0.97613025
-1.1650331	h a l	-1.1829529
-1.1356258	i a l	-1.3563848
-1.1292299	e a l	-1.2216376
-1.3837008	r a l	-1.3616401
-0.99560964	v a l	-1.1005621
-1.1651981	c a l	-1.3955622
-1.3236313	m a l	-1.0409898
-1.1155033	o a l	-0.57626975
-1.2175435	k a l	-0.7359828
-1.2284944	t a l	-1.2700087
-0.95996654	f a l	-0.7796084
-1.2515988	s a l	-1.0795559
-1.1700066	g a l	-1.150033
-0.9649464	u a l	-1.108196
-1.22662	y a l	-0.5616527
-1.0747441	w a l	-1.0917466
-1.121855	d a l	-1.0012277
-1.1246103	b a l	-1.1599071
-1.0398217	q a l	-0.29833382
-1.3489743	j a l	-0.38015127
-1.138334	z a l	-0.45213687
-1.0110314	x a l	-0.4040426
-1.611292	a n l	-0.73405665
-1.5717257	h n l	-0.29035914
-1.5521327	i n l	-0.87420857
-1.4969871	e n l	-0.89521956
-1.4426696	r n l	-0.4589625
-1.650504	m n l	-0.29833382
-1.6512865	o n l	-0.61593056
-1.7161164	g n l	-0.29833382
-1.5886241	u n l	-0.8397819
-1.5762546	w n l	-0.37978128
-1.1134576	<w> p l	-1.687333
-1.3084134	l p l	-0.35762098
-1.1084313	a p l	-0.9012363
-1.0192491	n p l	-0.5665656
-1.0481776	p p l	-1.3217676
-0.9792392	h p l	-0.2611524
-1.1337218	i p l	-0.9741034
-1.1251036	e p l	-1.0476127
-1.0357091	r p l	-0.80422246
-0.92626995	c p l	-0.29833382
-1.1170644	m p l	-1.4050906
-1.169279	o p l	-1.0565856
-1.097402	k p l	-0.2611524
-0.99281573	t p l	-0.41529787
-1.1521608	s p l	-1.0030988
-0.81864417	g p l	-0.29035914
-1.3558468	u p l	-0.98134613
-1.2174582	y p l	-0.29035914
-0.68896925	w p l	-0.2611524
-1.0952796	d p l	-0.29035914
-0.5621901	b p l	-0.27319592
-1.0696707	x p l	-0.942478
-1.2592881	<w> h l	-0.5913892
-1.0939581	a h l	-0.86161065
-1.6237484	p h l	-0.48032603
-1.0075912	i h l	-0.4066315
-0.87704337	e h l	-0.9082007
-1.2973441	c h l	-1.2603959
-0.99904597	o h l	-0.67357874
-1.6741346	k h l	-0.29833382
-1.48258	t h l	-0.8301326
-1.4537929	s h l	-0.74773633
-1.2156696	g h l	-0.70253956
-0.8621852	u h l	-0.63134986
-1.6590258	d h l	-0.29833382
-1.3347852	b h l	-0.29833382
-1.4019802	<w> i l	-0.7871188
-1.5737308	l i l	-0.7624848
-1.1224169	a i l	-1.0664504
-1.4350547	n i l	-0.6310007
-1.1654284	p i l	-0.7826141
-1.035356	h i l	-1.1802883
-1.1749136	e i l	-0.882235
-1.2472148	r i l	-1.1899936
-0.96146125	v i l	-1.3612334
-1.2484896	c i l	-0.8210537
-1.0028852	m i l	-1.109021
-1.0063003	o i l	-0.87799084
-1.2337745	k i l	-0.8010177
-1.2539656	t i l	-1.1088337
-1.0785393	f i l	-0.9433362
-1.2378259	s i l	-0.88659656
-1.1246814	g i l	-0.8335014
-1.0936621	u i l	-0.954948
-1.6586312	y i l	-0.29833382
-1.1007698	w i l	-1.0935894
-1.1784835	d i l	-0.805738
-0.9888085	b i l	-1.222347
-1.5050442	j i l	-0.4283318
-1.1509887	z i l	-0.47266537
-1.2595177	x i l	-0.27646586
-1.4060023	<w> e l	-1.1253511
-1.6367664	l e l	-0.70138776
-1.0509571	a e l	-0.6649596
-1.2593017	n e l	-1.3485434
-1.1570888	p e l	-1.0156667
-1.1534684	h e l	-1.1713386
-1.1278366	i e l	-1.3161808
-1.200278	e e l	-0.9306767
-1.3572515	r e l	-1.3766195
-1.2044986	v e l	-1.2193036
-1.1225048	c e l	-1.0416058
-1.2529356	m e l	-1.036009
-1.0490586	o e l	-0.6740629
-1.2527949	k e l	-1.0603591
-1.2127309	t e l	-1.331534
-0.95087004	f e l	-1.0050538
-1.1646631	s e l	-1.22318
-1.3228549	g e l	-1.0474899
-1.0160624	u e l	-0.85225046
-1.142667	y e l	-0.5447455
-0.95323545	w e l	-1.1378512
-1.1559185	d e l	-1.2752855
-1.1271086	b e l	-1.2286354
-1.0966358	j e l	-0.5118674
-1.059979	z e l	-0.969295
-1.0110085	x e l	-0.44762796
-1.3409013	a r l	-1.3023336
-1.9164951	h r l	-0.4463914
-1.3503582	i r l	-0.72441417
-1.378342	e r l	-1.4771905
-1.7784669	r r l	-0.29833382
-1.4724	o r l	-0.9097009
-1.3844947	u r l	-0.8777147
-1.6617593	y r l	-0.27319592
-1.152683	<w> v l	-0.66230494
-1.2376745	a v l	-0.6237192
-1.4971974	n v l	-0.27934533
-1.4649196	i v l	-0.2923391
-1.2407331	e v l	-0.4040426
-1.5030465	r v l	-0.29833382
-1.4329256	o v l	-0.29489812
-1.1837828	<w> c l	-1.8412666
-1.365336	l c l	-0.29833382
-1.4610919	a c l	-0.85661054
-1.1156529	n c l	-0.879125
-0.88088053	h c l	-0.3892491
-1.3054638	i c l	-0.86318946
-1.351099	e c l	-0.9950815
-1.3461643	r c l	-0.5729057
-1.083744	c c l	-0.9467768
-1.2996203	m c l	-0.7527204
-1.3225825	o c l	-0.7383081
-0.9989317	t c l	-0.4589625
-1.1977354	s c l	-0.7417673
-1.435762	u c l	-0.7611526
-1.4371485	y c l	-0.9354538
-1.1919293	w c l	-0.29833382
-1.0610807	d c l	-0.2923391
-1.1688588	z c l	-0.29833382
-1.1249042	x c l	-0.79096144
-1.3782685	<w> m l	-0.27934533
-1.3097079	l m l	-0.27934533
-1.6859848	a m l	-0.74865794
-1.3897024	i m l	-0.54642254
-1.4368814	e m l	-0.6043608
-1.3962717	r m l	-0.44426322
-1.4917223	m m l	-0.29035914
-1.4854201	o m l	-0.48731923
-1.3891461	u m l	-0.53472495
-1.3989167	<w> o l	-0.870908
-2.0739655	l o l	-0.6693823
-1.4831887	a o l	-0.4429384
-1.2837954	n o l	-0.9678222
-1.0947891	p o l	-1.2308731
-1.0802202	h o l	-1.2560779
-1.0336676	i o l	-1.1680509
-1.0084026	e o l	-0.92718124
-1.3370892	r o l	-1.1592796
-1.0173123	v o l	-0.83674
-1.3103992	c o l	-1.2254922
-1.2224987	m o l	-0.9571035
-1.1578984	o o l	-0.7709503
-1.2921919	k o l	-0.6666549
-1.2800254	t o l	-0.9797869
-0.9671713	f o l	-0.8147433
-1.1336008	s o l	-1.0871911
-1.2846305	g o l	-0.9423894
-1.0619303	u o l	-0.37271267
-1.2910124	y o l	-0.4468701
-1.0957171	w o l	-0.6361091
-1.1982647	d o l	-0.85011786
-1.2131283	b o l	-0.99846923
-1.1778178	j o l	-0.56556606
-1.086794	z o l	-0.5195559
-1.1237323	x o l	-0.27934533
-1.2964913	<w> k l	-1.4347683
-1.4057474	l k l	-0.28169277
-1.422234	a k l	-0.65253913
-1.2414976	n k l	-1.1184893
-1.3472838	h k l	-0.29833382
-1.394538	i k l	-0.36510128
-1.4521804	e k l	-0.4074748
-1.2359873	r k l	-0.6949364
-1.212937	c k l	-1.4095644
-1.4582328	o k l	-0.39986336
-1.78256	s k l	-0.29353145
-1.4606373	u k l	-0.29353145
-1.4631064	y k l	-0.2611524
-1.252232	<w> t l	-0.29833382
-1.3653208	l t l	-0.2830772
-1.3483485	a t l	-0.97160035
-1.352515	n t l	-1.3120426
-1.3606528	p t l	-0.5913892
-1.4254088	h t l	-0.753548
-1.3276768	i t l	-0.8389065
-1.3379025	e t l	-0.69951713
-1.2122136	r t l	-0.99412805
-0.90803677	v t l	-0.29833382
-1.1760321	c t l	-0.6496695
-1.4697579	o t l	-0.6601303
-1.2219499	t t l	-1.510477
-1.2601683	f t l	-0.28169277
-1.484824	s t l	-1.1698192
-1.4062502	g t l	-0.29833382
-1.3055786	u t l	-0.8881245
-1.699725	y t l	-0.29833382
-1.3522177	d t l	-0.2611524
-1.3239601	b t l	-0.53537714
-1.1948595	z t l	-0.29833382
-1.0435472	<w> f l	-1.7962625
-1.3008429	l f l	-0.4664504
-1.1990105	a f l	-0.50708926
-0.9601149	n f l	-0.9271812
-1.1914771	p f l	-0.33031985
-1.0195597	h f l	-0.26833835
-1.4048378	i f l	-0.66800267
-1.2200817	e f l	-0.7857033
-1.0768093	r f l	-0.5201478
-0.91790676	c f l	-0.29833382
-1.0360167	m f l	-0.29833382
-1.1067679	o f l	-0.36605307
-1.3622434	t f l	-0.34863955
-1.1580393	f f l	-1.1367849
-1.4913414	s f l	-0.2611524
-1.2765989	g f l	-0.2611524
-1.3846296	u f l	-0.2784397
-1.3479054	y f l	-0.29833382
-1.075919	w f l	-0.2611524
-0.9068116	d f l	-0.26627308
-0.85495657	b f l	-0.29833382
-1.3720725	<w> s l	-1.6205474
-1.4706345	l s l	-0.2923391
-1.3474615	a s l	-0.7920218
-1.3640666	n s l	-0.92351264
-1.8363873	p s l	-0.29833382
-1.5610614	h s l	-0.2611524
-1.326098	i s l	-1.252571
-1.2863591	e s l	-0.983204
-1.3754716	r s l	-0.58124113
-1.5219637	c s l	-0.29833382
-1.3252242	m s l	-0.5933691
-1.3707366	o s l	-0.74656653
-1.3870656	k s l	-0.42117393
-1.5100428	t s l	-0.51220787
-1.3458285	s s l	-1.1581986
-1.48007	g s l	-0.37271267
-1.4545411	u s l	-1.2180716
-1.2493019	y s l	-0.46843034
-1.2222944	w s l	-0.34863955
-1.5419629	d s l	-0.5536006
-1.6548156	b s l	-0.29833382
-1.2752135	<w> g l	-1.5925938
-1.3844291	l g l	-0.29833382
-1.1017706	a g l	-1.193015
-1.3534106	n g l	-1.4639566
-1.0606794	i g l	-0.9151116
-0.99532825	e g l	-0.9377531
-1.2612606	r g l	-0.51944673
-1.1871923	c g l	-0.53443986
-1.115236	o g l	-0.8245703
-1.0795577	g g l	-1.0184765
-1.1122751	u g l	-0.70850295
-1.3231736	y g l	-0.29833382
-1.1574423	d g l	-0.41529787
-0.5659238	x g l	-0.29833382
-1.3012252	<w> u l	-0.5870096
-1.5939063	l u l	-0.5201478
-1.1802235	a u l	-1.023709
-1.3158889	n u l	-0.4741189
-0.97458136	p u l	-0.8625146
-1.1264429	h u l	-0.6699305
-1.2595383	i u l	-0.46843034
-1.4991742	e u l	-0.36668667
-1.263956	r u l	-0.6921019
-0.69217163	v u l	-0.44353178
-0.9975741	c u l	-1.1486092
-1.0207015	m u l	-0.97460794
-1.2157363	o u l	-0.8771168
-1.2540075	k u l	-0.52369606
-1.2361633	t u l	-0.8315191
-0.73562014	f u l	-1.0871911
-1.1695807	s u l	-0.7238622
-1.1738136	g u l	-0.9320638
-1.1854309	u u l	-0.29833382
-1.4344882	y u l	-0.26833835
-0.99699533	w u l	-0.35762098
-1.1386988	d u l	-0.7615699
-1.0360518	b u l	-0.878453
-1.3597647	j u l	-0.74068946
-1.0949643	z u l	-0.41290325
-1.229768	x u l	-0.5913892
-1.2541007	<w> y l	-0.29833382
-1.4753486	l y l	-0.46843034
-1.1717187	a y l	-0.8387555
-1.3390718	n y l	-0.3411447
-1.2948387	p y l	-0.37978128
-1.282327	h y l	-0.37223408
-1.1825455	e y l	-0.36548686
-1.1463596	r y l	-0.60735136
-1.1690269	c y l	-0.37271267
-1.1494532	m y l	-0.28021112
-1.1279558	o y l	-0.72102547
-1.2852559	k y l	-0.41529787
-1.1556654	t y l	-0.69113046
-1.1411302	s y l	-0.6661718
-1.2998173	g y l	-0.2611524
-1.1958572	u y l	-0.43965948
-1.0676687	w y l	-0.31839564
-1.3251882	d y l	-0.27884197
-1.1364384	b y l	-0.35150915
-1.3909761	z y l	-0.27934533
-0.9190717	x y l	-0.41529787
-1.2273524	<w> w l	-0.2611524
-1.2852833	a w l	-0.79459333
-1.7021313	e w l	-0.37860277
-1.1924963	o w l	-0.98725736
-1.3429824	<w> d l	-0.27319592
-1.4324245	l d l	-0.4877841
-1.2865908	a d l	-1.0520669
-1.4022533	n d l	-1.3020563
-1.2237662	i d l	-0.9101479
-1.1376709	e d l	-1.0417175
-1.216958	r d l	-0.8613647
-1.3962443	o d l	-0.80455846
-1.2786516	u d l	-0.48126513
-1.7589312	y d l	-0.29833382
-1.0716448	w d l	-0.29353145
-1.0758089	d d l	-1.3695403
-1.0714864	<w> b l	-1.8147954
-1.3372906	l b l	-0.46843034
-0.923564	a b l	-1.8895175
-1.1869783	n b l	-0.437272
-1.3879123	h b l	-0.27319592
-0.9845999	i b l	-1.3732481
-1.0521884	e b l	-0.8077353
-1.1638548	r b l	-0.63942206
-1.1667044	m b l	-1.3360898
-1.0443606	o b l	-1.0975523
-1.1685048	k b l	-0.29833382
-1.1393144	t b l	-0.41529787
-1.6691331	s b l	-0.2923391
-1.36878	g b l	-0.27319592
-1.0789936	u b l	-1.1847827
-1.4523904	y b l	-0.29833382
-1.2409004	w b l	-0.29833382
-1.2613945	d b l	-0.42117393
-0.9800006	b b l	-1.2988594
-1.8211689	e j l	-0.29833382
-1.7621633	o j l	-0.29833382
-1.2215085	<w> z l	-0.4976514
-1.478581	l z l	-0.29833382
-1.6821225	a z l	-0.46843034
-1.126392	n z l	-0.47644788
-1.9392608	i z l	-0.29833382
-1.8104995	e z l	-0.29833382
-1.6916807	r z l	-0.29833382
-1.658524	o z l	-0.37271267
-1.1422273	t z l	-0.7616836
-1.3314945	s z l	-0.27319592
-1.619852	u z l	-0.2611524
-0.92962915	z z l	-1.0699774
-1.3927337	a x l	-0.4976514
-1.4488869	i x l	-0.41529787
-1.3371059	e x l	-0.5933691
-1.0800629	r x l	-0.29833382
-1.3683146	o x l	-0.41529787
-1.496964	u x l	-0.29833382
-1.3866334	</w> <w> a	-2.1764157
-0.8434099	<w> l a	-1.5804162
-1.1550212	l l a	-1.4106848
-1.1704841	a l a	-1.1164957
-0.9490445	n l a	-0.6418916
-0.55175805	p l a	-1.2687986
-0.8997389	h l a	-0.5997374
-1.1703681	i l a	-0.9729471
-1.2406232	e l a	-1.0753422
-1.0934687	r l a	-0.8562605
-0.75806046	v l a	-0.3343377
-0.62503535	c l a	-1.1145146
-0.82518023	m l a	-0.31839564
-1.1398965	o l a	-1.1418321
-0.74164104	k l a	-0.63366055
-0.7571329	t l a	-0.7791928
-0.72212696	f l a	-0.99840087
-0.7795114	s l a	-0.937441
-0.80377626	g l a	-0.9611374
-1.1216036	u l a	-1.3239568
-0.8416745	y l a	-0.73880243
-1.0171605	w l a	-0.77144945
-0.95930666	d l a	-0.51811457
-0.77558964	b l a	-1.0545189
-0.913293	z l a	-0.2953261
-1.433953	<w> a a	-0.38054353
-1.7489501	l a a	-0.30502468
-1.8063064	n a a	-0.32966554
-2.0924108	p a a	-0.2830772
-1.7179708	h a a	-0.37155482
-2.0319889	i a a	-0.29833382
-1.7770486	r a a	-0.31804734
-1.5949545	v a a	-0.26833835
-2.0011191	c a a	-0.29833382
-1.8540509	m a a	-0.32469568
-1.9711578	o a a	-0.29833382
-1.6152436	k a a	-0.28558305
-1.8433812	t a a	-0.2776596
-1.8639596	f a a	-0.29833382
-1.9493473	s a a	-0.3557383
-1.481955	g a a	-0.7694603
-1.9318848	u a a	-0.29833382
-2.0202818	y a a	-0.29833382
-1.9705627	w a a	-0.27934533
-2.001418	d a a	-0.29833382
-1.9113685	b a a	-0.28363353
-1.8881127	j a a	-0.29833382
-1.7916036	z a a	-0.27319592
-1.0553272	<w> n a	-1.1303539
-0.87157404	l n a	-0.27319598
-1.2421095	a n a	-1.1942834
-1.0019178	n n a	-0.9197874
-1.0372305	p n a	-0.29833382
-0.95966625	h n a	-0.28584224
-1.199079	i n a	-1.4294089
-1.2718005	e n a	-1.0648968
-1.0398017	r n a	-0.99874854
-0.80293393	v n a	-0.29833382
-0.9001428	c n a	-0.3143023
-0.89939237	m n a	-0.39688888
-1.169576	o n a	-1.3648492
-0.9937343	k n a	-0.49297038
-0.87239766	t n a	-0.51484984
-0.791469	f n a	-0.2784397
-0.7077444	s n a	-0.599669
-0.7568475	g n a	-0.87375426
-1.1880677	u n a	-0.75913143
-0.9548235	y n a	-0.5764746
-1.0998114	w n a	-0.29833382
-0.6849283	d n a	-0.48092058
-0.8610894	b n a	-0.27319592
-0.69906855	j n a	-0.27342984
-1.0382278	z n a	-0.27934533
-0.6889784	x n a	-0.29833382
-1.0933484	<w> p a	-1.560858
-1.0798742	l p a	-0.36110646
-1.1295228	a p a	-0.7312004
-0.8145763	n p a	-0.3827868
-0.95841604	p p a	-0.71506554
-0.96608424	h p a	-0.26833835
-1.1274133	i p a	-0.87640584
-1.0861905	e p a	-0.7990055
-1.025122	r p a	-0.54531837
-0.9139761	c p a	-0.2923391
-1.1057729	m p a	-0.99807477
-1.1049504	o p a	-0.6953608
-0.7234101	k p a	-0.27934533
-0.7180876	t p a	-0.516369
-0.5394374	f p a	-0.29833382
-0.84242743	s p a	-0.9881277
-1.0703146	g p a	-0.2611524
-1.1448519	u p a	-0.5006252
-0.96951526	y p a	-0.33694616
-0.96608424	w p a	-0.2611524
-0.63140506	d p a	-0.2840314
-0.8609935	b p a	-0.29833382
-0.6844683	z p a	-0.29833382
-0.8003403	x p a	-0.6371466
-1.1288851	<w> h a	-1.6713024
-0.6847727	l h a	-0.5116625
-0.999125	a h a	-0.81714624
-0.72937685	n h a	-0.9255829
-0.8284197	p h a	-0.9523118
-0.76911485	h h a	-0.2830772
-0.561485	i h a	-0.5771295
-0.9684017	e h a	-0.837286
-0.68502146	r h a	-0.7199837
-0.36208367	v h a	-0.2611524
-1.015266	c h a	-1.4120212
-0.59735996	m h a	-0.27884197
-0.88557374	o h a	-0.62442917
-0.62442297	k h a	-0.67130536
-1.0734801	t h a	-1.0595456
-0.6532239	f h a	-0.29353145
-0.8654221	s h a	-1.2045767
-0.9099747	g h a	-0.8985866
-0.7030321	u h a	-0.48334032
-0.67287856	y h a	-0.35276175
-0.8129431	w h a	-0.66523415
-0.6655257	d h a	-0.55397034
-0.608792	b h a	-0.4436068
-0.7324796	z h a	-0.30743363
-0.5617236	x h a	-0.51220787
-1.3838192	<w> i a	-0.6258913
-1.3495055	l i a	-1.2979339
-1.3979799	a i a	-0.53537714
-1.2283285	n i a	-1.2623346
-1.1619015	p i a	-0.71254843
-1.4054724	h i a	-0.7952666
-1.0945647	i i a	-0.2923391
-1.521785	e i a	-0.41529787
-1.39767	r i a	-1.4248933
-1.1765409	v i a	-0.9603196
-1.2066303	c i a	-1.2342619
-1.3484051	m i a	-0.7061126
-1.230212	o i a	-0.5921801
-1.339547	k i a	-0.51484984
-1.3121511	t i a	-1.1833625
-1.4494853	f i a	-0.5584668
-1.2669418	s i a	-0.99803215
-1.1211411	g i a	-0.9372539
-1.7195642	u i a	-0.3420233
-1.641965	y i a	-0.29833382
-1.4869089	w i a	-0.68386006
-1.2790253	d i a	-1.0842158
-1.1880248	b i a	-0.9680416
-1.1239969	q i a	-0.27319592
-0.82695484	j i a	-0.7285537
-1.1470495	z i a	-0.46079788
-0.9842875	x i a	-0.42256868
-1.4143376	<w> e a	-1.0420771
-1.3848599	l e a	-1.1556606
-1.5525001	a e a	-0.3892491
-1.3394951	n e a	-0.9462625
-1.2258258	p e a	-0.92826927
-1.0842612	h e a	-1.356502
-1.7644557	i e a	-0.26833835
-1.9550121	e e a	-0.43965948
-1.2949685	r e a	-1.4319562
-1.3472779	v e a	-0.48419487
-1.3016179	c e a	-0.7426568
-1.3213706	m e a	-0.87991476
-1.955744	o e a	-0.29833382
-1.560825	k e a	-0.532465
-1.3897922	t e a	-0.9478761
-1.5396758	f e a	-0.90317225
-1.3875821	s e a	-0.87714016
-1.2785633	g e a	-0.7252669
-1.9562825	u e a	-0.4049188
-1.0967325	y e a	-0.70449674
-1.0894979	w e a	-1.0066787
-1.3328497	d e a	-0.9317878
-1.0794619	b e a	-1.0067306
-1.3178067	j e a	-1.0307218
-1.437577	z e a	-0.63978857
-1.045024	<w> r a	-1.4220606
-0.7258996	l r a	-0.4468701
-1.2874204	a r a	-1.262145
-0.7524961	n r a	-0.5047691
-0.8440595	p r a	-0.7651909
-0.94888395	h r a	-0.56538725
-1.1033137	i r a	-0.8288105
-1.3220518	e r a	-1.4491798
-1.0361196	r r a	-1.0085784
-0.63072693	v r a	-0.44814152
-0.677291	c r a	-1.0817624
-0.81571984	m r a	-0.3511824
-1.2294458	o r a	-1.2020342
-0.6794083	k r a	-0.6033596
-0.79150796	t r a	-1.4975039
-0.8093725	f r a	-1.0629668
-0.6849899	s r a	-0.42752373
-0.6270289	g r a	-1.3815968
-1.1423556	u r a	-1.1061103
-0.8256189	y r a	-0.5929724
-1.0553583	w r a	-0.5833958
-0.8439218	d r a	-0.92023987
-0.8033508	b r a	-1.1872492
-0.56420463	z r a	-0.27319592
-0.5422416	x r a	-0.29833382
-0.9643146	<w> v a	-1.4316647
-0.72308326	l v a	-0.7499967
-0.8050379	a v a	-1.0133364
-0.7604621	n v a	-0.7179111
-0.8929821	h v a	-0.29833382
-0.7165852	i v a	-1.091032
-0.7931127	e v a	-0.9579332
-0.7634603	r v a	-0.801991
-0.6025686	c v a	-0.29833382
-0.82600087	o v a	-0.95810705
-0.69927514	k v a	-0.28558305
-0.59461087	t v a	-0.27669922
-0.2586214	f v a	-0.29833382
-1.3601917	s v a	-0.29833382
-0.4548101	g v a	-0.27319592
-0.6357303	u v a	-0.50888866
-0.93199366	y v a	-0.27319592
-0.6876563	d v a	-0.72825986
-0.8751119	z v a	-0.29833382
-1.1397812	<w> c a	-1.7565596
-0.93342376	l c a	-0.5132963
-1.1168916	a c a	-0.6895852
-1.0312544	n c a	-0.82132375
-0.98353755	p c a	-0.27319592
-0.8615562	h c a	-0.46843034
-1.0192832	i c a	-1.6112341
-1.096975	e c a	-0.8363234
-1.0204514	r c a	-0.7606886
-0.8696128	c c a	-0.8698726
-1.1845143	m c a	-0.48319831
-1.0656203	o c a	-0.9471449
-0.710921	k c a	-0.26833835
-0.65802354	t c a	-0.4877342
-0.69955075	f c a	-0.27319592
-0.8754833	s c a	-1.1480194
-1.010659	u c a	-0.6654623
-0.89488184	y c a	-0.48032603
-0.9194311	w c a	-0.46843034
-0.6751338	d c a	-0.45827383
-0.86963403	b c a	-0.2611524
-0.8804048	z c a	-0.2830772
-0.83875465	x c a	-0.4877841
-1.1300088	<w> m a	-1.8304318
-0.80234784	l m a	-1.248224
-1.0823337	a m a	-1.1494118
-0.65267	n m a	-0.74288386
-0.38371548	p m a	-0.7225395
-0.7221049	h m a	-1.095819
-0.935271	i m a	-1.0937479
-0.9647485	e m a	-1.3857924
-0.8200005	r m a	-1.4331058
-0.19820768	v m a	-0.2611524
-0.61670685	c m a	-0.4860562
-0.8582606	m m a	-0.87151325
-0.91492534	o m a	-1.1705527
-0.38242114	k m a	-1.1208284
-0.49725553	t m a	-1.2858768
-0.30453423	f m a	-1.0708314
-0.5591091	s m a	-1.2678809
-0.6246159	g m a	-0.963405
-0.95280415	u m a	-0.8982676
-0.67219573	y m a	-1.0025375
-0.6113229	w m a	-0.72220397
-0.63752484	d m a	-1.0476096
-0.44371742	b m a	-0.5678606
-0.2674816	q m a	-0.29833382
-0.53136164	j m a	-0.29833382
-0.43356258	z m a	-0.8929132
-0.49731392	x m a	-0.53537714
-1.4256554	<w> o a	-0.6636235
-1.3934339	l o a	-0.88855076
-1.7115599	a o a	-0.2611524
-1.965389	n o a	-0.28873578
-1.736877	p o a	-0.3525409
-1.6542705	h o a	-0.48341554
-1.9233229	i o a	-0.2611524
-1.8150144	e o a	-0.29833382
-1.4114096	r o a	-0.9617983
-1.8812447	v o a	-0.29833382
-1.2833353	c o a	-0.77732915
-1.7138424	m o a	-0.42735675
-2.1487527	o o a	-0.29833382
-1.8777163	k o a	-0.29035914
-2.1876674	t o a	-0.4589625
-1.778934	f o a	-0.40063393
-1.8554611	s o a	-0.5141879
-1.790507	g o a	-0.49099183
-1.7182952	y o a	-0.3892491
-1.6588788	d o a	-0.43440092
-1.138527	b o a	-1.184568
-1.7934909	j o a	-0.36599216
-1.6482582	z o a	-0.2611524
-1.1612879	<w> k a	-1.2777287
-0.9435291	l k a	-0.7007023
-1.0021719	a k a	-0.62110317
-1.094511	n k a	-0.67500997
-0.71916085	p k a	-0.8663703
-0.7158557	h k a	-0.39317584
-0.924317	i k a	-0.58138716
-0.9282743	e k a	-0.3311871
-1.241005	r k a	-0.48842028
-0.7987287	v k a	-0.2611524
-1.2123306	c k a	-0.7103743
-1.087285	m k a	-0.29833382
-0.87667227	o k a	-0.51974034
-0.69895744	k k a	-0.2830772
-0.76837754	t k a	-0.67274255
-0.7963042	f k a	-0.2923391
-0.85449123	s k a	-0.85224766
-0.8492112	u k a	-0.49903923
-0.7999471	y k a	-0.5575696
-0.87636256	w k a	-0.27319592
-0.95282537	d k a	-0.27934533
-0.65196824	b k a	-0.51220787
-0.5034235	j k a	-0.46843034
-0.8420291	z k a	-0.8546306
-1.2247438	<w> t a	-1.3033093
-1.2502295	l t a	-0.57276386
-1.1791952	a t a	-0.94230205
-1.0913922	n t a	-1.2987142
-1.0244125	p t a	-0.4620573
-0.8029314	h t a	-0.4220563
-1.1492245	i t a	-1.339523
-1.1690534	e t a	-1.0393841
-1.1982379	r t a	-0.8812082
-1.0075265	c t a	-0.7364694
-1.0600914	m t a	-0.29833382
-1.0808192	o t a	-0.8038566
-0.81295824	k t a	-0.26627308
-1.2874268	t t a	-0.9968487
-1.3810297	f t a	-0.32761836
-0.9532065	s t a	-1.5739344
-1.154819	g t a	-0.29833382
-1.1605426	u t a	-0.7407292
-1.2152455	y t a	-0.27669922
-1.3299731	d t a	-0.2611524
-0.9627024	b t a	-0.4976514
-0.8186265	j t a	-0.27319592
-0.901852	z t a	-0.29833382
-1.0581346	x t a	-0.42409632
-1.0246109	<w> f a	-1.361391
-1.0001795	l f a	-0.4455647
-1.099273	a f a	-0.5144715
-0.9524151	n f a	-0.6149139
-1.0884829	p f a	-0.28141463
-1.2071842	h f a	-0.27319592
-1.0656822	i f a	-0.353875
-1.0612622	e f a	-0.65816563
-0.9689874	r f a	-0.48487896
-0.4966312	c f a	-0.46843034
-1.2196661	m f a	-0.29833382
-1.0056875	o f a	-0.36889035
-0.8896015	k f a	-0.27319592
-0.8340702	t f a	-0.6150246
-1.1444459	f f a	-0.443758
-1.1776712	s f a	-0.4389333
-1.0429933	g f a	-0.29833382
-0.9661435	u f a	-0.46462786
-1.1291283	y f a	-0.29833382
-0.8035692	w f a	-0.2611524
-0.8992219	d f a	-0.45320323
-0.84259677	b f a	-0.2611524
-1.0850829	x f a	-0.29833382
-1.3308425	<w> s a	-1.5312847
-1.2050107	l s a	-0.4309414
-1.2044097	a s a	-0.7319079
-1.2813259	n s a	-0.71077794
-1.2750922	p s a	-0.35090134
-1.3200654	h s a	-0.27319592
-1.2239	i s a	-0.8739544
-1.2175788	e s a	-0.6548486
-1.1788788	r s a	-0.59302473
-1.3030112	v s a	-0.29833382
-1.2618936	c s a	-0.29833382
-1.303939	m s a	-0.3387586
-1.1570405	o s a	-0.776123
-1.1828568	k s a	-0.3549113
-1.4114885	t s a	-0.28943074
-1.5316341	f s a	-0.27319592
-1.1803951	s s a	-1.0056287
-1.4477832	g s a	-0.27934533
-1.1231623	u s a	-0.65456206
-1.0783036	y s a	-0.3813648
-1.4522653	w s a	-0.29833382
-1.3804779	d s a	-0.33292672
-1.3317187	b s a	-0.29833382
-0.61430925	z s a	-0.27934533
-1.2891407	x s a	-0.2611524
-1.1563506	<w> g a	-1.4463422
-0.8837545	l g a	-0.6559752
-1.0642256	a g a	-0.9398273
-1.155219	n g a	-0.8704196
-0.68741655	p g a	-0.29833382
-0.65564585	h g a	-0.29353145
-1.042132	i g a	-1.0359029
-1.0008415	e g a	-0.9746077
-1.0249503	r g a	-0.90361565
-1.0938934	c g a	-0.41877267
-0.6551772	m g a	-0.7694603
-0.9724164	o g a	-0.82085454
-0.50428176	k g a	-0.29833382
-0.68058413	t g a	-0.4264968
-0.6288091	f g a	-0.29833382
-0.7083026	s g a	-0.29833382
-1.0337403	g g a	-0.78135604
-0.87755215	u g a	-0.800476
-0.8000956	y g a	-0.32482257
-0.8513314	w g a	-0.27934533
-0.9987939	d g a	-0.37337586
-0.27217096	q g a	-0.29833382
-0.65564585	z g a	-0.27319592
-1.3342558	<w> u a	-0.2611524
-1.7111754	l u a	-0.6384241
-2.0558972	a u a	-0.29833382
-1.4130007	n u a	-0.80670804
-1.5407383	p u a	-0.2840314
-1.2144318	h u a	-0.6003014
-1.8304355	e u a	-0.29833382
-1.5398535	r u a	-0.3731271
-1.3846303	c u a	-0.43923217
-1.7230752	m u a	-0.29833382
-1.4993305	o u a	-0.3086615
-1.8255643	k u a	-0.29833382
-1.1999629	t u a	-1.1365875
-1.2776577	s u a	-0.64764786
-1.0819975	g u a	-0.8207703
-1.461762	y u a	-0.2611524
-1.4117925	d u a	-0.72705173
-1.9717617	b u a	-0.29833382
-0.71294945	q u a	-1.0616515
-1.1345617	j u a	-0.59456146
-1.6501856	z u a	-0.29833382
-0.9608576	x u a	-0.89439905
-1.2445245	<w> y a	-0.81725585
-1.2712102	l y a	-0.5008124
-1.0960782	a y a	-0.73864746
-0.9687956	n y a	-0.6489191
-1.2870069	p y a	-0.27319592
-1.0214111	h y a	-0.38744372
-0.286484	i y a	-0.4906108
-1.225655	e y a	-0.47395688
-1.1811934	r y a	-0.62289417
-1.1327424	v y a	-0.29833382
-1.400219	c y a	-0.5933691
-1.2939339	m y a	-0.2830772
-0.9345981	o y a	-0.73878336
-1.1285632	k y a	-0.5794697
-1.5488644	t y a	-0.32761836
-1.6600504	s y a	-0.29833382
-1.1982901	g y a	-0.2611524
-0.99640834	u y a	-0.29300115
-0.37736595	y y a	-0.29833382
-1.5094873	w y a	-0.27319592
-1.213115	d y a	-0.35090134
-1.3821415	b y a	-0.28075227
-0.9508081	<w> w a	-1.4094692
-0.7111196	l w a	-0.56496763
-0.91989976	a w a	-0.9414985
-0.6633314	n w a	-0.8205285
-0.6601821	p w a	-0.3703313
-0.5779575	h w a	-0.69426215
-0.32444888	i w a	-0.42528602
-0.86378986	e w a	-0.93504393
-0.6490371	r w a	-0.778422
-0.784265	c w a	-0.27934533
-0.82689875	m w a	-0.27934533
-1.0304865	o w a	-0.7489237
-0.51727253	k w a	-0.5110089
-0.62816304	t w a	-0.6152483
-0.51037955	f w a	-0.29833382
-0.6714497	s w a	-0.81439674
-0.52048975	g w a	-0.36740062
-0.54841655	u w a	-0.28363353
-0.59431887	y w a	-0.52557266
-0.51037955	w w a	-0.29833382
-0.70645213	d w a	-0.75745153
-0.45891067	b w a	-0.27319592
-0.25592816	j w a	-0.29833382
-0.7092151	z w a	-0.28558305
-1.186678	<w> d a	-1.3101568
-1.2391105	l d a	-0.7125326
-1.1035273	a d a	-0.90504694
-1.1275715	n d a	-1.1281626
-0.68306786	p d a	-0.3420233
-1.0017132	h d a	-0.27319592
-1.0325179	i d a	-0.9690556
-1.1518319	e d a	-0.8758299
-1.0785947	r d a	-0.7346102
-0.56919754	v d a	-0.2611524
-1.1478305	c d a	-0.33694616
-0.5644231	m d a	-0.28579366
-1.0170418	o d a	-0.70145935
-0.5743061	k d a	-0.37171254
-0.982624	t d a	-0.53537714
-0.86609185	f d a	-0.29833382
-0.4937383	s d a	-0.683753
-0.4738049	g d a	-0.57842624
-1.0568786	u d a	-0.5828006
-1.0045693	y d a	-0.43296045
-1.2721552	w d a	-0.29833382
-0.9363041	d d a	-0.4477607
-0.7919754	b d a	-0.26833835
-0.93120754	j d a	-0.37271267
-0.6978783	z d a	-0.53537714
-1.0166935	<w> b a	-1.6629255
-0.9112327	l b a	-0.7761326
-1.0282902	a b a	-0.8427745
-0.83786654	n b a	-1.0008953
-0.919424	p b a	-0.2611524
-0.8020852	h b a	-0.5933691
-0.9470797	i b a	-0.7260923
-0.99023414	e b a	-0.92558235
-0.82405496	r b a	-0.99302256
-0.7243365	c b a	-0.27934533
-0.88863885	m b a	-0.9817524
-0.981286	o b a	-0.6815126
-0.7778361	k b a	-0.33279738
-0.7883501	t b a	-0.58444226
-0.38227442	f b a	-0.35762098
-0.78497463	s b a	-0.82382214
-1.0213386	g b a	-0.29353145
-0.92853063	u b a	-0.6761579
-0.6802324	y b a	-0.47160575
-0.8900465	w b a	-0.3731271
-0.7063603	d b a	-0.5035319
-0.9546294	b b a	-0.49194998
-0.26844886	q b a	-0.29833382
-0.9799554	z b a	-0.2840314
-1.020794	x b a	-0.29833382
-0.8246871	<w> q a	-0.2830772
-1.5776856	a q a	-0.29833382
-0.92855215	d q a	-0.29833382
-0.8876026	<w> j a	-1.1177711
-0.7051598	l j a	-0.29833382
-0.72604036	a j a	-0.39813375
-0.73407006	n j a	-0.48032603
-0.4378993	p j a	-0.41529787
-0.4983346	i j a	-0.48765004
-0.7290591	e j a	-0.4648525
-0.60387844	r j a	-0.5683274
-0.2465728	m j a	-0.29833382
-0.6106736	o j a	-0.31693152
-0.61137813	k j a	-0.29833382
-0.6631769	t j a	-0.29833382
-0.8169356	s j a	-0.29035914
-0.76129186	g j a	-0.2611524
-0.55612785	u j a	-0.30550656
-0.2465728	y j a	-0.29833382
-0.67850566	d j a	-0.28558305
-0.49371338	j j a	-0.2611524
-1.1383119	<w> z a	-0.87002313
-1.113409	l z a	-0.264404
-0.9406875	a z a	-0.72243035
-0.9789295	n z a	-0.866596
-0.8068876	i z a	-1.1928837
-0.9161309	e z a	-0.41192934
-0.8358658	r z a	-0.5491053
-0.67019475	c z a	-0.7788299
-0.74317706	m z a	-0.29833382
-0.86697984	o z a	-0.5817795
-1.23707	t z a	-0.37271267
-0.94834644	s z a	-0.35878575
-0.5473753	g z a	-0.41529787
-0.8447797	u z a	-0.51958287
-0.5410465	y z a	-0.29432818
-1.1490145	d z a	-0.29833382
-0.79434144	b z a	-0.29833382
-0.9005097	z z a	-0.8328437
-1.0392994	<w> x a	-0.3573059
-1.0966605	a x a	-0.34020656
-1.1404605	n x a	-0.29833382
-1.3836358	i x a	-0.4704194
-0.9993601	e x a	-0.7447005
-1.0237145	r x a	-0.29833382
-1.4985945	o x a	-0.35762098
-1.2046503	u x a	-0.27319592
-0.8791207	x x a	-0.29833382
-1.4219345	</w> <w> n	-2.2754948
-1.4259608	l l n	-0.9012176
-1.8066128	a l n	-0.28774443
-1.8126627	i l n	-0.4040426
-1.5521914	e l n	-0.4343456
-1.6221857	o l n	-0.44976133
-1.7244537	u l n	-0.8739357
-1.3991939	<w> a n	-1.4003732
-1.2069734	l a n	-1.6443222
-1.0517445	a a n	-0.509018
-1.2388	n a n	-1.1274092
-1.1387143	p a n	-1.0339553
-1.1257592	h a n	-1.3954173
-0.95895636	i a n	-1.6674211
-1.1292299	e a n	-1.0160106
-1.2726101	r a n	-1.5924964
-1.1724223	v a n	-1.1746601
-1.1932337	c a n	-1.2025111
-1.0404776	m a n	-1.8405012
-0.9649976	o a n	-0.65439785
-1.2175435	k a n	-0.7856591
-1.1777347	t a n	-1.3041425
-1.102475	f a n	-0.7736343
-1.2216498	s a n	-1.1807351
-1.1401718	g a n	-1.2236503
-0.7967274	u a n	-0.783325
-0.89492726	y a n	-0.8410335
-1.0996642	w a n	-0.9220862
-1.2007825	d a n	-0.97600615
-1.0326587	b a n	-1.1254283
-1.0398217	q a n	-0.29833382
-0.9504654	j a n	-0.7746809
-1.0578091	z a n	-0.67231584
-1.1727026	x a n	-0.44631147
-1.2891048	a n n	-1.755231
-1.8216505	h n n	-0.29833382
-1.3512725	i n n	-1.3268765
-1.3200337	e n n	-1.4229444
-1.6036533	r n n	-0.2923391
-1.3035296	c n n	-0.29833382
-1.2981257	o n n	-1.3184997
-1.3738227	u n n	-1.1040634
-1.4524295	y n n	-0.6258526
-1.2553878	<w> p n	-0.5913892
-1.5124409	a p n	-0.5035415
-1.4963751	p p n	-0.3892491
-1.8283712	i p n	-0.27319592
-1.4823794	e p n	-0.6583359
-1.6960771	r p n	-0.29833382
-1.6241549	m p n	-0.41529787
-1.750753	s p n	-0.2611524
-2.0311265	u p n	-0.29833382
-1.429395	y p n	-0.7316718
-1.2877523	<w> h n	-0.29833382
-1.071092	a h n	-0.756778
-1.7421894	p h n	-0.29833382
-1.1077996	i h n	-0.3892491
-1.0710889	e h n	-0.80288047
-1.3472713	c h n	-1.2324617
-0.97041863	o h n	-0.7703053
-1.6436689	t h n	-0.58593065
-1.4672282	s h n	-0.809664
-1.6505655	g h n	-0.6559413
-1.0796901	u h n	-0.4436068
-1.277527	z h n	-0.29833382
-1.3842118	<w> i n	-1.6631596
-1.1295353	l i n	-1.8489314
-1.0766945	a i n	-1.3192117
-1.1776462	n i n	-1.4408017
-1.0252753	p i n	-1.2779218
-1.1350077	h i n	-1.3332086
-1.0947151	i i n	-0.27319592
-1.1057177	e i n	-1.2464712
-1.1846236	r i n	-1.7413735
-1.0396367	v i n	-1.2823762
-1.1393902	c i n	-1.1401541
-1.0007746	m i n	-1.5952897
-0.97541976	o i n	-1.0982418
-0.8004492	k i n	-1.506062
-1.1723392	t i n	-1.862639
-1.0171984	f i n	-1.1960377
-1.1019691	s i n	-1.3869141
-1.0475409	g i n	-1.326019
-0.9735612	u i n	-0.94106126
-0.4532177	y i n	-1.9574509
-0.99937105	w i n	-1.2788347
-1.1454229	d i n	-1.6216649
-1.010392	b i n	-1.183506
-0.81609917	q i n	-0.3892491
-0.99117094	j i n	-0.43490368
-0.94982684	z i n	-1.2302364
-1.1431806	x i n	-0.68942946
-1.4060023	<w> e n	-1.2762219
-1.2969053	l e n	-1.3227054
-1.0896257	a e n	-0.28774443
-1.5124882	n e n	-0.97592485
-1.1271241	p e n	-1.1244345
-1.2374282	h e n	-1.131942
-1.1716084	i e n	-1.1358778
-1.200278	e e n	-1.0295589
-1.3140218	r e n	-1.4321692
-1.098613	v e n	-1.2316153
-1.1849505	c e n	-1.23198
-1.0574893	m e n	-1.6158255
-1.1829517	o e n	-0.6220986
-1.029504	k e n	-1.098064
-1.2374476	t e n	-1.3896229
-1.1514589	f e n	-0.8171539
-1.1435297	s e n	-1.3606066
-1.0441673	g e n	-1.2640246
-0.99577606	u e n	-0.80744076
-1.0951039	y e n	-0.47417626
-1.1211636	w e n	-0.79191256
-1.1559185	d e n	-1.3738881
-1.1819283	b e n	-1.0242026
-1.1578639	j e n	-0.6002383
-1.0925281	z e n	-0.716127
-0.8416113	x e n	-0.40242928
-1.3763579	a r n	-1.1560636
-1.5552226	h r n	-0.27934533
-1.4706635	i r n	-0.49168786
-1.3736751	e r n	-1.325718
-1.9778486	c r n	-0.29833382
-1.3392164	o r n	-1.1979135
-1.8669977	t r n	-0.29833382
-1.2976243	u r n	-1.0949011
-1.6353431	y r n	-0.2840314
-1.9687729	d r n	-0.29833382
-1.193769	<w> v n	-0.29833382
-1.447559	a v n	-0.53537714
-1.7688783	i v n	-0.27319592
-2.1020668	e v n	-0.29833382
-1.846837	o v n	-0.27934533
-1.3662281	<w> c n	-0.29833382
-2.1944327	a c n	-0.41529787
-2.1381788	i c n	-0.27319592
-2.0905132	e c n	-0.29833382
-1.8633858	r c n	-0.29833382
-1.7389619	m c n	-0.94045204
-1.3782685	<w> m n	-0.27319592
-1.79009	l m n	-0.29833382
-1.876769	a m n	-0.49004
-1.5793369	i m n	-0.36127496
-1.7105125	e m n	-0.46904883
-1.7216938	r m n	-0.29833382
-1.7519673	o m n	-0.7070854
-1.5773422	u m n	-0.3720653
-1.5218327	y m n	-0.5637435
-1.3989167	<w> o n	-0.5948411
-1.1858139	l o n	-1.2367009
-1.2354482	a o n	-0.36127496
-1.4287109	n o n	-0.9316246
-1.1210495	p o n	-1.049707
-1.2761707	h o n	-1.0786265
-0.9406636	i o n	-2.0540733
-1.0412405	e o n	-0.9403934
-1.2960004	r o n	-1.3482972
-1.2191226	v o n	-0.5398305
-1.1944029	c o n	-1.6126288
-1.0234843	m o n	-1.405724
-1.0777771	o o n	-0.9656973
-1.2044221	k o n	-0.55588883
-1.1045936	t o n	-1.6574025
-1.1644233	f o n	-0.66999286
-0.92945766	s o n	-1.7329174
-1.1968703	g o n	-0.8949374
-0.8233238	u o n	-0.5291592
-0.88099545	y o n	-0.60374045
-1.1489815	w o n	-0.6210011
-1.0891201	d o n	-1.1388125
-1.1591784	b o n	-0.9809348
-1.1778178	j o n	-0.4755534
-0.94385695	z o n	-0.67559606
-0.7390907	x o n	-0.7275268
-1.2553998	<w> k n	-1.3942293
-1.373606	l k n	-0.3892491
-1.861129	a k n	-0.6583359
-1.3177369	n k n	-0.6583359
-1.4114158	p k n	-0.29833382
-1.7894442	i k n	-0.29833382
-1.662477	e k n	-0.2923391
-1.3096677	r k n	-0.5794697
-1.2551012	c k n	-1.01436
-1.9198858	o k n	-0.27319592
-1.3912125	k k n	-0.2611524
-1.4192624	t k n	-0.2611524
-1.2263495	f k n	-0.29833382
-1.5768467	u k n	-0.2611524
-1.2796854	w k n	-0.29833382
-1.3764453	d k n	-0.29833382
-1.4063851	l t n	-0.7316718
-1.5409484	a t n	-0.58593065
-1.4933978	n t n	-0.9690327
-1.6497715	p t n	-0.2611524
-1.4814957	h t n	-0.53371227
-1.4668264	i t n	-0.9141169
-1.4493972	e t n	-0.63505375
-1.4320035	r t n	-1.145124
-1.5782983	c t n	-0.41529787
-1.6737664	o t n	-0.47395688
-1.4435595	t t n	-1.0704904
-1.5473889	f t n	-0.29035914
-1.5816566	s t n	-0.7509769
-1.5366434	u t n	-0.61336935
-1.6343406	d t n	-0.29833382
-1.7586904	a f n	-0.28169277
-1.7687533	n f n	-0.29833382
-1.5915204	p f n	-0.29833382
-2.0899901	i f n	-0.29833382
-1.8273923	e f n	-0.29035914
-1.7715423	o f n	-0.2611524
-1.2564137	f f n	-1.0124984
-1.3773415	u f n	-0.2784397
-1.4291341	<w> s n	-1.3987931
-1.7351477	l s n	-0.2611524
-1.4157399	a s n	-0.63129824
-1.7995517	n s n	-0.5913892
-1.6222908	h s n	-0.29833382
-1.4272875	i s n	-0.82168156
-1.3431644	e s n	-0.80097663
-1.8062825	r s n	-0.29833382
-1.5462055	o s n	-0.5536006
-2.0631206	t s n	-0.29833382
-1.384622	f s n	-0.29833382
-1.3708448	s s n	-1.0292898
-1.8448622	u s n	-0.91851485
-1.9878443	y s n	-0.29833382
-1.5705032	w s n	-0.29833382
-1.8695443	d s n	-0.29833382
-1.3403497	<w> g n	-0.87775517
-1.178262	a g n	-1.3045995
-1.626928	n g n	-0.5794697
-1.0918704	i g n	-1.2306807
-1.2323092	e g n	-0.76304126
-1.2986253	r g n	-0.43965948
-1.411139	o g n	-0.901374
-1.7109848	g g n	-0.2611524
-1.6046484	u g n	-0.27557164
-1.7030879	y g n	-0.29833382
-1.3012252	<w> u n	-1.4693261
-0.9865573	l u n	-1.0232043
-1.1568608	a u n	-0.92079175
-1.1916659	n u n	-0.52540386
-1.0210217	p u n	-0.6592896
-1.1264429	h u n	-0.86602736
-1.2595383	i u n	-0.2830772
-1.2441297	e u n	-0.60721284
-1.1755431	r u n	-0.9240618
-1.0977514	v u n	-0.2611524
-1.3707013	c u n	-0.4576643
-0.82844186	m u n	-0.8717054
-1.1457624	o u n	-1.5566902
-1.0769893	k u n	-0.5112484
-1.1495061	t u n	-0.79256684
-0.97454363	f u n	-0.884186
-1.2152625	s u n	-0.66940176
-1.0743858	g u n	-0.71712595
-1.1854309	u u n	-0.29833382
-0.75687605	y u n	-0.3589636
-1.1051636	w u n	-0.4066315
-1.2477062	d u n	-0.619149
-1.1408788	b u n	-0.7827714
-1.8354943	q u n	-0.29833382
-1.1195676	j u n	-0.704457
-1.2019341	z u n	-0.29353145
-1.2358909	<w> y n	-0.29833382
-0.9231716	l y n	-0.80343086
-1.1678699	a y n	-0.8631979
-1.6842111	n y n	-0.29833382
-1.4734471	p y n	-0.2611524
-1.1694257	h y n	-0.43965948
-1.1772977	e y n	-0.6541453
-1.2641177	r y n	-0.44245183
-1.1283945	v y n	-0.2611524
-1.159532	c y n	-0.35090134
-1.2878927	m y n	-0.26833835
-1.1653396	o y n	-0.5748857
-1.124347	k y n	-0.27015364
-1.1479589	t y n	-0.56920755
-1.2877587	f y n	-0.29833382
-1.0474329	s y n	-0.78577983
-1.1924201	g y n	-0.42456776
-1.0790728	u y n	-0.3892491
-0.7847238	w y n	-0.55331683
-0.89133525	d y n	-1.1706673
-1.4608393	b y n	-0.28738183
-0.8310675	j y n	-0.29833382
-1.0290003	z y n	-0.7871891
-1.2084708	<w> w n	-0.29833382
-1.228689	a w n	-0.7651384
-1.6833258	e w n	-0.29432818
-1.562651	r w n	-0.29833382
-1.1563218	o w n	-1.0276607
-1.3287932	<w> d n	-0.29833382
-1.3182727	l d n	-0.8924191
-1.3119136	a d n	-0.62615126
-1.4943944	n d n	-0.6496695
-1.4473597	i d n	-0.78881407
-1.4377255	e d n	-0.8866223
-1.5273249	r d n	-0.80991864
-1.3918684	o d n	-0.41529787
-1.6936799	s d n	-0.29833382
-1.3643631	u d n	-0.58695006
-1.5198909	y d n	-0.29833382
-1.4249779	w d n	-0.29833382
-1.4040141	b d n	-0.29833382
-1.9863192	a b n	-0.41529787
-1.7000028	i b n	-0.46843034
-1.300199	e b n	-0.59456146
-1.9128366	m b n	-0.29833382
-1.9159381	o b n	-0.29432818
-1.7001247	u b n	-0.2923391
-1.5455756	a j n	-0.29833382
-1.6285641	i j n	-0.29833382
-1.5117925	e j n	-0.2611524
-1.1483911	o j n	-0.3434916
-1.522007	l z n	-0.29833382
-1.7128665	a z n	-0.27934533
-1.7036091	i z n	-0.27319592
-1.5755928	e z n	-0.3892491
-1.7377357	r z n	-0.29833382
-1.789327	c z n	-0.2611524
-1.3369467	o z n	-0.38494647
-1.4133441	t z n	-0.4066315
-1.4548271	s z n	-0.29833382
-1.6503572	u z n	-0.29353145
-1.6399884	i x n	-0.2611524
-1.3927016	e x n	-0.27319592
-1.9479214	o x n	-0.29833382
-1.3874916	</w> <w> p	-2.547114
-1.5206035	l l p	-0.48126513
-1.3606226	a l p	-0.8731383
-1.7969325	i l p	-0.28592002
-1.5812734	e l p	-0.58327127
-1.8266386	r l p	-0.2611524
-1.4800854	o l p	-0.6505114
-1.5728774	u l p	-0.52569664
-2.07667	y l p	-0.2611524
-1.4347795	<w> a p	-1.1646208
-1.4783762	l a p	-0.74876195
-1.5405527	a a p	-0.28169277
-1.3237451	n a p	-0.7005152
-1.3232769	p a p	-0.8588644
-1.7183324	h a p	-0.7318032
-1.951735	i a p	-0.31912515
-1.4893571	e a p	-0.6031736
-1.3894103	r a p	-1.1455426
-1.8103297	v a p	-0.80422246
-1.19908	c a p	-1.1057835
-1.8545772	m a p	-0.3378991
-1.972237	o a p	-0.2830772
-1.9290653	k a p	-0.4221459
-1.398317	t a p	-0.7340298
-1.5055807	s a p	-0.72220427
-1.5507666	g a p	-0.27646586
-1.8455733	y a p	-0.29833382
-1.971375	w a p	-0.32696646
-1.611706	d a p	-0.52015376
-1.9120524	b a p	-0.74068946
-1.8891915	j a p	-0.29353145
-1.4634693	z a p	-0.4419378
-1.8600061	a n p	-0.39176935
-1.8227158	h n p	-0.29833382
-1.8720626	i n p	-0.38494647
-1.8126084	e n p	-0.34245706
-1.6043363	r n p	-0.2784397
-2.2657335	o n p	-0.4740271
-1.7348462	g n p	-0.2611524
-1.922054	u n p	-0.7420821
-1.5987812	w n p	-0.3314218
-1.0955007	a p p	-1.4476124
-0.9504671	i p p	-1.2699274
-1.0416577	e p p	-0.94728714
-1.580922	m p p	-0.5035415
-1.0950149	o p p	-1.1878757
-0.96976686	u p p	-0.9646173
-1.735603	y p p	-0.29833382
-2.396849	c h p	-0.29833382
-1.8492501	t h p	-0.40950114
-2.3006177	s h p	-0.2611524
-2.0763953	g h p	-0.29833382
-1.4023894	<w> i p	-0.28873578
-1.3528436	l i p	-0.9675132
-1.7066218	a i p	-0.28169277
-1.4351616	n i p	-0.6519788
-1.438132	p i p	-0.69475955
-1.5366585	h i p	-1.0665907
-1.527769	e i p	-0.30955458
-1.5917137	r i p	-1.0163212
-1.7779269	v i p	-0.28075227
-1.4487252	c i p	-0.914396
-1.6139123	m i p	-0.29489812
-1.8273528	o i p	-0.2611524
-1.8085929	k i p	-0.48875654
-1.5836244	t i p	-0.7475845
-2.0123363	f i p	-0.2611524
-1.6919994	s i p	-0.5349716
-1.8006102	g i p	-0.29432818
-1.6526322	u i p	-0.4185531
-1.6590061	y i p	-0.29833382
-1.5981694	w i p	-0.5868237
-1.723637	d i p	-0.5941695
-2.055317	b i p	-0.27669922
-1.6920065	j i p	-0.29833382
-1.7540503	z i p	-0.58819926
-1.6854131	x i p	-0.29833382
-1.4240541	<w> e p	-0.84531236
-1.4955058	l e p	-0.6326311
-1.6724173	n e p	-0.48886836
-1.918017	p e p	-0.5847958
-1.7884089	h e p	-0.5334485
-1.6863024	i e p	-0.4179398
-1.2946774	e e p	-1.0046023
-1.4925209	r e p	-1.2199628
-2.0348103	v e p	-0.29833382
-1.303974	c e p	-1.1006578
-1.9295181	m e p	-0.37271267
-1.4348283	o e p	-0.52108943
-1.8807193	k e p	-0.4093029
-1.7739878	t e p	-0.6654349
-2.0077765	f e p	-0.29833382
-1.625237	s e p	-0.6381869
-1.8255103	g e p	-0.36599216
-1.7551451	u e p	-0.32214493
-1.7576824	y e p	-0.29833382
-1.8058131	w e p	-0.29035914
-1.5697457	d e p	-1.086185
-2.1483696	b e p	-0.29833382
-1.8423554	j e p	-0.2611524
-1.626754	z e p	-0.34863955
-1.6799198	a r p	-0.88900733
-1.8936045	i r p	-0.41665694
-1.5556709	e r p	-1.0558918
-1.581336	o r p	-1.0433114
-1.665294	s r p	-0.29833382
-1.8221018	u r p	-0.6170112
-2.2781088	o v p	-0.29833382
-2.554563	a c p	-0.29035914
-1.9767545	r c p	-0.29833382
-1.846221	m c p	-0.5921801
-1.3980385	<w> m p	-0.29833382
-1.2183465	a m p	-1.1132576
-1.1915	i m p	-1.2754256
-1.1529932	e m p	-1.0723034
-1.7493507	r m p	-0.2611524
-1.3748245	o m p	-1.2915639
-1.1318095	u m p	-0.8951206
-1.2406743	y m p	-0.76532596
-1.3993129	<w> o p	-0.9491571
-1.3608893	l o p	-0.79620457
-1.6817453	a o p	-0.29833382
-1.3878015	n o p	-0.5702825
-1.3701375	p o p	-0.7300143
-1.3430458	h o p	-0.79459333
-1.4285063	i o p	-0.39453024
-1.158021	e o p	-0.7723738
-1.4332343	r o p	-1.1828071
-1.8462245	v o p	-0.29833382
-1.4237994	c o p	-0.9250974
-1.5221905	m o p	-0.38401058
-1.2209835	o o p	-0.9429033
-1.4024498	k o p	-0.57234764
-1.2223465	t o p	-0.87151325
-1.9188646	f o p	-0.29833382
-1.3556031	s o p	-0.6369309
-1.4625657	g o p	-0.35295114
-1.4993687	u o p	-0.2611524
-1.6946093	y o p	-0.27319592
-1.6918279	w o p	-0.27319592
-1.6456258	d o p	-0.5083189
-1.8988142	b o p	-0.31475237
-1.7597655	j o p	-0.27319592
-1.5425022	z o p	-0.27934533
-1.2326168	x o p	-0.2923391
-1.6921225	n k p	-0.29833382
-2.1951036	i k p	-0.29833382
-1.68506	r k p	-0.27319592
-1.6028032	c k p	-0.6237192
-2.1657877	o k p	-0.29833382
-2.1505334	s k p	-0.29833382
-2.5343497	a t p	-0.41529787
-2.073201	n t p	-0.29833382
-2.3079433	i t p	-0.27319592
-2.0190706	e t p	-0.26833835
-2.2059484	o t p	-0.26627308
-1.721614	s t p	-0.4463914
-2.1975377	u t p	-0.5341778
-1.9575199	l f p	-0.29833382
-2.0280106	f f p	-0.29833382
-1.3833859	<w> s p	-1.7717487
-1.6113304	l s p	-0.4066315
-1.4394723	a s p	-0.789863
-1.368837	n s p	-1.0262525
-1.5731552	h s p	-0.29833382
-1.5756822	i s p	-1.0059274
-1.336247	e s p	-1.1772623
-1.5129031	r s p	-0.63942206
-1.2911038	c s p	-0.27319592
-1.4747031	m s p	-0.27319592
-1.3729569	o s p	-0.9512567
-1.5342735	k s p	-0.29833382
-1.6188741	t s p	-0.4463914
-1.5851799	f s p	-0.29833382
-1.4542193	s s p	-0.6401676
-1.4888115	g s p	-0.29353145
-1.8166867	u s p	-0.8663703
-1.9286139	y s p	-0.29833382
-1.5147943	w s p	-0.40063393
-1.3017501	d s p	-0.4877841
-2.0938578	a g p	-0.42456776
-1.7284145	n g p	-0.27884197
-2.3778224	i g p	-0.29833382
-1.8450038	g g p	-0.2611524
-1.8064712	d g p	-0.29833382
-1.3350395	<w> u p	-0.7082335
-1.5356938	l u p	-0.42171422
-1.2956642	a u p	-0.4716615
-1.2628211	n u p	-0.41490966
-1.6246386	p u p	-0.4468701
-1.6204154	h u p	-0.39110476
-1.2543632	e u p	-0.5306175
-1.2402158	r u p	-0.7810212
-1.2540908	c u p	-0.61520445
-1.7238628	m u p	-0.27319592
-1.4995841	o u p	-0.828027
-1.0869336	k u p	-0.5762958
-1.2988682	t u p	-0.45520478
-1.22556	s u p	-1.3199804
-1.7352424	g u p	-0.2840314
-1.6665517	y u p	-0.41529787
-1.3783119	w u p	-0.2611524
-1.4122168	d u p	-0.5975874
-1.8171363	b u p	-0.27934533
-1.4746938	j u p	-0.27934533
-1.6512777	z u p	-0.2923391
-1.2546116	x u p	-0.29833382
-1.3142557	<w> y p	-0.29833382
-1.5127659	l y p	-0.5141879
-2.0258863	a y p	-0.34863955
-1.6187978	n y p	-0.29833382
-1.5769267	p y p	-0.29833382
-1.5641322	h y p	-1.0403469
-1.8592988	e y p	-0.27319592
-1.4751931	r y p	-0.56920755
-1.4623482	c y p	-0.4877841
-1.1062757	t y p	-0.88670313
-1.7599312	s y p	-0.37271267
-1.349616	g y p	-0.40063393
-1.701161	u y p	-0.2611524
-1.746201	b y p	-0.35762098
-1.667105	z y p	-0.29833382
-2.253291	a w p	-0.29833382
-2.007143	e w p	-0.29035914
-1.704268	o w p	-0.28021112
-1.7493966	l d p	-0.2611524
-2.1144755	a d p	-0.27319592
-1.8179063	n d p	-0.389636
-2.13767	i d p	-0.26833835
-1.8388664	e d p	-0.2923391
-1.7186154	r d p	-0.27934533
-2.2933512	o d p	-0.26627308
-2.4517705	a b p	-0.29833382
-2.3237727	u b p	-0.32761836
-1.9630438	a z p	-0.29833382
-1.8088909	t z p	-0.2611524
-1.7364036	a x p	-0.2923391
-1.2229896	e x p	-1.262606
-1.6366034	u x p	-0.29833382
-1.4219345	</w> <w> h	-2.4529176
-1.2374042	<w> l h	-0.29833382
-1.3986795	l l h	-0.7383081
-1.7866175	a l h	-0.46843034
-1.5630494	h l h	-0.27646586
-1.6009873	i l h	-0.79981047
-1.5771691	e l h	-0.682174
-1.5645881	r l h	-0.29833382
-1.8801345	o l h	-0.33694616
-1.7001147	u l h	-0.49527
-1.416424	<w> a h	-0.6047631
-1.5092323	l a h	-0.76360315
-1.7680397	a a h	-0.29833382
-1.4964697	n a h	-0.66237503
-1.5423388	p a h	-0.264404
-1.5856693	h a h	-0.38543716
-1.4429975	i a h	-0.6942058
-1.4849298	e a h	-0.43923217
-1.4127755	r a h	-0.7345167
-1.5842797	v a h	-0.28579366
-1.53055	c a h	-0.40567872
-1.5973849	m a h	-0.6558782
-1.5460664	o a h	-0.29353145
-1.39909	k a h	-0.36134502
-1.5896943	t a h	-0.41642028
-1.4499687	f a h	-0.5050305
-1.4999315	s a h	-0.49256235
-1.7205571	g a h	-0.3549113
-1.7375078	u a h	-0.29833382
-1.3448446	y a h	-0.31299907
-1.493459	w a h	-0.49099183
-1.3010515	d a h	-0.8073335
-1.6669229	b a h	-0.4314885
-1.2702054	j a h	-0.39870116
-1.4553297	z a h	-0.44205403
-1.6039628	l n h	-0.29833382
-1.6073688	a n h	-0.73270136
-1.5390759	n n h	-0.29833382
-1.5586586	h n h	-0.2611524
-1.4803696	i n h	-0.9844766
-1.3747315	e n h	-1.1766384
-1.4323517	r n h	-0.63129824
-1.5571202	o n h	-0.52226156
-1.7953124	u n h	-0.58709455
-1.5506594	y n h	-0.2830772
-1.5557419	w n h	-0.27934533
-1.1670824	<w> p h	-1.3521278
-0.9237511	l p h	-0.82623184
-1.2095654	a p h	-1.1289412
-1.2014089	n p h	-0.3434916
-1.5863388	p p h	-0.29833382
-1.1495833	i p h	-0.725337
-1.1063021	e p h	-0.7589068
-1.1673816	r p h	-0.6983528
-0.6448296	c p h	-0.49372458
-1.2241933	m p h	-0.79609704
-1.0457621	o p h	-1.0862691
-1.1271013	t p h	-0.29353145
-1.1080025	s p h	-0.7631858
-1.5552582	u p h	-0.6281312
-0.9142058	y p h	-0.5584668
-1.3623277	d p h	-0.2611524
-1.1137347	x p h	-0.29833382
-1.5661339	c h h	-0.60838777
-2.431465	t h h	-0.4066315
-2.3476639	s h h	-0.29833382
-1.449868	<w> i h	-0.27669922
-1.6997012	l i h	-0.38291436
-2.2193384	a i h	-0.29833382
-1.676342	n i h	-0.5933691
-2.066068	p i h	-0.29833382
-1.8788043	h i h	-0.40950114
-1.504579	i i h	-0.29833382
-1.9956305	e i h	-0.35762098
-1.7174101	r i h	-0.2823215
-2.085794	v i h	-0.29833382
-2.1265533	c i h	-0.29833382
-2.1363597	m i h	-0.4911928
-1.8532536	k i h	-0.29833382
-1.9892359	t i h	-0.27934533
-2.212626	s i h	-0.29833382
-2.0243378	g i h	-0.29833382
-2.038267	w i h	-0.29833382
-2.131561	d i h	-0.29833382
-2.1197	b i h	-0.2830772
-1.7491693	j i h	-0.29833382
-1.4147354	<w> e h	-0.7944736
-1.5257578	l e h	-0.54277796
-1.5527204	a e h	-0.27934533
-1.668811	n e h	-0.5478038
-1.8337071	p e h	-0.27934533
-1.9067407	h e h	-0.2756453
-1.4131681	i e h	-0.45878088
-1.3669775	e e h	-0.52736807
-1.4907147	r e h	-0.8037187
-1.5575862	v e h	-0.38015127
-1.9131751	c e h	-0.3892491
-1.621731	m e h	-0.5745959
-1.1540062	o e h	-0.86018145
-1.4924853	k e h	-0.3860746
-1.7690308	t e h	-0.50463396
-1.8460047	f e h	-0.39986336
-1.5126029	s e h	-0.50784564
-1.5866126	g e h	-0.5173218
-1.440825	u e h	-0.6584505
-1.6638374	y e h	-0.28558305
-1.6606996	w e h	-0.50879025
-1.711505	d e h	-0.48170263
-1.589255	b e h	-0.738302
-1.8304117	j e h	-0.29833382
-1.9869163	z e h	-0.29035914
-1.1832767	<w> r h	-0.9988745
-1.7496879	a r h	-0.5928282
-1.6014872	n r h	-0.29833382
-1.8650203	h r h	-0.2923391
-1.7368658	i r h	-0.40063393
-1.5719525	e r h	-1.1612115
-1.0129242	r r h	-0.39151025
-1.5771852	m r h	-0.29833382
-1.873415	o r h	-0.41529787
-2.1900668	u r h	-0.29035914
-1.6259625	n v h	-0.2611524
-2.1096795	i v h	-0.29833382
-2.1847477	o v h	-0.29833382
-1.119956	<w> c h	-1.942473
-0.9260379	l c h	-0.77611005
-1.003804	a c h	-1.3919928
-1.0875608	n c h	-1.2068776
-0.8680116	p c h	-0.27934533
-0.95347154	h c h	-0.43965948
-0.95959276	i c h	-1.3881351
-0.94086134	e c h	-1.2228806
-1.0113205	r c h	-1.096876
-0.63320875	v c h	-0.29833382
-0.8637682	c c h	-0.9990719
-0.9565961	m c h	-0.61575073
-0.9467443	o c h	-0.9781178
-1.0937481	k c h	-0.29833382
-0.7031307	t c h	-1.2648344
-0.715937	s c h	-1.7425805
-0.8588941	g c h	-0.29833382
-0.82373977	u c h	-1.0765506
-0.8011825	y c h	-0.7726915
-0.8049275	w c h	-0.2784397
-0.8747839	d c h	-0.45453098
-0.85991395	b c h	-0.29833382
-0.6271304	j c h	-0.29833382
-1.1175795	z c h	-0.29833382
-1.072583	x c h	-0.5933691
-1.3972409	<w> m h	-0.29833382
-1.8172195	l m h	-0.29833382
-2.035264	a m h	-0.2830772
-1.7882357	i m h	-0.29035914
-1.9789343	e m h	-0.27319592
-1.748225	r m h	-0.2611524
-2.1948843	o m h	-0.29833382
-1.7844733	u m h	-0.3314218
-1.4168333	<w> o h	-0.5759503
-1.5264902	l o h	-0.45917967
-1.3983753	a o h	-0.27934533
-1.7350674	n o h	-0.32731274
-1.858509	p o h	-0.42409632
-1.9571239	h o h	-0.3320704
-2.0812142	i o h	-0.2611524
-1.8070939	e o h	-0.29833382
-1.5608498	r o h	-0.66651684
-1.8694382	v o h	-0.29833382
-1.7313067	c o h	-0.6943093
-1.9106234	m o h	-0.45813155
-1.5010728	o o h	-0.28456235
-1.790939	k o h	-0.5357413
-1.8308942	t o h	-0.27669922
-1.7711555	f o h	-0.2611524
-1.5391624	s o h	-0.5286322
-2.0132086	g o h	-0.28558305
-1.707239	u o h	-0.29833382
-1.3819401	y o h	-0.2953261
-1.6207345	w o h	-0.7316718
-1.9586898	d o h	-0.32145268
-1.789761	b o h	-0.62840384
-1.269666	j o h	-1.0145931
-1.2823577	<w> k h	-0.6979189
-1.3947672	l k h	-0.26833835
-1.3042767	a k h	-0.40063393
-1.3359393	n k h	-0.51484984
-1.3895003	i k h	-0.3420233
-1.6859491	e k h	-0.27319592
-1.2282491	r k h	-0.5201478
-1.3340976	c k h	-1.0285568
-1.4200644	m k h	-0.29833382
-1.2948424	o k h	-0.37337586
-1.4149535	k k h	-0.29833382
-1.4528818	u k h	-0.41926688
-1.6930829	y k h	-0.29833382
-1.2646244	b k h	-0.29035914
-1.2251233	<w> t h	-1.700433
-1.172066	l t h	-0.5913656
-1.199117	a t h	-1.2992146
-1.2603494	n t h	-1.1091838
-1.4843487	p t h	-0.2830772
-1.3160584	h t h	-0.62015516
-1.2062721	i t h	-0.9284198
-1.1501672	e t h	-1.1905253
-1.2747451	r t h	-1.161763
-0.89555484	v t h	-0.29833382
-1.6741935	c t h	-0.29833382
-1.06028	m t h	-0.29833382
-1.080878	o t h	-1.0958282
-1.0984164	k t h	-0.27934533
-1.2092278	t t h	-0.5148232
-1.0569359	f t h	-0.28716925
-1.4718983	s t h	-0.7777213
-1.1550698	g t h	-0.4282696
-1.160616	u t h	-1.0302675
-0.6487201	y t h	-0.5991256
-0.9526348	w t h	-0.48085445
-0.88849604	d t h	-0.37271267
-1.295049	b t h	-0.2611524
-1.3702003	x t h	-0.29833382
-1.8390659	l f h	-0.29833382
-1.8975211	a f h	-0.27319592
-2.1542556	i f h	-0.29833382
-1.738658	r f h	-0.29833382
-1.6650517	f f h	-0.29035914
-1.9229472	u f h	-0.27319592
-1.341119	<w> s h	-1.9171977
-1.2756504	l s h	-0.51809704
-1.2257265	a s h	-1.1202445
-1.2284513	n s h	-1.0690045
-1.0578895	p s h	-0.41869012
-1.2309449	h s h	-0.27884197
-1.2255175	i s h	-1.4669659
-1.2597916	e s h	-1.0254172
-1.2611139	r s h	-1.0053235
-1.3106574	v s h	-0.29833382
-1.1639701	c s h	-0.35762098
-1.3093357	m s h	-0.40950114
-1.1794024	o s h	-1.1040634
-1.1173788	k s h	-0.70253956
-1.2890148	t s h	-0.71706516
-1.2323881	f s h	-0.29353145
-1.4296887	s s h	-0.42456776
-1.2259218	g s h	-0.48993146
-1.1986661	u s h	-0.8846525
-1.3105384	y s h	-0.2923391
-1.202532	w s h	-0.39561012
-1.2017086	d s h	-0.7383081
-1.1883082	b s h	-0.2840314
-1.2964753	x s h	-0.29833382
-1.2906048	<w> g h	-0.80097663
-1.128506	l g h	-0.29833382
-1.3128265	a g h	-0.61256623
-1.2861196	n g h	-1.0048885
-1.1602126	i g h	-1.4070127
-1.304187	e g h	-0.31390834
-1.2703048	r g h	-0.56879854
-1.1988591	c g h	-0.29833382
-1.296976	o g h	-0.31134492
-0.9886948	f g h	-0.5913892
-1.6472743	g g h	-0.2611524
-1.2052228	u g h	-1.3141999
-1.4079822	d g h	-0.29833382
-1.3260477	<w> u h	-0.53537714
-1.7048922	l u h	-0.32482257
-1.9711756	a u h	-0.27934533
-1.71415	n u h	-0.29833382
-1.6152277	p u h	-0.2611524
-1.6139439	h u h	-0.27884197
-1.8213221	e u h	-0.53537714
-1.5361779	r u h	-0.39920402
-1.7837818	c u h	-0.29833382
-1.7148254	m u h	-0.46843034
-1.7524501	o u h	-0.28169277
-1.4483076	k u h	-0.54119253
-1.7314548	t u h	-0.2830772
-1.6587021	f u h	-0.53537714
-1.7140443	s u h	-0.28075227
-1.894008	g u h	-0.29833382
-1.3594477	y u h	-0.2923391
-1.369315	w u h	-0.29833382
-1.8656878	d u h	-0.29432818
-1.7292057	b u h	-0.4463914
-1.858983	q u h	-0.29035914
-1.6394517	j u h	-0.26833835
-1.4531622	z u h	-0.29833382
-1.8492638	l y h	-0.4664504
-1.4960749	a y h	-0.43229657
-1.6300331	n y h	-0.27934533
-1.5910857	p y h	-0.29833382
-1.5261354	e y h	-0.2923391
-2.0727532	r y h	-0.29833382
-1.466061	v y h	-0.29833382
-1.4714847	c y h	-0.27319592
-1.6863205	m y h	-0.27319592
-1.8710845	o y h	-0.29833382
-1.6729397	k y h	-0.27934533
-1.8323474	t y h	-0.29833382
-1.3753281	w y h	-0.2611524
-1.4427613	b y h	-0.27319592
-1.0676783	<w> w h	-1.6649814
-1.5120902	l w h	-0.29833382
-1.3182249	a w h	-0.37171254
-1.2863722	n w h	-0.2923391
-0.9849957	h w h	-0.35762098
-1.3865426	e w h	-0.36510128
-1.3793166	r w h	-0.59456146
-1.112188	c w h	-0.37271267
-1.5571456	o w h	-0.4283318
-1.4533527	k w h	-0.29833382
-1.4766461	t w h	-0.27319592
-1.7613094	s w h	-0.29833382
-1.1824661	y w h	-0.29035914
-1.6151847	d w h	-0.29833382
-1.3429824	<w> d h	-0.4264968
-1.4324245	l d h	-0.5031924
-1.4928684	a d h	-0.5929724
-1.4022533	n d h	-0.6925402
-1.8233236	i d h	-0.3892491
-1.7913845	e d h	-0.3892491
-1.4044718	r d h	-0.37978128
-1.5094812	o d h	-0.40063393
-1.8782735	u d h	-0.27934533
-1.7589312	y d h	-0.29833382
-1.440459	w d h	-0.29833382
-1.4601859	d d h	-0.2784397
-1.2065061	<w> b h	-0.4625569
-1.6048802	a b h	-0.51220787
-2.1892617	i b h	-0.29833382
-2.0220697	e b h	-0.2923391
-1.8813475	m b h	-0.29833382
-2.2038147	o b h	-0.29833382
-1.5730842	u b h	-0.28738183
-1.2259291	<w> j h	-0.27319592
-1.2065829	<w> z h	-0.32958677
-1.2569497	l z h	-0.29035914
-1.7441866	a z h	-0.2611524
-1.2687988	n z h	-0.2830772
-1.7482477	i z h	-0.29833382
-1.6199211	e z h	-0.29833382
-1.4814771	r z h	-0.29833382
-1.3774598	t z h	-0.45778403
-1.6025838	s z h	-0.29833382
-0.5638889	g z h	-0.29833382
-1.605367	u z h	-0.29833382
-1.2659801	y z h	-0.29833382
-1.4382845	d z h	-0.29833382
-1.1283405	<w> x h	-0.29833382
-1.8513731	a x h	-0.29833382
-1.4626508	e x h	-0.7452258
-1.6280801	o x h	-0.2923391
-1.2943034	u x h	-0.29833382
-1.3866334	</w> <w> i	-1.9012091
-1.0816637	<w> l i	-1.4570909
-1.2029191	l l i	-1.5002309
-1.2004989	a l i	-1.4751784
-0.77876604	n l i	-0.64520407
-0.86421925	p l i	-1.1636302
-0.93950444	h l i	-0.82205504
-1.1307884	i l i	-1.3637786
-1.2202462	e l i	-1.2631721
-0.8809457	r l i	-1.14732
-0.58546257	v l i	-0.58703434
-0.7060482	c l i	-1.004699
-0.82120645	m l i	-0.7275268
-1.1364291	o l i	-1.2854265
-0.78323275	k l i	-0.9415562
-0.7892209	t l i	-1.0204595
-0.83123434	f l i	-0.93742377
-0.7438192	s l i	-0.8955573
-0.80129737	g l i	-1.0331278
-1.097523	u l i	-0.7948693
-0.9627889	y l i	-0.60664135
-1.0051407	w l i	-0.68394434
-0.7889581	d l i	-1.0358996
-0.8493392	b l i	-1.0097737
-0.5443038	j l i	-0.29833382
-0.6974983	z l i	-0.53704673
-0.80883247	x l i	-0.2611524
-1.4160277	<w> a i	-0.99139017
-1.3583522	l a i	-1.0396862
-1.9506422	a a i	-0.29833382
-1.320461	n a i	-0.77000535
-1.4745989	p a i	-0.8797425
-1.3751945	h a i	-0.864532
-1.5543417	i a i	-0.27934533
-2.228178	e a i	-0.29833382
-1.3382668	r a i	-1.1851733
-1.3341413	v a i	-0.7446368
-1.4198587	c a i	-0.516856
-1.2365247	m a i	-0.97096276
-1.7742522	o a i	-0.29833382
-1.347212	k a i	-0.47191983
-1.2050861	t a i	-1.1392937
-1.3805797	f a i	-0.9527916
-1.3601472	s a i	-0.6848141
-1.278228	g a i	-0.8166862
-1.6516747	u a i	-0.4740271
-1.255028	w a i	-0.7303736
-1.3804989	d a i	-0.6275275
-1.5172572	b a i	-0.6822993
-1.6911167	j a i	-0.43204808
-1.5582182	z a i	-0.4286644
-1.5132779	x a i	-0.29833382
-1.0553272	<w> n i	-1.1160219
-0.7832766	l n i	-0.45356366
-1.2421095	a n i	-1.3789456
-0.9336423	n n i	-1.0760169
-0.7495022	p n i	-0.37271267
-0.901851	h n i	-0.661668
-1.2514038	i n i	-1.2712209
-1.2718005	e n i	-1.1457831
-1.2195754	r n i	-0.94619364
-0.80293393	v n i	-0.29035914
-0.79125476	c n i	-0.4553601
-1.0110071	m n i	-0.3422032
-1.1863947	o n i	-1.4276723
-0.9937343	k n i	-0.696818
-0.73180676	t n i	-0.554479
-1.1898471	f n i	-0.29833382
-0.8286226	s n i	-0.6592058
-0.9776595	g n i	-0.90578955
-1.1451638	u n i	-0.966029
-0.9548235	y n i	-0.36368766
-1.0998114	w n i	-0.7509769
-0.8255644	d n i	-0.44762796
-0.9721929	b n i	-0.29833382
-0.8143613	j n i	-0.29833382
-0.74828756	z n i	-0.51220787
-0.9792569	x n i	-0.29833382
-1.123253	<w> p i	-1.3417584
-0.99246794	l p i	-0.6747816
-1.085686	a p i	-0.90317225
-1.2677873	n p i	-0.27934533
-1.0528382	p p i	-1.0445752
-0.6922028	h p i	-0.26833835
-1.2120832	i p i	-0.6399913
-1.0946472	e p i	-0.8352181
-1.0407821	r p i	-0.63886774
-0.932178	c p i	-0.29833382
-1.0595319	m p i	-0.7815236
-1.1128259	o p i	-0.87396836
-1.1058699	k p i	-0.35762098
-0.9984047	t p i	-0.2784397
-0.8801931	s p i	-1.0712969
-0.8227781	g p i	-0.28287125
-1.0811545	u p i	-0.63442373
-1.3079821	y p i	-0.47395688
-0.9855705	w p i	-0.27319592
-1.1021035	d p i	-0.2611524
-0.81407785	x p i	-0.6359541
-1.1288851	<w> h i	-1.2958201
-0.91745925	l h i	-0.27884197
-1.0986023	a h i	-0.4810711
-0.7844844	n h i	-0.55950916
-0.8583964	p h i	-1.1290886
-1.0334933	h h i	-0.5913892
-0.96731657	i h i	-0.45452553
-1.1071529	e h i	-0.36222392
-0.9094088	r h i	-0.4974426
-0.99519664	c h i	-1.3875309
-1.2601402	m h i	-0.29833382
-1.1273248	o h i	-0.46616668
-1.1296701	k h i	-0.28558305
-1.1804476	t h i	-1.0953735
-1.0323454	f h i	-0.29833382
-0.8654221	s h i	-1.2729176
-0.9492501	g h i	-0.54911745
-1.2724488	u h i	-0.2840314
-1.1020955	y h i	-0.27319592
-0.56625795	w h i	-1.0915511
-0.90273875	d h i	-0.38015127
-0.9953188	b h i	-0.29833382
-0.5382994	j h i	-0.29833382
-0.8219852	z h i	-0.27669922
-1.1103882	x h i	-0.6583359
-1.4918817	<w> i i	-0.29833382
-2.0962434	a i i	-0.27934533
-2.0320694	n i i	-0.27319592
-2.1842046	h i i	-0.27934533
-2.1197982	e i i	-0.2611524
-2.2255633	r i i	-0.29833382
-2.1869178	c i i	-0.29833382
-2.1973352	m i i	-0.29833382
-1.892521	k i i	-0.29833382
-2.2903042	t i i	-0.2611524
-2.082643	g i i	-0.2611524
-1.7402328	y i i	-0.29833382
-2.0966537	w i i	-0.29833382
-2.0133233	d i i	-0.29833382
-1.8008964	j i i	-0.29833382
-1.7942604	x i i	-0.29833382
-1.4232416	<w> e i	-0.83216476
-1.411028	l e i	-0.94697726
-1.4380187	n e i	-0.66067404
-1.5324566	p e i	-0.2944999
-1.1312915	h e i	-1.1317942
-2.0046906	i e i	-0.27934533
-1.640839	e e i	-0.80422246
-1.4080431	r e i	-1.2167754
-1.2973166	v e i	-0.6021422
-1.712612	c e i	-0.8912236
-1.1717457	m e i	-0.86177564
-1.6469634	o e i	-0.43965948
-1.5643864	k e i	-0.44747508
-1.6266547	t e i	-1.1487137
-1.393533	f e i	-0.7432922
-1.4690803	s e i	-0.6304683
-1.5084916	g e i	-0.52421355
-1.4433767	u e i	-0.3549113
-1.6699018	y e i	-0.26833835
-1.060039	w e i	-1.0140989
-1.4600177	d e i	-0.49560505
-1.2831582	b e i	-0.6259496
-1.7605792	z e i	-0.37678546
-1.4066327	x e i	-0.27319592
-1.0610567	<w> r i	-1.3275663
-0.7299124	l r i	-0.48403907
-1.2745169	a r i	-1.4716777
-0.6810614	n r i	-0.6058386
-0.67608553	p r i	-1.2028522
-0.8685236	h r i	-0.98445946
-1.0475569	i r i	-0.8276925
-1.27573	e r i	-1.5320041
-0.96237254	r r i	-1.2455693
-0.9173482	v r i	-0.27646586
-0.85081506	c r i	-1.1655482
-0.82079613	m r i	-0.43829894
-1.2164198	o r i	-1.3603755
-0.7866789	k r i	-0.6645176
-0.81736195	t r i	-1.379036
-0.655788	f r i	-1.0090083
-0.9671878	s r i	-0.3922361
-0.8771394	g r i	-1.0138049
-1.1636907	u r i	-1.1361955
-0.7911755	y r i	-0.55557424
-0.367855	w r i	-1.0365
-0.74629945	d r i	-0.9577379
-0.70449436	b r i	-1.2290939
-0.90503466	<w> v i	-1.3265052
-0.6352253	l v i	-0.7005152
-0.7939283	a v i	-1.1105077
-0.8333743	n v i	-0.8657464
-0.30017042	h v i	-0.4389333
-0.6618563	i v i	-1.0881194
-0.7814427	e v i	-1.1799455
-0.65890896	r v i	-0.95742965
-0.51756096	v v i	-0.2923391
-0.57932687	c v i	-0.2923391
-0.64010537	m v i	-0.29833382
-0.74680406	o v i	-1.118868
-0.56575906	k v i	-0.29353145
-0.44577956	t v i	-0.40950114
-0.22021966	s v i	-1.174345
-0.7199093	g v i	-0.29833382
-0.6854152	u v i	-0.5017066
-0.47438633	y v i	-0.4976514
-0.64010537	w v i	-0.29833382
-0.5555258	d v i	-0.5986827
-0.7759368	b v i	-0.35762098
-0.18369868	q v i	-0.29833382
-0.57932687	z v i	-0.29833382
-0.18369868	x v i	-0.2611524
-1.1720135	<w> c i	-0.9883576
-1.2716037	l c i	-0.33397183
-1.1444473	a c i	-1.064766
-1.1106464	n c i	-1.0495025
-1.248975	p c i	-0.29833382
-1.0669832	i c i	-1.2439709
-1.1918194	e c i	-0.8808006
-1.2109377	r c i	-0.7538684
-0.6461448	v c i	-0.29833382
-0.9672811	c c i	-1.1300431
-1.2114897	m c i	-0.6381869
-1.1609464	o c i	-0.7235825
-1.5608375	t c i	-0.29833382
-1.0173187	f c i	-0.29833382
-1.1945418	s c i	-0.86014307
-1.0898055	u c i	-0.6680282
-1.5176762	y c i	-0.2611524
-0.5140002	j c i	-0.27669922
-1.1595156	z c i	-0.29833382
-1.1153618	x c i	-0.7016639
-1.1858565	<w> m i	-1.66716
-1.1136918	l m i	-0.5667926
-1.0736363	a m i	-1.145498
-0.7250529	n m i	-0.31647113
-1.0071378	h m i	-0.5865061
-1.1226629	i m i	-1.0297083
-1.0933563	e m i	-1.0923054
-0.96110886	r m i	-1.1297432
-0.9136572	c m i	-0.5603348
-1.02747	m m i	-1.0299035
-0.961926	o m i	-1.1702596
-1.2199173	k m i	-0.26833835
-0.93743205	t m i	-0.33402377
-0.66314274	s m i	-0.9551753
-0.8255342	g m i	-0.3420233
-1.0695019	u m i	-0.835841
-1.016536	y m i	-0.34509838
-1.150378	w m i	-0.2611524
-0.842309	d m i	-0.8929132
-1.172735	b m i	-0.4877841
-0.7841627	z m i	-0.3420233
-0.9344575	x m i	-0.29833382
-1.4073788	<w> o i	-0.72029686
-1.4200044	l o i	-0.75198436
-1.4892166	a o i	-0.51220787
-1.5274094	n o i	-0.5628253
-1.1804513	p o i	-1.0321786
-1.5793811	h o i	-0.47160575
-2.0686953	i o i	-0.2611524
-1.7985874	e o i	-0.27934533
-1.4922514	r o i	-0.6876845
-1.2217362	v o i	-0.5969682
-1.5226945	c o i	-0.6732641
-1.8273603	m o i	-0.58593065
-1.6502937	o o i	-0.33694616
-1.7831675	k o i	-0.29833382
-1.3485059	t o i	-0.4517507
-1.5404371	f o i	-0.516369
-1.6151438	s o i	-0.42677796
-1.3387711	g o i	-0.7004864
-1.5055473	u o i	-0.26833835
-1.8654591	y o i	-0.29833382
-1.8683969	w o i	-0.29833382
-1.3925357	d o i	-0.66702217
-1.3898026	b o i	-0.66443443
-1.1806152	j o i	-0.8225078
-1.5484036	z o i	-0.28169277
-1.1612879	<w> k i	-1.2942071
-0.9435291	l k i	-0.9525479
-0.85613036	a k i	-0.9881875
-1.16591	n k i	-1.0052913
-0.8372562	p k i	-1.2603959
-0.99681854	h k i	-0.40063393
-0.9520077	i k i	-0.6881609
-0.95733017	e k i	-0.7123538
-1.1573526	r k i	-0.988794
-0.7987287	v k i	-0.2611524
-1.2123306	c k i	-1.2630689
-0.7006429	m k i	-0.7694603
-0.95954514	o k i	-0.88427466
-0.6062058	k k i	-0.40950114
-0.76837754	t k i	-0.7225138
-0.7963042	f k i	-0.51220787
-0.7157225	s k i	-1.602057
-0.7987287	g k i	-0.2923391
-0.9934889	u k i	-0.61430097
-0.9357089	y k i	-0.4825597
-0.976704	w k i	-0.5035415
-0.5696524	d k i	-0.6744059
-0.8197845	b k i	-0.51220787
-0.8420291	z k i	-0.27934533
-1.2247438	<w> t i	-1.2056348
-1.1718848	l t i	-0.8828057
-1.1602049	a t i	-1.8800659
-1.2601434	n t i	-1.355153
-0.97110534	p t i	-1.0167558
-1.0721377	h t i	-0.64207375
-1.2062083	i t i	-1.3855145
-1.2096196	e t i	-1.1359843
-1.1982379	r t i	-1.1883717
-0.9461257	c t i	-1.4975615
-1.100715	o t i	-0.96096146
-1.4362228	k t i	-0.26833835
-1.0851115	t t i	-1.284925
-1.0567921	f t i	-0.6548486
-1.1001083	s t i	-1.5322868
-1.0522646	g t i	-0.3892491
-1.1605426	u t i	-1.0991148
-1.0119636	y t i	-0.55558056
-1.2097863	w t i	-0.29833382
-1.3299731	d t i	-0.29035914
-1.2946451	b t i	-0.2923391
-0.8186265	j t i	-0.29833382
-1.1728761	z t i	-0.29833382
-1.1577636	x t i	-0.4940909
-1.0431751	<w> f i	-1.3646855
-0.9447816	l f i	-0.6613022
-1.1062269	a f i	-0.5238648
-0.88978994	n f i	-1.011212
-1.1025592	p f i	-0.2774236
-0.6469338	h f i	-0.7535871
-0.9682949	i f i	-1.3530778
-0.9794225	e f i	-0.9005847
-0.9801508	r f i	-0.76145124
-0.66672856	m f i	-0.41210797
-1.0119765	o f i	-0.63213736
-0.47904107	k f i	-0.5913892
-0.8387455	t f i	-0.5173218
-1.1577739	f f i	-1.0381867
-0.82980794	s f i	-0.61043864
-0.6753603	g f i	-0.56076884
-1.4531198	u f i	-0.27319592
-0.77820444	y f i	-0.6496695
-0.6979262	w f i	-0.36127496
-0.7458606	d f i	-0.5638545
-0.7082296	x f i	-0.29833382
-1.3212239	<w> s i	-1.3927869
-1.2674934	l s i	-0.49648708
-1.2030907	a s i	-0.98394334
-1.2775868	n s i	-1.077018
-0.9999548	p s i	-0.41617674
-1.0693896	h s i	-0.28579366
-1.2223567	i s i	-1.1161102
-1.2360708	e s i	-1.0108731
-1.2507814	r s i	-0.7433391
-1.2958127	v s i	-0.29833382
-1.1550053	c s i	-0.2830772
-1.4306765	m s i	-0.2840314
-1.1358285	o s i	-1.0559981
-1.111238	k s i	-0.4283318
-1.1865114	t s i	-0.47676337
-1.3189616	f s i	-0.2611524
-1.2435147	s s i	-1.3329216
-1.6080819	g s i	-0.2611524
-1.1449169	u s i	-1.0277615
-1.1230046	y s i	-0.64684606
-1.2736026	w s i	-0.3892491
-1.2755576	d s i	-0.48731923
-1.0709039	b s i	-0.7611526
-0.7185036	j s i	-0.29833382
-1.1969932	z s i	-0.2611524
-1.0183719	x s i	-0.29833382
-1.245393	<w> g i	-1.2485267
-0.9973659	l g i	-0.3813648
-1.0975964	a g i	-0.9682892
-1.2618985	n g i	-0.9085528
-1.2412238	i g i	-0.7752841
-1.2137511	e g i	-0.79560655
-1.1438397	r g i	-0.8614824
-1.1643076	c g i	-0.58124113
-1.2852962	o g i	-1.1318972
-1.1104724	s g i	-0.51220787
-0.9820462	g g i	-1.1148652
-1.0676771	u g i	-0.45095736
-0.95566326	y g i	-0.4697245
-0.8931691	w g i	-0.3892491
-1.0361911	d g i	-0.93029505
-0.80154717	z g i	-0.27319592
-1.3342558	<w> u i	-0.29833382
-1.4684081	l u i	-0.46043032
-1.8494456	a u i	-0.27934533
-1.5137589	n u i	-0.5064111
-1.5407383	p u i	-0.27934533
-1.3714582	h u i	-0.4066315
-1.6187758	e u i	-0.2923391
-1.3856815	r u i	-0.8237391
-1.3784219	v u i	-0.29833382
-1.3846303	c u i	-0.5928282
-1.7230752	m u i	-0.28169277
-1.4532394	o u i	-0.71284056
-1.5879344	k u i	-0.2830772
-1.4264312	t u i	-0.82501036
-1.13647	s u i	-0.81835073
-1.0389807	g u i	-1.0159116
-1.6655239	y u i	-0.27319592
-1.5131481	d u i	-0.29115006
-1.4194157	b u i	-0.7581453
-0.5369452	q u i	-1.1542813
-1.4739329	j u i	-0.53537714
-1.6501856	z u i	-0.29833382
-1.2727064	<w> y i	-0.36127496
-1.2824814	l y i	-1.052007
-1.3792998	a y i	-1.0621827
-1.1615177	n y i	-0.4306418
-1.2105459	p y i	-0.41529787
-1.4349551	h y i	-0.29833382
-1.2868778	e y i	-0.6430533
-1.2768811	r y i	-1.1556606
-1.1466367	v y i	-0.2611524
-1.2222126	o y i	-0.74068946
-1.3539727	t y i	-0.41529787
-0.8998047	f y i	-1.503434
-1.217189	g y i	-0.29035914
-1.640093	u y i	-0.29833382
-0.7362864	y y i	-0.29833382
-1.0645772	d y i	-0.5933691
-1.4037799	b y i	-0.42456776
-0.8437363	j y i	-0.29833382
-1.4071218	z y i	-0.2611524
-0.98256767	<w> w i	-1.5238658
-0.65687025	l w i	-0.5033442
-1.0989878	a w i	-0.6018238
-0.7321786	n w i	-0.49146843
-1.1601968	p w i	-0.29833382
-0.9353132	h w i	-0.46367067
-1.0658091	i w i	-0.27669922
-0.8722372	e w i	-0.8792634
-0.7457508	r w i	-0.7397488
-0.6997084	c w i	-0.29148948
-0.68664706	m w i	-0.2830772
-1.0406934	o w i	-1.2023077
-0.91543555	k w i	-0.33834177
-0.6686968	t w i	-0.84912187
-0.5216328	f w i	-0.2611524
-0.71178824	s w i	-0.7521723
-0.80896807	g w i	-0.31475237
-1.2702063	u w i	-0.29833382
-0.6548245	y w i	-0.4372781
-0.7127692	d w i	-0.7539606
-0.72028005	z w i	-0.33254272
-1.2179706	<w> d i	-1.6400962
-1.2575216	l d i	-1.0350485
-1.1275856	a d i	-1.0753857
-1.1943177	n d i	-1.1933789
-1.2253618	p d i	-0.29833382
-0.85456187	h d i	-0.27934533
-1.0571786	i d i	-0.9265414
-1.0996292	e d i	-1.1233023
-1.1547892	r d i	-1.1144202
-0.91766506	c d i	-0.2611524
-0.979813	m d i	-0.29833382
-0.98234665	o d i	-0.8795728
-0.9951738	t d i	-0.37271267
-0.8807683	f d i	-0.29833382
-1.2520014	s d i	-0.36510128
-1.1347436	g d i	-0.27934533
-1.0886934	u d i	-0.9481008
-0.88207203	y d i	-0.27722397
-1.1046543	w d i	-0.41926688
-1.031146	d d i	-0.9909333
-0.6819073	b d i	-0.45005995
-1.0976124	z d i	-0.29833382
-1.0522038	<w> b i	-1.3250358
-1.1829233	l b i	-0.40365243
-0.9745159	a b i	-1.0215601
-0.9092845	n b i	-0.33834177
-1.077369	h b i	-0.29432818
-1.0081702	i b i	-0.8943739
-1.1701843	e b i	-0.41767234
-1.0484989	r b i	-0.84556794
-1.0224748	c b i	-0.29833382
-1.009772	m b i	-0.74442863
-0.9672673	o b i	-0.9278316
-0.9040881	k b i	-0.27067143
-0.9323915	t b i	-0.31336018
-1.2129765	s b i	-0.37858972
-1.0450507	g b i	-0.4697245
-0.9614016	u b i	-0.71663857
-1.0056844	y b i	-0.38015127
-1.0106053	w b i	-0.2830772
-1.1004165	d b i	-0.3314218
-0.97126794	b b i	-0.99596643
-1.0000149	z b i	-0.28558305
-0.75662553	<w> q i	-0.3434916
-1.4575386	a q i	-0.29833382
-1.2898986	i q i	-0.29833382
-1.0884587	s q i	-0.29833382
-0.6797181	g q i	-0.29833382
-0.9658129	<w> j i	-0.60205513
-0.8493626	l j i	-0.2611524
-0.7805847	a j i	-0.339742
-0.67688173	n j i	-0.4066315
-0.6179222	h j i	-0.29833382
-1.092884	i j i	-0.38257432
-1.2218274	e j i	-0.3892491
-0.895013	r j i	-0.29833382
-0.7890193	o j i	-0.27015364
-1.0087261	k j i	-0.29833382
-0.818397	g j i	-0.29833382
-0.64938223	u j i	-0.3190536
-0.5964458	d j i	-0.29432818
-1.1022394	<w> z i	-0.83387494
-1.0874614	l z i	-0.29432818
-0.85650676	a z i	-0.7619237
-0.96279126	n z i	-0.64996654
-0.2709947	p z i	-0.29833382
-0.96375513	i z i	-1.3401567
-0.94746697	e z i	-0.4638357
-1.0844449	r z i	-0.3377699
-0.2709947	v z i	-0.29833382
-1.619179	c z i	-0.29833382
-1.0057244	m z i	-0.29833382
-0.8593246	o z i	-0.5987931
-1.0856978	t z i	-0.61021775
-0.34284878	f z i	-0.29035914
-1.4616051	s z i	-0.2611524
-0.91611385	u z i	-0.33834177
-1.1796913	y z i	-0.29035914
-0.532369	d z i	-0.56556606
-0.7776311	b z i	-0.29833382
-0.8867387	z z i	-0.8852203
-0.2709947	x z i	-0.29833382
-1.0011027	<w> x i	-0.43965948
-0.92905384	a x i	-0.50006664
-0.7338567	n x i	-0.26627308
-0.9216538	i x i	-0.43204808
-0.9448426	e x i	-0.654093
-0.9901917	r x i	-0.29035914
-0.7988392	o x i	-0.78707117
-0.27002177	g x i	-0.29833382
-0.9430302	u x i	-0.28738183
-0.7047964	y x i	-0.3892491
-0.8544663	x x i	-0.29833382
-1.4041485	</w> <w> e	-1.98135
-1.0897526	<w> l e	-1.4484413
-1.1502377	l l e	-1.5660688
-1.238317	a l e	-1.2353369
-0.7166037	n l e	-0.8310573
-0.7887914	p l e	-1.1896794
-0.85643846	h l e	-0.991467
-1.1325698	i l e	-1.1761675
-1.2220458	e l e	-1.2557292
-0.883923	r l e	-1.0667853
-0.7558676	v l e	-0.38015127
-0.80887794	c l e	-1.069535
-0.62721103	m l e	-0.8481126
-1.1382351	o l e	-1.0728164
-0.7405107	k l e	-1.1187732
-0.6955501	t l e	-1.2701845
-0.7213248	f l e	-0.94724834
-0.5613045	s l e	-1.1360042
-0.7627108	g l e	-1.2256367
-1.0995839	u l e	-0.8601158
-0.81397045	y l e	-0.9471858
-1.0113715	w l e	-0.9157374
-0.7903871	d l e	-1.1980492
-0.7745464	b l e	-1.5921845
-0.55793333	z l e	-0.8464596
-0.2680017	x l e	-0.64764786
-1.4436231	<w> a e	-0.95452976
-1.5953523	l a e	-0.3411447
-1.6613486	n a e	-0.28652135
-1.871258	p a e	-0.28579366
-1.7221781	h a e	-0.5071887
-2.0414765	i a e	-0.29833382
-2.266099	e a e	-0.29833382
-1.5082546	r a e	-0.44665325
-1.6007708	v a e	-0.2830772
-2.010868	c a e	-0.41926688
-1.6071802	m a e	-0.43142873
-1.7226219	k a e	-0.3549113
-1.9800369	t a e	-0.2844422
-1.5448532	f a e	-0.34863955
-2.0379453	s a e	-0.2830772
-1.6366206	g a e	-0.38705683
-2.0332482	y a e	-0.29833382
-1.8976192	w a e	-0.26833835
-1.932106	d a e	-0.27934533
-2.0009737	b a e	-0.28295046
-1.9007764	j a e	-0.29432818
-1.972532	z a e	-0.29833382
-1.0556589	<w> n e	-1.2873588
-0.7833843	l n e	-0.9676912
-1.2421856	a n e	-1.1670673
-0.9337754	n n e	-1.2866285
-0.38374683	p n e	-0.61593056
-0.763979	h n e	-0.95386505
-1.2159117	i n e	-1.5917318
-1.2718778	e n e	-1.3120916
-1.092082	r n e	-1.2365028
-0.36511835	v n e	-0.48032603
-0.79141414	c n e	-0.5330405
-0.61921525	m n e	-0.47644788
-1.1864738	o n e	-1.462944
-0.40699264	k n e	-0.83330166
-0.43782935	t n e	-1.3940818
-0.30545983	f n e	-0.83546984
-0.5357875	s n e	-1.0582873
-0.7027497	g n e	-0.92334986
-1.1661828	u n e	-0.7554953
-0.8174154	y n e	-1.1050291
-0.96985704	w n e	-0.7754501
-0.5342335	d n e	-0.9981275
-0.47153914	b n e	-0.7316718
-1.0786206	j n e	-0.29833382
-0.45295212	z n e	-0.8663703
-0.5667175	x n e	-0.51220787
-1.1341199	<w> p e	-1.5355613
-0.91228014	l p e	-0.5855924
-1.1135802	a p e	-0.9003463
-0.82616735	n p e	-0.28917792
-0.9745789	p p e	-1.4170027
-0.9934747	i p e	-0.8636441
-0.98430806	e p e	-1.0578376
-1.0463455	r p e	-0.82168156
-0.9386704	c p e	-0.2830772
-1.1284269	m p e	-1.1771737
-1.0390048	o p e	-1.0356382
-1.1152334	k p e	-0.41529787
-1.1040809	t p e	-0.5933691
-0.8492429	s p e	-1.2389429
-0.8273013	g p e	-0.29833382
-1.0845088	u p e	-1.2130848
-0.71722174	y p e	-0.7636121
-0.99253505	w p e	-0.2611524
-1.0089395	d p e	-0.2611524
-1.0867636	x p e	-0.879125
-1.139637	<w> h e	-1.5395137
-0.62979966	l h e	-0.49527
-1.023784	a h e	-0.5491707
-0.8497027	n h e	-0.7267525
-0.8601304	p h e	-0.93270236
-0.7731699	h h e	-0.28169277
-0.970958	i h e	-0.4037807
-1.1093765	e h e	-0.8291358
-0.68692225	r h e	-0.7536862
-1.0174017	c h e	-1.6119415
-1.0106679	m h e	-0.27934533
-0.9756843	o h e	-0.5502534
-0.94244546	k h e	-0.54119253
-1.100651	t h e	-1.4547299
-0.65634584	f h e	-0.29833382
-0.8866726	s h e	-1.3279805
-0.9129743	g h e	-0.7469505
-1.1818419	u h e	-0.29432818
-0.9531547	y h e	-0.27319592
-0.5673856	w h e	-0.8764278
-0.83260983	d h e	-0.6450865
-0.541034	j h e	-0.29833382
-0.7348909	z h e	-0.52557266
-1.1181251	x h e	-0.29833382
-1.4019802	<w> i e	-0.27319592
-1.1675993	l i e	-1.2362814
-1.5586503	a i e	-0.5035415
-1.1568255	n i e	-1.074609
-1.0277905	p i e	-1.0428871
-1.3601367	h i e	-1.0174787
-1.2841821	e i e	-1.2743936
-1.1867752	r i e	-1.4220979
-1.0421007	v i e	-0.9494793
-1.1749201	c i e	-1.1537664
-1.1590295	m i e	-0.94216174
-1.3480585	o i e	-0.39317584
-1.0082872	k i e	-0.9389354
-1.1750019	t i e	-1.2841048
-0.9000403	f i e	-1.4501365
-1.1793644	s i e	-0.9110073
-1.0859877	g i e	-1.0263287
-1.3254403	u i e	-0.60721284
-1.3095464	y i e	-0.5913892
-1.1007698	w i e	-0.7905663
-1.1784835	d i e	-1.0092067
-1.1232741	b i e	-0.92453015
-1.5050442	j i e	-0.29833382
-1.0212547	z i e	-0.73905855
-1.0616746	x i e	-0.48126513
-1.4327468	<w> e e	-0.4825597
-1.3002065	l e e	-0.94355804
-1.959405	a e e	-0.29833382
-1.314665	n e e	-0.9546896
-1.3100003	p e e	-0.70427644
-1.2123109	h e e	-0.95415777
-1.3610735	r e e	-1.2028258
-1.2526078	v e e	-0.49588674
-1.3060483	c e e	-0.7777213
-1.2904081	m e e	-0.5433014
-2.1354866	o e e	-0.29833382
-1.1593645	k e e	-0.80184495
-1.2962872	t e e	-1.0578616
-1.1568136	f e e	-0.7357361
-1.3240699	s e e	-0.7263706
-1.3298656	g e e	-0.5663439
-1.894395	u e e	-0.5565897
-1.7652224	y e e	-0.27319592
-1.0612967	w e e	-0.8229301
-1.4628057	d e e	-0.77068835
-1.1307122	b e e	-0.76870275
-1.4342155	j e e	-0.34280005
-1.4446443	z e e	-0.41290325
-1.0614253	<w> r e	-1.8309132
-0.8224837	l r e	-0.39317584
-1.2914358	a r e	-1.2084589
-0.7568442	n r e	-0.55395246
-0.676126	p r e	-1.3015828
-0.8686339	h r e	-0.74342847
-1.0476475	i r e	-1.1792079
-1.3088025	e r e	-1.3536505
-0.9625376	r r e	-1.2114235
-0.7099816	v r e	-0.39550233
-0.73976696	c r e	-1.1030955
-0.7287321	m r e	-0.29001862
-1.2165036	o r e	-1.3158724
-0.92463106	k r e	-0.63149947
-0.7280507	t r e	-1.091406
-0.65582633	f r e	-1.0573897
-0.7636622	s r e	-0.47399485
-0.6528202	g r e	-1.1612408
-1.1821511	u r e	-1.2648915
-0.7232877	y r e	-0.588064
-1.0627141	w r e	-0.6203545
-0.8106858	d r e	-0.9486844
-0.7045249	b r e	-1.098775
-0.91661566	<w> v e	-1.274099
-0.6387539	l v e	-0.9792774
-0.7436878	a v e	-1.3893446
-0.66008186	n v e	-1.0901136
-0.8610696	h v e	-0.29833382
-0.64352113	i v e	-1.6269218
-0.7088275	e v e	-1.3852499
-0.7441246	r v e	-1.01359
-0.87155354	v v e	-0.29833382
-0.8409922	c v e	-0.29833382
-0.33820695	m v e	-0.42117393
-0.7701866	o v e	-1.5915811
-0.5702839	k v e	-0.26833835
-0.926701	t v e	-0.29833382
-0.71671975	s v e	-0.4477607
-0.7266655	g v e	-0.29833382
-0.4814155	u v e	-0.8059438
-0.4765173	y v e	-0.3892491
-0.33820695	w v e	-0.3892491
-0.8207059	d v e	-0.8524655
-0.51687264	b v e	-0.71632785
-0.2488047	j v e	-0.29833382
-0.8409922	z v e	-0.29833382
-1.1724721	<w> c e	-1.1703222
-1.0293589	l c e	-0.5050305
-1.0634992	a c e	-1.0723672
-1.1905266	n c e	-1.4812992
-0.98337555	h c e	-0.29833382
-1.0448996	i c e	-1.1204904
-1.1311153	e c e	-0.94998884
-1.114251	r c e	-0.90311354
-0.9674357	c c e	-0.7988095
-1.2118711	m c e	-0.7223824
-0.99742085	o c e	-0.8228663
-1.1290898	k c e	-0.2611524
-1.3595525	t c e	-0.29833382
-1.1332167	s c e	-0.9908514
-1.1310896	u c e	-0.7219486
-0.9016113	y c e	-0.5526581
-1.1816468	w c e	-0.29833382
-1.3831259	d c e	-0.29833382
-1.1422377	b c e	-0.29833382
-1.1157345	x c e	-0.59188324
-1.1631134	<w> m e	-1.5360502
-0.9053693	l m e	-0.95047617
-1.1086991	a m e	-1.2131569
-0.7215842	n m e	-0.83355683
-0.48527473	p m e	-1.0173578
-0.78180254	h m e	-0.84348196
-0.9783613	i m e	-1.152299
-1.0061387	e m e	-1.3360605
-1.0297005	r m e	-1.0957016
-0.7943307	c m e	-0.39317584
-0.9365895	m m e	-1.3716435
-0.9782608	o m e	-1.1567435
-0.64373344	k m e	-0.39688888
-0.56523347	t m e	-0.88336205
-0.71543294	f m e	-0.29353145
-0.83051157	s m e	-0.77141804
-0.6844762	g m e	-0.98300135
-1.0896668	u m e	-0.98699427
-0.77426004	y m e	-0.9768339
-0.78715515	w m e	-0.39317584
-0.6976254	d m e	-0.5141879
-0.4474862	b m e	-0.5953582
-0.6861509	z m e	-0.2923391
-0.62756836	x m e	-0.29833382
-1.4355209	<w> o e	-0.4978845
-1.3951446	l o e	-0.47541475
-1.5366137	n o e	-0.3688429
-1.5606725	p o e	-0.35762098
-1.3153787	h o e	-0.74990565
-1.7035757	i o e	-0.2840314
-1.4675663	r o e	-0.71516234
-1.7216233	v o e	-0.4389333
-1.5909098	c o e	-0.4759233
-1.7201072	m o e	-0.3842435
-1.4458218	o o e	-0.45270193
-1.8873993	k o e	-0.49722517
-1.5333927	t o e	-0.44008774
-1.5551357	f o e	-0.28075227
-1.4179977	s o e	-0.3317544
-1.4071856	g o e	-0.56729025
-1.727128	y o e	-0.27319592
-1.6339306	w o e	-0.31232902
-1.4002304	d o e	-0.5263665
-1.5541269	b o e	-0.5622108
-1.6227415	j o e	-0.3317544
-1.6569345	z o e	-0.37271267
-1.1723815	<w> k e	-1.2791406
-0.89038074	l k e	-1.0296896
-0.8946529	a k e	-1.2019746
-0.98377925	n k e	-1.2009935
-0.6283863	p k e	-0.58703434
-0.7184473	h k e	-0.80422246
-0.80879396	i k e	-1.122185
-0.85305786	e k e	-0.8710635
-1.0930488	r k e	-1.1558628
-1.0369922	c k e	-1.5598935
-0.5325723	m k e	-0.7076615
-0.7876262	o k e	-1.1156601
-0.82027024	k k e	-0.4112123
-0.7143628	t k e	-0.748318
-0.91160464	f k e	-0.29833382
-0.98202944	s k e	-0.9814378
-0.7673566	u k e	-0.6275613
-0.57813597	y k e	-0.60838777
-0.8814302	w k e	-0.37770876
-0.5713573	d k e	-0.4385428
-0.8239301	b k e	-0.6583359
-0.9280525	j k e	-0.29833382
-0.9533603	z k e	-0.8344272
-1.2164506	<w> t e	-1.325316
-1.1679012	l t e	-1.1172466
-1.123379	a t e	-1.7893034
-1.0883199	n t e	-1.544772
-0.9691107	p t e	-0.7706958
-0.9846276	h t e	-1.1261665
-1.130595	i t e	-1.3564117
-1.1133271	e t e	-1.3085613
-1.193936	r t e	-1.1788731
-0.89147264	v t e	-0.29833382
-1.005095	c t e	-1.0920751
-0.5520991	m t e	-0.28075227
-1.0795234	o t e	-1.0393789
-1.4276175	k t e	-0.27934533
-1.1392566	t t e	-1.5585924
-1.1366847	f t e	-0.976769
-0.9890239	s t e	-1.6762967
-1.0479165	g t e	-0.27934533
-1.1359988	u t e	-1.2264742
-0.76824325	y t e	-0.79323465
-0.83585894	w t e	-0.39317584
-1.232023	d t e	-0.2611524
-1.0619885	b t e	-0.4463914
-0.78186023	z t e	-0.29432818
-0.8966104	x t e	-0.8148211
-1.0341579	<w> f e	-1.3098737
-1.0053427	l f e	-0.64202416
-0.93366224	a f e	-0.5760927
-0.88668805	n f e	-0.9241419
-0.6877892	p f e	-0.68409014
-0.91466725	h f e	-0.37271267
-0.8588213	i f e	-0.9152273
-1.0641292	e f e	-0.9012555
-0.9747522	r f e	-0.74553823
-0.91127187	c f e	-0.3494814
-0.93214834	m f e	-0.29833382
-1.1028457	o f e	-0.7334225
-0.83649325	t f e	-0.38291436
-0.9624092	f f e	-1.2309788
-0.6895452	s f e	-0.8344272
-0.6726899	g f e	-0.53537714
-0.9204125	u f e	-0.43807042
-0.8881334	y f e	-0.2830772
-0.8159261	d f e	-0.44976133
-0.27151603	j f e	-0.29833382
-0.36237088	z f e	-0.29035914
-1.0930667	x f e	-0.29833382
-1.3312728	<w> s e	-1.4880583
-1.1475215	l s e	-0.6918234
-1.2243413	a s e	-1.0776204
-1.1752658	n s e	-1.1144421
-1.0018708	p s e	-0.5919974
-1.3203555	h s e	-0.4372781
-1.1835017	i s e	-1.2366537
-1.1986326	e s e	-1.245195
-1.2560287	r s e	-1.0327054
-0.7518754	v s e	-0.2830772
-1.483319	c s e	-0.29833382
-1.0500544	m s e	-0.53537714
-1.1780396	o s e	-1.1076658
-1.1830125	k s e	-0.6003709
-1.1094819	t s e	-0.60524255
-1.071232	f s e	-0.33402377
-1.1225083	s s e	-1.4524454
-1.1149874	g s e	-0.37431943
-1.0801908	u s e	-1.21592
-0.96207124	y s e	-0.61998236
-1.1961396	w s e	-0.4912264
-1.1294367	d s e	-0.5759547
-1.1842256	b s e	-0.75423324
-0.72099036	j s e	-0.29833382
