\data\
ngram 1=30
ngram 2=629
ngram 3=6902
ngram 4=33600

\1-grams:
-2.6430006	<unk>	0
0	<s>	-0.3606157
-2.4128594	<w>	-0.36065874
-1.4019103	r	-0.7404292
-1.3683976	e	-1.0634625
-1.4196892	f	-0.76234543
-1.3683976	u	-0.93651175
-1.4382269	g	-0.7215303
-1.4019103	s	-0.9053279
-1.3848308	</w>	-1.147121
-1.4382269	c	-0.759049
-1.3848308	a	-1.0419356
-1.4575915	p	-0.7739833
-1.4196892	h	-0.727765
-1.3848308	o	-1.0291377
-1.4019103	t	-0.8622479
-1.4196892	n	-0.751033
-1.4196892	d	-0.7240609
-1.3848308	i	-0.99801326
-1.4196892	m	-0.7382891
-1.4019103	b	-0.74160475
-1.3848308	l	-0.78126657
-1.4019103	w	-0.6233508
-1.4382269	k	-0.690951
-1.4575915	v	-0.6639226
-1.8477489	x	-0.4187289
-1.4019103	y	-0.8173771
-1.6245607	q	-0.6510023
-1.5214763	z	-0.6219827
-1.5699672	j	-0.69869643

\2-grams:
-0.2473468	<s> <w>	-0.2849588
-0.031979624	</w> <w>	-1.233289
-1.2283827	<w> r	-0.29344633
-1.571042	r r	-0.51511186
-1.3455389	e r	-1.0513829
-1.1417165	f r	-0.69177806
-1.2240281	u r	-0.8566681
-1.0181224	g r	-0.7963877
-1.730064	s r	-0.33784518
-1.1456839	c r	-0.822569
-1.3240118	a r	-1.016633
-1.1546125	p r	-0.8288052
-1.2639797	h r	-0.56626856
-1.311214	o r	-0.9651655
-1.2374666	t r	-0.9673979
-1.6627872	n r	-0.43301046
-1.1670406	d r	-0.7586822
-1.3723295	i r	-0.70695895
-1.6531149	m r	-0.41500092
-0.9885571	b r	-0.91233563
-1.6636568	l r	-0.3539949
-1.1445591	w r	-0.46473506
-1.5388825	k r	-0.37435314
-1.3796475	v r	-0.3473214
-1.5051887	x r	-0.2849588
-1.3413762	y r	-0.5369736
-1.7113155	z r	-0.2849588
-1.4028089	<w> e	-0.2849588
-1.0530686	r e	-0.91815233
-1.3772672	e e	-0.7800939
-1.001788	f e	-0.63374954
-1.3393056	u e	-0.67000437
-1.064455	g e	-0.71916866
-1.2498962	s e	-0.79569364
-1.0905089	c e	-0.751197
-1.5033793	a e	-0.5242882
-1.1262968	p e	-0.70843226
-1.0727128	h e	-0.70513016
-1.3802614	o e	-0.54373753
-1.2120056	t e	-0.8116517
-1.0648378	n e	-0.82582206
-1.1892917	d e	-0.67549574
-1.311818	i e	-0.84389573
-1.004371	m e	-0.7022176
-0.966634	b e	-0.73362654
-1.0382781	l e	-0.9783957
-0.9378366	w e	-0.6183393
-1.0714056	k e	-0.70444953
-0.7728181	v e	-0.6468089
-1.0464542	x e	-0.4687067
-1.220167	y e	-0.530674
-1.422873	q e	-0.2849588
-0.8753581	z e	-0.6299583
-0.8585008	j e	-0.37849948
-1.4262552	<w> f	-0.2849588
-1.7228895	r f	-0.41400132
-1.3815547	e f	-0.7082481
-1.297762	f f	-0.49952126
-1.4772276	u f	-0.61493355
-1.8845378	g f	-0.3071283
-1.6245272	s f	-0.3972836
-2.0361192	c f	-0.2849588
-1.5094149	a f	-0.60579926
-1.5538023	p f	-0.31390354
-1.6903703	h f	-0.33993325
-1.4966171	o f	-0.57293856
-1.4406248	t f	-0.6228822
-1.4935772	n f	-0.60435456
-1.7039831	d f	-0.34888303
-1.3538113	i f	-0.6993515
-1.6588272	m f	-0.34957892
-2.0190337	b f	-0.2849588
-1.6689556	l f	-0.4413164
-1.7933385	w f	-0.30429444
-1.7318791	k f	-0.31429496
-1.5136969	x f	-0.2849588
-1.770745	y f	-0.3255236
-1.8541727	z f	-0.2849588
-1.4028089	<w> u	-0.2849588
-1.1132431	r u	-0.70804834
-1.4773667	e u	-0.5869684
-1.001788	f u	-0.61721313
-1.9048785	u u	-0.3003578
-1.1831695	g u	-0.6075732
-1.3409468	s u	-0.5829485
-1.1423333	c u	-0.64617765
-1.4129945	a u	-0.7385635
-1.2061151	p u	-0.5527828
-1.1431166	h u	-0.48671693
-1.3429425	o u	-0.81882536
-1.2575954	t u	-0.68331957
-1.2658674	n u	-0.5335194
-1.2466406	d u	-0.47077537
-1.5128477	i u	-0.60940194
-1.1238453	m u	-0.56564856
-1.0993619	b u	-0.59751004
-1.1569817	l u	-0.69882065
-1.3791448	w u	-0.3109358
-1.303968	k u	-0.35155627
-1.37253	v u	-0.3665191
-1.4886565	x u	-0.29775313
-1.6060426	y u	-0.34903494
-0.2097725	q u	-0.8405559
-1.2597846	z u	-0.31690702
-0.7143049	j u	-0.37921682
-1.4343606	<w> g	-0.2849588
-1.648667	r g	-0.4718718
-1.3829933	e g	-0.7236057
-1.9075198	f g	-0.2849588
-1.3699285	u g	-0.64652854
-1.5482293	g g	-0.4921745
-1.6802219	s g	-0.33959103
-1.9390675	c g	-0.3003578
-1.3437165	a g	-0.87892497
-1.7143881	p g	-0.33411187
-1.9331677	h g	-0.31632298
-1.3671749	o g	-0.6893642
-1.6830498	t g	-0.32885987
-1.3721205	n g	-0.5216008
-1.6294804	d g	-0.40936443
-1.3360504	i g	-0.8180293
-2.032313	b g	-0.2849588
-1.6052392	l g	-0.47661707
-1.9158242	w g	-0.2849588
-1.8826499	k g	-0.2849588
-1.6583766	x g	-0.2849588
-1.3815969	y g	-0.3783632
-1.8661205	z g	-0.2849588
-1.4182984	<w> s	-0.2849588
-1.5133195	r s	-0.44923854
-1.3455389	e s	-0.86573523
-1.3990297	f s	-0.4694361
-1.2417036	u s	-0.8121431
-1.406581	g s	-0.42219952
-1.4612306	s s	-0.5580832
-1.4562796	c s	-0.5466302
-1.3240118	a s	-0.89020884
-1.308687	p s	-0.62733895
-1.476829	h s	-0.45303965
-1.311214	o s	-0.857404
-1.2610408	t s	-0.6123392
-1.3663875	n s	-0.5944084
-1.3971744	d s	-0.5609124
-1.2800896	i s	-0.9110012
-1.2195209	m s	-0.49911863
-1.3865973	b s	-0.52706665
-1.4401805	l s	-0.5242882
-1.645751	w s	-0.3291452
-1.2672827	k s	-0.45864546
-1.5059223	v s	-0.31632298
-1.6350372	x s	-0.2849588
-1.2502443	y s	-0.6100391
-1.8425449	z s	-0.2849588
-1.335134	r </w>	-0.97233135
-1.3611133	e </w>	-1.2910901
-1.2930498	f </w>	-0.8931501
-1.2979155	u </w>	-1.2153693
-1.3499986	g </w>	-0.8473926
-1.231292	s </w>	-1.2355728
-1.3999524	c </w>	-0.8473926
-1.3571647	a </w>	-1.2733613
-1.386946	p </w>	-0.8931501
-1.1712847	h </w>	-1.09727
-1.3818139	o </w>	-1.2355728
-1.1721573	t </w>	-1.2355728
-1.2681326	n </w>	-1.0692413
-1.2489465	d </w>	-1.0392781
-1.2956641	i </w>	-1.2910901
-1.217435	m </w>	-1.0070934
-1.3364307	b </w>	-0.8931501
-1.3232634	l </w>	-1.0070934
-1.3830975	w </w>	-0.7382481
-1.1910172	k </w>	-1.0070934
-1.3760742	v </w>	-0.5921201
-0.9849118	x </w>	-0.7962401
-1.0900842	y </w>	-1.2548779
-1.1825897	q </w>	-0.32453123
-1.0084196	z </w>	-0.97233135
-1.5408432	j </w>	-0.32453123
-1.4343606	<w> c	-0.2849588
-1.7295719	r c	-0.4574958
-1.3829933	e c	-0.8036167
-1.9075198	f c	-0.2849588
-1.3699285	u c	-0.6280926
-1.3235073	s c	-0.8345972
-1.5971234	c c	-0.53767985
-1.3437165	a c	-0.8670691
-1.8204963	p c	-0.3109358
-1.6967518	h c	-0.29775313
-1.386505	o c	-0.80210686
-1.443248	t c	-0.52082056
-1.5487391	n c	-0.5596732
-1.6294804	d c	-0.33709192
-1.3360504	i c	-0.9196803
-1.5062612	m c	-0.31841275
-1.7750704	b c	-0.32453123
-1.6743197	l c	-0.47751856
-1.8036728	w c	-0.3255236
-1.8826499	k c	-0.2849588
-1.8588016	v c	-0.2849588
-1.5223752	x c	-0.3003578
-1.3460157	y c	-0.52047455
-1.4104846	<w> a	-0.2849588
-1.0360924	r a	-0.92657435
-1.3786917	e a	-0.8667748
-1.0029881	f a	-0.5526832
-1.3889563	u a	-0.5608321
-1.0659785	g a	-0.61935997
-1.2725376	s a	-0.71628654
-1.0240648	c a	-0.75276107
-1.883243	a a	-0.30147895
-1.0816209	p a	-0.6732078
-1.053029	h a	-0.73852587
-1.4680544	o a	-0.5692135
-1.2358315	t a	-0.81008077
-1.1237175	n a	-0.79193866
-1.0536917	d a	-0.6879941
-1.3315625	i a	-0.7738173
-0.96564454	m a	-0.8055717
-1.0078056	b a	-0.7122307
-1.0572448	l a	-0.8832729
-0.895239	w a	-0.70675904
-1.0730668	k a	-0.5277023
-0.93648016	v a	-0.6142906
-1.1251483	x a	-0.31125617
-1.2483777	y a	-0.5050179
-0.937526	z a	-0.47430807
-0.75805223	j a	-0.42798728
-1.4426203	<w> p	-0.2849588
-1.7363588	r p	-0.45249647
-1.4427108	e p	-0.70968837
-1.3968555	u p	-0.56948125
-1.9019386	g p	-0.3109358
-1.3253195	s p	-0.70367146
-1.9496461	c p	-0.32453123
-1.381479	a p	-0.7806255
-1.6341565	p p	-0.47786435
-1.9443915	h p	-0.29775313
-1.3686812	o p	-0.78935015
-1.841269	t p	-0.3351357
-1.5530944	n p	-0.4483034
-1.7173725	d p	-0.38934487
-1.3985637	i p	-0.6896882
-1.4480428	m p	-0.5329357
-1.9327904	b p	-0.2849588
-1.549686	l p	-0.42012832
-1.8142589	w p	-0.29775313
-1.8905034	k p	-0.32453123
-1.5312304	x p	-0.29451904
-1.5669113	y p	-0.36385596
-1.4262552	<w> h	-0.2849588
-1.5757419	r h	-0.49889347
-1.4605536	e h	-0.57983124
-1.8947198	f h	-0.2849588
-1.4472573	u h	-0.41983387
-1.1892078	g h	-0.49417275
-1.275766	s h	-0.73114014
-1.0482273	c h	-0.723309
-1.3977334	a h	-0.5945022
-1.2117541	p h	-0.7184767
-1.5400229	h h	-0.3764278
-1.5508033	o h	-0.45580763
-1.1749854	t h	-0.77305937
-1.4935772	n h	-0.5295716
-1.4464754	d h	-0.59894955
-1.8490103	i h	-0.31690702
-1.9061245	m h	-0.3003578
-1.9088885	b h	-0.3473214
-1.6006597	l h	-0.38018927
-1.1110145	w h	-0.5951874
-1.3598555	k h	-0.49889347
-1.5136969	x h	-0.29775313
-1.5592227	y h	-0.50161487
-1.7234076	z h	-0.2849588
-1.4104846	<w> o	-0.2849588
-1.0184435	r o	-0.9177636
-1.4791613	e o	-0.59870684
-0.9800919	f o	-0.62969846
-1.57593	u o	-0.4161634
-1.0928522	g o	-0.58092415
-1.231292	s o	-0.65929437
-1.0240648	c o	-0.74387616
-1.6544517	a o	-0.43187946
-1.0602282	p o	-0.69866216
-1.013477	h o	-0.7218645
-1.422797	o o	-0.7817897
-1.1721573	t o	-0.7907463
-1.1667318	n o	-0.7545005
-1.0536917	d o	-0.6836053
-1.413712	i o	-0.71200514
-1.0735421	m o	-0.71734864
-0.9677947	b o	-0.7349746
-1.0757153	l o	-0.87013316
-0.9166935	w o	-0.644627
-1.0479828	k o	-0.5041233
-0.9778878	v o	-0.5282827
-1.2169679	x o	-0.3539949
-1.3066918	y o	-0.4062404
-0.9715278	z o	-0.40948978
-0.6758722	j o	-0.40006867
-1.4182984	<w> t	-0.2849588
-1.571042	r t	-0.5221377
-1.3455389	e t	-0.90503263
-1.4618862	f t	-0.4368146
-1.2995052	u t	-0.75841874
-1.8746029	g t	-0.29775313
-1.232757	s t	-0.83734983
-1.4562796	c t	-0.5578402
-1.358594	a t	-0.9362438
-1.3897873	p t	-0.63968915
-1.476829	h t	-0.35648683
-1.328161	o t	-0.83871055
-1.6740042	t t	-0.53260803
-1.4446387	n t	-0.58922064
-1.5517485	d t	-0.45661002
-1.3146716	i t	-0.98457867
-1.6531149	m t	-0.29775313
-1.8988564	b t	-0.30888146
-1.5377002	l t	-0.5339637
-1.7832445	w t	-0.30429444
-1.5388825	k t	-0.3665191
-1.8376937	v t	-0.2849588
-1.3392656	x t	-0.34867367
-1.2502443	y t	-0.60967934
-1.8425449	z t	-0.2849588
-1.4262552	<w> n	-0.2849588
-1.6431133	r n	-0.42962956
-1.3468628	e n	-0.9837635
-1.7418516	f n	-0.30429444
-1.2615862	u n	-0.7897386
-1.3559086	g n	-0.48449624
-1.6761296	s n	-0.47091323
-1.7843555	c n	-0.33959103
-1.3423355	a n	-1.0139738
-1.493194	p n	-0.46452975
-1.381983	h n	-0.42708343
-1.3295376	o n	-0.8849003
-1.405456	t n	-0.59769845
-1.4935772	n n	-0.5481545
-1.4004393	d n	-0.5501664
-1.2814136	i n	-0.9602035
-1.4410217	m n	-0.49127913
-1.7676761	b n	-0.33959103
-1.6006597	l n	-0.40653783
-1.7933385	w n	-0.30784082
-1.3125492	k n	-0.5908221
-1.8481194	v n	-0.2849588
-1.5136969	x n	-0.2849588
-1.2521191	y n	-0.49198964
-1.4262552	<w> d	-0.2849588
-1.466032	r d	-0.51683587
-1.3305035	e d	-0.80379647
-2.017328	f d	-0.2849588
-1.3445741	u d	-0.6761857
-1.7377492	g d	-0.2849588
-1.5367236	s d	-0.505928
-1.925767	c d	-0.33411187
-1.3423355	a d	-0.7801889
-1.9535995	p d	-0.30429444
-1.9222268	h d	-0.29775313
-1.34723	o d	-0.7539269
-1.9284579	t d	-0.33135292
-1.544427	n d	-0.5311955
-1.5564167	d d	-0.50915176
-1.2984132	i d	-0.8445742
-1.7651066	m d	-0.2849588
-1.9088885	b d	-0.31429496
-1.6006597	l d	-0.4674181
-1.7933385	w d	-0.3109358
-1.7318791	k d	-0.33959103
-1.8481194	v d	-0.2849588
-1.5067132	y d	-0.424278
-1.7478648	j d	-0.2849588
-1.4104846	<w> i	-0.2849588
-1.0360924	r i	-0.93981045
-1.4161386	e i	-0.7454554
-0.9800919	f i	-0.6875877
-1.3889563	u i	-0.5503103
-1.1851729	g i	-0.6190895
-1.2514254	s i	-0.8467002
-1.1725509	c i	-0.7207195
-1.41462	a i	-0.76117194
-1.1278536	p i	-0.7011968
-1.1200591	h i	-0.6691516
-1.3626869	o i	-0.7314273
-1.1721573	t i	-0.897354
-1.1237175	n i	-0.73860466
-1.16513	d i	-0.7088799
-1.6882224	i i	-0.4717905
-1.0056471	m i	-0.7391267
-1.0518802	b i	-0.65695333
-1.0757153	l i	-0.9396371
-1.0149987	w i	-0.6340085
-1.0017831	k i	-0.597559
-0.7225423	v i	-0.7021041
-1.049394	x i	-0.38755208
-1.2765567	y i	-0.7228779
-0.937526	z i	-0.45913926
-1.0775229	j i	-0.34762082
-1.4262552	<w> m	-0.2849588
-1.5757419	r m	-0.4889283
-1.3638624	e m	-0.8540765
-1.8947198	f m	-0.3109358
-1.2808943	u m	-0.7965662
-1.4099374	g m	-0.5156823
-1.3466315	s m	-0.76333874
-1.9287404	c m	-0.2849588
-1.3423355	a m	-0.87194335
-1.493194	p m	-0.49667954
-1.3399277	h m	-0.5370366
-1.34723	o m	-0.78608525
-1.4406248	t m	-0.7825939
-1.6020302	n m	-0.4825185
-1.4979764	d m	-0.5915591
-1.3538113	i m	-0.8439293
-1.4410217	m m	-0.53201467
-1.7676761	b m	-0.30429444
-1.6006597	l m	-0.4622832
-1.7933385	w m	-0.35700896
-1.5437748	k m	-0.4367291
-1.6465502	x m	-0.2849588
-1.28055	y m	-0.5962173
-1.7198808	z m	-0.3109358
-1.4182984	<w> b	-0.2849588
-1.6376295	r b	-0.47276112
-1.3801209	e b	-0.7293136
-1.8886458	f b	-0.2849588
-1.2601291	u b	-0.63091224
-1.7306404	g b	-0.32527527
-1.3710567	s b	-0.684313
-1.9157478	c b	-0.2849588
-1.3409587	a b	-0.8910829
-1.7025136	p b	-0.33993325
-1.6840812	h b	-0.36083743
-1.4699554	o b	-0.6739291
-1.5177308	t b	-0.4825185
-1.4897773	n b	-0.5286378
-1.4938931	d b	-0.5081343
-1.3933852	i b	-0.69727385
-1.4982423	m b	-0.55239785
-1.57121	b b	-0.51259124
-1.4862088	l b	-0.492557
-1.645751	w b	-0.3810677
-1.8588877	k b	-0.32527527
-1.5051887	x b	-0.2849588
-1.3413762	y b	-0.54663396
-1.7147732	z b	-0.2849588
-1.7402006	j b	-0.2849588
-1.4104846	<w> l	-0.2849588
-1.6322142	r l	-0.49122795
-1.3442189	e l	-0.94415843
-1.1400658	f l	-0.7098336
-1.2586769	u l	-0.7661381
-1.2208914	g l	-0.71705884
-1.3428334	s l	-0.77763706
-1.1440053	c l	-0.87842685
-1.3395864	a l	-0.9275895
-1.152957	p l	-0.8931501
-1.3757988	h l	-0.55127704
-1.3443669	o l	-0.8626342
-1.3104721	t l	-0.83239704
-1.4860103	n l	-0.560235
-1.3529037	d l	-0.7065894
-1.3132424	i l	-0.8981686
-1.3812693	m l	-0.49794343
-1.2196536	b l	-0.73003703
-1.5337772	l l	-0.5317705
-1.6385412	w l	-0.3673706
-1.2646875	k l	-0.6255461
-1.6813891	v l	-0.2849588
-1.4934046	x l	-0.3473214
-1.1733882	y l	-0.6449935
-1.4269755	q l	-0.2849588
-1.7029159	z l	-0.3003578
-1.4182984	<w> w	-0.2849588
-1.7163085	r w	-0.40617305
-1.4377786	e w	-0.67395
-2.0050824	f w	-0.2849588
-2.2268999	u w	-0.2849588
-1.6243716	g w	-0.31429496
-1.3990846	s w	-0.5636673
-1.9186531	c w	-0.32453123
-1.4162517	a w	-0.6370698
-1.805392	p w	-0.3003578
-1.5355647	h w	-0.4369192
-1.4034538	o w	-0.6935036
-1.4030509	t w	-0.70238614
-1.5971583	n w	-0.4604003
-1.4428468	d w	-0.6692479
-1.9097674	i w	-0.33135292
-1.8989755	m w	-0.2849588
-1.8988564	b w	-0.2849588
-1.6636568	l w	-0.40964258
-1.645751	w w	-0.2849588
-1.4093268	k w	-0.5509717
-1.5051887	x w	-0.3109358
-1.4568522	y w	-0.45405573
-1.4311173	q w	-0.2849588
-1.7113155	z w	-0.30429444
-1.4343606	<w> k	-0.2849588
-1.7295719	r k	-0.45438653
-1.5081075	e k	-0.5063128
-2.029929	f k	-0.2849588
-1.3948672	u k	-0.41697788
-1.8947053	g k	-0.2849588
-1.2998364	s k	-0.72105426
-1.3610055	c k	-0.5512199
-1.3437165	a k	-0.67096335
-1.7143881	p k	-0.35700896
-1.6967518	h k	-0.29775313
-1.4986477	o k	-0.5874984
-1.8347393	t k	-0.31865245
-1.5487391	n k	-0.46741036
-1.9404233	d k	-0.2849588
-1.4938986	i k	-0.625827
-1.916407	m k	-0.3109358
-2.032313	b k	-0.2849588
-1.6052392	l k	-0.45580763
-1.8066888	w k	-0.2959021
-1.6337318	k k	-0.32527527
-1.56305	y k	-0.3335043
-1.7322172	z k	-0.3109358
-1.4426203	<w> v	-0.2849588
-1.6542928	r v	-0.45937052
-1.4224048	e v	-0.7542227
-1.6301657	u v	-0.47958535
-2.0209959	g v	-0.2849588
-1.6318219	s v	-0.6335128
-1.4008778	a v	-0.8287678
-1.9443915	h v	-0.3109358
-1.38808	o v	-0.7900179
-2.0811303	t v	-0.32453123
-1.7608149	n v	-0.4369192
-1.7173725	d v	-0.38692936
-1.3985637	i v	-0.7701729
-2.043068	m v	-0.2849588
-1.9327904	b v	-0.3109358
-1.6098675	l v	-0.59139425
-2.0027037	k v	-0.2849588
-1.7111366	v v	-0.2849588
-1.6705341	x v	-0.2849588
-1.8886349	y v	-0.30429444
-1.4437847	q v	-0.2849588
-1.7412093	z v	-0.2849588
-1.5673307	<w> x	-0.2849588
-2.3247476	r x	-0.2849588
-1.6209955	e x	-0.5765091
-1.6769288	u x	-0.38337362
-1.6671606	a x	-0.5249743
-1.5564098	o x	-0.50565135
-1.994272	n x	-0.33411187
-1.7034652	i x	-0.49750495
-1.6615201	x x	-0.32453123
-1.4182984	<w> y	-0.2849588
-1.1387501	r y	-0.57407475
-1.4588344	e y	-0.6235066
-1.535405	f y	-0.44423142
-1.7161683	u y	-0.34440273
-1.3052082	g y	-0.5076433
-1.3710567	s y	-0.5629766
-1.355518	c y	-0.44216588
-1.4594362	a y	-0.7076493
-1.3473469	p y	-0.44415033
-1.2990073	h y	-0.4513368
-1.4945959	o y	-0.6039639
-1.2859684	t y	-0.5743693
-1.403753	n y	-0.45495528
-1.3558512	d y	-0.5086556
-2.0812771	i y	-0.3003578
-1.3368955	m y	-0.45118463
-1.1887257	b y	-0.47807205
-1.0585501	l y	-0.61343366
-1.3870866	w y	-0.30888146
-1.3096699	k y	-0.4406829
-1.1348976	v y	-0.5614399
-1.3392656	x y	-0.31690702
-1.9982512	y y	-0.3109358
-1.0952356	z y	-0.4308504
-1.5053046	<w> q	-0.2849588
-1.9027315	r q	-0.49521008
-1.9609554	e q	-0.7382481
-2.2613287	u q	-0.37027135
-1.8544468	s q	-0.67130136
-2.0319314	c q	-0.32453123
-1.6867433	a q	-0.6935004
-2.1660144	h q	-0.2849588
-2.3601305	o q	-0.37027135
-1.8132943	n q	-0.52341264
-2.045829	d q	-0.32453123
-1.727131	i q	-0.78665406
-2.094215	l q	-0.32453123
-2.1151645	k q	-0.2849588
-1.7667526	x q	-0.2849588
-1.4683856	<w> z	-0.2849588
-1.5385982	r z	-0.31285214
-1.5411912	e z	-0.5122038
-1.5584112	u z	-0.43636906
-2.0643697	g z	-0.2849588
-2.1679008	s z	-0.30429444
-1.8225838	c z	-0.3003578
-1.5196643	a z	-0.6551164
-1.9830284	h z	-0.2849588
-1.626167	o z	-0.4630254
-1.6395663	t z	-0.40595368
-1.7825345	n z	-0.40198344
-1.9884342	d z	-0.2849588
-1.4038049	i z	-0.7794255
-1.7834098	l z	-0.30429444
-1.9736695	w z	-0.2849588
-1.9043694	v z	-0.2849588
-2.0661168	y z	-0.30429444
-1.4615147	z z	-0.47741404
-1.4864528	<w> j	-0.2849588
-2.0360284	r j	-0.2849588
-1.9501843	e j	-0.35466033
-2.114338	f j	-0.2849588
-1.8133135	u j	-0.33135292
-2.3144686	s j	-0.2849588
-1.9286573	a j	-0.35978922
-2.1617963	p j	-0.2849588
-2.1296961	h j	-0.2849588
-2.0757468	o j	-0.3003578
-2.2658777	t j	-0.2849588
-1.7103817	n j	-0.47257906
-2.0145888	d j	-0.3109358
-1.6367683	i j	-0.36664844
-1.9864643	b j	-0.3473214
-1.9523735	k j	-0.2849588
-2.2147305	y j	-0.2849588

\3-grams:
-0.0032983809	r </w> <w>	-1.7548261
-0.0015800771	e </w> <w>	-2.1166608
-0.0039610635	f </w> <w>	-0.64416164
-0.0018816835	u </w> <w>	-0.56807137
-0.004403423	g </w> <w>	-1.9218093
-0.0017959751	s </w> <w>	-2.3638754
-0.004403423	c </w> <w>	-1.21562
-0.0016460461	a </w> <w>	-1.4303005
-0.0039610635	p </w> <w>	-0.91752064
-0.0024714149	h </w> <w>	-1.3015391
-0.0017959751	o </w> <w>	-1.1727256
-0.0017959751	t </w> <w>	-1.8007663
-0.002636682	n </w> <w>	-1.9268774
-0.0028256434	d </w> <w>	-2.0976074
-0.0015800771	i </w> <w>	-0.99001765
-0.003043752	m </w> <w>	-1.2725968
-0.0039610635	b </w> <w>	-0.50530463
-0.003043752	l </w> <w>	-1.6289392
-0.0056697396	w </w> <w>	-0.7016953
-0.003043752	k </w> <w>	-1.1609751
-0.007958561	v </w> <w>	-0.3418519
-0.0049569737	x </w> <w>	-0.5578071
-0.0017177425	y </w> <w>	-1.9847158
-0.014854452	q </w> <w>	-0.2689856
-0.0032983809	z </w> <w>	-0.48687285
-0.014854452	j </w> <w>	-0.2689856
-0.29088542	<s> <w> r	-0.2689856
-1.3626542	</w> <w> r	-2.3109531
-1.3660128	e r r	-1.1396661
-1.340434	u r r	-1.0040756
-1.2428732	a r r	-1.2343838
-1.6687579	h r r	-0.2689856
-1.2817836	o r r	-0.9657756
-1.4890087	i r r	-0.93185073
-1.6744162	y r r	-0.2689856
-1.3775659	<w> e r	-0.5502736
-1.4443963	r e r	-0.83841455
-0.9482613	e e r	-0.9540883
-0.917376	f e r	-0.9720569
-1.0609702	u e r	-0.51282036
-0.9865711	g e r	-1.0599592
-1.2061843	s e r	-0.9691329
-1.0201157	c e r	-0.89135784
-0.9889728	a e r	-0.5481343
-0.98690367	p e r	-1.2346562
-1.0844381	h e r	-1.1477185
-1.2085528	o e r	-0.4651023
-1.0156369	t e r	-1.562866
-1.0296007	n e r	-1.1544923
-1.0038731	d e r	-1.2046577
-0.91099674	i e r	-0.9963004
-0.98742205	m e r	-0.96369016
-0.8265413	b e r	-1.0999601
-1.1207492	l e r	-1.1806141
-1.1646823	w e r	-0.7839902
-0.9976363	k e r	-1.0544558
-0.9328069	v e r	-1.2821771
-1.0096883	x e r	-0.44100258
-0.82752776	y e r	-0.88223267
-0.83313495	z e r	-0.60886526
-1.2375748	j e r	-0.4041453
-1.0677592	<w> f r	-1.5473653
-1.0596722	r f r	-0.28247303
-1.3250452	e f r	-0.6078775
-1.1513098	f f r	-0.33884308
-1.4046905	u f r	-0.2689856
-0.98166716	g f r	-0.2689856
-1.2147876	s f r	-0.2689856
-1.0917636	a f r	-0.48095924
-1.1036606	p f r	-0.2689856
-1.4637077	t f r	-0.2689856
-0.91611344	n f r	-0.59270346
-1.1591018	d f r	-0.2689856
-1.1602321	l f r	-0.43934524
-1.1296176	y f r	-0.2689856
-1.1848007	<w> u r	-0.5468203
-1.6050092	r u r	-0.2689856
-0.75444996	e u r	-0.7925642
-1.031062	f u r	-0.5519247
-1.2212148	g u r	-0.48811388
-0.9446759	s u r	-0.9152316
-0.9489587	c u r	-0.86233574
-1.3335172	a u r	-0.6569921
-1.0204401	p u r	-0.6479484
-1.0560794	h u r	-0.5393461
-0.9362398	o u r	-0.9696567
-0.87700397	t u r	-1.1161593
-1.2953341	n u r	-0.38314512
-1.1884227	d u r	-0.52941567
-1.5463471	i u r	-0.2689856
-1.0401592	m u r	-0.44564927
-0.7592128	b u r	-0.8423568
-1.1935128	l u r	-0.43050247
-0.83522904	w u r	-0.53200555
-1.3147783	k u r	-0.2689856
-0.91589093	v u r	-0.2689856
-0.6871421	x u r	-0.29321718
-1.2306013	y u r	-0.2689856
-0.6970539	z u r	-0.2689856
-1.138232	j u r	-0.6040987
-1.0291635	<w> g r	-1.6715479
-1.3527288	r g r	-0.3620228
-1.0172076	e g r	-1.0124481
-1.5351745	u g r	-0.2689856
-1.3503828	g g r	-0.6350241
-0.88072777	s g r	-0.29609442
-0.5874288	c g r	-0.2689856
-1.2359158	a g r	-0.92910886
-0.4104399	p g r	-0.38090652
-0.8739808	o g r	-1.4501588
-0.8517751	t g r	-0.2790617
-1.0524733	n g r	-0.7236393
-1.1087042	d g r	-0.28247303
-1.1733335	i g r	-1.0030009
-0.27497488	b g r	-0.28937712
-1.2416039	l g r	-0.43509558
-0.5370935	w g r	-0.2689856
-0.5370935	k g r	-0.28937712
-1.1278316	y g r	-0.2689856
-1.4871564	<w> s r	-0.28937712
-1.387704	s s r	-0.43934524
-2.306001	a s r	-0.2689856
-2.2595196	o s r	-0.2689856
-2.0243647	n s r	-0.2689856
-1.865727	i s r	-0.67595565
-1.5532837	w s r	-0.2689856
-1.092376	<w> c r	-1.5627402
-1.2957581	r c r	-0.28522152
-1.2085401	e c r	-0.82539904
-1.3827691	u c r	-0.51794314
-0.75529474	s c r	-1.334185
-1.2787582	c c r	-0.35602048
-1.496757	a c r	-0.7520633
-1.2899978	o c r	-0.77006125
-1.4048038	t c r	-0.2689856
-1.0127697	n c r	-0.6242679
-1.1155268	d c r	-0.2689856
-1.8174906	i c r	-1.1342342
-1.2644322	m c r	-0.2689856
-1.3659449	l c r	-0.2689856
-1.0761279	x c r	-0.2689856
-1.4046143	y c r	-0.2689856
-1.3654106	<w> a r	-0.99658436
-1.4319562	r a r	-0.6068896
-1.0117971	e a r	-1.0470905
-1.0301374	f a r	-0.50859714
-0.9775241	u a r	-0.75949544
-0.8377384	g a r	-0.6546527
-1.1435412	s a r	-0.5678739
-1.0845051	c a r	-0.9168408
-1.0049001	a a r	-0.2689856
-0.99601984	p a r	-1.2071333
-1.0556586	h a r	-0.9526839
-1.1059196	o a r	-0.8992379
-1.1702187	t a r	-0.82557267
-1.1507447	n a r	-0.8420716
-1.4086344	d a r	-0.43968892
-1.1859114	i a r	-0.5816033
-1.0291499	m a r	-0.93149465
-0.9809147	b a r	-0.7918504
-1.2593029	l a r	-1.0596168
-0.9111088	w a r	-0.8836414
-1.1317672	k a r	-0.3350765
-1.0118154	v a r	-0.6344764
-1.3019843	x a r	-0.2689856
-0.7945126	y a r	-0.87838227
-0.9261273	z a r	-0.43184888
-1.3429143	j a r	-0.2779305
-1.1345687	<w> p r	-2.0080616
-1.0327443	r p r	-0.9579743
-1.2902697	e p r	-1.0942985
-1.4826522	u p r	-0.37710363
-0.97498995	s p r	-0.827622
-1.395432	a p r	-0.45893282
-1.1636755	p p r	-1.2010124
-1.3979313	o p r	-0.7943424
-1.1587048	t p r	-0.2689856
-1.1735507	n p r	-0.7624545
-1.051966	d p r	-0.2689856
-1.6011307	i p r	-0.28247303
-1.4435346	m p r	-1.0931191
-0.8051213	b p r	-0.2689856
-1.1121433	l p r	-0.2790617
-1.0191052	x p r	-1.0196517
-0.94976926	y p r	-0.29321718
-1.0877036	<w> h r	-0.2689856
-1.461277	e h r	-0.2689856
-1.0198191	u h r	-0.2689856
-1.586812	g h r	-0.2689856
-1.716975	s h r	-0.75163513
-1.2885664	c h r	-0.974502
-1.2869743	a h r	-0.30172527
-1.1538332	p h r	-0.7376864
-1.473089	o h r	-0.2689856
-1.2071428	t h r	-1.138387
-1.5247837	w h r	-0.2689856
-1.3838296	k h r	-0.31015685
-1.1510922	y h r	-0.2689856
-1.343048	<w> o r	-0.8449102
-1.5830588	r o r	-0.6046865
-1.2081755	e o r	-0.669354
-0.56533325	f o r	-1.198391
-1.0709475	u o r	-0.40177798
-1.1567705	g o r	-0.48730147
-1.0407583	s o r	-0.7481986
-1.1623156	c o r	-0.99384636
-1.1810043	a o r	-0.28247303
-0.93096805	p o r	-1.1169442
-1.1500138	h o r	-0.9127554
-1.1498826	o o r	-0.47998577
-1.1450329	t o r	-1.3384138
-1.1262425	n o r	-0.849111
-1.1293302	d o r	-0.64448804
-1.0552828	i o r	-0.74179685
-1.0100869	m o r	-0.9226088
-1.0384188	b o r	-0.78008777
-1.1771538	l o r	-0.89050364
-0.49948108	w o r	-0.9800768
-1.1920571	k o r	-0.35603032
-0.971647	v o r	-0.54676175
-1.2519307	x o r	-0.2790617
-1.098898	y o r	-0.3595216
-1.301162	z o r	-0.2689856
-1.0664709	j o r	-0.33460987
-1.1541133	<w> t r	-1.742792
-1.2702307	r t r	-0.6218275
-1.2382689	e t r	-1.1186037
-1.4788793	f t r	-0.2689856
-1.5396867	u t r	-0.7288141
-0.96117604	g t r	-0.2689856
-0.9458626	s t r	-1.7094717
-1.2066231	c t r	-0.96375614
-1.2899221	a t r	-1.0122571
-1.5231928	p t r	-0.2689856
-1.3973827	h t r	-0.2689856
-1.3594553	o t r	-0.5015704
-1.3213656	t t r	-0.65694433
-1.1397923	n t r	-1.3559144
-1.3229382	i t r	-0.6569946
-0.96099514	b t r	-0.43509558
-1.189334	l t r	-0.60176146
-1.2902457	x t r	-0.76305866
-1.5338078	y t r	-0.2689856
-1.7738799	r n r	-0.2689856
-1.7609551	e n r	-0.5876532
-1.8795432	u n r	-0.8866453
-1.5958972	o n r	-0.33643335
-2.2348914	i n r	-0.2689856
-1.512188	w n r	-0.2689856
-1.1406817	<w> d r	-1.3301662
-1.3020924	r d r	-0.37239844
-1.2929374	e d r	-0.5097292
-1.7119261	u d r	-0.2689856
-1.2096955	a d r	-0.67813367
-0.8122872	p d r	-0.2689856
-0.94125193	h d r	-0.39640242
-1.6031697	o d r	-0.29609442
-0.7396372	t d r	-0.28937712
-1.1326371	n d r	-0.7791602
-1.4674873	d d r	-0.61118686
-1.8834776	i d r	-0.2689856
-1.0307925	b d r	-0.2689856
-1.2849398	l d r	-0.29609442
-0.9852857	w d r	-0.2689856
-0.9533669	k d r	-0.2689856
-0.95202816	y d r	-0.77006125
-1.3474965	<w> i r	-0.87543076
-1.3189803	e i r	-0.3325345
-1.0458269	f i r	-1.0683024
-1.2585236	u i r	-0.5993868
-1.3968413	g i r	-0.6050608
-1.9352132	s i r	-0.44357848
-1.6540679	c i r	-1.3771036
-1.0179216	a i r	-0.76949835
-1.2991073	p i r	-1.0883081
-1.4183934	h i r	-0.62463784
-1.0788735	o i r	-0.57693785
-1.5049918	t i r	-0.68556404
-1.7404906	n i r	-0.2689856
-1.3790606	d i r	-0.7815953
-1.1847123	m i r	-0.5590601
-1.0778512	b i r	-0.66482055
-2.0424125	l i r	-0.39640242
-1.3313699	w i r	-0.5425304
-1.33671	k i r	-0.5213411
-1.7294356	v i r	-0.52941567
-1.5771389	z i r	-0.2689856
-1.2244067	<w> m r	-0.28937712
-2.1721127	e m r	-0.2689856
-2.015586	a m r	-0.2689856
-2.1292415	o m r	-0.2994924
-1.6693074	l m r	-0.2689856
-0.99402523	<w> b r	-1.6414716
-1.0910661	r b r	-0.27702767
-0.7902491	e b r	-0.7251302
-1.1815938	u b r	-0.5381141
-0.9638047	g b r	-0.2689856
-1.3103291	s b r	-0.2689856
-0.67028946	c b r	-0.2689856
-1.1472359	a b r	-0.65257955
-0.99827677	p b r	-0.2689856
-0.9211019	h b r	-0.2689856
-1.3742602	o b r	-0.2994924
-0.67572993	t b r	-0.35603032
-1.0368657	n b r	-0.29321718
-1.3037747	d b r	-0.2689856
-1.2295964	i b r	-0.70809686
-0.9093957	m b r	-0.60849607
-1.3512172	b b r	-0.31015685
-0.946693	l b r	-0.47558367
-1.1131556	w b r	-0.2689856
-0.9638047	k b r	-0.2689856
-0.5318809	x b r	-0.2689856
-0.86010873	y b r	-0.2790617
-1.7561657	e l r	-0.28522152
-1.8810472	a l r	-0.3326263
-2.2819228	o l r	-0.2689856
-1.6235647	n l r	-0.2689856
-2.1319427	i l r	-0.53200555
-1.9120749	l l r	-0.2689856
-1.0918596	<w> w r	-1.0124481
-1.2484181	r w r	-0.53200555
-1.5805655	e w r	-0.7361256
-1.022692	g w r	-0.2689856
-1.2213731	s w r	-0.28937712
-1.471799	a w r	-0.28522152
-0.87900114	p w r	-0.28937712
-1.537876	o w r	-0.2790617
-1.2996652	n w r	-0.2689856
-1.5418415	d w r	-0.2689856
-0.80276775	w w r	-0.2689856
-1.0936484	y w r	-0.43509558
-1.2838804	<w> k r	-0.56574416
-1.7037911	r k r	-0.2689856
-1.4822726	u k r	-0.28937712
-1.4236225	c k r	-0.39640242
-1.5933594	a k r	-0.28247303
-1.5099058	n k r	-0.31015685
-1.1243138	<w> v r	-0.2689856
-1.8409419	e v r	-0.2689856
-1.3753958	u v r	-0.2689856
-1.6941295	a v r	-0.2689856
-1.8130976	i v r	-0.28937712
-0.94906855	<w> x r	-0.28937712
-1.7876961	e x r	-0.2689856
-1.7672349	e y r	-0.2689856
-1.3542907	g y r	-0.38090652
-1.4186339	s y r	-0.51794314
-1.232339	c y r	-0.2689856
-1.6216334	a y r	-0.28937712
-1.2677544	p y r	-0.306304
-1.5409248	h y r	-0.6630528
-1.7297548	o y r	-0.2689856
-1.0018799	t y r	-0.45076007
-1.4313015	m y r	-0.2689856
-1.3088112	b y r	-0.2890835
-1.6607833	l y r	-0.7361256
-1.4369307	k y r	-0.2689856
-1.6111395	e z r	-0.2689856
-1.5443449	t z r	-0.2689856
-1.3032694	l z r	-0.2689856
-1.3565416	</w> <w> e	-1.6819818
-0.7905059	<w> r e	-1.5847025
-0.9206202	r r e	-0.9703074
-1.1683528	e r e	-1.19984
-0.61068314	f r e	-0.77581584
-1.0109618	u r e	-1.2584906
-0.7043025	g r e	-1.0287529
-0.7862557	s r e	-0.43334335
-0.73443496	c r e	-1.0128578
-1.1616013	a r e	-0.94229263
-0.7065445	p r e	-1.1918652
-0.7881331	h r e	-0.5620123
-1.0568907	o r e	-0.9902009
-0.7210637	t r e	-0.92678946
-0.909266	n r e	-0.5635413
-0.6968464	d r e	-0.78783476
-0.9576948	i r e	-1.0048045
-0.7623385	b r e	-0.8076657
-1.1334978	l r e	-0.28937712
-0.9340259	w r e	-0.4957934
-1.1285068	k r e	-0.2689856
-0.5936173	v r e	-0.2994924
-0.5428871	x r e	-0.2689856
-1.1336613	y r e	-0.2994924
-1.3950015	<w> e e	-0.28937712
-1.2476653	r e e	-0.84298456
-1.8670659	e e e	-0.2689856
-1.1263216	f e e	-0.4902423
-1.8386576	u e e	-0.30073142
-1.3364705	g e e	-0.4274596
-1.2474408	s e e	-0.57668626
-1.2396036	c e e	-0.7388251
-1.4464494	p e e	-0.49918765
-1.2135621	h e e	-0.64563394
-1.7369373	o e e	-0.2689856
-1.1826336	t e e	-0.7609417
-1.3312402	n e e	-0.70591056
-1.4551802	d e e	-0.57517314
-2.0458543	i e e	-0.2689856
-1.8086156	m e e	-0.38314512
-1.4470348	b e e	-0.3875859
-1.337421	l e e	-0.5780835
-1.0976125	w e e	-0.6605295
-0.96471107	k e e	-0.601053
-1.7205501	v e e	-0.39640242
-1.5110387	y e e	-0.28247303
-1.5803242	z e e	-0.2689856
-1.4513818	j e e	-0.28247303
-1.0009269	<w> f e	-0.9495268
-0.8787061	r f e	-0.6827091
-0.993701	e f e	-0.8350961
-1.0140827	f f e	-0.9963385
-0.7000953	g f e	-0.28937712
-0.9583142	s f e	-0.6734284
-0.5342498	c f e	-0.31015685
-0.85823643	a f e	-0.40045914
-1.0358292	p f e	-0.2689856
-1.2042629	o f e	-0.7135346
-1.3881099	t f e	-0.2689856
-0.89235294	n f e	-0.74179685
-1.0075744	i f e	-0.5662596
-0.79184914	m f e	-0.28937712
-0.8891555	l f e	-0.29321718
-0.9603261	w f e	-0.2689856
-0.9648085	k f e	-0.2689856
-1.0596836	y f e	-0.2689856
-0.27341747	z f e	-0.2689856
-1.3467333	r u e	-0.34648892
-1.4506732	e u e	-0.28247303
-1.5436702	f u e	-0.61118686
-0.97203046	g u e	-0.936901
-1.2694594	s u e	-0.4529348
-1.4893907	c u e	-0.35615322
-1.3579785	a u e	-0.5425304
-1.5176226	p u e	-0.2994924
-1.5202328	h u e	-0.28247303
-1.6318977	o u e	-0.37239844
-1.3753749	t u e	-0.33884308
-1.3317461	n u e	-0.3990819
-1.1164165	d u e	-0.33643335
-1.2546293	m u e	-0.39640242
-1.4804438	b u e	-0.2890835
-1.2715744	l u e	-0.57986367
-0.62330836	q u e	-1.054442
-1.15376	z u e	-0.28937712
-1.4883192	j u e	-0.2689856
-1.0532056	<w> g e	-0.93775946
-0.9132424	r g e	-0.94715995
-0.7323818	e g e	-0.62003565
-0.8535746	u g e	-0.47444803
-0.87265897	g g e	-1.0939962
-0.89563406	s g e	-0.2689856
-0.8557352	c g e	-0.2689856
-0.80091304	a g e	-1.1913903
-0.8606169	h g e	-0.2689856
-0.8804771	o g e	-0.66924834
-0.70578	t g e	-0.2689856
-1.0670257	n g e	-1.240179
-0.75275004	d g e	-0.8456725
-1.0503507	i g e	-0.79893255
-0.6485622	l g e	-0.3645145
-1.1521753	y g e	-0.28937712
-0.2791138	z g e	-0.2689856
-1.283196	<w> s e	-1.2009245
-1.1797191	r s e	-0.7638701
-1.123471	e s e	-0.91762197
-1.3243417	f s e	-0.28937712
-0.9202194	u s e	-0.91627306
-1.0417348	s s e	-1.1487079
-1.1275535	a s e	-0.9453031
-0.97657496	p s e	-0.59646356
-1.3577756	h s e	-0.28937712
-1.0710503	o s e	-0.85536176
-1.023606	t s e	-0.32511234
-1.0958008	n s e	-0.8171813
-1.6070876	d s e	-0.2689856
-1.1402107	i s e	-1.0888152
-1.0056133	m s e	-0.42103314
-0.9205469	b s e	-0.70011187
-1.0603396	l s e	-0.32073423
-1.34097	w s e	-0.2689856
-1.3383679	k s e	-0.2689856
-0.29214483	x s e	-0.2689856
-0.92171913	y s e	-0.28142053
-1.0661826	<w> c e	-0.89785945
-1.0237374	r c e	-0.71847093
-1.1979823	e c e	-0.836074
-0.99634343	u c e	-0.66108745
-1.0036258	s c e	-0.90708953
-0.97470784	c c e	-0.7983341
-1.0617471	a c e	-0.91172045
-0.92128843	p c e	-0.2689856
-0.91688037	h c e	-0.28937712
-1.0619186	o c e	-0.6370855
-1.3737371	t c e	-0.2689856
-1.0009902	n c e	-1.4574559
-1.0174389	i c e	-0.9964991
-1.0816408	m c e	-0.2790617
-1.1602399	l c e	-0.37239844
-0.9260631	w c e	-0.2689856
-1.0517246	x c e	-0.5759721
-0.78965837	y c e	-0.49261695
-1.4585946	<w> a e	-0.71242374
-1.6144812	r a e	-0.33460987
-2.16246	e a e	-0.2689856
-1.6711962	f a e	-0.2689856
-1.7300465	g a e	-0.2689856
-1.8926444	c a e	-0.2689856
-1.300678	a a e	-0.2689856
-1.9691329	p a e	-0.28247303
-1.5648211	h a e	-0.3872447
-1.5164378	n a e	-0.32803786
-1.8319465	d a e	-0.2689856
-1.7439884	i a e	-0.28247303
-1.824653	m a e	-0.27567694
-2.0000606	b a e	-0.2689856
-1.707528	l a e	-0.29211658
-1.8869696	v a e	-0.2689856
-1.6780498	z a e	-0.2689856
-1.120309	<w> p e	-1.257771
-0.922987	r p e	-0.74671566
-1.2056785	e p e	-0.76529425
-1.0157952	u p e	-0.99700284
-0.9328112	g p e	-0.2689856
-0.7914082	s p e	-1.2349662
-0.98905504	a p e	-0.8071009
-0.9107946	p p e	-1.1524001
-1.024047	o p e	-0.9946732
-0.7774167	t p e	-0.2689856
-1.1627982	n p e	-0.28247303
-1.042642	d p e	-0.2689856
-1.0265834	i p e	-0.50032544
-1.115557	m p e	-1.0173407
-0.7983847	b p e	-0.28937712
-0.96477854	l p e	-0.39640242
-1.008369	x p e	-0.8667741
-1.0836756	y p e	-0.6254273
-1.0116755	<w> h e	-1.0443484
-0.6718875	r h e	-0.5322445
-0.81956553	e h e	-0.767742
-0.6897958	f h e	-0.2689856
-0.8385649	g h e	-0.5125441
-0.9017951	s h e	-1.1640681
-0.91399026	c h e	-1.1973518
-1.2268745	a h e	-0.2689856
-0.8184898	p h e	-0.7468314
-0.8166858	h h e	-0.2790617
-1.0874264	o h e	-0.41139376
-0.99398726	t h e	-1.2651064
-0.72634536	n h e	-0.5468203
-0.78380334	d h e	-0.58636326
-0.8582758	m h e	-0.2689856
-0.82395965	l h e	-0.29609442
-0.67328477	w h e	-0.77618104
-0.6718875	k h e	-0.39529932
-1.096315	y h e	-0.2689856
-0.8535111	z h e	-0.2689856
-1.3802372	<w> o e	-0.28247303
-1.4454964	r o e	-0.32289875
-1.771817	e o e	-0.2689856
-1.5976733	f o e	-0.2689856
-1.2536231	g o e	-0.48841122
-1.6316557	s o e	-0.28247303
-1.8535047	c o e	-0.35907808
-1.6798378	p o e	-0.46948624
-1.2972003	h o e	-0.3931979
-1.318357	o o e	-0.30403084
-1.3124046	t o e	-0.47875434
-1.5185319	n o e	-0.2944053
-1.3630499	d o e	-0.4131753
-1.6272527	i o e	-0.28247303
-1.9458299	m o e	-0.2689856
-1.9563301	b o e	-0.2689856
-1.5811306	l o e	-0.39951953
-1.7510773	w o e	-0.28247303
-1.5702293	k o e	-0.2790617
-1.6967068	v o e	-0.2689856
-1.5174282	z o e	-0.28937712
-1.5479275	j o e	-0.2689856
-1.1430267	<w> t e	-1.16963
-1.1671195	r t e	-0.95138574
-0.99713635	e t e	-1.165149
-0.9375134	f t e	-0.7467988
-0.97743666	u t e	-1.0273688
-0.95423937	g t e	-0.2689856
-0.9439184	s t e	-1.3483202
-1.0965991	c t e	-1.2829887
-0.9907242	a t e	-1.6883575
-0.9180989	p t e	-0.8588004
-1.2298243	h t e	-0.8310615
-0.92706263	o t e	-0.83761406
-1.0733889	t t e	-1.4324365
-1.1344333	n t e	-1.4268221
-1.0636677	i t e	-1.1818011
-0.95423937	m t e	-0.2689856
-0.9542354	b t e	-0.29211658
-1.0797181	l t e	-1.0620111
-0.7677335	x t e	-0.7354271
-0.5911495	y t e	-0.29706812
-1.0716801	<w> n e	-0.9361375
-0.92861265	r n e	-0.94368804
-1.1627086	e n e	-1.0922674
-0.5144033	f n e	-0.28937712
-1.1295493	u n e	-0.62974125
-0.7928449	g n e	-0.7491161
-0.5952753	s n e	-0.85790694
-0.48644915	c n e	-0.27702767
-1.1093735	a n e	-0.7909061
-0.3056689	p n e	-0.35603032
-0.6076369	h n e	-0.8027846
-1.0512501	o n e	-1.141353
-0.3145647	t n e	-1.0461104
-0.84294444	n n e	-0.9415208
-0.44331294	d n e	-0.92001
-1.0946167	i n e	-1.2874067
-0.69326675	m n e	-0.30073142
-0.66785914	b n e	-0.2689856
-0.641801	l n e	-1.0145618
-1.0642049	w n e	-0.5404865
-0.49052086	k n e	-0.5425304
-0.27914634	v n e	-0.2689856
-0.544752	x n e	-0.2689856
-0.621472	y n e	-0.5425304
-1.1514045	<w> d e	-1.3917178
-1.0822744	r d e	-0.88846576
-1.063816	e d e	-0.811205
-0.97702974	u d e	-1.0310296
-0.81292486	g d e	-0.2689856
-0.9157372	s d e	-0.27702767
-0.89896154	c d e	-0.2689856
-0.8655574	a d e	-1.1213043
-0.9133504	o d e	-0.85227644
-1.0754865	n d e	-1.2835362
-0.9186762	d d e	-0.91880023
-0.8148941	i d e	-1.211966
-0.886777	m d e	-0.2689856
-0.99684834	l d e	-1.1076674
-0.992318	w d e	-0.5609619
-0.58436036	y d e	-0.28937712
-1.3167915	<w> i e	-0.2689856
-1.1381358	r i e	-1.1758227
-1.7505151	e i e	-0.2689856
-0.75572646	f i e	-1.2483155
-1.6701208	u i e	-0.7142053
-1.0676162	g i e	-0.79364693
-1.1614144	s i e	-0.6493296
-1.1392695	c i e	-1.0019882
-1.3235806	a i e	-0.2891569
-0.91264266	p i e	-0.728215
-1.3248523	h i e	-0.73930043
-1.680269	o i e	-0.2689856
-1.1658084	t i e	-1.2795849
-1.2093015	n i e	-0.7398715
-1.1052505	d i e	-0.8476546
-1.1770935	m i e	-0.48450726
-1.2507248	b i e	-0.4990647
-1.0748191	l i e	-1.0194476
-1.5925434	w i e	-0.35603032
-1.2171992	k i e	-0.55828214
-1.0723922	v i e	-0.73316437
-1.1321512	x i e	-0.2790617
-1.2749574	y i e	-0.53200555
-0.74262536	z i e	-0.49261695
-1.0022625	<w> m e	-1.1846521
-0.9600446	r m e	-0.9358068
-0.85519063	e m e	-1.2163528
-0.95425487	u m e	-0.9532361
-0.53390837	g m e	-1.2132468
-0.6979106	s m e	-0.6446859
-0.88014174	a m e	-0.974459
-0.7258273	p m e	-0.8330356
-0.73021704	h m e	-0.91221684
-0.8790481	o m e	-1.0101492
-0.45402426	t m e	-1.1545887
-0.5893841	n m e	-0.8574027
-0.71109265	d m e	-0.8330356
-0.8669646	i m e	-1.0606893
-0.75504243	m m e	-1.004139
-0.74301046	b m e	-0.28247303
-0.85243964	l m e	-0.56574416
-0.53853315	w m e	-0.53200555
-0.54731655	k m e	-0.2994924
-0.64281446	y m e	-0.79208916
-0.6803389	z m e	-0.2689856
-0.98236847	<w> b e	-1.2037334
-0.959	r b e	-0.6030955
-0.82135594	e b e	-0.47504723
-0.6647189	f b e	-0.2689856
-0.74610394	u b e	-0.6260015
-0.7383908	g b e	-0.2689856
-0.83393455	s b e	-0.4556958
-0.6647189	c b e	-0.2689856
-0.9913791	a b e	-0.78570235
-0.6187125	p b e	-0.2689856
-1.089298	h b e	-0.2689856
-0.8582183	o b e	-0.67692745
-0.9299402	t b e	-0.2689856
-0.56542027	n b e	-0.58106476
-0.7661628	d b e	-0.29211658
-0.72869986	i b e	-0.9748381
-0.98010254	m b e	-0.8849015
-0.79379916	b b e	-0.76747024
-0.6924936	l b e	-0.5178437
-0.77510893	w b e	-0.29321718
-0.57480216	k b e	-0.30172527
-0.74590236	y b e	-0.3372638
-0.5278235	z b e	-0.2689856
-0.9346316	<w> l e	-0.95896673
-0.9032377	r l e	-0.6924194
-1.0072159	e l e	-1.0756061
-0.812265	f l e	-0.697537
-1.0145086	u l e	-0.63141024
-0.6765579	g l e	-0.76612806
-0.42878574	s l e	-0.60855025
-0.7056218	c l e	-0.8952441
-1.0388432	a l e	-0.932106
-0.720345	p l e	-0.98422956
-0.51278406	h l e	-0.56250036
-1.0205812	o l e	-0.8501957
-0.5464836	t l e	-0.9883674
-0.69884163	n l e	-0.6013799
-0.6756749	d l e	-0.96269584
-1.006772	i l e	-0.97751
-0.59532917	m l e	-0.5178437
-0.667048	b l e	-1.455772
-1.0146573	l l e	-1.2100983
-0.8123844	w l e	-0.7010087
-0.7595054	k l e	-0.7984205
-0.68216395	v l e	-0.2689856
-0.32659376	x l e	-0.2689856
-0.7688085	y l e	-0.4238094
-0.8474586	z l e	-0.5923625
-0.9845969	<w> w e	-0.9535415
-0.68750286	r w e	-0.37119547
-0.8003759	e w e	-0.7278181
-0.93515784	g w e	-0.2689856
-0.7578782	s w e	-0.8437088
-0.983704	a w e	-0.39205918
-0.71362567	h w e	-0.4131753
-0.8851565	o w e	-1.041852
-0.6353097	t w e	-0.40426677
-1.020558	n w e	-0.29321718
-0.80728483	d w e	-0.55060893
-0.68997467	i w e	-0.2689856
-0.65707827	m w e	-0.28937712
-0.65707827	b w e	-0.2689856
-1.0865041	l w e	-0.2689856
-1.2278333	k w e	-0.28937712
-0.66398704	x w e	-0.2689856
-1.0178877	y w e	-0.28247303
-0.4942652	z w e	-0.28937712
-1.0913534	<w> k e	-0.64085925
-0.9820463	r k e	-0.6928898
-0.84897035	e k e	-0.39702412
-0.5338322	u k e	-0.44656968
-1.0406535	s k e	-0.5586468
-0.96750885	c k e	-1.2335634
-0.7363563	a k e	-1.0146557
-0.5479754	p k e	-0.28247303
-0.91033345	h k e	-0.2689856
-0.6566484	o k e	-0.9218356
-0.90889513	n k e	-0.7065572
-0.68951464	d k e	-0.28937712
-0.81494516	i k e	-0.86351836
-0.8463025	l k e	-0.53211606
-0.95210606	w k e	-0.2790617
-0.5930364	k k e	-0.2790617
-0.83973944	y k e	-0.43509558
-0.85076696	<w> v e	-0.98579884
-0.81190765	r v e	-0.8294771
-0.63545996	e v e	-1.130269
-0.5609679	u v e	-0.51794314
-0.2451213	g v e	-0.2689856
-0.5427182	s v e	-0.3326263
-0.6055924	a v e	-1.1023855
-0.6146724	h v e	-0.2689856
-0.5075597	o v e	-1.4042207
-0.671892	n v e	-0.94363403
-0.73004997	d v e	-0.90609086
-0.57640624	i v e	-1.62025
-0.36315885	b v e	-0.61118686
-0.58150625	l v e	-0.6937095
-0.48396903	v v e	-0.2689856
-0.69032955	y v e	-0.2689856
-0.48396903	z v e	-0.2689856
-0.84511447	<w> x e	-0.31015685
-0.92381036	e x e	-0.62171173
-0.83942777	u x e	-0.2689856
-0.70079386	a x e	-0.4651023
-1.1609926	o x e	-0.2839712
-0.8605529	n x e	-0.2689856
-1.0113473	i x e	-0.43509558
-1.0390749	<w> y e	-0.7178854
-1.2851348	r y e	-0.2790617
-0.85207593	e y e	-0.51720095
-1.1716632	u y e	-0.28937712
-1.549573	s y e	-0.2689856
-0.9441232	a y e	-0.88924295
-1.4689355	h y e	-0.2689856
-0.93245834	o y e	-0.5086258
-1.6027594	t y e	-0.2689856
-1.4832753	n y e	-0.28937712
-1.5210385	d y e	-0.2790617
-0.6185273	i y e	-0.2689856
-1.1733961	m y e	-0.28937712
-1.267679	b y e	-0.31015685
-1.2786927	l y e	-0.3308565
-0.95643395	w y e	-0.43509558
-1.3779644	k y e	-0.2689856
-0.30038184	k q e	-0.2689856
-0.88848054	<w> z e	-0.3468886
-0.8538002	r z e	-0.2689856
-1.0890828	e z e	-0.41103935
-0.9821845	u z e	-0.28247303
-0.48242003	s z e	-0.2689856
-0.78793377	c z e	-0.2689856
-0.6594208	a z e	-0.54306895
-0.50904757	h z e	-0.2689856
-0.7235451	o z e	-0.40338016
-1.008371	t z e	-0.4973372
-0.65194976	n z e	-0.28748327
-0.6391866	d z e	-0.2689856
-0.62846637	i z e	-1.4946125
-0.8129161	l z e	-0.2689856
-0.72953105	y z e	-0.3913153
-0.8490445	z z e	-0.28615484
-0.774435	<w> j e	-0.6407764
-0.71634495	r j e	-0.2689856
-0.68902206	e j e	-0.71669865
-0.8493396	a j e	-0.47558367
-0.780952	o j e	-0.9469789
-0.97823477	n j e	-0.7361256
-0.61414003	d j e	-0.2994924
-1.0015591	i j e	-0.2689856
-0.30757552	b j e	-1.1287962
-1.375495	</w> <w> f	-2.1271977
-1.5446163	e r f	-0.9542196
-1.9622836	u r f	-0.47049654
-1.8072729	a r f	-0.29053557
-1.926689	o r f	-0.28247303
-2.14094	i r f	-0.27702767
-1.3973136	<w> e f	-1.3243973
-1.6017307	r e f	-1.0521355
-1.6196859	e e f	-0.29085007
-1.820409	f e f	-0.2689856
-1.6781884	u e f	-0.28247303
-1.9277387	g e f	-0.2689856
-1.8103727	s e f	-0.4973372
-1.6944333	c e f	-0.6819365
-1.667575	a e f	-0.28247303
-1.6803288	p e f	-0.29321718
-1.6994333	h e f	-0.29211658
-1.4618969	o e f	-0.30172527
-1.6956866	t e f	-0.5901135
-1.6302196	n e f	-0.6068896
-1.6800796	d e f	-0.89892423
-1.4525477	i e f	-0.4804263
-1.698237	m e f	-0.2790617
-1.9473797	b e f	-0.37663168
-1.5795506	l e f	-0.4755836
-1.764455	k e f	-0.28247303
-1.8619542	v e f	-0.2689856
-1.6844294	y e f	-0.2689856
-1.7630507	z e f	-0.2689856
-1.4535037	j e f	-0.43509558
-1.1292832	<w> f f	-0.2689856
-0.89139414	e f f	-0.78501105
-1.6127949	f f f	-0.2689856
-0.22881204	u f f	-0.78328633
-0.71175224	a f f	-0.8409698
-1.1662532	p f f	-0.2689856
-0.55519044	o f f	-0.957526
-0.80429256	i f f	-0.78617513
-1.5190674	l f f	-0.2689856
-1.1944759	y f f	-0.2689856
-1.4567741	r u f	-0.6516749
-1.7892702	g u f	-0.2689856
-1.552162	s u f	-1.1947634
-1.5288343	c u f	-0.61118686
-1.7206849	a u f	-0.47558367
-1.5706207	p u f	-0.61118686
-1.4460132	h u f	-0.61118686
-1.8117617	o u f	-0.30172527
-1.6574466	t u f	-0.6005224
-1.5122379	n u f	-0.45893282
-1.7176132	d u f	-0.39640242
-1.7773557	m u f	-0.53200555
-1.6659993	b u f	-0.97916365
-1.6987771	l u f	-0.47558367
-1.8827847	e g f	-0.2689856
-1.5898848	n g f	-0.40126103
-1.4530972	<w> s f	-0.28937712
-1.7800753	r s f	-0.2689856
-2.2514877	e s f	-0.2689856
-2.1505105	u s f	-0.2689856
-1.5344256	s s f	-0.6005224
-1.9358016	t s f	-0.2689856
-1.6399081	n s f	-0.70280796
-1.8461354	i s f	-0.55699784
-1.7910991	l s f	-0.2689856
-1.6113942	m c f	-0.2994924
-1.4614089	<w> a f	-0.87198925
-1.5553161	r a f	-0.802497
-1.6121017	e a f	-0.37326562
-1.8417689	f a f	-0.2689856
-1.7886915	u a f	-0.2689856
-1.4852235	s a f	-0.64751893
-1.7610178	c a f	-0.4131753
-1.3025594	a a f	-0.2689856
-1.806918	h a f	-0.40338016
-1.6389441	o a f	-0.2689856
-1.9703821	t a f	-0.7403753
-1.8462068	n a f	-0.2689856
-1.9941369	d a f	-0.2689856
-2.0037248	b a f	-0.53200555
-1.8128624	l a f	-0.2689856
-1.8303634	w a f	-0.28937712
-1.8161222	k a f	-0.2689856
-1.2881314	<w> p f	-0.27702767
-1.8556132	u p f	-0.2689856
-2.0792994	a p f	-0.2689856
-2.0841265	o p f	-0.28937712
-1.9739558	i p f	-0.2689856
-1.6257997	m p f	-0.2689856
-1.6060715	l p f	-0.31015685
-1.835031	e h f	-0.2689856
-1.6019528	g h f	-0.28247303
-1.7298938	s h f	-0.28247303
-1.7894311	c h f	-0.2994924
-1.4464066	t h f	-0.6781336
-1.4367123	<w> o f	-1.2041035
-2.0029242	r o f	-0.70591056
-1.6562972	e o f	-0.28937712
-1.5305926	s o f	-0.7142053
-1.7859062	c o f	-0.6516749
-1.7225966	p o f	-0.31015685
-1.7710997	h o f	-0.39640242
-1.4943403	o o f	-0.53775275
-1.7000959	t o f	-0.28640476
-1.4590288	n o f	-0.6005224
-1.8433354	d o f	-0.28937712
-1.8722427	m o f	-0.28247303
-1.8767986	b o f	-0.2689856
-1.6035596	l o f	-0.29211658
-1.8091267	w o f	-0.2689856
-1.1420516	k o f	-0.54848975
-1.4449118	y o f	-0.30172527
-1.4705346	r t f	-0.29211658
-1.8985989	e t f	-0.43509558
-1.5970634	f t f	-0.2689856
-2.0158434	u t f	-0.3913153
-1.6701232	s t f	-0.4973372
-1.5547483	c t f	-0.31015685
-1.7777834	a t f	-0.38090652
-1.5152019	h t f	-0.53744334
-2.084802	o t f	-0.28937712
-1.6541684	n t f	-0.2790617
-1.6210195	i t f	-0.51794314
-1.2611036	b t f	-0.28937712
-1.5076063	r n f	-0.39640242
-1.5528486	e n f	-0.51794314
-1.9538146	u n f	-0.6691788
-1.8240204	a n f	-0.27702767
-1.4701226	h n f	-0.2689856
-1.8269254	o n f	-0.9835727
-1.7187896	n n f	-0.2689856
-1.5937728	i n f	-1.0634845
-1.4455688	w n f	-0.2689856
-1.8725101	e d f	-0.2790617
-1.8785064	a d f	-0.27702767
-1.9431351	o d f	-0.2689856
-1.5955743	n d f	-0.45893282
-1.8309656	l d f	-0.2689856
-1.3383237	<w> i f	-0.2689856
-1.3174714	r i f	-0.8436787
-1.7707295	e i f	-0.2689856
-1.849074	f i f	-0.5425304
-1.6966385	u i f	-0.2689856
-1.7977506	g i f	-0.2994924
-1.4368476	s i f	-0.6259941
-1.2571415	c i f	-0.7624545
-1.883781	p i f	-0.28247303
-1.7518053	h i f	-0.70819056
-1.8656921	o i f	-0.2689856
-1.3461109	t i f	-0.9918307
-1.3114296	n i f	-0.83573985
-1.4553574	d i f	-1.0548843
-1.6794956	m i f	-0.2994924
-1.5799807	b i f	-0.2790617
-1.3583536	l i f	-0.86351836
-1.3273894	w i f	-0.43509558
-1.7586141	k i f	-0.28937712
-1.7209702	v i f	-0.2790617
-1.5667313	z i f	-0.2689856
-1.3314507	j i f	-0.2689856
-1.7659863	r m f	-0.28937712
-1.7570437	u m f	-0.28247303
-2.0173454	a m f	-0.2689856
-1.9252301	o m f	-0.6734284
-2.147598	i m f	-0.2689856
-2.1166117	u b f	-0.2689856
-1.7569075	e l f	-0.5178835
-1.5626768	u l f	-0.4306584
-1.605673	a l f	-0.33259714
-1.6918933	o l f	-0.39951953
-1.832787	i l f	-0.29211658
-1.4035932	l l f	-0.4131753
-1.838918	e w f	-0.28247303
-1.6793871	a w f	-0.44785333
-1.917015	o w f	-0.2689856
-1.6212763	c k f	-0.27702767
-2.0286644	a k f	-0.31015685
-1.8631728	o k f	-0.28937712
-1.7974322	n k f	-0.44785333
-1.460573	o x f	-0.28937712
-1.5377308	i x f	-0.2689856
-1.9645156	r y f	-0.2689856
-1.7378024	a y f	-0.2689856
-1.472386	h y f	-0.2689856
-1.6953065	o y f	-0.28247303
-1.6637281	l y f	-0.2689856
-1.385364	r z f	-0.2689856
-1.411973	</w> <w> u	-1.7475442
-1.0330918	<w> r u	-0.8514372
-1.0383048	r r u	-0.6943542
-1.4381691	e r u	-0.44776264
-1.1785771	f r u	-0.57693785
-1.6234338	u r u	-0.2790617
-1.0834311	g r u	-0.41120994
-1.1563908	s r u	-0.7361256
-0.9822882	c r u	-0.68971676
-1.6180786	a r u	-0.27399442
-1.357532	p r u	-0.45875818
-0.88485754	h r u	-0.4146469
-1.6628747	o r u	-0.50032544
-0.8257309	t r u	-0.97507757
-1.0765903	n r u	-0.2790617
-0.94355994	d r u	-0.5862085
-1.5576605	i r u	-0.27702767
-0.9156178	b r u	-0.58382344
-1.1645092	l r u	-0.2689856
-0.9449505	k r u	-0.29211658
-1.1537664	y r u	-0.28937712
-1.4462261	<w> e u	-0.45710027
-1.560311	r e u	-0.37865648
-1.5638366	f e u	-0.3860669
-1.8978096	u e u	-0.2689856
-1.9896849	g e u	-0.2689856
-1.4600289	s e u	-0.5249175
-2.0223396	c e u	-0.2689856
-1.3722777	a e u	-0.31015685
-1.7151656	p e u	-0.2790617
-1.4940938	h e u	-0.38314512
-1.7239301	t e u	-0.552325
-1.5713475	n e u	-0.6734604
-1.5817758	d e u	-0.2994924
-1.4672996	i e u	-0.42335308
-2.0039783	m e u	-0.2689856
-2.0101259	b e u	-0.2689856
-1.5940458	l e u	-0.33460987
-1.9709508	k e u	-0.2689856
-1.2763487	j e u	-0.31015685
-1.0009269	<w> f u	-0.83310664
-1.0099443	r f u	-0.6953904
-0.72856075	e f u	-0.798884
-1.1009159	f f u	-0.6734284
-1.3368591	u f u	-0.2689856
-0.7000953	g f u	-0.61118686
-0.9583142	s f u	-0.6516749
-0.6886695	p f u	-0.53200555
-0.6256972	h f u	-0.97916365
-1.3137683	o f u	-0.29321718
-0.5787753	t f u	-1.389338
-0.89235294	n f u	-0.6309592
-0.90109885	d f u	-0.5058453
-1.3617454	i f u	-0.7142053
-0.62753546	m f u	-0.43509558
-0.9826506	l f u	-0.6734284
-0.9603261	w f u	-0.53200555
-0.74501455	k f u	-0.31015685
-0.7201377	y f u	-0.43509558
-1.9576364	f u u	-0.2689856
-2.0467172	c u u	-0.31015685
-2.229851	a u u	-0.2689856
-2.021733	n u u	-0.2689856
-2.2061794	l u u	-0.2689856
-1.1091782	<w> g u	-0.8863521
-1.0450084	r g u	-0.35907808
-1.2212566	e g u	-0.6169957
-1.1370168	u g u	-0.45751148
-1.1542568	s g u	-0.43509558
-1.1287156	a g u	-0.69155645
-1.129166	o g u	-0.9366699
-1.1278445	t g u	-0.28937712
-1.174985	n g u	-0.827622
-1.1801802	d g u	-0.28247303
-1.2042539	i g u	-0.64926445
-0.5612898	w g u	-0.2689856
-1.208919	y g u	-0.2689856
-1.3318353	<w> s u	-1.3076575
-1.4678428	r s u	-0.487241
-1.4634945	e s u	-0.59459543
-1.8387802	u s u	-0.37710363
-1.4182532	g s u	-0.2689856
-1.3149678	s s u	-0.66328883
-1.5924232	a s u	-0.752344
-1.4143518	p s u	-0.27702767
-1.5393207	o s u	-0.5109323
-1.4966005	t s u	-0.27702767
-1.3179815	n s u	-0.7081953
-1.6617751	d s u	-0.2689856
-1.6756626	i s u	-0.55272293
-1.6035911	m s u	-0.2689856
-1.3686328	b s u	-0.47558367
-1.3912481	w s u	-0.28937712
-1.3658631	y s u	-0.2689856
-1.0908352	<w> c u	-0.99587786
-1.0385975	r c u	-0.691894
-1.0116534	e c u	-0.8719408
-1.3814042	u c u	-0.38090652
-1.0713735	s c u	-0.70814884
-0.87402534	c c u	-0.86645937
-1.2537978	a c u	-0.45486796
-0.93370247	h c u	-0.2689856
-1.1654338	o c u	-0.60320187
-1.4029665	t c u	-0.28937712
-1.1906544	n c u	-0.6552512
-0.8898996	d c u	-0.2689856
-1.1560942	i c u	-0.8455087
-1.3640888	l c u	-0.8735237
-0.9421672	w c u	-0.2689856
-1.0746951	x c u	-0.43509558
-1.4139454	<w> a u	-0.97773516
-1.3651159	r a u	-0.41421914
-1.325937	e a u	-0.65125614
-1.3643559	f a u	-0.49566674
-1.562273	g a u	-0.31903675
-1.4660296	s a u	-0.42778414
-1.2742568	c a u	-0.6630528
-1.6423519	p a u	-0.60176146
-1.2866344	h a u	-0.57561076
-1.5704429	t a u	-0.46820784
-1.431837	n a u	-0.52619976
-1.6680288	d a u	-0.33884308
-1.9970484	i a u	-0.2689856
-1.913586	m a u	-0.3308565
-1.2675439	b a u	-0.32207978
-1.3034146	l a u	-0.7610453
-1.9367968	w a u	-0.2689856
-1.605756	k a u	-0.2994924
-1.4020299	v a u	-0.34648892
-1.6745641	y a u	-0.2689856
-1.5672933	j a u	-0.2689856
-1.159323	<w> p u	-0.9758856
-1.3163717	r p u	-0.2790617
-1.5298272	e p u	-0.59470785
-1.6348801	u p u	-0.43509558
-1.1987187	s p u	-0.6513315
-1.5052716	a p u	-0.4973372
-1.3151153	p p u	-0.2689856
-0.95259213	h p u	-0.2689856
-1.5081315	o p u	-0.9037853
-1.181979	t p u	-0.31015685
-1.1920078	n p u	-0.2689856
-1.1481935	i p u	-0.49751496
-1.234686	m p u	-0.6335358
-0.95259213	w p u	-0.2689856
-1.0375338	x p u	-0.2790617
-1.042011	<w> h u	-0.87675905
-1.3291937	r h u	-0.2689856
-1.2838043	e h u	-0.30172527
-1.316274	u h u	-0.2689856
-1.3817416	g h u	-0.2689856
-1.2671492	s h u	-0.5105901
-1.1602185	c h u	-0.51253664
-1.6024127	a h u	-0.2689856
-1.3169792	p h u	-0.29609442
-1.0773139	h h u	-0.2689856
-1.2353485	t h u	-0.56631017
-1.2399784	n h u	-0.31015685
-0.87860876	m h u	-0.2689856
-0.81640434	b h u	-0.2689856
-1.2072777	l h u	-0.2689856
-0.93394643	x h u	-0.2689856
-0.8743604	z h u	-0.2689856
-1.3604758	<w> o u	-1.1834773
-1.2402992	r o u	-1.1206172
-0.9954544	e o u	-1.1711557
-1.096489	f o u	-0.82121384
-0.5592229	u o u	-1.3645145
-1.1624347	g o u	-0.3723654
-1.3903928	s o u	-0.68399024
-1.2529851	c o u	-1.1299202
-0.8523871	a o u	-0.2689856
-1.2937429	p o u	-0.67788184
-0.99231607	h o u	-0.9000906
-1.3070413	t o u	-0.7671414
-1.1675119	n o u	-0.83526945
-1.4345328	d o u	-0.69371486
-0.90862954	i o u	-1.654081
-1.045275	m o u	-0.94508725
-1.1563092	b o u	-0.7443592
-1.2417991	l o u	-0.8792901
-1.5460714	w o u	-0.43509558
-1.1172458	k o u	-0.5058453
-1.0477028	v o u	-0.4623661
-1.2513309	y o u	-0.47915995
-1.4970956	z o u	-0.2689856
-0.87543356	j o u	-0.85335493
-1.1626194	<w> t u	-0.8050766
-1.1790094	r t u	-0.7220631
-1.5354252	e t u	-0.4071773
-1.4916067	f t u	-0.2689856
-1.4522196	u t u	-0.2915063
-1.2698395	s t u	-0.7558001
-1.0208455	c t u	-1.244116
-1.1590139	a t u	-0.82721055
-0.985149	p t u	-0.71460366
-1.4100754	h t u	-0.28937712
-1.6054116	o t u	-0.34030944
-1.4558291	t t u	-0.2689856
-1.2246947	n t u	-0.62125635
-1.2532439	i t u	-0.93741786
-1.6090432	l t u	-0.8246961
-1.0576618	w t u	-0.2689856
-1.1706762	k t u	-0.28937712
-1.0960269	x t u	-0.54848975
-1.1660491	<w> n u	-0.6202198
-1.2885927	r n u	-0.29321718
-1.4355009	e n u	-0.42067176
-1.7336017	u n u	-0.29211658
-1.2567768	g n u	-0.43509558
-1.3846356	s n u	-0.30073142
-1.5240686	a n u	-0.43909258
-1.3752065	h n u	-0.2689856
-1.4745946	o n u	-0.35602477
-1.019332	t n u	-0.30172527
-1.290723	n n u	-0.30073142
-1.5542992	i n u	-0.59005165
-1.0156859	l n u	-0.43509558
-1.3303628	w n u	-0.2689856
-1.4063463	k n u	-0.43509558
-1.1777325	<w> d u	-0.6999118
-1.3333886	r d u	-0.27702767
-1.2585534	e d u	-0.9106823
-1.6377919	u d u	-0.2689856
-1.3374224	s d u	-0.28937712
-1.7133358	a d u	-0.8330356
-1.2757041	o d u	-0.97382313
-1.2294164	n d u	-0.7297876
-1.5149708	d d u	-0.2689856
-1.5686064	i d u	-0.6165159
-0.9008937	m d u	-0.2689856
-0.7984187	b d u	-0.29321718
-1.4334251	l d u	-0.31015685
-1.2234939	w d u	-0.2689856
-1.4107082	<w> i u	-0.2689856
-1.6480768	r i u	-0.8744283
-1.788243	u i u	-0.2689856
-1.580162	g i u	-0.2890835
-1.7266085	s i u	-0.31015685
-1.2779076	c i u	-0.3860669
-2.0316434	a i u	-0.2689856
-1.8117887	p i u	-0.2689856
-1.9856651	h i u	-0.2689856
-1.683484	t i u	-0.4973372
-1.6556879	n i u	-0.6630528
-1.3318324	d i u	-0.74804854
-1.4766827	m i u	-0.4973372
-1.8425803	l i u	-0.5058453
-1.9678886	v i u	-0.2689856
-1.059848	<w> m u	-1.010285
-1.0910885	r m u	-0.6005224
-1.3370703	e m u	-0.35596207
-1.5849662	u m u	-0.6974324
-1.3039565	g m u	-0.2689856
-1.1917413	s m u	-0.3860669
-1.2294064	a m u	-0.5921484
-1.4216864	h m u	-0.2689856
-1.4719794	o m u	-0.3501085
-0.97179997	n m u	-0.2689856
-1.3858646	d m u	-0.2689856
-1.3028817	i m u	-0.72196364
-1.0368832	m m u	-1.0387164
-1.0111877	b m u	-0.2689856
-1.2517301	l m u	-0.2790617
-1.5364679	y m u	-0.2689856
-1.0487143	<w> b u	-1.0916344
-1.1349005	r b u	-0.3598745
-0.9625913	e b u	-0.4394341
-1.218828	u b u	-0.52619976
-0.5249259	s b u	-0.95597506
-1.2164055	a b u	-0.5843465
-1.0465884	p b u	-0.2689856
-1.2135853	o b u	-0.52619976
-0.96599627	t b u	-0.2994924
-0.8056368	n b u	-0.7703385
-0.7891304	d b u	-0.35603032
-1.1650615	i b u	-0.77378255
-1.0144931	m b u	-0.6860708
-1.2766459	b b u	-0.2689856
-1.1179876	l b u	-0.30172527
-1.1710291	w b u	-0.43509558
-0.8812823	y b u	-0.2981613
-0.9793	<w> l u	-0.77001965
-1.45821	r l u	-0.2790617
-1.5680566	e l u	-0.43715614
-0.9906103	f l u	-0.54819244
-1.3766779	u l u	-0.35602048
-1.0894223	g l u	-0.50204235
-1.4491711	s l u	-0.50106275
-1.0428016	c l u	-0.7814563
-1.5751113	a l u	-0.55388427
-1.2655137	p l u	-0.6089198
-1.4547205	h l u	-0.2689856
-1.2597646	o l u	-0.8046424
-1.4318274	n l u	-0.28937712
-1.3978566	d l u	-0.2790617
-1.5986032	i l u	-0.3598745
-1.2832769	b l u	-0.5972856
-1.2703509	l l u	-0.7202089
-1.29708	k l u	-0.2689856
-1.49523	y l u	-0.2689856
-1.1843369	<w> w u	-0.2689856
-1.856549	e w u	-0.2689856
-1.5241367	s w u	-0.2689856
-1.3767092	h w u	-0.2689856
-1.7618122	o w u	-0.2689856
-1.2611915	t w u	-0.31015685
-1.4148053	k w u	-0.28937712
-1.2021846	<w> k u	-0.2839712
-1.56756	r k u	-0.2689856
-1.1748204	u k u	-0.2689856
-1.7675772	s k u	-0.39640242
-1.3611676	c k u	-0.2994924
-1.385441	a k u	-0.28522152
-1.3495898	o k u	-0.30172527
-1.0334835	t k u	-0.2689856
-1.4408675	i k u	-0.2689856
-1.0776534	k k u	-0.2689856
-1.1222506	<w> v u	-0.6005224
-1.6392313	e v u	-0.2689856
-1.3708805	a v u	-0.28522152
-1.1308281	n v u	-0.61118686
-1.2666883	i v u	-0.2790617
-1.428396	e x u	-0.41139376
-1.3615243	u x u	-0.43509558
-1.1366969	<w> y u	-0.28110525
-1.8881973	r y u	-0.2689856
-1.2898439	u y u	-0.2689856
-1.853561	a y u	-0.2689856
-1.8093638	t y u	-0.2689856
-0.9640293	i y u	-0.2689856
-1.7753516	l y u	-0.2689856
-0.09623834	<w> q u	-1.3568983
-0.05674527	r q u	-0.6870235
-0.031512927	e q u	-1.3058596
-0.0774369	u q u	-0.39640242
-0.036994796	s q u	-1.2249377
-0.086955555	c q u	-0.7361256
-0.08655234	a q u	-0.65694433
-0.09623834	h q u	-0.28937712
-0.0774369	o q u	-0.45120713
-0.09419071	n q u	-1.0549905
-0.086955555	d q u	-0.31015685
-0.048832573	i q u	-1.0052739
-0.086955555	l q u	-0.28247303
-0.09623834	x q u	-0.31015685
-1.052219	<w> z u	-0.28247303
-1.450866	e z u	-0.28937712
-1.3424294	u z u	-0.2689856
-1.4553258	a z u	-0.2689856
-1.548578	i z u	-0.2689856
-1.1714644	l z u	-0.2689856
-1.4497873	z z u	-0.2689856
-0.70685893	<w> j u	-0.7726238
-0.6566754	r j u	-0.2689856
-0.761854	e j u	-0.47558367
-0.7992686	u j u	-0.2689856
-0.46757048	s j u	-0.2689856
-0.7817528	a j u	-0.2689856
-0.23558445	h j u	-0.2689856
-0.7146446	o j u	-0.2689856
-0.48503876	n j u	-0.6700254
-0.7580912	d j u	-0.70280796
-0.7677234	i j u	-0.28937712
-0.6839069	b j u	-0.28937712
-1.39444	</w> <w> g	-1.935007
-1.4302039	e r g	-0.886114
-1.4505497	u r g	-0.8688656
-1.8973234	g r g	-0.2689856
-1.4760201	a r g	-0.8865948
-1.3872362	o r g	-0.9206997
-1.6149105	i r g	-0.63563985
-1.3980869	<w> e g	-0.35602477
-1.4090647	r e g	-0.9568063
-1.8699911	e e g	-0.28937712
-1.6658673	f e g	-0.31015685
-1.8421906	u e g	-0.2689856
-1.9287041	g e g	-0.2689856
-1.5899097	s e g	-0.52018386
-1.9612767	c e g	-0.2689856
-1.6684055	a e g	-0.2689856
-1.4477568	p e g	-0.2873238
-1.9408512	h e g	-0.31015685
-1.5902572	o e g	-0.2689856
-1.5989255	t e g	-0.58941364
-1.6306	n e g	-0.57267123
-1.7917415	d e g	-0.56771266
-1.6414605	i e g	-0.3326263
-1.5709614	m e g	-0.77661365
-1.6864417	b e g	-0.42891622
-1.5797889	l e g	-0.85103315
-1.5092283	w e g	-0.28247303
-1.7651404	k e g	-0.2689856
-1.6023589	v e g	-0.43934524
-1.5428675	x e g	-0.2689856
-1.6852802	y e g	-0.2689856
-1.949935	a f g	-0.28937712
-1.7823163	l f g	-0.2689856
-1.2479162	<w> u g	-0.31015685
-1.1720116	r u g	-0.5077948
-1.5940799	e u g	-0.43509558
-1.254523	f u g	-0.48195082
-1.5516603	g u g	-0.28247303
-1.638765	s u g	-0.6819365
-1.0921581	a u g	-0.95525146
-1.5302896	p u g	-0.28937712
-1.2728938	h u g	-0.40716055
-1.0803572	o u g	-1.1514117
-1.7427993	t u g	-0.28522152
-1.4752373	n u g	-0.27567694
-1.4991057	d u g	-0.2689856
-1.5480878	m u g	-0.4973372
-1.3488011	b u g	-0.3630412
-1.4273449	l u g	-0.53600574
-1.2909263	y u g	-0.28937712
-1.1829302	j u g	-0.6516749
-1.1997218	e g g	-0.53211606
-0.8457198	u g g	-0.9106823
-0.9862934	a g g	-0.92339224
-1.1118934	o g g	-0.4943275
-1.8354918	n g g	-0.2689856
-1.0955632	i g g	-0.7261045
-2.2827504	e s g	-0.2689856
-2.1784353	u s g	-0.2689856
-2.2811134	a s g	-0.2689856
-1.8966798	p s g	-0.2689856
-2.2353826	o s g	-0.2689856
-1.9986761	n s g	-0.28937712
-2.158058	i s g	-0.5425304
-1.4739172	k s g	-0.2689856
-2.353925	a c g	-0.2689856
-1.5921787	m c g	-0.27702767
-1.3765471	<w> a g	-0.8166753
-1.2618297	r a g	-0.91230285
-1.4288539	e a g	-0.65917826
-1.7346623	f a g	-0.2689856
-1.3955889	u a g	-0.39640242
-1.4030718	g a g	-0.54485255
-1.3021755	s a g	-0.7114835
-1.5722883	c a g	-0.4131753
-1.2358136	p a g	-0.69658756
-1.3267499	h a g	-0.44990283
-1.5712101	o a g	-0.2790617
-1.2102041	t a g	-0.84719586
-1.3113286	n a g	-0.6550737
-1.4134629	d a g	-0.47354168
-1.4535513	i a g	-0.5263259
-1.281968	m a g	-0.8771
-1.2572436	b a g	-0.32327035
-1.3331656	l a g	-0.6436322
-1.4016986	w a g	-0.5620123
-1.2179027	k a g	-0.6318865
-1.520884	v a g	-0.4801221
-1.3110205	x a g	-0.44785333
-1.4681585	y a g	-0.39640242
-1.419202	z a g	-0.28247303
-1.5290341	j a g	-0.2890835
-1.934911	u p g	-0.31015685
-2.1611538	a p g	-0.2689856
-2.1651766	o p g	-0.2689856
-2.052881	i p g	-0.2689856
-1.8950379	m p g	-0.28937712
-1.9143735	g h g	-0.2689856
-2.009715	c h g	-0.29321718
-2.2788153	t h g	-0.2689856
-1.3733985	<w> o g	-0.2790617
-1.2702438	r o g	-0.7521876
-1.6046219	e o g	-0.8330356
-1.592562	f o g	-0.43934524
-1.6206539	g o g	-0.3326263
-1.742117	s o g	-0.2689856
-1.735949	c o g	-0.8246961
-1.5458397	p o g	-0.43934524
-1.7203537	h o g	-0.37865648
-1.4702287	o o g	-0.2689856
-1.4197112	t o g	-0.7082167
-1.4353467	n o g	-0.6516749
-1.4406052	d o g	-0.33059362
-1.3782378	i o g	-0.8735237
-1.4676003	m o g	-0.5722014
-1.8148186	b o g	-0.33257273
-1.3165907	l o g	-1.100641
-1.7037672	k o g	-0.2689856
-1.6886252	v o g	-0.2689856
-1.2726924	x o g	-0.28937712
-1.3953183	y o g	-0.2689856
-1.5103887	z o g	-0.2689856
-1.5402163	j o g	-0.2689856
-1.8979095	r t g	-0.28937712
-2.1588404	u t g	-0.29321718
-2.2317896	s t g	-0.2689856
-2.2234585	o t g	-0.28937712
-1.6040812	t t g	-0.2689856
-1.950394	n t g	-0.2689856
-2.1772907	i t g	-0.2689856
-1.2067606	<w> n g	-0.2689856
-1.6102424	r n g	-0.2689856
-1.4127458	e n g	-0.80736315
-1.0477339	u n g	-0.7856439
-1.2400866	a n g	-1.0907316
-1.4231004	h n g	-0.2689856
-1.2547991	o n g	-0.8246672
-1.656808	n n g	-0.2689856
-1.085275	i n g	-2.1168573
-1.0369761	l n g	-0.2689856
-1.3878229	w n g	-0.28937712
-1.4370167	y n g	-0.28937712
-1.3572062	e d g	-0.73418784
-1.1859616	u d g	-0.8650029
-1.8588092	a d g	-0.5425304
-1.2622477	o d g	-0.61511934
-1.7242334	n d g	-0.28247303
-1.4419866	i d g	-1.0294462
-1.3293406	<w> i g	-0.6870235
-1.2189416	r i g	-0.92709935
-1.0003395	e i g	-1.0394684
-1.3130125	f i g	-0.62836695
-1.6855384	u i g	-0.2689856
-1.7858042	g i g	-0.37239844
-1.3240623	s i g	-1.0797557
-1.8955636	c i g	-0.53200555
-1.4117639	a i g	-0.6154365
-1.6124549	p i g	-0.36249772
-1.4094733	h i g	-0.84327924
-1.690609	o i g	-0.43509558
-1.4406382	t i g	-0.73451537
-1.2127128	n i g	-0.68944633
-1.3716125	d i g	-0.55054194
-1.4415358	m i g	-0.6645382
-1.3377917	b i g	-0.3964024
-1.1679119	l i g	-1.1154193
-1.3234451	w i g	-0.34030944
-1.4488305	v i g	-0.5213411
-1.4693756	x i g	-0.2689856
-1.3798591	z i g	-0.2689856
-1.323785	j i g	-0.28937712
-2.120459	u b g	-0.28937712
-2.149713	e l g	-0.39640242
-1.6658704	u l g	-0.56003433
-1.8690286	a l g	-0.49536026
-1.9412925	o l g	-0.3630412
-1.8203157	i l g	-0.35603032
-1.6961149	l l g	-0.2689856
-1.8852983	y l g	-0.2689856
-1.9467478	o w g	-0.2689856
-2.0500107	c k g	-0.28937712
-1.8511127	n k g	-0.2689856
-1.5811974	i x g	-0.2689856
-1.7593125	r y g	-0.2689856
-1.6364511	s y g	-0.2689856
-1.4653258	c y g	-0.2689856
-1.9091657	a y g	-0.2689856
-1.5629892	h y g	-0.2689856
-1.6994632	t y g	-0.2689856
-1.5799619	n y g	-0.2689856
-1.4209174	d y g	-0.2689856
-1.5326085	b y g	-0.2689856
-1.8231918	l y g	-0.2689856
-1.1666199	x y g	-0.28937712
-1.2805632	z y g	-0.28937712
-1.5806336	t z g	-0.2689856
-1.3750776	</w> <w> s	-2.1829503
-1.4475362	r r s	-0.28937712
-1.1658823	e r s	-1.7149407
-1.2532921	u r s	-1.0413722
-1.3146573	s r s	-0.2689856
-1.2400914	a r s	-0.9819709
-1.1507967	o r s	-1.2515973
-1.1136312	i r s	-0.7363071
-1.6522448	y r s	-0.2689856
-1.3775659	<w> e s	-0.91563386
-1.1493099	r e s	-1.4856704
-1.0278713	e e s	-0.9890537
-1.12205	f e s	-1.0280122
-0.91583586	u e s	-1.1647938
-1.1026651	g e s	-1.251184
-1.1717796	s e s	-1.6792836
-1.0939429	c e s	-1.3863015
-0.9156399	a e s	-0.48841122
-1.1341156	p e s	-0.92676914
-1.2091327	h e s	-1.2041761
-0.893963	o e s	-0.93013495
-1.1176946	t e s	-1.4248563
-0.9693997	n e s	-1.5515869
-1.1079868	d e s	-1.1707201
-0.91099674	i e s	-1.8317506
-1.0841224	m e s	-0.8993479
-1.0892459	b e s	-0.70453835
-1.1024005	l e s	-1.3874112
-1.1646823	w e s	-0.76619005
-1.0362182	k e s	-0.9473498
-1.0483705	v e s	-1.4343971
-0.800245	x e s	-1.0883081
-1.1046891	y e s	-0.54790604
-0.83313495	z e s	-1.2174965
-1.2375748	j e s	-0.53200555
-1.2866808	r f s	-0.28937712
-1.6851054	e f s	-0.47558367
-1.2191843	f f s	-0.6548456
-1.5009444	u f s	-0.2689856
-1.7436546	a f s	-0.2689856
-1.4868159	o f s	-0.28247303
-1.5010128	i f s	-0.28247303
-1.3897682	l f s	-0.2689856
-1.19309	<w> u s	-0.5077948
-0.90797764	r u s	-0.9987832
-0.8719144	e u s	-0.61118686
-0.9001261	f u s	-0.83309495
-0.9605862	g u s	-0.6710455
-1.0433904	s u s	-0.6880465
-0.8614621	c u s	-0.7918504
-1.0061533	a u s	-0.732961
-1.023486	p u s	-0.5278993
-1.138961	h u s	-0.49836525
-0.9375969	o u s	-1.5842807
-1.0990161	t u s	-0.74759966
-1.2065015	n u s	-0.59375274
-1.1938539	d u s	-0.7330891
-0.53486407	i u s	-1.0230931
-0.9126929	m u s	-0.7722319
-0.90835464	b u s	-0.64713335
-0.9287349	l u s	-0.9754814
-1.0889796	w u s	-0.2689856
-1.3243846	k u s	-0.2689856
-0.9195701	v u s	-0.31015685
-0.6838947	y u s	-0.2790617
-1.1206425	z u s	-0.2689856
-1.0020784	j u s	-1.1740308
-1.2498301	r g s	-0.29321718
-1.3468224	e g s	-0.53200555
-1.1739869	u g s	-0.644148
-1.0439758	g g s	-0.5425304
-1.3581514	a g s	-0.8744283
-1.161906	o g s	-0.78727806
-1.2298825	n g s	-1.4071729
-1.295354	i g s	-0.54848975
-1.3887925	<w> s s	-0.2689856
-1.5209813	r s s	-0.2689856
-1.0361838	e s s	-1.6498797
-0.9886781	u s s	-0.7570631
-1.630487	s s s	-0.2689856
-1.0573359	a s s	-1.2235854
-1.1562847	o s s	-0.7991056
-1.7185602	n s s	-0.2994924
-1.1312673	i s s	-1.0672201
-1.6692663	m s s	-0.2689856
-1.3684354	l s s	-0.28247303
-1.4503825	w s s	-0.2689856
-1.3940701	y s s	-0.27702767
-1.6210285	r c s	-0.2689856
-1.8293736	e c s	-0.28247303
-1.6331562	u c s	-0.2689856
-1.9443549	s c s	-0.2689856
-1.4834502	a c s	-0.59712446
-2.0180268	o c s	-0.28937712
-1.5703073	n c s	-0.28937712
-1.1448704	i c s	-1.7725549
-1.3654106	<w> a s	-1.1014074
-1.2598572	r a s	-0.86231387
-1.063232	e a s	-1.0718758
-1.1581004	f a s	-0.8243735
-1.5226618	u a s	-0.53200555
-1.2140433	g a s	-0.47851568
-1.3657414	s a s	-0.53200555
-0.9871304	c a s	-0.8060853
-1.2361614	a a s	-0.2689856
-1.075868	p a s	-0.9725032
-1.3232245	h a s	-0.6405615
-1.1906519	o a s	-1.0196517
-1.294818	t a s	-0.59342074
-1.263251	n a s	-0.6758691
-1.2030853	d a s	-0.7142053
-1.0231652	i a s	-0.61777025
-1.0291499	m a s	-0.8270619
-1.2540509	b a s	-0.6978259
-1.1444261	l a s	-0.9979496
-1.2472029	w a s	-0.8110095
-1.314137	k a s	-0.2944053
-1.1939373	v a s	-0.49836013
-1.3019843	x a s	-0.47558367
-1.4598461	y a s	-0.2689856
-1.1245692	z a s	-0.43509558
-1.5176555	j a s	-0.2689856
-1.2041153	<w> p s	-0.9027914
-1.3600396	r p s	-0.2891569
-1.1715064	e p s	-0.571945
-0.8876662	u p s	-0.56710154
-1.6172689	s p s	-0.43509558
-1.0074323	a p s	-0.7608097
-1.3560601	p p s	-0.31015685
-1.0435964	o p s	-0.78037
-1.0514705	i p s	-0.8005566
-1.1603839	m p s	-0.71167284
-1.1593221	l p s	-0.53200555
-1.14641	y p s	-0.2689856
-1.4735837	u h s	-0.2689856
-1.5352349	g h s	-0.6734284
-1.5869763	c h s	-0.33460987
-1.130442	a h s	-0.29609442
-1.5503099	p h s	-0.8330356
-1.065976	t h s	-0.9145091
-1.1925038	i h s	-0.2689856
-1.6106511	w h s	-0.2689856
-1.343048	<w> o s	-0.38687617
-1.2114515	r o s	-0.91772616
-1.1234796	e o s	-0.29609442
-1.5696353	f o s	-0.45893282
-1.4289967	u o s	-0.28247303
-1.2391909	g o s	-0.3620228
-1.7121433	s o s	-0.28937712
-1.2031319	c o s	-0.6768597
-1.0163833	a o s	-0.31015685
-0.9887273	p o s	-1.2580316
-1.342219	h o s	-0.7933764
-1.1498826	o o s	-0.6050608
-1.2572389	t o s	-0.4352441
-1.2498261	n o s	-0.64633644
-1.2824408	d o s	-0.3886832
-1.154719	i o s	-0.44216275
-1.0766767	m o s	-0.547134
-1.6754868	b o s	-0.3913153
-1.2724316	l o s	-0.8331036
-1.7129602	w o s	-0.2689856
-1.2915585	k o s	-0.2890835
-1.3743768	v o s	-0.29321718
-1.2519307	x o s	-0.2689856
-1.2409942	y o s	-0.2790617
-1.301162	z o s	-0.28937712
-1.3456699	j o s	-0.33059362
-1.1640525	<w> t s	-0.28093243
-1.1798708	r t s	-0.8397271
-1.0437732	e t s	-1.374019
-0.9466222	f t s	-0.7624545
-1.1157507	u t s	-0.71697676
-1.3210961	s t s	-1.7436837
-1.1065518	c t s	-1.5889105
-1.1593308	a t s	-0.890872
-1.0579642	p t s	-1.0371556
-1.2516217	h t s	-0.9227942
-1.0952841	o t s	-0.86311483
-1.1892785	t t s	-0.39640242
-1.2255147	n t s	-1.9094042
-1.045958	i t s	-1.188216
-0.96699786	b t s	-0.28937712
-1.0898343	l t s	-1.0092205
-1.0587379	w t s	-0.2689856
-1.302013	x t s	-0.31015685
-1.0775309	r n s	-0.9206997
-1.1708772	e n s	-1.193647
-1.105424	u n s	-0.76195335
-1.5047247	g n s	-0.6781336
-1.133349	a n s	-1.1258042
-1.4206797	h n s	-0.2790617
-1.0595545	o n s	-1.6472926
-1.3184863	n n s	-0.41402227
-1.1400809	i n s	-1.2068319
-1.1100197	m n s	-0.31015685
-1.1868598	w n s	-0.5876532
-1.61412	y n s	-0.2689856
-1.1234448	r d s	-1.1771815
-1.3919735	e d s	-0.8537133
-0.9989311	u d s	-0.5278993
-1.163558	a d s	-0.8886832
-1.1388636	o d s	-0.69294083
-1.2669798	n d s	-1.06673
-1.3887241	d d s	-0.28937712
-1.0959172	i d s	-0.8868599
-1.12104	l d s	-0.8537133
-1.286844	w d s	-0.2689856
-1.2998511	<w> i s	-0.61678773
-1.1601213	r i s	-1.0638281
-0.927545	e i s	-0.5402392
-1.0359905	f i s	-0.69902617
-0.81472135	u i s	-0.7879032
-1.0631301	g i s	-0.9057348
-1.1925104	s i s	-1.2996985
-1.135081	c i s	-0.8688656
-1.0101167	a i s	-0.6339572
-1.214178	p i s	-0.59712446
-1.1003267	h i s	-0.71667284
-0.75660604	o i s	-0.7576032
-1.1351504	t i s	-0.97924143
-1.0935819	n i s	-1.2252238
-1.0640237	d i s	-1.2129145
-0.87796974	i i s	-0.2689856
-1.0130591	m i s	-0.8714155
-1.1767203	b i s	-0.51363266
-1.1892365	l i s	-1.215239
-0.8859253	w i s	-0.7340101
-0.9448983	k i s	-0.64828223
-1.0686424	v i s	-0.9572834
-1.1233251	x i s	-0.78727806
-0.78257895	y i s	-0.29211658
-1.5233896	z i s	-0.2689856
-1.2984596	j i s	-0.2689856
-1.1177205	r m s	-1.0713685
-1.2885584	e m s	-0.7703385
-1.0522263	u m s	-0.69597286
-1.1141806	g m s	-0.28937712
-1.5190685	s m s	-1.0634845
-1.1572245	a m s	-0.74804854
-0.9656992	h m s	-0.37239844
-1.2020855	o m s	-0.89939517
-1.1925552	i m s	-0.5832685
-1.5220511	m m s	-0.2689856
-1.0453755	b m s	-0.2689856
-1.155029	l m s	-0.43934524
-1.2912368	y m s	-0.28247303
-1.0586554	r b s	-0.6974324
-1.3889015	e b s	-0.38090652
-1.1314353	u b s	-0.7624291
-1.3896286	a b s	-0.7409673
-1.0520191	o b s	-0.8109163
-1.3319066	i b s	-0.37239844
-1.1809212	m b s	-0.644148
-1.0647196	b b s	-0.39640242
-1.5628878	l b s	-0.2689856
-1.0889398	r l s	-0.47558367
-1.0758779	e l s	-1.069699
-1.3699963	u l s	-0.7520633
-1.1127634	a l s	-1.1733428
-1.2236562	o l s	-0.7489674
-1.1583979	i l s	-0.87618065
-1.4628968	m l s	-0.2689856
-1.2514558	l l s	-1.0093162
-1.066745	w l s	-0.5425304
-1.1839827	y l s	-0.30172527
-1.1218368	e w s	-0.5790149
-1.0342119	a w s	-0.7540932
-1.0237799	o w s	-0.7371228
-1.7397608	d w s	-0.2689856
-1.1867504	<w> k s	-0.2689856
-1.0296404	r k s	-0.7448725
-1.2304785	e k s	-0.5425304
-1.2719415	s k s	-0.8330356
-1.2546581	c k s	-0.98844635
-1.2729659	a k s	-0.9527049
-1.6405264	o k s	-0.8189732
-1.0322558	n k s	-1.0713685
-1.2772406	i k s	-0.29321718
-0.88048375	l k s	-0.5367463
-1.0173812	w k s	-0.2689856
-1.3419011	e v s	-0.2994924
-1.9569345	a v s	-0.2689856
-1.2909114	o v s	-0.6781336
-1.866743	i v s	-0.2689856
-1.7154491	a x s	-0.2689856
-0.9853919	r y s	-0.5883538
-1.0571336	e y s	-0.8174307
-0.59827995	u y s	-0.2790617
-1.2414603	s y s	-0.9469789
-1.402849	c y s	-0.2689856
-0.981946	a y s	-1.1425484
-1.2380168	p y s	-0.2689856
-1.1859443	h y s	-0.8621621
-0.88281184	o y s	-0.7624545
-1.1846502	t y s	-0.2689856
-1.2097694	n y s	-0.2689856
-1.3717563	d y s	-0.3455578
-1.3892688	m y s	-0.8113758
-1.1295301	b y s	-0.28247303
-1.2868671	l y s	-0.603405
-1.3933846	k y s	-0.28937712
-1.5757313	t z s	-0.2689856
-1.0854247	r r </w>	-0.78727806
-1.1571763	e r </w>	-3.0073862
-1.2367715	u r </w>	-1.6525795
-1.7834253	g r </w>	-0.2689856
-1.2549145	s r </w>	-0.2689856
-1.1689279	a r </w>	-2.1163368
-1.7976708	p r </w>	-0.2689856
-0.91367	h r </w>	-0.6781336
-1.0993892	o r </w>	-2.2723682
-1.2355616	i r </w>	-1.4350955
-1.3989047	w r </w>	-0.2689856
-1.5720334	y r </w>	-0.2689856
-1.3033276	r e </w>	-2.4035785
-0.90320545	e e </w>	-1.8330356
-1.1954013	f e </w>	-1.3101568
-0.9170536	u e </w>	-1.8242617
-1.1043378	g e </w>	-2.2274873
-1.2079645	s e </w>	-2.3515496
-1.0568558	c e </w>	-2.4843135
-0.70677924	a e </w>	-1.1340656
-1.0940523	p e </w>	-1.6183654
-1.5650685	h e </w>	-1.4957935
-1.1274438	o e </w>	-1.0371556
-1.1190938	t e </w>	-2.606822
-1.2163363	n e </w>	-2.4552495
-1.1967802	d e </w>	-2.2222016
-0.9118033	i e </w>	-2.0120125
-1.2109338	m e </w>	-1.9883716
-1.1798434	b e </w>	-1.389338
-1.1610001	l e </w>	-2.7794878
-1.3598351	w e </w>	-0.8744283
-1.0377028	k e </w>	-1.9633694
-1.1492326	v e </w>	-2.394137
-1.3307159	x e </w>	-0.28937712
-1.0192913	y e </w>	-0.8744283
-0.83423865	z e </w>	-1.8704621
-1.4432919	j e </w>	-0.2689856
-1.1024927	r f </w>	-0.6781336
-1.3649807	e f </w>	-1.0091269
-1.004593	f f </w>	-1.5964636
-1.2310488	a f </w>	-0.78727806
-0.9193098	p f </w>	-0.31015685
-1.1149611	h f </w>	-0.2689856
-1.305656	o f </w>	-1.0634845
-1.4716917	i f </w>	-0.43509558
-1.0631791	l f </w>	-1.1754583
-0.5734905	x f </w>	-0.2689856
-1.5137811	r u </w>	-0.53200555
-1.298346	e u </w>	-0.7361256
-1.6951339	f u </w>	-0.2689856
-0.9156058	u u </w>	-0.2689856
-1.4881952	s u </w>	-0.6781336
-1.7559103	c u </w>	-0.2689856
-1.1262945	a u </w>	-1.2309756
-1.3833911	h u </w>	-0.43509558
-1.5220263	o u </w>	-0.61118686
-1.2852147	t u </w>	-0.61118686
-1.3194292	n u </w>	-0.53200555
-1.6034272	d u </w>	-0.2689856
-1.5829258	i u </w>	-0.2689856
-1.671043	m u </w>	-0.2689856
-1.7273012	b u </w>	-0.2689856
-1.4098176	l u </w>	-0.61118686
-1.1532712	k u </w>	-0.31015685
-1.1844466	v u </w>	-0.2689856
-1.262635	y u </w>	-0.2689856
-0.88758415	z u </w>	-0.28937712
-1.2986708	j u </w>	-0.28937712
-1.0804142	r g </w>	-1.4957935
-1.3369825	e g </w>	-0.6781336
-1.0022998	u g </w>	-0.8744283
-1.0356138	g g </w>	-0.43509558
-1.3510659	a g </w>	-1.0091269
-1.1549277	o g </w>	-0.9469789
-1.0064899	n g </w>	-3.30374
-1.1731974	i g </w>	-0.97916365
-0.29728785	x g </w>	-0.2689856
-0.8703625	r s </w>	-2.851736
-0.9393092	e s </w>	-3.2182844
-0.3816635	f s </w>	-1.2954335
-0.82706463	u s </w>	-2.517881
-0.50247884	g s </w>	-2.2579172
-0.98015094	s s </w>	-2.5881479
-0.27271897	c s </w>	-1.8500689
-0.9942969	a s </w>	-2.0003529
-0.8110443	p s </w>	-2.0425506
-0.44764984	h s </w>	-1.6323762
-0.89389634	o s </w>	-1.8153068
-0.6909143	t s </w>	-2.82293
-0.9576499	n s </w>	-2.8175628
-0.73553944	d s </w>	-2.3580804
-1.0289842	i s </w>	-2.1531818
-0.56318736	m s </w>	-2.055752
-0.6346661	b s </w>	-1.5733982
-0.7871836	l s </w>	-2.3783426
-0.8653226	w s </w>	-1.7195263
-0.6226084	k s </w>	-2.1094973
-0.6218309	v s </w>	-0.28937712
-0.75470626	y s </w>	-1.8664594
-1.4027414	r c </w>	-0.28937712
-1.1273432	e c </w>	-0.8330356
-1.7891939	u c </w>	-0.2689856
-1.9180846	s c </w>	-0.2689856
-1.1987971	a c </w>	-1.2643993
-1.4223458	o c </w>	-0.61118686
-1.2925214	t c </w>	-0.28937712
-1.406843	n c </w>	-0.43509558
-0.9843681	i c </w>	-2.5613894
-1.2093374	r a </w>	-1.7725549
-1.272717	e a </w>	-1.2643993
-1.4841815	f a </w>	-0.31015685
-1.3997104	u a </w>	-0.7361256
-1.2200372	g a </w>	-1.1552548
-1.2456748	s a </w>	-1.3381855
-1.126066	c a </w>	-1.4665041
-1.3887128	p a </w>	-0.7361256
-1.3862405	h a </w>	-1.0883081
-1.1970296	o a </w>	-0.61118686
-1.106402	t a </w>	-1.7195263
-1.2677549	n a </w>	-1.886114
-1.1096786	d a </w>	-1.5142769
-0.90710866	i a </w>	-2.0735848
-1.1225189	m a </w>	-1.6781336
-1.2593538	b a </w>	-1.0883081
-1.2973999	l a </w>	-1.7138492
-1.6410198	w a </w>	-0.7361256
-0.792087	k a </w>	-1.3243973
-1.0687568	v a </w>	-1.3101568
-1.3170602	x a </w>	-0.2689856
-0.9879593	y a </w>	-0.8330356
-1.0193894	z a </w>	-1.0634845
-1.5366743	j a </w>	-0.2689856
-1.2403361	r p </w>	-0.6781336
-1.2542028	e p </w>	-1.2309756
-0.8124713	u p </w>	-1.3243973
-1.4990376	s p </w>	-0.7361256
-1.23285	a p </w>	-1.1754583
-1.2295688	p p </w>	-0.43509558
-1.233855	o p </w>	-1.486248
-1.247518	i p </w>	-1.7306627
-1.28365	m p </w>	-1.4012372
-1.1790614	l p </w>	-0.61118686
-1.3426726	r h </w>	-0.2689856
-0.964463	e h </w>	-0.7361256
-0.5616482	u h </w>	-0.8330356
-0.9811745	g h </w>	-1.4957935
-1.20874	s h </w>	-2.118593
-1.0825857	c h </w>	-2.1094973
-0.7125804	a h </w>	-1.4350955
-1.3248324	p h </w>	-1.1947634
-1.0872793	h h </w>	-0.2689856
-1.2557147	o h </w>	-0.28937712
-0.8999913	t h </w>	-2.0785482
-1.2501673	n h </w>	-0.31015685
-1.093614	i h </w>	-0.2689856
-1.0075936	l h </w>	-0.28937712
-1.4793944	w h </w>	-0.2689856
-1.1307411	k h </w>	-0.28937712
-1.3331646	r o </w>	-1.4458195
-1.2213215	e o </w>	-0.7361256
-1.0855639	u o </w>	-0.31015685
-1.0368145	g o </w>	-1.2954335
-1.0905951	s o </w>	-1.1947634
-1.258471	c o </w>	-1.486248
-0.6383653	a o </w>	-0.7361256
-1.4501443	p o </w>	-0.7361256
-1.5026928	h o </w>	-0.78727806
-1.2579501	o o </w>	-0.9469789
-1.2250967	t o </w>	-1.7080969
-1.213676	n o </w>	-1.4350955
-1.1383039	d o </w>	-1.5142769
-0.9802887	i o </w>	-1.5889105
-1.2625477	m o </w>	-1.1117892
-1.5717926	b o </w>	-0.78727806
-1.3597026	l o </w>	-1.4241002
-1.3115178	k o </w>	-0.61118686
-1.0533214	v o </w>	-0.78727806
-1.114871	y o </w>	-0.53200555
-1.0168219	z o </w>	-0.78727806
-1.3746969	j o </w>	-0.28937712
-1.1559542	r t </w>	-1.9853239
-0.9939813	e t </w>	-2.1634493
-1.03324	f t </w>	-1.389338
-1.0335377	u t </w>	-1.6718847
-1.2119209	s t </w>	-2.5414565
-1.0059515	c t </w>	-1.8373569
-1.2107195	a t </w>	-1.7624545
-0.91326314	p t </w>	-1.4562849
-1.0874712	h t </w>	-1.8107592
-1.0247946	o t </w>	-1.7195263
-0.98280156	t t </w>	-1.6963584
-1.0600218	n t </w>	-2.690971
-0.5089966	d t </w>	-0.97916365
-1.0397741	i t </w>	-1.8822536
-0.6791533	m t </w>	-0.31015685
-0.9430607	b t </w>	-0.28937712
-1.0708103	l t </w>	-1.5051335
-0.7825972	w t </w>	-0.31015685
-1.1386489	k t </w>	-0.2689856
-1.2559769	x t </w>	-0.43509558
-1.3060802	y t </w>	-0.28937712
-0.28730363	z t </w>	-0.2689856
-1.1578307	r n </w>	-1.7725549
-1.1843518	e n </w>	-2.4510837
-1.2384694	u n </w>	-1.2132468
-1.4576796	g n </w>	-0.97916365
-1.385641	s n </w>	-0.2689856
-1.1089426	a n </w>	-2.5994484
-0.84206533	h n </w>	-1.0371556
-1.0722593	o n </w>	-3.0140212
-0.9445414	n n </w>	-1.3243973
-0.99461335	d n </w>	-0.31015685
-1.1141024	i n </w>	-2.3395407
-0.9274502	m n </w>	-0.6781336
-0.6665277	l n </w>	-0.43509558
-1.0076296	w n </w>	-1.6655445
-1.0075978	y n </w>	-0.8744283
-1.012485	r d </w>	-2.157318
-0.8213146	e d </w>	-3.419848
-1.2105831	u d </w>	-1.1340656
-0.82525545	g d </w>	-0.2689856
-1.2235756	a d </w>	-1.7824256
-0.9642077	h d </w>	-0.2689856
-1.1220189	o d </w>	-1.7573149
-1.2300674	n d </w>	-2.207784
-1.1940275	d d </w>	-0.43509558
-0.9856987	i d </w>	-1.8107592
-0.9014323	m d </w>	-0.2689856
-1.0092212	l d </w>	-1.8937335
-1.0099804	w d </w>	-0.31015685
-1.3441031	y d </w>	-0.31015685
-1.3889247	r i </w>	-1.3381855
-1.0776088	e i </w>	-0.97916365
-1.810849	f i </w>	-0.2689856
-1.5091141	u i </w>	-0.28937712
-1.1934907	g i </w>	-0.7361256
-1.4262562	s i </w>	-0.9469789
-1.3965278	c i </w>	-0.6781336
-1.1916589	a i </w>	-0.97916365
-1.5968251	p i </w>	-0.53200555
-1.3212345	h i </w>	-0.97916365
-1.5416188	o i </w>	-0.31015685
-1.4338706	t i </w>	-1.3243973
-1.3573935	n i </w>	-1.5406058
-1.2969596	d i </w>	-1.0091269
-0.3995866	i i </w>	-0.7361256
-1.5296397	m i </w>	-1.0371556
-1.3285291	b i </w>	-0.61118686
-1.3918779	l i </w>	-1.5142769
-1.7385023	w i </w>	-0.2689856
-1.2138685	k i </w>	-1.1340656
-1.6931103	v i </w>	-0.28937712
-1.4464232	x i </w>	-0.2689856
-1.5282686	y i </w>	-0.28937712
-1.225014	z i </w>	-0.31015685
-0.92682976	j i </w>	-0.53200555
-1.1171843	r m </w>	-1.4350955
-1.0501648	e m </w>	-1.3515495
-0.8881793	u m </w>	-1.9944036
-1.1136804	g m </w>	-0.28937712
-1.3672848	s m </w>	-2.114069
-1.0223582	a m </w>	-1.8153068
-1.1251163	h m </w>	-0.6781336
-1.0253177	o m </w>	-1.7251302
-1.0119491	i m </w>	-1.389338
-0.9460877	m m </w>	-0.6781336
-0.79138684	b m </w>	-0.28937712
-1.005898	l m </w>	-0.97916365
-1.5954667	y m </w>	-0.28937712
-0.9352193	r b </w>	-0.8744283
-1.3790433	e b </w>	-0.43509558
-1.1949985	u b </w>	-0.8330356
-1.3828009	a b </w>	-0.7361256
-1.2640305	h b </w>	-0.2689856
-1.1806707	o b </w>	-0.7361256
-1.4750385	i b </w>	-0.53200555
-1.1717365	m b </w>	-1.0634845
-0.94033647	b b </w>	-0.78727806
-1.1841233	l b </w>	-0.31015685
-1.0700724	r l </w>	-0.97916365
-1.0299237	e l </w>	-2.093107
-1.4178233	u l </w>	-1.9193954
-1.0642959	a l </w>	-2.7377512
-0.99513936	h l </w>	-0.53200555
-1.1509805	o l </w>	-1.5812236
-1.76384	t l </w>	-0.2689856
-1.6703078	d l </w>	-0.2689856
-1.1496218	i l </w>	-1.7920771
-1.7037675	b l </w>	-0.2689856
-1.1454723	l l </w>	-2.185218
-1.043035	w l </w>	-0.97916365
-1.2788429	y l </w>	-0.8330356
-1.0455482	e w </w>	-1.389338
-1.5256398	s w </w>	-0.2689856
-1.1148828	a w </w>	-1.2309756
-1.0879416	o w </w>	-1.767534
-1.6530644	d w </w>	-0.2689856
-0.8484365	w w </w>	-0.2689856
-0.29875487	q w </w>	-0.2689856
-1.0130196	r k </w>	-1.6183654
-0.58977175	e k </w>	-1.2643993
-0.9876239	u k </w>	-0.53200555
-0.9247171	s k </w>	-1.0883081
-1.0402027	c k </w>	-2.1793885
-0.9978576	a k </w>	-1.3771036
-0.9482961	h k </w>	-0.2689856
-0.91151565	o k </w>	-1.486248
-1.0160213	n k </w>	-1.5733982
-0.99232775	i k </w>	-1.0371556
-0.9787781	l k </w>	-1.0371556
-0.994281	w k </w>	-0.28937712
-0.8691702	y k </w>	-0.28937712
-1.1361493	r v </w>	-0.28937712
-1.206702	e v </w>	-0.8330356
-1.6930329	a v </w>	-0.43509558
-0.86110586	o v </w>	-1.1754583
-1.5970429	i v </w>	-0.28937712
-0.53121775	r x </w>	-0.2689856
-0.80649513	e x </w>	-1.1754583
-0.56004715	u x </w>	-1.1340656
-0.750545	a x </w>	-0.8330356
-0.77331465	o x </w>	-0.91221684
-0.40651137	n x </w>	-0.43509558
-0.52032137	i x </w>	-0.9469789
-0.5055537	x x </w>	-0.28937712
-0.6668203	r y </w>	-2.4804187
-0.62617886	e y </w>	-2.1318886
-0.39650232	f y </w>	-1.5051335
-1.1142571	u y </w>	-0.2689856
-0.3513308	g y </w>	-1.690368
-0.4782087	s y </w>	-1.5406058
-0.52548945	c y </w>	-1.8542249
-0.84181523	a y </w>	-1.9601403
-0.51573163	p y </w>	-1.389338
-0.74641895	h y </w>	-1.7022673
-0.8626025	o y </w>	-1.2954335
-0.589679	t y </w>	-2.558947
-0.61759317	n y </w>	-1.8015186
-0.6329496	d y </w>	-1.8107592
-0.5567403	m y </w>	-1.4665041
-0.42844197	b y </w>	-1.4128191
-0.61719954	l y </w>	-3.0079672
-0.91764313	w y </w>	-0.53200555
-0.45448154	k y </w>	-1.6591104
-0.22591037	v y </w>	-0.97916365
-0.6751394	x y </w>	-0.78727806
-0.698751	y y </w>	-0.2689856
-0.40528366	z y </w>	-0.91221684
-1.3217576	a q </w>	-0.2689856
-1.0005625	n q </w>	-0.2689856
-0.91039807	r z </w>	-0.28937712
-0.43701565	e z </w>	-1.1754583
-1.0394644	u z </w>	-0.28937712
-0.772215	s z </w>	-0.2689856
-0.8375966	c z </w>	-0.28937712
-1.4926839	a z </w>	-0.2689856
-1.0001454	o z </w>	-0.31015685
-0.54173017	t z </w>	-1.3515495
-0.83435595	n z </w>	-0.43509558
-1.181955	i z </w>	-0.53200555
-1.0517404	l z </w>	-0.2689856
-1.1532495	z z </w>	-0.31015685
-1.2772331	e j </w>	-0.2689856
-1.3046713	a j </w>	-0.2689856
-1.3581433	</w> <w> c	-2.396387
-1.5450073	e r c	-0.97599906
-1.4571056	u r c	-0.7936329
-1.3495717	a r c	-0.98386693
-1.4319458	o r c	-0.87923396
-1.628532	i r c	-0.79114366
-1.3980869	<w> e c	-0.6290052
-1.3374178	r e c	-1.2886959
-1.3680409	e e c	-0.6516749
-1.2847774	f e c	-1.273818
-1.6787969	u e c	-0.28937712
-1.9287041	g e c	-0.2689856
-1.3351501	s e c	-0.89133126
-1.8182219	c e c	-0.28247303
-1.3482106	a e c	-0.2689856
-1.2968816	p e c	-1.1237521
-1.5718505	h e c	-0.6382938
-1.7406766	o e c	-0.2689856
-1.3431058	t e c	-0.98764646
-1.2908343	n e c	-0.7615299
-1.5543586	d e c	-0.9852785
-1.45279	i e c	-0.6943542
-1.6988285	m e c	-0.675156
-1.3651023	b e c	-0.516857
-1.4422596	l e c	-1.200833
-1.6419344	w e c	-0.2689856
-1.6023589	v e c	-0.37239844
-1.5428675	x e c	-0.7388251
-1.582458	z e c	-0.2689856
-0.63976735	j e c	-1.6323762
-2.0814447	e f c	-0.2689856
-1.7823163	l f c	-0.2689856
-1.2479162	<w> u c	-0.2689856
-1.4346066	r u c	-0.9796442
-1.5940799	e u c	-0.2689856
-1.5552514	f u c	-0.30486795
-1.3796576	s u c	-0.83311415
-1.0535529	a u c	-0.48956215
-1.6996871	p u c	-0.31015685
-1.4105667	h u c	-0.6781336
-1.2758265	o u c	-0.8964653
-1.3820881	t u c	-0.70819056
-1.084818	n u c	-0.7376864
-0.965697	d u c	-1.0689349
-1.3918605	i u c	-0.28937712
-1.4098551	m u c	-0.2915063
-1.3488011	b u c	-0.8246961
-1.0762744	l u c	-0.67788184
-1.2909263	y u c	-0.2689856
-1.5060804	j u c	-0.2689856
-1.3228871	<w> s c	-1.451732
-1.3368088	r s c	-0.4131753
-1.227085	e s c	-1.0332606
-1.2070723	u s c	-0.42260933
-1.7107387	s s c	-0.2689856
-1.1666641	a s c	-0.7587896
-1.7221882	p s c	-0.2689856
-1.3894901	h s c	-0.2689856
-1.2258627	o s c	-0.5346222
-1.2485367	t s c	-0.54848975
-1.3137081	n s c	-0.83044565
-1.477649	d s c	-0.39640242
-1.230386	i s c	-1.0905312
-1.5933888	m s c	-0.30172527
-1.2082114	b s c	-0.5397359
-1.5445068	k s c	-0.2689856
-1.2073041	y s c	-0.28522152
-0.29603434	z s c	-0.2689856
-1.2627823	e c c	-0.5178437
-1.2283268	u c c	-0.6046865
-1.3621064	a c c	-1.0704337
-1.1585101	o c c	-0.7845873
-1.5776539	i c c	-0.2890835
-1.4922142	m c c	-0.36580443
-1.3765471	<w> a c	-1.1360352
-1.208188	r a c	-1.2618194
-1.317663	e a c	-1.0152353
-0.93361366	f a c	-0.95871496
-1.5311105	u a c	-0.33884308
-1.7971814	g a c	-0.2689856
-1.4500189	s a c	-0.6891165
-1.472751	c a c	-0.3630412
-1.0095397	a a c	-0.29321718
-1.1766827	p a c	-1.0032973
-1.4489874	h a c	-0.87838227
-1.1090748	o a c	-0.8788992
-1.2517146	t a c	-0.8294771
-1.2248925	n a c	-0.61564267
-1.3328314	d a c	-0.29864478
-1.3009675	i a c	-0.46820784
-1.281968	m a c	-0.573426
-0.83942676	b a c	-0.917875
-1.2296355	l a c	-0.94614387
-1.635892	w a c	-0.43934524
-1.3845842	v a c	-0.5832685
-1.3110205	x a c	-0.53200555
-1.4681585	y a c	-0.6516749
-1.419202	z a c	-0.2689856
-0.7126777	j a c	-0.7449724
-1.867003	e p c	-0.2689856
-1.742089	u p c	-0.2689856
-2.2106495	o p c	-0.28937712
-2.0969815	i p c	-0.2689856
-1.8272789	g h c	-0.2689856
-2.103403	s h c	-0.28247303
-2.1388912	c h c	-0.2689856
-1.7047778	a h c	-0.28937712
-2.174868	t h c	-0.28937712
-1.3834653	<w> o c	-0.85947496
-1.301781	r o c	-0.7946223
-1.2221346	e o c	-0.3372638
-1.3040862	f o c	-0.6350241
-1.6296414	g o c	-0.2790617
-1.4006443	s o c	-0.8359468
-1.2591048	c o c	-0.6155414
-1.4512386	p o c	-0.48743647
-1.4239836	h o c	-0.7352038
-1.5789986	o o c	-0.43509558
-1.4231796	t o c	-0.7194504
-1.2605188	n o c	-0.46872476
-1.2960569	d o c	-0.6285267
-1.225398	i o c	-0.3484526
-1.572362	m o c	-0.57947147
-1.5731249	b o c	-0.39640242
-1.1560063	l o c	-0.8866453
-1.7543898	w o c	-0.2689856
-1.7168163	k o c	-0.31015685
-0.9811207	v o c	-1.0298709
-1.264707	y o c	-0.2994924
-1.5515728	j o c	-0.30403084
-1.2306684	<w> t c	-0.28937712
-1.763337	r t c	-0.28247303
-1.572616	e t c	-0.98034114
-1.2787044	u t c	-0.6354348
-1.6707689	s t c	-0.28522152
-1.7416005	c t c	-0.2689856
-1.3547896	a t c	-1.2919123
-1.7986333	p t c	-0.2689856
-1.5165706	h t c	-0.28937712
-1.6571604	o t c	-0.8113758
-1.6552708	n t c	-0.28937712
-1.269024	i t c	-1.2178706
-1.2615241	<w> n c	-0.2689856
-1.2744045	e n c	-1.3873347
-1.1522079	u n c	-1.1301655
-1.1615379	a n c	-1.3860478
-1.6522564	o n c	-0.99129224
-1.263812	i n c	-1.1450778
-1.4690205	w n c	-0.2689856
-1.4949985	y n c	-0.59712446
-2.0003967	e d c	-0.43509558
-1.9994942	u d c	-0.2689856
-2.0009458	a d c	-0.47558367
-2.1104858	o d c	-0.2689856
-1.9074486	n d c	-0.2689856
-1.7953539	l d c	-0.28937712
-1.3293406	<w> i c	-0.3455578
-1.1165245	r i c	-1.2166606
-1.5010588	e i c	-0.5058453
-1.0957267	f i c	-1.1275766
-1.1423337	u i c	-0.6675874
-1.2008804	g i c	-1.163192
-1.198662	s i c	-0.7726569
-1.4058821	c i c	-0.2873238
-1.2574654	a i c	-0.48788047
-1.1633183	p i c	-0.7845873
-1.2629926	h i c	-0.8982609
-1.2978227	o i c	-0.54866755
-1.1978846	t i c	-1.5866561
-1.0679426	n i c	-1.0554957
-1.1081234	d i c	-1.0631492
-1.0534571	m i c	-1.097263
-1.2552595	b i c	-0.43007588
-1.1941588	l i c	-1.1426055
-0.9391043	w i c	-0.8088869
-1.7471361	k i c	-0.61118686
-1.0750971	v i c	-0.7692028
-1.138583	x i c	-0.54790604
-1.5565674	z i c	-0.28937712
-1.1918724	<w> m c	-0.52339077
-1.6960407	r m c	-0.28937712
-1.9109212	e m c	-0.2689856
-2.0510423	u m c	-0.28937712
-1.9646317	a m c	-0.2689856
-1.7284251	i m c	-0.2994924
-1.7466123	y m c	-0.2689856
-2.0299883	u b c	-0.53200555
-2.2384737	a b c	-0.2689856
-2.032251	o b c	-0.2689856
-1.9936635	i b c	-0.2689856
-1.8721279	e l c	-0.61118686
-1.397215	u l c	-0.38504082
-1.4875304	a l c	-0.7460227
-1.6926651	o l c	-0.2915063
-1.7196835	i l c	-0.2890835
-1.4044445	l l c	-0.27702767
-1.8413275	e w c	-0.2790617
-1.8492026	a w c	-0.2689856
-2.1410909	o w c	-0.2689856
-1.9101838	o k c	-0.28937712
-1.8511127	n k c	-0.2689856
-2.0216632	e v c	-0.2689856
-1.435949	e x c	-0.8269964
-1.2979773	o x c	-0.2994924
-1.4601003	r y c	-0.28247303
-1.7701725	e y c	-0.2689856
-1.1916273	f y c	-0.2689856
-1.2651334	s y c	-0.97744673
-0.90264344	c y c	-1.1340656
-1.7449372	a y c	-0.28247303
-1.4763074	p y c	-0.2689856
-1.4283216	o y c	-0.30172527
-1.5016071	t y c	-0.2689856
-1.0420091	m y c	-0.29609442
-1.4117886	l y c	-0.48788047
-0.9866941	w y c	-0.28522152
-1.2698021	z y c	-0.2689856
-1.3746606	</w> <w> a	-1.8352194
-0.99876654	<w> r a	-1.0184023
-0.91674006	r r a	-0.69160324
-1.1843147	e r a	-1.2443984
-0.8025344	f r a	-0.86119413
-1.103653	u r a	-0.97599906
-0.6635582	g r a	-1.1775959
-0.7819746	s r a	-0.37239844
-0.6894012	c r a	-0.8421962
-1.2620862	a r a	-0.9136571
-0.797704	p r a	-0.70011187
-0.8715179	h r a	-0.5349168
-1.1541657	o r a	-0.9507901
-0.72019565	t r a	-1.2739611
-0.63865036	n r a	-0.28504702
-0.798488	d r a	-0.66590565
-0.98453635	i r a	-0.60833055
-0.42536145	m r a	-0.44785333
-0.85404193	b r a	-0.74701416
-0.9358381	l r a	-0.2689856
-1.2547681	w r a	-0.3999787
-0.6052385	k r a	-0.32733694
-0.9935152	v r a	-0.2689856
-0.73131824	y r a	-0.5162548
-0.6816635	z r a	-0.2689856
-1.3957708	<w> e a	-0.9384265
-1.1971328	r e a	-1.2145623
-1.8677953	e e a	-0.53200555
-1.3910598	f e a	-0.9079196
-1.8395382	u e a	-0.37663168
-1.2666414	g e a	-0.603405
-1.3855258	s e a	-0.6366966
-1.2397873	c e a	-0.62349087
-1.3470191	a e a	-0.2994924
-1.2368121	p e a	-0.92481697
-0.9358294	h e a	-1.2074165
-1.7378691	o e a	-0.2689856
-1.4516636	t e a	-0.71774554
-1.2903125	n e a	-0.5968298
-1.3759873	d e a	-0.65699345
-1.2133605	m e a	-0.6968838
-1.092525	b e a	-0.7481613
-1.3077296	l e a	-0.91463685
-1.2561189	w e a	-0.7400636
-1.763087	k e a	-0.2689856
-1.363938	v e a	-0.4470185
-1.3714607	y e a	-0.6511385
-1.5808566	z e a	-0.47558367
-1.452088	j e a	-0.37710363
-1.0015478	<w> f a	-1.0587126
-0.8790541	r f a	-0.55059487
-0.9939313	e f a	-0.44049796
-1.1013927	f f a	-0.32613263
-1.3374887	u f a	-0.61118686
-1.1434975	s f a	-0.54848975
-0.5344617	c f a	-0.2689856
-0.9803284	a f a	-0.34030944
-1.0364587	p f a	-0.2689856
-1.0049636	h f a	-0.28937712
-0.90341675	o f a	-0.3326263
-0.7160759	t f a	-0.54848975
-0.8073257	n f a	-0.45327407
-0.7523566	d f a	-0.28522152
-1.3622942	i f a	-0.28247303
-0.88949025	l f a	-0.27702767
-0.960867	w f a	-0.2689856
-0.74533635	k f a	-0.2994924
-1.0603311	y f a	-0.2689856
-1.7949595	r u a	-0.2689856
-0.80846167	g u a	-0.69488144
-1.0645641	s u a	-0.62696403
-1.6436163	c u a	-0.2994924
-1.9557256	a u a	-0.2689856
-1.7109725	p u a	-0.2689856
-1.4172838	h u a	-0.2790617
-1.901739	o u a	-0.2689856
-1.0280781	t u a	-1.1750913
-1.2415947	n u a	-0.6068896
-1.233439	d u a	-0.84356046
-1.6236961	i u a	-0.2689856
-1.7869895	b u a	-0.2689856
-1.6673278	l u a	-0.6511385
-0.99669266	x u a	-0.61118686
-0.583096	q u a	-0.875021
-1.3344659	j u a	-0.43509558
-1.0539751	<w> g a	-1.0082723
-1.0131837	r g a	-0.7624203
-0.9414746	e g a	-0.86133206
-0.5449306	f g a	-0.2689856
-0.9051699	u g a	-0.6227101
-1.1144531	g g a	-0.42103314
-0.7382016	s g a	-0.2689856
-0.92968124	a g a	-0.55219924
-0.8663571	p g a	-0.2689856
-0.5985966	h g a	-0.28937712
-0.95725673	o g a	-0.65444034
-0.86651075	t g a	-0.28247303
-1.0674862	n g a	-0.6037668
-1.1310171	d g a	-0.28247303
-1.0140359	i g a	-0.88799214
-0.64875704	l g a	-0.40733838
-1.1529548	y g a	-0.2689856
-1.295734	<w> s a	-1.0745863
-1.1864423	r s a	-0.47844404
-1.258374	e s a	-0.29546726
-1.3333185	f s a	-0.2689856
-1.2526226	u s a	-0.49308753
-1.3859947	g s a	-0.2689856
-1.1956474	s s a	-0.59699917
-1.2342653	a s a	-0.49747628
-1.2480984	p s a	-0.27702767
-1.1460267	h s a	-0.28247303
-1.1782925	o s a	-0.42956388
-1.5897593	t s a	-0.2994924
-1.3004587	n s a	-0.63902646
-1.6211126	d s a	-0.2689856
-1.290523	i s a	-0.7045773
-1.5626047	m s a	-0.2689856
-1.4457896	l s a	-0.43934524
-1.3539126	w s a	-0.2689856
-1.3478785	k s a	-0.2689856
-1.6572856	y s a	-0.2689856
-1.0323159	<w> c a	-1.396112
-0.90744805	r c a	-0.50015473
-1.0359867	e c a	-0.560794
-0.53810626	f c a	-0.2689856
-1.1224312	u c a	-0.6005224
-0.9426384	s c a	-0.83796376
-0.76829016	c c a	-0.41064283
-1.1886933	a c a	-0.49736243
-0.8932828	h c a	-0.2689856
-1.0118697	o c a	-0.9168644
-0.779017	t c a	-0.4131753
-0.98517835	n c a	-0.38788164
-0.6989797	d c a	-0.42103314
-0.9334994	i c a	-1.4943455
-0.9312219	m c a	-0.28522152
-0.51147485	b c a	-0.2689856
-0.8527872	l c a	-0.34030944
-0.47944552	w c a	-0.28247303
-0.53810626	k c a	-0.28937712
-0.81631565	x c a	-0.30172527
-1.1705134	y c a	-0.2689856
-1.5969708	<w> a a	-0.2689856
-2.085756	g a a	-0.2689856
-1.996203	s a a	-0.35603032
-1.3882406	a a a	-0.2689856
-2.071916	h a a	-0.2689856
-2.4298406	l a a	-0.2689856
-1.5642496	z a a	-0.28247303
-1.096873	<w> p a	-1.2930101
-1.0120652	r p a	-0.2988707
-0.98187894	e p a	-0.7776271
-1.2320188	u p a	-0.49261695
-0.8669038	s p a	-0.768898
-1.0924935	a p a	-0.55379283
-1.1374749	p p a	-0.4708085
-0.9138579	h p a	-0.2689856
-1.2405765	o p a	-0.49011368
-0.9234361	t p a	-0.28937712
-1.007183	n p a	-0.32136443
-0.7814813	d p a	-0.2689856
-1.067965	i p a	-0.67154783
-1.0281758	m p a	-0.9199268
-0.78705925	b p a	-0.28937712
-0.9526205	l p a	-0.2805204
-0.9138579	w p a	-0.2689856
-0.66817474	k p a	-0.2689856
-0.76034135	x p a	-0.70809686
-1.2308831	y p a	-0.28937712
-1.002691	<w> h a	-1.1554968
-0.6693582	r h a	-0.3794493
-0.8166174	e h a	-0.5078569
-0.68549097	f h a	-0.28937712
-0.96460825	u h a	-0.2689856
-0.834817	g h a	-0.51794314
-0.8436235	s h a	-0.8065248
-0.9954182	c h a	-1.0635908
-0.8868867	a h a	-0.29429388
-0.7497026	p h a	-0.7096705
-0.8424064	o h a	-0.34648892
-1.021335	t h a	-0.65969115
-0.6508709	n h a	-0.4287207
-0.5674118	d h a	-0.27343506
-0.66802573	i h a	-0.28247303
-0.85216445	m h a	-0.2689856
-0.8192532	l h a	-0.37239844
-0.8341188	w h a	-0.38235372
-0.78485864	k h a	-0.2862798
-0.9038558	x h a	-0.6819365
-0.8472493	z h a	-0.2689856
-1.423569	<w> o a	-0.5425304
-1.414954	r o a	-0.8220402
-1.8221682	f o a	-0.44785333
-1.5276946	g o a	-0.2944053
-1.9417658	s o a	-0.35602048
-1.2220492	c o a	-0.6752789
-1.8387548	p o a	-0.29321718
-1.6256247	h o a	-0.28912547
-1.8278586	t o a	-0.4131753
-2.0476766	n o a	-0.2689856
-1.7053726	d o a	-0.2689856
-1.9609541	i o a	-0.28937712
-1.7333672	m o a	-0.47558367
-0.9588634	b o a	-1.0383955
-1.2535708	l o a	-0.80402064
-1.769742	k o a	-0.2689856
-1.5621097	z o a	-0.28247303
-1.5971639	j o a	-0.28247303
-1.1534123	<w> t a	-0.9280703
-1.1734484	r t a	-0.7925262
-1.0894508	e t a	-0.7779481
-1.3226975	f t a	-0.28247303
-1.1531775	u t a	-0.59902006
-0.9025972	s t a	-1.2599397
-1.0172787	c t a	-0.7232567
-1.1292661	a t a	-0.63387245
-1.2478695	p t a	-0.37521595
-0.8590945	h t a	-0.27567694
-1.1272483	o t a	-0.61118686
-1.07836	t t a	-0.6729477
-1.0135654	n t a	-1.1335106
-1.2417353	d t a	-0.2689856
-1.1108248	i t a	-1.231419
-1.1834894	b t a	-0.61118686
-1.1889055	l t a	-0.534446
-0.91836095	k t a	-0.28247303
-1.0891877	x t a	-0.28247303
-1.1017183	<w> n a	-0.79791874
-1.1110275	r n a	-0.7796773
-1.1909494	e n a	-0.75201964
-0.8024117	f n a	-0.2689856
-1.1751074	u n a	-0.5366178
-0.7138635	g n a	-0.6886585
-0.80965245	s n a	-0.48100632
-0.94080657	c n a	-0.2689856
-1.1531092	a n a	-0.8602103
-0.9732138	h n a	-0.2805204
-1.0992426	o n a	-1.2182398
-1.3777391	t n a	-0.28247303
-1.0052001	n n a	-0.46999377
-0.80343056	d n a	-0.45306325
-1.1584978	i n a	-1.1687446
-0.9029291	m n a	-0.37663168
-0.94080657	b n a	-0.2689856
-1.2436043	w n a	-0.2689856
-0.9590899	k n a	-0.2944053
-0.55346495	x n a	-0.2689856
-1.2101305	y n a	-0.5558163
-1.0816411	<w> d a	-0.83308226
-1.0459915	r d a	-0.3768857
-1.2665638	e d a	-0.44946486
-1.0487882	u d a	-0.31663632
-0.77952904	g d a	-0.2689856
-0.3737388	s d a	-0.46903127
-0.8627259	c d a	-0.2689856
-1.1155957	a d a	-0.5235136
-0.5128286	p d a	-0.28247303
-0.6576446	h d a	-0.2689856
-1.2918339	o d a	-0.44049796
-0.958839	t d a	-0.2689856
-1.165623	n d a	-0.809814
-0.8097838	d d a	-0.35611275
-0.9397964	i d a	-0.6503919
-0.84746337	m d a	-0.2689856
-0.75835246	b d a	-0.2689856
-1.1222057	l d a	-0.41402227
-0.9455122	w d a	-0.2689856
-0.48508757	k d a	-0.28247303
-0.92328197	y d a	-0.31015685
-0.2781879	j d a	-0.2689856
-1.3150663	r i a	-1.1750913
-1.396002	e i a	-0.38090652
-1.4178073	f i a	-0.49261695
-1.5252743	u i a	-0.2689856
-1.0175018	g i a	-0.62902606
-1.1633619	s i a	-0.86903954
-1.1417445	c i a	-1.1248263
-1.9188781	a i a	-0.2689856
-1.1101304	p i a	-0.6335358
-1.4083304	h i a	-0.48778212
-1.4064527	o i a	-0.2994924
-1.2642835	t i a	-1.1371477
-1.3076661	n i a	-1.0158954
-1.1947023	d i a	-0.9050059
-1.3205379	i i a	-0.2689856
-1.3592237	m i a	-0.52153766
-1.0730975	b i a	-0.6218275
-1.3968474	l i a	-0.9317536
-1.761275	w i a	-0.2689856
-1.3268757	k i a	-0.38090652
-1.188436	v i a	-0.7361256
-1.1374116	x i a	-0.43934524
-1.3781289	z i a	-0.2689856
-0.98183584	<w> m a	-1.3576463
-0.81163836	r m a	-0.99266446
-0.90021574	e m a	-0.8919791
-0.3938472	f m a	-0.39640242
-1.0965701	u m a	-0.7505944
-0.52974653	g m a	-0.5162548
-0.5872296	s m a	-0.8184817
-0.5276364	c m a	-0.2689856
-0.99406034	a m a	-0.8004837
-0.33378544	p m a	-0.53200555
-0.65339243	h m a	-0.6455227
-0.9004853	o m a	-0.7869631
-0.4967797	t m a	-0.68628544
-0.6719771	n m a	-0.44499868
-0.61562175	d m a	-0.46529222
-0.94934326	i m a	-0.9332668
-0.8954941	m m a	-0.7211221
-0.94364953	b m a	-0.39640242
-0.7639198	l m a	-0.65586185
-0.5324847	w m a	-0.5058453
-0.54217434	k m a	-0.64751893
-0.6796185	y m a	-0.5278993
-0.3938472	z m a	-0.28937712
-1.0040325	<w> b a	-1.2248728
-0.9721934	r b a	-0.6538171
-1.0550874	e b a	-0.48811388
-0.6750095	f b a	-0.28937712
-1.0591948	u b a	-0.3308565
-0.9722969	g b a	-0.2689856
-0.9272331	s b a	-0.4377951
-0.9363387	a b a	-0.49216866
-1.0071695	p b a	-0.2689856
-0.78061366	h b a	-0.27702767
-1.0510125	o b a	-0.5017906
-0.7907275	t b a	-0.3620228
-0.79055876	n b a	-0.33643335
-0.88185704	d b a	-0.2805204
-1.06442	i b a	-0.44628936
-0.9916102	m b a	-0.5803882
-1.2319348	b b a	-0.27567694
-0.8506597	l b a	-0.43509558
-0.62855285	w b a	-0.29609442
-0.9722969	k b a	-0.2689856
-1.1548759	y b a	-0.28247303
-0.9422833	<w> l a	-1.0126364
-1.0085351	r l a	-0.5520034
-1.1097783	e l a	-0.76562834
-0.7517267	f l a	-0.7147274
-1.0175296	u l a	-1.2748607
-0.87017643	g l a	-0.6770836
-0.9139159	s l a	-0.75019646
-0.6702284	c l a	-0.9158316
-1.145531	a l a	-0.6949336
-0.5634754	p l a	-1.1630534
-0.9492069	h l a	-0.47558367
-1.0021437	o l a	-0.82743555
-0.8708974	t l a	-0.61485314
-0.90340984	n l a	-0.45552433
-1.0692965	d l a	-0.41402227
-1.1195769	i l a	-0.7692118
-1.2944691	m l a	-0.28937712
-0.99615407	b l a	-0.6617787
-1.0791662	l l a	-0.87490225
-1.1568061	w l a	-0.2689856
-0.85141784	k l a	-0.3501085
-0.68642575	v l a	-0.2689856
-0.8124223	y l a	-0.3697168
-0.27849585	q l a	-0.2689856
-0.9594758	<w> w a	-1.1088523
-0.6777426	r w a	-0.6687082
-0.854434	e w a	-0.7299462
-0.26186183	f w a	-0.28937712
-0.26186183	u w a	-0.28937712
-0.7137454	g w a	-0.31015685
-0.7498757	s w a	-0.5055469
-0.83396614	a w a	-0.61293167
-0.56181574	p w a	-0.28247303
-0.596421	h w a	-0.5321216
-0.96872056	o w a	-0.37913764
-0.8157265	t w a	-0.41180757
-0.53377175	n w a	-0.563336
-0.6166639	d w a	-0.49566674
-0.51539546	i w a	-0.2790617
-0.64507973	m w a	-0.2689856
-0.64507973	b w a	-0.28937712
-0.5869168	l w a	-0.4470185
-0.7297243	w w a	-0.2689856
-0.3880808	k w a	-0.3501085
-0.5328096	y w a	-0.40126103
-1.0922551	<w> k a	-0.52608466
-1.0751685	r k a	-0.4470185
-1.1654688	e k a	-0.2689856
-0.2798397	f k a	-0.2689856
-1.095799	u k a	-0.28247303
-0.97112215	s k a	-0.29394794
-1.1924715	c k a	-0.48167127
