\data\
ngram 1=32
ngram 2=772
ngram 3=10042
ngram 4=65327

\1-grams:
-2.730619	<unk>	0
0	<s>	-0.3448089
-2.501032	<w>	-0.34332523
-1.4261866	a	-1.3182509
-1.4414611	b	-0.99188423
-1.4261866	h	-1.0041095
-1.4414611	i	-1.2702914
-1.4261866	n	-1.0836197
-1.4414611	c	-1.0409186
-1.4414611	</w>	-1.3709617
-1.4572926	d	-1.0256488
-1.4572926	e	-1.2976146
-1.4414611	p	-1.0054563
-1.4414611	o	-1.3085492
-1.4261866	t	-1.137184
-1.4261866	u	-1.2430584
-1.4414611	r	-1.0502374
-1.4414611	s	-1.166898
-1.4907995	w	-0.8777282
-1.4261866	l	-1.0610646
-1.4572926	g	-0.9945883
-1.5271094	j	-0.8421786
-1.4261866	v	-0.9415017
-1.4907995	k	-1.0103804
-1.4907995	q	-0.6883993
-1.54647	æ	-0.79800516
-1.4414611	m	-0.9937588
-1.4737229	y	-1.1329399
-1.6103408	x	-0.7251182
-1.4572926	f	-0.95508116
-1.5271094	z	-0.83082926
-1.6103408	œ	-0.5700126

\2-grams:
-0.26013404	<s> <w>	-0.27401543
-0.018829137	</w> <w>	-1.2767467
-1.2737304	<w> a	-0.28256077
-1.4333875	a a	-0.6702133
-1.0975434	b a	-0.8762294
-1.1201605	h a	-0.96015674
-1.3758583	i a	-0.9491018
-1.2055131	n a	-0.95706475
-1.1984332	c a	-0.8691646
-1.1861635	d a	-0.87287366
-1.4165976	e a	-0.9855065
-1.1792177	p a	-0.82979155
-1.4236858	o a	-0.7651109
-1.2427509	t a	-0.9338694
-1.385136	u a	-0.76146156
-1.1721308	r a	-1.0937858
-1.320512	s a	-0.88929224
-0.98068506	w a	-0.79497683
-1.1637155	l a	-1.0510337
-1.1154039	g a	-0.8284056
-0.75046915	j a	-0.566705
-0.9891754	v a	-0.73864865
-1.1428859	k a	-0.7446698
-1.3854563	q a	-0.3352545
-1.1050966	æ a	-0.74975795
-1.1037402	m a	-0.9492305
-1.2868698	y a	-0.73487496
-1.1895775	x a	-0.46466792
-1.1067536	f a	-0.74191165
-0.97643965	z a	-0.64644307
-1.0526774	œ a	-0.57381964
-1.4521191	<w> b	-0.27401543
-1.4170806	a b	-0.9548557
-1.497189	b b	-0.59977764
-1.6312327	h b	-0.4536635
-1.4099245	i b	-0.9362752
-1.4742639	n b	-0.65855855
-1.7824473	c b	-0.37727904
-1.6450598	d b	-0.62483287
-1.4173381	e b	-0.9403011
-1.6194539	p b	-0.41364825
-1.4244198	o b	-0.84638405
-1.5278282	t b	-0.6791906
-1.385917	u b	-0.7948923
-1.6825581	r b	-0.53510106
-1.4225338	s b	-0.8789792
-1.8843246	w b	-0.3642941
-1.6399449	l b	-0.5652518
-1.6532449	g b	-0.40994358
-1.9106078	v b	-0.35774946
-1.6277977	k b	-0.45014596
-1.7554108	q b	-0.27401543
-1.8922695	æ b	-0.35774946
-1.5644622	m b	-0.5742068
-1.3706603	y b	-0.70196235
-1.5991398	x b	-0.40024468
-1.8536686	f b	-0.31080085
-1.6094975	z b	-0.3860215
-1.6208334	œ b	-0.3352545
-1.4449515	<w> h	-0.27401543
-1.4163749	a h	-0.85860837
-1.5411326	b h	-0.47929674
-1.4918059	h h	-0.46786982
-1.5511202	i h	-0.5748575
-1.5767491	n h	-0.7310513
-1.145296	c h	-0.86248803
-1.505289	d h	-0.69058347
-1.433568	e h	-0.8507639
-1.2909553	p h	-0.8071805
-1.441392	o h	-0.7193361
-1.2590774	t h	-0.9043724
-1.5344603	u h	-0.5638126
-1.4395008	r h	-0.6124624
-1.3581457	s h	-0.8092201
-1.0876889	w h	-0.73511803
-1.5514882	l h	-0.5732672
-1.1734059	g h	-0.6342304
-1.6754249	j h	-0.3138675
-2.044653	v h	-0.3352545
-1.2901015	k h	-0.71063423
-1.7488958	q h	-0.27401543
-2.0156887	æ h	-0.27401543
-1.4758058	m h	-0.4959008
-1.4178888	y h	-0.61446816
-1.3465903	x h	-0.41338345
-1.7518078	f h	-0.30535114
-1.5255326	z h	-0.37662393
-1.7571465	œ h	-0.27401543
-1.4521191	<w> i	-0.27401543
-1.4170806	a i	-0.969085
-1.1538684	b i	-0.80646086
-1.1556008	h i	-0.8346716
-1.4276108	i i	-0.67967594
-1.174144	n i	-0.930143
-1.2387384	c i	-0.87478673
-1.20627	d i	-0.83812994
-1.4173381	e i	-0.9426843
-1.1800578	p i	-0.8394336
-1.407379	o i	-0.914889
-1.259823	t i	-0.9960307
-1.3681996	u i	-0.7544111
-1.1898704	r i	-1.045001
-1.3213141	s i	-0.9436542
-1.0211636	w i	-0.7791629
-1.1644286	l i	-1.0262034
-1.1954918	g i	-0.79742396
-0.9670412	j i	-0.41487885
-0.91939664	v i	-0.8246927
-1.1038383	k i	-0.7496784
-1.6089134	æ i	-0.3352545
-1.1391952	m i	-0.83314556
-1.2691861	y i	-0.64396435
-1.1109436	x i	-0.60195094
-1.1278158	f i	-0.78896433
-1.0446391	z i	-0.6742889
-1.4662957	œ i	-0.27401543
-1.4449515	<w> n	-0.27401543
-1.4000039	a n	-1.0998542
-1.6502286	b n	-0.4018171
-1.3580008	h n	-0.4969507
-1.392185	i n	-1.0627515
-1.4728831	n n	-0.5893854
-1.6044595	c n	-0.3910974
-1.3712083	d n	-0.7012974
-1.4165976	e n	-1.1153185
-1.4417903	p n	-0.5195501
-1.3745258	o n	-1.0716368
-1.3946624	t n	-0.6837171
-1.3504558	u n	-0.9556177
-1.5433667	r n	-0.52541906
-1.5853406	s n	-0.6231373
-1.6506054	w n	-0.35618085
-1.6378169	l n	-0.50615084
-1.4165046	g n	-0.6124921
-1.6754249	j n	-0.3352545
-1.6687205	v n	-0.3258934
-1.2102855	k n	-0.6306223
-1.3854563	q n	-0.3352545
-1.0365479	æ n	-0.3986044
-1.4382356	m n	-0.59676003
-1.3263081	y n	-0.76081073
-1.7240752	x n	-0.330432
-1.4956135	f n	-0.4174615
-1.6061313	z n	-0.3860215
-0.9370257	œ n	-0.47064224
-1.4521191	<w> c	-0.27401543
-1.4006835	a c	-1.0082386
-1.7201377	b c	-0.35774946
-1.5803281	h c	-0.44804022
-1.4099245	i c	-1.0017803
-1.4164993	n c	-0.68386906
-1.3848089	c c	-0.62239254
-1.5483204	d c	-0.5522631
-1.4173381	e c	-0.9825382
-1.6774601	p c	-0.347822
-1.3751812	o c	-0.9838985
-1.4979862	t c	-0.6040386
-1.385917	u c	-0.91902584
-1.5451213	r c	-0.5365348
-1.3397582	s c	-0.8475549
-1.8843246	w c	-0.3668341
-1.5532318	l c	-0.5002419
-1.6532449	g c	-0.33835685
-2.0013475	j c	-0.27401543
-1.6717328	v c	-0.31080085
-1.8788791	k c	-0.34861118
-1.3492768	æ c	-0.3491596
-1.6154745	m c	-0.36741865
-1.3706603	y c	-0.69541746
-1.4174758	x c	-0.365387
-1.6076071	f c	-0.33364102
-1.6094975	z c	-0.30535114
-1.2132366	œ c	-0.27401543
-1.4006835	a </w>	-1.3052353
-1.2411848	b </w>	-1.129144
-1.1379018	h </w>	-1.2718115
-1.3929304	i </w>	-1.2888448
-1.2232527	n </w>	-1.2718115
-1.2185415	c </w>	-1.2162942
-1.1869785	d </w>	-1.2355993
-1.4343381	e </w>	-1.2718115
-1.2437326	p </w>	-1.1526251
-1.407379	o </w>	-1.2888448
-1.276817	t </w>	-1.2718115
-1.3681996	u </w>	-1.2718115
-1.1898704	r </w>	-1.2718115
-1.3036215	s </w>	-1.2718115
-1.2312579	w </w>	-0.98781484
-1.197788	l </w>	-1.2718115
-1.2662456	g </w>	-1.1043204
-1.08726	j </w>	-0.8738715
-1.122925	v </w>	-1.1043204
-1.1436498	k </w>	-1.1960908
-0.7234252	q </w>	-0.9152642
-0.9513372	æ </w>	-1.1043204
-1.2405419	m </w>	-1.1526251
-1.251455	y </w>	-1.2718115
-0.98464006	x </w>	-1.0779915
-1.1949846	f </w>	-1.129144
-1.0961992	z </w>	-1.0779915
-0.8074429	œ </w>	-0.95305276
-1.459407	<w> d	-0.27401543
-1.4177876	a d	-0.9753238
-1.4572862	b d	-0.5741845
-1.6916373	h d	-0.4117768
-1.3615093	i d	-0.97068876
-1.3666016	n d	-0.6323715
-1.5626659	c d	-0.5226671
-1.5501988	d d	-0.6068219
-1.4180799	e d	-0.99847806
-1.5703511	p d	-0.3981569
-1.3916625	o d	-0.90040886
-1.5613644	t d	-0.54211056
-1.3866993	u d	-0.8349464
-1.5882201	r d	-0.50789535
-1.498158	s d	-0.77792037
-1.7582915	w d	-0.35825837
-1.5172125	l d	-0.56115925
-1.6558158	g d	-0.4354223
-1.5908993	v d	-0.45107424
-1.6992587	k d	-0.46719146
-1.2368762	æ d	-0.3651941
-1.6178354	m d	-0.4254119
-1.3493048	y d	-0.7195598
-1.7354469	x d	-0.27401543
-1.610142	f d	-0.42381006
-1.6128902	z d	-0.33283657
-1.6272038	œ d	-0.40656886
-1.459407	<w> e	-0.27401543
-1.4348567	a e	-0.89210194
-1.0989808	b e	-0.87587667
-1.1216327	h e	-0.87926096
-1.3936772	i e	-0.9548375
-1.2070053	n e	-0.96997505
-1.2396264	c e	-0.7991777
-1.1180818	d e	-0.900638
-1.4180799	e e	-0.9615034
-1.1808996	p e	-0.81247425
-1.4080858	o e	-0.7830713
-1.2605697	t e	-0.9624265
-1.3689506	u e	-0.7988215
-1.1572413	r e	-1.0854878
-1.2709763	s e	-0.9597539
-0.96348804	w e	-0.7761799
-1.165143	l e	-1.100795
-1.1548231	g e	-0.83465457
-0.87359226	j e	-0.5447972
-1.0100038	v e	-0.73801774
-1.0858914	k e	-0.8398788
-1.8993156	æ e	-0.40656886
-1.0887891	m e	-0.8941796
-1.3078212	y e	-0.7262834
-1.1928682	x e	-0.5378341
-1.128654	f e	-0.743445
-0.97801584	z e	-0.7540095
-1.4521191	<w> p	-0.27401543
-1.4341215	a p	-0.90479356
-1.79987	b p	-0.3352545
-1.8340168	h p	-0.3755927
-1.4653027	i p	-0.86044484
-1.6651404	n p	-0.5186977
-1.8615282	c p	-0.35774946
-1.70293	d p	-0.40520853
-1.4343381	e p	-0.8815619
-1.481124	p p	-0.56742835
-1.3909818	o p	-0.8570188
-1.6320679	t p	-0.45373294
-1.4438683	u p	-0.7485741
-1.740097	r p	-0.5155113
-1.3590205	s p	-0.82802105
-1.7540394	w p	-0.37980634
-1.5944278	l p	-0.5278777
-2.0249813	g p	-0.32229635
-2.0013475	j p	-0.27401543
-2.1798923	v p	-0.27401543
-1.778197	k p	-0.354358
-1.7472155	æ p	-0.27401543
-1.439804	m p	-0.60590875
-1.4189743	y p	-0.6423845
-1.4988775	x p	-0.42090935
-1.8536686	f p	-0.27401543
-1.9726385	z p	-0.27401543
-1.7658895	œ p	-0.27401543
-1.4521191	<w> o	-0.27401543
-1.4518582	a o	-0.6525289
-1.1345308	b o	-0.8792696
-1.1556008	h o	-0.91553247
-1.4099245	i o	-0.8675479
-1.2062585	n o	-0.9106846
-1.146012	c o	-0.907087
-1.1337671	d o	-0.8670038
-1.4343381	e o	-0.8030154
-1.1607511	p o	-0.8458455
-1.407379	o o	-0.9609334
-1.259823	t o	-0.9366623
-1.3681996	u o	-0.65644467
-1.1565222	r o	-1.0595081
-1.3213141	s o	-0.8337394
-0.9813987	w o	-0.6687137
-1.1644286	l o	-1.015782
-1.1540102	g o	-0.8033221
-0.8456763	j o	-0.5797611
-1.073876	v o	-0.65284026
-1.2628397	k o	-0.5576367
-1.288579	æ o	-0.47155446
-1.1391952	m o	-0.8690891
-1.4189743	y o	-0.6155665
-1.2377087	x o	-0.40514067
-1.0696576	f o	-0.7530844
-1.1244725	z o	-0.6098309
-1.2132366	œ o	-0.31979328
-1.4449515	<w> t	-0.27401543
-1.4163749	a t	-1.0220867
-1.6502286	b t	-0.3943444
-1.3301258	h t	-0.51154923
-1.392185	i t	-1.0301683
-1.3410981	n t	-0.68229985
-1.4454955	c t	-0.608259
-1.6427242	d t	-0.51543957
-1.4165976	e t	-1.0345488
-1.4417903	p t	-0.6914076
-1.3745258	o t	-0.97064954
-1.4688545	t t	-0.6532816
-1.3341017	u t	-0.9338129
-1.4395008	r t	-0.5614474
-1.3028514	s t	-0.8872837
-1.6506054	w t	-0.3882763
-1.4475465	l t	-0.5796075
-1.5926666	g t	-0.41422707
-1.8377361	j t	-0.27401543
-1.5163883	v t	-0.45107424
-1.3879656	k t	-0.54759187
-1.5663196	q t	-0.27401543
-1.2337964	æ t	-0.4190584
-1.5623738	m t	-0.44364238
-1.3263081	y t	-0.7648525
-1.3465903	x t	-0.44385743
-1.408254	f t	-0.5353625
-1.6061313	z t	-0.34661543
-1.4618877	œ t	-0.384971
-1.4449515	<w> u	-0.27401543
-1.4510937	a u	-0.93859774
-1.0975434	b u	-0.7141025
-1.2125759	h u	-0.7241416
-1.4452056	i u	-0.7422751
-1.2777504	n u	-0.7334337
-1.162296	c u	-0.77760047
-1.2466948	d u	-0.7092531
-1.4165976	e u	-0.8492305
-1.1993828	p u	-0.70598894
-1.4066733	o u	-1.0098081
-1.2760417	t u	-0.84283423
-1.6184596	u u	-0.5462435
-1.2251514	r u	-0.86931485
-1.3782606	s u	-0.7646885
-1.3449857	w u	-0.45805204
-1.2523123	l u	-0.8271582
-1.1945993	g u	-0.6943066
-0.8451096	j u	-0.52048135
-1.3145294	v u	-0.5640804
-1.3203372	k u	-0.52463406
-0.38559127	q u	-0.78715014
-1.0059454	æ u	-0.8950608
-1.1962293	m u	-0.6930696
-1.6476411	y u	-0.3999217
-1.4147143	x u	-0.35406733
-1.087428	f u	-0.73393166
-1.2590868	z u	-0.4567284
-1.0526774	œ u	-0.3668341
-1.4521191	<w> r	-0.27401543
-1.4006835	a r	-1.137324
-1.1538684	b r	-0.97088623
-1.3592734	h r	-0.6238998
-1.4099245	i r	-0.9606982
-1.7734793	n r	-0.5418422
-1.2185415	c r	-0.91575295
-1.2476317	d r	-0.93624496
-1.4173381	e r	-1.1458464
-1.2214541	p r	-0.81265366
-1.3909818	o r	-1.0978945
-1.3321953	t r	-0.90547603
-1.3190107	u r	-1.0217944
-1.383117	r r	-0.6479222
-1.5547519	s r	-0.49428886
-1.1401854	w r	-0.62506014
-1.6399449	l r	-0.5602398
-1.1540102	g r	-0.8761121
-1.3158594	v r	-0.63187486
-1.3893096	k r	-0.61844975
-1.3882658	q r	-0.330432
-1.1451571	æ r	-0.4228854
-1.6732862	m r	-0.36249572
-1.3069805	y r	-0.6995388
-1.4988775	x r	-0.32229635
-1.1490717	f r	-0.8989538
-1.6094975	z r	-0.38398907
-1.4662957	œ r	-0.32229635
-1.4521191	<w> s	-0.27401543
-1.369637	a s	-0.989484
-1.4556466	b s	-0.5217743
-1.421238	h s	-0.5432689
-1.3929304	i s	-1.0238221
-1.4164993	n s	-0.69810444
-1.5194345	c s	-0.4595644
-1.469253	d s	-0.6305754
-1.4009786	e s	-1.0317069
-1.3763732	p s	-0.6597052
-1.3751812	o s	-0.9742263
-1.3321953	t s	-0.76532936
-1.3037792	u s	-0.91447526
-1.3087348	r s	-0.594689
-1.4225338	s s	-0.6666347
-1.5726668	w s	-0.39338505
-1.4190584	l s	-0.60853976
-1.3508134	g s	-0.51709473
-1.3583572	v s	-0.54368997
-1.3540758	k s	-0.5422586
-1.5705876	q s	-0.27401543
-1.187909	æ s	-0.4948438
-1.3430624	m s	-0.5851532
-1.2876723	y s	-0.7753131
-1.4174758	x s	-0.34043747
-1.4975709	f s	-0.496638
-1.709409	z s	-0.3668341
-1.4662957	œ s	-0.32229635
-1.4743601	<w> w	-0.27401543
-1.4541599	a w	-0.88604045
-1.8108538	b w	-0.4153869
-1.5867358	h w	-0.48845273
-1.6974703	i w	-0.5578028
-1.5838103	n w	-0.6317923
-1.8728402	c w	-0.32800785
-1.5121325	d w	-0.7053668
-1.4544456	e w	-0.84884906
-1.7537785	p w	-0.35997412
-1.4266291	o w	-0.91142386
-1.4472611	t w	-0.73939145
-1.7713896	u w	-0.4663511
-1.6382452	r w	-0.48695776
-1.3422782	s w	-0.9102547
-1.664153	w w	-0.34192973
-1.5585053	l w	-0.58473
-1.6016783	g w	-0.6052824
-2.2101417	v w	-0.27401543
-1.474607	k w	-0.5755739
-1.6225958	m w	-0.48741835
-1.6131482	y w	-0.57402813
-1.6119543	x w	-0.41793954
-1.6841755	f w	-0.34661543
-1.5368192	z w	-0.401243
-1.4449515	<w> l	-0.27401543
-1.3842275	a l	-1.0758843
-1.1944381	b l	-0.8958163
-1.4542964	h l	-0.55952555
-1.3758583	i l	-1.0349083
-1.4431326	n l	-0.7363436
-1.2176955	c l	-0.8617548
-1.4676933	d l	-0.713924
-1.4165976	e l	-1.0643584
-1.1993828	p l	-0.92412865
-1.3903022	o l	-0.99597263
-1.3946624	t l	-0.8627527
-1.3674498	u l	-0.9652003
-1.6296171	r l	-0.52042276
-1.3993527	s l	-0.85886025
-1.7498286	w l	-0.37208673
-1.3390498	l l	-0.63546157
-1.2651953	g l	-0.76585704
-1.9933066	j l	-0.27401543
-1.2404928	v l	-0.4705877
-1.3203372	k l	-0.6990797
-1.7488958	q l	-0.27401543
-1.5013279	æ l	-0.3618104
-1.5623738	m l	-0.5621722
-1.268417	y l	-0.83424056
-1.3465903	x l	-0.43421537
-1.1481932	f l	-0.8555478
-1.3470892	z l	-0.5515933
-1.614555	œ l	-0.27401543
-1.459407	<w> g	-0.27401543
-1.4177876	a g	-0.9635913
-1.9021595	b g	-0.27401543
-1.6916373	h g	-0.4194352
-1.4284196	i g	-0.95055103
-1.4756491	n g	-0.5767534
-1.9629635	c g	-0.31598833
-1.5086973	d g	-0.540063
-1.4351094	e g	-0.92818093
-1.9252354	p g	-0.29818964
-1.4080858	o g	-0.95234656
-1.6338296	t g	-0.47689036
-1.4245331	u g	-0.8402837
-1.7428602	r g	-0.5273982
-1.471838	s g	-0.70234656
-1.8900741	w g	-0.3302247
-1.7511505	l g	-0.5155524
-1.5454724	g g	-0.5951987
-1.6747661	v g	-0.35774946
-1.6992587	k g	-0.371893
-1.8993156	æ g	-0.30794555
-1.6178354	m g	-0.36433753
-1.3716339	y g	-0.59698516
-1.6033695	x g	-0.37662393
-1.9869862	f g	-0.27401543
-1.7136835	z g	-0.3723775
-1.6272038	œ g	-0.27401543
-1.4898466	<w> j	-0.27401543
-1.5356954	a j	-0.6887513
-1.8183339	b j	-0.35997412
-1.8534583	h j	-0.30794555
-1.6375978	i j	-0.49405432
-1.7874745	n j	-0.5592371
-1.7856045	d j	-0.40804046
-1.5583475	e j	-0.77830446
-1.9443574	p j	-0.35774946
-1.7511101	o j	-0.53460115
-1.9913803	t j	-0.30535114
-1.626546	u j	-0.55790484
-1.9044337	r j	-0.4117768
-2.018681	s j	-0.34475285
-2.0586782	w j	-0.27401543
-2.2804985	l j	-0.27401543
-1.8725011	j j	-0.27401543
-2.319645	k j	-0.27401543
-2.0753202	æ j	-0.27401543
-2.2083633	m j	-0.40656886
-2.4664707	y j	-0.27401543
-2.152738	f j	-0.40656886
-2.1454918	z j	-0.27401543
-1.4449515	<w> v	-0.27401543
-1.4163749	a v	-0.921817
-1.7962697	b v	-0.30535114
-1.6288553	h v	-0.38800812
-1.4268034	i v	-0.8077481
-1.6629994	n v	-0.5277939
-1.779356	c v	-0.4153869
-1.6427242	d v	-0.44853133
-1.4165976	e v	-0.8456826
-2.039462	p v	-0.3352545
-1.4791292	o v	-0.79125154
-1.6713009	t v	-0.36463836
-1.5097201	u v	-0.67638284
-1.7373514	r v	-0.49764818
-1.6198416	s v	-0.48188776
-2.1267416	w v	-0.27401543
-1.4475465	l v	-0.6115337
-1.893909	g v	-0.30130827
-1.8377361	j v	-0.27401543
-1.4564756	v v	-0.42734203
-1.874743	k v	-0.330432
-1.5663196	q v	-0.27401543
-1.6052887	æ v	-0.37662393
-1.736868	m v	-0.4021261
-1.534088	y v	-0.6480344
-1.4147143	x v	-0.41093934
-2.1025457	f v	-0.27401543
-1.9649098	z v	-0.27401543
-1.614555	œ v	-0.27401543
-1.4743601	<w> k	-0.27401543
-1.4363308	a k	-0.840201
-1.8108538	b k	-0.3352545
-1.9445072	h k	-0.4137702
-1.4485849	i k	-0.7721695
-1.625503	n k	-0.5086432
-1.4187677	c k	-0.63330096
-1.7791786	d k	-0.34192973
-1.4366564	e k	-0.7424551
-1.6854638	p k	-0.42381006
-1.4824748	o k	-0.7111453
-1.7251918	t k	-0.3999217
-1.467864	u k	-0.63289696
-1.6898569	r k	-0.48691428
-1.3422782	s k	-0.7502065
-1.9018067	w k	-0.32914692
-1.6980523	l k	-0.5000345
-1.8114281	g k	-0.34861118
-2.0264044	j k	-0.27401543
-1.6348484	k k	-0.47862157
-1.5707885	m k	-0.42130476
-1.4770553	y k	-0.54538727
-2.0148501	x k	-0.27401543
-1.8672405	f k	-0.3352545
-1.619756	z k	-0.30535114
-1.4743601	<w> q	-0.27401543
-1.5338432	a q	-1.1749015
-2.2974372	b q	-0.27401543
-2.2037811	h q	-0.40656886
-1.5318602	i q	-0.9152642
-1.8495584	n q	-0.49402684
-1.7236254	c q	-0.57649755
-1.7791786	d q	-0.50652325
-1.5563015	e q	-0.74975795
-2.197507	p q	-0.27401543
-1.6218055	o q	-0.7495613
-1.7768035	t q	-0.6195771
-1.6913749	u q	-0.646593
-1.816176	r q	-0.47929674
-1.7060628	s q	-0.6429597
-2.1686223	w q	-0.27401543
-2.0036755	l q	-0.47593147
-1.7755637	q q	-0.27401543
-1.7624953	æ q	-0.35099274
-1.9295638	m q	-0.47593147
-2.1916153	y q	-0.35774946
-1.8876644	x q	-0.40656886
-2.2571232	f q	-0.27401543
-2.1228716	z q	-0.27401543
-1.6402321	œ q	-0.40656886
-1.497802	<w> æ	-0.27401543
-2.6630504	a æ	-0.27401543
-1.6685405	b æ	-0.330432
-1.7748975	h æ	-0.3999217
-1.6693138	i æ	-0.79566836
-1.5506911	n æ	-0.5156747
-1.5721197	c æ	-0.37415093
-1.659344	d æ	-0.47175044
-2.0709677	e æ	-0.36612704
-1.6936177	p æ	-0.35800704
-2.653349	o æ	-0.27401543
-1.6849847	t æ	-0.52676964
-2.006263	u æ	-0.4144956
-1.4188563	r æ	-0.44551095
-2.0226984	s æ	-0.33283657
-1.4899524	l æ	-0.43129537
-1.6689044	g æ	-0.30535114
-1.603631	v æ	-0.6520227
-1.4879217	m æ	-0.496638
-2.3517668	y æ	-0.27401543
-2.018365	f æ	-0.27401543
-2.15726	z æ	-0.27401543
-1.4521191	<w> m	-0.27401543
-1.4170806	a m	-0.9603383
-1.7201377	b m	-0.4403835
-1.3891515	h m	-0.5377409
-1.4099245	i m	-0.8894497
-1.5409077	n m	-0.5851073
-1.6576343	c m	-0.414941
-1.5483204	d m	-0.63820803
-1.4173381	e m	-0.9530603
-1.522524	p m	-0.67550385
-1.3909818	o m	-0.91155005
-1.419088	t m	-0.7318174
-1.3190107	u m	-0.9282221
-1.6825581	r m	-0.5170215
-1.4003145	s m	-0.88985956
-1.7540394	w m	-0.354358
-1.6907971	l m	-0.5456984
-1.5434769	g m	-0.572979
-1.8433404	j m	-0.40656886
-1.6717328	v m	-0.31854713
-1.4697198	k m	-0.6167703
-1.288579	æ m	-0.399533
-1.518817	m m	-0.5734185
-1.34838	y m	-0.6936797
-1.3489498	x m	-0.44263572
-1.755345	f m	-0.41798663
-1.6094975	z m	-0.3777476
-1.6208334	œ m	-0.3352545
-1.4668192	<w> y	-0.27401543
-1.4533913	a y	-0.8929329
-1.1971371	b y	-0.60513186
-1.3073117	h y	-0.58846986
-1.6959685	i y	-0.44662964
-1.3441622	n y	-0.53824544
-1.3872998	c y	-0.55685014
-1.4050745	d y	-0.58446
-1.4188229	e y	-0.8287239
-1.411418	p y	-0.5148158
-1.481636	o y	-0.8294569
-1.375415	t y	-0.67970246
-1.5128498	u y	-0.59378886
-1.2276835	r y	-0.8316847
-1.4245654	s y	-0.5895643
-1.2338048	w y	-0.4713468
-1.1822729	l y	-0.76070035
-1.3858668	g y	-0.46211678
-1.8547708	j y	-0.35774946
-1.2438654	v y	-0.57477665
-1.212968	k y	-0.567846
-1.31744	m y	-0.587477
-2.0569954	y y	-0.384971
-1.6076407	x y	-0.30319026
-1.3396305	f y	-0.516484
-1.1897871	z y	-0.57704306
-1.5225817	<w> x	-0.27401543
-1.539424	a x	-0.669382
-2.114292	h x	-0.3138675
-1.515392	i x	-0.6996256
-1.9542066	n x	-0.3901174
-2.2907574	c x	-0.30794555
-1.5624686	e x	-0.68872017
-1.5297222	o x	-0.6469604
-2.1127791	t x	-0.31080085
-1.5725453	u x	-0.5739076
-2.1646132	r x	-0.37662393
-2.4253273	s x	-0.40656886
-1.7737764	l x	-0.40024468
-2.0829885	g x	-0.35774946
-2.2778046	v x	-0.27401543
-2.1201715	æ x	-0.27401543
-2.3826108	m x	-0.27401543
-1.6664444	y x	-0.54563797
-1.4431527	x x	-0.45432776
-1.459407	<w> f	-0.27401543
-1.4711494	a f	-0.8234141
-1.8035004	b f	-0.34192973
-1.7586136	h f	-0.41650182
-1.410701	i f	-0.96505505
-1.6216024	n f	-0.63792175
-1.9629635	c f	-0.40656886
-1.5086973	d f	-0.5736804
-1.4180799	e f	-0.8994671
-1.4828094	p f	-0.47204217
-1.4614477	o f	-0.71881956
-1.5292133	t f	-0.67595094
-1.488288	u f	-0.66265243
-1.6849774	r f	-0.49264956
-1.471838	s f	-0.7261743
-1.8900741	w f	-0.3489976
-1.6420834	l f	-0.5303621
-1.5971491	g f	-0.4576965
-1.570518	k f	-0.4401659
-1.762025	q f	-0.27401543
-2.0346704	æ f	-0.27401543
-1.6759843	m f	-0.4579941
-1.4745774	y f	-0.5525661
-1.7354469	x f	-0.34192973
-1.3058329	f f	-0.59940636
-1.9805073	z f	-0.27401543
-1.7748123	œ f	-0.27401543
-1.4898466	<w> z	-0.27401543
-1.4206266	a z	-0.83282083
-2.320792	b z	-0.27401543
-2.2219753	h z	-0.27401543
-1.4697324	i z	-0.8474276
-1.937816	n z	-0.4926774
-1.7982432	c z	-0.33283657
-1.8677973	d z	-0.3560504
-1.4382088	e z	-0.83952683
-1.9443574	p z	-0.27401543
-1.4459995	o z	-0.81361485
-1.729571	t z	-0.47580314
-1.5160023	u z	-0.70142376
-1.7540922	r z	-0.45537075
-1.709974	s z	-0.43933624
-2.0586782	w z	-0.3138675
-1.9128475	l z	-0.40788534
-2.1961277	g z	-0.27401543
-2.319645	k z	-0.27401543
-2.071767	m z	-0.3352545
-1.7581403	y z	-0.40849435
-2.280285	f z	-0.27401543
-1.6267319	z z	-0.512339
-1.5225817	<w> œ	-0.27401543
-2.0821738	b œ	-0.32229635
-1.9749765	h œ	-0.34127486
-1.9248873	i œ	-0.77696145
-1.7990046	n œ	-0.31430477
-1.8113068	c œ	-0.3554855
-1.9894905	d œ	-0.47593147
-2.5560436	e œ	-0.40656886
-2.2534904	p œ	-0.27401543
-1.8525689	t œ	-0.330432
-1.6040372	r œ	-0.42625064
-2.279187	s œ	-0.35774946
-1.7129365	l œ	-0.35638967
-2.233479	g œ	-0.27401543
-2.0813222	j œ	-0.27401543
-2.2778046	v œ	-0.27401543
-1.8540742	m œ	-0.30017316
-2.517901	y œ	-0.27401543
-2.1897428	f œ	-0.35774946

\3-grams:
-0.0009134144	a </w> <w>	-2.2717452
-0.00137083	b </w> <w>	-1.0031778
-0.0009865727	h </w> <w>	-1.9118298
-0.00094859116	i </w> <w>	-1.9184858
-0.0009865727	n </w> <w>	-2.4207451
-0.0011212731	c </w> <w>	-1.5546591
-0.0010724586	d </w> <w>	-2.4605
-0.0009865727	e </w> <w>	-2.6414635
-0.0012985936	p </w> <w>	-1.3292385
-0.00094859116	o </w> <w>	-2.004478
-0.0009865727	t </w> <w>	-2.3463607
-0.0009865727	u </w> <w>	-1.2754936
-0.0009865727	r </w> <w>	-2.2923384
-0.0009865727	s </w> <w>	-2.923941
-0.0018992586	w </w> <w>	-1.1527728
-0.0009865727	l </w> <w>	-2.0544348
-0.0014516234	g </w> <w>	-2.2697108
-0.0024706596	j </w> <w>	-0.37460458
-0.0014516234	v </w> <w>	-0.6632097
-0.0011747394	k </w> <w>	-1.5990975
-0.0022454748	q </w> <w>	-0.32950622
-0.0014516234	æ </w> <w>	-0.9038644
-0.0012985936	m </w> <w>	-1.9796637
-0.0009865727	y </w> <w>	-2.3946853
-0.0015425112	x </w> <w>	-1.1898042
-0.00137083	f </w> <w>	-1.1842922
-0.0015425112	z </w> <w>	-1.0900476
-0.00205791	œ </w> <w>	-0.52949035
-0.30430722	<s> <w> a	-0.27797288
-1.3928142	</w> <w> a	-2.387233
-1.4369555	<w> a a	-0.28138113
-1.5109607	a a a	-0.2861423
-2.0179062	b a a	-0.28107578
-1.6649902	h a a	-0.3578439
-2.0804849	i a a	-0.27797288
-1.6644108	n a a	-0.47332162
-1.9467012	c a a	-0.28262225
-2.167215	d a a	-0.27797288
-2.277119	e a a	-0.27797288
-1.7674056	p a a	-0.2863834
-1.7989048	o a a	-0.27797288
-1.6466495	t a a	-0.3869697
-2.0422015	u a a	-0.27797288
-1.6973356	r a a	-0.30882913
-1.827328	s a a	-0.2844469
-1.9189861	w a a	-0.27797288
-1.7638137	l a a	-0.5052508
-1.8694532	g a a	-0.28889993
-1.6637872	j a a	-0.27797288
-1.858902	v a a	-0.280298
-1.8551059	k a a	-0.27797288
-1.7213838	m a a	-0.2829639
-2.0021992	y a a	-0.27797288
-1.8565052	f a a	-0.28107578
-1.6607219	z a a	-0.28340206
-1.1811104	<w> b a	-1.7152178
-0.9920914	a b a	-0.9440861
-1.0366855	b b a	-0.63229823
-0.83485305	h b a	-0.37894842
-1.0054463	i b a	-0.7835703
-0.99652785	n b a	-0.55044526
-0.8702401	c b a	-0.28340206
-0.911605	d b a	-0.39273152
-1.0011088	e b a	-0.92544055
-1.2455499	p b a	-0.27797288
-1.0100387	o b a	-0.8294554
-0.7773454	t b a	-0.5012394
-0.988144	u b a	-0.6942535
-0.95998347	r b a	-0.9494754
-0.88341665	s b a	-0.5873295
-1.0065042	w b a	-0.3234006
-0.97257197	l b a	-0.6231308
-0.9983773	g b a	-0.27952158
-0.60139656	k b a	-0.28289092
-0.2920759	q b a	-0.27797288
-1.0869697	m b a	-0.9621813
-0.8852548	y b a	-0.42968976
-0.5000089	f b a	-0.27797288
-0.8435597	z b a	-0.27797288
-0.8127822	œ b a	-0.27797288
-1.1872532	<w> h a	-1.6447983
-0.94019574	a h a	-0.73155695
-0.75012773	b h a	-0.32254317
-0.8783051	h h a	-0.27930003
-0.94522226	i h a	-0.32838273
-0.8212375	n h a	-0.9434134
-1.0608933	c h a	-1.6182164
-0.7620269	d h a	-0.5866064
-0.88701344	e h a	-0.706671
-0.99337745	p h a	-1.1950145
-0.7819341	o h a	-0.55940783
-1.1200268	t h a	-1.1493288
-0.74630886	u h a	-0.5197228
-0.8349767	r h a	-0.613376
-0.9647093	s h a	-1.2711927
-0.64075613	w h a	-0.72500736
-0.69264394	l h a	-0.5623641
-1.037883	g h a	-0.8688956
-0.62081504	j h a	-0.27797288
-0.8181011	v h a	-0.28107578
-0.639423	k h a	-0.809677
-0.883634	m h a	-0.28262714
-0.8990817	y h a	-0.28063112
-0.6844365	x h a	-0.87050724
-0.9813666	f h a	-0.27797288
-0.8140852	z h a	-0.28889993
-1.386051	<w> i a	-0.41069207
-1.3271356	a i a	-0.5597853
-1.2105185	b i a	-0.889068
-1.3550291	h i a	-1.0295368
-1.3535331	i i a	-0.27983195
-1.2521017	n i a	-1.4991727
-1.2669369	c i a	-1.4280277
-1.2551247	d i a	-1.2703403
-1.295139	e i a	-0.83796704
-1.2560432	p i a	-0.9513917
-1.2301327	o i a	-0.50098586
-1.2908545	t i a	-1.4647584
-1.636891	u i a	-0.41069
-1.3118874	r i a	-1.657603
-1.2072381	s i a	-1.2357306
-1.7628696	w i a	-0.27797288
-1.300338	l i a	-1.4761664
-1.2138662	g i a	-1.1033623
-1.3317628	j i a	-0.28449607
-1.2626752	v i a	-1.1269042
-1.1921086	k i a	-0.6541191
-1.2312422	m i a	-0.8720418
-1.4683955	y i a	-0.28107578
-1.1617444	x i a	-0.5242535
-1.2577573	f i a	-0.70053256
-1.035216	z i a	-0.7971463
-0.748693	œ i a	-0.27797288
-1.2562509	<w> n a	-1.2325586
-1.2500724	a n a	-1.3172997
-0.99704784	b n a	-0.28889993
-1.0378038	h n a	-0.37208444
-1.2696478	i n a	-1.5287651
-1.1571786	n n a	-1.0034971
-0.81779766	c n a	-0.28135896
-0.71987057	d n a	-0.51983297
-1.2678268	e n a	-1.2441236
-1.3968295	p n a	-0.27797288
-1.2214283	o n a	-1.3966191
-0.8911748	t n a	-0.36587366
-1.2010361	u n a	-1.0610241
-1.103332	r n a	-1.1112143
-0.74130464	s n a	-0.68672943
-1.2320443	w n a	-0.27797288
-0.8756399	l n a	-0.3100335
-0.89232326	g n a	-1.0211543
-0.6691898	v n a	-0.41383868
-1.0994415	k n a	-0.533756
-0.68186927	æ n a	-0.35191703
-0.89682484	m n a	-0.5754506
-1.0263481	y n a	-0.50535315
-0.8935961	f n a	-0.27797288
-0.7525277	z n a	-0.27797288
-0.57629657	œ n a	-0.38305232
-1.2599329	<w> c a	-1.8929819
-1.1568108	a c a	-0.9717164
-0.7881657	b c a	-0.27797288
-0.8744262	h c a	-0.27952158
-1.0475672	i c a	-1.803626
-1.0394967	n c a	-0.9383368
-1.116553	c c a	-0.82941604
-0.8622705	d c a	-0.42031062
-1.0346534	e c a	-0.90774506
-0.9812515	p c a	-0.27797288
-1.0428646	o c a	-0.9995992
-0.9453982	t c a	-0.46282467
-0.96164215	u c a	-0.78779256
-1.0605669	r c a	-0.91523147
-1.009423	s c a	-1.2439883
-0.88223726	w c a	-0.28262225
-0.90349275	l c a	-0.6895108
-1.220055	g c a	-0.27797288
-0.8240532	k c a	-0.28107578
-0.976758	m c a	-0.27983195
-0.84525514	y c a	-0.3824659
-1.2845987	x c a	-0.5855261
-0.5703751	z c a	-0.280298
-1.2523702	<w> d a	-1.3760501
-1.1309867	a d a	-0.91664106
-1.4427273	b d a	-0.5397686
-0.80027574	h d a	-0.38305232
-1.1161056	i d a	-1.172219
-1.1876837	n d a	-1.2644428
-1.3116208	c d a	-0.27797288
-0.9427432	d d a	-0.5003452
-1.1011028	e d a	-0.85689527
-0.6391363	p d a	-0.28262714
-1.0937614	o d a	-0.8185992
-0.71806026	t d a	-0.28438544
-1.1004564	u d a	-0.730754
-1.2018981	r d a	-0.8193275
-0.6252749	s d a	-0.72892445
-1.3442926	w d a	-0.280298
-1.274791	l d a	-0.52517223
-0.7531907	g d a	-0.52507645
-0.54689825	k d a	-0.42562813
-0.8068208	æ d a	-0.27797288
-0.83712494	m d a	-0.28107578
-1.0237243	y d a	-0.39542642
-0.7393649	z d a	-0.28107578
-1.4158368	<w> e a	-1.0017579
-1.2520214	a e a	-0.74868387
-1.085079	b e a	-1.2048538
-1.0807465	h e a	-1.4635116
-1.6225679	i e a	-0.28262523
-1.3582867	n e a	-0.9979339
-1.3283852	c e a	-0.9977845
-1.2262734	d e a	-1.0403607
-1.4294643	e e a	-0.5059945
-1.2681485	p e a	-1.1329932
-1.3428354	o e a	-0.5883554
-1.3364013	t e a	-1.0586994
-1.6205525	u e a	-0.4548922
-1.3257399	r e a	-1.5353994
-1.3337288	s e a	-0.9640312
-1.1965911	w e a	-1.0458475
-1.3621676	l e a	-1.2017868
-1.2488483	g e a	-0.8015869
-1.3624568	j e a	-0.7111957
-1.3643491	v e a	-0.6470821
-1.4356213	k e a	-0.5263369
-1.2468549	m e a	-0.97011244
-1.7414272	y e a	-0.64682883
-1.488986	x e a	-0.27797288
-1.407892	f e a	-0.9825876
-1.5383298	z e a	-0.47332162
-1.2320008	<w> p a	-1.7887707
-1.108716	a p a	-0.85131764
-1.0368755	h p a	-0.27797288
-1.0563285	i p a	-0.9055421
-0.92427474	n p a	-0.5589506
-0.8157462	d p a	-0.32918745
-1.1642821	e p a	-0.9310859
-1.0474049	p p a	-0.82341707
-1.1771903	o p a	-0.77043927
-0.9266812	t p a	-0.3294257
-1.0428096	u p a	-0.67659014
-1.06749	r p a	-0.5761183
-0.92100763	s p a	-1.0748339
-0.83448684	w p a	-0.35034883
-1.1091751	l p a	-0.6963741
-1.1062171	g p a	-0.27797288
-0.7750678	k p a	-0.27983195
-1.1296726	m p a	-1.1876698
-1.0429357	y p a	-0.36274296
-0.99526966	x p a	-0.8466334
-0.94614094	f p a	-0.27797288
-0.56996775	z p a	-0.27797288
-1.4114488	<w> o a	-0.6800356
-1.4278699	a o a	-0.27797288
-1.1809602	b o a	-1.053831
-1.5990844	h o a	-0.6449988
-1.9848785	i o a	-0.27797288
-1.8526192	n o a	-0.38109544
-1.2633324	c o a	-0.9455867
-1.6907316	d o a	-0.43062407
-1.5997275	p o a	-0.5158876
-1.5831146	o o a	-0.33072773
-1.5387629	t o a	-0.5750718
-1.4877919	u o a	-0.2863834
-1.3154528	r o a	-1.0965083
-1.6726584	s o a	-0.563266
-1.6863996	w o a	-0.2832103
-1.3595375	l o a	-0.8462266
-1.7033571	g o a	-0.6220683
-1.8135588	j o a	-0.45082748
-1.7457619	v o a	-0.27797288
-1.6505584	k o a	-0.27797288
-1.6337647	m o a	-0.5152254
-1.6766484	y o a	-0.28889993
-1.5762812	x o a	-0.27797288
-2.0079854	f o a	-0.46499118
-1.3383069	z o a	-0.49817875
-1.2781343	<w> t a	-1.4490894
-1.1456487	a t a	-1.2240233
-1.2056531	b t a	-0.5561673
-1.1552974	h t a	-0.38559812
-1.1713014	i t a	-1.5204165
-1.258455	n t a	-1.4517102
-0.96554923	c t a	-1.0501305
-1.458663	d t a	-0.27797288
-1.1693457	e t a	-1.1329197
-0.9959092	p t a	-0.6626029
-1.1547017	o t a	-1.0071577
-1.0337278	t t a	-1.0092946
-1.1041075	u t a	-1.0631325
-1.2148952	r t a	-1.0677339
-1.0118848	s t a	-1.6014833
-1.383173	w t a	-0.27797288
-1.1710374	l t a	-0.7947166
-0.91843545	g t a	-0.43886563
-0.57777053	j t a	-0.27797288
-0.8717078	k t a	-0.27983195
-0.9957751	æ t a	-0.58717227
-1.1937735	m t a	-0.27797288
-1.1504638	y t a	-0.49406368
-1.0336204	x t a	-0.44434127
-1.13134	f t a	-0.43545312
-1.139467	z t a	-0.28263563
-0.7049996	œ t a	-0.27797288
-1.3740258	<w> u a	-0.28135896
-1.5571877	a u a	-0.39478406
-1.7235825	b u a	-0.28263563
-1.4262457	h u a	-0.46913034
-1.487047	i u a	-0.27797288
-1.3574154	n u a	-0.7791732
-1.4605367	c u a	-0.47076082
-1.2355877	d u a	-0.8518575
-1.6467457	e u a	-0.28340206
-1.5508318	p u a	-0.38188025
-1.3240794	o u a	-0.56932724
-1.1790366	t u a	-1.2005476
-1.546333	u u a	-0.27797288
-1.5617588	r u a	-0.47944182
-1.2201899	s u a	-0.90679675
-1.5326507	l u a	-0.41826516
-0.92295307	g u a	-0.9902099
-1.7308564	j u a	-0.38305232
-1.5124449	k u a	-0.27797288
-0.7490658	q u a	-1.306384
-1.750156	m u a	-0.27797288
-1.4233512	x u a	-0.41383868
-1.7383459	f u a	-0.27797288
-1.6243237	z u a	-0.27797288
-1.2090633	<w> r a	-1.4493529
-1.3037091	a r a	-1.3939143
-0.7559374	b r a	-1.2862599
-0.8810702	h r a	-0.7335372
-1.1500033	i r a	-1.081562
-0.9550837	n r a	-0.47985172
-0.68448246	c r a	-1.2177898
-0.74034643	d r a	-1.0174714
-1.3035563	e r a	-1.6049045
-0.8204128	p r a	-1.0698417
-1.2386601	o r a	-1.3526533
-0.81812716	t r a	-1.6385889
-1.1822648	u r a	-1.3091036
-1.1742821	r r a	-1.1667147
-0.73670286	s r a	-0.4013096
-0.8017297	w r a	-0.684175
-0.8642916	l r a	-0.28438544
-0.6649125	g r a	-1.5092084
-0.79203606	v r a	-0.48227376
-0.643039	k r a	-0.3404259
-0.94716924	æ r a	-0.35034883
-0.8756998	m r a	-0.2830953
-0.9686142	y r a	-0.84098434
-0.7683358	f r a	-1.1513618
-0.489885	z r a	-0.28262714
-0.9009644	œ r a	-0.27797288
-1.3621707	<w> s a	-1.6447983
-1.2123328	a s a	-0.7568124
-1.4330658	b s a	-0.43062407
-1.3518288	h s a	-0.424445
-1.2566597	i s a	-1.1468692
-1.4806812	n s a	-0.9141789
-1.4610555	c s a	-0.27797288
-1.2581965	d s a	-0.280039
-1.2375003	e s a	-0.7455685
-1.1544266	p s a	-0.52227044
-1.1968179	o s a	-0.9259036
-1.2954544	t s a	-0.41658926
-1.1412367	u s a	-0.8012722
-1.3365537	r s a	-0.8004472
-1.3066635	s s a	-1.2163901
-1.3163191	w s a	-0.28396368
-1.3247914	l s a	-0.51773536
-1.4168972	g s a	-0.27983195
-1.4099034	k s a	-0.34195563
-1.072679	æ s a	-0.73165405
-1.573019	m s a	-0.28063112
-1.2156085	y s a	-0.4861902
-1.0488042	x s a	-0.28263563
-1.4691386	f s a	-0.27797288
-1.0380007	<w> w a	-1.4396152
-1.0307946	a w a	-0.87338
-0.6479117	b w a	-0.28169906
-0.6258178	h w a	-0.7687409
-0.51347566	i w a	-0.40093353
-0.719006	n w a	-0.8571973
-0.9951819	c w a	-0.27797288
-0.7277151	d w a	-0.7628725
-0.9675014	e w a	-0.930631
-0.7840299	p w a	-0.28438544
-1.088588	o w a	-0.830886
-0.7251373	t w a	-0.7309134
-0.67746377	u w a	-0.280298
-0.7340308	r w a	-0.81889045
-0.75646365	s w a	-0.88926446
-0.94149774	w w a	-0.27797288
-0.79039234	l w a	-0.5517652
-0.7287693	g w a	-0.38622406
-0.63729125	k w a	-0.61764264
-0.898177	m w a	-0.28449607
-0.6269065	y w a	-0.6927123
-1.0275369	f w a	-0.27797288
-0.7876097	z w a	-0.28107578
-1.2041683	<w> l a	-1.579064
-1.23853	a l a	-1.1952784
-0.6995538	b l a	-1.1466963
-0.81431144	h l a	-0.5779679
-1.197844	i l a	-1.0653784
-0.8439515	n l a	-0.6583849
-0.823081	c l a	-1.2575457
-0.892336	d l a	-0.57059544
-1.2152264	e l a	-1.1262636
-0.6656088	p l a	-1.4337595
-1.1208404	o l a	-1.1504681
-0.8539032	t l a	-0.7481449
-1.122118	u l a	-1.4734745
-1.092889	r l a	-0.8284405
-0.7028867	s l a	-1.0029141
-1.0193568	w l a	-0.5684246
-1.2020293	l l a	-1.4568107
-0.8069184	g l a	-1.0283947
-0.29721746	j l a	-0.27797288
-0.6273433	k l a	-0.53109026
-1.1405313	æ l a	-0.27797288
-1.0126832	m l a	-0.31071436
-0.8873544	y l a	-0.63358575
-1.0325464	x l a	-0.27797288
-0.73612833	f l a	-1.0640455
-1.3443183	z l a	-0.27797288
-0.88578904	œ l a	-0.27797288
-1.1546727	<w> g a	-1.4877868
-1.0932655	a g a	-0.9266465
-0.8716826	b g a	-0.27797288
-0.7085798	h g a	-0.39646646
-1.079652	i g a	-1.1390531
-1.1681013	n g a	-1.0044718
-1.0992401	c g a	-0.28263563
-0.8633218	d g a	-0.5677193
-1.0460783	e g a	-1.082946
-1.0429964	p g a	-0.43251142
-1.0829495	o g a	-0.8985591
-0.64241034	t g a	-0.58992994
-1.0423173	u g a	-0.7529816
-1.0920281	r g a	-1.0638962
-0.54295576	s g a	-0.5451895
-0.8882047	w g a	-0.40990898
-0.9188805	l g a	-0.83613837
-1.0346528	g g a	-0.7070436
-0.84336406	k g a	-0.28107578
-0.9805877	æ g a	-0.27797288
-0.8426808	m g a	-0.27797288
-0.7920749	y g a	-0.33054048
-0.5601051	x g a	-0.28107578
-0.7060571	f g a	-0.28263563
-0.83413786	<w> j a	-1.0797927
-0.61147064	a j a	-0.5393038
-0.70700914	b j a	-0.28449607
-0.8117488	h j a	-0.27797288
-0.73693615	i j a	-0.43886563
-0.67818534	n j a	-0.3049071
-0.64575994	d j a	-0.28076452
-0.56675714	e j a	-0.5119176
-0.8070735	p j a	-0.27797288
-0.56237686	o j a	-0.38948995
-0.81027675	t j a	-0.27797288
-0.491012	u j a	-0.38863432
-0.69469875	r j a	-0.280298
-0.8322222	s j a	-0.27797288
-0.48349965	w j a	-0.27797288
-0.6012124	l j a	-0.27797288
-0.72561044	j j a	-0.28889993
-0.48349965	k j a	-0.27797288
-0.16907431	m j a	-0.28107578
-0.24993242	y j a	-0.27797288
-0.48349965	z j a	-0.27797288
-1.0556456	<w> v a	-1.3807491
-0.80450004	a v a	-1.1475782
-0.81678766	h v a	-0.27797288
-0.84996337	i v a	-1.1168425
-0.8694462	n v a	-0.87114584
-0.93670064	d v a	-0.9146455
-0.86631674	e v a	-1.0441734
-0.45430726	p v a	-0.27797288
-0.840166	o v a	-0.8353292
-1.1335813	t v a	-0.27797288
-0.8843781	u v a	-0.40129578
-0.87177145	r v a	-0.9611971
-0.9469505	s v a	-0.27797288
-0.8590583	l v a	-0.69251126
-0.9597226	g v a	-0.27797288
-1.20957	v v a	-0.27797288
-0.76566124	q v a	-0.27797288
-0.5432998	æ v a	-0.28889993
-1.0990396	m v a	-0.28889993
-0.772691	y v a	-0.28262225
-1.0844021	x v a	-0.27797288
-0.67670244	z v a	-0.27797288
-0.53984344	œ v a	-0.27797288
-1.111912	<w> k a	-0.9384755
-1.0575491	a k a	-0.54384536
-0.73230636	b k a	-0.28107578
-0.85925066	h k a	-0.46223354
-0.96724564	i k a	-0.51338524
-1.1438233	n k a	-0.46106148
-1.2244347	c k a	-0.6205088
-0.9223182	d k a	-0.27797288
-0.9312375	e k a	-0.4101657
-0.8913255	p k a	-0.28263563
-0.93441296	o k a	-0.42767915
-0.98031014	t k a	-0.40834078
-1.0204029	u k a	-0.458249
-1.0914019	r k a	-0.48404545
-0.9417883	s k a	-0.54598135
-1.2128916	w k a	-0.28107578
-1.0713991	l k a	-0.42356566
-1.1021582	g k a	-0.27797288
-0.80394644	k k a	-0.361339
-1.4361207	y k a	-0.27797288
-0.5635219	z k a	-0.28449607
-1.0004808	<w> q a	-0.27797288
-1.5715265	e q a	-0.28263563
-1.344077	u q a	-0.27797288
-0.7562983	b æ a	-0.28889993
-0.8470449	h æ a	-0.35584673
-0.8103202	n æ a	-0.34531394
-0.88274664	c æ a	-0.28107578
-0.77818763	d æ a	-0.28263563
-1.2512653	e æ a	-0.27797288
-0.6485096	p æ a	-0.2863834
-1.0229362	t æ a	-0.28107578
-0.97278	r æ a	-0.2863834
-0.99402356	l æ a	-0.28263563
-0.97588885	g æ a	-0.27797288
-0.59939456	m æ a	-0.5107487
-1.2058824	<w> m a	-1.8990222
-1.1013199	a m a	-1.2108426
-0.56757677	b m a	-0.33729482
-0.9058769	h m a	-0.7277071
-1.0421814	i m a	-1.2115523
-0.7606357	n m a	-0.79956675
-0.63117063	c m a	-0.28396368
-0.6920782	d m a	-0.7576935
-1.0009123	e m a	-1.223082
-0.43496788	p m a	-0.60722774
-1.0477648	o m a	-1.2767723
-0.5975261	t m a	-0.8769754
-1.1092899	u m a	-0.9782281
-1.0475831	r m a	-1.176793
-0.67590773	s m a	-1.0910431
-0.760926	w m a	-0.5139877
-0.99374706	l m a	-0.8288184
-0.639652	g m a	-0.849349
-0.19466907	j m a	-0.28263563
-0.47324944	k m a	-0.73595476
-0.82341194	æ m a	-0.2863834
-0.8851898	m m a	-0.96762043
-0.91160357	y m a	-0.76444507
-0.44198686	x m a	-0.35034883
-0.7820907	f m a	-0.52918035
-0.38359833	z m a	-0.48861602
-1.293438	<w> y a	-0.66111934
-1.1122932	a y a	-0.6256271
-1.205349	b y a	-0.36321616
-1.2745776	h y a	-0.35458663
-0.62657404	i y a	-0.3294257
-0.96613806	n y a	-0.586257
-1.2940449	c y a	-0.67445636
-1.3661542	d y a	-0.27983195
-1.1449795	e y a	-0.653101
-1.3913823	p y a	-0.2861423
-0.9077269	o y a	-0.74868387
-1.1783216	t y a	-0.3643055
-1.0710863	u y a	-0.32448798
-1.2740406	r y a	-0.5676142
-1.4740248	s y a	-0.280298
-1.5515434	w y a	-0.3636773
-1.281861	l y a	-0.53577566
-1.1348741	g y a	-0.35191703
-1.1127871	k y a	-0.52140516
-1.1072417	m y a	-0.2847546
-0.710041	y y a	-0.280298
-1.24493	x y a	-0.27797288
-1.5663986	f y a	-0.27797288
-1.168705	<w> x a	-0.33319092
-1.0197082	a x a	-0.42972708
-0.9611493	h x a	-0.27797288
-1.129236	i x a	-0.28063112
-1.268852	n x a	-0.27797288
-1.094002	e x a	-0.9655386
-1.0326203	o x a	-0.54439193
-1.5688413	u x a	-0.27797288
-1.3045828	y x a	-0.27797288
-1.1081035	x x a	-0.28263563
-1.1602873	<w> f a	-1.5379244
-1.0847197	a f a	-0.40147343
-0.98955816	b f a	-0.27797288
-0.8731803	h f a	-0.28449607
-1.1849723	i f a	-0.48046327
-0.8892704	n f a	-0.83191764
-0.4754715	c f a	-0.27797288
-0.9490509	d f a	-0.60426944
-1.0283535	e f a	-0.8414716
-1.1232758	p f a	-0.27797288
-1.0005472	o f a	-0.6703167
-0.8713675	t f a	-0.44923818
-1.2098801	u f a	-0.6067153
-1.0256413	r f a	-0.42341882
-1.3977275	s f a	-0.5857846
-0.9562217	w f a	-0.28497025
-1.0651232	l f a	-0.39310816
-1.039778	g f a	-0.27797288
-1.0344659	k f a	-0.6383248
-1.1601146	m f a	-0.28107578
-1.2043068	y f a	-0.39310816
-1.2125627	f f a	-0.7236237
-0.98730487	<w> z a	-0.7416352
-0.88282377	a z a	-0.76723826
-0.53740656	b z a	-0.27797288
-0.802871	i z a	-1.0832053
-0.84866405	n z a	-0.76369
-0.96839607	c z a	-0.46223354
-0.8302738	d z a	-0.27797288
-0.8594333	e z a	-0.32683226
-0.8246118	p z a	-0.27797288
-0.9276258	o z a	-0.48193422
-1.2209839	t z a	-0.35034883
-0.9967261	u z a	-0.36227655
-0.7382187	r z a	-0.53148884
-0.9416721	s z a	-0.27797288
-0.8886199	w z a	-0.27797288
-0.9777364	l z a	-0.28366822
-0.53740656	g z a	-0.41383868
-0.28059754	k z a	-0.27797288
-0.78050756	m z a	-0.27797288
-0.60895395	y z a	-0.44232607
-0.8432971	z z a	-0.7500091
-0.86724627	b œ a	-0.27797288
-0.82133776	h œ a	-0.28263563
-0.7118893	n œ a	-0.28889993
-0.6033375	t œ a	-0.28889993
-0.88266575	r œ a	-0.41383868
-0.9206835	l œ a	-0.27797288
-1.0160753	m œ a	-0.27797288
-1.4031109	</w> <w> b	-2.5756488
-1.1871104	<w> a b	-1.3372802
-1.315357	a a b	-0.33203366
-1.4141155	b a b	-0.8167795
-1.465915	h a b	-1.1082152
-1.3217555	i a b	-1.120154
-1.360998	n a b	-1.149364
-1.3776344	c a b	-1.0030612
-1.3602427	d a b	-0.7579778
-1.273989	e a b	-1.2750446
-1.4075238	p a b	-0.9851123
-1.7923334	o a b	-0.27797288
-1.28603	t a b	-1.4940369
-1.4069891	u a b	-0.6036554
-1.4738945	r a b	-1.3892262
-1.3800688	s a b	-1.0715036
-1.5274285	w a b	-0.5094348
-1.4031944	l a b	-1.2351422
-1.4216977	g a b	-0.72255206
-1.6561939	j a b	-0.40975505
-1.3376989	v a b	-1.2281504
-1.2285795	k a b	-0.6629504
-1.593086	m a b	-0.79963297
-1.3437942	y a b	-0.81597495
-1.3963578	x a b	-0.28263563
-1.5415434	f a b	-0.78267825
-1.3320813	z a b	-0.59813726
-1.3943617	<w> b b	-0.27797288
-1.1502448	a b b	-1.2568916
-1.0581188	i b b	-1.0422276
-1.8141199	n b b	-0.27797288
-1.1637372	e b b	-0.668105
-1.0941633	o b b	-1.0720558
-1.1516795	u b b	-0.9562269
-1.4964755	g b b	-0.27797288
-1.8368139	m b b	-0.27797288
-1.6114147	y b b	-0.28889993
-1.7419792	a h b	-0.28449607
-1.5978525	c h b	-0.6155678
-2.1779404	e h b	-0.27797288
-1.8861936	p h b	-0.28107578
-1.7776978	t h b	-0.42683753
-1.9120901	s h b	-0.4945109
-1.7068483	g h b	-0.7640138
-1.903717	k h b	-0.27797288
-1.4042757	<w> i b	-0.39847583
-1.4271712	a i b	-0.424445
-1.6316332	b i b	-0.7969397
-1.2801601	h i b	-0.9168062
-1.4431456	n i b	-0.781292
-1.397687	c i b	-0.7980721
-1.6222651	d i b	-0.64111507
-1.6709065	e i b	-0.44054157
-1.6460818	p i b	-0.2868926
-1.9856465	o i b	-0.2861423
-1.4343836	t i b	-1.1633508
-1.5467322	u i b	-0.40990898
-1.4385285	r i b	-1.3271761
-1.3515497	s i b	-1.1826444
-1.8546581	w i b	-0.280298
-1.5803397	l i b	-1.1362218
-1.3438952	g i b	-0.885169
-1.2476107	j i b	-0.48861602
-1.8495134	v i b	-0.7840044
-1.7157222	k i b	-0.39938205
-2.1067061	m i b	-0.27797288
-1.8037106	y i b	-0.27797288
-1.6524037	x i b	-0.5521414
-1.8821466	f i b	-0.46194416
-1.6463989	z i b	-0.280298
-1.3964784	<w> n b	-0.27797288
-1.6049436	a n b	-0.5658668
-1.702021	h n b	-0.27797288
-1.5385401	i n b	-0.70441145
-1.8534056	n n b	-0.27797288
-1.3832798	e n b	-1.0269943
-1.5029027	p n b	-0.27797288
-1.4625279	o n b	-0.47027898
-1.68356	u n b	-1.2036532
-1.3100213	r n b	-0.46236745
-1.5722923	w n b	-0.28889993
-1.6600769	l n b	-0.27797288
-1.7926366	g n b	-0.28263563
-2.0379977	y n b	-0.27797288
-1.5221623	<w> c b	-0.27797288
-2.1381226	a c b	-0.37342635
-1.7792487	d c b	-0.27797288
-2.1698914	e c b	-0.27797288
-2.4303675	o c b	-0.27797288
-1.6810248	m c b	-0.28107578
-1.6377962	a d b	-0.36587366
-2.1860306	i d b	-0.27797288
-1.752279	n d b	-0.52511513
-1.5530425	e d b	-0.42829198
-1.7481118	o d b	-0.32169276
-1.5931863	u d b	-0.32169276
-1.5789102	r d b	-0.33319092
-1.4972217	l d b	-0.33507425
-1.41623	<w> e b	-0.67585236
-1.7061006	a e b	-0.5561673
-1.8087177	b e b	-0.35034883
-1.5200692	h e b	-0.71470356
-1.3857282	i e b	-0.45420867
-1.4922894	n e b	-0.6173166
-1.4259292	c e b	-0.49817875
-1.5015649	d e b	-0.99886507
-1.5086342	e e b	-0.72890025
-1.8734785	p e b	-0.33553797
-1.6021912	o e b	-0.44996303
-1.5578792	t e b	-0.6330637
-1.4723244	u e b	-0.6085554
-1.4434748	r e b	-1.0066965
-1.6062223	s e b	-0.7451741
-1.654393	w e b	-0.5299687
-1.3844225	l e b	-0.9785166
-1.3758397	g e b	-0.50235593
-1.7794414	j e b	-0.27797288
-1.8664623	v e b	-0.27797288
-1.7453382	k e b	-0.28190783
-1.5795245	m e b	-0.38188025
-1.6072328	y e b	-0.28366822
-1.7145257	x e b	-0.28263563
-1.7863557	f e b	-0.41591805
-1.3865689	z e b	-0.6265728
-1.4415852	<w> p b	-0.27797288
-1.983731	a p b	-0.38305232
-2.2469232	i p b	-0.28449607
-1.9324404	e p b	-0.27797288
-2.263161	o p b	-0.2861423
-1.8090591	u p b	-0.6356874
-2.1170425	s p b	-0.28263563
-1.736195	m p b	-0.5397686
-1.4118284	<w> o b	-1.2077185
-1.6657307	a o b	-0.27797288
-1.5685633	b o b	-0.5784229
-1.6670008	h o b	-0.5431365
-1.4707584	i o b	-0.37081838
-1.3065517	n o b	-0.8327784
-1.5963808	c o b	-0.5662167
-1.5420016	d o b	-0.43274316
-1.4469837	e o b	-0.28370437
-1.7785604	p o b	-0.38305232
-1.5832305	o o b	-0.3633698
-1.5388734	t o b	-0.5879425
-1.9011891	u o b	-0.27797288
-1.3612082	r o b	-1.0645844
-1.4670501	s o b	-0.6350966
-1.6866877	w o b	-0.35034883
-1.4846164	l o b	-0.6758566
-1.7035768	g o b	-0.5117347
-1.6190531	j o b	-0.49565542
-1.9188466	v o b	-0.28263563
-1.650901	k o b	-0.34061423
-1.566672	m o b	-0.64634395
-1.6769667	y o b	-0.27797288
-2.0084827	f o b	-0.280298
-1.8563373	z o b	-0.28107578
-1.4194942	<w> t b	-0.28107578
-1.713787	a t b	-0.37342635
-1.8008586	h t b	-0.27797288
-1.8773683	i t b	-0.280298
-1.5236046	n t b	-0.33436283
-1.9067216	c t b	-0.27797288
-1.7198975	e t b	-0.3646199
-1.9103324	o t b	-0.32366204
-1.6162221	u t b	-0.5094348
-1.7001625	r t b	-0.37605008
-1.5631557	s t b	-0.60177743
-1.6681999	l t b	-0.27797288
-1.7406569	y t b	-0.27797288
-1.632273	x t b	-0.28263563
-1.3744307	<w> u b	-0.54938376
-1.3472309	a u b	-0.71556383
-1.5940951	b u b	-0.43986773
-1.5073416	h u b	-0.51290727
-1.4872255	i u b	-0.28169906
-1.4261054	n u b	-0.5872432
-1.5426309	c u b	-0.63607824
-1.4952118	d u b	-0.62937003
-1.6469474	e u b	-0.2847546
-1.4481338	p u b	-1.0193857
-1.5116215	o u b	-0.9697758
-1.4244195	t u b	-0.7869455
-1.3304415	r u b	-0.85124475
-1.4476116	s u b	-1.1252458
-1.4647487	l u b	-0.73075163
-1.5453432	g u b	-0.35019746
-1.4648726	j u b	-0.60123575
-1.4261518	k u b	-0.27797288
-1.9486132	q u b	-0.27797288
-1.9221132	m u b	-0.27797288
-1.4452622	y u b	-0.27797288
-1.4237283	x u b	-0.5107487
-1.9320778	f u b	-0.27797288
-1.6247967	z u b	-0.28263563
-1.4312508	<w> r b	-0.27797288
-1.4156983	a r b	-1.2684731
-1.674736	h r b	-0.27797288
-1.6240196	i r b	-0.43740994
-1.4112157	e r b	-1.2995809
-1.4672693	o r b	-1.0407588
-1.6081232	u r b	-1.0192043
-1.740397	r r b	-0.27797288
-1.4189798	<w> s b	-0.28693065
-1.6582669	a s b	-0.40912414
-1.6982493	b s b	-0.27797288
-1.4192786	i s b	-0.89429057
-1.298551	n s b	-0.46072724
-1.2770406	d s b	-0.38129544
-1.5677614	e s b	-0.73729223
-1.6762921	p s b	-0.65687674
-1.4855008	o s b	-0.48544246
-1.3104432	t s b	-0.4101657
-1.6737295	u s b	-0.62691873
-1.4651027	r s b	-0.506819
-1.4761753	s s b	-0.45104522
-1.5780796	w s b	-0.36556464
-1.3480178	l s b	-0.28693065
-1.3050935	g s b	-0.47594884
-1.1781945	k s b	-0.34061423
-1.1892066	m s b	-0.42562813
-1.6071886	y s b	-0.28497025
-1.441113	a w b	-0.5297715
-1.4995737	e w b	-0.38384068
-1.4521184	o w b	-0.67367804
-1.4180954	<w> l b	-0.27797288
-1.421955	a l b	-1.0634079
-1.8378471	h l b	-0.27797288
-1.3994919	i l b	-0.75088406
-1.5187887	e l b	-0.729865
-1.5607357	o l b	-0.6011274
-1.6479847	u l b	-0.49632555
-1.4662929	r l b	-0.2863834
-1.6187502	l l b	-0.5125067
-2.0524611	a g b	-0.27797288
-1.765937	i g b	-0.40990898
-1.701948	n g b	-0.63281363
-1.839382	d g b	-0.27797288
-2.069393	e g b	-0.27797288
-2.0056431	o g b	-0.2861423
-1.6998779	u g b	-0.28146526
-1.3983836	<w> v b	-0.27797288
-1.5742167	d v b	-0.27797288
-1.5795175	s v b	-0.27797288
-1.9883168	a k b	-0.28889993
-1.5261182	n k b	-0.28169906
-1.4784489	c k b	-0.7660212
-1.8205023	e k b	-0.28107578
-1.7173821	o k b	-0.35191703
-1.5496019	r k b	-0.3234006
-2.0632758	s k b	-0.27797288
-1.2804884	n q b	-0.27797288
-1.6090811	h æ b	-0.27797288
-1.736213	r æ b	-0.27797288
-1.4578085	<w> m b	-0.27797288
-1.1736943	a m b	-1.3658015
-1.0545275	i m b	-1.1079562
-1.1079662	e m b	-1.4983886
-1.1241132	o m b	-1.2235507
-1.1217469	u m b	-1.2021176
-1.4987774	r m b	-0.27952158
-1.8043691	l m b	-0.27797288
-1.4928317	y m b	-0.63360745
-1.3366865	<w> y b	-0.27797288
-1.4211259	a y b	-0.40630817
-1.772207	b y b	-0.27797288
-1.3986733	h y b	-0.43740994
-1.5197695	n y b	-0.28497025
-1.7393026	c y b	-0.27797288
-1.60912	d y b	-0.27797288
-1.456931	e y b	-0.35308906
-1.5063645	p y b	-0.28263563
-2.0099332	o y b	-0.27797288
-1.8926433	t y b	-0.28530928
-1.3315468	r y b	-0.4927039
-1.505293	s y b	-0.31973234
-1.6016765	w y b	-0.27797288
-1.3464592	l y b	-0.44897914
-1.6118109	g y b	-0.28107578
-1.7079984	k y b	-0.27797288
-1.7566973	m y b	-0.27797288
-1.1928856	z y b	-0.27797288
-1.5155385	a x b	-0.27797288
-2.005229	e x b	-0.27797288
-1.7428105	o x b	-0.28396368
-1.2062591	u x b	-0.28449607
-2.2581565	a f b	-0.27797288
-2.138853	o f b	-0.27797288
-1.8961301	t f b	-0.27797288
-1.7609934	f f b	-0.27797288
-2.091572	e z b	-0.27797288
-1.4809893	t z b	-0.28497025
-1.9401451	u z b	-0.28889993
-1.2176595	r z b	-0.27983195
-1.1331584	l z b	-0.27797288
-1.2720603	h œ b	-0.27797288
-1.1939226	m œ b	-0.27797288
-1.4349462	</w> <w> h	-2.40809
-1.4279233	<w> a h	-0.54638904
-1.5065506	a a h	-0.43251142
-1.511113	b a h	-0.61652267
-1.3933753	h a h	-0.58722967
-1.3890461	i a h	-1.0756924
-1.5523722	n a h	-0.73075706
-1.6399441	c a h	-0.45104522
-1.4017407	d a h	-0.6403914
-1.5518911	e a h	-0.5070757
-1.5844299	p a h	-0.47513622
-1.4074857	o a h	-0.5158876
-1.3758527	t a h	-0.65431994
-1.4757489	u a h	-0.5482117
-1.4196314	r a h	-0.8964727
-1.8218174	s a h	-0.34838286
-1.4590721	w a h	-0.3972687
-1.4310776	l a h	-0.83656454
-1.6310236	g a h	-0.32777607
-1.1280497	j a h	-0.5866696
-1.4651227	v a h	-0.37605008
-1.32753	k a h	-0.5107487
-1.4171665	m a h	-0.79193616
-1.3436844	y a h	-0.6278614
-1.6280282	x a h	-0.27797288
-1.4596498	f a h	-0.28301865
-1.5185032	z a h	-0.28418544
-1.4122757	<w> b h	-0.39034736
-1.9859416	a b h	-0.6974965
-1.8916365	i b h	-0.41383868
-1.8335814	n b h	-0.27797288
-2.0206814	e b h	-0.27797288
-1.8957249	o b h	-0.28732198
-1.6788079	u b h	-0.27983195
-1.5099888	r b h	-0.27797288
-1.6297381	m b h	-0.27797288
-1.3790991	<w> h h	-0.27797288
-2.150175	a h h	-0.27797288
-1.2247356	h h h	-0.28263563
-1.746293	i h h	-0.27797288
-1.6465282	c h h	-0.4594933
-1.8785138	e h h	-0.27797288
-1.9885068	t h h	-0.48025832
-1.8050944	r h h	-0.27797288
-1.7258879	s h h	-0.33729482
-1.747827	g h h	-0.28449607
-1.0819833	f h h	-0.27797288
-1.4727038	<w> i h	-0.27952158
-2.1671162	a i h	-0.27797288
-1.9124343	b i h	-0.27797288
-2.0247679	h i h	-0.28107578
-1.8172054	n i h	-0.72371817
-2.2308147	c i h	-0.27797288
-1.8391348	d i h	-0.3636773
-2.3095343	e i h	-0.28889993
-1.985548	t i h	-0.27797288
-2.1134608	u i h	-0.27797288
-1.7910154	r i h	-0.28135896
-2.049861	s i h	-0.27983195
-2.1213264	w i h	-0.27797288
-2.017749	l i h	-0.40990898
-2.163098	g i h	-0.27797288
-1.6475834	j i h	-0.27797288
-2.0175366	m i h	-0.27797288
-1.8773768	y i h	-0.27797288
-1.4391136	<w> n h	-0.27797288
-1.696456	a n h	-0.7058627
-1.3867165	h n h	-0.27983195
-1.3570213	i n h	-1.1772667
-1.5860916	n n h	-0.34061423
-1.3889942	e n h	-1.1867795
-1.6516889	o n h	-0.64343995
-1.5859094	u n h	-1.1421925
-1.4408884	r n h	-0.52140516
-1.3681226	w n h	-0.35191703
-1.5119997	y n h	-0.28169906
-1.2265943	<w> c h	-2.1051095
-1.0579498	a c h	-1.4247391
-0.778628	b c h	-0.27797288
-0.74925655	h c h	-0.28262523
-1.0822097	i c h	-1.1923642
-0.9862463	n c h	-1.3938174
-1.1055264	c c h	-0.98117703
-0.7818048	d c h	-0.45285982
-1.0306363	e c h	-1.1749458
-0.86625063	p c h	-0.3636773
-1.0387839	o c h	-1.1051859
-0.65976137	t c h	-1.2986077
-0.9121397	u c h	-1.1709421
-1.0487658	r c h	-1.2245535
-0.7593899	s c h	-1.4332824
-0.9716916	w c h	-0.280298
-0.96269137	l c h	-0.97867495
-0.84253407	g c h	-0.28530928
-1.1031399	k c h	-0.28263563
-1.1673493	æ c h	-0.27797288
-0.96243733	m c h	-0.2862762
-0.92053974	y c h	-0.6604241
-1.2558537	x c h	-0.58992994
-1.1415422	f c h	-0.28107578
-0.99023944	z c h	-0.27797288
-0.88054156	œ c h	-0.27797288
-1.4214623	<w> d h	-0.43968496
-1.3124447	a d h	-0.68983006
-1.7202764	i d h	-0.2830953
-1.375903	n d h	-0.7064547
-1.8354725	d d h	-0.39646646
-1.7262433	e d h	-0.4928918
-1.5053363	o d h	-0.5752067
-1.763226	u d h	-0.44021124
-1.5370289	r d h	-0.33098444
-1.5170885	w d h	-0.27797288
-1.4661374	l d h	-0.5107487
-1.4247682	<w> e h	-0.32588872
-1.8107299	a e h	-0.35034883
-1.5668396	b e h	-0.7573833
-1.9530566	h e h	-0.3254276
-1.3196154	i e h	-0.5854579
-1.581286	n e h	-0.5609143
-1.8634155	c e h	-0.38305232
-1.5040029	d e h	-0.5561673
-1.4313416	e e h	-0.5220827
-1.8805486	p e h	-0.280298
-1.8369238	o e h	-0.28107578
-1.6116033	t e h	-0.6035919
-1.5435958	u e h	-0.28366822
-1.5696892	r e h	-1.1677243
-1.557614	s e h	-0.54196495
-1.4715809	w e h	-0.40834078
-1.4601737	l e h	-0.67490196
-1.5591359	g e h	-0.42756414
-1.5962474	j e h	-0.41121492
-1.6734785	v e h	-0.3699605
-1.3390472	k e h	-0.44375014
-1.384008	m e h	-0.6383248
-1.2415786	y e h	-0.80395174
-1.5612191	f e h	-0.34195563
-1.645275	z e h	-0.28396368
-1.2956402	<w> p h	-1.4988195
-1.119272	a p h	-1.2117609
-1.1506428	i p h	-0.8528678
-1.3155286	n p h	-0.34061423
-0.6476687	c p h	-0.28107578
-1.0353959	e p h	-1.0178158
-1.6766666	p p h	-0.49050337
-1.0382915	o p h	-1.3826421
-1.2116842	t p h	-0.38305232
-1.2663989	u p h	-0.86689687
-1.091378	r p h	-0.8661525
-1.3173895	s p h	-0.8841808
-1.261502	w p h	-0.27797288
-0.9785404	l p h	-1.0115067
-1.1477942	g p h	-0.27797288
-1.0932859	m p h	-1.0327406
-1.0596541	y p h	-0.7246959
-1.4205182	<w> o h	-0.5476883
-1.4317865	a o h	-0.27983195
-1.7205163	b o h	-0.46106148
-1.9811544	h o h	-0.5397686
-1.9180086	i o h	-0.27797288
-1.986241	n o h	-0.38305232
-1.8476652	c o h	-0.87896836
-2.1633253	d o h	-0.27797288
-1.917397	e o h	-0.27797288
-1.9866245	p o h	-0.27797288
-1.5858636	o o h	-0.5849937
-1.8954208	t o h	-0.34195563
-1.9123363	u o h	-0.27797288
-1.7737999	r o h	-0.60713637
-1.977778	s o h	-0.34061423
-1.7720755	w o h	-0.3636773
-1.7220997	l o h	-0.34195563
-1.2830145	j o h	-1.0856767
-1.9305607	v o h	-0.27797288
-1.5796086	k o h	-0.27797288
-1.8166087	m o h	-0.5609143
-1.8742518	y o h	-0.27797288
-2.0199106	f o h	-0.27797288
-1.8675303	z o h	-0.27797288
-1.2874839	<w> t h	-1.772018
-1.1468682	a t h	-1.4266683
-1.1200045	b t h	-0.3801203
-1.25963	h t h	-0.80715203
-1.1544399	i t h	-1.2088203
-1.129643	n t h	-1.339395
-1.3714235	c t h	-0.28396368
-0.6448402	d t h	-0.5182437
-1.1182678	e t h	-1.5427879
-1.3100642	p t h	-0.4215912
-1.0782865	o t h	-1.2898993
-1.0359335	t t h	-0.4945109
-1.1480486	u t h	-1.0359366
-1.1542944	r t h	-1.274309
-1.2554469	s t h	-0.9102573
-0.90327257	w t h	-0.69038475
-1.1071959	l t h	-0.7851084
-0.9213709	g t h	-0.5653702
-0.37008846	v t h	-0.46223354
-1.2610233	k t h	-0.38129544
-1.10306	æ t h	-0.68683994
-0.8220314	m t h	-0.40990898
-0.72437537	y t h	-0.94771045
-1.0371977	x t h	-0.39176676
-1.1349692	f t h	-0.56278855
-0.8345611	z t h	-0.27797288
-1.4450681	<w> u h	-0.41383868
-1.7112142	a u h	-0.28438544
-1.8651751	b u h	-0.28107578
-1.7930247	h u h	-0.280298
-2.057315	d u h	-0.27797288
-2.2027328	e u h	-0.27797288
-2.0330808	p u h	-0.27797288
-1.6713572	o u h	-0.39938205
-2.0006967	t u h	-0.27797288
-1.6585554	r u h	-0.31588906
-2.1754293	l u h	-0.27797288
-2.0245702	g u h	-0.27797288
-1.8008657	k u h	-0.27797288
-1.3943527	q u h	-0.52140516
-2.0200312	m u h	-0.3636773
-2.022518	f u h	-0.28107578
-1.7085607	z u h	-0.27797288
-1.3435544	<w> r h	-1.1814835
-1.7039903	a r h	-0.44748193
-1.6046466	h r h	-0.280298
-1.6527282	i r h	-0.3246812
-1.6548867	n r h	-0.28263563
-1.4905399	e r h	-1.1109684
-1.982157	p r h	-0.27797288
-1.54205	o r h	-0.66753507
-2.0679064	t r h	-0.27797288
-1.8845203	u r h	-0.38305232
-1.0850748	r r h	-0.6309953
-1.601786	s r h	-0.27797288
-1.7365273	g r h	-0.28263563
-1.3480893	y r h	-0.33203366
-1.3838136	<w> s h	-1.8892751
-1.1930234	a s h	-1.1660581
-1.3567305	b s h	-0.28497025
-0.9302622	h s h	-0.5197228
-1.2386171	i s h	-1.5838706
-1.2372688	n s h	-1.3084174
-1.207785	c s h	-0.28263563
-1.0832533	d s h	-0.9431436
-1.2402772	e s h	-1.0570648
-1.0983552	p s h	-0.66753507
-1.2740486	o s h	-0.6956252
-1.087183	t s h	-0.8378972
-1.189519	u s h	-0.9515168
-1.2650148	r s h	-1.284136
-1.1186905	s s h	-0.5886161
-1.2417265	w s h	-0.44833934
-1.1221297	l s h	-0.6990161
-1.1827221	g s h	-0.44222397
-0.89047635	k s h	-0.7980256
-1.2636921	m s h	-0.6100141
-1.0565606	y s h	-0.7423079
-1.4856241	f s h	-0.28889993
-1.0997763	<w> w h	-1.8074138
-1.4421005	a w h	-0.624692
-1.0050579	h w h	-0.28169906
-1.3755416	i w h	-0.27797288
-1.0672594	n w h	-0.58992994
-1.0438911	c w h	-0.27797288
-1.2847904	e w h	-0.6025844
-1.3222133	o w h	-0.58726496
-1.384178	t w h	-0.2863834
-1.2992588	u w h	-0.27797288
-1.0954232	r w h	-0.789646
-1.5911862	s w h	-0.27797288
-1.2156943	l w h	-0.28263563
-1.4387432	g w h	-0.27797288
-1.1274239	k w h	-0.27797288
-1.2790496	m w h	-0.27797288
-1.1321772	y w h	-0.36556464
-0.800352	f w h	-0.28107578
-1.3878516	<w> l h	-0.27797288
-1.6531047	a l h	-0.7818154
-1.7971486	h l h	-0.27797288
-1.6241473	i l h	-0.71486866
-1.5124352	e l h	-0.56558126
-1.6535665	o l h	-0.55914354
-1.7683752	u l h	-0.40834078
-1.7919706	r l h	-0.27797288
-2.0211437	s l h	-0.27797288
-1.5976417	l l h	-0.5361537
-2.040191	f l h	-0.27797288
-1.1875074	<w> g h	-0.77740943
-1.1205835	a g h	-0.74279916
-1.1297776	i g h	-1.4657817
-1.2444206	n g h	-1.0898622
-1.1252755	c g h	-0.27797288
-1.5620791	d g h	-0.27797288
-1.3013102	e g h	-0.5147143
-1.0667647	p g h	-0.27797288
-1.1129494	o g h	-0.41208774
-1.4080117	t g h	-0.27797288
-1.1149067	u g h	-1.2300215
-1.0271877	r g h	-0.9133835
-1.1716454	w g h	-0.28263563
-1.2587504	l g h	-0.27983195
-1.2317572	g g h	-0.36556464
-0.6344059	v g h	-0.27797288
-0.9604281	k g h	-0.27797288
-1.1455246	m g h	-0.27797288
-1.354287	y g h	-0.28107578
-0.56650305	x g h	-0.28107578
-0.71746206	f g h	-0.28889993
-1.1991131	<w> j h	-0.28169906
-1.5844759	a j h	-0.27797288
-0.6104973	w j h	-0.27797288
-1.4176731	<w> v h	-0.28732198
-1.7785506	y v h	-0.27797288
-1.1786504	<w> k h	-0.9323526
-1.2075999	a k h	-0.36895686
-1.4555521	i k h	-0.28196645
-1.4160321	n k h	-0.28396368
-1.2609786	c k h	-0.82856137
-1.3769244	e k h	-0.28169906
-1.2934963	o k h	-0.32041568
-1.5402281	u k h	-0.280298
-1.3046327	r k h	-0.33436283
-1.8674222	s k h	-0.27797288
-1.2877374	w k h	-0.27797288
-1.1062498	l k h	-0.28889993
-1.2768925	m k h	-0.27797288
-1.1429664	y k h	-0.280298
-0.85179245	f k h	-0.27797288
-1.3977689	u q h	-0.27797288
-0.32509962	z æ h	-0.27797288
-1.418687	<w> m h	-0.27983195
-1.8070205	a m h	-0.49699563
-1.7019144	h m h	-0.27797288
-2.0317419	i m h	-0.27797288
-1.9828073	e m h	-0.280298
-1.7214987	o m h	-0.35034883
-2.2397337	u m h	-0.27797288
-1.7758083	r m h	-0.36556464
-1.7582645	l m h	-0.27797288
-1.7799152	m m h	-0.27797288
-1.9412723	y m h	-0.27797288
-1.3592842	<w> y h	-0.27797288
-1.6901622	a y h	-0.34330124
-1.5864885	b y h	-0.28263563
-1.4012387	n y h	-0.35191703
-1.6297781	d y h	-0.28107578
-1.6167685	e y h	-0.3697754
-1.4377421	p y h	-0.36556464
-1.8337667	o y h	-0.28263563
-1.741875	t y h	-0.27797288
-1.7712579	u y h	-0.41383868
-1.9198225	r y h	-0.27797288
-1.6282023	w y h	-0.27797288
-1.79523	l y h	-0.38305232
-1.64175	v y h	-0.27797288
-1.7351503	k y h	-0.27797288
-1.7857931	m y h	-0.27797288
-1.2992845	x y h	-0.27797288
-1.0006969	h x h	-0.27797288
-1.6022849	i x h	-0.28889993
-1.3351774	e x h	-1.0590078
-1.3230573	o x h	-0.3646199
-1.0000237	t x h	-0.27797288
-1.3311028	u x h	-0.58992994
-1.4308119	x x h	-0.28263563
-1.704774	p f h	-0.27797288
-1.8379095	r f h	-0.27797288
-1.9376048	l f h	-0.27797288
-1.5114511	g f h	-0.27797288
-1.6316723	f f h	-0.2861423
-1.2030339	<w> z h	-0.28449607
-2.0933378	a z h	-0.27797288
-2.0963516	i z h	-0.27797288
-1.7707527	t z h	-0.280298
-1.9023908	u z h	-0.27797288
-1.6008157	r z h	-0.27797288
-0.9917813	b œ h	-0.27797288
-1.4353136	</w> <w> i	-2.1647086
-1.4283013	<w> a i	-0.8073628
-1.7290975	a a i	-0.27797288
-1.3347982	b a i	-0.72619283
-1.2522483	h a i	-0.92170244
-1.6253008	i a i	-0.38948995
-1.4278233	n a i	-0.90725636
-1.3399231	c a i	-0.7551522
-1.3602427	d a i	-0.78396636
-1.7299976	e a i	-0.280298
-1.2149477	p a i	-0.8883056
-1.6599859	o a i	-0.28196645
-1.189362	t a i	-1.2953283
-1.347538	u a i	-0.7573833
-1.2887069	r a i	-1.3535392
-1.2449682	s a i	-0.97584677
-1.1868136	w a i	-0.8312726
-1.3065264	l a i	-1.1500189
-1.3230098	g a i	-0.8807682
-1.8274103	j a i	-0.52507645
-1.2392192	v a i	-0.92907286
-1.2752886	k a i	-0.45221084
-1.2924327	m a i	-1.083309
-1.7379241	y a i	-0.28063112
-1.6284221	x a i	-0.27797288
-1.2794477	f a i	-1.0392538
-1.3320813	z a i	-0.34838286
-1.2165929	<w> b i	-1.2902579
-0.9967136	a b i	-1.2368087
-0.9623119	b b i	-0.9887819
-1.1944697	h b i	-0.52918035
-1.0366173	i b i	-1.0969591
-1.0058155	n b i	-0.32930088
-1.164774	c b i	-0.27797288
-1.0085711	d b i	-0.28471372
-1.0536766	e b i	-0.6060873
-1.275194	p b i	-0.27797288
-1.0402449	o b i	-0.8752296
-0.97420764	t b i	-0.3234006
-1.0509057	u b i	-0.7968689
-1.1562637	r b i	-0.81338114
-1.2415135	s b i	-0.314929
-1.2599972	w b i	-0.27797288
-1.0670526	l b i	-0.46747106
-1.0150515	g b i	-0.46223354
-1.0820744	k b i	-0.37342635
-1.1009343	m b i	-0.8013022
-1.078136	y b i	-0.5070757
-1.1463933	z b i	-0.27797288
-1.2089185	<w> h i	-1.2865598
-0.96515447	a h i	-0.5997803
-1.1317368	b h i	-0.27797288
-1.1401	h h i	-0.27797288
-1.1435043	i h i	-0.73855424
-0.77552193	n h i	-0.5660404
-1.1061289	c h i	-1.559052
-1.0042244	d h i	-0.45208478
-0.9986792	e h i	-0.43392283
-0.9973578	p h i	-1.3263581
-1.2445489	o h i	-0.5113293
-1.124288	t h i	-1.2999228
-1.318519	u h i	-0.27797288
-0.9529518	r h i	-0.71761924
-0.98986155	s h i	-1.5278356
-0.5312667	w h i	-1.234804
-1.1407721	l h i	-0.27797288
-0.96915245	g h i	-0.7645918
-0.95112705	j h i	-0.27797288
-0.96022797	k h i	-0.3551778
-1.0514388	m h i	-0.28889993
-1.020891	y h i	-0.280298
-0.96646535	x h i	-0.8454503
-1.1183165	z h i	-0.27797288
-1.4134748	<w> i i	-0.40860695
-2.036581	a i i	-0.2863834
-1.6361656	b i i	-0.28522694
-1.6669068	h i i	-0.6149569
-1.1549977	i i i	-0.82472837
-1.6414165	n i i	-0.72097754
-1.4525862	c i i	-0.6356874
-1.5023708	d i i	-0.6383248
-2.0620937	e i i	-0.28263563
-1.650424	p i i	-0.35584673
-1.9936569	o i i	-0.27797288
-1.50878	t i i	-0.8735877
-1.6608825	r i i	-0.8675784
-1.4682251	s i i	-0.61174434
-2.040946	w i i	-0.27797288
-1.628471	l i i	-0.69265795
-1.6082718	g i i	-0.725475
-1.4696888	v i i	-0.8086321
-1.7220039	k i i	-0.41383868
-1.7574242	m i i	-0.2861423
-1.8135633	y i i	-0.27797288
-1.2409805	x i i	-0.7768004
-2.0611138	f i i	-0.27797288
-1.922911	z i i	-0.27797288
-1.2372203	<w> n i	-1.1470479
-1.2472177	a n i	-1.4742275
-0.88443446	b n i	-0.34195563
-1.0308195	h n i	-0.55044526
-1.2663966	i n i	-1.4381981
-0.9774977	n n i	-1.1458701
-0.8124177	c n i	-0.33436283
-0.7739795	d n i	-0.32355043
-1.2486484	e n i	-1.3335841
-1.1220227	p n i	-0.28107578
-1.1865296	o n i	-1.5740987
-0.82433814	t n i	-0.5136321
-1.2185373	u n i	-1.1744928
-1.095731	r n i	-1.1287172
-0.7386524	s n i	-0.6603926
-1.2170776	w n i	-0.8889526
-0.8709204	l n i	-0.28107578
-0.7873467	g n i	-1.1212486
-0.82996297	j n i	-0.27797288
-1.0777411	v n i	-0.28169906
-0.88803935	k n i	-0.60667294
-0.82996297	q n i	-0.27797288
-0.9590181	æ n i	-0.280298
-0.9533855	m n i	-0.6702906
-1.1337461	y n i	-0.5334419
-0.8289497	x n i	-0.27797288
-0.85995275	z n i	-0.28107578
-0.5737195	œ n i	-0.33436283
-1.2841947	<w> c i	-1.2270156
-1.1004727	a c i	-1.2629004
-1.1105396	i c i	-1.4514904
-1.2252465	n c i	-1.2899082
-1.0541317	c c i	-1.0575944
-1.1007355	e c i	-1.1356953
-1.2584327	p c i	-0.27797288
-1.1123908	o c i	-0.891572
-1.3661798	t c i	-0.2861423
-1.1075163	u c i	-0.8877642
-1.0687907	r c i	-0.8502036
-1.1423275	s c i	-1.0898398
-0.99661595	w c i	-0.27797288
-1.1703441	l c i	-0.4319713
-1.2390257	g c i	-0.27797288
-0.9738802	v c i	-0.27797288
-0.92318857	æ c i	-0.35191703
-1.2180848	m c i	-0.5052508
-1.2494305	y c i	-0.39034736
-0.9492021	x c i	-0.73289
-0.89251935	f c i	-0.28263563
-1.2647204	<w> d i	-1.8281026
-1.1149395	a d i	-1.1917112
-0.6922925	b d i	-0.47849384
-1.3233796	h d i	-0.46223354
-1.1375182	i d i	-1.1260065
-1.2459505	n d i	-1.449794
-1.3195655	c d i	-0.27797288
-1.0759692	d d i	-1.0695729
-1.1027269	e d i	-1.2653571
-1.2936308	p d i	-0.27797288
-1.0535076	o d i	-1.0420691
-1.099949	t d i	-0.28169906
-1.1028215	u d i	-1.0581745
-1.0697579	r d i	-1.1921697
-0.9527411	s d i	-0.44662628
-1.0622326	w d i	-0.5857846
-1.2081698	l d i	-0.93832046
-1.0356855	g d i	-0.28449607
-0.81037354	æ d i	-0.39646646
-1.3504671	m d i	-0.27797288
-0.97278345	y d i	-0.3554118
-1.2046031	f d i	-0.27797288
-1.41623	<w> e i	-0.69406295
-1.9351757	a e i	-0.27797288
-1.3666836	b e i	-0.5494641
-1.1679349	h e i	-1.0601615
-1.7716188	i e i	-0.37342635
-1.3881689	n e i	-0.76779175
-1.3744776	c e i	-0.96800554
-1.4560144	d e i	-0.6468859
-1.3327323	e e i	-0.86246336
-1.3935215	p e i	-0.5173202
-1.521513	o e i	-0.41108102
-1.4332142	t e i	-0.76051444
-1.4136199	u e i	-0.43541977
-1.3925152	r e i	-0.9701688
-1.4305415	s e i	-0.720531
-1.0897305	w e i	-0.70316416
-1.3209531	l e i	-0.8380975
-1.3758397	g e i	-0.5482117
-1.7794414	j e i	-0.27797288
-1.2670095	v e i	-0.7506499
-1.2951207	k e i	-0.66931456
-1.4237148	m e i	-0.58690155
-1.6072328	y e i	-0.3384779
-1.4892395	x e i	-0.28107578
-1.2971761	f e i	-0.64302003
-1.3267785	z e i	-0.4795871
-1.2325053	<w> p i	-1.4524992
-1.0401387	a p i	-1.0773205
-0.9379963	h p i	-0.2854387
-1.1382102	i p i	-0.7426101
-0.9244161	n p i	-0.3940414
-0.97808105	d p i	-0.3842354
-1.0262786	e p i	-1.0672983
-0.9787725	p p i	-1.1414648
-1.1218796	o p i	-1.0380362
-1.398487	t p i	-0.28263563
-1.0765829	u p i	-0.7423079
-1.0676881	r p i	-0.5874953
-0.8622658	s p i	-1.3686907
-0.94161445	w p i	-0.28497025
-1.02869	l p i	-0.6210225
-0.81523585	g p i	-0.34531394
-1.1661768	k p i	-0.27797288
-0.81779146	æ p i	-0.27797288
-1.1298583	m p i	-0.98961854
-1.1945612	y p i	-0.34219912
-1.2651409	x p i	-0.6665946
-0.94640213	f p i	-0.27797288
-1.4029368	<w> o i	-0.49650693
-1.65904	a o i	-0.28107578
-1.4103123	b o i	-0.66259426
-1.53785	h o i	-0.54149514
-1.675747	i o i	-0.28262225
-1.2750129	n o i	-0.9717657
-1.3967025	c o i	-0.7849853
-1.382871	d o i	-0.5993858
-1.6951609	e o i	-0.5482117
-1.2596267	p o i	-0.9296773
-1.3064942	o o i	-0.76078945
-1.3776826	t o i	-0.8024186
-1.2210158	u o i	-0.50854117
-1.3846164	r o i	-1.0011892
-1.4642477	s o i	-0.59562546
-1.4444916	w o i	-0.27983195
-1.4826956	l o i	-0.8444204
-1.3366053	g o i	-0.70498216
-1.0566174	j o i	-1.0432764
-1.1608748	v o i	-0.7934079
-1.566344	k o i	-0.38305232
-1.3676422	m o i	-0.74208075
-1.6694975	y o i	-0.28107578
-1.5670894	x o i	-0.27797288
-1.4154681	f o i	-0.5759454
-1.5810102	z o i	-0.5562116
-1.2879072	<w> t i	-1.3247149
-1.1295176	a t i	-2.050127
-1.1202227	b t i	-0.668006
-1.0095325	h t i	-0.78557265
-1.1915524	i t i	-1.5737635
-1.2133526	n t i	-1.6692922
-1.0139322	c t i	-1.5609347
-0.93776464	d t i	-0.28340206
-1.1896007	e t i	-1.2695563
-0.99784344	p t i	-1.2112547
-1.0783391	o t i	-1.0803525
-0.9474161	t t i	-1.3049707
-1.1481159	u t i	-1.2743821
-1.0981016	r t i	-1.3955904
-1.0519979	s t i	-1.7041674
-1.1596143	w t i	-0.34195563
-1.1747899	l t i	-0.95902026
-1.414413	g t i	-0.27797288
-1.2612354	k t i	-0.27983195
-0.8304525	æ t i	-0.28169906
-1.1991918	m t i	-0.28107578
-0.98885983	y t i	-0.5180206
-1.2786673	x t i	-0.67267287
-1.2393128	f t i	-0.7017956
-1.1454493	z t i	-0.27797288
-0.7070043	œ t i	-0.28107578
-1.3651594	<w> u i	-0.280039
-1.6115141	a u i	-0.28196645
-1.2314492	b u i	-0.86854684
-1.5028509	h u i	-0.40277314
-1.7161739	i u i	-0.27797288
-1.422456	n u i	-0.70257664
-1.2776837	c u i	-0.54725087
-1.1871699	d u i	-0.60260284
-1.562985	e u i	-1.1892323
-1.2923558	p u i	-0.8005935
-1.3763834	o u i	-0.81302595
-1.3701644	t u i	-0.8735877
-1.3282964	r u i	-0.979378
-1.3165808	s u i	-0.90745586
-1.5295674	w u i	-0.27797288
-1.226015	l u i	-0.53702646
-1.0869063	g u i	-1.129046
-1.1291454	j u i	-0.4583286
-1.6363896	v u i	-0.27797288
-0.79843676	q u i	-1.4221644
-1.4308645	m u i	-0.9579067
-1.4370848	y u i	-0.27797288
-1.4150846	x u i	-0.28263563
-1.1781471	f u i	-0.40274054
-1.613982	z u i	-0.27797288
-1.2192518	<w> r i	-1.3400937
-1.2884247	a r i	-1.6308514
-0.7118111	b r i	-1.2911077
-0.92985964	h r i	-0.98509634
-1.1518154	i r i	-1.0015719
-0.86927134	n r i	-0.6634974
-0.83608973	c r i	-1.365764
-0.797809	d r i	-1.0042719
-1.2889096	e r i	-1.7530464
-0.7405837	p r i	-1.3854008
-1.2238857	o r i	-1.4855113
-0.87149054	t r i	-1.5268084
-1.2016822	u r i	-1.3262012
-1.0014242	r r i	-1.2911011
-1.1661624	s r i	-0.27797288
-0.60238415	w r i	-1.0512228
-0.7741794	l r i	-0.4826091
-0.8259676	g r i	-1.0685215
-0.7937304	v r i	-0.46223354
-0.7494322	k r i	-0.39572808
-0.66317666	æ r i	-0.28340206
-0.71115017	m r i	-0.28169906
-0.88223135	y r i	-0.8087527
-0.9054195	x r i	-0.27797288
-0.70352274	f r i	-1.0284122
-1.3626401	<w> s i	-1.4767604
-1.1493244	a s i	-1.1320381
-1.3453573	b s i	-0.7368616
-1.2008393	h s i	-0.27952158
-1.278641	i s i	-1.3547184
-1.2817117	n s i	-1.3183084
-1.0940735	c s i	-0.40990898
-1.2583591	d s i	-0.48126042
-1.2176323	e s i	-1.1933086
-0.99295115	p s i	-0.6529541
-1.1338062	o s i	-1.2243748
-1.353974	t s i	-0.42356566
-1.1413013	u s i	-1.1766249
-1.2571979	r s i	-1.0043361
-1.2500075	s s i	-1.5471438
-1.3166399	w s i	-0.3511322
-1.2439358	l s i	-0.66138804
-1.4172014	g s i	-0.43062407
-1.4101859	k s i	-0.28396368
-0.774961	æ s i	-0.28366822
-1.2557274	m s i	-0.46240574
-1.0533525	y s i	-0.75629216
-0.942414	x s i	-0.280298
-0.934416	œ s i	-0.28263563
-1.0621246	<w> w i	-1.4261811
-1.1311955	a w i	-0.7806171
-0.98617303	h w i	-0.49650693
-0.581162	i w i	-0.41163117
-0.78565806	n w i	-0.62786055
-0.74512416	c w i	-0.27797288
-0.7319901	d w i	-0.7105145
-0.9948654	e w i	-0.94898045
-0.7948925	p w i	-0.28263563
-1.0545858	o w i	-1.176168
-0.81004983	t w i	-0.9810755
-0.95180696	u w i	-0.27797288
-0.82623553	r w i	-0.62718856
-0.6996263	s w i	-0.87806803
-0.7969295	l w i	-0.44923818
-0.6597323	g w i	-0.47073758
-1.1069796	k w i	-0.28107578
-1.0063653	m w i	-0.27797288
-0.8542831	y w i	-0.34195563
-0.7839649	f w i	-0.27797288
-0.5169697	z w i	-0.28063112
-1.2045847	<w> l i	-1.5209459
-1.1896977	a l i	-1.6142236
-0.8212056	b l i	-1.2304159
-0.92726153	h l i	-0.53264564
-1.1793928	i l i	-1.5449265
-0.84401417	n l i	-0.9049248
-0.79430866	c l i	-1.0278286
-0.74512273	d l i	-1.1172854
-1.1819947	e l i	-1.4368777
-0.87418544	p l i	-1.1986921
-1.1379118	o l i	-1.3751884
-0.77727956	t l i	-1.076865
-1.1581995	u l i	-1.0449082
-1.0127646	r l i	-1.0258899
-0.79036635	s l i	-0.96760994
-0.8677627	w l i	-0.9210075
-1.1142994	l l i	-1.5898796
-0.73091686	g l i	-1.1541505
-0.9371832	v l i	-0.28169906
-0.88050616	k l i	-0.98435545
-0.5656539	æ l i	-0.33436283
-0.8071135	m l i	-0.5597347
-1.0389222	y l i	-0.5316821
-0.7615967	x l i	-0.32448798
-0.85654974	f l i	-1.0793997
-0.5555087	z l i	-0.969217
-0.88598895	œ l i	-0.280298
-1.1995077	<w> g i	-1.1911596
-1.1008902	a g i	-1.1335328
-0.9988991	h g i	-0.27797288
-1.1817986	i g i	-1.0606062
-1.1905535	n g i	-1.0831316
-0.8497981	c g i	-0.2861423
-1.0886317	d g i	-0.9442001
-1.0534972	e g i	-0.9684008
-1.0753264	p g i	-0.28263563
-1.2635562	o g i	-1.2237911
-1.0933641	t g i	-0.27797288
-0.993836	u g i	-0.5667684
-1.1131077	r g i	-0.9547907
-0.8405834	s g i	-0.56324965
-0.90895617	w g i	-0.28107578
-1.0187963	l g i	-0.37829453
-1.0503571	g g i	-1.124006
-1.0078095	æ g i	-0.27797288
-0.8484801	y g i	-0.6019096
-0.5683222	z g i	-0.27797288
-0.96100557	<w> j i	-0.7518174
-0.97732997	a j i	-0.2820384
-0.87310755	b j i	-0.41383868
-0.9210561	h j i	-0.27797288
-1.2948107	i j i	-0.280298
-1.0599259	n j i	-0.28497025
-0.94433224	d j i	-0.27930003
-1.3154432	e j i	-0.280298
-0.9199057	t j i	-0.27797288
-1.0493883	u j i	-0.27797288
-1.1857785	r j i	-0.27797288
-0.9369657	s j i	-0.27797288
-0.8210625	j j i	-0.27797288
-1.0110741	<w> v i	-1.47592
-0.76019794	a v i	-1.2596582
-0.89809763	b v i	-0.5107487
-0.79644203	h v i	-0.5107487
-0.86630857	i v i	-1.2282243
-0.59404826	n v i	-1.0021104
-0.46578214	c v i	-0.3636773
-0.5051096	d v i	-0.8197449
-0.7705681	e v i	-1.1824906
-0.76292706	p v i	-0.27797288
-0.70359015	o v i	-0.9519213
-0.55139655	t v i	-0.2861423
-0.6026636	u v i	-0.7081727
-0.7751911	r v i	-1.0186327
-0.7785777	s v i	-0.46223354
-0.69312674	l v i	-0.7601546
-0.5718096	g v i	-0.27797288
-0.5257612	j v i	-0.27797288
-0.74920076	v v i	-0.32448798
-0.32605013	k v i	-0.5107487
-0.7422307	q v i	-0.27797288
-0.5320551	æ v i	-0.27797288
-0.56925935	m v i	-0.6149569
-0.690276	y v i	-0.4594933
-0.42051578	x v i	-0.9753
-0.5257612	f v i	-0.27797288
-0.5257612	œ v i	-0.27797288
-1.0921266	<w> k i	-1.3313297
-0.93249774	a k i	-1.103694
-0.72503215	b k i	-0.41383868
-0.85112625	h k i	-0.280298
-0.8280349	i k i	-0.8619442
-1.1313124	n k i	-1.1073387
-1.1170752	c k i	-1.2144179
-0.81074804	d k i	-0.71486866
-0.81221217	e k i	-0.7348324
-0.47505498	p k i	-0.98535335
-0.99967575	o k i	-0.8688035
-0.5845455	t k i	-0.6994694
-1.0132855	u k i	-0.38651097
-1.1494653	r k i	-0.9613241
-0.73941934	s k i	-1.076632
-0.9649186	w k i	-0.6383248
-0.9176489	l k i	-0.9375342
-0.8045	g k i	-0.28889993
-1.0607753	k k i	-0.39646646
-0.5353801	m k i	-0.5482117
-0.9421246	y k i	-0.2863834
-0.4681148	f k i	-0.28263563
-0.97542584	z k i	-0.27797288
-1.2967825	b æ i	-0.27797288
-1.6158769	n æ i	-0.27797288
-1.4831605	e æ i	-0.27797288
-1.6461942	r æ i	-0.27797288
-1.2294285	<w> m i	-1.7015965
-1.1050453	a m i	-1.2676455
-0.8637557	b m i	-0.64634395
-0.99709344	h m i	-0.42637837
-1.0081339	i m i	-1.2554982
-1.041723	n m i	-0.56121016
-1.2683169	c m i	-0.28263563
-0.7594478	d m i	-0.9527055
-1.1249045	e m i	-1.1741062
-1.0514493	o m i	-1.3161691
-1.0544649	t m i	-0.45930156
-1.1358008	u m i	-0.9743216
-0.99212545	r m i	-1.2365022
-0.7304506	s m i	-0.95068794
-0.8748207	w m i	-0.41383868
-0.9331448	l m i	-0.80116165
-0.8733164	g m i	-0.2877542
-0.8405827	k m i	-0.27797288
-0.83058643	æ m i	-0.3636773
-1.0185248	m m i	-0.9964006
-0.9942895	y m i	-0.4750976
-0.8641881	x m i	-0.28263563
-1.0984781	f m i	-0.27797288
-1.012078	z m i	-0.28107578
-1.2837961	<w> y i	-0.36661512
-1.2179471	a y i	-0.9838007
-1.1170783	b y i	-0.28396368
-1.5671414	h y i	-0.28263563
-1.4290413	i y i	-0.27797288
-1.1823031	n y i	-0.58443207
-1.500579	c y i	-0.28263563
-1.0036993	d y i	-1.0021104
-1.2087644	e y i	-0.8124211
-1.2503406	p y i	-0.65687674
-1.1888866	o y i	-0.93358564
-1.1753926	t y i	-0.62076235
-1.4056698	u y i	-0.38305232
-1.1934912	r y i	-1.1892323
-1.1505218	s y i	-0.6840823
-1.2787764	l y i	-1.0709927
-1.5480106	g y i	-0.27797288
-0.74574566	j y i	-0.27797288
-0.8527865	v y i	-0.71486866
-1.3642541	k y i	-0.28107578
-1.5115119	m y i	-0.280298
-0.7080746	y y i	-0.5107487
-0.9758335	f y i	-1.7255925
-1.173234	z y i	-0.28263563
-1.1270527	<w> x i	-0.3771658
-0.8975257	a x i	-0.70256627
-0.84584165	i x i	-0.55044526
-0.8881675	n x i	-0.4017381
-0.9789733	c x i	-0.27797288
-0.8423305	e x i	-0.85589004
-0.83363956	o x i	-0.7594234
-0.8581108	u x i	-0.50541043
-0.89920485	r x i	-0.2861423
-0.5973331	l x i	-0.28561205
-1.2737249	y x i	-0.28263563
-0.8289881	x x i	-0.77466244
-1.1728418	<w> f i	-1.3992741
-0.92731744	a f i	-0.55699205
-0.70998085	h f i	-0.63201445
-0.9990885	i f i	-1.4922273
-0.89214814	n f i	-0.94784915
-0.86499715	d f i	-0.54524934
-0.9768168	e f i	-1.0109782
-1.4101715	p f i	-0.280298
-1.2222035	o f i	-0.7260661
-0.81100196	t f i	-0.5854579
-0.95998365	u f i	-0.32683137
-1.0311623	r f i	-0.7226212
-0.66693807	s f i	-0.8384883
-0.9627796	w f i	-0.39310816
-1.0065782	l f i	-0.7881884
-1.0459644	g f i	-0.58600026
-0.94093853	k f i	-0.5182437
-0.8174034	m f i	-0.63201445
-0.79861176	y f i	-0.651645
-0.6828121	x f i	-0.41383868
-1.0247688	f f i	-1.155007
-1.0231798	<w> z i	-0.56062984
-0.795303	a z i	-0.8220319
-0.85656077	i z i	-1.2286232
-0.86405796	n z i	-0.64412534
-0.602397	c z i	-0.280298
-1.1038039	d z i	-0.27797288
-0.93337196	e z i	-0.4818241
-0.8489562	p z i	-0.27797288
-0.98291445	o z i	-0.6036554
-0.9404695	t z i	-0.39310816
-0.8539993	u z i	-0.32355043
-0.83537626	r z i	-0.2830953
-1.2072176	s z i	-0.27797288
-0.91439885	w z i	-0.28889993
-0.6419401	l z i	-0.3697754
-0.6196565	y z i	-0.28396368
-0.2874158	f z i	-0.27797288
-0.8578143	z z i	-0.7455685
-1.0704362	<w> œ i	-0.27797288
-0.59835947	p œ i	-0.27797288
-1.3943574	r œ i	-0.28263563
-1.4185599	</w> <w> n	-2.023326
-1.4190754	<w> a n	-1.5496985
-0.9981382	a a n	-0.3916823
-1.1819806	b a n	-1.173644
-1.2053503	h a n	-1.4424495
-1.0679641	i a n	-1.8622571
-1.329509	n a n	-1.269016
-1.3034108	c a n	-1.3943969
-1.2534819	d a n	-1.1772158
-1.1412294	e a n	-1.24406
-1.1553874	p a n	-1.2036726
-1.0687438	o a n	-0.6743128
-1.2103257	t a n	-1.47045
-0.9649444	u a n	-0.91203225
-1.2692589	r a n	-1.644365
-1.2434587	s a n	-1.317812
-1.094536	w a n	-0.8919827
-1.2641315	l a n	-1.605281
-1.1733811	g a n	-1.1852022
-1.1257265	j a n	-0.66419077
-1.1222165	v a n	-1.1874626
-1.0483027	k a n	-0.5932768
-0.3875248	æ a n	-0.8735877
-1.1154884	m a n	-1.6454244
-0.9463016	y a n	-0.7689983
-0.93078136	x a n	-0.7490722
-1.2307851	f a n	-0.8791836
-1.0191932	z a n	-0.59434307
-1.4522098	<w> b n	-0.27797288
-2.113486	a b n	-0.44222397
-1.6285137	i b n	-0.41121492
-2.303923	e b n	-0.27797288
-1.9279832	o b n	-0.43886563
-2.1898456	u b n	-0.27797288
-1.9193326	m b n	-0.2861423
-1.3191155	<w> h n	-0.27797288
-1.2638464	a h n	-0.5562116
-1.4438584	i h n	-0.28263563
-1.7824736	n h n	-0.28263563
-1.3603336	c h n	-0.9157143
-1.5985131	e h n	-0.28449607
-1.7908044	p h n	-0.40834078
-1.0570483	o h n	-0.65127563
-1.4650382	t h n	-0.54417247
-1.6361384	u h n	-0.27797288
-1.7327747	r h n	-0.27797288
-1.5091304	s h n	-1.118818
-1.6867357	g h n	-0.5052508
-1.4852469	m h n	-0.27797288
-1.6123161	y h n	-0.2861423
-1.3948683	<w> i n	-1.9325767
-1.1628969	a i n	-1.4370311
-1.1501052	b i n	-1.1840453
-1.2113317	h i n	-1.4825344
-1.6075699	i i n	-0.27797288
-1.1834122	n i n	-1.5542301
-1.2008868	c i n	-1.3107222
-1.2272729	d i n	-1.6447878
-1.0617929	e i n	-1.148168
-1.1057922	p i n	-1.3596982
-1.0412663	o i n	-1.2041335
-1.2467048	t i n	-1.9332407
-1.1206684	u i n	-1.0916405
-1.2720948	r i n	-1.7918282
-1.1850036	s i n	-1.5876242
-0.9601975	w i n	-1.4292445
-1.2007396	l i n	-1.8740691
-1.1483165	g i n	-1.4243846
-1.0852948	j i n	-0.40979904
-1.2263297	v i n	-1.3779914
-0.7951405	k i n	-1.6177188
-1.0914576	m i n	-1.7169309
-0.547206	y i n	-1.7451632
-1.1641986	x i n	-0.8790589
-1.1442027	f i n	-1.1565061
-0.89837205	z i n	-1.2135036
-1.3958637	<w> n n	-0.27983195
-1.2850832	a n n	-1.5031016
-1.7012775	h n n	-0.27983195
-1.3094853	i n n	-1.326943
-1.4058998	n n n	-0.27797288
-1.3036654	e n n	-1.3751484
-1.2757239	o n n	-1.4410222
-1.269482	u n n	-1.1646754
-1.5570383	r n n	-0.58992994
-1.3372821	w n n	-0.28107578
-1.7919347	g n n	-0.28263563
-1.7146254	k n n	-0.27797288
-1.7873627	m n n	-0.27797288
-1.2722027	y n n	-0.6833787
-1.462211	<w> c n	-0.2830953
-1.737547	a c n	-0.4952388
-1.7808204	i c n	-0.34531394
-2.1173172	e c n	-0.28263563
-2.1092665	o c n	-0.28263563
-2.2329237	u c n	-0.27797288
-2.1289544	s c n	-0.27797288
-1.6120582	m c n	-0.27797288
-1.7024722	y c n	-0.28107578
-1.3575014	<w> d n	-0.27797288
-1.4632007	a d n	-0.58796066
-1.2419336	i d n	-0.8175589
-1.5259132	n d n	-0.9657373
-1.7594526	d d n	-0.28263563
-1.2205117	e d n	-1.4050661
-1.9148533	o d n	-0.37342635
-1.7234972	u d n	-0.2832103
-1.3548232	r d n	-0.871575
-1.8110933	s d n	-0.27797288
-1.451551	w d n	-0.2861423
-1.4283965	l d n	-0.56510633
-1.1736249	v d n	-0.27797288
-1.5429524	y d n	-0.280298
-1.1064796	z d n	-0.27797288
-1.4158368	<w> e n	-1.4936944
-1.1420525	a e n	-0.7398871
-1.293822	b e n	-1.0699203
-1.1926978	h e n	-1.2023503
-1.1206173	i e n	-1.4610251
-1.3880947	n e n	-1.0394055
-1.1816707	c e n	-1.5072205
-1.114563	d e n	-1.4742888
-1.166476	e e n	-1.0637053
-1.0917314	p e n	-1.3677533
-1.0393878	o e n	-0.72306216
-1.2116437	t e n	-1.6054386
-1.0350312	u e n	-1.0875576
-1.2863507	r e n	-1.4985164
-1.2312189	s e n	-1.4164369
-1.1224716	w e n	-0.7400947
-1.320906	l e n	-1.4320407
-1.2136365	g e n	-1.4625878
-1.3624568	j e n	-0.50926894
-1.0901227	v e n	-1.4834138
-1.1038498	k e n	-1.1106441
-1.0244687	m e n	-1.8241177
-1.292157	y e n	-0.44897914
-0.9568056	x e n	-0.40563905
-1.1355796	f e n	-1.0073053
-1.0783297	z e n	-0.81330496
-1.3702332	<w> p n	-0.5855261
-1.786809	a p n	-0.43062407
-1.9548578	i p n	-0.28107578
-1.9592373	e p n	-0.5416559
-1.7698426	p p n	-0.27797288
-2.1461267	o p n	-0.27797288
-2.0171552	u p n	-0.27797288
-1.712452	r p n	-0.28263563
-1.797395	s p n	-0.27797288
-1.7411104	l p n	-0.27797288
-1.5862087	m p n	-0.52918035
-1.8393252	y p n	-0.65687674
-1.3853246	<w> o n	-0.7193696
-0.94146484	a o n	-0.5624826
-1.1770475	b o n	-0.98684543
-1.2909402	h o n	-1.1899301
-1.0232298	i o n	-2.1395884
-1.2719331	n o n	-1.0007944
-1.204865	c o n	-1.8593401
-1.1239938	d o n	-1.2717788
-1.0502133	e o n	-1.0250412
-1.1665225	p o n	-1.240713
-1.1377871	o o n	-1.0688317
-1.1480571	t o n	-1.7091829
-1.216142	u o n	-0.5231488
-1.2709029	r o n	-1.4469619
-1.0228571	s o n	-1.4579933
-1.3554379	w o n	-0.6681079
-1.3291419	l o n	-1.3305068
-1.2063754	g o n	-1.096731
-1.0526309	j o n	-0.48531637
-1.2086326	v o n	-0.65957576
-1.0149237	k o n	-0.6501867
-0.5659697	æ o n	-0.60973805
-1.0649589	m o n	-1.5194584
-0.9401714	y o n	-0.75341237
-0.9658376	x o n	-0.6234102
-1.0314475	f o n	-0.8971096
-1.0132424	z o n	-0.6611451
-1.2889577	œ o n	-0.27797288
-1.3592576	<w> t n	-0.27797288
-1.5363004	a t n	-0.5242535
-1.5037745	b t n	-0.27797288
-1.5261022	h t n	-0.72097754
-1.5439041	i t n	-1.0104008
-1.412791	n t n	-0.8177355
-1.4102882	c t n	-1.0670512
-1.528271	d t n	-0.27797288
-1.6397122	e t n	-0.7660212
-1.4478687	p t n	-0.52918035
-1.7732289	o t n	-0.49050337
-1.9671634	u t n	-0.39445376
-1.4327631	r t n	-0.8675784
-1.6898631	s t n	-0.63917446
-1.392204	l t n	-0.38305232
-0.5927789	q t n	-0.27797288
-1.4243792	æ t n	-0.27797288
-1.505539	m t n	-0.27797288
-1.4232807	f t n	-0.5416559
-1.3556937	<w> u n	-1.9633558
-1.2034364	a u n	-1.0185986
-1.2289034	b u n	-0.8010321
-1.0502303	h u n	-1.0127096
-0.9638832	i u n	-0.652947
-1.1537505	n u n	-0.733708
-1.1873255	c u n	-0.7443884
-1.1434379	d u n	-0.7495122
-1.2972468	e u n	-0.66318256
-1.0508333	p u n	-0.88283724
-1.2104139	o u n	-1.6470402
-1.175823	t u n	-0.98604476
-1.2510022	u u n	-0.41383868
-1.2307578	r u n	-1.0603943
-1.1361521	s u n	-0.7440257
-0.7155456	w u n	-0.4528765
-1.0727901	l u n	-0.94115806
-1.0115446	g u n	-0.62870955
-0.9951126	j u n	-0.71608186
-1.1127975	v u n	-0.2830953
-1.1622059	k u n	-0.2807096
-1.0376053	m u n	-1.0499632
-1.1647973	y u n	-0.28107578
-1.4062469	x u n	-0.28263563
-1.1223211	f u n	-0.8798548
-1.398987	z u n	-0.27797288
-1.3848693	<w> r n	-0.27797288
-1.3673204	a r n	-1.2102968
-1.884645	h r n	-0.27797288
-1.4256258	i r n	-0.67107904
-1.3650019	e r n	-1.440304
-2.0348377	p r n	-0.27797288
-1.2991991	o r n	-1.25128
-1.3592768	u r n	-1.2112608
-1.9341807	r r n	-0.27797288
-1.8110609	w r n	-0.27797288
-1.7183442	y r n	-0.34195563
-1.4972878	<w> s n	-1.4820328
-1.6828882	a s n	-0.4017381
-1.7931232	h s n	-0.27797288
-1.5839527	i s n	-0.58717227
-1.6521398	n s n	-0.45930156
-1.9789441	d s n	-0.27797288
-1.4671417	e s n	-0.76408404
-1.6673867	o s n	-0.4017381
-1.704258	u s n	-1.9369353
-1.7480379	r s n	-0.37342635
-1.6204503	s s n	-1.4083408
-1.960906	l s n	-0.28263563
-1.8373237	k s n	-0.28107578
-1.1081004	a w n	-0.8107809
-1.5573885	e w n	-0.49699563
-1.2233286	o w n	-1.1185522
-1.650159	r w n	-0.27797288
-1.6864733	y w n	-0.27797288
-1.4174148	<w> l n	-0.27797288
-1.5423706	a l n	-0.6476386
-1.8369204	h l n	-0.27797288
-1.6327723	i l n	-0.46173084
-1.5549194	e l n	-0.62076235
-1.8869882	o l n	-0.42683753
-1.5933485	u l n	-1.3915985
-1.5068799	l l n	-0.637939
-1.8978109	y l n	-0.28263563
-1.3041914	<w> g n	-0.7755665
-1.2146621	a g n	-1.3652054
-1.1252466	i g n	-1.421425
-1.4876535	n g n	-1.1664999
-1.2143028	c g n	-0.27797288
-1.71853	d g n	-0.27797288
-1.2136861	e g n	-0.91512233
-1.2178347	o g n	-1.1876496
-1.3238378	u g n	-0.7539778
-1.27044	r g n	-0.52140516
-1.6687429	l g n	-0.27797288
-1.432308	y g n	-0.28497025
-1.1991131	<w> j n	-0.27797288
-1.8969173	a j n	-0.27797288
-1.3125517	i j n	-0.27797288
-1.3484155	<w> v n	-0.39445376
-2.2212892	a v n	-0.27797288
-1.9036654	e v n	-0.27797288
-1.8027809	o v n	-0.28263563
-0.6101878	f v n	-0.27797288
-1.1440004	<w> k n	-1.2529044
-1.8021379	a k n	-0.48861602
-1.0606625	b k n	-0.27797288
-1.8226067	i k n	-0.27797288
-1.1636646	n k n	-0.7325974
-1.3039815	c k n	-1.0548167
-1.211389	d k n	-0.27797288
-1.4568453	e k n	-0.52140516
-1.2061062	p k n	-0.27797288
-1.7935092	o k n	-0.27797288
-1.2693808	t k n	-0.27797288
-1.4265921	u k n	-0.28107578
-1.2760656	r k n	-0.43886563
-1.8122351	s k n	-0.28107578
-1.2487041	w k n	-0.27797288
-1.3217487	l k n	-0.28263563
-1.3578882	k k n	-0.27797288
-1.4725392	y k n	-0.27797288
-1.0004808	<w> q n	-0.27797288
-1.5715265	e q n	-0.27797288
-1.344077	u q n	-0.27797288
-1.0864606	b æ n	-0.27797288
-1.2510338	h æ n	-0.2861423
-1.3380942	i æ n	-0.27797288
-1.3491967	n æ n	-0.27797288
-1.1780536	c æ n	-0.27797288
-1.2545258	d æ n	-0.27797288
-1.2086762	e æ n	-0.40990898
-1.1323252	p æ n	-0.28107578
-1.2607691	t æ n	-0.27797288
-1.086883	r æ n	-0.28449607
-1.2644246	l æ n	-0.27797288
-1.3186429	m æ n	-0.27797288
-0.5484135	y æ n	-0.28263563
-0.9364461	f æ n	-0.27797288
-1.4007549	<w> m n	-0.37237713
-1.5901045	a m n	-0.59920543
-1.6831763	h m n	-0.27797288
-1.6231852	i m n	-0.59727526
-1.511157	e m n	-0.8685384
-1.5608348	o m n	-0.920474
-1.7875674	t m n	-0.27797288
-1.6502484	u m n	-0.6672997
-1.3134321	r m n	-0.58992994
-1.5088823	l m n	-0.28263563
-1.7593038	m m n	-0.27797288
-1.1937484	y m n	-0.5651226
-1.3142968	<w> y n	-0.28263563
-1.256054	a y n	-0.7427402
-1.1265416	b y n	-0.39176676
-1.0726702	h y n	-0.69727767
-1.3737174	n y n	-0.28449607
-1.113713	c y n	-0.54354095
-1.2758794	d y n	-0.81177866
-1.1191692	e y n	-0.6841918
-1.4062924	p y n	-0.280298
-1.1477852	o y n	-0.55616736
-1.3937516	t y n	-0.5482117
-1.4247577	u y n	-0.27797288
-1.2001672	r y n	-0.39487424
-1.1611295	s y n	-0.884443
-0.77633077	w y n	-0.5876801
-1.0983951	l y n	-0.62264097
-1.0334373	g y n	-0.46058732
-1.3427947	v y n	-0.27797288
-0.95703906	k y n	-0.4118694
-0.9798969	m y n	-0.28575125
-1.35641	f y n	-0.280298
-2.0728476	a x n	-0.27797288
-1.7919439	e x n	-0.27797288
-2.044301	o x n	-0.27797288
-1.351434	<w> f n	-0.27797288
-1.615556	a f n	-0.280298
-2.2065973	i f n	-0.27797288
-1.8468277	e f n	-0.280298
-1.6102092	p f n	-0.27797288
-1.9709942	o f n	-0.27797288
-1.8978333	u f n	-0.27797288
-1.5875677	l f n	-0.28107578
-1.5697197	f f n	-0.5397686
-2.1352584	a z n	-0.27797288
-1.6021459	i z n	-0.27983195
-2.0310993	o z n	-0.27797288
-1.5779684	t z n	-0.2861423
-1.9387085	u z n	-0.27797288
-0.891583	<w> œ n	-0.27797288
-1.0212543	h œ n	-0.46223354
-0.98724496	c œ n	-0.27797288
-0.52949077	p œ n	-0.27797288
-0.9488193	t œ n	-0.27797288
-1.1496744	r œ n	-0.28263563
-0.87964463	l œ n	-0.27797288
-0.958977	m œ n	-0.27797288
-0.27619758	y œ n	-0.27797288
-1.4031109	</w> <w> c	-2.6631954
-1.4194458	<w> a c	-1.522411
-1.5023683	a a c	-0.28396368
-1.0904201	b a c	-1.1160219
-1.5504463	h a c	-0.8474194
-1.29022	i a c	-0.8699023
-1.3295727	n a c	-1.0405211
-1.4166721	c a c	-0.7977617
-1.3582824	d a c	-0.849349
-1.3272084	e a c	-1.0447717
-1.3180487	p a c	-1.0053334
-1.1668001	o a c	-1.2109892
-1.3741611	t a c	-1.0309557
-1.4725876	u a c	-0.5745282
-1.3270395	r a c	-1.6352475
-1.2435198	s a c	-1.0400672
-1.702842	w a c	-0.46341664
-1.2842875	l a c	-1.3320621
-1.4780996	g a c	-0.5725577
-0.984249	j a c	-0.93777835
-1.3939141	v a c	-0.8002459
-1.5342911	k a c	-0.39176676
-1.5756322	æ a c	-0.27797288
-1.348763	m a c	-1.0959063
-1.5966713	y a c	-0.5603267
-1.3909267	x a c	-0.78743
-1.0529163	f a c	-1.170641
-1.3289909	z a c	-0.33698708
-1.4745526	<w> b c	-0.27797288
-2.3849216	a b c	-0.27797288
-2.3116086	i b c	-0.27797288
-2.0746825	e b c	-0.27797288
-2.289241	o b c	-0.27797288
-2.2272878	u b c	-0.6840823
-1.4132813	<w> h c	-0.27797288
-2.2038624	a h c	-0.27797288
-1.6625144	c h c	-0.5857846
-1.8580323	d h c	-0.27797288
-1.9752634	o h c	-0.27797288
-1.5478367	t h c	-0.40975505
-1.7371612	u h c	-0.28263563
-1.8963786	s h c	-0.39646646
-1.5396687	g h c	-0.28497025
-1.4042757	<w> i c	-0.81090236
-1.3924209	a i c	-0.6128952
-1.3284643	b i c	-0.77012753
-1.3596232	h i c	-1.1642529
-1.2550054	n i c	-1.4614557
-1.3509694	c i c	-0.6737845
-1.1750137	d i c	-1.4409281
-1.3657831	e i c	-0.6410474
-1.1920811	p i c	-1.1809584
-1.2329917	o i c	-0.7961589
-1.2701728	t i c	-1.8305445
-1.3961911	u i c	-0.62448627
-1.3144443	r i c	-1.6360861
-1.2891881	s i c	-1.0626428
-0.96126777	w i c	-1.2081425
-1.2017939	l i c	-1.4852767
-1.2975459	g i c	-1.1055286
-1.0886061	j i c	-0.39310816
-1.1928629	v i c	-1.1178087
-1.7157222	k i c	-0.832968
-1.2023555	m i c	-1.1764941
-1.8037106	y i c	-0.27797288
-1.4296443	x i c	-0.92572206
-1.2618346	f i c	-1.415365
-1.1290244	z i c	-0.3145992
-1.36983	<w> n c	-0.27952158
-1.3180097	a n c	-1.721695
-1.669991	h n c	-0.27797288
-1.3059231	i n c	-1.6589398
-1.5378947	n n c	-0.27797288
-1.3583443	e n c	-1.754536
-1.3118821	o n c	-1.3967178
-1.2197537	u n c	-1.5722897
-1.4005446	r n c	-0.43740994
-1.7144492	s n c	-0.27797288
-1.3183	w n c	-0.28340206
-1.7623323	g n c	-0.27797288
-1.154362	v n c	-0.27797288
-1.7570162	m n c	-0.27797288
-1.3984268	y n c	-0.89706886
-1.3575234	f n c	-0.27797288
-1.3644601	<w> c c	-0.28449607
-1.1929823	a c c	-1.4637477
-1.3101262	i c c	-0.8495428
-1.5933439	n c c	-0.27797288
-1.073921	c c c	-0.28262842
-1.369247	d c c	-0.33203366
-1.3139291	e c c	-1.0411012
-1.1474319	o c c	-1.126046
-0.99794644	u c c	-1.0670512
-2.0107403	s c c	-0.27797288
-1.6636373	l c c	-0.27797288
-1.3000734	g c c	-0.27797288
-1.5023257	m c c	-0.34996545
-1.2357095	f c c	-0.27797288
-0.9373464	œ c c	-0.27797288
-1.4398172	<w> d c	-0.27797288
-1.6266607	a d c	-0.45104522
-1.8136028	i d c	-0.38305232
-1.721088	n d c	-0.47295523
-2.074698	e d c	-0.34657586
-2.0684881	o d c	-0.35944328
-2.1961606	u d c	-0.27797288
-1.639741	r d c	-0.28889993
-1.6241125	l d c	-0.28340206
-1.496316	m d c	-0.7660212
-1.41623	<w> e c	-1.066113
-1.3997287	a e c	-0.55616736
-1.2616186	b e c	-0.90252817
-1.7241372	h e c	-0.732026
-1.4657164	i e c	-0.77952385
-1.4201801	n e c	-0.9126543
-1.6316671	c e c	-0.6156292
-1.4147911	d e c	-1.2614526
-1.4295477	e e c	-1.0148057
-1.2682296	p e c	-1.3093727
-1.4535002	o e c	-0.39162797
-1.4332142	t e c	-0.9251787
-1.5402231	u e c	-0.2830953
-1.3691155	r e c	-1.5789057
-1.5095586	s e c	-1.1252329
-1.654393	w e c	-0.28263563
-1.3410963	l e c	-1.2556792
-1.6375067	g e c	-0.40756398
-0.89024407	j e c	-1.4125434
-1.364469	v e c	-0.5080484
-1.6449778	k e c	-0.40834078
-1.5795245	m e c	-0.56618243
-1.7417208	y e c	-0.28263563
-1.7145257	x e c	-1.0332886
-1.3490726	f e c	-1.1706054
-1.6405567	z e c	-0.4781617
-2.0958292	a p c	-0.27797288
-1.6715173	i p c	-0.28497025
-1.9473565	e p c	-0.27797288
-1.8897938	p p c	-0.27797288
-2.297727	o p c	-0.28263563
-1.6179134	t p c	-0.27797288
-1.8243148	u p c	-0.28107578
-1.385682	<w> o c	-1.0646312
-1.8395954	a o c	-0.27797288
-1.4058918	b o c	-0.6842162
-1.532402	h o c	-0.6637757
-1.2866809	i o c	-0.67060214
-1.3335783	n o c	-0.89358544
-1.2311003	c o c	-1.1424525
-1.2996881	d o c	-0.9263139
-1.2403898	e o c	-0.46317977
-1.2907842	p o c	-0.83915645
-1.478826	o o c	-0.6383248
-1.31275	t o c	-0.95722306
-1.2866048	u o c	-0.27930003
-1.3572955	r o c	-1.2571911
-1.4081595	s o c	-0.9499186
-1.7404164	w o c	-0.28107578
-1.2180933	l o c	-1.2280957
-1.6882551	g o c	-0.45930156
-1.3761468	j o c	-0.73582596
-1.1566812	v o c	-1.041745
-1.6272354	k o c	-0.28107578
-1.4497641	æ o c	-0.27797288
-1.3635387	m o c	-0.6789638
-1.2523466	y o c	-0.28146526
-1.3281145	x o c	-0.27797288
-1.59455	f o c	-0.4863003
-1.6476532	z o c	-0.27797288
-0.9946734	œ o c	-0.27797288
-1.4068712	<w> t c	-0.9393548
-1.312612	a t c	-1.4540544
-1.7833784	h t c	-0.38305232
-1.271045	i t c	-1.3840206
-1.5172929	n t c	-0.36227655
-1.8888767	c t c	-0.27797288
-1.404208	e t c	-1.041598
-1.7212706	p t c	-0.27797288
-1.3988502	o t c	-1.2626939
-1.6129338	t t c	-0.46223354
-1.3689762	u t c	-1.0485678
-1.687732	r t c	-0.28471372
-1.6295425	s t c	-0.58726496
-1.6571071	l t c	-0.280298
-1.9791871	y t c	-0.27797288
-1.3744307	<w> u c	-0.42151302
-1.2062414	a u c	-1.036968
-1.1073806	b u c	-0.99809295
-1.5073416	h u c	-0.6897234
-1.7232337	i u c	-0.27797288
-1.2462716	n u c	-0.44414777
-1.7756906	c u c	-0.60546994
-1.0419291	d u c	-1.2501084
-1.3015307	e u c	-0.7264888
-1.3649898	p u c	-0.5043092
-1.2994834	o u c	-1.2236313
-1.4244195	t u c	-0.67665285
-1.2959611	r u c	-1.1659386
-1.266948	s u c	-1.1079495
-1.1301957	l u c	-1.0666908
-1.6796063	g u c	-0.46223354
-1.323812	j u c	-0.27983195
-1.7127215	k u c	-0.27797288
-1.7324404	q u c	-0.27797288
-1.1220981	m u c	-0.6815093
-1.4452622	y u c	-0.28263563
-1.4237283	x u c	-0.27797288
-1.5093653	f u c	-0.31841964
-1.1698811	z u c	-0.37342635
-1.3855166	<w> r c	-0.27797288
-1.329141	a r c	-1.4145463
-1.638538	h r c	-0.28263563
-1.3899492	i r c	-1.1466944
-1.4491196	e r c	-1.464863
-2.0356743	p r c	-0.27797288
-1.3608637	o r c	-1.1649863
-2.1205044	t r c	-0.27797288
-1.4783108	u r c	-0.99932325
-1.8097433	y r c	-0.2863834
-1.9958665	f r c	-0.27797288
-1.3733386	<w> s c	-1.8875461
-1.2371566	a s c	-1.3100892
-1.0883698	b s c	-0.85942054
-1.448493	h s c	-0.6840823
-1.2582009	i s c	-1.5706297
-1.342309	n s c	-1.1276081
-1.4457569	d s c	-0.48078543
-1.2599049	e s c	-1.4935932
-1.5603875	p s c	-0.28263563
-1.198323	o s c	-1.1432314
-1.1586493	t s c	-0.9607379
-1.2660675	u s c	-1.00341
-1.1933823	r s c	-0.8075747
-1.4544948	s s c	-0.28497025
-1.3294996	l s c	-0.35730526
-1.5048454	g s c	-0.27797288
-1.501114	k s c	-0.3636773
-1.1851472	æ s c	-0.3636773
-1.5818604	m s c	-0.45048153
-1.7180266	y s c	-0.28107578
-1.3290255	x s c	-0.27797288
-1.199253	f s c	-0.28889993
-0.64296484	z s c	-0.5107487
-1.8635219	a w c	-0.27913383
-2.0836961	e w c	-0.5397686
-1.7045541	o w c	-0.35730526
-1.3884873	<w> l c	-0.27797288
-1.4725482	a l c	-1.1172825
-1.4943447	i l c	-0.6777253
-2.061988	c l c	-0.27797288
-1.5872693	e l c	-0.9456915
-1.7536418	p l c	-0.28107578
-1.435007	o l c	-0.6259111
-1.4552882	u l c	-0.86430776
-1.792885	r l c	-0.28107578
-1.4911764	l l c	-0.3156028
-1.9288512	g l c	-0.27797288
-2.0524611	a g c	-0.28889993
-2.1335366	i g c	-0.28263563
-1.701948	n g c	-0.32169276
-1.839382	d g c	-0.27797288
-2.3410964	o g c	-0.27797288
-2.2109423	u g c	-0.27797288
-1.6083679	g g c	-0.27797288
-1.1441772	h j c	-0.27797288
-1.2902877	h v c	-0.27797288
-2.151284	i v c	-0.27797288
-1.4152048	t v c	-0.27797288
-1.7040374	r v c	-0.27797288
-1.836631	l v c	-0.27797288
-2.3416963	a k c	-0.27797288
-1.6335933	c k c	-0.38188025
-2.1755662	o k c	-0.28263563
-1.7140732	r k c	-0.2861423
-1.4281523	h æ c	-0.27797288
-1.5177203	n æ c	-0.27797288
-1.333211	c æ c	-0.43062407
-1.381546	e æ c	-0.27797288
-1.2856929	r æ c	-0.27983195
-1.1008343	s æ c	-0.28107578
-1.4818113	m æ c	-0.27797288
-1.4783185	<w> m c	-0.5065049
-1.8360229	a m c	-0.35191703
-1.6529176	i m c	-0.2873254
-2.1201525	e m c	-0.27797288
-2.1016302	o m c	-0.27797288
-1.8800409	u m c	-0.47711247
-1.6109458	r m c	-0.28107578
-1.8494374	m m c	-0.27797288
-1.3366865	<w> y c	-0.28449607
-1.6783736	a y c	-0.39310816
-1.772207	b y c	-0.28263563
-1.5366603	h y c	-0.27797288
-1.4785099	i y c	-0.27797288
-1.5197695	n y c	-0.44336903
-1.316088	c y c	-1.2995565
-1.2857643	d y c	-0.28396368
-1.6052232	e y c	-0.52918035
-1.422067	p y c	-0.280298
-1.4757173	o y c	-0.50812495
-1.3209041	t y c	-0.5684246
-1.3835869	r y c	-0.3156028
-1.505293	s y c	-0.77915645
-1.376563	w y c	-0.28438544
-1.4046767	l y c	-0.67358035
-1.6200616	v y c	-0.27797288
-1.7079984	k y c	-0.27797288
-1.2084004	m y c	-0.37280506
-1.2694633	<w> x c	-0.44597703
-1.7064925	a x c	-0.27797288
-1.6264788	i x c	-0.27797288
-1.0672088	c x c	-0.27797288
-1.4592972	e x c	-1.2446259
-1.6772307	o x c	-0.7660212
-1.3908587	<w> f c	-0.27797288
-2.147396	a f c	-0.27797288
-1.8280886	n f c	-0.27797288
-1.9759374	e f c	-0.27797288
-1.6947953	u f c	-0.2861423
-1.6251196	l f c	-0.36556464
-1.6984556	f f c	-0.27797288
-2.1387358	i z c	-0.28263563
-1.3026123	d z c	-0.27797288
-2.091572	e z c	-0.27797288
-1.4809893	t z c	-0.28497025
-1.9401451	u z c	-0.27797288
-1.0025736	<w> œ c	-0.27797288
-1.1522429	h œ c	-0.27797288
-1.1413608	n œ c	-0.27797288
-1.2355806	l œ c	-0.27797288
-0.7379656	f œ c	-0.27797288
-0.898671	a a </w>	-1.2888999
-1.2661816	b a </w>	-1.8873256
-1.2757274	h a </w>	-2.0882404
-1.0679996	i a </w>	-2.9927642
-1.1446973	n a </w>	-2.7679472
-1.3034843	c a </w>	-2.3811526
-1.2535468	d a </w>	-2.4105692
-1.1605992	e a </w>	-2.2946522
-1.280293	p a </w>	-1.7755666
-0.9888906	o a </w>	-1.7802616
-1.2103769	t a </w>	-2.745772
-1.0402224	u a </w>	-1.8836607
-1.2692994	r a </w>	-2.7703426
-1.2155126	s a </w>	-2.2666235
-1.3976741	w a </w>	-1.2589368
-1.3275411	l a </w>	-2.585565
-1.3210168	g a </w>	-2.0266225
-1.1258243	j a </w>	-1.2888999
-1.1573141	v a </w>	-2.059752
-1.0200558	k a </w>	-1.7849065
-0.43411565	æ a </w>	-1.226752
-1.3189354	m a </w>	-2.3368235
-1.0320792	y a </w>	-1.6378535
-0.93086046	x a </w>	-0.85317135
-1.1889675	f a </w>	-1.3799804
-0.9838324	z a </w>	-1.9016838
-0.19393687	œ a </w>	-0.9878699
-1.0028687	a b </w>	-1.7148687
-1.0642605	b b </w>	-1.1919899
-1.2261546	h b </w>	-0.28263563
-1.0436668	i b </w>	-1.4649912
-1.6787695	n b </w>	-0.28263563
-0.901755	c b </w>	-0.28263563
-1.6195734	d b </w>	-0.28889993
-1.1778668	e b </w>	-1.3558468
-1.0749558	o b </w>	-1.3680812
-1.673931	t b </w>	-0.27797288
-1.0036637	u b </w>	-1.3680812
-0.9867817	r b </w>	-1.226752
-1.455478	s b </w>	-0.41383868
-1.051635	w b </w>	-0.28263563
-1.3386389	l b </w>	-0.65687674
-1.1200122	m b </w>	-1.5899299
-1.529531	y b </w>	-0.28263563
-0.97452873	f b </w>	-0.27797288
-0.86426425	a h </w>	-2.2917857
-0.8693373	b h </w>	-0.65687674
-0.7662233	h h </w>	-0.58992994
-0.9483261	i h </w>	-0.58992994
-1.102741	n h </w>	-0.5107487
-1.2272131	c h </w>	-2.599239
-0.9288305	d h </w>	-1.0158987
-0.821845	e h </w>	-1.9936223
-1.1530807	p h </w>	-1.736058
-0.7531402	o h </w>	-1.2431425
-1.0432922	t h </w>	-2.8621583
-0.81048846	u h </w>	-0.8909599
-1.1033744	r h </w>	-0.92572206
-1.1140385	s h </w>	-2.6159182
-1.6235294	w h </w>	-0.27797288
-1.1361332	l h </w>	-0.41383868
-1.0412351	g h </w>	-2.271171
-0.945685	j h </w>	-0.27797288
-0.95799077	k h </w>	-0.8909599
-0.2952973	q h </w>	-0.27797288
-1.377223	m h </w>	-0.27797288
-1.5024056	y h </w>	-0.27797288
-1.226985	x h </w>	-0.28263563
-0.5628687	f h </w>	-0.28889993
-1.1114068	z h </w>	-0.27797288
-1.1436883	a i </w>	-2.0836203
-1.3719721	b i </w>	-1.5193489
-1.1814672	h i </w>	-1.979096
-0.5676178	i i </w>	-2.1421924
-1.2797184	n i </w>	-2.4360607
-1.2334957	c i </w>	-1.9516578
-1.4010569	d i </w>	-2.0789504
-1.0997244	e i </w>	-1.6982694
-1.2578859	p i </w>	-1.5019747
-1.1129332	o i </w>	-1.5676535
-1.2922459	t i </w>	-2.4745364
-1.0297651	u i </w>	-1.7202637
-1.313192	r i </w>	-2.4017284
-1.3498281	s i </w>	-2.0995803
-1.6351368	w i </w>	-0.58992994
-1.3249916	l i </w>	-2.354604
-1.2157081	g i </w>	-1.7462771
-1.0854362	j i </w>	-0.58992994
-1.264611	v i </w>	-1.6982694
-1.0645622	k i </w>	-1.6179587
-0.4912907	æ i </w>	-0.28263563
-1.2678198	m i </w>	-1.8648571
-1.1092482	y i </w>	-0.71486866
-1.1643089	x i </w>	-1.1542014
-1.3585092	f i </w>	-1.1128087
-1.180418	z i </w>	-1.5019747
-1.2516055	a n </w>	-3.201122
-1.0013329	b n </w>	-0.28889993
-0.8857725	h n </w>	-1.3031404
-1.2366077	i n </w>	-3.0352747
-1.0363034	n n </w>	-1.894564
-1.085156	c n </w>	-0.28263563
-0.91959214	d n </w>	-0.85317135
-1.2693679	e n </w>	-3.0838525
-1.4050705	p n </w>	-0.27797288
-1.2064785	o n </w>	-3.437811
-1.059762	t n </w>	-0.5107487
-1.1826184	u n </w>	-2.0239663
-1.1074488	r n </w>	-2.3419783
-1.297607	s n </w>	-0.28889993
-1.1612878	w n </w>	-2.0447748
-0.9666239	l n </w>	-1.226752
-1.1153088	g n </w>	-1.4245626
-0.8397873	j n </w>	-0.27797288
-0.78695714	v n </w>	-0.28263563
-1.3599954	k n </w>	-0.28263563
-1.3253087	æ n </w>	-0.27797288
-1.0322088	m n </w>	-0.8909599
-0.93888867	y n </w>	-1.7562613
-1.0050029	f n </w>	-0.28263563
-1.1731126	z n </w>	-0.27797288
-1.1585662	a c </w>	-1.9421124
-0.791531	b c </w>	-0.28263563
-1.04172	h c </w>	-0.28889993
-1.1090095	i c </w>	-2.8250375
-1.3019238	n c </w>	-1.2741767
-1.2032812	c c </w>	-0.71486866
-1.5383707	d c </w>	-0.27797288
-1.2007499	e c </w>	-1.5752066
