\data\
ngram 1=29
ngram 2=534
ngram 3=4118
ngram 4=11790
ngram 5=16294
ngram 6=16242

\1-grams:
-2.5672443	<unk>	0
0	<s>	-1.9827195
-1.3483005	</s>	0
-1.3668262	s	-0.72983587
-1.3134637	u	-0.79056954
-1.3668262	r	-0.6801044
-1.6153913	v	-0.62082076
-1.3134637	i	-0.92340827
-1.3134637	o	-0.9140311
-1.4276762	d	-0.6079355
-1.3134637	e	-0.9492013
-1.5248778	g	-0.63225806
-1.3483005	n	-0.6467612
-1.4500139	f	-0.6128177
-1.3483005	l	-0.74107456
-1.3483005	y	-0.6562671
-1.4276762	m	-0.6785047
-1.3668262	t	-0.80070573
-1.5248778	c	-0.6899723
-1.3134637	a	-0.94197536
-1.4984632	w	-0.51184666
-1.4276762	p	-0.71268886
-1.4735632	k	-0.6265643
-1.4500139	h	-0.6029636
-1.6882688	q	-0.7010779
-1.4276762	b	-0.68265545
-1.7298741	j	-0.4416805
-1.6153913	z	-0.49896085
-1.8857796	x	-0.37641734

\2-grams:
-0.9793572	s </s>	0
-1.3706437	u </s>	0
-1.3694134	r </s>	0
-1.4519777	v </s>	0
-1.2674885	i </s>	0
-1.2945482	o </s>	0
-1.1629211	d </s>	0
-1.2333527	e </s>	0
-1.2565079	g </s>	0
-1.1237295	n </s>	0
-1.3028198	f </s>	0
-1.2491707	l </s>	0
-0.83840925	y </s>	0
-1.2457147	m </s>	0
-1.104552	t </s>	0
-1.3818561	c </s>	0
-1.2723124	a </s>	0
-1.4892917	w </s>	0
-1.2620407	p </s>	0
-0.9518907	k </s>	0
-1.1267309	h </s>	0
-1.4198395	b </s>	0
-1.0047828	z </s>	0
-1.0194856	x </s>	0
-0.9752661	<s> s	-1.2702994
-1.6104951	s s	-0.39613312
-1.0937225	u s	-0.59398854
-1.4983596	r s	-0.36667544
-1.4645243	v s	-0.32026452
-1.1822262	i s	-0.6592448
-1.2302024	o s	-0.57038456
-1.3240007	d s	-0.4486943
-1.1821713	e s	-0.65695184
-1.4200807	g s	-0.47250175
-1.2706511	n s	-0.4476673
-1.5882416	f s	-0.29074064
-1.3929993	l s	-0.43623826
-1.1769425	y s	-0.34928635
-1.4705342	m s	-0.38484323
-1.1613871	t s	-0.5525001
-1.7311788	c s	-0.30215544
-1.2530352	a s	-0.6023588
-1.4970825	w s	-0.28913414
-1.3275852	p s	-0.40381777
-0.99825597	k s	-0.46292514
-1.5122157	h s	-0.30421716
-1.3340461	b s	-0.37013188
-1.6636276	<s> u	-0.9931147
-1.2551937	s u	-0.3715775
-1.0663812	r u	-0.4137008
-1.2589684	v u	-0.2929997
-1.6088768	i u	-0.52400416
-1.2251787	o u	-0.64111954
-1.2537225	d u	-0.35547948
-1.5409491	e u	-0.3729873
-1.1887887	g u	-0.3796438
-1.3045285	n u	-0.3070418
-1.0098095	f u	-0.41358593
-1.1714422	l u	-0.39775532
-1.684659	y u	-0.2796182
-1.1864474	m u	-0.35436025
-1.2182041	t u	-0.454081
-1.0585546	c u	-0.52188015
-1.3136406	a u	-0.44992468
-1.6405832	w u	-0.2796182
-1.3890877	p u	-0.357731
-1.5965062	k u	-0.2796182
-1.2348217	h u	-0.32452506
-0.13949473	q u	-0.584702
-1.041032	b u	-0.38364795
-0.6331683	j u	-0.29696757
-1.3182847	z u	-0.2796182
-1.2015663	x u	-0.30628878
-1.2721881	<s> r	-1.3453255
-1.9674311	s r	-0.2796182
-1.0501224	u r	-0.49698013
-1.4983596	r r	-0.40369466
-1.2940835	i r	-0.4212866
-1.2302024	o r	-0.6785118
-1.2124474	d r	-0.4002158
-1.1990523	e r	-0.73077184
-1.0117358	g r	-0.5892857
-1.7802664	n r	-0.30628878
-1.213942	f r	-0.3152503
-1.8417025	l r	-0.2796182
-1.4523959	y r	-0.29074064
-1.7308831	m r	-0.32026452
-1.1918592	t r	-0.6419999
-1.250539	c r	-0.42471173
-1.21382	a r	-0.7034609
-1.2189101	w r	-0.3471261
-1.0082017	p r	-0.6014097
-1.6141181	k r	-0.2954232
-1.5122157	h r	-0.30539232
-1.0065035	b r	-0.5123348
-1.4370385	x r	-0.2796182
-1.7676805	<s> v	-0.9781461
-2.0235994	u v	-0.30628878
-1.9223475	r v	-0.29451236
-1.78852	v v	-0.2796182
-1.513401	i v	-0.5481641
-1.4302764	o v	-0.4886155
-2.007329	d v	-0.2796182
-1.5444382	e v	-0.5524286
-1.6393316	n v	-0.2979698
-1.9526604	l v	-0.30421716
-2.0336456	m v	-0.2796182
-1.4530567	a v	-0.5677086
-1.3232582	q v	-0.2796182
-1.3963984	<s> i	-1.0891907
-1.1216757	s i	-0.5134754
-1.4597863	u i	-0.36730745
-1.0158869	r i	-0.6305899
-0.68607336	v i	-0.49491665
-2.0178602	i i	-0.2796182
-1.3148803	o i	-0.42760867
-1.115842	d i	-0.46957543
-1.4111412	e i	-0.39238137
-1.087805	g i	-0.36269146
-1.0365574	n i	-0.5209178
-0.96046174	f i	-0.3635268
-0.9844156	l i	-0.6273373
-1.2221143	y i	-0.5974405
-0.9577848	m i	-0.5177346
-1.0763927	t i	-0.6450741
-1.0585546	c i	-0.43283662
-1.3378989	a i	-0.47891718
-0.87430835	w i	-0.37905306
-1.0365967	p i	-0.4682777
-0.8717994	k i	-0.4781828
-1.1213316	h i	-0.40923154
-1.1331615	b i	-0.412472
-1.3437548	j i	-0.2796182
-0.75198984	z i	-0.3416192
-0.8843229	x i	-0.30131617
-1.6089191	<s> o	-0.65254545
-1.1833239	s o	-0.4328128
-1.6590644	u o	-0.29074064
-0.9496937	r o	-0.56421274
-0.8842016	v o	-0.3506837
-1.3419297	i o	-0.4998687
-1.2677177	o o	-0.4872453
-1.0434647	d o	-0.39839154
-1.4712132	e o	-0.33841258
-1.1353683	g o	-0.30132157
-1.1501946	n o	-0.4134355
-0.96046174	f o	-0.4252994
-1.0066861	l o	-0.469047
-1.4373999	y o	-0.2883277
-1.0572374	m o	-0.41562927
-1.0305098	t o	-0.4788786
-1.0585546	c o	-0.4227779
-1.7719398	a o	-0.29274878
-0.9788386	w o	-0.35202283
-1.0365967	p o	-0.44738412
-1.0969605	k o	-0.29827306
-0.8934711	h o	-0.44751352
-0.9650671	b o	-0.36376
-0.8770671	j o	-0.2965745
-1.311492	z o	-0.30628878
-1.4098539	x o	-0.2796182
-1.1772984	<s> d	-1.3602092
-1.8705481	s d	-0.30628878
-1.2335663	u d	-0.3672431
-1.5147192	r d	-0.31670117
-1.274733	i d	-0.50519764
-1.4119782	o d	-0.36394805
-1.4928243	d d	-0.2950955
-1.2396564	e d	-0.58800465
-1.5059626	n d	-0.44258422
-1.8058394	f d	-0.2796182
-1.5364776	l d	-0.38166252
-1.7346761	y d	-0.2796182
-1.9207191	m d	-0.2796182
-2.0704217	t d	-0.2796182
-1.2580578	a d	-0.56081283
-1.7117412	w d	-0.2796182
-1.9473757	p d	-0.2796182
-1.8280758	k d	-0.2796182
-1.6905493	h d	-0.2796182
-1.7251655	b d	-0.2796182
-1.3444839	<s> e	-0.85569483
-1.0938501	s e	-0.53078854
-1.3237023	u e	-0.37154466
-0.97065675	r e	-0.62282866
-0.72778636	v e	-0.5576984
-1.2187362	i e	-0.6144517
-1.498066	o e	-0.3029282
-1.0781473	d e	-0.5146132
-1.3839587	e e	-0.5164415
-1.0449404	g e	-0.5432375
-0.98923844	n e	-0.55749
-0.8759501	f e	-0.35123658
-0.92373234	l e	-0.70044005
-1.0042515	y e	-0.41253608
-0.85299265	m e	-0.63522494
-1.0763927	t e	-0.6389864
-1.0585546	c e	-0.502414
-1.653964	a e	-0.29844514
-0.87430835	w e	-0.39229053
-1.0034102	p e	-0.49319032
-0.8717994	k e	-0.44276989
-0.9240744	h e	-0.48411852
-0.9650671	b e	-0.44332623
-0.7382164	j e	-0.33560246
-0.8199487	z e	-0.29603055
-1.0123932	x e	-0.30628878
-1.5336105	<s> g	-0.940324
-1.9233758	s g	-0.2796182
-1.3523864	u g	-0.41878024
-1.5375372	r g	-0.37754953
-1.3637896	i g	-0.45462057
-1.4223397	o g	-0.38023323
-1.6315703	d g	-0.29074064
-1.4353647	e g	-0.38464728
-1.4564924	g g	-0.35817844
-1.458507	n g	-0.3740995
-1.482846	l g	-0.3065241
-1.9616097	y g	-0.2796182
-1.9660325	t g	-0.30628878
-1.3092088	a g	-0.5238225
-1.8153929	p g	-0.30628878
-1.9109883	h g	-0.2796182
-1.6453627	<s> n	-0.9870419
-1.6043599	s n	-0.3023105
-1.1666828	u n	-0.43825006
-1.6665206	r n	-0.35710835
-1.6735504	v n	-0.2796182
-1.1615287	i n	-0.7434485
-1.2085693	o n	-0.5966749
-1.5677899	d n	-0.2964105
-1.2333527	e n	-0.73679477
-1.2565079	g n	-0.3691022
-1.4182541	n n	-0.40304548
-1.7578537	f n	-0.2796182
-1.8315681	l n	-0.32026452
-1.2281417	y n	-0.30417803
-1.3793002	m n	-0.34026983
-1.5653874	t n	-0.53944856
-1.8752295	c n	-0.2796182
-1.1940094	a n	-0.75777805
-1.4949838	w n	-0.30237693
-1.7451022	p n	-0.32026452
-1.606286	k n	-0.2796182
-1.3989342	h n	-0.2796182
-1.2873067	q n	-0.2796182
-1.8496517	b n	-0.2796182
-1.3274896	<s> f	-1.2677379
-1.8819412	s f	-0.299466
-1.5480256	u f	-0.53944856
-1.8445184	r f	-0.29586175
-1.45609	i f	-0.39067903
-1.7199911	o f	-0.38149172
-1.754643	d f	-0.2796182
-1.6518645	e f	-0.3023105
-1.719752	g f	-0.32026452
-1.5118836	n f	-0.35328186
-1.3232076	f f	-0.3782924
-1.7358303	l f	-0.29721543
-1.9351621	m f	-0.2796182
-1.6767837	t f	-0.31182525
-1.9424742	c f	-0.2796182
-1.6843328	a f	-0.3471261
-1.9615664	p f	-0.2796182
-1.8412069	k f	-0.2796182
-1.7006152	h f	-0.2796182
-1.4619198	<s> l	-1.2260865
-1.3480637	s l	-0.36357623
-1.0698258	u l	-0.49585843
-1.4930406	r l	-0.34505352
-1.6735504	v l	-0.2796182
-1.1615287	i l	-0.616788
-1.2494345	o l	-0.5288265
-1.2609782	d l	-0.39245132
-1.180783	e l	-0.6978178
-1.1946874	g l	-0.42812383
-1.4830539	n l	-0.30628878
-1.2107079	f l	-0.37013188
-1.5166284	l l	-0.4183728
-1.1263199	y l	-0.30000257
-1.7167492	m l	-0.2964105
-1.2224789	t l	-0.47927636
-1.1451819	c l	-0.42709416
-1.2123017	a l	-0.6554991
-1.4892917	w l	-0.2954232
-1.1158037	p l	-0.57442963
-1.4482149	k l	-0.30421716
-1.2418466	h l	-0.30817378
-1.1930069	b l	-0.4661364
-1.3291495	z l	-0.2796182
-2.2880402	<s> y	-0.5086556
-1.399376	s y	-0.33320725
-1.8925345	u y	-0.2796182
-1.1600782	r y	-0.44973937
-1.6735504	v y	-0.2796182
-2.0385633	i y	-0.2796182
-1.5891916	o y	-0.37163308
-1.2609782	d y	-0.42080045
-1.4766583	e y	-0.49832976
-1.523255	g y	-0.2954232
-1.4830539	n y	-0.33798638
-1.5864087	f y	-0.30628878
-1.0333371	l y	-0.4800036
-1.465525	m y	-0.29586175
-1.2224789	t y	-0.46909094
-1.3818561	c y	-0.35685527
-1.424964	a y	-0.4166115
-1.3307027	w y	-0.2954232
-1.484144	p y	-0.2929997
-1.1659853	k y	-0.49711967
-1.3989342	h y	-0.2957051
-1.2562999	b y	-0.41567934
-1.3221859	z y	-0.30628878
-1.2125796	x y	-0.30628878
-1.2746428	<s> m	-1.2788649
-1.4753103	s m	-0.3337213
-1.2030227	u m	-0.4638849
-1.6992533	r m	-0.32209247
-1.3265095	i m	-0.5513064
-1.3537605	o m	-0.50410223
-1.5985104	d m	-0.30061656
-1.3710806	e m	-0.55845064
-1.4353135	g m	-0.37218094
-1.685931	n m	-0.3093087
-1.6217141	l m	-0.2964105
-1.1851104	y m	-0.3064737
-1.3214585	m m	-0.41561815
-1.5129979	t m	-0.45376527
-1.7644423	c m	-0.2796182
-1.3766704	a m	-0.5586338
-1.5274609	w m	-0.2796182
-1.9473757	p m	-0.2796182
-1.5324789	h m	-0.29274878
-1.9002769	b m	-0.2796182
-1.2944493	<s> t	-1.1743183
-1.1277323	s t	-0.62277853
-1.2941184	u t	-0.42371503
-1.5775506	r t	-0.35267866
-1.2024107	i t	-0.6750595
-1.2965058	o t	-0.48494825
-1.7067182	d t	-0.2796182
-1.23492	e t	-0.7291538
-1.8319998	g t	-0.2796182
-1.3661205	n t	-0.44195494
-1.4251246	f t	-0.30628878
-1.5215062	l t	-0.32864708
-1.2931871	y t	-0.30490664
-1.8800659	m t	-0.2796182
-1.6529917	t t	-0.40304548
-1.3129566	c t	-0.45693463
-1.21382	a t	-0.6689258
-1.6747065	w t	-0.2796182
-1.3275852	p t	-0.4468847
-1.6141181	k t	-0.2796182
-1.5122157	h t	-0.28929123
-1.6990585	b t	-0.2796182
-1.0230757	x t	-0.2908485
-1.0413489	<s> c	-1.4422603
-1.2833519	s c	-0.58199614
-1.2762634	u c	-0.40917584
-1.6250075	r c	-0.30497718
-1.2133707	i c	-0.6602092
-1.3915548	o c	-0.44580448
-1.7902687	d c	-0.2796182
-1.3544186	e c	-0.48899984
-1.6159858	n c	-0.37383357
-1.9146581	l c	-0.2954232
-1.3957088	y c	-0.30974078
-1.7943372	m c	-0.2796182
-1.6049845	t c	-0.47250175
-1.5096005	c c	-0.29908243
-1.3092088	a c	-0.5733012
-1.5079889	x c	-0.2796182
-1.1992795	<s> a	-0.9922133
-1.1833239	s a	-0.41430914
-1.4597863	u a	-0.39332053
-1.0158869	r a	-0.66395175
-0.82557845	v a	-0.3933567
-1.3143365	i a	-0.61386937
-1.498066	o a	-0.35774323
-1.0434647	d a	-0.33804744
-1.289597	e a	-0.59717184
-1.005929	g a	-0.39336252
-1.0896698	n a	-0.47018844
-0.96046174	f a	-0.3479557
-1.0066861	l a	-0.58323467
-1.1689252	y a	-0.32152027
-0.87691665	m a	-0.5388167
-1.1558247	t a	-0.5495366
-1.0976278	c a	-0.38107276
-2.153825	a a	-0.2796182
-0.87430835	w a	-0.40296042
-1.0725305	p a	-0.4140299
-1.0416261	k a	-0.32378113
-0.9240744	h a	-0.40447888
-0.9315485	b a	-0.43999943
-0.8770671	j a	-0.2879332
-0.8199487	z a	-0.299466
-1.1948164	x a	-0.299466
-1.526182	<s> w	-1.0704293
-1.9056652	s w	-0.31182525
-1.8689439	r w	-0.2964105
-1.3605287	o w	-0.5127512
-1.5119573	d w	-0.30974078
-1.4962724	e w	-0.37681141
-1.5699733	g w	-0.299466
-1.852279	n w	-0.2796182
-2.0637205	l w	-0.2796182
-1.9454848	y w	-0.2796182
-1.9655743	m w	-0.2796182
-1.8018177	t w	-0.299466
-1.6402402	a w	-0.3506837
-1.7522311	w w	-0.2796182
-1.6708171	k w	-0.32026452
-1.7156394	h w	-0.30628878
-1.4971155	x w	-0.2796182
-1.1139691	<s> p	-1.3111074
-1.2718686	s p	-0.40859145
-1.3019677	u p	-0.30169365
-1.597258	r p	-0.3064737
-1.4533259	i p	-0.39771184
-1.3537605	o p	-0.45888168
-1.7433889	d p	-0.2796182
-1.455521	e p	-0.35196117
-1.819236	n p	-0.2796182
-1.7278684	l p	-0.29274878
-1.4679282	y p	-0.2908485
-1.3214585	m p	-0.36398554
-2.0704217	t p	-0.2796182
-1.9281665	c p	-0.2796182
-1.4349705	a p	-0.4390387
-1.7117412	w p	-0.2796182
-1.5038024	p p	-0.3829853
-1.8494434	h p	-0.2796182
-1.9002769	b p	-0.2796182
-1.4660391	x p	-0.2796182
-1.8765627	<s> k	-0.6959098
-1.5563469	s k	-0.34544745
-1.9590946	u k	-0.2796182
-1.7165939	r k	-0.31111562
-1.7024908	i k	-0.33687097
-1.6129254	o k	-0.36446565
-1.9157087	d k	-0.2796182
-1.9188061	e k	-0.29074064
-1.9017183	g k	-0.2796182
-1.5178866	n k	-0.34991685
-1.7439408	l k	-0.2883277
-1.7603455	y k	-0.2796182
-1.9501021	m k	-0.2796182
-1.4065486	c k	-0.38197136
-1.4728326	a k	-0.5168736
-1.7383108	w k	-0.2796182
-1.801146	p k	-0.2796182
-1.7052234	h k	-0.2796182
-1.4481001	<s> h	-1.1895034
-1.2356462	s h	-0.5270231
-1.8445184	r h	-0.2796182
-2.0951	i h	-0.2796182
-1.7884197	o h	-0.30628878
-1.749608	d h	-0.32026452
-1.6518645	e h	-0.34756303
-1.349308	g h	-0.29967836
-1.5118836	n h	-0.30352885
-2.0308082	l h	-0.2796182
-1.7692286	m h	-0.2796182
-1.1999408	t h	-0.5226513
-0.969536	c h	-0.5472553
-1.5436169	a h	-0.38865355
-1.5297229	w h	-0.30628878
-1.0857673	p h	-0.49962702
-1.6531701	k h	-0.2796182
-1.7342286	b h	-0.30628878
-1.4761528	x h	-0.2796182
-2.4058719	<s> q	-1.0554831
-1.6917969	s q	-0.52400416
-2.1416156	r q	-0.2796182
-2.0306022	i q	-0.42709416
-2.2192686	o q	-0.32026452
-1.8570257	d q	-0.32026452
-1.9754231	e q	-0.47250175
-1.9386531	n q	-0.30215544
-2.1807334	l q	-0.2796182
-2.0779324	c q	-0.2796182
-2.2380219	a q	-0.30628878
-1.2552432	<s> b	-1.318518
-1.7334718	s b	-0.30237693
-1.3831935	u b	-0.31853738
-1.597258	r b	-0.29844514
-1.4533259	i b	-0.37116396
-1.5588299	o b	-0.31838754
-1.5985104	d b	-0.299466
-1.6019198	e b	-0.29793558
-1.8724748	g b	-0.2796182
-1.8147818	n b	-0.30421716
-1.8058394	f b	-0.2796182
-1.4652567	l b	-0.34026983
-1.4679282	y b	-0.30628878
-1.3959496	m b	-0.36054617
-1.7780206	t b	-0.2964105
-1.9281665	c b	-0.2796182
-1.2793292	a b	-0.5590317
-1.7117412	w b	-0.2796182
-1.8494434	h b	-0.2796182
-1.4379748	b b	-0.30318508
-1.9418628	<s> j	-0.86767757
-2.0738914	u j	-0.2796182
-2.411381	i j	-0.2796182
-2.2360113	o j	-0.2796182
-1.8717031	d j	-0.2796182
-2.2769427	e j	-0.2796182
-1.9610416	n j	-0.2796182
-2.4445632	a j	-0.2796182
-2.023578	h j	-0.2796182
-1.8182273	b j	-0.30215544
-2.812649	<s> z	-0.30061656
-2.1372492	s z	-0.2796182
-1.6529226	u z	-0.29074064
-1.513401	i z	-0.60087836
-1.9161432	o z	-0.31182525
-2.007329	d z	-0.2796182
-1.9584799	e z	-0.2929997
-1.9079131	n z	-0.299466
-2.0139215	y z	-0.2796182
-2.009371	t z	-0.30628878
-2.0399063	c z	-0.2796182
-1.8500328	a z	-0.30354682
-1.3943121	z z	-0.2954232
-3.5685835	<s> x	-0.2796182
-1.690004	u x	-0.29074064
-1.8417513	i x	-0.28913414
-1.8684418	o x	-0.40976104
-1.762984	e x	-0.306441
-2.2313879	n x	-0.2796182
-1.8102677	a x	-0.30765885

\3-grams:
-1.042707	s s </s>	0
-0.62225854	u s </s>	0
-0.69813573	r s </s>	0
-1.0309931	i s </s>	0
-0.94739956	o s </s>	0
-0.44239855	d s </s>	0
-0.62293863	e s </s>	0
-0.20809181	g s </s>	0
-0.7199924	n s </s>	0
-0.51664364	f s </s>	0
-0.34886712	l s </s>	0
-0.52679336	y s </s>	0
-0.40492326	m s </s>	0
-0.2560356	t s </s>	0
-0.25680992	c s </s>	0
-0.7479111	a s </s>	0
-0.57068336	w s </s>	0
-0.43998677	p s </s>	0
-0.35397866	k s </s>	0
-0.518991	h s </s>	0
-0.65058714	b s </s>	0
-1.2141563	s u </s>	0
-1.5482297	r u </s>	0
-1.6007459	o u </s>	0
-1.3524269	e u </s>	0
-1.4009242	l u </s>	0
-0.85060704	y u </s>	0
-1.33011	m u </s>	0
-1.5788637	c u </s>	0
-1.1923869	a u </s>	0
-1.2364575	j u </s>	0
-1.07487	u r </s>	0
-1.4360232	r r </s>	0
-1.1510465	i r </s>	0
-1.0055423	o r </s>	0
-1.3769288	d r </s>	0
-0.92763495	e r </s>	0
-1.3591557	a r </s>	0
-1.5032296	b r </s>	0
-1.1507343	r v </s>	0
-1.5137508	i v </s>	0
-0.91962504	o v </s>	0
-1.4486042	s i </s>	0
-1.3392192	u i </s>	0
-1.6693327	r i </s>	0
-1.5722437	v i </s>	0
-0.57554686	i i </s>	0
-1.1727893	o i </s>	0
-1.2749335	d i </s>	0
-1.4294796	e i </s>	0
-1.2805547	g i </s>	0
-1.1633693	n i </s>	0
-1.4122728	f i </s>	0
-1.4497386	l i </s>	0
-1.4674889	m i </s>	0
-1.7862592	t i </s>	0
-1.5300399	a i </s>	0
-1.5235441	p i </s>	0
-1.2872115	k i </s>	0
-1.1539916	x i </s>	0
-1.3004637	s o </s>	0
-0.97837186	u o </s>	0
-1.443679	r o </s>	0
-0.8710284	i o </s>	0
-1.4498086	o o </s>	0
-0.87655115	d o </s>	0
-1.3481243	e o </s>	0
-1.0554154	g o </s>	0
-1.393021	n o </s>	0
-1.5091615	l o </s>	0
-1.1030498	y o </s>	0
-1.5188466	m o </s>	0
-1.1552863	t o </s>	0
-1.5713916	c o </s>	0
-0.69950986	a o </s>	0
-1.2719476	k o </s>	0
-1.434842	h o </s>	0
-1.3403225	b o </s>	0
-1.0798192	u d </s>	0
-1.0186179	r d </s>	0
-0.866025	i d </s>	0
-0.9461983	o d </s>	0
-1.146605	d d </s>	0
-0.49583834	e d </s>	0
-0.9957913	n d </s>	0
-0.8466415	l d </s>	0
-0.7114383	y d </s>	0
-1.2173637	a d </s>	0
-0.976772	s e </s>	0
-0.63910544	u e </s>	0
-1.1165981	r e </s>	0
-0.9950006	v e </s>	0
-0.9265839	i e </s>	0
-1.0901526	o e </s>	0
-1.0899029	d e </s>	0
-0.9838471	e e </s>	0
-0.9257307	g e </s>	0
-1.0532923	n e </s>	0
-1.4105333	f e </s>	0
-0.9605818	l e </s>	0
-0.9544275	y e </s>	0
-1.0608854	m e </s>	0
-1.0605574	t e </s>	0
-1.0114824	c e </s>	0
-0.93429434	a e </s>	0
-1.3844573	w e </s>	0
-1.117986	p e </s>	0
-0.9549766	k e </s>	0
-1.3736336	h e </s>	0
-1.5034359	b e </s>	0
-0.8379219	z e </s>	0
-1.0905153	r g </s>	0
-1.3478045	i g </s>	0
-1.1883303	o g </s>	0
-1.2638931	e g </s>	0
-1.2523369	g g </s>	0
-0.9459516	n g </s>	0
-1.0758986	a g </s>	0
-1.07075	s n </s>	0
-1.2764904	u n </s>	0
-0.8479756	r n </s>	0
-0.8692409	i n </s>	0
-0.76310855	o n </s>	0
-0.80496025	d n </s>	0
-0.97844756	e n </s>	0
-0.87269926	n n </s>	0
-0.9296349	y n </s>	0
-0.54554534	m n </s>	0
-0.9146557	a n </s>	0
-0.9775435	w n </s>	0
-1.0050392	h n </s>	0
-0.28883755	q n </s>	0
-1.1082222	r f </s>	0
-1.2200611	o f </s>	0
-0.9999219	e f </s>	0
-1.3118929	f f </s>	0
-0.8506528	l f </s>	0
-1.0878074	u l </s>	0
-1.124145	r l </s>	0
-1.1923219	i l </s>	0
-1.4252764	o l </s>	0
-1.0553646	d l </s>	0
-0.7749412	e l </s>	0
-1.2141242	l l </s>	0
-1.009695	y l </s>	0
-1.3461941	t l </s>	0
-0.9386687	a l </s>	0
-0.90839267	w l </s>	0
-0.5850878	s y </s>	0
-0.36987802	r y </s>	0
-0.59472233	o y </s>	0
-0.36615026	d y </s>	0
-0.28815404	e y </s>	0
-0.5495288	g y </s>	0
-0.56023043	n y </s>	0
-0.37733182	f y </s>	0
-0.36962932	l y </s>	0
-0.6188785	m y </s>	0
-0.3161853	t y </s>	0
-0.42392054	c y </s>	0
-0.6867295	a y </s>	0
-0.7735911	w y </s>	0
-0.42635417	p y </s>	0
-0.21526362	k y </s>	0
-0.74267626	h y </s>	0
-0.3065435	b y </s>	0
-0.37733182	z y </s>	0
-1.0569569	s m </s>	0
-0.7764212	u m </s>	0
-1.0341506	r m </s>	0
-1.3129073	i m </s>	0
-1.1868639	o m </s>	0
-1.3215258	e m </s>	0
-0.9431918	a m </s>	0
-0.96631753	h m </s>	0
-1.0945674	s t </s>	0
-1.2540423	u t </s>	0
-0.97291565	r t </s>	0
-1.098241	i t </s>	0
-0.9429239	o t </s>	0
-0.69998693	d t </s>	0
-0.8712857	e t </s>	0
-0.88348395	n t </s>	0
-0.81035805	f t </s>	0
-1.0741487	l t </s>	0
-1.0376263	y t </s>	0
-0.8683723	t t </s>	0
-1.1365561	c t </s>	0
-1.2634192	a t </s>	0
-0.5549347	w t </s>	0
-0.8919561	p t </s>	0
-0.8518976	h t </s>	0
-1.4715688	u c </s>	0
-0.9378869	i c </s>	0
-1.551944	o c </s>	0
-1.61956	e c </s>	0
-1.0986298	y c </s>	0
-1.3146245	a c </s>	0
-1.2054548	s a </s>	0
-1.2656285	r a </s>	0
-1.4586596	v a </s>	0
-0.7829076	i a </s>	0
-1.3723421	o a </s>	0
-1.0675412	d a </s>	0
-1.3738043	e a </s>	0
-1.2576742	g a </s>	0
-1.0790101	n a </s>	0
-1.3249882	l a </s>	0
-1.1098907	y a </s>	0
-0.9857389	m a </s>	0
-1.3186038	t a </s>	0
-1.4747412	c a </s>	0
-1.4260654	w a </s>	0
-1.5159808	p a </s>	0
-0.8722143	k a </s>	0
-1.2334439	h a </s>	0
-1.315369	b a </s>	0
-1.0647612	z a </s>	0
-0.93111557	o w </s>	0
-0.92834026	e w </s>	0
-1.065155	a w </s>	0
-1.0997825	u p </s>	0
-0.99340296	r p </s>	0
-1.2935275	i p </s>	0
-0.95495045	o p </s>	0
-1.200911	e p </s>	0
-0.9706302	l p </s>	0
-1.1416427	m p </s>	0
-1.2959434	a p </s>	0
-1.0458165	s k </s>	0
-0.66369283	u k </s>	0
-0.74497247	r k </s>	0
-0.8589388	i k </s>	0
-0.94510394	o k </s>	0
-0.5116702	e k </s>	0
-0.74065983	n k </s>	0
-0.9575704	l k </s>	0
-0.7768081	c k </s>	0
-0.7982763	a k </s>	0
-0.66369283	h k </s>	0
-0.8611333	s h </s>	0
-0.872315	r h </s>	0
-0.676164	o h </s>	0
-1.0203408	g h </s>	0
-1.0463408	n h </s>	0
-0.9119006	t h </s>	0
-0.90510803	c h </s>	0
-0.48045945	a h </s>	0
-1.2576241	p h </s>	0
-1.4288226	u b </s>	0
-1.0738627	e b </s>	0
-1.4292048	m b </s>	0
-1.53567	a b </s>	0
-1.2329683	b b </s>	0
-0.27845109	s z </s>	0
-0.8868597	u z </s>	0
-0.4545052	e z </s>	0
-0.40161288	t z </s>	0
-0.27845109	c z </s>	0
-0.5234591	u x </s>	0
-0.57843876	i x </s>	0
-0.96422535	e x </s>	0
-0.8479271	a x </s>	0
-1.3126186	u s s	-0.21721329
-1.1220342	i s s	-0.2637489
-0.97202575	o s s	-0.2515327
-0.89435315	e s s	-0.40214533
-1.1352156	a s s	-0.28298044
-1.6005812	<s> u s	-0.1804965
-1.1933973	s u s	-0.1804965
-0.77292633	r u s	-0.21358545
-0.8664839	v u s	-0.1804965
-0.5614538	i u s	-0.3684763
-0.7267922	o u s	-0.3430996
-1.0435514	d u s	-0.21935394
-0.9292564	e u s	-0.20601141
-1.0164435	g u s	-0.19949077
-1.0366521	n u s	-0.21935394
-1.2784057	f u s	-0.1804965
-0.8855227	l u s	-0.21935394
-1.0131824	m u s	-0.1804965
-1.0177323	t u s	-0.22689888
-0.81555045	c u s	-0.22311
-0.9321463	a u s	-0.19124845
-1.1995682	h u s	-0.1804965
-1.1513445	b u s	-0.1804965
-0.8058838	j u s	-0.20601141
-1.1684504	u r s	-0.2780514
-1.490659	r r s	-0.1804965
-1.3494445	i r s	-0.1804965
-1.0560879	o r s	-0.38382924
-0.935199	e r s	-0.5782234
-1.264521	a r s	-0.25563893
-1.2479422	o v s	-0.21935394
-1.5435367	e v s	-0.1804965
-1.486129	<s> i s	-0.2243693
-1.1125951	s i s	-0.31048438
-1.108484	u i s	-0.1804965
-0.98440564	r i s	-0.24053939
-0.88236916	v i s	-0.30477908
-0.8727243	o i s	-0.20601141
-1.071356	d i s	-0.1985672
-0.96898884	e i s	-0.1804965
-1.1531059	g i s	-0.19949077
-0.97036	n i s	-0.31732994
-1.1136609	f i s	-0.22689888
-1.1835	l i s	-0.25233144
-0.8854233	m i s	-0.34978962
-1.0961807	t i s	-0.34844267
-1.049882	c i s	-0.20640224
-1.232843	a i s	-0.22689888
-0.8940929	w i s	-0.21129934
-1.228844	p i s	-0.20601141
-1.1526165	k i s	-0.19949077
-1.3326938	h i s	-0.19949077
-1.3899652	b i s	-0.1804965
-1.1191779	x i s	-0.1804965
-1.4214716	<s> o s	-0.1804965
-1.5000865	s o s	-0.1804965
-1.0837562	r o s	-0.24566273
-1.5070896	i o s	-0.1804965
-0.9954393	o o s	-0.19949077
-1.2138497	d o s	-0.1804965
-1.3135425	e o s	-0.1804965
-1.0358797	g o s	-0.1804965
-1.1378971	n o s	-0.21358545
-1.1832473	f o s	-0.20601141
-1.1798587	l o s	-0.21782385
-1.0806614	y o s	-0.1804965
-1.2457874	m o s	-0.1804965
-1.4516392	t o s	-0.1804965
-1.332638	c o s	-0.1804965
-0.96210825	a o s	-0.1804965
-0.84369963	p o s	-0.30456057
-1.0410168	k o s	-0.1804965
-1.3200439	h o s	-0.19949077
-1.440574	b o s	-0.1804965
-1.1962612	j o s	-0.1804965
-0.95946354	u d s	-0.3684763
-1.1782019	r d s	-0.1804965
-1.4370615	i d s	-0.20601141
-1.4639225	e d s	-0.20601141
-1.030175	n d s	-0.25500464
-1.0552588	l d s	-0.22689888
-1.2614682	a d s	-0.3684763
-1.2199625	<s> e s	-0.31781536
-1.0751133	s e s	-0.5279289
-1.0163648	u e s	-0.2243693
-0.96815616	r e s	-0.28080094
-0.9863987	v e s	-0.40299013
-0.7220754	i e s	-0.6695063
-1.0711297	o e s	-0.21935394
-0.90035605	d e s	-0.30477908
-0.9746343	e e s	-0.37982997
-0.9181398	g e s	-0.23395179
-0.7740337	n e s	-0.47791272
-1.1553559	f e s	-0.24353758
-0.9015275	l e s	-0.5789411
-1.2728477	y e s	-0.1804965
-1.1233296	m e s	-0.26413116
-1.1608052	t e s	-0.3430963
-0.93095064	c e s	-0.3888538
-0.80027324	a e s	-0.20601141
-1.1852078	w e s	-0.21935394
-1.3394086	p e s	-0.24353758
-1.2056651	k e s	-0.21721329
-1.1222318	h e s	-0.20628497
-1.1072445	b e s	-0.19562489
-1.1336412	j e s	-0.1804965
-1.156342	z e s	-0.1804965
-0.68537146	x e s	-0.21935394
-1.6033963	i g s	-0.1804965
-1.521966	e g s	-0.1804965
-1.3159516	g g s	-0.1804965
-1.0954746	n g s	-0.32380888
-1.6880714	a g s	-0.1804965
-1.346427	u n s	-0.19124845
-1.0508554	r n s	-0.24353758
-1.1210203	i n s	-0.41424
-1.235332	o n s	-0.2342961
-1.0692667	e n s	-0.36330298
-1.38744	n n s	-0.1804965
-1.1428595	m n s	-0.1804965
-1.1052916	a n s	-0.35191467
-1.0243521	w n s	-0.1804965
-1.0579536	h n s	-0.1804965
-1.4364872	e f s	-0.1804965
-1.4119928	f f s	-0.1804965
-1.1819996	l f s	-0.1804965
-1.3951291	u l s	-0.19949077
-1.3884358	r l s	-0.1804965
-1.3085064	i l s	-0.46538633
-1.5773642	o l s	-0.21935394
-1.4761916	e l s	-0.3684763
-1.2595177	l l s	-0.22689888
-1.2846196	y l s	-0.1804965
-1.2359346	a l s	-0.6115144
-1.1712751	s y s	-0.1804965
-0.813518	u y s	-0.1804965
-1.3246008	r y s	-0.1804965
-0.96444213	o y s	-0.21935394
-0.9299703	n y s	-0.1804965
-1.4386864	l y s	-0.1804965
-1.2656695	t y s	-0.1804965
-0.96274406	a y s	-0.3684763
-1.1701314	h y s	-0.1804965
-1.1131353	s m s	-0.21935394
-1.3390476	u m s	-0.20601141
-1.2112509	r m s	-0.21935394
-1.2377383	o m s	-0.22689888
-1.267103	a m s	-0.21087418
-2.161923	<s> t s	-0.1804965
-1.1908726	s t s	-0.40299013
-1.4217763	u t s	-0.1804965
-1.2187889	r t s	-0.21935394
-1.0583576	i t s	-0.5790814
-1.4964085	o t s	-0.1804965
-1.0935829	e t s	-0.6695063
-1.0870731	n t s	-0.3684763
-0.82393485	f t s	-0.21935394
-0.83514285	l t s	-0.3684763
-1.0001893	c t s	-0.3684763
-1.1992192	a t s	-0.3128832
-1.1779766	p t s	-0.21935394
-1.1734413	h t s	-0.1804965
-0.93799865	b t s	-0.1804965
-1.3200334	i c s	-0.46538633
-1.6442138	n c s	-0.1804965
-1.6875598	a c s	-0.21935394
-1.0931253	<s> a s	-0.37426388
-1.1531932	r a s	-0.23930758
-1.2877278	v a s	-0.1804965
-1.2343441	i a s	-0.22689888
-0.90427846	o a s	-0.3684763
-1.2916908	d a s	-0.1804965
-0.9983954	e a s	-0.28249353
-1.4215032	g a s	-0.1804965
-1.156801	n a s	-0.1930666
-1.3633065	f a s	-0.1804965
-1.1739447	l a s	-0.2591314
-1.297819	y a s	-0.1804965
-1.1134396	m a s	-0.19562489
-1.5304241	t a s	-0.1804965
-1.0817713	c a s	-0.20227334
-1.2361461	w a s	-0.19562489
-1.2769101	p a s	-0.1930666
-1.1435245	k a s	-0.20601141
-1.4250989	h a s	-0.1804965
-1.4754457	b a s	-0.1804965
-1.0586708	z a s	-0.1804965
-1.0305754	o w s	-0.29639453
-1.2453383	e w s	-0.20601141
-1.1946335	a w s	-0.1804965
-2.1523113	<s> p s	-0.20601141
-1.4444153	s p s	-0.1804965
-1.1212062	u p s	-0.1804965
-1.0536662	i p s	-0.21129934
-1.4243172	o p s	-0.1804965
-1.4145683	e p s	-0.1804965
-1.2122082	a p s	-0.19949077
-1.5397948	<s> k s	-0.1804965
-0.75852245	r k s	-0.20601141
-1.066586	i k s	-0.1804965
-0.964224	o k s	-0.20601141
-0.88430095	e k s	-0.1804965
-1.001007	n k s	-0.21935394
-0.98113704	l k s	-0.1804965
-0.89277005	c k s	-0.27782094
-1.0744293	a k s	-0.20601141
-0.6757548	w k s	-0.1804965
-1.3788787	g h s	-0.1804965
-1.549781	t h s	-0.1804965
-1.597207	c h s	-0.1804965
-1.6176807	p h s	-0.1804965
-1.0840216	u b s	-0.19562489
-1.2015626	r b s	-0.1804965
-1.1698993	o b s	-0.1804965
-1.2756729	e b s	-0.1804965
-1.3888813	m b s	-0.1804965
-1.6722559	a b s	-0.1804965
-0.93358827	<s> s u	-0.533364
-1.2520099	s s u	-0.1804965
-1.6536806	u s u	-0.1804965
-1.3951765	r s u	-0.1804965
-1.6589956	i s u	-0.1804965
-1.5087285	o s u	-0.1804965
-1.6130782	e s u	-0.1804965
-1.296596	n s u	-0.1804965
-1.4055282	t s u	-0.1804965
-1.3524508	a s u	-0.19949077
-1.3115089	k s u	-0.1804965
-1.4204022	<s> r u	-0.1973388
-0.6918084	s r u	-0.1804965
-1.390343	u r u	-0.21935394
-1.1115382	r r u	-0.20601141
-1.3680103	i r u	-0.1804965
-1.6565782	o r u	-0.1804965
-1.2281421	d r u	-0.1804965
-1.7296644	e r u	-0.1804965
-1.236021	g r u	-0.19949077
-0.86525524	f r u	-0.1804965
-1.3208523	t r u	-0.19949077
-1.0863976	c r u	-0.1804965
-1.5746471	a r u	-0.1804965
-1.4006898	p r u	-0.1804965
-0.85881126	k r u	-0.1804965
-1.1771238	b r u	-0.1804965
-1.6885121	<s> v u	-0.1804965
-1.4630923	e v u	-0.1804965
-1.1493874	n v u	-0.1804965
-1.4793386	a v u	-0.1804965
-1.6829523	s i u	-0.1804965
-1.7352027	r i u	-0.22689888
-1.7602297	v i u	-0.1804965
-1.5341032	d i u	-0.24353758
-1.7088917	n i u	-0.21935394
-2.0132022	t i u	-0.1804965
-1.7477415	c i u	-0.1804965
-1.7000328	p i u	-0.1804965
-0.895678	<s> o u	-0.63218665
-1.496628	s o u	-0.1804965
-0.5510903	u o u	-0.24353758
-1.1319594	r o u	-0.30113727
-1.0080305	v o u	-0.19949077
-0.6649334	i o u	-0.47248578
-1.3021171	d o u	-0.1804965
-1.0192072	e o u	-0.20601141
-1.30512	g o u	-0.1804965
-1.0312392	n o u	-0.19949077
-1.3752742	f o u	-0.1804965
-1.0997351	l o u	-0.20601141
-1.3318194	m o u	-0.19949077
-1.448855	t o u	-0.1804965
-1.2015014	c o u	-0.2758158
-0.9607215	a o u	-0.1804965
-1.4975264	p o u	-0.1804965
-1.0393753	k o u	-0.1804965
-0.9225191	h o u	-0.25500464
-1.22224	b o u	-0.19562489
-1.1939069	j o u	-0.1804965
-1.5255067	<s> d u	-0.20924719
-0.7309888	s d u	-0.1804965
-1.3309664	r d u	-0.1804965
-1.4071888	i d u	-0.1804965
-1.3985734	o d u	-0.1804965
-1.2905704	e d u	-0.22689888
-1.3685162	n d u	-0.1804965
-1.4852401	a d u	-0.1804965
-1.7576154	<s> e u	-0.19949077
-1.5821942	s e u	-0.21935394
-1.470943	u e u	-0.1804965
-1.9850991	r e u	-0.1804965
-1.3791553	i e u	-0.19562489
-1.7688069	g e u	-0.1804965
-1.7085345	n e u	-0.21935394
-1.5909399	f e u	-0.1804965
-1.948379	t e u	-0.1804965
-1.267321	a e u	-0.1804965
-1.6842616	b e u	-0.1804965
-0.89518845	<s> g u	-0.28380492
-0.71612775	s g u	-0.1804965
-1.2715067	r g u	-0.1804965
-1.0767568	i g u	-0.19949077
-1.1629868	o g u	-0.21935394
-1.1410093	e g u	-0.1804965
-1.2667097	n g u	-0.1804965
-1.0616609	a g u	-0.19562489
-1.1246822	<s> n u	-0.18988979
-1.1414658	s n u	-0.1804965
-1.5829064	u n u	-0.1804965
-1.3722677	r n u	-0.1804965
-1.7905005	i n u	-0.1804965
-1.7630919	o n u	-0.1804965
-1.8907567	e n u	-0.1804965
-1.7314814	a n u	-0.1804965
-0.83942497	k n u	-0.1804965
-1.0966926	<s> f u	-0.24129046
-0.7814822	r f u	-0.19949077
-1.0595348	i f u	-0.1804965
-0.9068113	e f u	-0.24353758
-0.24532537	g f u	-0.21935394
-0.7566513	n f u	-0.21129934
-0.59117055	t f u	-0.21935394
-0.5395242	k f u	-0.1804965
-0.5395242	h f u	-0.1804965
-1.2452846	<s> l u	-0.20924719
-1.2302998	s l u	-0.1804965
-1.3927335	u l u	-0.1804965
-1.6651767	i l u	-0.1804965
-1.1636423	o l u	-0.21087418
-1.2443755	d l u	-0.1804965
-1.5420672	e l u	-0.1804965
-0.8659628	f l u	-0.1804965
-1.1851482	l l u	-0.1804965
-0.8227586	c l u	-0.19124845
-1.3355434	a l u	-0.19562489
-1.4411533	p l u	-0.1804965
-1.3185543	b l u	-0.1804965
-1.1077892	<s> y u	-0.1804965
-0.8875959	u y u	-0.1804965
-1.1035542	<s> m u	-0.43498176
-1.2357256	s m u	-0.1804965
-1.2869506	r m u	-0.1804965
-1.3875097	i m u	-0.21935394
-1.3971059	o m u	-0.1804965
-0.97162706	g m u	-0.1804965
-1.0350933	l m u	-0.1804965
-1.0811205	m m u	-0.21935394
-1.3483306	a m u	-0.20601141
-1.3051901	<s> t u	-0.25563893
-1.3122795	s t u	-0.21297865
-1.3107734	u t u	-0.1804965
-1.0070041	r t u	-0.19949077
-1.3297141	i t u	-0.19562489
-1.5358568	o t u	-0.1804965
-1.7895807	e t u	-0.1804965
-1.3412116	n t u	-0.1804965
-1.3013115	l t u	-0.1804965
-0.8951498	c t u	-0.2243693
-1.53553	a t u	-0.19562489
-1.1982145	p t u	-0.1804965
-1.0052907	x t u	-0.1804965
-1.2182444	<s> c u	-0.31686032
-0.95672935	s c u	-0.19562489
-1.2869753	u c u	-0.1804965
-0.8802109	r c u	-0.19562489
-1.2975054	i c u	-0.21721329
-1.1361928	o c u	-0.1804965
-1.2092745	e c u	-0.20601141
-1.1576804	n c u	-0.1804965
-0.8563381	l c u	-0.1804965
-0.7432672	c c u	-0.1930666
-1.5167285	a c u	-0.1804965
-0.8512502	x c u	-0.1804965
-1.308119	<s> a u	-0.2591314
-1.218673	s a u	-0.19124845
-1.5237564	r a u	-0.19562489
-1.4838523	v a u	-0.1804965
-1.3210516	d a u	-0.1804965
-1.5292119	e a u	-0.19949077
-1.4565856	g a u	-0.1804965
-1.4174187	n a u	-0.1804965
-1.3973299	f a u	-0.1804965
-1.1864319	l a u	-0.18988979
-1.3288095	y a u	-0.1804965
-1.689074	m a u	-0.1804965
-1.5617559	t a u	-0.1804965
-1.3464209	c a u	-0.1804965
-1.3930073	p a u	-0.1804965
-1.1648998	k a u	-0.1804965
-1.3810811	h a u	-0.1804965
-1.5111485	b a u	-0.1804965
-1.496668	o w u	-0.1804965
-1.1367692	<s> p u	-0.4322558
-1.2357299	i p u	-0.1804965
-1.6219664	o p u	-0.1804965
-1.4468971	e p u	-0.1804965
-1.4818639	m p u	-0.1804965
-0.30436566	w p u	-0.1804965
-1.8622777	<s> k u	-0.1804965
-1.2905699	i k u	-0.1804965
-1.1648393	<s> h u	-0.36520156
-1.5305177	s h u	-0.1804965
-1.2550672	g h u	-0.1804965
-0.5719396	m h u	-0.1804965
-1.2006282	t h u	-0.19562489
-1.4804691	c h u	-0.1804965
-0.42418784	b h u	-0.21935394
-0.01062909	<s> q u	-0.39480525
-0.037253328	s q u	-0.21721329
-0.06767961	r q u	-0.1804965
-0.047088295	i q u	-0.22689888
-0.061184935	o q u	-0.1804965
-0.061184935	d q u	-0.21935394
-0.08179906	e q u	-0.2295539
-0.06399165	n q u	-0.24353758
-0.06767961	l q u	-0.1804965
-0.06767961	c q u	-0.1804965
-0.15116504	a q u	-0.1804965
-0.9049215	<s> b u	-0.34480345
-0.9462681	s b u	-0.1804965
-1.0684007	u b u	-0.1804965
-1.0535952	i b u	-0.19949077
-0.5135878	d b u	-0.1804965
-0.9545781	e b u	-0.1804965
-0.90559345	n b u	-0.1804965
-1.0504379	l b u	-0.1804965
-0.90634507	y b u	-0.1804965
-1.1559744	a b u	-0.19949077
-0.5449161	w b u	-0.1804965
-0.63910604	<s> j u	-0.21374409
-0.44417363	u j u	-0.1804965
-0.44417363	o j u	-0.1804965
-0.44417363	d j u	-0.1804965
-0.44417363	n j u	-0.1804965
-0.22404674	h j u	-0.1804965
-1.0368366	<s> z u	-0.1804965
-0.9229201	e z u	-0.1804965
-0.9534668	u x u	-0.1804965
-1.0342481	e x u	-0.1804965
-1.9167511	i s r	-0.19949077
-1.6824567	<s> u r	-0.1804965
-0.7096889	s u r	-0.21087418
-0.7223133	o u r	-0.24785036
-1.0258927	d u r	-0.19949077
-0.5406628	e u r	-0.22311
-1.2444758	g u r	-0.1804965
-1.01726	n u r	-0.1804965
-0.98827255	f u r	-0.19562489
-1.2340628	l u r	-0.1804965
-0.7812435	y u r	-0.1804965
-0.9966522	m u r	-0.1804965
-0.63055074	t u r	-0.28204018
-0.8083426	c u r	-0.1973388
-1.0930454	a u r	-0.19562489
-1.1626139	p u r	-0.1804965
-0.5464265	k u r	-0.1804965
-1.0127109	h u r	-0.1804965
-0.63189995	b u r	-0.208436
-0.90231156	j u r	-0.1804965
-0.5464265	z u r	-0.1804965
-0.40694883	x u r	-0.1804965
-1.3745956	u r r	-0.20640224
-1.6506704	i r r	-0.1804965
-1.3453479	o r r	-0.20640224
-1.3160975	e r r	-0.2686098
-1.020572	y r r	-0.1804965
-1.2161304	a r r	-0.3361092
-1.1687878	<s> i r	-0.5119042
-1.6658536	s i r	-0.1804965
-1.3524811	u i r	-0.1804965
-1.4303694	v i r	-0.1804965
-1.1806086	o i r	-0.20601141
-1.6229542	d i r	-0.1804965
-1.195076	g i r	-0.20601141
-1.2545044	f i r	-0.20601141
-1.3881388	m i r	-0.20601141
-1.4778596	t i r	-0.19949077
-1.3315855	c i r	-0.22689888
-0.89716756	a i r	-0.19422762
-1.2009444	w i r	-0.1804965
-1.1059384	p i r	-0.2243693
-1.4920369	k i r	-0.1804965
-1.1556562	h i r	-0.19562489
-1.4563341	b i r	-0.1804965
-0.86359584	<s> o r	-0.28451616
-1.023541	s o r	-0.21297865
-1.5971026	r o r	-0.1804965
-1.1195803	v o r	-0.1804965
-1.3365471	i o r	-0.1804965
-1.0815824	o o r	-0.19124845
-0.95422596	d o r	-0.20924719
-1.0206356	e o r	-0.20601141
-1.1373887	g o r	-0.1804965
-1.2774054	n o r	-0.1930666
-0.5329835	f o r	-0.29441428
-0.976482	l o r	-0.21460247
-0.83064497	m o r	-0.20794998
-0.98745	t o r	-0.34499818
-1.1037587	c o r	-0.19672589
-0.71423185	w o r	-0.20924719
-0.9168714	p o r	-0.33581293
-1.2400209	k o r	-0.1804965
-0.8628236	h o r	-0.21782385
-0.8933623	b o r	-0.19949077
-0.9819032	j o r	-0.1804965
-1.1316073	<s> d r	-0.4100431
-1.3067087	r d r	-0.1804965
-1.1159892	n d r	-0.20601141
-1.3275278	l d r	-0.1804965
-0.7202202	y d r	-0.1804965
-0.2950462	m d r	-0.1804965
-1.4654137	a d r	-0.20601141
-0.56932634	h d r	-0.1804965
-0.56932634	b d r	-0.1804965
-1.4810909	<s> e r	-0.20601141
-1.0216188	s e r	-0.27699792
-1.1289988	u e r	-0.1804965
-1.4752003	r e r	-0.32380888
-0.79835385	v e r	-0.30221537
-0.874606	i e r	-0.34310213
-1.2579395	o e r	-0.1804965
-1.0138823	d e r	-0.2997561
-1.1307595	e e r	-0.33581293
-0.9207281	g e r	-0.27782094
-1.0468094	n e r	-0.2936526
-0.8242227	f e r	-0.20622179
-0.8787774	l e r	-0.5776493
-0.4581522	y e r	-0.3684763
-0.84965944	m e r	-0.2798573
-0.77853703	t e r	-0.46444267
-1.0048001	c e r	-0.20227334
-1.146506	a e r	-0.1804965
-1.1920176	w e r	-0.20601141
-0.7966404	p e r	-0.2544075
-0.7853206	k e r	-0.27782094
-0.91793054	h e r	-0.30189332
-0.73069394	b e r	-0.2470759
-0.90642077	j e r	-0.20601141
-0.83071923	z e r	-0.19949077
-0.55316126	<s> g r	-0.59892523
-0.67908525	s g r	-0.1804965
-1.1727661	r g r	-0.1804965
-1.0211798	i g r	-0.22689888
-0.58384395	o g r	-0.4699369
-0.88955986	d g r	-0.1804965
-0.8346907	e g r	-0.2272665
-1.1289229	g g r	-0.1804965
-1.0985872	n g r	-0.1804965
-0.40246338	t g r	-0.1804965
-1.1118859	a g r	-0.19949077
-0.40246338	p g r	-0.1804965
-1.8510119	u n r	-0.1804965
-1.8377917	o n r	-0.1804965
-2.16697	e n r	-0.1804965
-0.7544899	<s> f r	-0.66847444
-1.0774572	r f r	-0.1804965
-1.2660185	e f r	-0.1804965
-1.2833807	n f r	-0.1804965
-1.2716672	f f r	-0.1804965
-1.0614002	a f r	-0.1804965
-2.0548518	i l r	-0.1804965
-1.2228621	n l r	-0.1804965
-0.9476196	g y r	-0.1804965
-1.1511819	m y r	-0.1804965
-1.360212	t y r	-0.1804965
-0.9472348	p y r	-0.1804965
-1.2859212	h y r	-0.1804965
-1.8303721	o m r	-0.1804965
-1.8170964	e m r	-0.1804965
-0.6535973	<s> t r	-0.7395442
-0.98122495	s t r	-0.4362939
-1.4424651	u t r	-0.1804965
-1.3756738	r t r	-0.1804965
-1.6249765	i t r	-0.21935394
-1.2964078	o t r	-0.20601141
-1.1590992	e t r	-0.26637512
-1.0961306	n t r	-0.20601141
-1.3449023	t t r	-0.1804965
-1.4337363	c t r	-0.1804965
-1.5236077	a t r	-0.1804965
-1.1892686	h t r	-0.1804965
-0.94734	b t r	-0.1804965
-0.99685836	x t r	-0.1804965
-1.0145482	<s> c r	-0.6033995
-0.9901157	s c r	-0.2913161
-1.2537282	r c r	-0.1804965
-1.7395554	i c r	-0.1804965
-1.3088963	o c r	-0.1804965
-1.0173652	e c r	-0.21721329
-1.4136	n c r	-0.1804965
-1.5146427	a c r	-0.1804965
-0.8338006	<s> a r	-0.33459774
-1.1852541	s a r	-0.19562489
-0.82418865	u a r	-0.1930666
-1.6036545	r a r	-0.1804965
-0.9135076	v a r	-0.20307826
-1.6317627	i a r	-0.1804965
-1.0606109	o a r	-0.1804965
-1.2715666	d a r	-0.1804965
-0.8306743	e a r	-0.32627955
-1.1353751	g a r	-0.19949077
-1.1458038	n a r	-0.21509336
-0.9075143	f a r	-0.1804965
-1.1084708	l a r	-0.2323811
-0.98152614	y a r	-0.24353758
-1.035967	m a r	-0.23265499
-1.0473833	t a r	-0.209979
-1.2130873	c a r	-0.19164059
-0.6696758	w a r	-0.30456057
-0.8594202	p a r	-0.27699792
-1.3041636	k a r	-0.1804965
-0.91665745	h a r	-0.22673327
-1.0374249	b a r	-0.19208668
-0.79294395	z a r	-0.1804965
-1.1795123	<s> w r	-0.2272665
-1.3453615	e w r	-0.1804965
-0.82682717	g w r	-0.1804965
-0.8973046	n w r	-0.1804965
-0.29545394	w w r	-0.1804965
-0.5871208	<s> p r	-1.0076851
-1.0268719	s p r	-0.19949077
-1.138309	u p r	-0.1804965
-0.91017795	r p r	-0.21935394
-1.2801777	i p r	-0.1804965
-1.3585148	o p r	-0.1804965
-0.53923786	d p r	-0.1804965
-1.0028996	e p r	-0.20601141
-0.7689716	n p r	-0.1804965
-0.88896954	l p r	-0.1804965
-0.9279445	y p r	-0.1804965
-1.1186198	m p r	-0.20601141
-1.1739202	p p r	-0.1804965
-0.8341907	x p r	-0.1804965
-1.2973747	<s> k r	-0.19949077
-1.4455203	n k r	-0.1804965
-1.5774022	c k r	-0.1804965
-1.4450511	s h r	-0.1804965
-1.2615868	t h r	-0.21782385
-1.7889953	c h r	-0.1804965
-1.25725	p h r	-0.20601141
-0.70099115	<s> b r	-0.6960021
-0.9321	s b r	-0.1804965
-0.96872914	u b r	-0.1804965
-1.0500648	r b r	-0.1804965
-1.1903213	i b r	-0.1804965
-0.8428405	e b r	-0.19949077
-0.53893435	g b r	-0.1804965
-1.0339777	l b r	-0.1804965
-0.81869054	m b r	-0.21087418
-0.7734869	t b r	-0.1804965
-0.27862048	c b r	-0.1804965
-1.2672162	a b r	-0.1804965
-1.3374579	e x r	-0.1804965
-2.0387945	o u v	-0.1804965
-1.5173204	e u v	-0.1804965
-1.850464	l u v	-0.1804965
-1.7648829	u r v	-0.20601141
-1.6572095	e r v	-0.34377453
-1.920557	a r v	-0.19949077
-1.6280063	e v v	-0.1804965
-1.1777595	s i v	-0.4699369
-1.4465137	u i v	-0.1804965
-1.3465382	r i v	-0.2780514
-1.3991584	v i v	-0.1804965
-1.5046359	d i v	-0.22689888
-1.5769396	g i v	-0.1804965
-1.6701578	n i v	-0.21935394
-1.7768466	l i v	-0.19949077
-1.197239	t i v	-0.41345555
-1.6966069	c i v	-0.1804965
-1.6623958	a i v	-0.1804965
-0.7911086	<s> o v	-0.9968653
-1.6271573	s o v	-0.1804965
-1.7130802	r o v	-0.19949077
-1.4067038	i o v	-0.1804965
-1.5077852	o o v	-0.21935394
-1.453484	n o v	-0.19949077
-1.3414668	l o v	-0.1804965
-1.7095304	t o v	-0.1804965
-1.4169992	c o v	-0.24353758
-1.3173407	w o v	-0.1804965
-1.3315346	k o v	-0.1804965
-1.662997	h o v	-0.1804965
-1.570936	b o v	-0.1804965
-1.2784718	j o v	-0.1804965
-1.9740694	a d v	-0.1804965
-1.3533679	<s> e v	-0.3430963
-1.8540386	s e v	-0.1804965
-1.5983512	r e v	-0.20640224
-1.6690465	i e v	-0.20601141
-1.420813	o e v	-0.1804965
-1.6303507	d e v	-0.19949077
-1.6021655	e e v	-0.21935394
-1.7099527	n e v	-0.1804965
-1.5926801	f e v	-0.1804965
-1.7802107	l e v	-0.1804965
-1.7751125	t e v	-0.21935394
-1.4881132	h e v	-0.20601141
-1.7848816	u n v	-0.1804965
-2.128495	i n v	-0.1804965
-1.9784856	o n v	-0.1804965
-2.0983374	e n v	-0.1804965
-2.1468565	a n v	-0.1804965
-2.0953379	i l v	-0.1804965
-1.7498097	o l v	-0.1804965
-1.6051768	a l v	-0.19949077
-1.8548144	u m v	-0.1804965
-1.679654	<s> a v	-0.29639453
-1.6678873	s a v	-0.1804965
-1.3710798	r a v	-0.2295539
-1.5566474	d a v	-0.1804965
-1.423796	e a v	-0.21935394
-1.725535	n a v	-0.1804965
-1.4676163	f a v	-0.1804965
-1.6285441	l a v	-0.1804965
-1.5268286	t a v	-0.19949077
-1.5857918	c a v	-0.1804965
-1.5185423	w a v	-0.1804965
-1.6294748	p a v	-0.1804965
-1.5308502	h a v	-0.20601141
-1.1107154	j a v	-0.1804965
-0.7406202	a q v	-0.1804965
-1.2917273	<s> s i	-0.31320423
-0.8435092	s s i	-0.21017614
-0.88779366	u s i	-0.22149135
-1.1645688	r s i	-0.19949077
-1.1674982	i s i	-0.2110674
-0.91944396	o s i	-0.28298044
-1.1610307	e s i	-0.20125943
-1.1075952	n s i	-0.19422762
-1.1497688	l s i	-0.1804965
-0.73471594	y s i	-0.1804965
-1.3476416	t s i	-0.1804965
-1.210358	a s i	-0.1930666
-0.862519	p s i	-0.1804965
-1.2541745	k s i	-0.1804965
-1.1795732	b s i	-0.1804965
-1.238728	s u i	-0.24353758
-1.4037899	r u i	-0.1804965
-1.3948313	d u i	-0.1804965
-0.7946103	g u i	-0.19949077
-1.6198806	c u i	-0.1804965
-1.3828132	h u i	-0.1804965
-0.9285202	q u i	-0.19562489
-1.504522	b u i	-0.1804965
-1.0314844	<s> r i	-0.3430996
-0.8547298	u r i	-0.20387623
-0.84653884	r r i	-0.19949077
-1.041068	i r i	-0.19562489
-0.8676461	o r i	-0.292709
-0.769181	d r i	-0.18049653
-1.1806886	e r i	-0.2975115
-0.9540428	g r i	-0.21297865
-0.6546048	n r i	-0.1804965
-0.8492475	f r i	-0.1804965
-0.7676701	t r i	-0.24434374
-0.8082968	c r i	-0.1930666
-0.9264022	a r i	-0.29047444
-0.44814152	w r i	-0.2243693
-0.7988684	p r i	-0.25616816
-0.842312	k r i	-0.1804965
-0.7341478	h r i	-0.1930666
-0.617405	b r i	-0.1979998
-0.50800395	<s> v i	-0.34086248
-0.5849968	u v i	-0.1804965
-0.56595874	r v i	-0.1930666
-0.5949379	i v i	-0.19562489
-0.87854373	o v i	-0.1804965
-0.64415985	d v i	-0.1804965
-0.623609	e v i	-0.22110192
-0.61895883	n v i	-0.18049653
-0.7414042	l v i	-0.1804965
-0.2343678	m v i	-0.1804965
-0.6402162	a v i	-0.20924719
-0.2343678	q v i	-0.1804965
-2.0750859	n i i	-0.1804965
-1.8782783	h i i	-0.1804965
-1.8102515	<s> o i	-0.1804965
-1.5564595	s o i	-0.1804965
-0.9833105	u o i	-0.1804965
-1.5764458	r o i	-0.1804965
-1.0305256	v o i	-0.19949077
-1.5055618	d o i	-0.1804965
-1.1695986	g o i	-0.21935394
-1.4027473	n o i	-0.1804965
-1.4205601	f o i	-0.1804965
-1.3063408	l o i	-0.1804965
-1.5318244	m o i	-0.1804965
-1.4963964	t o i	-0.1804965
-1.4544061	c o i	-0.21935394
-0.93042845	p o i	-0.3633413
-1.5890571	h o i	-0.1804965
-1.4982861	b o i	-0.1804965
-1.0044172	j o i	-0.20601141
-0.46731317	<s> d i	-0.6772771
-0.9125626	u d i	-0.19949077
-1.0017478	r d i	-0.19562489
-0.9289954	i d i	-0.20601141
-0.9333318	o d i	-0.1930666
-0.81106067	d d i	-0.19949077
-0.83913016	e d i	-0.25915274
-0.9011738	n d i	-0.20927618
-0.9992915	l d i	-0.19949077
-0.8878894	a d i	-0.24563631
-0.5565891	h d i	-0.1804965
-1.7241979	<s> e i	-0.19949077
-1.7691501	s e i	-0.1804965
-1.4557898	r e i	-0.19949077
-1.7055106	v e i	-0.1804965
-1.1457988	o e i	-0.1804965
-1.7159705	e e i	-0.1804965
-1.5212361	f e i	-0.1804965
-1.8154627	l e i	-0.1804965
-1.8148223	m e i	-0.1804965
-1.6260985	t e i	-0.20601141
-1.6875899	c e i	-0.1804965
-1.2646744	w e i	-0.1804965
-1.6936438	p e i	-0.1804965
-1.5409313	h e i	-0.1804965
-1.4357868	b e i	-0.21935394
-1.0987986	<s> g i	-0.19562489
-0.6964682	s g i	-0.1804965
-0.6403373	r g i	-0.21721329
-1.2665894	i g i	-0.1804965
-1.2755024	o g i	-0.1804965
-0.96031296	e g i	-0.20930883
-0.86623824	g g i	-0.24353758
-1.005577	n g i	-0.21087418
-0.7519028	l g i	-0.1804965
-1.2726533	a g i	-0.1804965
-0.99606276	<s> n i	-0.19562489
-1.0301126	s n i	-0.1804965
-1.1194718	u n i	-0.23459078
-0.8260564	r n i	-0.21087418
-0.28148398	v n i	-0.1804965
-1.0830472	i n i	-0.33733812
-1.0107089	o n i	-0.23930758
-0.99906296	e n i	-0.30063733
-0.66125673	g n i	-0.1804965
-0.7391274	n n i	-0.20628497
-1.0853965	y n i	-0.1804965
-0.71583825	m n i	-0.19562489
-1.0251918	t n i	-0.1804965
-0.9792314	a n i	-0.27962667
-0.7102612	w n i	-0.21935394
-0.7773639	k n i	-0.1804965
-0.9680759	h n i	-0.1804965
-1.0171	<s> f i	-0.3525842
-0.9658965	r f i	-0.1804965
-0.69075626	i f i	-0.3430963
-1.0702511	o f i	-0.1804965
-0.53032684	d f i	-0.1804965
-0.9715485	e f i	-0.19949077
-0.8937778	n f i	-0.19949077
-0.5986842	f f i	-0.18883605
-0.76656336	l f i	-0.1804965
-0.58155674	t f i	-0.21935394
-0.69929993	<s> l i	-0.30314276
-0.8573978	s l i	-0.1930666
-0.93937397	u l i	-0.20930883
-0.7797266	r l i	-0.2758158
-0.75257087	i l i	-0.31818712
-0.91719735	o l i	-0.26677203
-0.7022802	d l i	-0.21129934
-0.9719024	e l i	-0.2541463
-0.5889356	g l i	-0.21721329
-0.7769514	n l i	-0.1804965
-0.81923425	f l i	-0.19949077
-0.8011254	l l i	-0.21233197
-0.92837876	t l i	-0.20601141
-0.94323385	c l i	-0.19124845
-0.9009191	a l i	-0.38575488
-0.5830854	w l i	-0.21935394
-0.6971458	p l i	-0.261661
-0.88415766	k l i	-0.1804965
-0.776713	b l i	-0.19949077
-0.53489757	z l i	-0.1804965
-1.3851647	<s> y i	-0.1804965
-0.823389	u y i	-0.1804965
-1.1339804	r y i	-0.21935394
-0.29565397	v y i	-0.1804965
-1.312419	e y i	-0.1804965
-0.72615534	f y i	-0.1804965
-1.4654491	l y i	-0.1804965
-0.9729004	a y i	-0.3684763
-0.7408464	<s> m i	-0.50441384
-0.9489227	s m i	-0.19949077
-0.92993724	u m i	-0.21087418
-1.0094061	r m i	-0.1804965
-0.82212514	i m i	-0.2758158
-0.99725384	o m i	-0.26724887
-0.9101815	d m i	-0.1804965
-0.77251714	e m i	-0.21782385
-0.6131823	l m i	-0.1804965
-1.0539054	y m i	-0.1804965
-0.99875367	m m i	-0.1804965
-0.5298033	c m i	-0.1804965
-0.83389467	a m i	-0.24319811
-0.86874413	h m i	-0.1804965
-0.6652793	b m i	-0.1804965
-1.1841474	<s> t i	-0.25301725
-0.9108595	s t i	-0.35388282
-0.7715689	u t i	-0.24767762
-1.0958196	r t i	-0.21523301
-0.92189544	i t i	-0.32228935
-0.75797486	o t i	-0.2110674
-0.8359549	e t i	-0.3125596
-0.9588114	n t i	-0.2573349
-1.0260495	f t i	-0.1804965
-0.9677453	l t i	-0.18883605
-1.0254409	y t i	-0.1804965
-0.74678063	t t i	-0.27782094
-0.86817265	c t i	-0.31967947
-0.7089941	a t i	-0.56802905
-0.6018381	p t i	-0.25071403
-0.69400835	k t i	-0.1804965
-0.9483118	h t i	-0.1804965
-0.95566213	x t i	-0.1804965
-1.5451546	<s> c i	-0.35128134
-0.95672935	s c i	-0.20227334
-0.8968865	u c i	-0.1804965
-0.980178	r c i	-0.1804965
-0.90167665	i c i	-0.27233234
-0.89063406	o c i	-0.21087418
-0.9738468	e c i	-0.18988979
-0.9385623	n c i	-0.2110674
-0.99068904	y c i	-0.1804965
-0.94416225	m c i	-0.1804965
-1.0602458	c c i	-0.1804965
-0.91931874	a c i	-0.2243693
-2.061034	<s> a i	-0.21935394
-1.2260382	s a i	-0.19949077
-1.3736062	u a i	-0.1804965
-1.3480315	r a i	-0.2854662
-1.4982004	v a i	-0.1804965
-1.4858816	d a i	-0.1804965
-1.4700468	g a i	-0.1804965
-1.427687	n a i	-0.19949077
-1.4103621	f a i	-0.1804965
-1.5798132	l a i	-0.1804965
-1.5625412	m a i	-0.20601141
-1.0064043	t a i	-0.29194376
-1.3571321	c a i	-0.1804965
-1.46179	w a i	-0.1804965
-1.309495	p a i	-0.19949077
-1.3722899	k a i	-0.1804965
-1.4727616	h a i	-0.19949077
-0.693692	<s> w i	-0.444489
-0.56255496	s w i	-0.1930666
-0.8290051	o w i	-0.40299013
-0.7080287	d w i	-0.21935394
-1.1199312	e w i	-0.1804965
-0.731174	g w i	-0.1804965
-0.7822435	n w i	-0.1804965
-0.731174	t w i	-0.1804965
-1.085268	a w i	-0.1804965
-0.6493214	h w i	-0.1804965
-1.1803446	<s> p i	-0.27134088
-0.89071506	s p i	-0.21087418
-1.1572306	u p i	-0.1804965
-1.1007478	r p i	-0.1804965
-0.9733073	i p i	-0.21721329
-0.84080034	o p i	-0.21424621
-1.2331697	e p i	-0.1804965
-0.9398002	y p i	-0.1804965
-1.1342273	m p i	-0.1804965
-1.1929147	a p i	-0.1804965
-0.7516341	p p i	-0.21721329
-0.28148758	h p i	-0.1804965
-0.84397155	x p i	-0.1804965
-0.59448117	<s> k i	-0.21995865
-0.5697701	s k i	-0.20640224
-0.8165282	r k i	-0.21935394
-0.99392146	i k i	-0.1804965
-1.0569425	o k i	-0.1804965
-0.9395665	n k i	-0.20601141
-0.9139581	l k i	-0.1804965
-0.6405297	y k i	-0.1804965
-0.26336864	m k i	-0.1804965
-0.84744036	c k i	-0.21721329
-0.69526047	a k i	-0.20227334
-0.6405297	w k i	-0.1804965
-0.51154894	p k i	-0.1804965
-1.0801582	<s> h i	-0.21233197
-0.72299075	s h i	-0.24866386
-0.8707294	r h i	-0.1804965
-0.5573804	i h i	-0.1804965
-0.9109073	t h i	-0.22225232
-0.8056756	c h i	-0.259563
-1.2037537	a h i	-0.1804965
-0.67521405	w h i	-0.1804965
-0.88567704	p h i	-0.20307826
-1.2694621	<s> b i	-0.2039946
-1.264944	u b i	-0.1804965
-0.78957486	r b i	-0.1804965
-1.091561	i b i	-0.1804965
-0.996793	o b i	-0.1804965
-1.1756759	e b i	-0.1804965
-0.85093886	m b i	-0.19562489
-0.86500967	a b i	-0.26413116
-0.79065114	b b i	-0.21721329
-1.7949073	<s> j i	-0.1804965
-0.6240843	<s> z i	-0.1804965
-0.77018684	u z i	-0.1804965
-0.56933105	i z i	-0.5445676
-0.7416482	o z i	-0.1804965
-0.24587233	d z i	-0.1804965
-0.6829619	n z i	-0.1804965
-0.48103097	y z i	-0.1804965
-0.7159567	a z i	-0.1804965
-0.8700171	i x i	-0.1804965
-0.35642263	o x i	-0.19562489
-0.90023696	e x i	-0.1804965
-0.26496905	n x i	-0.1804965
-0.6968298	a x i	-0.1804965
-1.0827256	<s> s o	-0.28879753
-0.97018623	s s o	-0.1804965
-1.0966827	r s o	-0.19562489
-1.2482475	i s o	-0.20628497
-1.6031879	o s o	-0.1804965
-1.2902302	d s o	-0.1804965
-1.699723	e s o	-0.1804965
-1.0227491	n s o	-0.27426255
-1.1728253	l s o	-0.1804965
-1.3756212	t s o	-0.1804965
-1.4594183	a s o	-0.20601141
-0.99348307	w s o	-0.1804965
-1.2818962	k s o	-0.1804965
-1.6919559	r u o	-0.1804965
-1.4602153	d u o	-0.1804965
-1.4615741	n u o	-0.1804965
-1.12275	t u o	-0.3684763
-1.1481861	q u o	-0.20601141
-0.76701295	<s> r o	-0.34439853
-0.6630974	s r o	-0.1804965
-1.2593637	u r o	-0.1804965
-0.97068536	r r o	-0.24353758
-1.0132551	i r o	-0.1804965
-1.2717513	o r o	-0.21782385
-0.75335145	d r o	-0.18673608
-1.284281	e r o	-0.18799482
-0.93836313	g r o	-0.20601141
-0.8709981	n r o	-0.1804965
-0.71885616	f r o	-0.21087418
-0.52820504	l r o	-0.1804965
-0.5112611	y r o	-0.20601141
-0.7585594	t r o	-0.22083256
-0.6796897	c r o	-0.2033914
-1.4966798	a r o	-0.1804965
-0.4495457	p r o	-0.26413116
-0.575879	k r o	-0.1804965
-0.7160298	h r o	-0.1930666
-0.8833416	b r o	-0.19325621
-0.27269575	x r o	-0.1804965
-0.75509	<s> v o	-0.2936526
-0.924405	r v o	-0.1804965
-0.98996365	i v o	-0.20601141
-1.2005036	o v o	-0.1804965
-0.7275549	d v o	-0.1804965
-1.1061077	e v o	-0.20601141
-0.96298325	n v o	-0.1804965
-0.7693204	a v o	-0.19949077
-1.8921046	<s> i o	-0.24353758
-0.9628265	s i o	-0.5790814
-1.3968817	r i o	-0.21782385
-1.3503013	v i o	-0.20601141
-1.1931447	d i o	-0.19562489
-1.2110124	g i o	-0.20601141
-1.5058366	n i o	-0.1804965
-1.3707254	l i o	-0.21129934
-1.1217372	t i o	-0.5445676
-1.0878642	c i o	-0.2780514
-1.387983	p i o	-0.21935394
-1.3204545	h i o	-0.1930666
-1.2902296	b i o	-0.1804965
-1.1662409	z i o	-0.1804965
-0.92964584	x i o	-0.1804965
-1.7768762	<s> o o	-0.1804965
-1.5255142	s o o	-0.1804965
-1.1976888	r o o	-0.24767762
-1.4371097	o o o	-0.20601141
-1.47573	d o o	-0.1804965
-1.3301681	g o o	-0.1804965
-1.5180964	n o o	-0.1804965
-0.90446645	f o o	-0.21935394
-1.2900614	l o o	-0.20601141
-1.093977	y o o	-0.1804965
-1.3521825	m o o	-0.1804965
-1.4719756	t o o	-0.1804965
-1.4292017	c o o	-0.1804965
-0.7191301	w o o	-0.32380888
-1.3720642	p o o	-0.1804965
-1.2589247	k o o	-0.1804965
-1.0870646	h o o	-0.19949077
-1.2400166	b o o	-0.1930666
-0.73303527	z o o	-0.1804965
-1.1035883	<s> d o	-0.26116982
-1.1186	u d o	-0.1804965
-1.0599484	r d o	-0.1804965
-1.3009721	i d o	-0.1804965
-1.0493121	o d o	-0.1804965
-1.0841868	d d o	-0.1804965
-1.4122207	e d o	-0.1804965
-1.1847664	n d o	-0.1804965
-0.28211704	f d o	-0.1804965
-0.28211704	t d o	-0.1804965
-1.000272	a d o	-0.20227334
-0.5453229	w d o	-0.1804965
-0.28211704	k d o	-0.1804965
-1.8034232	r e o	-0.1804965
-1.737237	v e o	-0.1804965
-1.7690891	d e o	-0.1804965
-1.1274974	g e o	-0.19562489
-1.8346001	n e o	-0.1804965
-1.7536777	l e o	-0.1804965
-1.849055	m e o	-0.1804965
-1.7450278	t e o	-0.1804965
-1.2475158	a e o	-0.1804965
-1.7296324	p e o	-0.1804965
-1.5664798	h e o	-0.21935394
-1.6479139	b e o	-0.1804965
-1.2309219	j e o	-0.1804965
-1.0607553	<s> g o	-0.20387623
-1.253045	u g o	-0.1804965
-0.9421627	r g o	-0.19562489
-1.4284842	i g o	-0.1804965
-1.1204991	e g o	-0.1804965
-1.2388791	n g o	-0.1804965
-0.88273716	l g o	-0.1804965
-1.0491447	a g o	-0.32380888
-0.28972068	h g o	-0.1804965
-0.46087116	<s> n o	-0.4428633
-0.8550849	s n o	-0.1804965
-1.2862076	r n o	-0.1804965
-1.2924614	i n o	-0.1973388
-1.3695482	o n o	-0.21782385
-1.1898332	e n o	-0.2110674
-0.86116505	g n o	-0.19562489
-1.0426989	n n o	-0.1804965
-0.9378639	y n o	-0.1804965
-1.5401077	a n o	-0.19562489
-0.80728686	k n o	-0.1804965
-1.0154235	h n o	-0.1804965
-0.29081446	b n o	-0.1804965
-0.6895477	<s> f o	-0.48446542
-0.76033527	s f o	-0.1804965
-1.1796024	i f o	-0.1804965
-1.0702511	o f o	-0.1804965
-0.53032684	d f o	-0.1804965
-0.9715485	e f o	-0.19949077
-0.7439061	n f o	-0.21721329
-0.2738726	m f o	-0.1804965
-0.53032684	k f o	-0.1804965
-0.53032684	h f o	-0.1804965
-0.61655486	<s> l o	-0.26297224
-0.9672207	s l o	-0.19949077
-0.93515575	r l o	-0.1804965
-0.2786384	v l o	-0.1804965
-1.5356408	i l o	-0.1804965
-0.75689465	o l o	-0.41040492
-1.157637	d l o	-0.1804965
-1.258537	e l o	-0.18799482
-1.1777339	g l o	-0.1804965
-0.78365386	n l o	-0.1804965
-1.1197419	f l o	-0.1804965
-0.98518443	l l o	-0.2462679
-1.0915071	y l o	-0.1804965
-0.7735409	m l o	-0.1804965
-0.9506826	c l o	-0.20601141
-1.3553262	a l o	-0.19949077
-1.1780741	p l o	-0.19949077
-0.74751544	h l o	-0.1804965
-1.2317264	b l o	-0.1804965
-0.74915546	<s> y o	-0.21129934
-1.2492292	n y o	-0.1804965
-1.5770733	l y o	-0.1804965
-1.1473405	m y o	-0.1804965
-1.3118212	a y o	-0.1804965
-0.7119129	<s> m o	-0.40918636
-0.8890339	s m o	-0.1804965
-1.3881608	u m o	-0.1804965
-0.97005856	r m o	-0.1804965
-1.241674	i m o	-0.19949077
-1.2531122	o m o	-0.1804965
-0.58719	d m o	-0.1804965
-1.0053382	e m o	-0.21935394
-0.92884284	y m o	-0.1804965
-1.0379874	m m o	-0.1804965
-1.1062117	t m o	-0.1804965
-1.368067	a m o	-0.21935394
-0.87597644	<s> t o	-0.23506415
-1.0104879	s t o	-0.2913161
-1.1382571	u t o	-0.1804965
-1.0739145	r t o	-0.21087418
-1.1977369	i t o	-0.40299013
-1.0990175	o t o	-0.20601141
-1.1265423	e t o	-0.18049653
-0.28092206	g t o	-0.1804965
-1.1683106	n t o	-0.19124845
-1.0401949	l t o	-0.1804965
-0.79016733	y t o	-0.21935394
-0.28092206	m t o	-0.1804965
-1.2469453	t t o	-0.1804965
-0.9648684	c t o	-0.3684763
-1.1014937	a t o	-0.47248578
-0.5431348	w t o	-0.1804965
-1.1246767	p t o	-0.1804965
-0.68359536	k t o	-0.1804965
-1.099449	h t o	-0.1804965
-0.93729675	x t o	-0.1804965
-0.36267707	<s> c o	-0.8186985
-0.86813545	s c o	-0.20270242
-1.2869753	u c o	-0.1804965
-0.8802109	r c o	-0.21129934
-1.201298	i c o	-0.1930666
-0.547804	d c o	-0.1804965
-0.9738468	e c o	-0.2110674
-0.9385623	n c o	-0.21935394
-0.8563381	l c o	-0.1804965
-0.7432672	c c o	-0.1804965
-1.1212538	a c o	-0.19562489
-0.8512502	x c o	-0.1804965
-1.6985052	v a o	-0.1804965
-1.899952	i a o	-0.1804965
-2.0488968	l a o	-0.1804965
-1.7849717	p a o	-0.1804965
-1.5426873	k a o	-0.1804965
-1.8617864	h a o	-0.1804965
-0.79760545	<s> w o	-0.41023466
-0.7651267	r w o	-0.1804965
-0.9554777	d w o	-0.1804965
-0.50373936	g w o	-0.21935394
-0.82363117	n w o	-0.1804965
-0.27582195	l w o	-0.1804965
-0.53385156	y w o	-0.1804965
-0.24269229	k w o	-0.1804965
-0.88904536	<s> p o	-0.3943958
-0.89071506	s p o	-0.18988979
-0.8158569	r p o	-0.19562489
-1.2031121	o p o	-0.1804965
-0.5441696	d p o	-0.1804965
-1.0995504	e p o	-0.1804965
-0.7773753	n p o	-0.1804965
-0.899747	l p o	-0.1804965
-0.9398002	y p o	-0.1804965
-1.1342273	m p o	-0.1804965
-0.7801151	a p o	-0.1930666
-0.91505015	p p o	-0.19949077
-0.28148758	b p o	-0.1804965
-1.097898	<s> k o	-0.19562489
-1.121088	s k o	-0.1804965
-0.60997677	i k o	-0.1804965
-0.890919	o k o	-0.1804965
-0.28672153	d k o	-0.1804965
-0.28672153	g k o	-0.1804965
-1.2166452	n k o	-0.1804965
-0.69840515	h k o	-0.1804965
-0.6144274	<s> h o	-0.2868515
-0.8934052	s h o	-0.1973388
-0.49219528	d h o	-0.21935394
-0.95799565	e h o	-0.1804965
-0.9134221	g h o	-0.1804965
-0.6370821	n h o	-0.20601141
-0.5164205	l h o	-0.1804965
-0.5164205	m h o	-0.1804965
-0.91991967	t h o	-0.20387623
-1.1192362	c h o	-0.20227334
-0.9144259	a h o	-0.1804965
-0.8469402	w h o	-0.1804965
-0.6835416	p h o	-0.20601141
-0.65487283	b h o	-0.1804965
-0.5164205	x h o	-0.1804965
-0.79521894	<s> b o	-0.33281666
-0.69236225	s b o	-0.1804965
-0.8493817	r b o	-0.1804965
-1.1629583	i b o	-0.1804965
-1.0113217	o b o	-0.21935394
-1.07445	e b o	-0.1804965
-0.52303106	l b o	-0.19949077
-0.6431658	y b o	-0.1804965
-0.94832844	m b o	-0.1804965
-1.2458744	a b o	-0.1930666
-0.5312215	w b o	-0.1804965
-0.27436805	h b o	-0.1804965
-0.7465572	b b o	-0.1804965
-0.49462816	<s> j o	-0.20618233
-0.5127504	u j o	-0.1804965
-0.6421474	e j o	-0.1804965
-0.26404667	a j o	-0.1804965
-0.6211145	<s> z o	-0.24353758
-1.4440321	i z o	-0.1804965
-1.1442566	a z o	-0.1804965
-1.0564171	i x o	-0.1804965
-1.654404	r s d	-0.1804965
-2.1313934	i s d	-0.1804965
-1.8388	n s d	-0.1804965
-1.948166	<s> u d	-0.1804965
-1.4158175	s u d	-0.1804965
-1.4634819	r u d	-0.1804965
-1.6919438	o u d	-0.1804965
-1.291438	e u d	-0.1804965
-1.3554317	f u d	-0.1804965
-1.2513148	l u d	-0.21935394
-1.2696028	m u d	-0.1804965
-1.3122375	t u d	-0.21935394
-1.324493	c u d	-0.1804965
-1.2991788	a u d	-0.21129934
-1.0831498	h u d	-0.1804965
-1.2118018	b u d	-0.1804965
-0.959669	j u d	-0.1804965
-1.8007797	u r d	-0.1804965
-1.4651043	i r d	-0.1804965
-1.3477207	o r d	-0.21486074
-1.702714	e r d	-0.21721329
-0.59615505	l r d	-0.1804965
-1.0333222	a r d	-0.4101582
-1.3590878	<s> i d	-0.42133325
-1.0657312	s i d	-0.3633413
-1.1397618	u i d	-0.1804965
-1.3779904	r i d	-0.26637512
-1.5769055	v i d	-0.1804965
-1.1749529	o i d	-0.21087418
-1.48801	d i d	-0.1804965
-1.1546881	e i d	-0.20601141
-1.4409088	g i d	-0.1804965
-1.1456151	f i d	-0.20601141
-1.5816815	l i d	-0.20601141
-1.1219722	m i d	-0.1973388
-1.1806136	c i d	-0.19949077
-1.2650881	a i d	-0.20601141
-1.3852911	w i d	-0.1804965
-1.2897186	k i d	-0.1804965
-1.2659625	b i d	-0.1804965
-1.1567646	x i d	-0.1804965
-1.8755058	<s> o d	-0.1804965
-1.6164352	s o d	-0.1804965
-1.381206	r o d	-0.1930666
-1.6065407	i o d	-0.1804965
-1.0245657	o o d	-0.26413116
-1.4074756	g o d	-0.1804965
-1.46438	f o d	-0.1804965
-1.4135852	m o d	-0.1804965
-1.6978858	t o d	-0.1804965
-1.6519496	c o d	-0.1804965
-1.310981	w o d	-0.1804965
-1.324107	k o d	-0.1804965
-1.488775	h o d	-0.19949077
-1.2929524	b o d	-0.20601141
-0.98621064	u d d	-0.21935394
-1.383246	i d d	-0.20601141
-1.0115769	o d d	-0.21935394
-1.8157881	e d d	-0.1804965
-0.9975335	a d d	-0.20924719
-1.4245867	<s> e d	-0.20227334
-1.0292752	s e d	-0.43272293
-1.1432527	u e d	-0.21935394
-1.2107879	r e d	-0.27538282
-1.0858858	v e d	-0.46538633
-1.1160758	i e d	-0.43782192
-1.0923989	o e d	-0.20601141
-0.9090465	d e d	-0.5182433
-0.98492116	e e d	-0.2934275
-0.92661387	g e d	-0.42133325
-0.95686966	n e d	-0.5601614
-1.1785086	f e d	-0.20601141
-0.9071883	l e d	-0.74724805
-1.0775528	y e d	-0.21935394
-0.9997513	m e d	-0.5279289
-0.8367944	t e d	-0.6441263
-1.0991848	c e d	-0.21782385
-0.8149941	w e d	-0.32380888
-0.9026725	p e d	-0.40046057
-0.8656293	k e d	-0.40299013
-1.2410052	h e d	-0.21087418
-0.92569405	b e d	-0.3633413
-0.9610472	z e d	-0.21935394
-0.9802324	u n d	-0.24451666
-1.2941629	i n d	-0.23930758
-1.2048914	o n d	-0.208436
-1.0131449	e n d	-0.37564877
-1.283989	y n d	-0.1804965
-1.1676583	a n d	-0.39619878
-1.5012463	e f d	-0.1804965
-1.548951	u l d	-0.1804965
-1.4468162	r l d	-0.1804965
-1.4539521	i l d	-0.19562489
-1.2420808	o l d	-0.19949077
-1.7859753	e l d	-0.1804965
-1.7021358	a l d	-0.1804965
-1.3531408	o y d	-0.1804965
-1.4495454	e y d	-0.1804965
-1.3641775	h y d	-0.1804965
-0.6131976	c m d	-0.1804965
-1.8217849	u t d	-0.1804965
-1.0539058	<s> a d	-0.29907155
-1.3341554	s a d	-0.1804965
-1.3367438	u a d	-0.1804965
-1.2625458	r a d	-0.25233144
-1.1932172	v a d	-0.22689888
-1.6594124	i a d	-0.1804965
-1.0737777	o a d	-0.19949077
-1.4326919	d a d	-0.1804965
-1.1822691	e a d	-0.25500464
-1.4244887	g a d	-0.1804965
-1.470867	n a d	-0.21935394
-1.3662051	f a d	-0.1804965
-1.6135393	l a d	-0.1804965
-1.1051614	y a d	-0.1804965
-1.521977	m a d	-0.1804965
-1.2309086	c a d	-0.19949077
-0.5745301	a a d	-0.1804965
-1.4179775	w a d	-0.1804965
-1.3664005	p a d	-0.1804965
-1.3546151	h a d	-0.20601141
-1.4784821	b a d	-0.1804965
-1.5113844	o w d	-0.1804965
-1.5320661	u p d	-0.1804965
-1.6471363	c k d	-0.1804965
-1.8311447	t h d	-0.1804965
-1.8755292	c h d	-0.1804965
-1.5274442	o b d	-0.1804965
-1.8640747	a b d	-0.1804965
-0.9730716	<s> s e	-0.37815785
-0.83746827	s s e	-0.208436
-1.0138725	u s e	-0.20187917
-0.91731334	r s e	-0.2007871
-1.0565735	i s e	-0.30182147
-0.9733016	o s e	-0.32022828
-1.2472051	d s e	-0.1804965
-1.1541537	e s e	-0.2243693
-0.91845226	n s e	-0.21233197
-0.9194802	f s e	-0.1804965
-1.0782114	y s e	-0.1804965
-1.0932019	m s e	-0.1804965
-1.3343	t s e	-0.1804965
-1.0592442	a s e	-0.25616816
-0.973401	p s e	-0.1804965
-0.96305084	b s e	-0.21935394
-1.3012048	s u e	-0.1804965
-0.9240249	v u e	-0.1804965
-1.7489692	o u e	-0.1804965
-0.9061306	g u e	-0.2243693
-1.1216605	n u e	-0.1804965
-1.134168	l u e	-0.19949077
-1.5825342	a u e	-0.1804965
-1.3236301	h u e	-0.1804965
-0.5299933	q u e	-0.23395179
-1.436846	b u e	-0.1804965
-0.5812133	z u e	-0.1804965
-0.29101294	<s> r e	-0.5902914
-0.6686898	s r e	-0.1804965
-1.0371035	u r e	-0.29639453
-0.72531635	r r e	-0.22530554
-0.64700145	i r e	-0.4011327
-0.9499805	o r e	-0.23143664
-0.9146237	d r e	-0.1804965
-1.0169142	e r e	-0.3141233
-0.7378998	g r e	-0.2110674
-0.64447516	n r e	-0.1930666
-0.83380896	f r e	-0.19124845
-0.87322146	y r e	-0.1804965
-0.92409956	t r e	-0.20930883
-0.79732096	c r e	-0.24885595
-1.0530055	a r e	-0.24434374
-0.9687962	w r e	-0.1804965
-0.69894	p r e	-0.22430076
-0.8264166	k r e	-0.1804965
-0.8303025	h r e	-0.1804965
-0.7755952	b r e	-0.27782094
-0.57476676	<s> v e	-0.32329747
-0.3563223	u v e	-0.1804965
-0.5815444	r v e	-0.19124845
-0.24181472	v v e	-0.1804965
-0.42109948	i v e	-0.3119979
-0.41227448	o v e	-0.24885595
-0.6635558	d v e	-0.1804965
-0.36390337	e v e	-0.37083203
-0.6364662	n v e	-0.21087418
-0.46401906	l v e	-0.19562489
-0.5811535	a v e	-0.20628497
-2.1079955	<s> i e	-0.1804965
-1.4252424	s i e	-0.20601141
-1.3138517	u i e	-0.1804965
-1.1123538	r i e	-0.24166481
-1.0486004	v i e	-0.1930666
-1.080656	d i e	-0.20187917
-1.4044671	g i e	-0.1804965
-1.4473499	n i e	-0.20227334
-0.85637814	f i e	-0.21087418
-1.0382862	l i e	-0.33110803
-1.1271982	y i e	-0.1804965
-1.3581789	m i e	-0.1804965
-1.2108206	t i e	-0.3633413
-1.1632047	c i e	-0.21935394
-0.8846923	p i e	-0.21297865
-1.4508915	k i e	-0.1804965
-1.1329459	h i e	-0.19124845
-1.2438759	b i e	-0.1804965
-0.8799132	z i e	-0.1804965
-0.90293926	x i e	-0.1804965
-1.9292307	<s> o e	-0.1804965
-1.6652356	s o e	-0.1804965
-1.8905828	r o e	-0.1804965
-1.4418826	e o e	-0.1804965
-1.447919	g o e	-0.1804965
-1.6105753	l o e	-0.1804965
-1.7510927	t o e	-0.1804965
-1.5401992	c o e	-0.19562489
-1.3491298	p o e	-0.1804965
-1.7030648	h o e	-0.1804965
-1.3014202	j o e	-0.1804965
-0.47631764	<s> d e	-0.5661434
-0.90210336	u d e	-0.20601141
-0.83978915	r d e	-0.22537935
-0.57550216	i d e	-0.39788848
-0.9222841	o d e	-0.1930666
-0.8012774	d d e	-0.21129934
-1.0564884	e d e	-0.20227334
-0.97338486	n d e	-0.286771
-0.6208563	l d e	-0.33581293
-0.6943898	y d e	-0.1804965
-0.63570863	a d e	-0.34350905
-0.5509194	w d e	-0.1804965
-2.0803306	<s> e e	-0.1804965
-1.3806314	s e e	-0.1804965
-1.3669184	r e e	-0.19643396
-1.6904763	v e e	-0.1804965
-1.5634334	d e e	-0.20601141
-1.2977822	n e e	-0.21087418
-1.3316387	f e e	-0.1804965
-1.5787599	l e e	-0.22689888
-1.6293229	m e e	-0.1804965
-1.4680966	t e e	-0.1973388
-1.4047856	c e e	-0.20601141
-1.256636	w e e	-0.1804965
-1.4210951	p e e	-0.19562489
-1.2719386	k e e	-0.1804965
-1.1709836	h e e	-0.1930666
-1.3226036	b e e	-0.19562489
-1.1404974	<s> g e	-0.22149135
-0.6189055	u g e	-0.20601141
-0.7522571	r g e	-0.21424621
-1.1653581	i g e	-0.1804965
-1.0099988	o g e	-0.1804965
-0.5275176	d g e	-0.1930666
-0.8435507	e g e	-0.19562489
-0.5636498	g g e	-0.2913161
-0.99010235	n g e	-0.2110674
-0.85584474	l g e	-0.1804965
-0.5144021	a g e	-0.41010883
-0.67875826	<s> n e	-0.2928334
-0.6957427	s n e	-0.20601141
-1.2016358	u n e	-0.19124845
-0.8127328	r n e	-0.20640224
-0.94968605	i n e	-0.3690305
-0.85434747	o n e	-0.32794666
-0.36878657	d n e	-0.20601141
-0.9582427	e n e	-0.2825651
-0.8203367	g n e	-0.19562489
-0.72927594	n n e	-0.21129934
-0.24359572	l n e	-0.1804965
-0.8822653	y n e	-0.1804965
-1.0254902	m n e	-0.1804965
-0.17197645	t n e	-0.5445676
-1.1316379	a n e	-0.28164124
-0.69866216	w n e	-0.1804965
-0.24359572	p n e	-0.21935394
-0.7631417	k n e	-0.1804965
-0.9462068	h n e	-0.1804965
-1.0113996	<s> f e	-0.30153248
-0.4846547	s f e	-0.1804965
-0.6299964	r f e	-0.1804965
-0.9933398	i f e	-0.1804965
-0.8470323	o f e	-0.1804965
-0.92627937	e f e	-0.1804965
-0.94347507	n f e	-0.1804965
-0.6925582	f f e	-0.20051037
-0.92130697	l f e	-0.1804965
-0.5124966	c f e	-0.1804965
-0.9238257	a f e	-0.1804965
-0.26390356	p f e	-0.1804965
-0.69729745	<s> l e	-0.38114512
-0.68173295	s l e	-0.19124845
-0.92102313	u l e	-0.19949077
-0.76173806	r l e	-0.20930883
-0.86776924	i l e	-0.28804564
-0.85544604	o l e	-0.20387623
-0.5730367	d l e	-0.26724887
-0.95939505	e l e	-0.21397404
-0.5792681	g l e	-0.1804965
-0.95222145	n l e	-0.1804965
-0.5212761	f l e	-0.20307826
-0.8610812	l l e	-0.26829156
-0.7958833	y l e	-0.1804965
-0.3603077	m l e	-0.20601141
-0.63042057	t l e	-0.20387623
-0.5689942	c l e	-0.2306652
-0.860149	a l e	-0.2931531
-0.80877423	w l e	-0.1804965
-0.54989535	p l e	-0.22063512
-0.5089045	k l e	-0.20227334
-0.7234421	h l e	-0.1804965
-0.4167333	b l e	-0.30427954
-0.52291304	z l e	-0.1804965
-0.990081	<s> y e	-0.20601141
-0.7677717	u y e	-0.1804965
-1.2299339	r y e	-0.1804965
-0.53853047	i y e	-0.1804965
-1.1045685	o y e	-0.1804965
-1.0148294	e y e	-0.21935394
-1.0704033	n y e	-0.1804965
-1.1910731	l y e	-0.1804965
-0.7798124	m y e	-0.21935394
-0.91575915	a y e	-0.19949077
-0.58700085	w y e	-0.21935394
-1.0755497	h y e	-0.1804965
-1.0115911	b y e	-0.1804965
-0.7592864	<s> m e	-0.40887475
-0.8138366	s m e	-0.20601141
-0.8933263	u m e	-0.19949077
-0.878744	r m e	-0.20640224
-0.60902125	i m e	-0.2913161
-0.65118307	o m e	-0.25268432
-0.8600347	d m e	-0.1804965
-0.658152	e m e	-0.44621807
-0.32161272	g m e	-0.3684763
-0.5567652	n m e	-0.1804965
-0.5869062	l m e	-0.1804965
-0.8422677	y m e	-0.1804965
-0.5169966	m m e	-0.20051037
-0.39822993	t m e	-0.32380888
-0.7625644	a m e	-0.27103552
-0.50716674	w m e	-0.1804965
-0.26088855	p m e	-0.1804965
-0.6101621	h m e	-0.20601141
-0.6346424	b m e	-0.1804965
-0.81939876	<s> t e	-0.39270526
-0.8649237	s t e	-0.31474444
-0.84099865	u t e	-0.1930666
-0.9634807	r t e	-0.25500464
-0.85660934	i t e	-0.37201464
-0.9364085	o t e	-0.19541977
-0.9820076	e t e	-0.24129046
-0.9588114	n t e	-0.32380888
-0.8031192	f t e	-0.1804965
-1.0616045	l t e	-0.1804965
-0.68055993	y t e	-0.1804965
-0.74678063	t t e	-0.2557762
-0.9781409	c t e	-0.32380888
-0.7335709	a t e	-0.63190824
-0.7692249	p t e	-0.21721329
-1.126489	h t e	-0.1804965
-0.9094731	b t e	-0.1804965
-0.7167533	x t e	-0.21935394
-1.9030888	<s> c e	-0.19562489
-0.86813545	s c e	-0.3155467
-1.046911	u c e	-0.19949077
-0.8802109	r c e	-0.1804965
-0.99823415	i c e	-0.31967947
-0.99628437	o c e	-0.21129934
-0.9738468	e c e	-0.20924719
-0.8343223	n c e	-0.31332466
-0.7613492	y c e	-0.1804965
-0.8578069	c c e	-0.19562489
-1.0430423	a c e	-0.19422762
-0.8512502	x c e	-0.1804965
-2.0945995	<s> a e	-0.24353758
-2.0711224	r a e	-0.1804965
-1.6147256	g a e	-0.1804965
-1.98662	l a e	-0.1804965
-1.6879436	m a e	-0.21935394
-1.6876523	c a e	-0.1804965
-1.7342153	p a e	-0.1804965
-1.3361833	h a e	-0.19562489
-0.7114929	<s> w e	-0.39410606
-0.79563856	s w e	-0.1804965
-0.70803404	o w e	-0.31781536
-0.7080287	d w e	-0.1804965
-0.61305344	e w e	-0.2243693
-0.5121226	y w e	-0.1804965
-0.26369247	m w e	-0.1804965
-0.48431957	t w e	-0.1804965
-0.9615812	a w e	-0.1804965
-0.26369247	x w e	-0.1804965
-0.83792	<s> p e	-0.55836236
-0.61515737	s p e	-0.30214474
-0.992682	u p e	-0.1804965
-0.9082837	r p e	-0.21935394
-0.9615377	i p e	-0.21782385
-0.8332287	o p e	-0.21424621
-1.0007883	e p e	-0.21087418
-0.8871076	l p e	-0.1804965
-0.69933546	y p e	-0.1804965
-0.90768325	m p e	-0.22311
-0.53837913	t p e	-0.1804965
-0.8564887	a p e	-0.19949077
-0.62757105	p p e	-0.261661
-0.8324988	x p e	-0.1804965
-0.7407079	<s> k e	-0.20628497
-0.8309645	s k e	-0.1804965
-0.6405297	u k e	-0.1804965
-0.8165282	r k e	-0.1804965
-0.72775894	i k e	-0.21087418
-0.5574675	o k e	-0.21087418
-0.83002746	e k e	-0.1804965
-0.7171478	n k e	-0.32380888
-0.9139581	l k e	-0.1804965
-0.6405297	y k e	-0.1804965
-0.84744036	c k e	-0.27829966
-0.5102405	a k e	-0.29165077
-0.51154894	p k e	-0.1804965
-0.6810909	<s> h e	-0.42602974
-0.7532135	s h e	-0.2700674
-0.80269814	r h e	-0.1804965
-0.49784255	d h e	-0.1804965
-0.65639627	e h e	-0.22689888
-0.84379464	g h e	-0.21935394
-0.6452997	n h e	-0.1804965
-0.5229844	l h e	-0.1804965
-0.76400703	t h e	-0.3008326
-0.77272254	c h e	-0.33210644
-1.0951767	a h e	-0.1804965
-0.6331621	w h e	-0.1804965
-0.7590078	p h e	-0.3269683
-0.5229844	k h e	-0.1804965
-0.7835424	<s> b e	-0.3943131
-1.0278903	u b e	-0.1804965
-1.0265379	r b e	-0.1804965
-0.67170453	i b e	-0.21782385
-0.9301429	o b e	-0.1804965
-0.7617877	d b e	-0.1804965
-0.8280745	e b e	-0.1804965
-0.51650006	n b e	-0.20601141
-0.6991985	l b e	-0.1804965
-0.6431658	y b e	-0.1804965
-0.8065615	m b e	-0.19562489
-1.0339279	a b e	-0.21129934
-0.85120213	b b e	-0.1804965
-0.6133028	<s> j e	-0.2243693
-0.47710985	o j e	-0.1804965
-0.59478986	e j e	-0.1804965
-0.47710985	n j e	-0.1804965
-0.22737244	b j e	-0.20601141
-0.33428702	i z e	-0.45569643
-0.5489917	o z e	-0.1804965
-0.76435614	e z e	-0.1804965
-0.7107616	n z e	-0.1804965
-0.63260734	t z e	-0.1804965
-0.7457374	a z e	-0.1804965
-0.7654406	z z e	-0.1804965
-0.8898139	u x e	-0.1804965
-1.0429739	o x e	-0.1804965
-0.9611273	e x e	-0.1804965
-0.84556144	a x e	-0.1804965
-2.1517382	i s g	-0.1804965
-2.088927	e s g	-0.1804965
-2.006678	<s> u g	-0.1804965
-1.4888492	s u g	-0.1804965
-1.3643233	r u g	-0.1804965
-1.0405288	o u g	-0.34930804
-1.3449169	e u g	-0.1804965
-1.412072	f u g	-0.1804965
-1.296966	l u g	-0.20601141
-0.8476594	y u g	-0.1804965
-1.3226631	m u g	-0.1804965
-1.5459905	t u g	-0.1804965
-0.98264843	a u g	-0.2913161
-1.5449036	u r g	-0.1804965
-1.4726866	i r g	-0.1804965
-1.5609617	o r g	-0.1804965
-1.5109289	e r g	-0.2643942
-1.6227381	g r g	-0.1804965
-1.386978	a r g	-0.2885168
-1.5772057	s i g	-0.19562489
-1.402583	r i g	-0.27426255
-1.5351006	d i g	-0.19949077
-1.1801652	e i g	-0.20601141
-1.4954022	g i g	-0.1804965
-1.3751472	n i g	-0.19562489
-1.4678804	f i g	-0.1804965
-1.2911476	l i g	-0.2643942
-1.5111699	m i g	-0.1804965
-1.5007136	t i g	-0.1804965
-1.5859731	a i g	-0.1804965
-1.4310063	w i g	-0.1804965
-1.3961226	p i g	-0.1804965
-1.4232998	h i g	-0.1804965
-1.494128	b i g	-0.1804965
-1.6225297	s o g	-0.1804965
-1.3838156	r o g	-0.1804965
-1.6116397	i o g	-0.1804965
-1.3851743	d o g	-0.19949077
-1.4097534	e o g	-0.1804965
-1.4125686	g o g	-0.1804965
-1.450235	n o g	-0.21935394
-1.4687405	f o g	-0.1804965
-1.4863915	l o g	-0.20601141
-1.5966822	m o g	-0.1804965
-1.7045015	t o g	-0.1804965
-1.6587234	c o g	-0.1804965
-1.6189249	p o g	-0.1804965
-1.6581398	h o g	-0.1804965
-1.325241	u d g	-0.21935394
-1.7647569	i d g	-0.1804965
-1.5862294	o d g	-0.1804965
-1.3680159	e d g	-0.21721329
-1.6206185	<s> e g	-0.1804965
-1.7852728	s e g	-0.1804965
-1.3078966	r e g	-0.2110674
-1.7185531	v e g	-0.1804965
-1.8093948	i e g	-0.1804965
-1.5864414	d e g	-0.21935394
-1.7306905	e e g	-0.1804965
-1.6623738	n e g	-0.1804965
-1.534973	f e g	-0.1804965
-1.3984668	l e g	-0.19124845
-1.6495427	m e g	-0.21935394
-1.8833672	t e g	-0.1804965
-1.5392257	p e g	-0.1804965
-1.5949628	k e g	-0.1804965
-1.0121118	x e g	-0.1804965
-0.6586891	u g g	-0.2243693
-1.0099645	i g g	-0.20601141
-1.1265686	o g g	-0.19949077
-1.5405728	e g g	-0.1804965
-1.4046746	a g g	-0.19562489
-2.0610142	<s> n g	-0.1804965
-1.2586727	u n g	-0.1930666
-0.848554	i n g	-0.5813755
-1.3615237	o n g	-0.20601141
-1.9937091	e n g	-0.1804965
-1.1636575	a n g	-0.29429987
-1.1100426	h n g	-0.1804965
-1.7181933	u l g	-0.1804965
-1.87667	i l g	-0.1804965
-1.7870591	o l g	-0.1804965
-1.7661043	e l g	-0.20601141
-1.6012461	l l g	-0.1804965
-1.3175291	y l g	-0.1804965
-1.7802218	a l g	-0.1804965
-1.4515111	t y g	-0.1804965
-2.0418851	s t g	-0.1804965
-1.7973906	u t g	-0.1804965
-2.161519	i t g	-0.1804965
-1.5822915	<s> a g	-0.19124845
-1.3568871	s a g	-0.22689888
-1.1623666	r a g	-0.20187917
-1.3114352	v a g	-0.1804965
-1.690049	i a g	-0.1804965
-1.3923366	o a g	-0.1804965
-1.2276112	d a g	-0.24353758
-1.2717241	g a g	-0.1804965
-1.1713413	n a g	-0.2243693
-1.5665036	l a g	-0.1804965
-1.1216557	y a g	-0.1804965
-1.3185236	m a g	-0.20640224
-1.3298507	t a g	-0.1930666
-1.4988412	c a g	-0.1804965
-1.4464649	w a g	-0.1804965
-1.3909508	p a g	-0.1804965
-1.3573185	k a g	-0.1804965
-1.5780816	h a g	-0.1804965
-1.5086073	b a g	-0.1804965
-1.5034386	u p g	-0.1804965
-1.823732	o p g	-0.1804965
-1.6589555	m p g	-0.1804965
-1.9579432	c h g	-0.1804965
-1.7891005	<s> s n	-0.20930883
-1.3600732	s s n	-0.1804965
-1.842244	u s n	-0.1804965
-1.9586482	e s n	-0.1804965
-1.9207422	a s n	-0.1804965
-0.122538716	<s> u n	-0.47602975
-1.2308791	s u n	-0.1804965
-1.051213	r u n	-0.1930666
-0.89991236	o u n	-0.34310213
-1.259358	d u n	-0.1804965
-1.1433012	g u n	-0.1804965
-1.1324726	f u n	-0.1804965
-1.0878073	l u n	-0.22689888
-1.0385836	m u n	-0.1804965
-1.0380161	t u n	-0.21087418
-1.4678982	c u n	-0.1804965
-1.0320777	a u n	-0.40299013
-1.0218111	p u n	-0.19949077
-1.0595771	h u n	-0.1804965
-1.0868622	b u n	-0.1804965
-1.1493462	j u n	-0.1804965
-1.5826395	u r n	-0.20924719
-1.3664008	o r n	-0.19949077
-1.6233882	e r n	-0.21816337
-1.4028835	a r n	-0.25860596
-1.6032351	e v n	-0.1804965
-0.20283654	<s> i n	-0.70691717
-0.93509096	s i n	-0.44092542
-1.100873	u i n	-0.1804965
-0.9476506	r i n	-0.34557384
-0.8177707	v i n	-0.3342743
-0.7785822	o i n	-0.20840704
-0.84926736	d i n	-0.4014706
-0.62390894	e i n	-0.21756932
-0.7380402	g i n	-0.21509336
-0.88178205	n i n	-0.33965358
-0.9561648	f i n	-0.22149135
-0.7791187	l i n	-0.47376576
-0.15156177	y i n	-0.4699369
-0.7823528	m i n	-0.2987582
-0.8760346	t i n	-0.44453982
-1.1437844	c i n	-0.19949077
-0.68632954	a i n	-0.3043859
-0.77222383	w i n	-0.26392087
-0.7397282	p i n	-0.27782094
-0.4044852	k i n	-0.4101582
-0.93201494	h i n	-0.2110674
-0.764585	b i n	-0.22537935
-0.55008584	z i n	-0.3684763
-0.6989698	s o n	-0.42383203
-1.0794592	r o n	-0.2323811
-1.2993314	v o n	-0.1804965
-0.71959585	i o n	-0.3476019
-1.3234056	o o n	-0.1804965
-0.94955635	d o n	-0.20601141
-1.1203072	e o n	-0.1804965
-1.0288519	g o n	-0.21087418
-1.1310296	n o n	-0.19562489
-1.3663816	f o n	-0.1804965
-1.2679782	l o n	-0.21721329
-0.8304012	y o n	-0.20601141
-0.7115265	m o n	-0.2219463
-0.67780036	t o n	-0.5316952
-0.8404327	c o n	-0.24937543
-1.2280196	w o n	-0.1804965
-1.0002326	p o n	-0.1930666
-1.310417	h o n	-0.21087418
-1.2150227	b o n	-0.1930666
-1.1860204	j o n	-0.1804965
-0.42212528	z o n	-0.1804965
-0.29479876	x o n	-0.1804965
-1.4837635	r d n	-0.1804965
-1.7365235	i d n	-0.1804965
-1.854898	e d n	-0.1804965
-1.4839538	l d n	-0.1804965
-0.67823607	<s> e n	-0.43648565
-1.0281245	s e n	-0.28529596
-1.1410962	u e n	-0.21129934
-1.1165981	r e n	-0.25132924
-0.8019988	v e n	-0.2288887
-0.87841904	i e n	-0.30456057
-1.2771614	o e n	-0.1804965
-0.8612577	d e n	-0.3430996
-1.0547068	e e n	-0.20051037
-0.8627442	g e n	-0.25533274
-1.4828508	n e n	-0.1804965
-1.1760588	f e n	-0.19562489
-1.0941203	l e n	-0.30481228
-1.2964894	y e n	-0.1804965
-0.6570795	m e n	-0.50691587
-0.9340604	t e n	-0.34856188
-0.93954927	c e n	-0.26677203
-0.9625844	p e n	-0.23840648
-1.224452	k e n	-0.21782385
-1.0532709	h e n	-0.19562489
-1.5034359	b e n	-0.1804965
-1.1799839	z e n	-0.1804965
-0.96663266	x e n	-0.1804965
-1.8245384	<s> g n	-0.1804965
-0.9791898	i g n	-0.21087418
-1.3760227	o g n	-0.1804965
-1.4290649	e g n	-0.1804965
-1.4487683	n g n	-0.1804965
-0.7314006	t g n	-0.1804965
-1.1888621	a g n	-0.20601141
-1.2490746	u n n	-0.3684763
-1.6147636	i n n	-0.1930666
-1.3530673	o n n	-0.30988866
-1.7227759	e n n	-0.19949077
-1.0034717	y n n	-0.1804965
-1.2033274	a n n	-0.24985549
-1.1002233	h n n	-0.1804965
-1.1375	u f n	-0.1804965
-1.8749542	u l n	-0.1804965
-1.9604003	o l n	-0.1804965
-0.96773404	s y n	-0.1804965
-1.2075893	d y n	-0.1804965
-1.3147647	e y n	-0.1804965
-1.1860584	l y n	-0.1804965
-1.0826504	m y n	-0.1804965
-1.0688313	c y n	-0.1804965
-1.4147234	a y n	-0.1804965
-1.1948898	h y n	-0.1804965
-1.5996673	u m n	-0.1804965
-1.6568499	o m n	-0.1804965
-1.6647065	e m n	-0.1804965
-1.0216365	y m n	-0.1804965
-1.6986743	a m n	-0.1804965
-0.99826276	h m n	-0.1804965
-1.5910813	r t n	-0.1804965
-1.7974243	e t n	-0.21935394
-1.1792369	f t n	-0.1804965
-1.768307	a t n	-0.1804965
-1.5419575	p t n	-0.1804965
-1.3408185	h t n	-0.1804965
-1.1259847	m c n	-0.1804965
-0.8938713	<s> a n	-0.43024647
-1.0012743	s a n	-0.20840704
-0.9954354	u a n	-0.20601141
-0.9869681	r a n	-0.29885426
-0.7477638	v a n	-0.20307826
-0.6556265	i a n	-0.5489217
-0.8920253	o a n	-0.19562489
-1.1801095	d a n	-0.20227334
-0.9434007	e a n	-0.24228819
-0.857334	g a n	-0.1930666
-1.2369068	n a n	-0.21358545
-1.1621723	f a n	-0.1804965
-0.8987263	l a n	-0.29469705
-0.80769444	y a n	-0.19949077
-0.7270648	m a n	-0.35416186
-0.8862497	t a n	-0.3060801
-1.0643997	c a n	-0.19541977
-1.1126487	w a n	-0.1804965
-0.7954576	p a n	-0.23840648
-1.2924807	k a n	-0.1804965
-1.0341938	h a n	-0.21615465
-0.91880774	b a n	-0.1930666
-1.0347668	j a n	-0.1804965
-0.78910184	z a n	-0.1804965
-0.9315961	o w n	-0.26392087
-1.0661058	a w n	-0.20601141
-1.6090273	s p n	-0.1804965
-1.6365254	m p n	-0.1804965
-1.4903955	<s> k n	-0.20601141
-1.0371689	e k n	-0.1804965
-1.3348815	c k n	-0.21935394
-1.6192201	s h n	-0.1804965
-0.58782816	i h n	-0.1804965
-1.0050851	o h n	-0.1804965
-1.3335718	g h n	-0.1804965
-1.5547112	c h n	-0.20601141
-1.0154389	e q n	-0.1804965
-1.5617441	o b n	-0.1804965
-1.9435228	u s f	-0.1804965
-2.13591	i s f	-0.1804965
-1.8425446	n s f	-0.1804965
-1.5918045	s u f	-0.1804965
-1.6422641	r u f	-0.1804965
-1.1796169	n u f	-0.21935394
-1.4683851	l u f	-0.21935394
-1.7131898	a u f	-0.1804965
-1.4157087	h u f	-0.1804965
-1.5427471	b u f	-0.1804965
-1.9729999	u r f	-0.1804965
-1.7745571	e r f	-0.21782385
-2.0213861	a r f	-0.1804965
-1.6210113	s i f	-0.21935394
-1.5341458	r i f	-0.19949077
-1.4847347	d i f	-0.1804965
-1.5472155	g i f	-0.1804965
-1.5523664	n i f	-0.1804965
-1.3080646	l i f	-0.2243693
-1.7289131	m i f	-0.1804965
-1.527318	t i f	-0.22689888
-1.4916701	c i f	-0.1804965
-1.6292807	p i f	-0.1804965
-1.6358178	h i f	-0.1804965
-1.5398802	b i f	-0.1804965
-1.1049267	<s> o f	-0.5790814
-1.5410633	s o f	-0.21935394
-1.8407197	r o f	-0.1804965
-1.8286602	o o f	-0.1804965
-1.203716	y o f	-0.1804965
-1.8690584	t o f	-0.1804965
-1.8281195	c o f	-0.1804965
-1.9383802	e d f	-0.1804965
-1.5393287	l d f	-0.1804965
-2.0596342	<s> e f	-0.21935394
-1.7248942	s e f	-0.1804965
-1.5075688	r e f	-0.20924719
-1.5799896	i e f	-0.20601141
-1.4580017	o e f	-0.1804965
-1.667348	d e f	-0.19949077
-1.8475611	e e f	-0.1804965
-1.8141494	l e f	-0.1804965
-1.5966399	c e f	-0.21935394
-1.6526892	e g f	-0.1804965
-1.6940228	n g f	-0.1804965
-1.5390997	u n f	-0.1804965
-1.4664637	r n f	-0.1804965
-1.6393524	i n f	-0.20924719
-1.6443914	o n f	-0.20227334
-2.0264907	e n f	-0.1804965
-1.9122729	a n f	-0.1804965
-0.1823478	u f f	-0.21297865
-0.8756995	i f f	-0.29639453
-0.5062241	o f f	-0.2913161
-1.1200352	e f f	-0.1804965
-0.4758007	a f f	-0.21129934
-1.4787456	u l f	-0.1804965
-1.8470123	e l f	-0.19949077
-1.709872	l l f	-0.1804965
-1.87365	a l f	-0.1804965
-1.899832	o m f	-0.1804965
-1.836324	i t f	-0.21935394
-1.7905058	o t f	-0.1804965
-1.1996586	f t f	-0.1804965
-2.0170138	a t f	-0.1804965
-1.3720076	h t f	-0.1804965
-1.1318533	m c f	-0.1804965
-1.7115585	<s> a f	-0.5445676
-1.7991402	s a f	-0.1804965
-1.9005857	r a f	-0.21935394
-1.9711604	e a f	-0.1804965
-1.8574135	n a f	-0.1804965
-1.7010374	c a f	-0.1804965
-1.8171258	h a f	-0.1804965
-1.6840831	b a f	-0.1804965
-2.692224	<s> p f	-0.1804965
-1.5027151	n k f	-0.1804965
-1.477246	t h f	-0.24353758
-1.8798715	c h f	-0.1804965
-1.4765124	<s> s l	-0.3307577
-1.4770876	s s l	-0.1804965
-1.7105515	u s l	-0.1804965
-1.3707975	i s l	-0.3128832
-1.7128875	o s l	-0.1804965
-1.3576044	d s l	-0.1804965
-1.8123296	e s l	-0.1804965
-1.3307114	n s l	-0.1804965
-0.9939973	h s l	-0.1804965
-1.85434	<s> u l	-0.1804965
-1.1804568	s u l	-0.20601141
-1.2296754	r u l	-0.1804965
-0.46325862	v u l	-0.20601141
-1.3811994	o u l	-0.19949077
-1.0340036	d u l	-0.1804965
-0.85432786	g u l	-0.1930666
-1.1822678	n u l	-0.1804965
-0.48348445	f u l	-0.49769777
-1.3526766	l u l	-0.1804965
-0.61302876	m u l	-0.19949077
-1.368966	t u l	-0.1804965
-0.5709405	c u l	-0.39844745
-1.0047139	a u l	-0.19562489
-0.5496106	w u l	-0.1804965
-0.7125213	p u l	-0.21129934
-1.0211638	h u l	-0.1804965
-0.9044017	b u l	-0.20640224
-1.0996773	j u l	-0.1804965
-0.69830775	x u l	-0.1804965
-1.3733158	u r l	-0.1930666
-1.1764414	i r l	-0.19562489
-1.9668081	o r l	-0.1804965
-1.4309971	e r l	-0.30079448
-1.2639031	a r l	-0.30113727
-1.1320012	w r l	-0.1804965
-1.6198499	a v l	-0.1804965
-1.9230949	<s> i l	-0.21935394
-1.1838408	s i l	-0.19562489
-0.9947992	u i l	-0.1804965
-1.2048831	r i l	-0.21816337
-1.1418536	v i l	-0.1804965
-0.7785822	o i l	-0.2643942
-1.3538903	d i l	-0.19949077
-1.1166592	e i l	-0.20601141
-1.3655787	g i l	-0.1804965
-1.4172256	n i l	-0.1804965
-1.1058927	f i l	-0.21129934
-1.686634	l i l	-0.1804965
-1.0951965	m i l	-0.24319811
-1.3365033	t i l	-0.20307826
-1.1437844	c i l	-0.20227334
-0.74108404	a i l	-0.24678715
-1.0508199	w i l	-0.19949077
-1.4555407	p i l	-0.1804965
-1.2473412	k i l	-0.1804965
-0.80425	h i l	-0.25860596
-0.8548129	b i l	-0.29639453
-1.103102	z i l	-0.1804965
-1.1101122	x i l	-0.1804965
-1.6408874	<s> o l	-0.1804965
-1.1369786	s o l	-0.20227334
-1.3337961	r o l	-0.1930666
-1.1261328	v o l	-0.19562489
-1.241185	i o l	-0.19949077
-1.1947589	o o l	-0.19124845
-1.22115	d o l	-0.1804965
-0.7325958	e o l	-0.21721329
-1.145047	g o l	-0.1804965
-1.1438081	n o l	-0.21721329
-1.1896355	f o l	-0.20601141
-1.2533413	m o l	-0.1930666
-1.3821672	t o l	-0.20601141
-1.2100234	c o l	-0.20051037
-0.96731067	a o l	-0.1804965
-1.2465438	w o l	-0.1804965
-1.1206682	p o l	-0.18988979
-1.0471838	k o l	-0.1804965
-0.9267329	h o l	-0.25616816
-1.318044	b o l	-0.21935394
-1.3926183	u d l	-0.1804965
-1.3351319	r d l	-0.1804965
-1.3145851	i d l	-0.20601141
-1.2328799	o d l	-0.1804965
-0.8432218	d d l	-0.20601141
-1.1825261	e d l	-0.32380888
-1.0179054	n d l	-0.20227334
-1.3531213	l d l	-0.1804965
-0.9858944	<s> e l	-0.24164449
-1.0747933	s e l	-0.2110674
-1.1223009	u e l	-0.1804965
-1.3112736	r e l	-0.21509336
-0.91325736	v e l	-0.25301725
-1.4328437	i e l	-0.21721329
-0.9664739	o e l	-0.20601141
-1.2562457	d e l	-0.21297865
-1.1259319	e e l	-0.3633413
-1.3304163	g e l	-0.19124845
-1.2425922	n e l	-0.21782385
-1.2397804	f e l	-0.1804965
-1.7802694	l e l	-0.1804965
-1.2721854	y e l	-0.1804965
-1.2076517	m e l	-0.1930666
-1.22695	t e l	-0.2758158
-0.8701719	c e l	-0.3342743
-1.1382688	a e l	-0.1804965
-0.71323824	w e l	-0.30531356
-1.3387675	p e l	-0.20601141
-1.055542	k e l	-0.1804965
-1.2207402	h e l	-0.19124845
-1.0002878	b e l	-0.20307826
-1.1330675	j e l	-0.1804965
-1.1556798	z e l	-0.1804965
-0.6851527	x e l	-0.21935394
-1.0661457	<s> g l	-0.31781536
-1.0668986	u g l	-0.1804965
-1.1652931	o g l	-0.1804965
-0.95146626	d g l	-0.1804965
-1.3900983	e g l	-0.1804965
-1.0107579	g g l	-0.20601141
-1.269682	n g l	-0.1804965
-1.1267256	l g l	-0.1804965
-2.0709732	<s> n l	-0.1804965
-1.6982565	u n l	-0.1804965
-1.4548231	r n l	-0.1804965
-1.8800402	i n l	-0.21935394
-1.8852843	o n l	-0.1804965
-1.586704	e n l	-0.19949077
-0.80853486	<s> f l	-0.5852329
-1.3314514	i f l	-0.1804965
-1.2641978	e f l	-0.1804965
-1.0851169	n f l	-0.1804965
-0.94223183	f f l	-0.1804965
-1.0767614	l f l	-0.1804965
-1.0380791	u l l	-0.21782385
-0.83018434	i l l	-0.40109155
-1.5244229	o l l	-0.19562489
-0.7144179	e l l	-0.5123216
-1.0715615	y l l	-0.1804965
-0.89517784	a l l	-0.40307733
-1.1473417	s y l	-0.1804965
-1.2986135	r y l	-0.1804965
-1.2724297	e y l	-0.1804965
-1.1313998	n y l	-0.1804965
-1.4073619	l y l	-0.1804965
-1.2438629	t y l	-0.1804965
-1.3519263	a y l	-0.1804965
-0.8760675	p y l	-0.1804965
-0.9493685	h y l	-0.1804965
-0.4148719	x y l	-0.1804965
-1.7597845	u m l	-0.1804965
-1.2635531	r m l	-0.1804965
-1.471768	m m l	-0.1804965
-1.4574037	s t l	-0.19949077
-1.4627786	u t l	-0.1804965
-1.3961917	r t l	-0.1804965
-1.6422526	i t l	-0.21935394
-1.5387603	o t l	-0.1804965
-0.7219004	d t l	-0.1804965
-1.253097	n t l	-0.20601141
-1.0637534	t t l	-0.22689888
-1.4521394	c t l	-0.1804965
-1.6187148	a t l	-0.1804965
-1.3936163	p t l	-0.1804965
-1.2046345	h t l	-0.1804965
-0.9562752	b t l	-0.1804965
-1.2034539	<s> c l	-0.4476576
-1.176891	u c l	-0.1804965
-1.5421947	i c l	-0.21935394
-1.4108033	o c l	-0.1804965
-1.4715047	e c l	-0.1804965
-1.1120207	n c l	-0.19949077
-0.7812105	y c l	-0.19949077
-0.98615855	t c l	-0.1804965
-1.5815858	a c l	-0.1804965
-0.8776294	x c l	-0.1804965
-1.0508465	<s> a l	-0.32178146
-1.0057241	s a l	-0.20387623
-0.69899195	u a l	-0.2306652
-1.2521026	r a l	-0.26677203
-1.0252765	v a l	-0.20930883
-0.9461318	i a l	-0.32818747
-1.1633881	o a l	-0.21935394
-1.049482	d a l	-0.2243693
-1.0444844	e a l	-0.2243693
-0.97648513	g a l	-0.21087418
-1.0652635	n a l	-0.22083256
-0.90717727	f a l	-0.3684763
-1.6875284	l a l	-0.1804965
-1.2758056	y a l	-0.1804965
-1.2875751	m a l	-0.20227334
-1.1159629	t a l	-0.24451666
-0.96284944	c a l	-0.208436
-1.2202008	w a l	-0.19562489
-1.2598584	p a l	-0.20601141
-1.1280568	k a l	-0.1804965
-1.1165454	h a l	-0.1804965
-0.8315711	b a l	-0.25500464
-0.82547456	x a l	-0.1804965
-1.339516	o w l	-0.19949077
-1.4763619	e w l	-0.1804965
-1.4310776	a w l	-0.1804965
-1.3054348	<s> p l	-0.48054266
-1.1640749	s p l	-0.19949077
-0.8928448	i p l	-0.2913161
-1.1094327	o p l	-0.22689888
-1.2869979	e p l	-0.1804965
-0.7988342	n p l	-0.1804965
-1.088089	m p l	-0.20640224
-0.5565836	t p l	-0.1804965
-1.3784707	a p l	-0.1804965
-1.0473361	p p l	-0.20601141
-0.86909145	x p l	-0.1804965
-1.8011409	<s> k l	-0.1804965
-1.0936621	o k l	-0.1804965
-1.1497891	n k l	-0.1804965
-1.1762471	c k l	-0.24353758
-1.5346278	s h l	-0.1804965
-0.69423556	o h l	-0.1804965
-1.2587446	g h l	-0.1804965
-1.5878683	t h l	-0.1804965
-1.4839627	c h l	-0.21935394
-1.2591319	a h l	-0.1804965
-1.4878341	p h l	-0.1804965
-1.054289	<s> b l	-0.4160905
-1.0412042	u b l	-0.20601141
-1.1438013	r b l	-0.1804965
-0.8341282	i b l	-0.24353758
-1.0168698	o b l	-0.20601141
-1.0299305	m b l	-0.21721329
-0.50527275	a b l	-0.73127645
-0.803479	b b l	-0.24353758
-1.150149	a z l	-0.1804965
-0.63376087	z z l	-0.21935394
-1.8308212	<s> s y	-0.21782385
-1.3039125	s s y	-0.21935394
-1.474857	r s y	-0.1804965
-1.5723156	o s y	-0.1804965
-1.4495983	n s y	-0.1804965
-1.8027322	a s y	-0.1804965
-1.0540086	w s y	-0.1804965
-1.3041493	p s y	-0.1804965
-0.6124449	k u y	-0.1804965
-1.5079052	h u y	-0.1804965
-1.6526878	b u y	-0.1804965
-2.104271	<s> r y	-0.21935394
-1.4509692	u r y	-0.21935394
-1.150115	r r y	-0.21935394
-1.4372268	i r y	-0.1804965
-1.4448801	o r y	-0.22689888
-1.2797621	d r y	-0.1804965
-1.3570145	e r y	-0.6115144
-0.945805	n r y	-0.1804965
-1.2485766	t r y	-0.21721329
-1.1209259	c r y	-0.1804965
-1.3100424	a r y	-0.4699369
-1.0436207	w r y	-0.1804965
-1.4031826	b r y	-0.1804965
-2.0498133	<s> v y	-0.1804965
-2.2124352	r i y	-0.1804965
-1.9656084	m i y	-0.1804965
-1.7122838	s o y	-0.1804965
-1.9498005	r o y	-0.1804965
-1.2134838	v o y	-0.21935394
-1.6483396	l o y	-0.1804965
-1.8029351	t o y	-0.1804965
-1.7598226	c o y	-0.1804965
-1.7528396	h o y	-0.1804965
-1.3436782	b o y	-0.19949077
-1.32866	j o y	-0.1804965
-2.2076063	<s> d y	-0.1804965
-1.3926183	u d y	-0.1804965
-1.3351319	r d y	-0.1804965
-1.2328799	o d y	-0.21935394
-1.1917202	d d y	-0.1804965
-1.4403996	e d y	-0.20601141
-1.5212913	n d y	-0.1804965
-1.638546	a d y	-0.1804965
-2.1424026	<s> e y	-0.1804965
-1.5603087	s e y	-0.24353758
-1.9414473	r e y	-0.1804965
-1.7400104	v e y	-0.1804965
-1.3171706	n e y	-0.46538633
-1.3659173	f e y	-0.1804965
-1.4057395	l e y	-0.5445676
-1.5562577	m e y	-0.20601141
-1.7473682	t e y	-0.1804965
-1.7327954	p e y	-0.1804965
-1.615986	k e y	-0.1804965
-1.5686957	h e y	-0.21935394
-1.6508524	b e y	-0.1804965
-1.9186018	<s> g y	-0.1804965
-1.2658288	o g y	-0.21935394
-1.572708	e g y	-0.1804965
-1.3488396	g g y	-0.1804965
-2.0709732	<s> n y	-0.1804965
-2.0346668	i n y	-0.1804965
-1.4799917	o n y	-0.22689888
-2.008978	e n y	-0.1804965
-1.2481784	n n y	-0.21935394
-1.5406793	a n y	-0.20601141
-0.90533835	i f y	-0.23370194
-1.4114809	f f y	-0.1804965
-1.8910952	<s> l y	-0.1804965
-0.977562	s l y	-0.21935394
-1.4179562	u l y	-0.1804965
-0.9451759	r l y	-0.22689888
-1.296586	i l y	-0.3684763
-1.1187841	o l y	-0.25500464
-0.9883313	d l y	-0.21935394
-1.0743414	e l y	-0.4741156
-0.8909284	g l y	-0.20601141
-0.79136264	n l y	-0.21935394
-0.9946756	l l y	-0.32380888
-1.1075495	y l y	-0.1804965
-0.4730294	t l y	-0.6115144
-1.5259653	a l y	-0.1804965
-0.8481602	w l y	-0.1804965
-1.1884154	p l y	-0.1804965
-0.6316474	h l y	-0.24353758
-0.95540994	b l y	-0.24353758
-1.749559	<s> m y	-0.19562489
-1.4324114	r m y	-0.1804965
-1.4994719	e m y	-0.1804965
-1.4031626	m m y	-0.1804965
-1.7462684	a m y	-0.1804965
-1.9505436	<s> t y	-0.20601141
-1.5440507	s t y	-0.21935394
-1.4627786	u t y	-0.1804965
-1.2486683	r t y	-0.21935394
-1.0679626	i t y	-0.72065884
-1.5387603	o t y	-0.1804965
-1.7925489	e t y	-0.1804965
-1.4888556	n t y	-0.1804965
-1.121854	l t y	-0.21935394
-1.0637534	t t y	-0.24353758
-1.7460437	a t y	-0.1804965
-1.2046345	h t y	-0.1804965
-0.9562752	b t y	-0.1804965
-2.5582683	<s> c y	-0.1804965
-1.4715688	u c y	-0.1804965
-1.823591	i c y	-0.1804965
-1.61956	e c y	-0.1804965
-1.1901195	n c y	-0.22689888
-1.5741445	a c y	-0.20601141
-2.2477539	<s> a y	-0.1804965
-1.6499305	s a y	-0.1804965
-1.7031895	r a y	-0.19562489
-1.369523	d a y	-0.1804965
-1.3111389	g a y	-0.20601141
-1.4543524	f a y	-0.1804965
-1.1441495	l a y	-0.25500464
-1.7623298	m a y	-0.1804965
-0.8674667	w a y	-0.40299013
-1.4410058	p a y	-0.1804965
-1.1993097	k a y	-0.1804965
-1.5173829	h a y	-0.1804965
-1.5713153	b a y	-0.1804965
-1.1039691	j a y	-0.1804965
-1.9047258	<s> w y	-0.1804965
-1.0849874	d w y	-0.1804965
-1.4046048	e w y	-0.1804965
-1.1517591	a w y	-0.21935394
-2.197471	<s> p y	-0.24353758
-1.5173516	s p y	-0.1804965
-1.675919	o p y	-0.1804965
-1.5301744	m p y	-0.1804965
-1.1454421	p p y	-0.21935394
-0.92905855	s k y	-0.21935394
-1.2280295	o k y	-0.1804965
-1.2559289	n k y	-0.1804965
-1.0561168	l k y	-0.1804965
-1.0959624	c k y	-0.24353758
-1.2364417	a k y	-0.20601141
-0.7120058	w k y	-0.1804965
-1.2187531	<s> h y	-0.32380888
-0.93588316	r h y	-0.1804965
-1.5093627	t h y	-0.1804965
-1.5547112	c h y	-0.20601141
-1.3541175	p h y	-0.1804965
-0.7528312	s b y	-0.1804965
-1.1710922	r b y	-0.1804965
-1.3354913	i b y	-0.1804965
-1.325443	o b y	-0.1804965
-1.2397208	e b y	-0.1804965
-0.9726486	y b y	-0.1804965
-1.6238515	a b y	-0.1804965
-0.98504263	u z y	-0.1804965
-1.1478443	a z y	-0.1804965
-0.92420876	z z y	-0.1804965
-0.29505455	<s> x y	-0.1804965
-0.85454214	o x y	-0.1804965
-1.5869045	<s> s m	-0.26637512
-1.5412297	s s m	-0.1804965
-1.0614238	i s m	-0.36520156
-1.4378321	e s m	-0.21129934
-1.6649659	n s m	-0.1804965
-1.4799588	t s m	-0.1804965
-1.6760089	a s m	-0.1804965
-1.0080158	s u m	-0.1930666
-0.7911099	r u m	-0.19124845
-0.32870033	i u m	-0.42133325
-1.0832874	d u m	-0.1804965
-1.2763852	e u m	-0.1804965
-1.3379779	g u m	-0.1804965
-0.9743154	n u m	-0.1804965
-1.145086	f u m	-0.21935394
-0.99462533	l u m	-0.20227334
-1.2546588	m u m	-0.1804965
-1.0472245	t u m	-0.29639453
-1.0439267	c u m	-0.21087418
-1.5010798	a u m	-0.1804965
-0.7919284	h u m	-0.21424621
-1.3679838	b u m	-0.1804965
-1.5191702	i r m	-0.19949077
-1.466763	o r m	-0.2110674
-1.5352006	e r m	-0.3039245
-1.5781157	a r m	-0.208436
-0.8924316	<s> i m	-0.46443135
-1.5581241	s i m	-0.20601141
-1.3681003	u i m	-0.1804965
-1.3927312	r i m	-0.19124845
-1.4332126	d i m	-0.22689888
-1.463224	e i m	-0.1804965
-1.3059552	g i m	-0.1804965
-1.4989915	n i m	-0.1804965
-1.6056727	l i m	-0.21129934
-1.2325767	t i m	-0.2637489
-1.4350384	c i m	-0.1804965
-1.3861685	a i m	-0.19949077
-1.3068521	k i m	-0.1804965
-1.4062401	h i m	-0.1804965
-1.161497	z i m	-0.1804965
-0.92662096	x i m	-0.19949077
-1.4603374	<s> o m	-0.19949077
-0.95790726	s o m	-0.22149135
-1.2161978	r o m	-0.25889048
-1.0163299	o o m	-0.21297865
-1.095328	d o m	-0.1930666
-1.3778466	e o m	-0.1804965
-0.9699265	n o m	-0.3684763
-1.5411203	l o m	-0.1804965
-1.556023	m o m	-0.1804965
-1.1688306	t o m	-0.19949077
-1.1352345	c o m	-0.21756932
-1.2895659	w o m	-0.1804965
-1.5791074	p o m	-0.1804965
-1.2992272	k o m	-0.1804965
-1.2181392	h o m	-0.1804965
-1.523559	b o m	-0.1804965
-1.7504108	i d m	-0.1804965
-1.8699913	e d m	-0.1804965
-1.7118092	n d m	-0.1804965
-1.8285285	a d m	-0.1804965
-1.204782	<s> e m	-0.25889048
-1.2695624	s e m	-0.19949077
-1.3639334	r e m	-0.21816337
-1.6832072	v e m	-0.1804965
-1.3475629	o e m	-0.1804965
-1.4660716	d e m	-0.19949077
-1.4382505	e e m	-0.19949077
-1.6783543	g e m	-0.1804965
-1.7679574	n e m	-0.1804965
-1.4977945	f e m	-0.1804965
-1.4701582	l e m	-0.19562489
-1.6240288	m e m	-0.20601141
-1.1956527	t e m	-0.20307826
-1.4991405	c e m	-0.21935394
-1.6685477	p e m	-0.1804965
-1.4306972	h e m	-0.1804965
-1.2362721	z e m	-0.1804965
-1.3775973	u g m	-0.1804965
-1.4164459	i g m	-0.1804965
-1.529843	e g m	-0.1804965
-1.5578072	n g m	-0.1804965
-1.6964571	a g m	-0.1804965
-2.1538234	i n m	-0.1804965
-2.0036204	o n m	-0.1804965
-1.9187087	e n m	-0.1804965
-2.1724281	a n m	-0.1804965
-1.7570362	i l m	-0.1804965
-1.8644178	o l m	-0.1804965
-1.6993569	e l m	-0.20601141
-1.6653211	l l m	-0.1804965
-1.8357292	a l m	-0.1804965
-0.9563536	s y m	-0.1804965
-1.3286557	r y m	-0.1804965
-1.1915175	d y m	-0.1804965
-0.8927268	g y m	-0.1804965
-0.9320796	n y m	-0.1804965
-1.2737836	l y m	-0.1804965
-1.3888736	a y m	-0.1804965
-0.8927268	w y m	-0.1804965
-0.96829253	h y m	-0.1804965
-2.3299642	<s> m m	-0.1804965
-1.1349	u m m	-0.21129934
-1.1685383	i m m	-0.21087418
-1.6215978	o m m	-0.1804965
-1.6329054	e m m	-0.1804965
-1.2406077	y m m	-0.1804965
-1.2373818	a m m	-0.21721329
-1.5541425	s t m	-0.20601141
-1.5656174	r t m	-0.1804965
-1.7795041	i t m	-0.1804965
-1.7131876	o t m	-0.1804965
-1.4583604	n t m	-0.20601141
-1.4439577	l t m	-0.1804965
-1.9324691	a t m	-0.1804965
-2.724172	<s> c m	-0.1804965
-1.9325486	a c m	-0.1804965
-1.3890188	<s> a m	-0.22110192
-1.6180956	s a m	-0.1804965
-1.1721355	r a m	-0.21615465
-1.4309158	i a m	-0.1804965
-1.2206525	o a m	-0.1804965
-1.3493557	d a m	-0.18988979
-1.2933222	e a m	-0.20640224
-1.2965705	n a m	-0.22689888
-1.4304904	f a m	-0.1804965
-1.1372194	l a m	-0.2566165
-1.7313398	m a m	-0.1804965
-1.4997641	t a m	-0.22689888
-1.3735614	c a m	-0.19949077
-1.3917696	k a m	-0.1804965
-1.2682228	h a m	-0.21129934
-1.5460843	b a m	-0.1804965
-1.6899704	o w m	-0.1804965
-1.4915178	e w m	-0.1804965
-1.8660618	o p m	-0.1804965
-1.6800154	s h m	-0.1804965
-1.1809224	e h m	-0.1804965
-1.7584704	t h m	-0.1804965
-1.318154	c h m	-0.19949077
-1.6015165	u b m	-0.1804965
-0.8249225	<s> s t	-0.80117846
-0.7445779	u s t	-0.32708868
-1.0762867	r s t	-0.1804965
-0.8184946	i s t	-0.47339743
-0.7792307	o s t	-0.25066894
-0.7599323	d s t	-0.19949077
-0.73266953	e s t	-0.40184462
-1.1096773	n s t	-0.21816337
-0.9131451	l s t	-0.1804965
-0.86114967	y s t	-0.1804965
-1.1068304	m s t	-0.1804965
-1.3504866	t s t	-0.1804965
-0.7988537	a s t	-0.3325094
-0.67597646	h s t	-0.21935394
-0.6764852	b s t	-0.19949077
-1.351339	<s> u t	-0.21129934
-1.340277	r u t	-0.1804965
-0.864342	o u t	-0.26425493
-1.3196961	e u t	-0.1804965
-1.1122816	n u t	-0.1804965
-1.1737597	f u t	-0.1804965
-1.015469	l u t	-0.1930666
-1.2976459	m u t	-0.1804965
-1.3459686	c u t	-0.20601141
-1.0618209	a u t	-0.21087418
-0.74766964	p u t	-0.19949077
-1.1266167	b u t	-0.1804965
-1.1024519	u r t	-0.21297865
-1.4853495	i r t	-0.1804965
-1.1066365	o r t	-0.30045837
-1.1920545	e r t	-0.28720242
-1.10249	a r t	-0.40190423
-1.6928297	<s> i t	-0.19949077
-1.1177765	s i t	-0.20924719
-0.61725664	u i t	-0.21816337
-1.024321	r i t	-0.35099277
-0.958002	v i t	-0.21424621
-1.2514626	o i t	-0.21935394
-1.1552303	d i t	-0.24767762
-1.1311544	e i t	-0.1804965
-1.1611817	g i t	-0.1804965
-0.9740245	n i t	-0.29384565
-1.2159259	f i t	-0.1804965
-1.0808342	l i t	-0.21523301
-0.83495563	m i t	-0.24434374
-1.1501943	t i t	-0.24563631
-1.1578344	c i t	-0.26413116
-1.2402625	a i t	-0.19949077
-0.89835787	w i t	-0.21129934
-0.9714031	p i t	-0.20227334
-1.1276567	h i t	-0.21721329
-0.8623259	b i t	-0.19124845
-0.2944016	j i t	-0.1804965
-1.7973747	<s> o t	-0.1804965
-1.5445409	s o t	-0.1804965
-0.9788551	u o t	-0.1804965
-1.2042037	r o t	-0.20628497
-1.34545	v o t	-0.1804965
-1.2552562	i o t	-0.19949077
-1.0960418	o o t	-0.20628497
-1.494081	d o t	-0.1804965
-1.0477952	n o t	-0.19949077
-1.1167996	l o t	-0.2758158
-1.1036973	y o t	-0.1804965
-1.2709814	m o t	-0.22689888
-1.4870342	t o t	-0.21935394
-1.1214765	c o t	-0.20601141
-0.97934896	a o t	-0.1804965
-1.2885779	p o t	-0.1804965
-1.4358059	h o t	-0.1804965
-1.3412627	b o t	-0.1804965
-1.5337926	r d t	-0.1804965
-1.7950926	i d t	-0.1804965
-1.7591743	n d t	-0.1804965
-1.8624539	<s> e t	-0.21935394
-1.3315347	s e t	-0.21087418
-1.1416343	u e t	-0.1804965
-1.1168832	r e t	-0.2399422
-1.3516815	v e t	-0.1804965
-1.2019653	i e t	-0.19562489
-1.0907131	o e t	-0.1804965
-1.488162	d e t	-0.1804965
-1.0550227	e e t	-0.18883605
-1.351483	g e t	-0.19562489
-1.1119183	n e t	-0.20125943
-1.2665591	f e t	-0.1804965
-1.1353276	l e t	-0.33629957
-1.2971898	y e t	-0.1804965
-1.0611291	m e t	-0.2913161
-1.6271342	t e t	-0.1804965
-1.349761	c e t	-0.1804965
-1.3853562	w e t	-0.1804965
-1.2236671	p e t	-0.21424621
-1.0695273	k e t	-0.18049653
-1.4540999	h e t	-0.21935394
-1.359932	b e t	-0.1804965
-1.1806843	z e t	-0.1804965
-1.7353199	n g t	-0.1804965
-0.96266764	u n t	-0.22581296
-1.4028102	r n t	-0.1804965
-1.2762487	i n t	-0.29981637
-1.2558062	o n t	-0.2243693
-0.9390613	e n t	-0.48297796
-1.2374512	y n t	-0.1804965
-0.9874232	a n t	-0.5568857
-1.0492827	w n t	-0.1804965
-1.0775816	i f t	-0.19949077
-0.98905224	o f t	-0.19949077
-1.3719411	e f t	-0.1804965
-1.1178398	a f t	-0.1804965
-1.038594	u l t	-0.22149135
-1.4509186	i l t	-0.19949077
-1.6308532	o l t	-0.20601141
-1.5040851	e l t	-0.1804965
-1.330387	y l t	-0.1804965
-1.3291432	a l t	-0.19949077
-1.2207248	s y t	-0.1804965
-1.2300237	d y t	-0.1804965
-1.3144915	l y t	-0.20601141
-1.2653209	a y t	-0.1804965
-1.1217769	k y t	-0.1804965
-1.1029738	b y t	-0.1804965
-0.73661757	x y t	-0.1804965
-1.883191	o m t	-0.1804965
-1.0178283	u t t	-0.2913161
-1.3149267	i t t	-0.3269683
-1.2489171	o t t	-0.20601141
-0.9865437	e t t	-0.3160682
-0.9291859	a t t	-0.40791917
-2.5195625	<s> c t	-0.1804965
-1.1269084	u c t	-0.1804965
