\data\
ngram 1=29
ngram 2=606
ngram 3=6038
ngram 4=25315
ngram 5=48159
ngram 6=58235

\1-grams:
-2.6221757	<unk>	0
0	<s>	-2.597287
-1.368395	</s>	0
-1.3519714	e	-1.0067466
-1.3854642	l	-0.71594554
-1.5049453	v	-0.6170845
-1.368395	a	-0.98263603
-1.4217576	t	-0.80973893
-1.368395	i	-0.92610717
-1.368395	o	-0.9868285
-1.4032319	n	-0.68883216
-1.4217576	f	-0.7131628
-1.4411088	g	-0.67210925
-1.3854642	s	-0.81207055
-1.4411088	p	-0.70931244
-1.4217576	d	-0.6792701
-1.4411088	w	-0.54825246
-1.4032319	r	-0.6844846
-1.4411088	c	-0.7434163
-1.3519714	u	-0.8624455
-1.4032319	b	-0.7097872
-1.8823006	x	-0.35670924
-1.3854642	y	-0.73277235
-1.4032319	h	-0.6665243
-1.6380097	q	-0.57732815
-1.4217576	m	-0.68326616
-1.6079352	j	-0.60072136
-1.5284946	z	-0.5845871
-1.4217576	k	-0.6166897

\2-grams:
-1.3625151	e </s>	0
-1.3151367	l </s>	0
-1.3154948	v </s>	0
-1.3384045	a </s>	0
-1.1648026	t </s>	0
-1.3208423	i </s>	0
-1.3685147	o </s>	0
-1.2210463	n </s>	0
-1.2230254	f </s>	0
-1.2612084	g </s>	0
-1.1597033	s </s>	0
-1.3276803	p </s>	0
-1.2246745	d </s>	0
-1.4496	w </s>	0
-1.4207673	r </s>	0
-1.4049177	c </s>	0
-1.3980517	u </s>	0
-1.2874527	b </s>	0
-0.9566358	x </s>	0
-1.016226	y </s>	0
-1.2295961	h </s>	0
-1.1793969	q </s>	0
-1.1955094	m </s>	0
-1.5896947	j </s>	0
-1.1477368	z </s>	0
-1.1275772	k </s>	0
-1.3699765	<s> e	-1.4911196
-1.3427129	e e	-0.72654676
-0.9968869	l e	-0.9261622
-0.7600486	v e	-0.64281887
-1.5477188	a e	-0.395961
-1.1631824	t e	-0.7664365
-1.2802528	i e	-0.8204312
-1.3876605	o e	-0.46397316
-1.0554786	n e	-0.73283696
-1.0352297	f e	-0.5770502
-1.0779934	g e	-0.6627865
-1.1990442	s e	-0.72208804
-1.0915143	p e	-0.66685915
-1.16033	d e	-0.6473394
-0.97793573	w e	-0.55944604
-1.0361552	r e	-0.855435
-1.0615764	c e	-0.7476999
-1.287791	u e	-0.65886647
-0.9143448	b e	-0.68158054
-0.9537925	x e	-0.38329032
-1.2304533	y e	-0.4682782
-1.0048091	h e	-0.6766404
-1.3478241	q e	-0.30259115
-0.9673427	m e	-0.69760114
-0.8096614	j e	-0.37389025
-0.8445956	z e	-0.54306185
-1.0078866	k e	-0.7026397
-1.4728062	<s> l	-1.9483652
-1.3113699	e l	-0.93216723
-1.5515316	l l	-0.5127334
-1.7493697	v l	-0.30259115
-1.2872593	a l	-0.8834063
-1.3546374	t l	-0.76451856
-1.2835046	i l	-0.7958151
-1.3126281	o l	-0.7988163
-1.5485655	n l	-0.49231362
-1.140629	f l	-0.6612036
-1.1816821	g l	-0.6612036
-1.423359	s l	-0.675525
-1.1503336	p l	-0.8474603
-1.3880973	d l	-0.6083376
-1.706362	w l	-0.31885922
-1.5983598	r l	-0.47458678
-1.1519456	c l	-0.7983768
-1.2046338	u l	-0.6716268
-1.1713727	b l	-0.6447149
-1.431242	x l	-0.37240806
-1.1764235	y l	-0.604731
-1.3126268	h l	-0.45672444
-1.381414	m l	-0.4995486
-1.7397751	z l	-0.30259115
-1.406015	k l	-0.5748965
-1.7927307	<s> v	-1.6433403
-1.4821285	e v	-0.69028383
-1.5820249	l v	-0.5690192
-1.7217462	v v	-0.30259115
-1.411512	a v	-0.8392509
-2.0750518	t v	-0.2943731
-1.3549832	i v	-0.7707776
-1.4489769	o v	-0.7507024
-1.7357467	n v	-0.44400895
-1.8439105	s v	-0.43935484
-1.688327	d v	-0.3720888
-1.6351386	r v	-0.47086486
-1.8891273	u v	-0.34480888
-2.0230618	b v	-0.30259115
-1.5986949	x v	-0.30259115
-2.074217	y v	-0.30259115
-1.948314	h v	-0.30259115
-1.7207752	z v	-0.30259115
-1.9501463	k v	-0.30259115
-1.1999029	<s> a	-1.6450752
-1.344269	e a	-0.81356776
-1.053538	l a	-0.8332184
-0.86690164	v a	-0.5882996
-1.981134	a a	-0.2994911
-1.235463	t a	-0.740337
-1.3208423	i a	-0.7404848
-1.4591755	o a	-0.49266297
-1.167587	n a	-0.744503
-0.9542089	f a	-0.48316103
-1.0511358	g a	-0.5950849
-1.2461843	s a	-0.57706535
-1.0932456	p a	-0.6362575
-1.0833006	d a	-0.60904974
-0.8933953	w a	-0.6154762
-1.0002811	r a	-0.8900266
-1.0134339	c a	-0.67265517
-1.3683273	u a	-0.54442847
-1.0241153	b a	-0.6226947
-1.2521608	x a	-0.30010936
-1.2327133	y a	-0.47192335
-1.0063736	h a	-0.6886116
-0.9266617	m a	-0.7637448
-0.6942023	j a	-0.3612131
-0.8837634	z a	-0.47656825
-1.0362707	k a	-0.44458026
-1.3041373	<s> t	-1.8786099
-1.31427	e t	-0.87607014
-1.56146	l t	-0.4930697
-1.3248607	a t	-0.900574
-1.6357396	t t	-0.5431545
-1.2683318	i t	-0.9484794
-1.3156737	o t	-0.7691023
-1.4043666	n t	-0.589051
-1.4783603	f t	-0.42491335
-1.9343371	g t	-0.30259115
-1.2060889	s t	-0.79613644
-1.3367023	p t	-0.58608794
-1.5773325	d t	-0.49734682
-1.7274958	w t	-0.29641306
-1.6102767	r t	-0.4993127
-1.5528811	c t	-0.5461932
-1.2494348	u t	-0.70186245
-1.886468	b t	-0.2976417
-1.2693983	x t	-0.33861405
-1.2724588	y t	-0.44729677
-1.5502242	h t	-0.3054773
-1.868232	m t	-0.2943731
-1.5712583	k t	-0.2984627
-1.392316	<s> i	-1.7145638
-1.4014817	e i	-0.6663831
-1.0343187	l i	-0.87088394
-0.7610458	v i	-0.65486693
-1.3773712	a i	-0.74580765
-1.1871027	t i	-0.82954705
-1.7299669	i i	-0.5579469
-1.348526	o i	-0.6842042
-1.1199929	n i	-0.6970055
-0.9542089	f i	-0.6245281
-1.1435922	g i	-0.58928347
-1.2228968	s i	-0.76209515
-1.0681074	p i	-0.658286
-1.1344677	d i	-0.6649726
-0.9490903	w i	-0.5871123
-1.0377688	r i	-0.9098247
-1.1191196	c i	-0.6597825
-1.3980517	u i	-0.5414794
-1.0765182	b i	-0.5956406
-1.1299658	x i	-0.35247946
-1.2327133	y i	-0.72953737
-1.077318	h i	-0.5942774
-1.0152998	m i	-0.66791844
-1.2265751	j i	-0.32747594
-0.8837634	z i	-0.45376515
-1.0646256	k i	-0.5231068
-1.6468563	<s> o	-1.198459
-1.4673917	e o	-0.53144085
-1.0736473	l o	-0.7911959
-0.9552168	v o	-0.49394208
-1.7864958	a o	-0.29808933
-1.1871027	t o	-0.6992498
-1.3867522	i o	-0.6649806
-1.389468	o o	-0.68739516
-1.1934946	n o	-0.6653272
-0.9542089	f o	-0.60545295
-1.0511358	g o	-0.51120025
-1.1597033	s o	-0.63894403
-1.0218152	p o	-0.6339787
-1.0163372	d o	-0.60328245
-0.9798675	w o	-0.5998004
-1.0002811	r o	-0.8414744
-1.0134339	c o	-0.6700048
-1.638413	u o	-0.4116447
-0.9773602	b o	-0.6372632
-1.2521608	x o	-0.3585974
-1.3380682	y o	-0.36557475
-0.96479404	h o	-0.6749673
-1.0406059	m o	-0.6484662
-0.81082237	j o	-0.3407891
-0.9711086	z o	-0.35598335
-1.0096543	k o	-0.4192744
-1.6955407	<s> n	-1.5924329
-1.3128175	e n	-0.9072405
-1.7040541	l n	-0.40304494
-1.7591987	v n	-0.30259115
-1.3056532	a n	-0.9563341
-1.3571578	t n	-0.5511184
-1.2321781	i n	-0.93521214
-1.3141483	o n	-0.82458425
-1.4006599	n n	-0.5548054
-1.8693643	f n	-0.29032165
-1.4311677	g n	-0.4819625
-1.6606151	s n	-0.42852628
-1.8953207	p n	-0.2943731
-1.3917783	d n	-0.52367574
-1.7168003	w n	-0.3078409
-1.6042774	r n	-0.41636476
-1.74899	c n	-0.292748
-1.2264569	u n	-0.722145
-1.8988081	b n	-0.30259115
-1.2068478	y n	-0.44686025
-1.4153758	h n	-0.3686256
-1.3606873	q n	-0.30259115
-1.3850054	m n	-0.43482023
-1.2967759	k n	-0.5479069
-1.3676257	<s> f	-1.9867024
-1.3866879	e f	-0.65494156
-1.6298599	l f	-0.3650314
-1.5583792	a f	-0.51994723
-1.4337612	t f	-0.5748965
-1.4177685	i f	-0.610049
-1.4656022	o f	-0.49274677
-1.5590686	n f	-0.5415505
-1.4783603	f f	-0.47571152
-1.8777617	g f	-0.2976417
-1.8141098	s f	-0.29585573
-1.6572073	p f	-0.2976417
-1.6600008	d f	-0.31885922
-1.7274958	w f	-0.2955376
-1.6903863	r f	-0.36449844
-1.9943256	c f	-0.30259115
-1.4054949	u f	-0.7413247
-1.9677644	b f	-0.30259115
-1.5513297	x f	-0.30259115
-1.7036301	y f	-0.32173973
-1.738302	h f	-0.3273695
-1.868232	m f	-0.29641306
-1.6772945	k f	-0.2976417
-1.4833412	<s> g	-1.7161448
-1.452215	e g	-0.6277524
-1.5665107	l g	-0.47881246
-1.3264395	a g	-0.8222765
-1.7109884	t g	-0.2955376
-1.3077707	i g	-0.73366874
-1.3551693	o g	-0.5626316
-1.4081053	n g	-0.50539166
-1.9568502	f g	-0.30259115
-1.5132896	g g	-0.448456
-1.6114917	s g	-0.31352913
-1.7724013	p g	-0.29641306
-1.5127691	d g	-0.36915392
-1.8213308	w g	-0.30259115
-1.6163601	r g	-0.42323366
-1.9459641	c g	-0.2976417
-1.3225548	u g	-0.5182038
-1.9809427	b g	-0.30259115
-1.5626956	x g	-0.30259115
-1.3926562	y g	-0.4223026
-1.9090112	h g	-0.2943731
-1.8517329	k g	-0.30259115
-0.9438835	<s> s	-1.9862616
-1.3113699	e s	-0.8154287
-1.4937031	l s	-0.48266387
-1.6389601	v s	-0.29641306
-1.2872593	a s	-0.8444348
-1.2373773	t s	-0.5367693
-1.2651913	i s	-0.8802614
-1.3309971	o s	-0.7704572
-1.3191017	n s	-0.56005335
-1.3307043	f s	-0.5993396
-1.3656571	g s	-0.44560456
-1.5474313	s s	-0.4895488
-1.2881131	p s	-0.53918505
-1.4397377	d s	-0.47076467
-1.562967	w s	-0.34476686
-1.532449	r s	-0.42604542
-1.4082173	c s	-0.59488165
-1.18536	u s	-0.73712415
-1.392403	b s	-0.48127884
-1.5294533	x s	-0.30259115
-1.2047181	y s	-0.58450305
-1.4706845	h s	-0.46103686
-1.280003	m s	-0.4449944
-1.7397751	z s	-0.30259115
-1.2463787	k s	-0.4493895
-1.1240311	<s> p	-2.0263174
-1.4086545	e p	-0.6556059
-1.5665107	l p	-0.35909632
-1.3642997	a p	-0.70501244
-1.8994638	t p	-0.32747594
-1.395112	i p	-0.6173448
-1.3967736	o p	-0.7227123
-1.6321487	n p	-0.35195535
-1.8656856	g p	-0.2976417
-1.279114	s p	-0.6934054
-1.5766857	p p	-0.46883255
-1.9080547	d p	-0.29641306
-1.7384611	w p	-0.29641306
-1.6977124	r p	-0.3994706
-1.9459641	c p	-0.29032165
-1.3776145	u p	-0.47399408
-1.9215423	b p	-0.30259115
-1.4874367	x p	-0.2994911
-1.5546359	y p	-0.34465903
-1.8873224	h p	-0.29641306
-1.4551833	m p	-0.5045846
-1.8294245	k p	-0.29032165
-1.260381	<s> d	-1.9573002
-1.31427	e d	-0.71816707
-1.5023814	l d	-0.45167238
-1.7692552	v d	-0.30259115
-1.3248607	a d	-0.7215207
-2.0458024	t d	-0.29641306
-1.2867808	i d	-0.7765393
-1.3341746	o d	-0.6914211
-1.5011599	n d	-0.5292539
-1.9444681	f d	-0.30259115
-1.8546358	g d	-0.30259115
-1.5552951	s d	-0.443798
-1.5079119	d d	-0.5315765
-1.7508652	w d	-0.2943731
-1.4841802	r d	-0.45401406
-1.9943256	c d	-0.30259115
-1.2954923	u d	-0.60815686
-1.9100264	b d	-0.2955376
-1.5499064	y d	-0.37706497
-1.8966628	h d	-0.30259115
-1.7210376	m d	-0.30259115
-1.6111782	j d	-0.30259115
-1.817883	k d	-0.29641306
-1.546815	<s> w	-1.7615395
-1.4298888	e w	-0.59944856
-1.8200902	l w	-0.34312135
-1.4281044	a w	-0.57049465
-1.3979176	t w	-0.5774878
-2.1785498	i w	-0.2943731
-1.4191725	o w	-0.63857037
-1.6321487	n w	-0.41849276
-1.9568502	f w	-0.30259115
-1.8656856	g w	-0.29032165
-1.559281	s w	-0.47648472
-1.9405168	p w	-0.30259115
-1.3992355	d w	-0.61279035
-1.8213308	w w	-0.30259115
-1.7978997	r w	-0.3746099
-1.9215423	b w	-0.30259115
-1.349777	y w	-0.37955385
-1.555742	h w	-0.41957876
-1.3694793	q w	-0.30259115
-1.9606285	m w	-0.30259115
-1.6923103	z w	-0.30259115
-1.3577288	k w	-0.5192126
-1.2525651	<s> r	-2.0896835
-1.3128175	e r	-0.9894915
-1.8022445	l r	-0.29905006
-1.6783868	v r	-0.30259115
-1.3056532	a r	-0.9604211
-1.2393	t r	-0.9025996
-1.3454685	i r	-0.6161775
-1.2794724	o r	-0.9151053
-1.6975558	n r	-0.37221646
-1.227687	f r	-0.6107379
-1.0019423	g r	-0.81679237
-1.904076	s r	-0.29585573
-1.0967292	p r	-0.8537759
-1.229736	d r	-0.68290037
-1.1847587	w r	-0.39566123
-1.6831819	r r	-0.51022327
-1.1874568	c r	-0.7605882
-1.2062125	u r	-0.7737075
-1.0270811	b r	-0.8263377
-1.3438832	y r	-0.507635
-1.3627465	h r	-0.47445315
-1.8573966	m r	-0.34312135
-1.67432	z r	-0.30259115
-1.4808245	k r	-0.3338635
-1.0072647	<s> c	-2.2007074
-1.4298888	e c	-0.75713915
-1.635778	l c	-0.48562142
-1.77955	v c	-0.30259115
-1.3264395	a c	-0.77987254
-1.4794804	t c	-0.46102485
-1.3077707	i c	-0.88012993
-1.3551693	o c	-0.7211629
-1.505837	n c	-0.5345578
-1.254044	s c	-0.77403224
-1.9178935	p c	-0.29641306
-1.7709565	d c	-0.2976417
-1.7624451	w c	-0.2943731
-1.6977124	r c	-0.4307954
-1.5575274	c c	-0.46950892
-1.2974391	u c	-0.5621093
-1.8973682	b c	-0.30259115
-1.4874367	x c	-0.2976417
-1.4402376	y c	-0.4327659
-1.7468399	h c	-0.29641306
-1.4551833	m c	-0.31978643
-1.8517329	k c	-0.30259115
-1.611008	<s> u	-1.6083286
-1.4653267	e u	-0.55712104
-1.1383498	l u	-0.63985467
-1.2128186	v u	-0.33609813
-1.4412161	a u	-0.69155115
-1.2335572	t u	-0.5997808
-1.5927049	i u	-0.75181377
-1.3096038	o u	-0.77344674
-1.2478609	n u	-0.51371413
-0.9529623	f u	-0.5792848
-1.2158514	g u	-0.5221107
-1.3834221	s u	-0.54191285
-1.1766756	p u	-0.4903437
-1.294291	d u	-0.42762315
-1.4439269	w u	-0.29905006
-1.0770276	r u	-0.66919774
-1.1174208	c u	-0.61520666
-2.0608096	u u	-0.30259115
-1.0479627	b u	-0.58943605
-1.4415321	x u	-0.2976417
-1.677619	y u	-0.36749727
-1.1599205	h u	-0.44458026
-0.22700854	q u	-0.8046246
-1.1931845	m u	-0.46350157
-0.6933144	j u	-0.37262946
-1.3207138	z u	-0.33609813
-1.3972794	k u	-0.3158557
-1.2184577	<s> b	-2.0372944
-1.4050533	e b	-0.59498954
-1.5564674	l b	-0.38043472
-1.3608618	a b	-0.7591505
-1.5716237	t b	-0.41971233
-1.415551	i b	-0.63012356
-1.4896795	o b	-0.57286143
-1.5537852	n b	-0.46443212
-1.8693643	f b	-0.30259115
-1.8438603	g b	-0.29641306
-1.3593035	s b	-0.5360556
-1.8953207	p b	-0.29641306
-1.5031085	d b	-0.3254914
-1.7168003	w b	-0.2943731
-1.6831819	r b	-0.4180591
-1.9817389	c b	-0.30259115
-1.2935541	u b	-0.5477802
-1.5310823	b b	-0.5013448
-1.5402538	x b	-0.30259115
-1.4329903	y b	-0.47648472
-1.627559	h b	-0.37862846
-1.4467876	m b	-0.5110272
-1.7501426	z b	-0.30259115
-1.8277802	k b	-0.2976417
-3.7348204	<s> x	-0.2976417
-1.5921432	e x	-0.5059137
-1.7645969	a x	-0.426756
-1.7608702	i x	-0.3882453
-1.6268433	o x	-0.48869494
-2.201777	n x	-0.30259115
-1.609398	u x	-0.39638594
-1.6071485	x x	-0.29032165
-2.4340851	<s> y	-1.0023702
-1.4462595	e y	-0.6279523
-1.0358129	l y	-0.543618
-1.218506	v y	-0.59691185
-1.422149	a y	-0.62577987
-1.2638594	t y	-0.5271459
-2.024198	i y	-0.29641306
-1.4874043	o y	-0.5525321
-1.3969845	n y	-0.3924022
-1.6766098	f y	-0.33769077
-1.3118607	g y	-0.47856006
-1.4609112	s y	-0.46345937
-1.3778476	p y	-0.42833394
-1.3002385	d y	-0.46994293
-1.2972964	w y	-0.3181948
-1.1260945	r y	-0.55533373
-1.3535949	c y	-0.4227418
-1.8456535	u y	-0.33609813
-1.2901711	b y	-0.46788096
-1.257831	x y	-0.3273695
-1.9408951	y y	-0.2943731
-1.3126268	h y	-0.42070577
-1.280003	m y	-0.4599951
-1.1503657	z y	-0.48605222
-1.3460442	k y	-0.45524514
-1.4136732	<s> h	-1.9801073
-1.4482356	e h	-0.54260266
-1.5564674	l h	-0.34039754
-1.3608618	a h	-0.48691362
-1.1905336	t h	-0.7557778
-1.8618003	i h	-0.2943731
-1.5794688	o h	-0.3720888
-1.5537852	n h	-0.48743162
-1.8438442	f h	-0.30259115
-1.2234366	g h	-0.44315022
-1.2266037	s h	-0.6917726
-1.1523167	p h	-0.752253
-1.3917783	d h	-0.5409905
-1.0929437	w h	-0.49217647
-1.6042774	r h	-0.43140125
-1.0161111	c h	-0.6896072
-1.4701724	u h	-0.38724768
-1.8988081	b h	-0.29032165
-1.4684887	x h	-0.30259115
-1.7988712	y h	-0.35387376
-1.7299287	h h	-0.2976417
-1.8573966	m h	-0.2976417
-1.67432	z h	-0.30259115
-1.3499042	k h	-0.49354917
-2.3685489	<s> q	-1.8348061
-2.0091069	e q	-0.59691185
-2.0924158	l q	-0.29032165
-1.8450129	a q	-0.59839386
-1.7324302	i q	-0.8495293
-2.3751569	o q	-0.29032165
-1.7776228	n q	-0.52996504
-1.714375	s q	-0.59691185
-2.0426934	r q	-0.37240806
-2.127834	c q	-0.30259115
-2.3061073	u q	-0.30259115
-1.6662415	x q	-0.30259115
-2.0928297	h q	-0.30259115
-2.0351737	k q	-0.30259115
-1.2663115	<s> m	-2.0206556
-1.3866879	e m	-0.75523883
-1.6298599	l m	-0.448456
-1.3071636	a m	-0.87404823
-1.39515	t m	-0.74511045
-1.3262107	i m	-0.79905313
-1.3534989	o m	-0.7207195
-1.5590686	n m	-0.48652557
-1.8797562	f m	-0.30259115
-1.4353024	g m	-0.52996504
-1.3942394	s m	-0.64020514
-1.9064604	p m	-0.29032165
-1.5079119	d m	-0.45679715
-1.7508652	w m	-0.2943731
-1.542668	r m	-0.4875208
-1.9943256	c m	-0.30259115
-1.2281171	u m	-0.751254
-1.886468	b m	-0.2976417
-1.208988	y m	-0.51030016
-1.4799125	h m	-0.46262944
-1.4509652	m m	-0.5035478
-1.7607636	z m	-0.30259115
-1.6772945	k m	-0.36172038
-1.9896301	<s> j	-1.5122871
-2.0019605	e j	-0.3648992
-1.9778498	a j	-0.2970952
-2.2790413	i j	-0.2943731
-2.357977	o j	-0.30259115
-1.6785716	n j	-0.443798
-2.2389276	s j	-0.30259115
-2.1055427	p j	-0.30259115
-2.028938	d j	-0.30259115
-2.0516906	r j	-0.30259115
-2.1981397	u j	-0.2943731
-1.8016531	b j	-0.4507838
-2.142194	y j	-0.30259115
-2.0741131	h j	-0.30259115
-2.0167842	k j	-0.30259115
-2.8191192	<s> z	-0.6393685
-1.5961941	e z	-0.44560456
-2.0059934	l z	-0.30259115
-1.6052327	a z	-0.6079921
-1.5972143	t z	-0.45055428
-1.4290291	i z	-0.7099816
-1.6719872	o z	-0.43482023
-1.6580657	n z	-0.37221646
-2.0053847	g z	-0.30259115
-2.1067674	s z	-0.2943731
-2.041685	d z	-0.30259115
-1.8787198	w z	-0.30259115
-1.6415831	r z	-0.2955376
-1.9942522	c z	-0.30259115
-1.6195472	u z	-0.40600944
-2.0305533	y z	-0.30259115
-2.0223653	h z	-0.30259115
-1.3573464	z z	-0.47022608
-1.9349647	<s> k	-1.2396762
-1.6868558	e k	-0.42818066
-1.7110837	l k	-0.40258437
-1.3827397	a k	-0.57288617
-2.0458024	t k	-0.29641306
-1.4440277	i k	-0.59502715
-1.5200357	o k	-0.50867736
-1.5590686	n k	-0.3908734
-1.9444681	f k	-0.30259115
-1.9343371	g k	-0.30259115
-1.3316859	s k	-0.65157545
-1.6572073	p k	-0.36172038
-1.9165628	d k	-0.30259115
-1.7508652	w k	-0.2984627
-1.6903863	r k	-0.4337318
-1.4148928	c k	-0.48617712
-1.6514416	u k	-0.44029474
-1.9677644	b k	-0.30259115
-1.8072971	y k	-0.2976417
-1.6341605	h k	-0.2984627
-1.9472634	m k	-0.30259115
-1.7607636	z k	-0.30259115
-1.817883	k k	-0.29032165

\3-grams:
-0.87316966	e e </s>	0
-1.1409022	l e </s>	0
-1.1294203	v e </s>	0
-0.6676959	a e </s>	0
-1.1399904	t e </s>	0
-0.8935546	i e </s>	0
-1.0693653	o e </s>	0
-1.230851	n e </s>	0
-1.1988598	f e </s>	0
-1.0025847	g e </s>	0
-1.1537402	s e </s>	0
-1.0812376	p e </s>	0
-1.1359966	d e </s>	0
-1.3793418	w e </s>	0
-1.2618916	r e </s>	0
-1.0345905	c e </s>	0
-0.8605529	u e </s>	0
-1.2172971	b e </s>	0
-0.9760287	y e </s>	0
-1.6452639	h e </s>	0
-1.2127901	m e </s>	0
-0.8634825	z e </s>	0
-1.0501225	k e </s>	0
-1.0075568	e l </s>	0
-1.0940894	l l </s>	0
-0.9709398	a l </s>	0
-1.1608706	i l </s>	0
-1.0592943	o l </s>	0
-1.5510812	d l </s>	0
-0.8808597	w l </s>	0
-1.0157237	r l </s>	0
-1.3092889	u l </s>	0
-1.610293	b l </s>	0
-1.0473083	y l </s>	0
-0.8842268	h l </s>	0
-1.1982875	e v </s>	0
-1.6123631	a v </s>	0
-1.5449779	i v </s>	0
-0.8113947	o v </s>	0
-1.3542628	r v </s>	0
-1.3542056	e a </s>	0
-1.2172277	l a </s>	0
-1.1207812	v a </s>	0
-1.196973	t a </s>	0
-0.8449049	i a </s>	0
-1.3247162	o a </s>	0
-1.2498155	n a </s>	0
-1.5216974	f a </s>	0
-1.1410909	g a </s>	0
-1.1585023	s a </s>	0
-1.691411	p a </s>	0
-1.0694945	d a </s>	0
-1.6511562	w a </s>	0
-1.2312119	r a </s>	0
-1.113832	c a </s>	0
-1.476122	u a </s>	0
-1.2530177	b a </s>	0
-0.9907244	y a </s>	0
-1.3624451	h a </s>	0
-1.1695373	m a </s>	0
-1.4286005	j a </s>	0
-0.914327	z a </s>	0
-0.7897322	k a </s>	0
-0.9139354	e t </s>	0
-1.0085382	l t </s>	0
-1.170414	a t </s>	0
-0.997318	t t </s>	0
-1.0413185	i t </s>	0
-0.98302907	o t </s>	0
-1.0074799	n t </s>	0
-0.92166317	f t </s>	0
-1.1350191	s t </s>	0
-0.9568765	p t </s>	0
-0.4404682	d t </s>	0
-0.55543077	w t </s>	0
-1.1022907	r t </s>	0
-1.0336759	c t </s>	0
-1.0330249	u t </s>	0
-1.0723294	b t </s>	0
-1.1356044	y t </s>	0
-1.1279072	h t </s>	0
-0.44399709	m t </s>	0
-0.9279475	k t </s>	0
-1.1853026	e i </s>	0
-1.4114605	l i </s>	0
-1.6593003	v i </s>	0
-1.3089907	a i </s>	0
-1.5598313	t i </s>	0
-0.23213714	i i </s>	0
-1.6040617	o i </s>	0
-1.4364351	n i </s>	0
-1.3295465	g i </s>	0
-1.5893154	s i </s>	0
-1.6851019	p i </s>	0
-1.4806993	d i </s>	0
-1.4431329	r i </s>	0
-1.6945068	c i </s>	0
-1.6058424	b i </s>	0
-1.4520415	y i </s>	0
-1.4071368	h i </s>	0
-1.4159057	m i </s>	0
-1.0695689	j i </s>	0
-1.1395195	z i </s>	0
-1.3653966	k i </s>	0
-1.4988188	e o </s>	0
-1.2585312	l o </s>	0
-1.4568956	v o </s>	0
-0.95786905	a o </s>	0
-1.1185796	t o </s>	0
-0.91697705	i o </s>	0
-1.3503553	o o </s>	0
-1.3300428	n o </s>	0
-1.0715142	g o </s>	0
-1.2209771	s o </s>	0
-1.8306873	p o </s>	0
-1.0743546	d o </s>	0
-1.3521879	r o </s>	0
-1.2767793	c o </s>	0
-1.7197336	b o </s>	0
-1.4537927	y o </s>	0
-1.5224909	h o </s>	0
-1.2131479	m o </s>	0
-1.4471295	j o </s>	0
-1.0417674	z o </s>	0
-1.1496747	k o </s>	0
-1.166434	e n </s>	0
-1.0202318	l n </s>	0
-1.044728	a n </s>	0
-1.0635202	i n </s>	0
-0.9866998	o n </s>	0
-0.9679221	n n </s>	0
-1.3805727	g n </s>	0
-0.73792666	s n </s>	0
-0.9222386	d n </s>	0
-0.9011798	w n </s>	0
-1.0911179	r n </s>	0
-1.4982461	u n </s>	0
-1.4407929	y n </s>	0
-0.6279748	h n </s>	0
-0.9279338	m n </s>	0
-1.3861084	e f </s>	0
-0.896772	l f </s>	0
-1.2610234	a f </s>	0
-1.3253407	i f </s>	0
-1.4685254	o f </s>	0
-1.0102673	f f </s>	0
-1.1197865	s f </s>	0
-0.8843496	p f </s>	0
-0.99588263	r f </s>	0
-0.27441046	x f </s>	0
-1.4166268	e g </s>	0
-1.508933	a g </s>	0
-1.2227174	i g </s>	0
-1.2444192	o g </s>	0
-1.0723766	n g </s>	0
-1.1129938	g g </s>	0
-1.2613393	d g </s>	0
-1.1365348	r g </s>	0
-1.1269886	u g </s>	0
-0.27646512	x g </s>	0
-0.8419819	e s </s>	0
-0.7506131	l s </s>	0
-0.7947045	v s </s>	0
-0.98667324	a s </s>	0
-0.5480547	t s </s>	0
-1.0346034	i s </s>	0
-0.855086	o s </s>	0
-0.87009454	n s </s>	0
-0.20135453	f s </s>	0
-0.42149353	g s </s>	0
-1.0620297	s s </s>	0
-0.75336975	p s </s>	0
-0.6771865	d s </s>	0
-0.6713728	w s </s>	0
-0.7896226	r s </s>	0
-0.20123048	c s </s>	0
-0.7880436	u s </s>	0
-0.565403	b s </s>	0
-0.6993142	y s </s>	0
-0.4180434	h s </s>	0
-0.48706052	m s </s>	0
-0.5494794	k s </s>	0
-1.3390177	e p </s>	0
-1.2249655	l p </s>	0
-1.0923615	a p </s>	0
-1.3384455	i p </s>	0
-1.2576606	o p </s>	0
-1.4111347	s p </s>	0
-1.194103	p p </s>	0
-1.2903514	r p </s>	0
-0.79159415	u p </s>	0
-1.1728702	m p </s>	0
-0.726796	e d </s>	0
-0.92242986	l d </s>	0
-1.2001933	a d </s>	0
-0.9043677	i d </s>	0
-1.1439301	o d </s>	0
-1.1883972	n d </s>	0
-0.7056149	g d </s>	0
-1.3187717	d d </s>	0
-0.7149562	w d </s>	0
-0.976055	r d </s>	0
-1.0583731	u d </s>	0
-1.1749985	y d </s>	0
-0.80925655	m d </s>	0
-0.9842912	e w </s>	0
-1.1130513	a w </s>	0
-1.0354791	o w </s>	0
-1.5646846	d w </s>	0
-0.28442502	q w </s>	0
-1.121504	e r </s>	0
-1.1485604	a r </s>	0
-1.3398271	i r </s>	0
-1.084252	o r </s>	0
-1.1882844	s r </s>	0
-1.3489363	w r </s>	0
-1.068369	r r </s>	0
-1.3816652	u r </s>	0
-1.2862573	h r </s>	0
-1.1645004	e c </s>	0
-1.3675569	a c </s>	0
-1.2370508	t c </s>	0
-0.95413154	i c </s>	0
-1.5773767	o c </s>	0
-1.3616791	n c </s>	0
-1.832199	s c </s>	0
-1.5385802	r c </s>	0
-1.3716778	e u </s>	0
-1.723204	l u </s>	0
-0.99107575	v u </s>	0
-1.360173	a u </s>	0
-1.5175315	t u </s>	0
-1.711336	o u </s>	0
-1.4241798	n u </s>	0
-1.7027171	f u </s>	0
-1.5611938	s u </s>	0
-1.4708445	r u </s>	0
-1.6227871	h u </s>	0
-1.5900325	m u </s>	0
-1.4574604	j u </s>	0
-1.1874781	k u </s>	0
-1.3778108	e b </s>	0
-1.1817496	l b </s>	0
-1.7003193	a b </s>	0
-1.3376266	i b </s>	0
-1.5182722	o b </s>	0
-1.111939	r b </s>	0
-1.158467	u b </s>	0
-1.1636338	b b </s>	0
-1.1116614	h b </s>	0
-1.0923676	m b </s>	0
-0.7834712	e x </s>	0
-0.6598437	a x </s>	0
-0.59813046	i x </s>	0
-0.63197494	o x </s>	0
-0.6530279	n x </s>	0
-0.44980818	u x </s>	0
-0.5223165	x x </s>	0
-0.5105465	e y </s>	0
-0.54753083	l y </s>	0
-0.15508543	v y </s>	0
-0.86251175	a y </s>	0
-0.4697489	t y </s>	0
-0.8347202	o y </s>	0
-0.579595	n y </s>	0
-0.40923074	f y </s>	0
-0.3255346	g y </s>	0
-0.5098821	s y </s>	0
-0.4284882	p y </s>	0
-0.52708143	d y </s>	0
-0.6917975	w y </s>	0
-0.5904614	r y </s>	0
-0.56421757	c y </s>	0
-0.8925787	u y </s>	0
-0.37761152	b y </s>	0
-0.5344767	x y </s>	0
-0.6651944	y y </s>	0
-0.6874023	h y </s>	0
-0.47516096	m y </s>	0
-0.29740483	z y </s>	0
-0.38133246	k y </s>	0
-1.2133381	e h </s>	0
-0.7048349	a h </s>	0
-0.91382927	t h </s>	0
-1.2765521	o h </s>	0
-1.1829917	n h </s>	0
-0.96686935	g h </s>	0
-1.1410265	s h </s>	0
-1.2860888	p h </s>	0
-1.3789711	w h </s>	0
-1.0214344	c h </s>	0
-0.5898609	u h </s>	0
-0.8858589	h h </s>	0
-1.1400491	a q </s>	0
-0.9864909	n q </s>	0
-1.0534377	s q </s>	0
-0.92637604	e m </s>	0
-1.0954014	l m </s>	0
-1.0556071	a m </s>	0
-1.0735171	i m </s>	0
-1.0597316	o m </s>	0
-1.2382137	s m </s>	0
-1.0670987	r m </s>	0
-0.8292772	u m </s>	0
-0.87783575	b m </s>	0
-1.4513826	y m </s>	0
-1.1504369	h m </s>	0
-1.2798638	m m </s>	0
-1.1628349	a j </s>	0
-0.4206997	e z </s>	0
-0.86705744	l z </s>	0
-0.39036247	t z </s>	0
-1.437091	i z </s>	0
-0.8375592	n z </s>	0
-0.9677038	r z </s>	0
-0.54310036	c z </s>	0
-0.45821857	e k </s>	0
-1.0292972	l k </s>	0
-0.91291016	a k </s>	0
-0.8797871	i k </s>	0
-0.8498869	o k </s>	0
-0.96564674	n k </s>	0
-1.1409323	s k </s>	0
-0.9167619	w k </s>	0
-1.0343468	r k </s>	0
-0.9925413	c k </s>	0
-1.0819567	u k </s>	0
-0.86036134	y k </s>	0
-0.9167619	h k </s>	0
-2.688188	<s> e e	-0.22003946
-1.7997788	e e e	-0.24170282
-1.3370713	l e e	-0.2546311
-1.7965077	v e e	-0.22003946
-1.1756707	t e e	-0.38587964
-1.9786206	i e e	-0.22003946
-1.6007657	o e e	-0.22003946
-1.2730309	n e e	-0.29906186
-1.1951945	f e e	-0.25283447
-1.4203186	g e e	-0.27008593
-1.1924512	s e e	-0.33884642
-1.7196932	p e e	-0.22003946
-1.3099779	d e e	-0.25285435
-1.1146882	w e e	-0.24448834
-1.2937235	r e e	-0.36696914
-1.2371451	c e e	-0.25769392
-1.7608751	u e e	-0.22003946
-1.4681815	b e e	-0.2329074
-1.4063348	y e e	-0.2529537
-1.2067581	h e e	-0.26185435
-1.7764784	m e e	-0.22003946
-1.3766158	j e e	-0.22003946
-1.4659119	z e e	-0.22003946
-1.0481697	k e e	-0.31568587
-0.71231574	<s> l e	-0.6981274
-0.96223086	e l e	-0.49238196
-1.0150793	l l e	-0.372497
-0.5213238	v l e	-0.22003946
-1.0005462	a l e	-0.5911201
-0.5125083	t l e	-0.4794857
-0.97474325	i l e	-0.55639184
-0.9419447	o l e	-0.41900522
-0.64093393	n l e	-0.25663608
-0.7313934	f l e	-0.28778085
-0.6148316	g l e	-0.31574327
-0.48444855	s l e	-0.29512742
-0.6563839	p l e	-0.42261752
-0.56211084	d l e	-0.45049804
-0.61931753	w l e	-0.26143533
-0.8434593	r l e	-0.28778085
-0.6206783	c l e	-0.39873478
-1.1157994	u l e	-0.31952238
-0.58720636	b l e	-0.39762872
-0.20865574	x l e	-0.22003946
-0.7304598	y l e	-0.30484805
-0.7201204	h l e	-0.24605092
-0.48499826	m l e	-0.3197018
-0.6626532	z l e	-0.22003946
-0.6897373	k l e	-0.25052196
-0.51183504	<s> v e	-0.8513621
-0.54514015	e v e	-0.54688185
-0.55310166	l v e	-0.26425895
-0.47177047	v v e	-0.22003946
-0.5978534	a v e	-0.5572439
-0.5010802	i v e	-0.62979454
-0.51042986	o v e	-0.5221599
-0.65181077	n v e	-0.25585514
-0.5087154	s v e	-0.22003946
-0.73967934	d v e	-0.22003946
-0.81044275	r v e	-0.25286853
-0.72842157	u v e	-0.2385411
-0.23035489	b v e	-0.22003946
-0.47177047	h v e	-0.22003946
-0.47177047	z v e	-0.22003946
-2.0811937	<s> a e	-0.70941865
-1.7479988	l a e	-0.23618485
-1.8510247	v a e	-0.22003946
-1.113844	a a e	-0.22003946
-1.9969954	i a e	-0.22003946
-1.6567405	n a e	-0.23618485
-1.7686944	f a e	-0.22003946
-1.8654722	g a e	-0.22003946
-1.9368671	p a e	-0.22003946
-1.8248817	r a e	-0.23618485
-1.8386623	c a e	-0.22003946
-1.8927864	b a e	-0.22003946
-1.7392105	h a e	-0.22003946
-1.7769614	m a e	-0.23618485
-0.791463	<s> t e	-0.93124044
-0.9589908	e t e	-0.57876056
-1.109427	l t e	-0.29994786
-0.9117891	a t e	-0.72313285
-0.99700207	t t e	-0.39152277
-1.0656112	i t e	-0.61182404
-0.89397705	o t e	-0.47164536
-1.1537292	n t e	-0.36203167
-0.9213147	f t e	-0.25280467
-0.79679215	g t e	-0.22003946
-0.8845127	s t e	-0.4815898
-0.82471645	p t e	-0.40838864
-1.1018457	r t e	-0.3443771
-1.0333349	c t e	-0.31568587
-0.96261877	u t e	-0.55625165
-1.0716689	b t e	-0.22003946
-0.6947543	x t e	-0.2307361
-0.9551197	y t e	-0.23618485
-1.1271698	h t e	-0.22803713
-0.69436044	m t e	-0.22003946
-1.7659322	e i e	-0.22003946
-1.1363336	l i e	-0.5007141
-0.9936878	v i e	-0.3337347
-1.30162	a i e	-0.25960463
-1.141451	t i e	-0.54435503
-1.7311242	o i e	-0.22003946
-1.2836623	n i e	-0.31077534
-0.71427554	f i e	-0.50851476
-1.005858	g i e	-0.41273302
-1.1461457	s i e	-0.4534834
-0.841346	p i e	-0.41681162
-1.0343028	d i e	-0.47777754
-1.5254585	w i e	-0.22003946
-1.1396784	r i e	-0.48779964
-1.1627022	c i e	-0.373548
-1.5770857	u i e	-0.22003946
-1.1266689	b i e	-0.24448834
-1.1943511	x i e	-0.22003946
-1.4414437	y i e	-0.22003946
-1.2207284	h i e	-0.2918729
-1.2218273	m i e	-0.24903964
-0.69207156	z i e	-0.3668384
-1.1087465	k i e	-0.25280467
-2.193944	<s> o e	-0.22003946
-1.6598208	e o e	-0.22003946
-1.5651537	l o e	-0.25275502
-1.2603964	t o e	-0.37769374
-1.8348678	i o e	-0.22003946
-1.3540606	o o e	-0.24616827
-1.8916414	n o e	-0.22003946
-1.7148173	f o e	-0.22003946
-1.2680438	g o e	-0.26429978
-1.7038062	s o e	-0.22003946
-1.5829775	p o e	-0.22003946
-1.5741143	d o e	-0.24170282
-1.6224217	w o e	-0.22003946
-1.508357	r o e	-0.25280467
-1.7904954	c o e	-0.2307361
-1.848441	b o e	-0.22003946
-1.4279546	h o e	-0.2385411
-1.4574937	j o e	-0.22003946
-1.4094585	z o e	-0.22003946
-1.591188	k o e	-0.22003946
-0.58469504	<s> n e	-0.63821924
-1.0798627	e n e	-0.52570295
-0.37221292	l n e	-0.25960463
-1.1779938	a n e	-0.4307037
-0.31508845	t n e	-0.53653014
-1.0293595	i n e	-0.60674053
-0.99028254	o n e	-0.55650043
-0.7845681	n n e	-0.34067088
-0.27358195	f n e	-0.24170282
-0.8309412	g n e	-0.24903964
-0.5984887	s n e	-0.2385411
-0.4321555	p n e	-0.22003946
-0.37460554	d n e	-0.42258674
-1.0110493	w n e	-0.22003946
-0.8718511	r n e	-0.3600007
-0.620045	c n e	-0.22003946
-1.1746328	u n e	-0.3156285
-0.53055644	b n e	-0.22003946
-0.6991784	y n e	-0.3023936
-0.7681904	h n e	-0.27008593
-0.6208551	m n e	-0.25275502
-0.44150016	k n e	-0.29422715
-1.0094063	<s> f e	-0.6263069
-1.014768	e f e	-0.24605092
-0.9839606	l f e	-0.2307361
-0.8913284	a f e	-0.25283447
-1.3148415	t f e	-0.22003946
-0.8837414	i f e	-0.3361898
-1.0944525	o f e	-0.2329074
-0.94128156	n f e	-0.23618485
-0.96461457	f f e	-0.30377916
-0.6171321	g f e	-0.2529537
-1.0349188	s f e	-0.22003946
-0.83320266	p f e	-0.22003946
-0.926737	w f e	-0.22003946
-0.9395391	r f e	-0.2329074
-0.52748376	c f e	-0.22003946
-0.91349614	<s> g e	-0.7704681
-0.7885071	e g e	-0.35539904
-0.58385193	l g e	-0.2385411
-0.7730328	a g e	-0.6515508
-0.94310504	t g e	-0.22003946
-0.92877346	i g e	-0.4213536
-0.8484529	o g e	-0.3320157
-1.0285764	n g e	-0.45102638
-0.81248224	g g e	-0.4057327
-0.88861936	s g e	-0.22003946
-0.5707748	d g e	-0.35369498
-0.94240934	r g e	-0.36715847
-0.8462862	c g e	-0.22003946
-0.832098	u g e	-0.32523215
-1.1342009	y g e	-0.22003946
-1.0173514	<s> s e	-0.93886185
-1.0882082	e s e	-0.3944792
-1.0244634	l s e	-0.22919181
-1.0476915	a s e	-0.38532138
-1.1734346	t s e	-0.25960463
-1.115623	i s e	-0.5482614
-1.0878764	o s e	-0.39275247
-1.0109886	n s e	-0.34999156
-1.2109437	f s e	-0.22003946
-0.9236114	s s e	-0.36253235
-1.0877895	p s e	-0.26143533
-1.3144966	d s e	-0.22003946
-1.0523435	r s e	-0.30234903
-0.9228427	u s e	-0.4918487
-0.91403216	b s e	-0.23618485
-0.27303004	x s e	-0.22003946
-0.7663598	y s e	-0.23436098
-1.2737973	h s e	-0.22003946
-1.0848113	m s e	-0.2881373
-1.2598797	k s e	-0.22003946
-0.83400464	<s> p e	-1.0042957
-1.394328	e p e	-0.25585514
-0.840057	l p e	-0.24616827
-0.9227829	a p e	-0.46041763
-0.9964029	t p e	-0.22003946
-1.0359871	i p e	-0.29830387
-0.9558358	o p e	-0.41621396
-1.1714624	n p e	-0.22003946
-0.8502388	g p e	-0.22003946
-0.7028345	s p e	-0.39170936
-0.8825382	p p e	-0.34037274
-0.77889514	d p e	-0.22003946
-1.0464144	r p e	-0.25285435
-1.2233973	u p e	-0.25275502
-0.9856135	x p e	-0.22003946
-1.0419245	y p e	-0.2307361
-1.013116	m p e	-0.28364044
-0.46790835	<s> d e	-1.0697151
-1.0159864	e d e	-0.39212197
-0.91037613	l d e	-0.36725405
-0.78284454	a d e	-0.66967404
-0.70268303	i d e	-0.59104955
-0.83373284	o d e	-0.4326325
-1.0318213	n d e	-0.35925132
-0.6952813	g d e	-0.22003946
-1.175891	s d e	-0.22003946
-0.8638909	d d e	-0.43766236
-0.70420146	w d e	-0.22003946
-1.064051	r d e	-0.25507948
-0.91887164	u d e	-0.37460396
-0.59126496	y d e	-0.23618485
-0.79617935	m d e	-0.22003946
-0.9200004	<s> w e	-0.62392014
-0.7506772	e w e	-0.4399681
-1.0091017	l w e	-0.22003946
-1.018547	a w e	-0.25280467
-0.7522045	t w e	-0.25275502
-0.88634396	o w e	-0.4861077
-0.8444191	s w e	-0.23618485
-0.8973141	d w e	-0.2329074
-0.72502947	r w e	-0.23618485
-1.0982852	y w e	-0.22003946
-0.5729729	h w e	-0.23618485
-0.2563247	m w e	-0.22003946
-0.5181073	z w e	-0.22003946
-1.185193	k w e	-0.22003946
-0.24837491	<s> r e	-1.267618
-1.1473191	e r e	-0.51156634
-0.92848206	l r e	-0.22003946
-0.671405	v r e	-0.22003946
-1.1333486	a r e	-0.5034554
-0.71684563	t r e	-0.3171932
-0.83254945	i r e	-0.4693424
-1.0100563	o r e	-0.5016799
-0.81189734	n r e	-0.24160601
-0.7181002	f r e	-0.25482887
-0.6379081	g r e	-0.44334126
-0.8690325	s r e	-0.2329074
-0.67489165	p r e	-0.31843808
-0.65277326	d r e	-0.32123846
-0.8582163	w r e	-0.2385411
-0.8888764	r r e	-0.32454693
-0.77246743	c r e	-0.38350058
-0.97533035	u r e	-0.5368696
-0.74062014	b r e	-0.26776645
-1.1372156	y r e	-0.22003946
-0.7448404	h r e	-0.23172167
-1.0732858	k r e	-0.22003946
-1.465589	<s> c e	-0.6863269
-1.1803769	e c e	-0.29918185
-1.1261182	l c e	-0.22003946
-0.9803996	a c e	-0.38523728
-1.2771358	t c e	-0.22003946
-0.9578407	i c e	-0.54938304
-1.0437436	o c e	-0.24719378
-1.0251741	n c e	-0.38257748
-0.9707067	s c e	-0.338516
-0.7713362	p c e	-0.22003946
-0.95818484	r c e	-0.2528212
-1.0295885	c c e	-0.23618485
-0.94045186	u c e	-0.28761643
-1.0272897	x c e	-0.22003946
-1.0644618	y c e	-0.22003946
-0.7713362	h c e	-0.22003946
-1.0442729	m c e	-0.22003946
-1.6304991	e u e	-0.22003946
-1.1606086	l u e	-0.23948723
-1.337378	a u e	-0.36699593
-1.4778644	t u e	-0.22003946
-1.9074719	o u e	-0.22003946
-1.2525725	n u e	-0.23618485
-1.4998047	f u e	-0.2529537
-0.8277312	g u e	-0.41038698
-1.1197293	s u e	-0.25283447
-1.5517311	p u e	-0.22003946
-1.2190784	d u e	-0.24170282
-1.4401628	r u e	-0.24448834
-1.5531611	c u e	-0.23618485
-1.6649386	b u e	-0.22003946
-1.4327807	h u e	-0.22003946
-0.5892192	q u e	-0.43650278
-1.5275738	m u e	-0.22003946
-0.96896815	z u e	-0.22003946
-0.72186834	<s> b e	-0.94258666
-0.7534867	e b e	-0.27085134
-0.8886025	l b e	-0.24616827
-1.0677274	a b e	-0.2982094
-0.81164193	t b e	-0.22003946
-0.7946503	i b e	-0.37397835
-0.78637594	o b e	-0.28759214
-0.5556875	n b e	-0.2385411
-0.64216554	f b e	-0.22003946
-0.72815716	g b e	-0.22003946
-0.86499095	s b e	-0.25275502
-0.51525736	p b e	-0.22003946
-0.8954747	d b e	-0.22003946
-0.649078	w b e	-0.22003946
-0.8619293	r b e	-0.25024018
-0.24989548	c b e	-0.22003946
-0.7161124	u b e	-0.3716261
-0.74076265	b b e	-0.30799767
-0.67547286	y b e	-0.2329074
-0.97187173	h b e	-0.22003946
-0.8986046	m b e	-0.35539904
-0.24989548	z b e	-0.22003946
-0.59110665	k b e	-0.2529537
-0.60022926	<s> x e	-0.2529537
-1.0146539	e x e	-0.23618485
-0.90696895	a x e	-0.23618485
-1.0014637	i x e	-0.24616827
-1.1566277	o x e	-0.22003946
-0.6523221	n x e	-0.22003946
-0.89996374	u x e	-0.22003946
-0.71816057	<s> y e	-0.5430872
-0.71961445	e y e	-0.32946903
-1.4185153	l y e	-0.22003946
-0.8534749	a y e	-0.43629032
-1.5270503	t y e	-0.22003946
-0.56306654	i y e	-0.22003946
-0.93942153	o y e	-0.30099735
-1.2492422	n y e	-0.22003946
-0.93214315	w y e	-0.2529537
-1.4498382	r y e	-0.22003946
-1.3456404	b y e	-0.22003946
-1.3952475	h y e	-0.22003946
-1.3296936	m y e	-0.22003946
-1.2670151	k y e	-0.22003946
-0.67948264	<s> h e	-0.7968281
-0.75644827	e h e	-0.29479712
-0.66174704	l h e	-0.23618485
-1.2829126	a h e	-0.22003946
-1.0157492	t h e	-0.45116073
-1.0170305	o h e	-0.22003946
-0.6784324	n h e	-0.2329074
-0.6644686	f h e	-0.22003946
-0.7725186	g h e	-0.24616827
-0.8122474	s h e	-0.45911777
-0.7828324	p h e	-0.33470997
-0.6772015	d h e	-0.25960463
-0.6077921	w h e	-0.2937528
-0.6083219	r h e	-0.2443422
-0.8615758	c h e	-0.4958161
-0.7715157	y h e	-0.22003946
-0.82334304	h h e	-0.22003946
-0.82334304	m h e	-0.22003946
-0.52263415	z h e	-0.22003946
-0.6704698	k h e	-0.27008593
-0.2805362	k q e	-0.22003946
-0.78291696	<s> m e	-0.9014716
-0.8350079	e m e	-0.42011818
-0.78879106	l m e	-0.24917096
-0.83647555	a m e	-0.54471457
-0.4167698	t m e	-0.60202736
-0.8554189	i m e	-0.46079028
-0.8414112	o m e	-0.472591
-0.42848486	n m e	-0.37769374
-0.46542704	g m e	-0.50998604
-0.6618035	s m e	-0.32872394
-0.5243149	p m e	-0.2529537
-0.6816927	d m e	-0.27008593
-0.6536429	w m e	-0.22003946
-0.9071659	r m e	-0.30825108
-0.9075906	u m e	-0.42457277
-0.60321796	b m e	-0.22003946
-0.5610266	y m e	-0.3497147
-0.5630065	h m e	-0.2790706
-0.6483461	m m e	-0.35536742
-0.53218913	k m e	-0.22003946
-0.695692	<s> j e	-0.44872534
-0.62044823	e j e	-0.24170282
-0.87302	a j e	-0.22003946
-0.48396704	o j e	-0.22003946
-0.8631494	n j e	-0.2529537
-0.6932069	d j e	-0.22003946
-0.6932069	r j e	-0.22003946
-0.22158438	b j e	-0.27008593
-0.5496259	<s> z e	-0.24170285
-0.98893636	e z e	-0.24170282
-0.7654486	l z e	-0.22003946
-0.63239545	a z e	-0.36264914
-0.9367266	t z e	-0.24170282
-0.55695415	i z e	-0.58894897
-0.58565235	o z e	-0.25280467
-0.7548435	n z e	-0.22003946
-0.400523	s z e	-0.22003946
-0.99236536	u z e	-0.22003946
-0.49193954	y z e	-0.22003946
-0.24180841	h z e	-0.22003946
-0.74882346	z z e	-0.23618485
-0.6966505	<s> k e	-0.4503187
-1.2180076	e k e	-0.22003946
-0.752243	l k e	-0.24974863
-0.595971	a k e	-0.5356515
-0.6405257	i k e	-0.40099373
-0.5628477	o k e	-0.5017988
-0.8343999	n k e	-0.25060105
-1.0088943	s k e	-0.25024018
-0.5384128	p k e	-0.24170282
-0.52313787	d k e	-0.22003946
-0.87607104	w k e	-0.22003946
-0.9952086	r k e	-0.25060105
-0.9607666	c k e	-0.42556262
-0.34700093	u k e	-0.22919181
-0.8243618	y k e	-0.22003946
-0.87607104	h k e	-0.22003946
-0.531527	k k e	-0.2529537
-1.0144916	<s> e l	-0.67768466
-1.2821078	e e l	-0.34471953
-1.7926884	l e l	-0.24616827
-1.0090554	v e l	-0.386875
-1.1013734	a e l	-0.27008593
-1.258123	t e l	-0.37434435
-1.1980641	i e l	-0.292915
-1.0599723	o e l	-0.24616827
-1.2234983	n e l	-0.37056756
-0.91990197	f e l	-0.2772283
-1.0970885	g e l	-0.31077534
-1.1102192	s e l	-0.40796524
-1.075164	p e l	-0.37488735
-1.179539	d e l	-0.313486
-0.74189687	w e l	-0.4020231
-1.255927	r e l	-0.51462674
-1.0300539	c e l	-0.40696728
-0.813161	u e l	-0.33426073
-1.0516442	b e l	-0.35651463
-1.1455896	x e l	-0.2529537
-0.96851075	y e l	-0.23618485
-1.201783	h e l	-0.29483074
-1.2051435	m e l	-0.26633036
-1.3620076	j e l	-0.22003946
-0.9327424	z e l	-0.33124655
-1.1590016	k e l	-0.2737201
-0.997425	e l l	-0.7698064
-1.0909003	a l l	-0.663344
-0.9309914	i l l	-0.674747
-1.1092486	o l l	-0.45856673
-0.92627764	u l l	-0.43497333
-1.3668922	y l l	-0.22003946
-1.3952072	m l l	-0.22003946
-1.937825	a v l	-0.22003946
-0.9604669	<s> a l	-0.7408178
-1.0129296	e a l	-0.5408293
-1.995721	l a l	-0.22003946
-0.98201543	v a l	-0.34334677
-1.052462	a a l	-0.22003946
-1.1443448	t a l	-0.47868857
-0.94100064	i a l	-0.5430872
-1.1671206	o a l	-0.33124655
-1.2419164	n a l	-0.4258504
-0.91914445	f a l	-0.32523215
-1.062788	g a l	-0.33349466
-1.041243	s a l	-0.32401758
-1.10128	p a l	-0.2546311
-0.96416414	d a l	-0.4128577
-1.1749153	w a l	-0.27797517
-1.2910683	r a l	-0.4701456
-1.1582307	c a l	-0.30291653
-0.75517905	u a l	-0.5195314
-0.977141	b a l	-0.32036301
-0.90881217	x a l	-0.22003946
-1.0923886	y a l	-0.2385411
-1.134553	h a l	-0.3171932
-1.2088788	m a l	-0.30448338
-1.2511297	j a l	-0.22003946
-1.3459803	z a l	-0.23618485
-1.4325138	k a l	-0.22003946
-1.6515278	e t l	-0.25275502
-1.6118838	l t l	-0.22003946
-1.5844221	a t l	-0.24170282
-0.9377128	t t l	-0.46422854
-1.4753411	i t l	-0.4057327
-1.5376644	o t l	-0.23618485
-1.3027911	n t l	-0.2881373
-1.47249	s t l	-0.4269545
-1.3435975	p t l	-0.2881373
-1.2521492	r t l	-0.27210116
-1.3331586	c t l	-0.27008593
-1.6416175	u t l	-0.2642318
-1.36876	h t l	-0.22003946
-1.6206106	<s> i l	-0.7038597
-1.1089085	e i l	-0.386875
-1.8149457	l i l	-0.22919181
-0.79719317	v i l	-0.5244906
-0.79981315	a i l	-0.5597512
-1.2135679	t i l	-0.39685786
-0.83851635	o i l	-0.42769378
-1.5196724	n i l	-0.22919181
-1.05691	f i l	-0.25507948
-1.2176363	g i l	-0.22584131
-1.4055332	s i l	-0.2834275
-1.1481667	p i l	-0.26429978
-1.3734467	d i l	-0.31617144
-1.3740762	w i l	-0.22919181
-1.2635088	r i l	-0.4955688
-1.1042	c i l	-0.4150918
-1.1138035	u i l	-0.25960463
-1.0575477	b i l	-0.3387859
-1.3562554	x i l	-0.22003946
-1.0469251	h i l	-0.37323558
-1.094002	m i l	-0.3145131
-1.3030798	z i l	-0.22003946
-0.9544223	k i l	-0.3387859
-1.5388962	<s> o l	-0.34748575
-0.8349689	e o l	-0.42884627
-1.759028	l o l	-0.24170282
-1.1255128	v o l	-0.24682271
-1.1979637	t o l	-0.28371155
-1.1879809	i o l	-0.3146874
-1.1267643	o o l	-0.3328688
-1.0568925	n o l	-0.28283173
-0.93475914	f o l	-0.35138196
-1.2492905	g o l	-0.22803713
-1.0297213	s o l	-0.34754276
-1.1192199	p o l	-0.3337347
-1.1759884	d o l	-0.25052196
-1.5884461	w o l	-0.22003946
-1.3038476	r o l	-0.35345128
-1.072309	c o l	-0.34716812
-1.0763907	u o l	-0.22003946
-1.1853898	b o l	-0.2772283
-1.4235889	y o l	-0.22003946
-0.9359741	h o l	-0.4327017
-1.2038782	m o l	-0.33572248
-1.2703125	j o l	-0.22003946
-1.3730834	z o l	-0.22003946
-1.4197571	k o l	-0.22003946
-1.6624751	e n l	-0.31258786
-2.0100873	a n l	-0.24616827
-1.6696869	i n l	-0.440391
-1.746173	o n l	-0.23618485
-1.3788655	w n l	-0.22003946
-1.5004989	r n l	-0.2529537
-1.7386867	u n l	-0.24170282
-0.83831394	<s> f l	-1.1537687
-1.3578156	e f l	-0.23618485
-1.3027859	l f l	-0.22003946
-1.2320989	a f l	-0.22003946
-1.4418681	i f l	-0.22003946
-1.284512	o f l	-0.22003946
-1.1162878	n f l	-0.24448834
-1.0914568	f f l	-0.25663608
-1.043498	d f l	-0.22003946
-0.9732492	r f l	-0.24170282
-1.3872072	u f l	-0.22003946
-1.044601	y f l	-0.22003946
-0.98475593	<s> g l	-0.8717139
-1.2547983	e g l	-0.2329074
-1.2739671	l g l	-0.22003946
-1.3071201	a g l	-0.44617718
-1.5180626	i g l	-0.24170282
-1.4812529	o g l	-0.22003946
-1.1319255	n g l	-0.30799767
-0.94177866	g g l	-0.32123846
-1.2255431	d g l	-0.22003946
-1.1124969	r g l	-0.23618485
-0.87444216	c g l	-0.22003946
-1.0032129	u g l	-0.24170282
-1.5174818	<s> s l	-0.92453164
-1.7860137	e s l	-0.23618485
-2.0668378	a s l	-0.22003946
-1.5453173	i s l	-0.3197018
-1.2140025	o s l	-0.25280467
-1.3679718	n s l	-0.25275502
-1.3986781	g s l	-0.22003946
-1.2273581	s s l	-0.23618485
-1.3996251	d s l	-0.22003946
-1.5834887	r s l	-0.22003946
-1.8189102	u s l	-0.22003946
-1.3525003	h s l	-0.22003946
-1.1600325	<s> p l	-1.0961399
-0.9871557	e p l	-0.38054833
-1.1552433	l p l	-0.22003946
-1.270794	a p l	-0.27773055
-1.0478306	i p l	-0.35138196
-1.2237217	o p l	-0.26768482
-0.6948311	n p l	-0.3387859
-0.6370381	g p l	-0.2529537
-1.1106663	s p l	-0.33124655
-1.0008965	p p l	-0.3529013
-0.9240598	r p l	-0.2385411
-1.1237262	u p l	-0.26429978
-1.0078005	x p l	-0.22003946
-1.2228129	y p l	-0.22003946
-1.0277292	m p l	-0.36718154
-1.2219976	e d l	-0.48614854
-1.2971537	l d l	-0.25960463
-1.4384081	a d l	-0.25663608
-1.3059789	i d l	-0.33124655
-1.7332158	o d l	-0.2329074
-1.2271087	n d l	-0.43766236
-0.89105976	d d l	-0.4057327
-1.2704953	r d l	-0.2529537
-1.4357951	u d l	-0.23618485
-1.7286656	e w l	-0.22003946
-1.3541048	a w l	-0.2529537
-1.0529976	o w l	-0.43752658
-1.4203662	e r l	-0.4847619
-1.3381354	a r l	-0.42338675
-1.370138	i r l	-0.29325113
-1.623429	o r l	-0.24792774
-1.4016919	w r l	-0.22003946
-1.2869085	u r l	-0.29649243
-1.1190398	<s> c l	-1.232375
-1.1995564	e c l	-0.27018932
-1.4857258	a c l	-0.3387859
-0.9876052	t c l	-0.22003946
-1.3635354	i c l	-0.44617718
-1.6178368	o c l	-0.22003946
-1.1481996	n c l	-0.26855642
-1.5593319	s c l	-0.22003946
-1.1221123	r c l	-0.2329074
-1.0560921	c c l	-0.22003946
-1.2795489	u c l	-0.23618485
-1.0670471	x c l	-0.22003946
-1.0958929	y c l	-0.2329074
-1.2303327	m c l	-0.22003946
-1.9536138	<s> u l	-0.44617718
-1.5778788	e u l	-0.22003946
-1.6187739	l u l	-0.22003946
-0.49937746	v u l	-0.24616827
-0.9398105	a u l	-0.4108161
-1.1468837	t u l	-0.3412522
-0.98254496	o u l	-0.33173215
-1.4753962	n u l	-0.22003946
-0.5675812	f u l	-0.70941865
-1.0851946	g u l	-0.2385411
-1.2031814	s u l	-0.23990847
-0.8228923	p u l	-0.28768831
-0.9505226	d u l	-0.23618485
-0.9869918	w u l	-0.22003946
-1.2430385	r u l	-0.25280467
-0.77071923	c u l	-0.36693683
-0.8921488	b u l	-0.27411875
-0.88003075	x u l	-0.22003946
-0.952247	h u l	-0.23948723
-0.8728068	m u l	-0.24719378
-1.3527132	j u l	-0.22003946
-0.9251646	k u l	-0.22003946
-1.0384477	<s> b l	-1.1286516
-1.2035581	e b l	-0.41307604
-1.2934904	l b l	-0.22003946
-0.67588556	a b l	-0.73231375
-0.68502414	i b l	-0.6367525
-1.0904671	o b l	-0.25769392
-1.1433746	n b l	-0.22003946
-1.1694474	d b l	-0.22003946
-1.2347873	r b l	-0.22003946
-1.3517001	u b l	-0.26429978
-0.8722608	b b l	-0.3759806
-1.076038	h b l	-0.22003946
-1.066946	m b l	-0.3222192
-1.6390018	e x l	-0.22003946
-1.4229383	a x l	-0.22003946
-1.2465068	u x l	-0.22003946
-1.4760197	e y l	-0.22003946
-1.3938558	l y l	-0.23618485
-1.1463963	a y l	-0.24792774
-1.2081727	t y l	-0.23618485
-1.1221379	o y l	-0.23618485
-1.2255602	n y l	-0.22003946
-1.3889561	s y l	-0.22003946
-1.0851266	p y l	-0.22003946
-1.1254088	d y l	-0.22003946
-1.1099441	w y l	-0.22003946
-0.9537446	r y l	-0.25280467
-1.1312438	c y l	-0.22003946
-1.1460916	b y l	-0.22003946
-0.7679224	x y l	-0.22003946
-0.91118956	h y l	-0.22003946
-1.245611	k y l	-0.22003946
-1.5714955	e h l	-0.22003946
-1.2914304	a h l	-0.22003946
-1.3281207	t h l	-0.33572248
-1.1258893	o h l	-0.22003946
-1.2386853	g h l	-0.25960463
-1.6954502	s h l	-0.24170282
-1.790076	p h l	-0.22003946
-1.119219	c h l	-0.29994786
-1.289709	u h l	-0.22003946
-0.90443754	x h l	-0.22003946
-3.0674481	<s> m l	-0.22003946
-1.609528	e m l	-0.27008593
-2.0329146	a m l	-0.22003946
-1.4838054	i m l	-0.2529537
-1.6077495	o m l	-0.24170282
-1.2624111	r m l	-0.2329074
-1.5860095	u m l	-0.24170282
-1.5263776	m m l	-0.22003946
-0.73598963	z z l	-0.386875
-1.5084933	<s> k l	-0.27008593
-1.4669507	l k l	-0.22003946
-1.3835967	a k l	-0.24170282
-1.4371555	o k l	-0.22003946
-1.3583169	n k l	-0.24616827
-1.1001825	r k l	-0.24170282
-1.1993718	c k l	-0.35925132
-1.2652261	<s> e v	-0.8810539
-1.8691554	e e v	-0.2529537
-1.4322222	l e v	-0.3562013
-1.8814712	v e v	-0.22003946
-1.9373677	t e v	-0.2529537
-1.4062877	i e v	-0.3049514
-1.682163	o e v	-0.22003946
-1.6585166	n e v	-0.25280467
-1.8042252	f e v	-0.22003946
-1.764099	g e v	-0.2529537
-1.7631917	s e v	-0.2881373
-1.5261129	d e v	-0.25769392
-1.4358047	r e v	-0.45121557
-1.8354357	u e v	-0.22003946
-1.9438522	b e v	-0.22003946
-1.6298838	y e v	-0.22003946
-1.5490541	h e v	-0.23948723
-1.9775174	m e v	-0.22003946
-1.4603676	e l v	-0.386875
-1.8236455	l l v	-0.22003946
-1.6844397	a l v	-0.36699593
-2.1513877	i l v	-0.22003946
-1.8251704	o l v	-0.26429978
-1.8674704	u l v	-0.2529537
-1.7705998	y l v	-0.22003946
-1.8629179	e v v	-0.22003946
-1.9314979	a v v	-0.22003946
-1.764832	<s> a v	-0.5513787
-1.5205828	e a v	-0.31258786
-1.4625252	l a v	-0.33470997
-1.5762568	t a v	-0.22003946
-1.520954	n a v	-0.25663608
-1.4053969	f a v	-0.24170282
-1.650728	g a v	-0.22003946
-1.6986039	s a v	-0.2307361
-1.5811722	p a v	-0.24616827
-1.6935263	d a v	-0.22003946
-1.2819932	w a v	-0.44617718
-1.4826931	r a v	-0.50998604
-1.3909411	c a v	-0.26143533
-1.6671214	u a v	-0.22003946
-1.8156409	b a v	-0.22003946
-1.1573583	x a v	-0.22003946
-1.5596868	h a v	-0.3550841
-1.9949726	m a v	-0.22003946
-1.4662349	j a v	-0.22003946
-1.6308506	k a v	-0.22003946
-2.382792	e t v	-0.22003946
-1.8755829	t t v	-0.22003946
-2.3071952	s t v	-0.22003946
-2.6888983	<s> i v	-0.22003946
-1.8137574	e i v	-0.22003946
-1.4752142	l i v	-0.38054833
-1.3820672	v i v	-0.266605
-1.8734428	a i v	-0.22003946
-1.263677	t i v	-0.536099
-1.3652421	n i v	-0.4198481
-1.767369	f i v	-0.22003946
-1.4784131	g i v	-0.2737201
-1.1966696	s i v	-0.5653298
-1.8260534	p i v	-0.22003946
-1.4910839	d i v	-0.31568587
-1.5578829	w i v	-0.2529537
-1.4485214	r i v	-0.46399134
-1.5696169	c i v	-0.24170282
-1.6180438	u i v	-0.22003946
-1.7515146	b i v	-0.22003946
-1.6799964	h i v	-0.24170282
-1.0783174	j i v	-0.22003946
-1.6654677	k i v	-0.22003946
-0.771979	<s> o v	-1.3726392
-1.3673431	l o v	-0.3457862
-1.8576258	t o v	-0.22003946
-1.5599333	i o v	-0.24170282
-1.7777914	o o v	-0.2529537
-1.2745705	n o v	-0.30366474
-1.2816344	g o v	-0.27008593
-1.7318894	s o v	-0.22003946
-1.7410676	d o v	-0.2529537
-1.6478244	w o v	-0.22003946
-1.5193723	r o v	-0.3826449
-1.4430159	c o v	-0.44617718
-1.6109293	b o v	-0.22003946
-1.4941292	y o v	-0.22003946
-1.4414232	h o v	-0.2385411
-1.1636959	m o v	-0.2737201
-1.4367915	z o v	-0.22003946
-0.8294719	k o v	-0.25280467
-1.8926059	e n v	-0.26429978
-2.0617013	a n v	-0.24170282
-1.7847794	i n v	-0.35707223
-1.7836403	o n v	-0.30591968
-2.1409233	u n v	-0.22003946
-3.0450392	<s> s v	-0.2881373
-2.0876231	e s v	-0.2529537
-1.6660786	t s v	-0.22003946
-1.6106842	n s v	-0.27008593
-1.7614937	r s v	-0.22003946
-3.1675937	<s> d v	-0.22003946
-1.9400426	e d v	-0.22003946
-1.7520657	l d v	-0.22003946
-1.7650013	a d v	-0.24170282
-1.9061905	n d v	-0.22003946
-1.5061728	e r v	-0.5513787
-1.596155	a r v	-0.40963367
-1.6470253	i r v	-0.22003946
-2.2994995	o r v	-0.22003946
-1.6836632	r r v	-0.22003946
-1.5723855	u r v	-0.31568587
-1.2743589	e u v	-0.27008593
-1.8959056	l u v	-0.22003946
-1.4325658	o u v	-0.3387859
-1.9456	n u v	-0.22003946
-2.1301165	r u v	-0.22003946
-1.9971583	u b v	-0.22003946
-1.5937912	o x v	-0.22003946
-1.6959106	n y v	-0.22003946
-1.856623	a h v	-0.22003946
-2.1810687	c h v	-0.22003946
-1.4785006	e z v	-0.22003946
-1.8130857	i z v	-0.22003946
-1.9811894	c k v	-0.22003946
-1.4027414	<s> e a	-0.72835267
-1.9112158	e e a	-0.22003946
-1.3028865	l e a	-0.34949648
-1.5270964	v e a	-0.22003946
-1.2855921	a e a	-0.2529537
-1.3720098	t e a	-0.2494886
-1.6017336	o e a	-0.22003946
-1.3234373	n e a	-0.2617903
-1.4439752	f e a	-0.24170282
-1.3163675	g e a	-0.24170282
-1.4123619	s e a	-0.23137358
-1.1918356	p e a	-0.26143533
-1.3103025	d e a	-0.24903964
-1.2254459	w e a	-0.29479712
-1.1452535	r e a	-0.47957435
-1.2373629	c e a	-0.3497147
-1.7617685	u e a	-0.22003946
-1.1021651	b e a	-0.37546065
-1.2401224	y e a	-0.27008593
-0.96272385	h e a	-0.5382669
-1.4179281	m e a	-0.24605092
-1.3773264	j e a	-0.22003946
-1.6221389	z e a	-0.22003946
-1.8476139	k e a	-0.22003946
-0.6023102	<s> l a	-0.780781
-1.0289025	e l a	-0.39031947
-1.0324291	l l a	-0.30254638
-1.1814058	a l a	-0.324111
-0.84475696	t l a	-0.40282968
-1.0334436	i l a	-0.38766342
-0.9743056	o l a	-0.40444934
-0.92311627	n l a	-0.22919181
-0.9003812	f l a	-0.24294293
-0.9003812	g l a	-0.29422715
-0.90254676	s l a	-0.28085446
-0.5582301	p l a	-0.4768145
-1.1106764	d l a	-0.24170282
-1.0079856	w l a	-0.22003946
-0.95917773	r l a	-0.24719378
-0.70800376	c l a	-0.3427099
-0.9715982	u l a	-0.47714913
-0.9180341	b l a	-0.24162543
-0.8499054	y l a	-0.25769392
-0.98776746	h l a	-0.24170282
-1.2266059	m l a	-0.22003946
-0.6967624	k l a	-0.22803713
-0.6747299	<s> v a	-0.6545509
-0.74657047	e v a	-0.2690538
-0.6838009	l v a	-0.22919181
-0.67524123	a v a	-0.36707348
-0.6266373	t v a	-0.22003946
-0.73514056	i v a	-0.3509069
-0.76975584	o v a	-0.2877141
-0.6792164	n v a	-0.24448834
-0.9452613	d v a	-0.22003946
-0.70451367	r v a	-0.23618485
-0.5962902	u v a	-0.22003946
-0.2445205	y v a	-0.22003946
-2.3920145	l a a	-0.22003946
-2.0416021	g a a	-0.22003946
-1.9025332	s a a	-0.22003946
-2.0809577	w a a	-0.22003946
-2.2403893	h a a	-0.22003946
-0.9154368	<s> t a	-0.65696496
-1.0736276	e t a	-0.33296376
-1.2681239	l t a	-0.2385411
-1.2163988	a t a	-0.31767663
-1.1195366	t t a	-0.25278342
-1.0716416	i t a	-0.60872376
-1.1503313	o t a	-0.28759214
-0.9596732	n t a	-0.37869638
-1.4071362	f t a	-0.22003946
-0.9149366	s t a	-0.464057
-1.3102382	p t a	-0.2385411
-1.1205549	r t a	-0.25825945
-0.9616756	c t a	-0.26425895
-1.1788386	u t a	-0.24362077
-1.0997351	b t a	-0.22003946
-1.0574778	x t a	-0.22003946
-0.94738734	k t a	-0.22003946
-1.66482	e i a	-0.22003946
-1.3152508	l i a	-0.3639449
-1.1834651	v i a	-0.25858968
-1.3051227	t i a	-0.41476867
-1.1979191	i i a	-0.22003946
-1.7543793	o i a	-0.22003946
-1.3579963	n i a	-0.35699955
-1.4676462	f i a	-0.27008593
-1.0111946	g i a	-0.3361898
-1.151095	s i a	-0.5059173
-1.0938333	p i a	-0.30998927
-1.1265254	d i a	-0.46384686
-1.3466384	r i a	-0.4875699
-1.1094135	c i a	-0.42091393
-1.599727	u i a	-0.22003946
-1.0022274	b i a	-0.44617718
-1.375462	x i a	-0.22003946
-1.4071368	h i a	-0.22803713
-1.4159057	m i a	-0.25280467
-1.481616	z i a	-0.22003946
-1.6442269	k i a	-0.22003946
-1.899204	<s> o a	-0.24170282
-1.3686961	l o a	-0.30799767
-1.8628191	t o a	-0.24170282
-1.8767601	i o a	-0.22003946
-1.8168464	n o a	-0.22003946
-1.7510259	f o a	-0.22003946
-1.593814	g o a	-0.22003946
-1.8756267	s o a	-0.22003946
-1.8895979	p o a	-0.22003946
-1.6001306	d o a	-0.22003946
-1.4100927	r o a	-0.31755537
-1.3613744	c o a	-0.32872394
-0.8925258	b o a	-0.571116
-1.685502	h o a	-0.22003946
-1.7801837	m o a	-0.22003946
-1.4943464	j o a	-0.22003946
-1.4411311	z o a	-0.22003946
-0.7426356	<s> n a	-0.5496472
-1.1602669	e n a	-0.36922473
-1.1209061	a n a	-0.43316507
-1.3417814	t n a	-0.22003946
-1.1427782	i n a	-0.46812397
-1.0747466	o n a	-0.3670391
-0.959158	n n a	-0.22714114
-0.6421664	g n a	-0.2819559
-0.89635783	s n a	-0.22714114
-0.91376054	d n a	-0.23618485
-1.0752407	r n a	-0.254471
-0.8696477	c n a	-0.22003946
-1.2000087	u n a	-0.2443909
-0.98083043	y n a	-0.22003946
-0.982567	h n a	-0.22003946
-0.9174185	m n a	-0.22003946
-0.9177122	k n a	-0.22003946
-0.77599335	<s> f a	-0.8075671
-0.87582004	e f a	-0.32872394
-0.9510835	l f a	-0.22003946
-1.0381511	a f a	-0.2329074
-0.7973859	t f a	-0.27008593
-1.3403643	i f a	-0.22003946
-1.191057	o f a	-0.22003946
-0.92113847	n f a	-0.22803713
-1.0269651	f f a	-0.22003946
-0.9920671	s f a	-0.22003946
-0.79139066	d f a	-0.22003946
-0.89295346	w f a	-0.22003946
-0.7783626	r f a	-0.24792774
-0.5139132	c f a	-0.22003946
-1.3184302	u f a	-0.22003946
-0.9636606	y f a	-0.22003946
-0.9066651	h f a	-0.22003946
-0.60032225	k f a	-0.22003946
-0.7458272	<s> g a	-0.74203193
-0.82597005	e g a	-0.33599302
-0.58091336	l g a	-0.3387859
-0.8935421	a g a	-0.3273028
-0.73446816	t g a	-0.22003946
-0.9654517	i g a	-0.3892385
-0.9490484	o g a	-0.24616827
-1.0209217	n g a	-0.26425895
-1.1927781	g g a	-0.22003946
-0.6985014	s g a	-0.22003946
-0.7686076	p g a	-0.22003946
-1.0046571	d g a	-0.22003946
-0.9348245	r g a	-0.2385411
-1.0706589	u g a	-0.26429978
-1.1224365	y g a	-0.22003946
-0.67285085	h g a	-0.22003946
-1.0655955	<s> s a	-0.81538606
-1.7150166	e s a	-0.22003946
-1.3465688	l s a	-0.24170282
-1.4988384	a s a	-0.22919181
-1.4698675	t s a	-0.22003946
-1.2933367	i s a	-0.28146446
-1.318237	o s a	-0.25848904
-1.317934	n s a	-0.22803713
-1.3302772	g s a	-0.22003946
-1.184424	s s a	-0.24612133
-1.5518879	p s a	-0.22003946
-1.4798092	d s a	-0.22003946
-1.2284076	w s a	-0.22003946
-1.2048347	r s a	-0.22803713
-1.2971044	u s a	-0.24170285
-1.5477581	y s a	-0.22003946
-1.2925513	h s a	-0.22003946
-1.433168	k s a	-0.22003946
-0.7239467	<s> p a	-1.0297728
-0.9779929	e p a	-0.24719378
-1.129058	l p a	-0.22003946
-1.1791193	a p a	-0.25585514
-0.9970564	t p a	-0.22003946
-1.1006628	i p a	-0.24616827
-1.210253	o p a	-0.24792774
-0.8421378	n p a	-0.22803713
-0.8848346	s p a	-0.28085446
-0.9864458	p p a	-0.2307361
-0.54587317	d p a	-0.22003946
-0.9098518	r p a	-0.22803713
-1.104875	u p a	-0.24170282
-0.683068	b p a	-0.22003946
-0.78951645	x p a	-0.22003946
-1.1096154	m p a	-0.23999754
-0.690685	k p a	-0.22003946
-1.1260678	<s> d a	-0.57189876
-1.2204509	e d a	-0.24157377
-1.1860037	l d a	-0.2881373
-1.0819312	a d a	-0.27488172
-0.95682794	i d a	-0.342333
-1.3447793	o d a	-0.2329074
-1.1451802	n d a	-0.29022107
-0.37298793	s d a	-0.25275502
-0.7644658	d d a	-0.22003946
-1.0409389	r d a	-0.24903964
-0.534584	c d a	-0.22003946
-1.205456	u d a	-0.22003946
-0.94506735	b d a	-0.22003946
-1.1165618	y d a	-0.22003946
-0.7783934	h d a	-0.22003946
-0.7783934	m d a	-0.22003946
-0.26526472	j d a	-0.22003946
-0.77686	k d a	-0.22003946
-0.59604776	<s> w a	-0.8401345
-0.77172047	e w a	-0.45121557
-0.6368749	l w a	-0.27008593
-0.88449156	a w a	-0.3371894
-0.84494007	t w a	-0.23618485
-0.40903535	i w a	-0.22003946
-0.9892674	o w a	-0.24504362
-0.5016841	n w a	-0.31258786
-0.24758609	f w a	-0.22003946
-0.50966865	g w a	-0.2529537
-0.9846003	s w a	-0.22584131
-0.61385936	d w a	-0.26768482
-0.5509406	r w a	-0.25769392
-0.5022708	b w a	-0.22003946
-0.49542296	y w a	-0.2329074
-0.559214	h w a	-0.22919181
-0.45120847	k w a	-0.24170285
-0.87359035	<s> r a	-0.7306675
-1.1423981	e r a	-0.54249394
-0.9140645	l r a	-0.22003946
-0.6634341	v r a	-0.22003946
-1.2668782	a r a	-0.35701472
-0.6503421	t r a	-0.4250048
-1.1516188	i r a	-0.23728286
-1.1405095	o r a	-0.4386528
-0.6492949	n r a	-0.22003946
-0.7137163	f r a	-0.2468919
-0.59581095	g r a	-0.40226758
-0.85634136	s r a	-0.22003946
-0.82019943	p r a	-0.28005034
-0.7658375	d r a	-0.23073606
-1.1567565	w r a	-0.22003946
-0.88072443	r r a	-0.25284532
-0.6661663	c r a	-0.30234903
-1.0828146	u r a	-0.4254969
-0.85569346	b r a	-0.2656311
-0.6979375	y r a	-0.2307361
-0.8458483	h r a	-0.24170282
-0.4080236	m r a	-0.24170282
-0.52188766	z r a	-0.22003946
-0.72062033	k r a	-0.2307361
-0.7553836	<s> c a	-1.1234611
-1.1048852	e c a	-0.30825108
-0.79165304	l c a	-0.22003946
-1.2207532	a c a	-0.23948723
-0.80269676	t c a	-0.2529537
-0.89989316	i c a	-0.5623743
-1.0345556	o c a	-0.33173215
-0.93607485	n c a	-0.23937161
-0.9638127	s c a	-0.27872393
-0.82618594	d c a	-0.22003946
-0.42685208	w c a	-0.22003946
-0.8463335	r c a	-0.3039572
-0.68198663	c c a	-0.22535484
-1.0076517	u c a	-0.2329074
-0.6664161	b c a	-0.22003946
-0.8345764	x c a	-0.22003946
-1.0459415	y c a	-0.22003946
-0.8768188	m c a	-0.24170282
-0.5240382	k c a	-0.22003946
-1.7085482	l u a	-0.22003946
-1.8699538	a u a	-0.22003946
-0.945247	t u a	-0.5483076
-1.4858108	i u a	-0.22003946
-1.8421139	o u a	-0.22003946
-1.2738545	n u a	-0.2529537
-0.8354585	g u a	-0.29479712
-0.91157997	s u a	-0.34378627
-1.0918689	d u a	-0.26429978
-1.5991842	r u a	-0.23618485
-1.7363305	c u a	-0.22003946
-0.91386163	x u a	-0.22003946
-1.471318	h u a	-0.22003946
-0.68856	q u a	-0.31521964
-1.2758905	j u a	-0.2529537
-0.70764077	<s> b a	-0.95882374
-0.9878937	e b a	-0.2875372
-0.9284451	l b a	-0.22003946
-1.0359309	a b a	-0.25286853
-0.6851897	t b a	-0.23618485
-1.1212084	i b a	-0.2307361
-1.14557	o b a	-0.2307361
-0.9250569	n b a	-0.22003946
-0.6687868	f b a	-0.22003946
-0.7613184	g b a	-0.22003946
-0.8909483	s b a	-0.23618485
-1.0939276	d b a	-0.22003946
-0.89606726	r b a	-0.23618485
-1.0162934	u b a	-0.24170282
-1.3465164	b b a	-0.22003946
-1.0208392	h b a	-0.22003946
-0.9284463	m b a	-0.26215932
-0.82965446	k b a	-0.22003946
-0.89090943	<s> x a	-0.22003946
-0.83084893	e x a	-0.28761643
-1.294438	i x a	-0.22003946
-1.450207	o x a	-0.22003946
-0.48617053	<s> y a	-0.3846656
-1.1981118	e y a	-0.27008593
-1.2023643	l y a	-0.2329074
-1.1582179	a y a	-0.24792774
-1.3854716	t y a	-0.24170282
-0.80961215	i y a	-0.22003946
-0.75108844	o y a	-0.3222993
-1.2501968	n y a	-0.22003946
-1.2895253	p y a	-0.22003946
-1.3064706	d y a	-0.22003946
-1.1322815	w y a	-0.22003946
-1.4508795	r y a	-0.22003946
-1.3260813	c y a	-0.22003946
-1.2438632	h y a	-0.22003946
-0.51288	<s> h a	-0.92086655
-0.6973527	e h a	-0.23948723
-0.8461689	l h a	-0.24170282
-0.8268143	a h a	-0.24792774
-1.0160303	t h a	-0.34883526
-0.67256194	i h a	-0.22003946
-0.71364784	o h a	-0.22003946
-0.67867225	n h a	-0.24504362
-0.6648241	f h a	-0.22003946
-0.9129198	g h a	-0.25769392
-0.7837384	s h a	-0.28780112
-0.70969826	p h a	-0.3809767
-0.67741287	d h a	-0.22919181
-0.8077158	w h a	-0.24157377
-0.77117264	r h a	-0.23618485
-0.951462	c h a	-0.39762872
-0.9942211	u h a	-0.22003946
-0.8254937	x h a	-0.22003946
-0.8238616	m h a	-0.22003946
-0.83332056	k h a	-0.22003946
-0.4743923	<s> m a	-1.0685939
-0.8598846	e m a	-0.3818231
-0.77883935	l m a	-0.28140935
-0.98846245	a m a	-0.39170936
-0.5205711	t m a	-0.3970399
-0.8808485	i m a	-0.3800929
-0.9319523	o m a	-0.27339134
-0.63184357	n m a	-0.24372688
-0.50880253	f m a	-0.22003946
-0.46148214	g m a	-0.25769392
-0.6569979	s m a	-0.44092518
-0.5165053	p m a	-0.2529537
-0.67404354	d m a	-0.30591968
-0.41439855	w m a	-0.22003946
-0.75721806	r m a	-0.32561803
-1.0299767	u m a	-0.24974863
-0.79582393	b m a	-0.22003946
-0.60766894	y m a	-0.39973804
-0.64364624	h m a	-0.4057327
-0.7921498	m m a	-0.25087714
-0.2512076	z m a	-0.22003946
-0.525434	k m a	-0.23618485
-0.634602	<s> j a	-0.47285396
-0.5850091	e j a	-0.24170282
-0.67703384	a j a	-0.22003946
-0.36888334	i j a	-0.22003946
-0.9408377	n j a	-0.22003946
-0.22001758	p j a	-0.22003946
-0.64552736	d j a	-0.22003946
-0.64552736	r j a	-0.22003946
-0.22001758	y j a	-0.22003946
-0.22001758	k j a	-0.22003946
-0.928261	<s> z a	-0.23618485
-1.1351814	e z a	-0.22003946
-0.7663233	a z a	-0.22919181
-0.79948556	i z a	-0.35925132
-0.84169006	o z a	-0.22003946
-0.6247248	n z a	-0.2307361
-0.24649064	g z a	-0.22003946
-0.8605597	r z a	-0.22003946
-0.5003037	c z a	-0.22003946
-0.8540188	u z a	-0.22003946
-0.5003037	y z a	-0.22003946
-0.75911856	z z a	-0.2307361
-0.8133128	<s> k a	-0.35024416
-1.2349646	e k a	-0.22003946
-1.1395655	l k a	-0.22003946
-1.1349124	a k a	-0.2307361
-0.537236	t k a	-0.2529537
-0.86543417	i k a	-0.3387859
-1.1444988	o k a	-0.24170282
-1.185374	n k a	-0.22003946
-0.26151845	f k a	-0.22003946
-0.9318321	s k a	-0.24809617
-0.952024	p k a	-0.22003946
-1.0051515	r k a	-0.24616827
-1.0947483	c k a	-0.24448834
-0.8335318	y k a	-0.22003946
-0.88639474	h k a	-0.22003946
-0.5362546	k k a	-0.22003946
-1.9308788	<s> e t	-0.3101253
-1.1726097	e e t	-0.35702464
-1.1604604	l e t	-0.53962725
-1.0623488	v e t	-0.31980112
-1.2748234	a e t	-0.22003946
-1.3663775	t e t	-0.2554997
-1.1089019	i e t	-0.33449548
-1.5828447	o e t	-0.22003946
-1.2684237	n e t	-0.45611733
-1.189687	f e t	-0.3023936
-1.2271069	g e t	-0.28765717
-1.2836109	s e t	-0.48608056
-1.2559704	p e t	-0.30900952
-1.4778239	d e t	-0.30591968
-1.5201992	w e t	-0.22003946
-1.224929	r e t	-0.41733372
-1.3029668	c e t	-0.24448834
-1.184078	u e t	-0.23436098
-1.2097596	b e t	-0.32817256
-1.3327783	x e t	-0.22003946
-1.0808214	y e t	-0.2329074
-1.202256	h e t	-0.26215932
-0.99417543	m e t	-0.44752625
-1.3633829	j e t	-0.22003946
-1.6055925	z e t	-0.22003946
-1.1594054	k e t	-0.30719262
-1.310893	e l t	-0.27372006
-1.6581349	l l t	-0.22003946
-1.2040284	a l t	-0.47986275
-1.3138211	i l t	-0.32970318
-1.3962253	o l t	-0.32558864
-1.0279095	u l t	-0.37698138
-1.7625962	y l t	-0.22003946
-1.3475897	<s> a t	-0.7965776
-0.9609978	e a t	-0.5838667
-1.1812443	l a t	-0.5048753
-1.0476438	v a t	-0.48002282
-1.0694082	t a t	-0.4861077
-0.98309547	i a t	-0.4838868
-0.90908927	o a t	-0.31635243
-1.1615155	n a t	-0.4576159
-1.2401968	f a t	-0.22803713
-0.9068828	g a t	-0.5295425
-1.1561015	s a t	-0.39110738
-0.8920782	p a t	-0.44867054
-1.1965946	d a t	-0.44617718
-0.95160925	w a t	-0.36069956
-1.1465719	r a t	-0.5691284
-0.98573756	c a t	-0.4078048
-0.81342614	u a t	-0.48608056
-1.03463	b a t	-0.3399714
-1.1313863	x a t	-0.22003946
-1.2507479	y a t	-0.22003946
-1.1851739	h a t	-0.30166167
-1.0207796	m a t	-0.47218806
-1.3599654	z a t	-0.22003946
-1.1645408	k a t	-0.2307361
-1.0095704	e t t	-0.6203432
-1.0766106	a t t	-0.52860457
-1.0923183	i t t	-0.56917864
-1.0164721	o t t	-0.4871707
-0.9662929	u t t	-0.45064625
-1.2440374	y t t	-0.22003946
-1.490025	h t t	-0.22003946
-1.7480483	<s> i t	-0.36120975
-0.86531746	e i t	-0.27862975
-1.1962775	l i t	-0.42312968
-1.1745515	v i t	-0.3434402
-1.0819545	a i t	-0.30825108
-1.1744208	t i t	-0.37563393
-1.0031918	o i t	-0.25280467
-1.1303434	n i t	-0.4078048
-1.2087175	f i t	-0.25024018
-1.1324172	g i t	-0.2385411
-1.1446135	s i t	-0.40515292
-1.0346386	p i t	-0.26221466
-1.1188756	d i t	-0.38999894
-1.1187768	w i t	-0.27148008
-1.1958039	r i t	-0.49785495
-1.0502516	c i t	-0.36704764
-0.8366547	u i t	-0.34870493
-0.9429687	b i t	-0.3700814
-1.1899687	x i t	-0.23618485
-1.2180545	h i t	-0.25507948
-0.99330443	m i t	-0.36465767
-1.0550892	j i t	-0.22003946
-1.454078	z i t	-0.22003946
-1.3472372	k i t	-0.22003946
-1.6972017	<s> o t	-0.386875
-1.3179551	e o t	-0.23618485
-1.2106956	l o t	-0.3892385
-1.1261458	v o t	-0.25769392
-0.9470176	a o t	-0.22003946
-1.4492031	t o t	-0.22803713
-1.2732852	i o t	-0.24903964
-1.0745285	o o t	-0.3800929
-1.1949157	n o t	-0.25109524
-1.1464676	g o t	-0.24903964
-1.3966851	s o t	-0.2329074
-1.0678791	p o t	-0.31251192
-1.4199169	d o t	-0.2385411
-1.2335902	r o t	-0.32051376
-1.2671609	c o t	-0.31617144
-1.2824198	u o t	-0.22003946
-1.3343427	b o t	-0.2642318
-0.9593578	x o t	-0.22003946
-1.2729942	y o t	-0.22003946
-1.5058821	h o t	-0.22642577
-1.2044091	m o t	-0.3108171
-1.4174432	j o t	-0.22003946
-1.3746228	z o t	-0.22003946
-1.5459818	k o t	-0.22003946
-1.1347479	e n t	-0.71119434
-1.0956497	a n t	-0.75021374
-1.2428281	i n t	-0.49497613
-1.261348	o n t	-0.42807335
-1.6340519	n n t	-0.22003946
-1.4583087	g n t	-0.22003946
-1.3253498	w n t	-0.22003946
-1.5886056	r n t	-0.22003946
-0.98947525	u n t	-0.43267757
-1.5399418	y n t	-0.22003946
-1.289491	e f t	-0.24157377
-1.4824489	l f t	-0.22003946
-0.9561636	a f t	-0.29994786
-0.934715	i f t	-0.32177755
-0.91967845	o f t	-0.24903964
-1.4697053	u f t	-0.22003946
-1.5480708	n g t	-0.22003946
-0.7734033	<s> s t	-1.5525053
-0.8452318	e s t	-0.66035163
-0.91644377	l s t	-0.31568587
-0.91685545	a s t	-0.6530352
-1.3104873	t s t	-0.23618485
-0.9534347	i s t	-0.7317344
-0.9751077	o s t	-0.44368798
-1.1342342	n s t	-0.3873407
-1.3123791	g s t	-0.22003946
-1.3015885	s s t	-0.22003946
-0.893077	p s t	-0.26143533
-0.8171296	d s t	-0.26215932
-1.2105513	w s t	-0.22003946
-1.1907471	r s t	-0.23768279
-0.89370614	u s t	-0.4989693
-0.79972136	b s t	-0.28250268
-0.6477345	y s t	-0.25848904
-1.2766781	h s t	-0.22003946
-1.0867436	m s t	-0.22003946
-1.2627453	k s t	-0.22003946
-2.9675808	<s> p t	-0.22003946
-0.90826017	e p t	-0.3952862
-1.3955758	l p t	-0.22003946
-1.1548195	a p t	-0.26266065
-1.3406603	i p t	-0.2329074
-1.59081	o p t	-0.22003946
-1.2936296	r p t	-0.22003946
-1.1744275	u p t	-0.23436098
-0.93259144	y p t	-0.23618485
-0.977481	m p t	-0.25060105
-2.047985	e d t	-0.22003946
-1.5277232	l d t	-0.2529537
-2.0513387	a d t	-0.22003946
-1.8790543	i d t	-0.22003946
-1.8484601	n d t	-0.22003946
-1.6838605	r d t	-0.22003946
-1.9289322	e w t	-0.22003946
-1.7220652	a w t	-0.22003946
-2.0105994	o w t	-0.22003946
-1.2914236	e r t	-0.50934696
-1.2518102	a r t	-0.5289613
-1.0385844	i r t	-0.32056552
-1.199349	o r t	-0.5128325
-1.4047077	w r t	-0.22003946
-1.4059649	u r t	-0.33884642
-1.0055073	e c t	-0.5673654
-0.98906267	a c t	-0.51181376
-1.4236667	i c t	-0.41116026
-1.2420781	o c t	-0.25283447
-1.2314904	n c t	-0.26073027
-1.2209623	u c t	-0.25286853
-1.6753386	<s> u t	-0.30799767
-0.921743	e u t	-0.24170285
-1.0449044	l u t	-0.42334697
-1.0703298	a u t	-0.32558864
-1.3350081	t u t	-0.25769392
-0.9289431	o u t	-0.41793245
-0.8830943	n u t	-0.3455841
-1.1848142	f u t	-0.2329074
-1.5437595	g u t	-0.22003946
-0.828645	p u t	-0.27016348
-1.4817171	d u t	-0.22003946
-1.1287148	r u t	-0.2875372
-0.9192284	c u t	-0.25507948
-0.5544741	u u t	-0.22003946
-0.958814	b u t	-0.22919181
-1.2771953	h u t	-0.22803713
-0.8796804	m u t	-0.24372688
-1.3788674	j u t	-0.22003946
-0.9601813	z u t	-0.22003946
-0.9361096	k u t	-0.22003946
-1.933173	e b t	-0.22003946
-1.6989968	o b t	-0.2529537
-1.7442944	u b t	-0.23618485
-0.99358445	e x t	-0.29325113
-1.176784	a x t	-0.22003946
-0.9282658	i x t	-0.2329074
-0.9878328	u x t	-0.22003946
-1.6635228	e y t	-0.22003946
-1.4365413	l y t	-0.22003946
-1.617777	a y t	-0.22003946
-1.5948806	o y t	-0.22003946
-1.4161149	n y t	-0.22003946
-1.4402122	s y t	-0.22003946
-1.4775227	d y t	-0.22003946
-1.6072054	r y t	-0.22003946
-1.3442466	c y t	-0.22003946
-1.3637882	b y t	-0.22003946
-1.4180462	h y t	-0.22003946
-0.79032403	m y t	-0.36699593
-1.2825582	k y t	-0.22003946
-2.044663	t h t	-0.22003946
-1.2982216	g h t	-0.24553221
-1.9582108	s h t	-0.22003946
-1.9001017	p h t	-0.22003946
-1.5365965	c h t	-0.25280467
-1.3674344	u h t	-0.22003946
-2.2574975	a m t	-0.22003946
-2.1563742	i m t	-0.22003946
-2.1080554	u m t	-0.22003946
-1.7921996	a k t	-0.22003946
-1.5977719	n k t	-0.22003946
-1.660882	r k t	-0.22003946
-1.658815	c k t	-0.22003946
-1.1838092	u k t	-0.22003946
-2.0403793	<s> e i	-0.31568587
-1.5535696	e e i	-0.27008593
-1.3814418	l e i	-0.24170282
-1.5460929	v e i	-0.23618485
-1.7629082	t e i	-0.23618485
-1.1864808	o e i	-0.23618485
-1.5374475	n e i	-0.2385411
-1.6189045	f e i	-0.22003946
-1.5778689	g e i	-0.2881373
-1.6038834	s e i	-0.2307361
-1.6021504	p e i	-0.22003946
-1.8843961	d e i	-0.22003946
-1.1237485	w e i	-0.24605092
-1.6777663	r e i	-0.27789098
-1.5113254	c e i	-0.25769392
-1.6230437	b e i	-0.24170282
-1.3683053	x e i	-0.22003946
-1.2153043	h e i	-0.2918729
-1.8075008	m e i	-0.22003946
-1.6522679	z e i	-0.22003946
-1.8828852	k e i	-0.22003946
-0.6396867	<s> l i	-0.78511465
-1.0055772	e l i	-0.47246194
-1.0267185	l l i	-0.3432052
-1.0053028	a l i	-0.60743773
-0.8426723	t l i	-0.4637246
-0.9352216	i l i	-0.4227127
-0.9469963	o l i	-0.4724625
-0.76123667	n l i	-0.24616827
-0.7356601	f l i	-0.2875171
-0.6180902	g l i	-0.29977915
-0.81086844	s l i	-0.23768279
-0.6985514	p l i	-0.51487714
-0.7563079	d l i	-0.31568587
-0.81621754	w l i	-0.2529537
-0.9539079	r l i	-0.28759214
-0.70659524	c l i	-0.29449847
-1.0025542	u l i	-0.32752997
-0.6930189	b l i	-0.32978228
-0.7875148	y l i	-0.2874436
-1.1372232	h l i	-0.24616827
-1.0448405	m l i	-0.2529537
-0.6710093	z l i	-0.22003946
-0.60257655	k l i	-0.3039572
-0.50324833	<s> v i	-0.6891935
-0.7765522	e v i	-0.36711013
-0.4656881	l v i	-0.24792774
-0.540472	a v i	-0.38216642
-0.38401613	t v i	-0.2529537
-0.6344347	i v i	-0.3457862
-0.7530643	o v i	-0.32543582
-0.65209013	n v i	-0.27965242
-0.34423053	s v i	-0.41307604
-0.42407882	d v i	-0.25960463
-0.4931491	r v i	-0.3616567
-0.568161	u v i	-0.22003946
-0.23050146	x v i	-0.22003946
-0.47202605	h v i	-0.22003946
-0.23050146	k v i	-0.22003946
-1.7073481	<s> a i	-0.5194087
-1.259332	l a i	-0.3552988
-1.3216778	v a i	-0.25960463
-1.039089	t a i	-0.5731312
-1.9016031	i a i	-0.22003946
-1.30682	n a i	-0.36000773
-1.0629075	f a i	-0.3320157
-1.2332813	g a i	-0.4057327
-1.4159003	s a i	-0.23618485
-1.3282309	p a i	-0.30484805
-1.2057464	d a i	-0.25663608
-1.5225818	w a i	-0.24170282
-1.2050765	r a i	-0.42451975
-1.7596867	c a i	-0.24170282
-1.6492294	u a i	-0.22003946
-1.794682	b a i	-0.22003946
-1.3705894	h a i	-0.26266065
-1.2732449	m a i	-0.29228768
-1.4490423	j a i	-0.22003946
-1.5476799	z a i	-0.22003946
-1.6102039	k a i	-0.22003946
-1.1331995	<s> t i	-0.61520576
-1.039334	e t i	-0.4308822
-0.93047637	l t i	-0.31404302
-0.9134324	a t i	-0.60933036
-0.9158598	t t i	-0.33886662
-1.0431643	i t i	-0.56090003
-0.8453559	o t i	-0.44782528
-1.1596353	n t i	-0.32816845
-0.9263567	f t i	-0.2329074
-0.8018085	g t i	-0.22003946
-1.0261327	s t i	-0.46240282
-0.82749426	p t i	-0.33291066
-1.1082939	r t i	-0.29673478
-0.9540007	c t i	-0.36038014
-0.90476924	u t i	-0.41923088
-1.0812739	b t i	-0.22003946
-1.2134848	x t i	-0.22003946
-0.7970409	y t i	-0.2529537
-1.1379031	h t i	-0.22003946
-2.0065863	e i i	-0.22003946
-2.0556176	a i i	-0.22003946
-2.132089	n i i	-0.22003946
-1.9528656	g i i	-0.22003946
-2.0856912	d i i	-0.22003946
-1.5349295	x i i	-0.22003946
-1.8418311	h i i	-0.22003946
-1.8555195	k i i	-0.22003946
-1.8777627	<s> o i	-0.44617718
-1.4101425	l o i	-0.2642318
-1.2846377	v o i	-0.2307361
-1.166343	a o i	-0.22003946
-1.3121907	t o i	-0.23436098
-1.6798308	i o i	-0.22003946
-1.852908	o o i	-0.22003946
-1.7588412	n o i	-0.22003946
-1.6937597	f o i	-0.22003946
-1.0683445	g o i	-0.513124
-1.5425928	s o i	-0.24170282
-1.1838806	p o i	-0.39110738
-1.4300622	d o i	-0.27008593
-1.5006368	r o i	-0.3497147
-1.6426737	c o i	-0.25960463
-1.2939302	u o i	-0.22003946
-1.3420249	b o i	-0.30591968
-1.5163708	h o i	-0.22003946
-1.7246054	m o i	-0.22003946
-0.9648576	j o i	-0.36699593
-1.3908901	z o i	-0.22003946
-1.5669578	k o i	-0.22003946
-0.9226539	<s> n i	-0.5032082
-1.154186	e n i	-0.4307037
-0.26793814	v n i	-0.22003946
-1.0549806	a n i	-0.5264571
-0.949862	t n i	-0.22003946
-1.0938882	i n i	-0.5242363
-1.0438651	o n i	-0.54710084
-0.8650403	n n i	-0.3197515
-0.9995327	g n i	-0.25769392
-1.0673478	s n i	-0.22003946
-0.9054448	d n i	-0.24170282
-1.038541	w n i	-0.24170282
-1.0599236	r n i	-0.28274664
-0.6314025	c n i	-0.22003946
-1.3039752	u n i	-0.29759905
-1.3780998	y n i	-0.22003946
-1.1483625	h n i	-0.22003946
-1.0859643	m n i	-0.23618485
-1.292425	k n i	-0.22003946
-0.78816634	<s> f i	-0.80716187
-0.87582004	e f i	-0.26073027
-0.9510835	l f i	-0.22919181
-1.1529609	a f i	-0.24170282
-0.68389285	t f i	-0.3387859
-0.7168337	i f i	-0.58182395
-0.9357414	o f i	-0.22003946
-0.73417354	n f i	-0.29206803
-0.94000816	f f i	-0.3509069
-0.83903515	s f i	-0.23618485
-0.6103883	d f i	-0.24170282
-0.7087246	w f i	-0.22003946
-1.0438384	r f i	-0.23618485
-0.2540243	b f i	-0.22003946
-0.9636606	y f i	-0.22003946
-0.7176469	h f i	-0.2529537
-0.74087894	m f i	-0.22003946
-0.8058914	k f i	-0.22003946
-1.1711173	<s> g i	-0.46398842
-0.9360613	e g i	-0.25052196
-0.8800369	l g i	-0.22003946
-0.9643885	a g i	-0.42328504
-1.2004704	i g i	-0.23172167
-1.2102236	o g i	-0.25280467
-1.1209768	n g i	-0.30120102
-0.8244082	g g i	-0.37682927
-0.90817845	s g i	-0.22003946
-1.0378772	d g i	-0.2529537
-0.85367835	r g i	-0.2772283
-1.3712761	u g i	-0.22003946
-0.7667099	y g i	-0.24170282
-1.1722898	<s> s i	-0.8049778
-1.1251285	e s i	-0.2744511
-1.1779393	l s i	-0.2385411
-1.1541007	a s i	-0.31652024
-1.1798391	t s i	-0.22003946
-1.2128544	i s i	-0.37014323
-0.9445127	o s i	-0.43040466
-1.2156924	n s i	-0.30623862
-1.3199934	g s i	-0.22003946
-1.0775163	s s i	-0.30407232
-0.8954002	p s i	-0.23436098
-1.1660401	d s i	-0.22003946
-1.0585958	r s i	-0.2650354
-0.98358124	c s i	-0.22003946
-1.0296563	u s i	-0.35602573
-1.2527889	b s i	-0.24170282
-1.0491825	y s i	-0.22003946
-1.4113146	m s i	-0.22003946
-1.2694714	k s i	-0.22003946
-1.1591622	<s> p i	-0.66404814
-0.923551	e p i	-0.24862663
-1.1169351	l p i	-0.24170282
-1.0040728	a p i	-0.30719155
-0.9755616	i p i	-0.29422715
-0.99246705	o p i	-0.35826942
-1.1587933	n p i	-0.22003946
-0.8433407	g p i	-0.22003946
-0.82888985	s p i	-0.3156859
-0.87751734	p p i	-0.29479712
-0.7730185	w p i	-0.22003946
-1.176688	r p i	-0.23618485
-1.0960406	u p i	-0.24616827
-0.97625893	x p i	-0.22003946
-1.1769502	y p i	-0.22003946
-0.7730185	h p i	-0.22003946
-0.92937344	m p i	-0.29422715
-0.68546736	k p i	-0.22003946
-0.49033013	<s> d i	-1.1621761
-0.97901946	e d i	-0.33711863
-0.9846977	l d i	-0.4057327
-0.2689364	v d i	-0.22003946
-0.9823731	a d i	-0.35539904
-0.789075	t d i	-0.22003946
-0.86664027	i d i	-0.4597317
-0.8311838	o d i	-0.38637406
-1.0886791	n d i	-0.311884
-0.9679417	s d i	-0.2529537
-0.8599493	d d i	-0.33124655
-0.95661336	r d i	-0.24160601
-0.8171458	u d i	-0.30617484
-0.96321964	b d i	-0.22003946
-1.1390021	y d i	-0.22003946
-0.7904768	h d i	-0.22003946
-0.62757397	<s> w i	-0.91540486
-0.86291647	e w i	-0.32817256
-0.9947979	l w i	-0.22003946
-1.0784379	a w i	-0.50998604
-0.65987515	t w i	-0.26215932
-0.6490708	i w i	-0.22003946
-1.0045139	o w i	-0.4442224
-0.7791671	n w i	-0.22003946
-0.83715904	s w i	-0.23172167
-0.51298344	p w i	-0.22003946
-0.6935538	d w i	-0.25769392
-1.0492792	r w i	-0.22003946
-0.93343097	y w i	-0.22003946
-0.9064315	h w i	-0.22003946
-1.1708891	k w i	-0.22003946
-1.075799	<s> r i	-0.6459534
-1.0736611	e r i	-0.60129535
-0.9291138	l r i	-0.22003946
-1.1335694	a r i	-0.59972185
-0.79284203	t r i	-0.3745468
-0.96759546	i r i	-0.35326338
-1.0102407	o r i	-0.5050823
-0.98334986	n r i	-0.22003946
-0.71829	f r i	-0.247526
-0.7865508	g r i	-0.247526
-1.0362008	s r i	-0.22003946
-0.6749898	p r i	-0.33413002
-0.7702038	d r i	-0.29330143
-0.5915626	w r i	-0.31258786
-0.8892309	r r i	-0.2785402
-0.7726197	c r i	-0.27630234
-0.95108324	u r i	-0.4841439
-0.5708681	b r i	-0.3206526
-0.7035364	y r i	-0.2385411
-1.0007008	h r i	-0.2329074
-0.84783274	m r i	-0.22003946
-1.0740998	k r i	-0.22003946
-1.5671053	<s> c i	-0.6081238
-1.2726579	e c i	-0.24542089
-1.3121047	l c i	-0.22003946
-0.92733324	a c i	-0.43203253
-0.96347046	i c i	-0.48544756
-1.1113558	o c i	-0.25960463
-1.0398946	n c i	-0.3045444
-0.97812563	s c i	-0.27008593
-0.78552556	p c i	-0.22003946
-1.1104639	r c i	-0.2329074
-1.0469136	c c i	-0.24170282
-0.9517747	u c i	-0.2385411
-1.0531405	x c i	-0.22003946
-1.0849674	y c i	-0.22003946
-1.0698092	m c i	-0.22003946
-1.4384507	l u i	-0.23618485
-1.6671365	t u i	-0.2529537
-1.46668	o u i	-0.2737201
-1.4241798	n u i	-0.24616827
-1.0056809	g u i	-0.26855642
-1.2503183	s u i	-0.41307604
-1.613776	p u i	-0.22003946
-1.4184567	d u i	-0.22003946
-1.2811903	r u i	-0.3302231
-1.5990115	c u i	-0.22003946
-1.1401739	b u i	-0.44617718
-1.6227871	h u i	-0.22003946
-0.59228677	q u i	-0.39096475
-1.4574604	j u i	-0.22003946
-1.1579458	<s> b i	-0.59240466
-1.1754761	e b i	-0.22003946
-1.1010683	l b i	-0.2529537
-0.83455646	a b i	-0.43935326
-1.1988668	t b i	-0.22003946
-0.81942004	i b i	-0.3826449
-1.0675545	o b i	-0.23436098
-1.2686774	n b i	-0.22003946
-1.3666627	s b i	-0.22003946
-0.9614895	d b i	-0.22003946
-1.0477016	r b i	-0.24170285
-0.96666616	u b i	-0.24605092
-0.8557931	b b i	-0.37769374
-1.2265664	y b i	-0.22003946
-1.0418268	h b i	-0.22003946
-1.0419799	m b i	-0.24362077
-1.0700091	e x i	-0.24170282
-0.68773115	a x i	-0.24974863
-0.8986401	i x i	-0.22003946
-0.7279864	o x i	-0.24448834
-0.689944	n x i	-0.22003946
-1.369818	<s> y i	-0.27008593
-1.6400464	e y i	-0.22003946
-1.1243666	l y i	-0.44617718
-1.0630405	v y i	-0.22003946
-1.1582179	a y i	-0.513124
-1.135393	o y i	-0.27008593
-1.2501968	n y i	-0.2529537
-0.6538473	f y i	-0.2529537
-1.1013844	p y i	-0.2529537
-0.9893712	d y i	-0.41307604
-0.8907863	r y i	-0.6561141
-1.3260813	c y i	-0.22003946
-0.9561606	u y i	-0.22003946
-1.3466423	b y i	-0.22003946
-1.0072815	<s> h i	-0.5815152
-1.0272213	e h i	-0.22003946
-1.0535533	l h i	-0.22003946
-1.0812612	a h i	-0.23618485
-1.0673234	t h i	-0.40969902
-0.8992005	i h i	-0.22003946
-1.0472146	o h i	-0.22003946
-1.291259	n h i	-0.22003946
-1.0287546	g h i	-0.2329074
-0.7917836	s h i	-0.39844316
-0.9327987	p h i	-0.32736415
-1.2400688	d h i	-0.22003946
-0.70692235	w h i	-0.2485528
-1.1574297	r h i	-0.22003946
-0.9305659	c h i	-0.40404844
-1.1826118	u h i	-0.22003946
-0.8475451	x h i	-0.22003946
-0.7417486	<s> m i	-1.0262815
-0.90575683	e m i	-0.44981295
-0.90209615	l m i	-0.3387859
-0.8638883	a m i	-0.46702722
-1.417145	t m i	-0.22003946
-0.9263506	i m i	-0.38826275
-0.9867582	o m i	-0.39685786
-1.1717747	n m i	-0.22003946
-1.1529891	g m i	-0.22003946
-0.78175694	s m i	-0.25596425
-0.84869206	d m i	-0.22003946
-0.9202249	r m i	-0.3519176
-0.2597241	c m i	-0.22003946
-1.2426295	u m i	-0.3387859
-0.82679594	b m i	-0.22003946
-1.342049	y m i	-0.22003946
-1.0860633	h m i	-0.22003946
-0.8110031	m m i	-0.30799767
-1.6079743	<s> j i	-0.2307361
-1.0670178	a j i	-0.22003946
-1.199438	n j i	-0.22003946
-0.7046565	u j i	-0.22003946
-0.6680964	<s> z i	-0.22919181
-1.0080683	e z i	-0.22003946
-0.7812847	l z i	-0.22003946
-0.638099	a z i	-0.3197018
-0.9534531	t z i	-0.22003946
-0.6412191	i z i	-0.8110161
-1.1197765	o z i	-0.22003946
-0.9191298	n z i	-0.22003946
-0.24649064	d z i	-0.22003946
-0.8605597	r z i	-0.22003946
-1.013539	u z i	-0.22003946
-0.75911856	z z i	-0.24616827
-0.5570478	<s> k i	-0.56503403
-1.104681	e k i	-0.2529537
-0.8692955	l k i	-0.25960463
-0.79309726	a k i	-0.3668384
-0.772124	t k i	-0.22003946
-0.78212726	i k i	-0.44617718
-1.0227573	o k i	-0.3387859
-0.9470797	n k i	-0.26429978
-0.5544525	s k i	-0.39459276
-0.54633015	p k i	-0.2881373
-0.68645257	w k i	-0.22003946
-0.9190535	r k i	-0.44617718
-1.0361426	c k i	-0.39685786
-0.62263614	y k i	-0.2529537
-0.89628303	h k i	-0.22003946
-1.7409008	l e o	-0.23618485
-1.8729975	v e o	-0.22003946
-1.5086253	a e o	-0.22003946
-1.6504102	t e o	-0.23618485
-1.6740756	o e o	-0.22003946
-1.5532017	n e o	-0.24792774
-1.3387911	g e o	-0.24719378
-2.015004	s e o	-0.22003946
-1.7791872	p e o	-0.24170282
-1.6608095	d e o	-0.23618485
-1.6131309	r e o	-0.23436098
-1.9805717	c e o	-0.22003946
-1.8280814	u e o	-0.22003946
-1.9349098	b e o	-0.22003946
-1.6846125	h e o	-0.24170285
-1.9682081	m e o	-0.22003946
-1.4292164	j e o	-0.22003946
-1.9212763	k e o	-0.22003946
-0.69018203	<s> l o	-0.7081331
-1.1289258	e l o	-0.29901084
-1.109648	l l o	-0.271844
-0.53321147	v l o	-0.22003946
-1.1551361	a l o	-0.31767663
-1.213246	t l o	-0.22003946
-1.1980695	i l o	-0.27913362
-0.9769156	o l o	-0.46378517
-1.1052158	n l o	-0.22003946
-0.8139459	f l o	-0.29645067
-1.1689847	g l o	-0.22535484
-0.90548664	s l o	-0.23209189
-0.98757464	p l o	-0.24801195
-1.2819097	d l o	-0.22003946
-1.1018087	r l o	-0.23172167
-0.8769771	c l o	-0.27684447
-1.089823	u l o	-0.37397835
-0.92130595	b l o	-0.23384131
-0.9227872	y l o	-0.25275502
-0.9937084	h l o	-0.22003946
-1.2359724	m l o	-0.22003946
-0.82572615	<s> v o	-0.592039
-0.8109902	e v o	-0.3222993
-1.2127626	l v o	-0.22003946
-0.8658767	a v o	-0.32543582
-0.85976565	i v o	-0.2385411
-1.4193094	o v o	-0.22003946
-0.84927475	n v o	-0.24809617
-0.8085434	d v o	-0.22003946
-0.87467015	r v o	-0.22003946
-0.5140952	z v o	-0.22003946
-3.1163406	<s> a o	-0.22003946
-2.3078592	l a o	-0.22003946
-2.1832912	t a o	-0.22003946
-2.1028488	i a o	-0.22003946
-2.217444	n a o	-0.22003946
-2.0557241	p a o	-0.22003946
-2.2109916	r a o	-0.22003946
-2.105818	c a o	-0.22003946
-0.89761114	<s> t o	-0.72742736
-1.1350812	e t o	-0.28047234
-1.0134397	l t o	-0.2954947
-1.0778102	a t o	-0.59700525
-0.9158598	t t o	-0.25769392
-1.1826767	i t o	-0.40308484
-1.1432337	o t o	-0.2713622
-1.0792209	n t o	-0.29683933
-1.0757374	f t o	-0.24170282
-0.8018085	g t o	-0.22003946
-0.8632245	s t o	-0.44084907
-1.1528264	p t o	-0.22003946
-1.1082939	r t o	-0.30943716
-0.9540007	c t o	-0.42884627
-1.0764079	u t o	-0.28768831
-1.0421802	x t o	-0.2529537
-0.7970409	y t o	-0.23618485
-1.2751036	h t o	-0.22003946
-0.7095255	k t o	-0.22003946
-1.8191959	<s> i o	-0.38054833
-1.3698157	l i o	-0.32817256
-1.2804425	v i o	-0.2642318
-1.2673686	t i o	-0.5887429
-1.3715901	n i o	-0.3039572
-1.7865844	f i o	-0.22003946
-1.152384	g i o	-0.26855642
-1.158309	s i o	-0.5167731
-1.3201965	p i o	-0.27773055
-1.2471453	d i o	-0.26974043
-1.3546999	r i o	-0.35478395
-1.2498212	c i o	-0.36699593
-1.6344873	u i o	-0.22003946
-1.4835081	b i o	-0.22003946
-0.87985957	x i o	-0.23618485
-1.4265501	h i o	-0.25280467
-0.98963296	z i o	-0.27008593
-1.6846613	k i o	-0.22003946
-2.1946757	<s> o o	-0.24170282
-1.3072472	l o o	-0.28779426
-1.6200054	v o o	-0.22003946
-1.4680535	t o o	-0.23768279
-1.7507212	o o o	-0.22003946
-1.4157062	n o o	-0.2385411
-1.1085327	f o o	-0.25769392
-1.1608696	g o o	-0.24792774
-1.832536	s o o	-0.22003946
-1.447346	p o o	-0.23618485
-1.5748055	d o o	-0.23618485
-0.6088457	w o o	-0.60202736
-1.2097336	r o o	-0.38999894
-1.3486564	c o o	-0.2772283
-1.0845871	b o o	-0.30943716
-1.4646555	y o o	-0.22003946
-1.0785903	h o o	-0.3596536
-1.4719296	m o o	-0.24170285
-1.2321279	z o o	-0.22003946
-1.4555125	k o o	-0.22003946
-0.4899571	<s> n o	-0.7617577
-1.2740136	e n o	-0.27947336
-1.2515519	a n o	-0.35257256
-1.159126	t n o	-0.22003946
-1.1694549	i n o	-0.32887235
-1.4159758	o n o	-0.30556595
-1.0737966	n n o	-0.22714114
-0.7371437	g n o	-0.25280467
-1.2725054	s n o	-0.22003946
-0.6994407	p n o	-0.22003946
-1.0831068	r n o	-0.23757814
-1.7989118	u n o	-0.22003946
-0.5485112	b n o	-0.22003946
-0.7906745	y n o	-0.22003946
-0.7568325	m n o	-0.22003946
-0.6245311	k n o	-0.29479712
-0.6941779	<s> f o	-0.9511908
-1.0720474	e f o	-0.3197018
-1.0754143	l f o	-0.24170282
-1.2651429	a f o	-0.22003946
-0.95145285	t f o	-0.23618485
-1.3403643	i f o	-0.22003946
-1.0628083	o f o	-0.22003946
-0.92113847	n f o	-0.3023936
-0.94000816	f f o	-0.3387859
-0.8058914	g f o	-0.22003946
-0.83903515	s f o	-0.2529537
-0.96225476	d f o	-0.22003946
-0.7087246	w f o	-0.22003946
-1.0438384	r f o	-0.22003946
-0.61101294	y f o	-0.24170282
-0.9066651	h f o	-0.22003946
-0.74087894	m f o	-0.22003946
-0.8058914	k f o	-0.22003946
-0.98925287	<s> g o	-0.47704938
-0.9780996	e g o	-0.26215932
-1.2155415	l g o	-0.22003946
-0.8935421	a g o	-0.3387859
-0.93294144	t g o	-0.22003946
-1.0593473	i g o	-0.2643678
-1.2932012	o g o	-0.24170282
-1.0914556	n g o	-0.25960463
-1.1927781	g g o	-0.22003946
-1.051573	s g o	-0.22003946
-0.7686076	p g o	-0.22003946
-0.9348245	r g o	-0.23436098
-1.3214655	u g o	-0.22003946
-0.46315295	y g o	-0.2329074
-0.4316283	h g o	-0.24170282
-0.5299076	k g o	-0.22003946
-1.1688612	<s> s o	-0.78810835
-1.2365997	e s o	-0.3892385
-0.9082521	l s o	-0.3529013
-1.3357893	a s o	-0.3412522
-1.0621064	t s o	-0.3387859
-1.1111689	i s o	-0.35176054
-1.2994843	o s o	-0.25280467
-1.197648	n s o	-0.29906186
-1.2004251	f s o	-0.22003946
-1.2905269	g s o	-0.22003946
-0.9832523	s s o	-0.32826713
-0.9718924	p s o	-0.24170282
-1.0035915	d s o	-0.26429978
-1.0163674	w s o	-0.22003946
-1.0414675	r s o	-0.25280467
-1.199189	c s o	-0.22003946
-1.5635191	u s o	-0.22003946
-1.2293733	b s o	-0.24170282
-1.3528719	y s o	-0.2529537
-1.2571994	h s o	-0.22003946
-1.2330626	m s o	-0.2529537
-1.2433666	k s o	-0.22003946
-0.88327974	<s> p o	-0.8959837
-1.0840127	e p o	-0.2874436
-0.9558797	l p o	-0.22003946
-0.9958373	a p o	-0.292915
-0.5839281	t p o	-0.22003946
-1.2405113	i p o	-0.24616827
-1.0759143	o p o	-0.2731723
-0.9861983	n p o	-0.22003946
-0.8289124	g p o	-0.22003946
-0.8232223	s p o	-0.2749921
-0.96629274	p p o	-0.24903964
-0.5348882	w p o	-0.22003946
-0.7900801	r p o	-0.24974863
-1.0788933	u p o	-0.41307604
-0.6682801	b p o	-0.22003946
-0.95685977	x p o	-0.22003946
-1.0124482	y p o	-0.22003946
-0.5348882	h p o	-0.22003946
-1.0850935	m p o	-0.24719378
-0.67521644	k p o	-0.2529537
-0.9722319	<s> d o	-0.6651958
-1.402624	e d o	-0.2529537
-1.0416291	l d o	-0.22003946
-1.0684386	a d o	-0.2915638
-0.75915825	t d o	-0.22003946
-1.1693556	i d o	-0.24605092
-1.1621437	o d o	-0.23618485
-1.0539845	n d o	-0.31259656
-0.25981474	f d o	-0.22003946
-0.66706496	g d o	-0.22003946
-0.93585676	s d o	-0.22003946
-1.2307006	d d o	-0.2529537
-0.8776851	w d o	-0.22003946
-1.0184442	r d o	-0.23948723
-0.5245056	c d o	-0.22003946
-1.0156093	u d o	-0.24792774
-0.7257085	b d o	-0.22003946
-1.0849364	y d o	-0.22003946
-0.7608763	h d o	-0.22003946
-0.7608763	m d o	-0.22003946
-0.53398126	k d o	-0.24170282
-0.7947197	<s> w o	-0.80980504
-1.1032432	e w o	-0.3387859
-0.65704757	l w o	-0.27008593
-1.3758268	a w o	-0.22003946
-0.5903982	t w o	-0.3668384
-0.9601625	n w o	-0.2529537
-0.52660215	g w o	-0.2529537
-0.4056906	s w o	-0.4637246
-0.6240243	d w o	-0.41307604
-0.9014834	r w o	-0.24170282
-0.51844054	b w o	-0.22003946
-0.94555837	y w o	-0.22003946
-1.0878966	h w o	-0.22003946
-0.5525644	k w o	-0.2737201
-0.8972889	<s> r o	-0.7727931
-1.2066029	e r o	-0.4291036
-0.72242075	l r o	-0.22003946
-0.6634341	v r o	-0.22003946
-1.2949855	a r o	-0.29809678
-0.7900633	t r o	-0.3688172
-1.0002478	i r o	-0.28140935
-1.2276726	o r o	-0.34257773
-0.80252874	n r o	-0.23618485
-0.7137163	f r o	-0.31755537
-0.67948234	g r o	-0.3361898
-0.85634136	s r o	-0.22003946
-0.5314403	p r o	-0.3686619
-0.7658375	d r o	-0.3028321
-1.0108194	w r o	-0.22003946
-0.88072443	r r o	-0.25080734
-0.7689453	c r o	-0.33223724
-1.3388572	u r o	-0.2307361
-0.68902767	b r o	-0.30491072
-0.6091875	y r o	-0.23436098
-0.8458483	h r o	-0.23209189
-0.83650786	m r o	-0.22003946
-0.52188766	z r o	-0.22003946
-0.72062033	k r o	-0.22003946
-0.37160474	<s> c o	-1.3777125
-1.0491631	e c o	-0.31823713
-0.5904	l c o	-0.2329074
-1.1684896	a c o	-0.24719378
-0.9505739	t c o	-0.24170282
-1.1651372	i c o	-0.4251293
-0.985729	o c o	-0.25280467
-1.0117121	n c o	-0.31470186
-0.9037212	s c o	-0.27716744
-0.53349674	p c o	-0.22003946
-0.82618594	d c o	-0.22003946
-0.943553	r c o	-0.22584131
-0.87321293	c c o	-0.22803713
-1.3436651	u c o	-0.22003946
-0.6664161	b c o	-0.22003946
-0.8345764	x c o	-0.22003946
-0.52516764	y c o	-0.22919181
-0.53349674	h c o	-0.22003946
-1.1455866	m c o	-0.22003946
-1.9877117	l u o	-0.22003946
-1.4217653	t u o	-0.27008593
-1.4888269	n u o	-0.24170282
-1.7309636	g u o	-0.22003946
-1.6874652	d u o	-0.22003946
-1.6766754	c u o	-0.22003946
-1.8452442	b u o	-0.22003946
-0.90371835	q u o	-0.25769392
-0.833025	<s> b o	-0.79017717
-0.9128373	e b o	-0.30799767
-0.775095	l b o	-0.23436098
-0.9340329	a b o	-0.33426073
-0.6766683	t b o	-0.23618485
-1.2324057	i b o	-0.22003946
-1.0393168	o b o	-0.22003946
-1.0710406	n b o	-0.2307361
-0.6580685	f b o	-0.22003946
-0.52724683	g b o	-0.2529537
-0.77285814	s b o	-0.25960463
-0.76152235	d b o	-0.22003946
-0.66555554	w b o	-0.22003946
-0.7838937	r b o	-0.25052196
-1.3547453	u b o	-0.22003946
-1.0677518	b b o	-0.22003946
-0.48066142	y b o	-0.24170282
-0.45955268	h b o	-0.2385411
-0.77251196	m b o	-0.2819559
-0.8140415	k b o	-0.22003946
-1.4021387	e x o	-0.22003946
-1.1714983	a x o	-0.24170282
-1.1131938	i x o	-0.22003946
-1.2858115	o x o	-0.22003946
-0.56678736	<s> y o	-0.43866482
-1.7003324	e y o	-0.22003946
-1.5991346	l y o	-0.22003946
-1.106524	a y o	-0.25280467
-1.3111274	o y o	-0.22003946
-1.4518911	n y o	-0.22003946
-1.3312321	p y o	-0.22003946
-1.3311359	r y o	-0.22003946
-1.3722724	c y o	-0.22003946
-1.1723886	m y o	-0.22003946
-1.3049759	k y o	-0.22003946
-0.6739662	<s> h o	-0.7770735
-0.7497177	e h o	-0.3039572
-0.65314466	l h o	-0.24170282
-0.953075	a h o	-0.22003946
-1.0082709	t h o	-0.33904353
-1.1312643	o h o	-0.22003946
-0.6720442	n h o	-0.24448834
-0.6550339	f h o	-0.22003946
-1.1009473	g h o	-0.24170282
-0.80681074	s h o	-0.343481
-0.81982535	p h o	-0.37347335
-0.460472	d h o	-0.24170282
-0.94526535	w h o	-0.23436098
-0.602136	r h o	-0.22919181
-1.1480504	c h o	-0.27391723
-0.26512507	b h o	-0.22003946
-0.81139123	x h o	-0.22003946
-0.31889948	y h o	-0.22003946
-0.6026614	h h o	-0.22003946
-0.6026614	m h o	-0.2529537
-0.5158076	z h o	-0.22003946
-0.455979	k h o	-0.25280467
-0.75525975	<s> m o	-0.9213442
-1.0302362	e m o	-0.32378852
-0.90889394	l m o	-0.2307361
-1.0745543	a m o	-0.35468394
-0.7652686	t m o	-0.26429978
-1.0070823	i m o	-0.28774324
-0.9911594	o m o	-0.27745572
-1.0028183	n m o	-0.22003946
-0.5283114	f m o	-0.22003946
-0.85686827	s m o	-0.24320908
-0.6940662	d m o	-0.2307361
-1.0242177	r m o	-0.24974863
-1.3422272	u m o	-0.2529537
-1.0856335	y m o	-0.22003946
-0.92902076	h m o	-0.23618485
-0.9227155	m m o	-0.24974863
-0.9535715	k m o	-0.22003946
-0.58590686	<s> j o	-0.43100107
-0.62077206	e j o	-0.22003946
-0.8736974	a j o	-0.22003946
-0.48424	o j o	-0.22003946
-0.8636216	n j o	-0.24170282
-0.69364893	d j o	-0.22003946
-0.69364893	r j o	-0.22003946
-0.39415598	u j o	-0.22003946
-0.67928684	<s> z o	-0.2385411
-1.1889751	e z o	-0.22003946
-0.8135905	l z o	-0.22003946
-1.1126008	a z o	-0.2307361
-1.2145903	i z o	-0.22003946
-0.86891365	o z o	-0.24170282
-1.1034014	n z o	-0.22003946
-0.71352005	r z o	-0.22003946
-0.884043	u z o	-0.2529537
-1.2211881	z z o	-0.22003946
-1.0066345	<s> k o	-0.2783559
-1.2190766	e k o	-0.22003946
-1.2419254	l k o	-0.22003946
-1.2441664	a k o	-0.22003946
-0.75727993	t k o	-0.22003946
-0.8607533	i k o	-0.2307361
-1.0065674	o k o	-0.22003946
-1.1699213	n k o	-0.24170282
-0.25922737	g k o	-0.22003946
-1.0092889	s k o	-0.22003946
-0.52342576	d k o	-0.22003946
-1.2273778	r k o	-0.22003946
-1.1625146	c k o	-0.2329074
-0.25922737	b k o	-0.22003946
-0.6742857	h k o	-0.22003946
-0.25922737	m k o	-0.22003946
-0.25922737	z k o	-0.22003946
-0.72160184	<s> e n	-0.7625197
-1.126374	e e n	-0.37415326
-1.238332	l e n	-0.43770045
-0.91947657	v e n	-0.39326274
-1.4334846	a e n	-0.22003946
-1.0106012	t e n	-0.5796064
-1.0018063	i e n	-0.46380466
-1.3070629	o e n	-0.22003946
-1.513248	n e n	-0.23436098
-1.1048876	f e n	-0.25540745
-0.9552265	g e n	-0.46929058
-1.0761131	s e n	-0.45088226
-0.9866554	p e n	-0.45583043
-0.9702651	d e n	-0.4818645
-1.218657	w e n	-0.24170282
-1.1681471	r e n	-0.47062698
-1.030189	c e n	-0.45955914
-1.0958614	u e n	-0.25283447
-1.2095215	b e n	-0.25109524
-0.9545019	x e n	-0.23618485
-1.3943133	y e n	-0.22003946
-1.1055286	h e n	-0.28008378
-0.82898253	m e n	-0.57706404
-1.3626947	j e n	-0.22003946
-1.1353383	z e n	-0.22919181
-1.0450659	k e n	-0.32138842
-1.7074668	l l n	-0.2529537
-1.9754157	a l n	-0.24170282
-2.0587437	i l n	-0.22003946
-2.2022023	o l n	-0.22003946
-1.9135525	u l n	-0.2529537
-1.8731719	e v n	-0.22003946
-0.90233606	<s> a n	-0.89283526
-1.1120597	e a n	-0.38999894
-0.9530342	l a n	-0.5711547
-0.88371515	v a n	-0.36711013
-1.0004139	t a n	-0.43124622
-0.78732854	i a n	-0.6281997
-1.0643032	o a n	-0.25769392
-1.1218303	n a n	-0.44009084
-1.3681823	f a n	-0.22919181
-1.0655253	g a n	-0.38054833
-0.9983801	s a n	-0.342333
-1.0520543	p a n	-0.30144247
-1.0650121	d a n	-0.29392263
-1.1088927	w a n	-0.2337598
-1.1448971	r a n	-0.5413912
-1.1610833	c a n	-0.380497
-0.8117027	u a n	-0.26429978
-1.0322367	b a n	-0.26818728
-1.1251287	x a n	-0.22003946
-0.76160645	y a n	-0.31414056
-0.9352239	h a n	-0.4223116
-0.8427188	m a n	-0.528937
-1.0909909	j a n	-0.24170282
-0.7443671	z a n	-0.23618485
-1.2978754	k a n	-0.2385411
-2.0521896	e t n	-0.22003946
-1.6133463	l t n	-0.22003946
-1.6880437	a t n	-0.23618485
-1.7324508	i t n	-0.41307604
-1.9420165	o t n	-0.22003946
-1.7355107	n t n	-0.22003946
-1.1187279	f t n	-0.2881373
-1.8541665	s t n	-0.24170282
-1.515495	p t n	-0.2529537
-1.3926425	r t n	-0.24170282
-1.6510804	c t n	-0.22003946
-1.7784181	u t n	-0.22003946
-1.3700467	h t n	-0.22003946
-0.168455	<s> i n	-1.2782321
-0.82682705	e i n	-0.37563393
-0.9494431	l i n	-0.6511444
-1.0400275	v i n	-0.363515
-0.7680217	a i n	-0.56605226
-1.0218695	t i n	-0.56502473
-1.1778787	i i n	-0.22003946
-0.88271105	o i n	-0.3186166
-1.0848163	n i n	-0.44032305
-0.9895875	f i n	-0.32378852
-0.90115774	g i n	-0.42925805
-1.1397371	s i n	-0.4581117
-0.9044407	p i n	-0.4214053
-1.0281062	d i n	-0.5180261
-0.67650867	w i n	-0.3696012
-1.1093711	r i n	-0.50928044
-0.8857299	c i n	-0.3420885
-0.9056004	u i n	-0.32138842
-0.9384699	b i n	-0.40022227
-0.85492426	x i n	-0.25960463
-0.1669923	y i n	-0.740435
-0.99429804	h i n	-0.39424396
-0.94742805	m i n	-0.49464715
-1.0443676	j i n	-0.22003946
-0.85125643	z i n	-0.33124655
-0.6388579	k i n	-0.5278518
-1.6517923	<s> o n	-0.24605092
-0.8976681	e o n	-0.30111837
-1.25132	l o n	-0.3785565
-1.4347088	v o n	-0.24170282
-0.9247676	t o n	-0.5494565
-0.83776635	i o n	-0.6025244
-1.0274212	o o n	-0.49450397
-1.1946657	n o n	-0.28409114
-1.2102667	f o n	-0.2329074
-1.0625991	g o n	-0.2823337
-0.67702127	s o n	-0.5649469
-0.94151264	p o n	-0.3139061
-0.94210917	d o n	-0.34485075
-1.5891664	w o n	-0.22003946
-1.1193696	r o n	-0.4308178
-1.0349879	c o n	-0.39312166
-1.0291088	b o n	-0.27877668
-0.5699496	x o n	-0.25275502
-0.8381803	y o n	-0.24809617
-1.2651184	h o n	-0.29206803
-0.90114987	m o n	-0.468377
-1.4165626	j o n	-0.22003946
-0.75281537	z o n	-0.2443422
-1.2755483	k o n	-0.24170282
-2.647436	<s> n n	-0.22003946
-1.1827995	e n n	-0.57947475
-1.1628449	a n n	-0.5560124
-1.3049839	i n n	-0.5500213
-1.4005647	o n n	-0.41280925
-1.6322947	n n n	-0.22003946
-1.5864298	r n n	-0.22003946
-1.0962102	u n n	-0.46837896
-1.1870178	y n n	-0.24170282
-1.2548475	h n n	-0.22003946
-1.7189065	o f n	-0.22003946
-1.6050051	f f n	-0.2529537
-2.1977217	<s> g n	-0.2737201
-1.7928871	e g n	-0.22003946
-1.4360429	a g n	-0.31258786
-1.1098263	i g n	-0.4091722
-1.2831385	o g n	-0.24170282
-1.7271992	n g n	-0.22003946
-1.4950958	u g n	-0.22003946
-1.6858666	<s> s n	-0.76067483
-1.8557754	e s n	-0.22003946
-1.8520691	a s n	-0.24170282
-2.1118686	i s n	-0.22003946
-1.8033152	s s n	-0.22003946
-1.7451594	p s n	-0.22003946
-1.911337	u s n	-0.22003946
-2.10523	a p n	-0.22003946
-1.6615671	r p n	-0.22003946
-1.4732459	y p n	-0.22003946
-1.4358367	e d n	-0.44617718
-1.4602559	l d n	-0.22003946
-1.4391904	a d n	-0.24616827
-1.6507483	i d n	-0.23618485
-1.8701938	o d n	-0.22003946
-1.6137447	n d n	-0.2529537
-1.4386265	r d n	-0.22003946
-1.7515019	u d n	-0.22003946
-1.2302985	y d n	-0.22003946
-1.7314049	e w n	-0.2529537
-0.9372255	a w n	-0.32851487
-1.0535245	o w n	-0.46369472
-1.420766	e r n	-0.5541116
-1.4079516	a r n	-0.43974602
-1.8074752	i r n	-0.22003946
-1.3840284	o r n	-0.36670804
-1.40533	u r n	-0.38054833
-1.5151709	y r n	-0.22003946
-2.1662855	a c n	-0.22003946
-2.2248256	i c n	-0.22003946
-2.0505383	o c n	-0.22003946
-1.4733365	m c n	-0.22003946
-0.08921706	<s> u n	-1.0760736
-1.4661309	e u n	-0.22003946
-1.0921693	l u n	-0.32851487
-1.021384	a u n	-0.513124
-1.084599	t u n	-0.25482887
-1.4485161	i u n	-0.22003946
-0.9549176	o u n	-0.51181376
-1.2343482	n u n	-0.23618485
-0.8531866	f u n	-0.34300178
-1.2364807	g u n	-0.22803713
-1.3432952	s u n	-0.23172167
-1.233192	p u n	-0.22642577
-1.1985623	d u n	-0.23618485
-0.9935174	w u n	-0.22003946
-0.9506151	r u n	-0.29317528
-1.524679	c u n	-0.22003946
-1.2165606	b u n	-0.2329074
-1.1379412	h u n	-0.25848904
-0.9619147	m u n	-0.26143533
-0.9115921	j u n	-0.25283447
-1.1289833	k u n	-0.22003946
-2.105894	a b n	-0.22003946
-1.925168	o b n	-0.22003946
-1.3369151	e y n	-0.24170282
-0.996465	l y n	-0.32123846
-1.0857505	a y n	-0.3892385
-1.513013	t y n	-0.22003946
-1.4234732	o y n	-0.22003946
-1.019373	g y n	-0.22003946
-0.92529535	s y n	-0.24903964
-1.2958968	d y n	-0.24170282
-1.1222341	w y n	-0.22003946
-1.5665497	r y n	-0.22003946
-1.3137736	c y n	-0.22003946
-0.9497065	u y n	-0.22003946
-0.9172877	h y n	-0.2329074
-1.3192492	m y n	-0.22003946
-1.2578613	k y n	-0.22003946
-1.4891634	a h n	-0.2529537
-1.9656715	t h n	-0.22003946
-0.98656416	i h n	-0.22003946
-0.7751257	o h n	-0.25960463
-1.4373975	g h n	-0.23618485
-1.5850916	s h n	-0.2881373
-1.7908522	c h n	-0.22003946
-0.9075879	u h n	-0.2881373
-1.0824397	e q n	-0.22003946
-1.6105918	e m n	-0.2329074
-1.5030684	l m n	-0.22003946
-1.8951753	a m n	-0.22003946
-1.9442233	i m n	-0.22003946
-1.7618124	o m n	-0.24170282
-1.5958701	r m n	-0.22003946
-1.5870265	u m n	-0.24170282
-1.3645568	y m n	-0.22003946
-0.9642499	<s> k n	-0.5517785
-1.3692333	e k n	-0.22003946
-1.4137841	l k n	-0.22003946
-1.648576	a k n	-0.22003946
-1.5498122	o k n	-0.22003946
-1.3152769	n k n	-0.22003946
-1.6674898	s k n	-0.22003946
-1.5150373	r k n	-0.22003946
-1.3998355	c k n	-0.25960463
-1.5748134	<s> e f	-1.1727439
-1.8228685	e e f	-0.22003946
-1.7216018	l e f	-0.24170282
-1.824451	v e f	-0.22003946
-1.4711064	a e f	-0.22003946
-1.627861	t e f	-0.2329074
-1.4786438	i e f	-0.25024018
-1.330728	o e f	-0.24170282
-1.6298443	n e f	-0.2329074
-1.748601	f e f	-0.22003946
-1.8508906	g e f	-0.22003946
-1.7261534	s e f	-0.25960463
-1.7416961	p e f	-0.22003946
-1.6306931	d e f	-0.24903964
-1.5961617	r e f	-0.29649243
-1.6505494	c e f	-0.24170282
-1.8838556	b e f	-0.22003946
-1.6548622	h e f	-0.24170282
-1.6629257	m e f	-0.22003946
-1.3961662	j e f	-0.22003946
-1.6446574	z e f	-0.22003946
-1.8739362	k e f	-0.22003946
-1.6937757	e l f	-0.23618485
-1.3460072	l l f	-0.27008593
-1.692005	a l f	-0.2307361
-1.865726	i l f	-0.23618485
-1.68251	o l f	-0.2529537
-1.5630431	u l f	-0.2329074
-1.4555619	<s> a f	-0.74608505
-1.658433	e a f	-0.22642577
-2.1817462	l a f	-0.22003946
-1.1157942	a a f	-0.22003946
-1.9211353	t a f	-0.23618485
-1.5640272	o a f	-0.22003946
-1.8038923	n a f	-0.22003946
-1.4609976	s a f	-0.2329074
-1.9041744	w a f	-0.22003946
-1.6349485	r a f	-0.35138196
-1.6799626	c a f	-0.23618485
-1.898379	b a f	-0.22003946
-1.7425758	h a f	-0.2307361
-1.7122005	k a f	-0.22003946
-2.1011353	e t f	-0.22003946
-1.8501112	a t f	-0.24170282
-1.8947978	i t f	-0.24170282
-1.9905813	o t f	-0.22003946
-1.6341153	n t f	-0.22003946
-1.8909491	s t f	-0.24170282
-1.7125113	r t f	-0.22003946
-1.528844	c t f	-0.2529537
-1.9431958	u t f	-0.22003946
-1.162789	b t f	-0.22003946
-1.407412	h t f	-0.22003946
-1.7082729	e i f	-0.22003946
-1.3269523	l i f	-0.31945628
-1.8448249	v i f	-0.22003946
-1.3703694	t i f	-0.38798565
-1.2485174	n i f	-0.27605498
-1.8048046	f i f	-0.22003946
-1.7907329	g i f	-0.22003946
-1.6181282	s i f	-0.25769392
-1.8658048	p i f	-0.22003946
-1.4053153	d i f	-0.26429978
-1.2569305	w i f	-0.27008593
-1.2773002	r i f	-0.3824754
-1.2546281	c i f	-0.31258786
-1.7901428	b i f	-0.22003946
-1.5713987	h i f	-0.22003946
-1.8734607	m i f	-0.22003946
-1.7028601	k i f	-0.22003946
-1.1697572	<s> o f	-1.0661118
-1.7009851	e o f	-0.22003946
-1.9616574	l o f	-0.22003946
-1.866061	t o f	-0.22003946
-1.4781408	o o f	-0.22919181
-1.8199991	n o f	-0.22003946
-1.7391348	s o f	-0.2529537
-1.7612941	p o f	-0.2529537
-1.8757482	d o f	-0.22003946
-1.6543525	w o f	-0.22003946
-2.0358655	r o f	-0.22003946
-1.6881658	c o f	-0.2881373
-1.7672704	b o f	-0.22003946
-1.3255773	y o f	-0.22003946
-1.8316455	h o f	-0.22003946
-1.9132572	m o f	-0.22003946
-1.3225561	k o f	-0.24170282
-1.7493695	e n f	-0.22919181
-2.1673486	a n f	-0.22003946
-1.53791	i n f	-0.32558864
-1.7486297	o n f	-0.24974863
-1.7004399	n n f	-0.22003946
-1.5040752	r n f	-0.24170282
-1.9027488	u n f	-0.22919181
